svm_type c_svc
kernel_type rbf
gamma 0.166667
nr_class 2
total_sv 82
rho -0.514627
label 0 1
nr_sv 46 36
SV
0.4642047751139707 1:0.00012964 2:0.000127673 3:0.000203043 4:248.416 5:1 6:0.305552 
0.485720382570094 1:0.000170767 2:0.000168234 3:0.000267565 4:35.5044 5:1 6:0.262607 
0.5881044357409144 1:0.00253135 2:0.00249447 3:0.0039663 4:88.0741 5:1 6:0.24533 
0.4849997129203985 1:0.00368732 2:0.00363368 3:0.00577763 4:342.713 6:0.307831 
0.4853826744715497 1:0.000681698 2:0.000671744 3:0.00106812 4:22.3413 5:1 6:0.307156 
0.4857371990530317 1:0.000974357 2:0.000960201 3:0.00152668 4:703.597 5:1 6:0.282604 
0.4856406871921728 1:0.000990748 2:0.000976294 3:0.00155237 4:6299.78 5:1 6:0.264179 
1 1:0.00218742 2:0.00215562 3:0.00342745 4:0.109935 5:1 6:0.239398 
1 1:0.00257677 2:0.00253928 3:0.00403756 4:55.4651 5:1 6:0.210996 
0.4857371990530317 1:0.00404723 2:0.00398833 3:0.00634158 4:4277.29 5:1 6:0.183191 
0.4850294908452581 1:0.00258893 2:0.00255129 3:0.00405663 4:1550.29 5:1 6:0.292477 
0.900817227977061 1:0.002455 2:0.00241923 3:0.00384668 4:0.106244 5:1 6:0.249476 
0.4850294908452587 1:0.000534832 2:0.000527039 3:0.000838041 4:3957.22 5:1 6:0.201696 
0.4857387498638338 1:0.0154187 2:0.0151943 3:0.0241595 4:671.407 6:0.142451 
0.4850294908452581 1:0.00184195 2:0.00181516 3:0.00288615 4:736.172 5:1 6:0.177525 
0.4850409890654288 1:0.00198601 2:0.00195712 3:0.00311185 4:1320.77 6:0.156463 
1 1:0.0682257 2:0.0810646 3:0.0610378 4:0.143787 6:0.173082 
0.4502779921123834 1:0.0301034 2:0.0337251 3:0.0337095 4:0.0507099 6:0.188328 
1 1:0.117018 2:0.108719 3:0.131387 4:0.027755 6:0.234013 
1 1:0.0060063 2:0.00591874 3:0.00941122 4:0.171576 5:1 6:0.876525 
1 1:0.28132 2:0.310562 3:0.330281 4:0.683045 6:0.666442 
0.4850409890654288 1:0.103781 2:0.102271 3:0.162615 4:554.091 5:1 6:0.480742 
1 1:0.167226 2:0.148793 3:0.135961 4:0.416349 6:0.323634 
1 1:0.0652701 2:0.0643201 3:0.102272 4:0.595785 5:1 6:1.74744 
1 1:0.090238 2:0.0889245 3:0.141394 4:0.602229 5:1 6:1.97302 
1 1:0.263987 2:0.260145 3:0.41364 4:0.818347 5:1 6:1.70047 
1 1:0.650092 2:0.64063 3:1.01863 4:0.311896 
1 1:0.1275 2:0.117141 3:0.133037 4:0.505194 6:0.639418 
1 1:0.0441007 2:0.0434589 3:0.0691013 4:0.129195 6:0.148332 
0.4856406871921728 1:0.0918304 2:0.0904939 3:0.143889 4:9800.32 5:1 6:0.761462 
0.48566418037834 1:0.00764295 2:0.00753173 3:0.0119758 4:1171.13 5:1 6:0.379683 
0.4849997129203985 1:0.0444007 2:0.0437548 3:0.069572 4:1623.65 5:1 6:2.7676 
0.6814288354496574 1:0.0035169 2:0.00346571 3:0.00551061 4:6.89918 5:1 6:0.107249 
1 1:0.0164988 2:0.0162587 3:0.0258517 4:3.48559 6:3.58551 
1 1:0.44878 2:0.442248 3:0.703192 4:2.86447 6:2.73488 
0.4643663053724466 1:0.760158 2:0.749094 3:1.19109 4:244.948 5:1 6:2.28437 
1 4:2.05757 5:1 
0.5896497797680003 1:0.00520396 2:0.00512862 3:0.00815392 4:2.36597 5:1 6:3.59871 
1 1:0.0165114 2:0.0162711 3:0.0258713 4:1.98455 5:1 6:3.11936 
0.4855322271473897 4:1507 5:1 
1 1:0.021775 2:0.0214584 3:0.0341201 4:1.94094 5:1 6:3.27146 
1 1:0.0177228 2:0.0174649 3:0.02777 4:1.71608 5:1 6:3.04766 
0.7173883550401321 1:0.0332367 2:0.0327535 3:0.0520797 4:0.951844 5:1 6:2.29998 
1 1:0.0360923 2:0.035567 3:0.0565531 4:0.706582 5:1 6:1.9813 
0.55118276773144 1:0.0176816 2:0.0174241 3:0.0277047 4:0.563964 5:1 6:1.7417 
1 1:0.144242 2:0.142143 3:0.226013 4:0.359842 5:1 6:0.698097 
-1 1:0.000244141 3:0.000488281 4:43749000 6:2376.39 
-0.0514527055920528 1:0.455936 2:0.519923 3:0.479592 4:3.72501 6:0.850286 
-1 1:0.000111356 2:0.000109732 3:0.000174493 4:518.578 6:0.169554 
-1 1:0.0155128 2:0.015287 3:0.024307 4:4020.57 6:0.175832 
-1 1:0.00628647 2:0.00619504 3:0.00985038 4:0.0509159 5:1 6:0.360138 
-1 1:2.78818 2:3.14911 3:2.99932 4:21.4678 6:4.6953 
-1 1:0.640638 2:0.731773 3:0.669731 4:7.48687 6:3.48697 
-1 1:0.998574 2:1.13086 3:1.07551 4:222.731 6:1.4945 
-1 1:0.234067 2:0.207914 3:0.18364 4:56.3768 6:0.861797 
-1 1:0.297385 2:0.331474 3:0.338464 4:0.354893 6:0.413199 
-1 1:0.454225 2:0.398009 3:0.32102 4:0.831142 6:0.498021 
-1 1:0.041957 2:0.0413464 3:0.0657423 4:0.206825 5:1 6:0.9764 
-1 1:0.102761 2:0.115317 3:0.111546 4:3.40237 6:1.02277 
-1 1:0.690004 2:0.628031 3:0.589304 4:0.683814 6:0.774783 
-1 1:0.0713055 2:0.0702678 3:0.111728 4:427.03 5:1 6:0.314363 
-1 1:0.21769 2:0.214522 3:0.341098 4:0.746538 6:0.919331 
-1 1:0.0659687 2:0.0650086 3:0.103366 4:423.61 6:0.536241 
-1 1:0.0185485 2:0.0182785 3:0.0290637 4:418.774 6:0.855391 
-1 1:0.746087 2:0.735228 3:1.16904 4:3.30863 5:1 6:2.89297 
-1 1:0.00978947 2:0.00964665 3:0.0153382 4:2.06018 5:1 6:2.39564 
-1 1:0.135133 2:0.133166 3:0.21174 4:2.09117 6:1.27775 
-1 1:0.295531 2:0.29123 3:0.463067 4:1.33523 5:1 6:1.82153 
-0.3664936359237163 1:0.81835 2:0.816694 3:1.37397 4:0.947454 6:1.8312 
-1 1:0.0453358 2:0.0542604 3:0.146943 4:0.450462 6:0.848753 
-1 1:0.156835 2:0.165664 3:0.389775 4:0.45645 6:0.678892 
-1 1:0.0373595 2:0.0368158 3:0.0585386 4:0.222159 5:1 6:0.352585 
-0.7554379962192825 1:0.718161 2:0.707709 3:1.12529 4:2.38845 5:1 6:2.36575 
-1 1:0.0205462 2:0.0202467 3:0.0321937 4:1.4725 5:1 6:2.81808 
-1 1:0.0562723 2:0.0554535 3:0.0881729 4:85.0504 5:1 6:2.37103 
-1 1:0.31727 2:0.316155 3:0.524726 4:0.167792 6:0.036605 
-1 1:0.401027 2:0.39519 3:0.628368 4:0.295901 5:1 6:0.425065 
-1 1:0.0109556 2:0.0107965 3:0.0171661 4:1.97808 5:1 6:3.57589 
-1 1:0.036967 2:0.0364285 3:0.0579228 4:2.11266 5:1 6:3.42447 
-1 1:0.349881 2:0.344789 3:0.548228 4:0.730203 5:1 6:1.13162 
-1 1:0.192419 2:0.189618 3:0.301501 4:0.47154 5:1 6:0.661647 
-1 1:0.0442483 2:0.0436045 3:0.0693327 4:0.535589 5:1 6:1.11664 
