svm_type c_svc
kernel_type rbf
gamma 0.166667
nr_class 2
total_sv 86
rho -0.439765
label 0 1
nr_sv 47 39
SV
0.560770361312434 1:0.00069651 2:0.000686347 3:0.00109142 4:282.736 5:1 6:0.305771 
1 1:0.00120348 2:0.00118592 3:0.00188574 4:71.0003 5:1 6:0.263037 
0.195450072199613 1:0.000755817 2:0.00074482 3:0.00118428 4:0.0237551 6:0.313166 
0.5611213608839049 1:0.00369644 2:0.00364262 3:0.00579196 4:176.141 5:1 6:0.24095 
0.5603764301043794 1:0.00120237 2:0.00118488 3:0.00188392 4:44.6712 5:1 6:0.305873 
0.5599896168980941 1:0.00890848 2:0.00877884 3:0.0139587 4:685.414 6:0.308598 
0.5603764301043794 1:0.00262541 2:0.00258723 3:0.00411379 4:1407.18 5:1 6:0.282266 
0.5605731084246337 1:0.00262755 2:0.00258932 3:0.00411713 4:12599.5 5:1 6:0.264502 
1 1:0.00303632 2:0.00299212 3:0.00475767 4:0.146824 5:1 6:0.238728 
0.7291523006773695 1:0.00364278 2:0.00358975 3:0.00570789 4:110.925 5:1 6:0.211751 
0.5602354339340638 1:1.57058e-05 2:1.54972e-05 3:2.46465e-05 4:8554.57 5:1 6:0.18723 
0.9750783039274389 1:0.0021508 2:0.00211948 3:0.00337005 4:0.126822 5:1 6:0.293144 
1 1:0.00146353 2:0.00144222 3:0.00229317 4:0.0552055 6:0.285409 
1 1:0.00303853 2:0.00299431 3:0.00476104 4:0.14133 5:1 6:0.25345 
0.5605731084246337 1:0.00462338 2:0.00455609 3:0.00724435 4:7914.43 5:1 6:0.19885 
0.559907368188016 1:0.00213934 2:0.00210819 3:0.00335214 4:98.8167 5:1 6:0.178297 
1 1:0.146784 2:0.172311 3:0.138265 4:0.194799 6:0.314699 
1 1:0.0268586 2:0.0218834 3:0.0572826 4:0.0100284 6:0.171654 
1 1:0.0407675 2:0.0401741 3:0.0638785 4:0.0377303 5:1 6:0.367069 
1 1:0.591048 2:0.675184 3:0.620939 4:6.89159 6:2.55081 
0.3532627929755847 1:0.0221567 2:0.0218343 3:0.0347173 4:0.0163841 6:0.165935 
1 1:0.0849503 2:0.0837138 3:0.133108 4:0.21255 5:1 6:0.828044 
0.5600656889367089 1:0.0568318 2:0.0560047 3:0.0890497 4:316.214 5:1 6:0.556107 
1 1:0.234696 2:0.208825 3:0.190815 4:0.280919 6:0.0390596 
1 1:0.0896651 2:0.0883601 3:0.140496 4:0.0820022 6:0.162678 
1 1:0.00255883 2:0.0025216 3:0.00400931 4:0.163237 5:1 6:0.447614 
1 1:0.169353 2:0.166888 3:0.265359 4:0.630178 5:1 6:1.96746 
1 1:0.40354 2:0.397667 3:0.632306 4:0.577544 6:0.903411 
0.5650029865259308 1:0.0152226 2:0.0150011 3:0.0238523 4:738.331 6:0.477884 
1 1:0.384865 2:0.379264 3:0.603044 4:0.107881 6:0.384865 
0.5599324600861435 1:0.129518 2:0.127633 3:0.202941 4:2342.18 5:1 6:0.436799 
0.1431666989213133 1:0.172964 2:0.170446 3:0.271017 4:0.919692 5:1 6:2.80968 
1 1:0.207465 2:0.204445 3:0.325076 4:0.067924 5:1 6:0.207465 
1 1:0.10519 2:0.103659 3:0.164822 4:2.10163 6:3.6216 
1 1:0.707751 2:0.69745 3:1.10897 4:0.284677 
1 4:4.11134 5:1 
1 1:0.0331812 2:0.0326986 3:0.0519915 4:3.15694 5:1 6:3.58732 
1 1:0.065357 2:0.0644059 3:0.102407 4:2.77993 5:1 6:3.1032 
1 1:0.11804 2:0.116322 3:0.184956 4:0.670392 5:1 6:2.10813 
1 1:0.395801 2:0.39004 3:0.620179 4:0.543028 5:1 6:1.6794 
0.5602875768284744 4:3009.48 5:1 
1 1:0.0728981 2:0.0718369 3:0.114224 4:2.57277 5:1 6:3.28613 
0.7896263671928525 1:0.0179563 2:0.017695 3:0.0281353 4:2.29047 5:1 6:3.07436 
1 1:0.0257385 2:0.0253634 3:0.0403292 4:1.59766 5:1 6:2.54932 
1 1:0.0334153 2:0.0329294 3:0.0523589 4:1.25512 5:1 6:2.28345 
1 1:0.0130658 2:0.0128757 3:0.0204728 4:0.929847 5:1 6:2.02392 
1 1:0.0204445 2:0.020147 3:0.0320342 4:0.754729 5:1 6:1.74916 
-1 1:4752.21 2:4999.93 3:5443.66 4:43749100 6:4752.5 
-1 1:1.07586 2:1.21798 3:1.16185 4:6.67254 6:1.84415 
-1 1:0.0188081 2:0.0185343 3:0.0294703 4:1037.15 6:0.160262 
-1 1:0.03768 2:0.0371316 3:0.0590407 4:69.3168 6:0.141479 
-1 1:0.00522667 2:0.00515068 3:0.00818968 4:0.0751412 5:1 6:0.369038 
-0.9556332414006063 1:1.70236 2:1.9275 3:1.83181 4:7.01363 6:1.05594 
-1 1:0.0871341 2:0.10782 3:0.0626802 4:342.819 6:2.53664 
-1 1:0.346786 2:0.380809 3:0.413883 4:0.543787 6:0.883978 
-1 1:1.58611 2:1.39643 3:1.16352 4:111.953 6:1.88892 
-1 1:0.0621087 2:0.0651143 3:0.128121 4:0.00836507 6:0.148049 
-1 1:0.102917 2:0.10142 3:0.161261 4:0.249758 5:1 6:0.882984 
-0.5193152251453617 1:1.37356 2:1.55623 3:1.47826 4:2.76739 6:0.233233 
-1 1:0.316226 2:0.311624 3:0.495495 4:0.154194 6:0.485158 
-1 1:0.169557 2:0.167089 3:0.265678 4:0.0209391 
-1 1:0.0172289 2:0.0169782 3:0.026996 4:743.853 5:1 6:0.251672 
-1 1:0.179792 2:0.177175 3:0.281716 4:0.753673 5:1 6:1.59227 
-1 1:0.279749 2:0.275678 3:0.438339 4:1.0742 5:1 6:1.82459 
-1 1:0.557825 2:0.549707 3:0.874056 4:0.418589 6:0.371179 
-1 1:0.49742 2:0.515274 3:0.977645 4:0.487182 6:0.263207 
-1 1:0.244489 2:0.240931 3:0.38309 4:0.30927 6:0.959087 
-1 1:0.247383 2:0.243782 3:0.387623 4:0.176152 5:1 6:0.793323 
-1 1:0.0249436 2:0.0245805 3:0.039084 4:5.27234 5:1 6:2.13441 
-1 1:0.0730526 2:0.0719895 3:0.114467 4:2.13063 5:1 6:2.42238 
-1 1:0.483829 2:0.476787 3:0.758111 4:1.22772 5:1 6:2.35898 
-1 1:0.261042 2:0.278034 3:0.594663 4:1.09583 6:1.14337 
-1 1:0.222548 2:0.197511 3:0.176512 4:0.433696 6:0.782815 
-1 1:0.291287 2:0.287048 3:0.456418 4:0.511486 5:1 6:0.690083 
-1 1:0.239807 2:0.236317 3:0.375753 4:0.236704 5:1 6:0.509848 
-1 1:0.887079 2:0.874168 3:1.38996 4:3.81028 6:3.6272 
-1 1:0.909901 2:0.896658 3:1.42572 4:486.801 5:1 6:3.49948 
-1 1:0.235522 2:0.232094 3:0.369039 4:2.13519 5:1 6:3.20167 
-1 1:0.0152984 2:0.0150752 3:0.0239706 4:1.96213 5:1 6:2.83098 
-1 1:0.0252688 2:0.0249009 3:0.0395942 4:170.001 5:1 6:2.43994 
-1 1:0.0480777 2:0.0473779 3:0.0753328 4:0.242084 5:1 
-1 1:0.0402629 2:0.0396762 3:0.0630884 4:2.61011 5:1 6:3.58506 
-1 1:0.00507784 2:0.00500369 3:0.0079565 4:2.79405 5:1 6:3.39004 
-1 1:0.592401 2:0.583779 3:0.928231 4:0.473334 5:1 6:0.557866 
-1 1:0.0661608 2:0.0651979 3:0.103667 4:0.526149 5:1 6:1.12781 
-1 1:0.202478 2:0.199531 3:0.317263 4:0.333567 5:1 6:0.655094 
