svm_type c_svc
kernel_type rbf
gamma 0.166667
nr_class 2
total_sv 44
rho -0.908459
label 0 1
nr_sv 40 4
SV
0.06691005702991848 1:1.81794e-06 2:1.84774e-06 3:2.86102e-06 4:62.1068 5:1 6:0.305454 
0.01341222335085467 1:0.000262201 2:0.000258416 3:0.000410795 4:8.87825 5:1 6:0.263705 
0.1394320376244183 1:0.000919044 2:0.000905633 3:0.00143999 4:22.0204 5:1 6:0.242921 
0.09146836832998118 1:0.000801086 2:0.000789434 3:0.00125518 4:174.911 6:0.307691 
0.03806308404221641 1:0.000839502 2:0.000827402 3:0.00131565 4:9.20625 5:1 6:0.30577 
0.0916664181318253 1:0.00175709 2:0.00173149 3:0.00275323 4:370.589 5:1 6:0.283916 
0.09161324483427688 1:0.00143874 2:0.00141788 3:0.00225443 4:181.71 5:1 6:0.298242 
0.03719541056838593 1:0.000175059 2:0.00017257 3:0.00027433 4:60.4128 5:1 6:0.212002 
0.09111069144533024 1:0.000738949 2:0.00072816 3:0.00115785 4:2024.58 5:1 6:0.185959 
0.09153004768894635 1:0.000144958 2:0.000142872 3:0.000227064 4:3286.61 5:1 6:0.262765 
0.09163973385736968 1:0.00146297 2:0.00144163 3:0.00229222 4:817.812 5:1 6:0.291984 
0.09159379653914079 1:0.0001176 2:0.000115857 3:0.000184238 4:2153.97 5:1 6:0.201576 
0.09162541054261839 1:0.00341724 2:0.0033675 3:0.00535446 4:167.854 6:0.140008 
0.0910164682504811 1:0.00011313 2:0.000111505 3:0.000177234 4:197.04 5:1 6:0.178032 
0.06085638110016466 1:0.991649 2:1.12621 3:1.05787 4:6.77437 6:0.166774 
0.09184018757127826 1:1.17421e-05 2:1.15782e-05 3:1.8388e-05 4:624.756 6:0.153022 
0.09102043194636528 1:0.163415 2:0.185341 3:0.174861 4:321.296 6:0.418454 
0.09159183381134939 1:0.0674907 2:0.0771759 3:0.0713035 4:2132.85 6:0.549066 
0.005507156025882311 1:1.05188 2:1.19462 3:1.11516 4:7.97384 6:1.56113 
0.06196899945561751 1:0.11828 2:0.133854 3:0.127207 4:7.74519 6:2.9604 
0.1204594396497861 1:0.685066 2:0.679222 3:0.686178 4:19.4005 6:0.488244 
0.08486421127301891 1:0.260985 2:0.295099 3:0.281209 4:57.4798 6:1.39361 
0.2148050684570577 1:0.251653 2:0.265561 3:0.337217 4:2.80182 6:1.17914 
0.6791186197668724 1:0.122622 2:0.123356 3:0.183078 4:1.01546 6:0.514772 
0.0917226247423627 1:0.00322765 2:0.00318068 3:0.00505733 4:138.625 5:1 6:0.518389 
0.09172059454948789 1:0.00294811 2:0.0029051 3:0.0046193 4:1574.34 6:0.446642 
0.06292175660217367 1:0.0391961 2:0.0386256 3:0.0614163 4:106.773 5:1 6:0.347114 
0.06292175660217361 1:0.0207219 2:0.0204202 3:0.0324689 4:104.864 6:0.677005 
0.09159183381134939 1:0.0504372 2:0.0497029 3:0.0790299 4:2450.12 5:1 6:0.770202 
0.09171254606190876 1:0.0261731 2:0.0257922 3:0.0410105 4:292.85 5:1 6:0.398923 
0.09152598905340692 1:0.00712156 2:0.00701809 3:0.0111575 4:876.49 5:1 6:2.75291 
0.09183699784207322 1:0.0842035 2:0.0829782 3:0.131938 4:241.323 5:1 6:2.75723 
0.07448077727627499 1:0.445383 2:0.438901 3:0.697869 4:11.3991 6:1.85815 
0.1802127675651707 1:0.214504 2:0.219034 3:0.310621 4:1.84215 6:1.29695 
0.1254514389110424 1:0.00188134 2:0.00185396 3:0.00294788 4:2.01834 5:1 6:0.115079 
0.01509290435312333 1:0.0103953 2:0.0102439 3:0.0162892 4:0.440854 6:3.39852 
0.09152818945448304 1:0.19586 2:0.19301 3:0.306894 4:233.541 5:1 6:2.45752 
0.09261416793511296 1:0.108059 2:0.102989 3:0.141761 4:35.1155 6:2.18724 
0.03271701009674443 1:0.00471354 2:0.00464511 3:0.00738573 4:0.973106 5:1 6:3.59499 
0.0916393238499561 1:0.0208516 2:0.0205482 3:0.0326724 4:616.267 5:1 6:0.0208516 
-1 1:1188.05 2:1249.98 3:1360.92 4:39842800 6:1782.36 
-1 1:2.16441 2:2.45104 3:2.31632 4:38.8497 6:5.72942 
-1 1:1.57422 2:1.57402 3:1.60022 4:22.3667 6:2.89958 
-1 1:0.222271 2:0.219036 3:0.348276 4:1.5554 6:0.619714 
