svm_type c_svc
kernel_type rbf
gamma 0.166667
nr_class 2
total_sv 81
rho -0.49269
label 0 1
nr_sv 47 34
SV
0.5070689706784144 1:6.41644e-05 2:6.32107e-05 3:0.000100553 4:124.211 5:1 6:0.305423 
0.5086952970542211 1:0.000447288 2:0.000440747 3:0.000700831 4:44.0389 5:1 6:0.243617 
0.5070999984782562 1:0.00180519 2:0.00177887 3:0.00282857 4:349.818 6:0.307792 
0.7259810813500167 1:0.00041154 2:0.00040549 3:0.000644803 4:18.4096 5:1 6:0.306403 
0.5073705812842304 1:0.00186518 2:0.001838 3:0.00292253 4:385.677 5:1 6:0.281226 
0.5073722064059403 1:0.0015476 2:0.00152507 3:0.00242493 4:6573.22 5:1 6:0.262136 
0.5875314262712538 1:0.000913277 2:0.0009 3:0.00143102 4:27.7419 5:1 6:0.211371 
0.4941972621488885 1:2.59876e-05 2:2.563e-05 3:4.07398e-05 4:363.418 5:1 6:0.299694 
0.507168897120772 1:1.08629e-05 2:1.06841e-05 3:1.69873e-05 4:4049.15 5:1 6:0.185225 
0.5070999978821012 1:0.000648439 2:0.000639021 3:0.00101599 4:775.148 5:1 6:0.293123 
0.5076231730145166 1:5.94109e-05 2:5.85318e-05 3:9.30727e-05 4:4307.94 5:1 6:0.201488 
0.4555599048496912 1:0.00369936 2:0.00364555 3:0.00579655 4:335.706 6:0.138441 
0.4941972621489064 1:0.00105381 2:0.00103848 3:0.0016512 4:368.087 5:1 6:0.177392 
0.507489922177813 1:0.170859 2:0.194859 3:0.179895 4:640.072 6:0.340469 
0.507168897120772 1:0.00884511 2:0.00871637 3:0.0138594 4:660.387 6:0.148611 
1 1:0.0160173 2:0.0185044 3:0.0160736 4:0.122756 6:0.223212 
0.5259131730146074 1:0.649052 2:0.735306 3:0.698785 4:7.23123 6:2.5176 
0.6805267928899488 1:0.0447326 2:0.0364254 3:0.00976835 4:0.0402736 6:0.220236 
0.6341794772787831 1:0.0353803 2:0.0348653 3:0.0554372 4:0.127556 5:1 6:0.838142 
1 1:0.0816221 2:0.0962065 3:0.0752634 4:1.09327 6:0.888724 
1 1:0.228466 2:0.268904 3:0.212141 4:0.770231 6:1.18389 
0.5076231730145166 1:0.0220309 2:0.0217103 3:0.0345203 4:277.112 5:1 6:0.510601 
1 1:0.0174683 2:0.0155344 3:0.0141853 4:0.400747 6:0.222553 
1 1:0.106184 2:0.104638 3:0.166379 4:0.0693592 6:0.102887 
0.5073722064059403 1:0.00433636 2:0.00427324 3:0.00679469 4:3148.66 5:1 6:0.441525 
1 1:0.0584159 2:0.0575658 3:0.0915318 4:213.522 5:1 6:0.337126 
1 1:0.0358603 2:0.0353386 3:0.0561895 4:0.430106 5:1 6:1.75067 
1 1:0.0358797 2:0.0353575 3:0.0562203 4:0.472078 5:1 6:1.96378 
1 1:0.0738729 2:0.0751123 3:0.134119 4:0.506051 6:0.64954 
1 1:0.00953126 2:0.00819486 3:0.00549787 4:0.11546 6:0.179913 
0.5070999984969411 1:0.00843537 2:0.0083127 3:0.0132174 4:4900.2 5:1 6:0.723982 
0.5072605307160142 1:0.000773191 2:0.000761032 3:0.00121069 4:811.862 5:1 6:2.74617 
1 1:0.0229384 2:0.0226045 3:0.0359421 4:3.49153 5:1 6:0.128429 
0.3783443636795756 1:0.0298145 2:0.0293806 3:0.0467153 4:0.693984 6:3.40303 
1 1:0.0214956 2:0.0211825 3:0.0336809 4:2.13967 6:3.59875 
0.455347087039239 1:0.0221438 2:0.021822 3:0.0346975 4:338.111 5:1 6:2.64231 
1 1:0.0495815 2:0.0488601 3:0.0776882 4:1.86959 5:1 6:2.77441 
1 1:0.255242 2:0.244954 3:0.348154 4:0.846792 6:1.36055 
1 1:0.266576 2:0.264447 3:0.431495 4:0.362883 6:0.461816 
1 1:0.0317911 2:0.0313285 3:0.0498135 4:1.03639 5:1 6:0.0317911 
1 1:0.213346 2:0.21024 3:0.334291 4:1.71011 5:1 6:3.19264 
0.1675019113588241 1:0.0104721 2:0.0103195 3:0.0164075 4:1.29718 5:1 6:3.13809 
0.507060236462718 4:1231.21 5:1 
1 1:0.00908303 2:0.00895095 3:0.0142324 4:0.637773 5:1 6:2.27428 
0.2248748234707714 1:0.0107728 2:0.0106161 3:0.0168798 4:0.376511 5:1 6:1.73977 
1 1:0.215118 2:0.211987 3:0.337067 4:0.391518 5:1 6:1.35388 
1 1:0.136058 2:0.134078 3:0.21319 4:0.328245 5:1 6:0.762035 
-1 1:1188.05 2:1249.98 3:1360.91 4:44920800 6:3564.44 
-1 1:0.160338 2:0.177194 3:0.184882 4:12.91 6:1.23859 
-1 1:0.627 2:0.714139 3:0.66124 4:2070.02 6:0.795076 
-1 1:0.29193 2:0.334704 3:0.300662 4:0.922727 6:0.655211 
-1 1:0.527611 2:0.597827 3:0.566937 4:28.0445 6:3.82882 
-1 1:0.388959 2:0.504733 3:0.653744 4:38.0235 6:1.36779 
-1 1:0.678389 2:0.771047 3:0.720724 4:112.828 6:1.3154 
-1 1:0.0802496 2:0.0926641 3:0.0806731 4:0.274106 6:0.481642 
-1 1:0.0986698 2:0.0861606 3:0.0677192 4:0.706128 6:0.626464 
-1 1:0.0878117 2:0.147078 3:0.0617931 4:3.12557 6:0.883582 
-1 1:0.0330892 2:0.0522991 3:0.013401 4:1.13602 6:0.653938 
-1 1:1.79116 2:1.80851 3:1.91592 4:15.9655 6:2.22094 
-1 1:0.0379502 2:0.0373976 3:0.059464 4:0.573873 5:1 6:1.87042 
-1 1:0.360859 2:0.355607 3:0.565429 4:0.701248 6:0.449627 
-1 1:0.0310466 2:0.0305948 3:0.0486469 4:0.397671 6:0.356092 
-1 1:0.191592 2:0.188804 3:0.300206 4:212.209 6:0.694849 
-1 1:0.296779 2:0.29246 3:0.465022 4:209.526 6:0.549338 
-1 1:0.0984688 2:0.0970356 3:0.154291 4:585.614 5:1 6:0.47433 
-1 1:0.306195 2:0.301739 3:0.479776 4:481.663 5:1 6:2.82612 
-1 1:0.174426 2:0.171888 3:0.273308 4:20.7408 6:2.21632 
-1 1:0.403566 2:0.397692 3:0.632346 4:1.70064 6:0.880667 
-0.4347286518136733 1:0.736397 2:0.725679 3:1.15386 4:1.69657 6:0.473787 
-1 1:0.0354248 2:0.034909 3:0.0555067 4:1.12637 5:1 6:1.93387 
-1 1:0.109012 2:0.11222 3:0.213592 4:0.956051 6:1.53104 
-1 1:0.106943 2:0.104339 3:0.15824 4:0.462361 6:0.978364 
-1 1:0.0861218 2:0.0865325 3:0.176296 4:0.403481 6:0.843431 
-1 1:0.0670469 2:0.0660711 3:0.105056 4:0.233138 5:1 6:0.438311 
-1 1:0.235209 2:0.231786 3:0.368549 4:2.46017 6:3.19448 
-1 1:0.0225241 2:0.0221958 3:0.0352926 4:0.982209 5:1 6:2.80583 
-1 1:0.207745 2:0.211716 3:0.380627 4:69.7201 6:2.19142 
-1 1:0.082596 2:0.0813939 3:0.129419 4:0.301306 5:1 6:0.307148 
-1 1:0.00873232 2:0.008605 3:0.0136833 4:1.32433 5:1 6:3.57914 
-1 1:0.275048 2:0.271045 3:0.430973 4:0.578986 5:1 6:1.58161 
-1 1:0.248618 2:0.244999 3:0.389559 4:0.444855 5:1 6:0.509239 
