svm_type c_svc
kernel_type rbf
gamma 0.166667
nr_class 2
total_sv 56
rho -0.765973
label 0 1
nr_sv 41 15
SV
0.2236680750136432 1:0.00012964 2:0.000127673 3:0.000203043 4:248.416 5:1 6:0.305552 
0.2344657746868743 1:0.000170767 2:0.000168234 3:0.000267565 4:35.5044 5:1 6:0.262607 
0.1659435675694789 1:0.00494266 2:0.00487071 3:0.00774467 4:0.0177214 6:0.307846 
0.0512688064527923 1:0.000139922 2:0.00013788 3:0.000219285 4:0.0085861 5:1 6:0.216459 
0.8768538827317532 1:0.00540832 2:0.00532962 3:0.00847432 4:0.00679493 5:1 6:0.18868 
0.2124108480457371 1:0.00253135 2:0.00249447 3:0.0039663 4:88.0741 5:1 6:0.24533 
0.2339696072779301 1:0.00368732 2:0.00363368 3:0.00577763 4:342.713 6:0.307831 
0.2342883707661099 1:0.000681698 2:0.000671744 3:0.00106812 4:22.3413 5:1 6:0.307156 
0.2339152948058188 1:0.000974357 2:0.000960201 3:0.00152668 4:703.597 5:1 6:0.282604 
0.2341511404597019 1:0.000990748 2:0.000976294 3:0.00155237 4:6299.78 5:1 6:0.264179 
0.9063183387572216 1:0.00257677 2:0.00253928 3:0.00403756 4:55.4651 5:1 6:0.210996 
0.2340294327300849 1:0.00404723 2:0.00398833 3:0.00634158 4:4277.29 5:1 6:0.183191 
0.233974824444351 1:0.00258893 2:0.00255129 3:0.00405663 4:1550.29 5:1 6:0.292477 
0.2340697368437693 1:0.000534832 2:0.000527039 3:0.000838041 4:3957.22 5:1 6:0.201696 
0.2339351871397473 1:0.0154187 2:0.0151943 3:0.0241595 4:671.407 6:0.142451 
0.2338892466752845 1:0.00184195 2:0.00181516 3:0.00288615 4:736.172 5:1 6:0.177525 
0.2340697368437694 1:0.00198601 2:0.00195712 3:0.00311185 4:1320.77 6:0.156463 
0.2342476850524404 1:0.000111356 2:0.000109732 3:0.000174493 4:518.578 6:0.169554 
0.679369631025199 1:0.041957 2:0.0413464 3:0.0657423 4:0.206825 5:1 6:0.9764 
0.9866988534444603 1:0.102761 2:0.115317 3:0.111546 4:3.40237 6:1.02277 
0.6150545135570586 1:0.587608 2:0.650172 3:0.682281 4:1.1649 6:0.914653 
0.2337012270070043 1:0.103781 2:0.102271 3:0.162615 4:554.091 5:1 6:0.480742 
0.2066951237908947 1:0.0713055 2:0.0702678 3:0.111728 4:427.03 5:1 6:0.314363 
0.2061248256718204 1:0.090238 2:0.0889245 3:0.141394 4:0.602229 5:1 6:1.97302 
1 1:0.263987 2:0.260145 3:0.41364 4:0.818347 5:1 6:1.70047 
0.2290808198286717 1:0.0659687 2:0.0650086 3:0.103366 4:423.61 6:0.536241 
0.2339152948058188 1:0.0918304 2:0.0904939 3:0.143889 4:9800.32 5:1 6:0.761462 
0.2341369656201842 1:0.00764295 2:0.00753173 3:0.0119758 4:1171.13 5:1 6:0.379683 
0.233738405490895 1:0.0444007 2:0.0437548 3:0.069572 4:1623.65 5:1 6:2.7676 
0.3669983056507782 1:0.0035169 2:0.00346571 3:0.00551061 4:6.89918 5:1 6:0.107249 
0.1692971347702051 1:0.0164988 2:0.0162587 3:0.0258517 4:3.48559 6:3.58551 
0.5295685887888604 1:0.44878 2:0.442248 3:0.703192 4:2.86447 6:2.73488 
0.2239049619690788 1:0.760158 2:0.749094 3:1.19109 4:244.948 5:1 6:2.28437 
1 1:0.718161 2:0.707709 3:1.12529 4:2.38845 5:1 6:2.36575 
0.212322253283425 1:0.0562723 2:0.0554535 3:0.0881729 4:85.0504 5:1 6:2.37103 
1 1:0.775395 2:0.76411 3:1.21497 4:0.821885 6:0.717611 
0.6281913946045157 1:0.401027 2:0.39519 3:0.628368 4:0.295901 5:1 6:0.425065 
0.1349784056636418 4:2.05757 5:1 
0.3631128118120598 1:0.00520396 2:0.00512862 3:0.00815392 4:2.36597 5:1 6:3.59871 
0.03330623150825649 1:0.00479484 2:0.00472522 3:0.00751209 4:0.58972 5:1 6:2.8072 
0.2343346954106637 4:1507 5:1 
-1 1:0.000244141 3:0.000488281 4:43749000 6:2376.39 
-1 1:0.455936 2:0.519923 3:0.479592 4:3.72501 6:0.850286 
-1 1:0.0155128 2:0.015287 3:0.024307 4:4020.57 6:0.175832 
-1 1:0.00628647 2:0.00619504 3:0.00985038 4:0.0509159 5:1 6:0.360138 
-1 1:2.78818 2:3.14911 3:2.99932 4:21.4678 6:4.6953 
-1 1:0.640638 2:0.731773 3:0.669731 4:7.48687 6:3.48697 
-1 1:0.998574 2:1.13086 3:1.07551 4:222.731 6:1.4945 
-1 1:0.234067 2:0.207914 3:0.18364 4:56.3768 6:0.861797 
-1 1:0.690004 2:0.628031 3:0.589304 4:0.683814 6:0.774783 
-1 1:0.0185485 2:0.0182785 3:0.0290637 4:418.774 6:0.855391 
-1 1:0.746087 2:0.735228 3:1.16904 4:3.30863 5:1 6:2.89297 
-1 1:0.00978947 2:0.00964665 3:0.0153382 4:2.06018 5:1 6:2.39564 
-1 1:0.81835 2:0.816694 3:1.37397 4:0.947454 6:1.8312 
-1 1:0.349881 2:0.344789 3:0.548228 4:0.730203 5:1 6:1.13162 
-1 1:0.192419 2:0.189618 3:0.301501 4:0.47154 5:1 6:0.661647 
