svm_type c_svc
kernel_type rbf
gamma 0.166667
nr_class 2
total_sv 42
rho -0.969649
label 0 1
nr_sv 41 1
SV
0.03042070245094477 1:0.000225812 2:0.000222564 3:0.000353873 4:44.6233 5:1 6:0.30568 
0.01317998628028796 1:0.000386953 2:0.000381351 3:0.000606358 4:8.71765 5:1 6:0.263961 
0.02971494773515726 1:0.000595242 2:0.000586584 3:0.000932664 4:19.654 5:1 6:0.243976 
0.02346730339295855 1:0.000216573 2:0.000213504 3:0.000339448 4:87.4561 6:0.307074 
0.02098060427790969 1:0.0001387 2:0.000136703 3:0.000217348 4:11.1621 5:1 6:0.306051 
0.0135080978912318 1:0.000101611 2:0.000100121 3:0.000159234 4:0.00174074 5:1 6:0.191785 
0.02712434170758645 1:0.000177741 2:0.000175118 3:0.000278562 4:90.8559 5:1 6:0.299139 
0.03005523586783725 1:0.000970885 2:0.000956759 3:0.00152129 4:30.2168 5:1 6:0.210944 
0.03057462062577304 1:0.000775784 2:0.000764474 3:0.00121555 4:1676.76 5:1 6:0.186365 
0.03053016740018832 1:0.0010556 2:0.00104025 3:0.00165403 4:185.295 5:1 6:0.284093 
0.03053016740018832 1:0.000269204 2:0.00026533 3:0.000421911 4:2322.55 5:1 6:0.262568 
0.03051294694820739 1:0.000565588 2:0.000557363 3:0.000886172 4:408.907 5:1 6:0.29215 
0.03049676093419695 1:0.000300065 2:0.000295728 3:0.000470102 4:1614.39 5:1 6:0.201817 
0.03049517182223371 1:0.000658348 2:0.000648767 3:0.00103158 4:98.5204 5:1 6:0.177317 
0.03053016740018832 1:0.00248869 2:0.00245249 3:0.0038995 4:312.38 6:0.155517 
0.0271997201434542 1:0.00335668 2:0.00330783 3:0.0052596 4:83.9289 6:0.141656 
0.03049645121970668 1:0.0578484 2:0.0653083 3:0.0628289 4:275.194 6:0.278899 
0.03042145558530401 1:0.148671 2:0.168999 3:0.157852 4:1074 6:0.663992 
0.01072846030962329 1:0.000199832 2:0.000196941 3:0.000313118 4:0.00284255 6:0.114038 
0.03014663296056186 1:1.17517 2:1.33232 3:1.2527 4:36.4142 6:3.47205 
0.01966410317536045 1:0.00863934 2:0.00972462 3:0.00974321 4:7.19532 6:2.9099 
0.006580740158573906 1:0.377947 2:0.37641 3:0.395186 4:9.89383 6:0.452831 
0.03053016740018832 1:0.168714 2:0.189285 3:0.187488 4:5363.59 6:1.69282 
0.02005737696197374 1:0.218466 2:0.229892 3:0.29339 4:2.84205 6:0.834848 
0.03014174877365375 1:0.0330659 2:0.0325848 3:0.051811 4:69.3733 5:1 6:0.553069 
0.0304425754659941 1:2.07703 2:2.16466 3:2.3276 4:64.1722 6:4.1895 
0.02996941851443596 1:0.0038172 2:0.00376159 3:0.00598103 4:787.173 6:0.448985 
0.01641819671635632 1:0.0262584 2:0.0258763 3:0.0411443 4:60.2599 5:1 6:0.353775 
0.01686554927378348 1:0.155119 2:0.155266 3:0.262007 4:60.3254 6:0.399931 
0.03020331988871237 1:0.0987065 2:0.09727 3:0.154663 4:52.5421 6:0.58866 
0.03047196133568286 1:0.0155656 2:0.015339 3:0.0243896 4:1225.08 5:1 6:0.729418 
0.03042327631759306 1:0.0680612 2:0.0670707 3:0.106645 4:283.538 5:1 6:0.343948 
0.03049676093419706 1:0.00285387 2:0.00281239 3:0.0044713 4:438.337 5:1 6:2.7522 
0.02528750393311235 1:0.175613 2:0.173057 3:0.275168 4:120.897 5:1 6:2.89074 
0.007883906862834765 1:0.0183761 2:0.0181086 3:0.0287938 4:6.62739 6:2.09922 
0.01107330585706898 1:0.00961423 2:0.00947309 3:0.0150633 4:0.72739 6:3.58587 
0.002110955713905516 1:0.0357049 2:0.0351853 3:0.0559468 4:1.94961 6:2.97149 
0.02558140032285006 1:0.118671 2:0.116945 3:0.185945 4:117.787 5:1 6:2.67412 
0.02926840184488395 1:0.0416379 2:0.0427804 3:0.07902 4:23.7095 6:2.28291 
0.01491193207680493 1:0.000145912 2:0.000144005 3:0.000228882 4:0.577914 5:1 6:3.59749 
0.0305034561184942 1:0.00530514 2:0.00522793 3:0.00831261 4:489.674 5:1 6:0.00512068 
-1 1:297.013 2:312.496 3:340.229 4:39427700 6:2079.38 
