svm_type c_svc
kernel_type rbf
gamma 0.166667
nr_class 2
total_sv 54
rho -0.855801
label 0 1
nr_sv 41 13
SV
0.1438661594957986 1:0.000225812 2:0.000222564 3:0.000353873 4:44.6233 5:1 6:0.30568 
0.1400279863865615 1:0.000595242 2:0.000586584 3:0.000932664 4:19.654 5:1 6:0.243976 
0.1118540440461346 1:0.000216573 2:0.000213504 3:0.000339448 4:87.4561 6:0.307074 
0.08936991255235328 1:0.0001387 2:0.000136703 3:0.000217348 4:11.1621 5:1 6:0.306051 
0.1304420041456944 1:0.000177741 2:0.000175118 3:0.000278562 4:90.8559 5:1 6:0.299139 
0.1443451401841704 1:0.000970885 2:0.000956759 3:0.00152129 4:30.2168 5:1 6:0.210944 
0.143669715000256 1:0.000775784 2:0.000764474 3:0.00121555 4:1676.76 5:1 6:0.186365 
0.1444752774932048 1:0.0010556 2:0.00104025 3:0.00165403 4:185.295 5:1 6:0.284093 
0.1442486232791346 1:0.000269204 2:0.00026533 3:0.000421911 4:2322.55 5:1 6:0.262568 
0.144316188172378 1:0.000565588 2:0.000557363 3:0.000886172 4:408.907 5:1 6:0.29215 
0.1443092150039402 1:0.000300065 2:0.000295728 3:0.000470102 4:1614.39 5:1 6:0.201817 
0.1443020613118182 1:0.000658348 2:0.000648767 3:0.00103158 4:98.5204 5:1 6:0.177317 
0.1443022157745897 1:0.00248869 2:0.00245249 3:0.0038995 4:312.38 6:0.155517 
0.1305523894537622 1:0.00335668 2:0.00330783 3:0.0052596 4:83.9289 6:0.141656 
0.1445615304375777 1:0.0578484 2:0.0653083 3:0.0628289 4:275.194 6:0.278899 
0.1442860745431095 1:0.148671 2:0.168999 3:0.157852 4:1074 6:0.663992 
0.5230766383766703 1:0.121091 2:0.139345 3:0.125088 4:8.29963 6:1.15628 
0.7125166904009115 1:0.377947 2:0.37641 3:0.395186 4:9.89383 6:0.452831 
0.143669715000256 1:0.168714 2:0.189285 3:0.187488 4:5363.59 6:1.69282 
1 1:0.0482361 2:0.0438634 3:0.0437091 4:0.51146 6:0.559029 
1 1:0.00100446 2:8.11815e-05 3:0.00532532 4:0.959912 6:1.08731 
0.1444104736508464 1:0.0330659 2:0.0325848 3:0.051811 4:69.3733 5:1 6:0.553069 
0.1442018946514579 1:0.0038172 2:0.00376159 3:0.00598103 4:787.173 6:0.448985 
0.07739322625134602 1:0.0262584 2:0.0258763 3:0.0411443 4:60.2599 5:1 6:0.353775 
0.50946927475048 1:0.0283589 2:0.0279466 3:0.0444353 4:0.584325 6:1.76842 
0.08039979254906855 1:0.155119 2:0.155266 3:0.262007 4:60.3254 6:0.399931 
0.1468488203264484 1:0.0132497 2:0.0146047 3:0.0341877 4:0.527341 6:0.598233 
0.1442386865801817 1:0.0987065 2:0.09727 3:0.154663 4:52.5421 6:0.58866 
0.1443093950652202 1:0.0155656 2:0.015339 3:0.0243896 4:1225.08 5:1 6:0.729418 
0.1441837748144779 1:0.0680612 2:0.0670707 3:0.106645 4:283.538 5:1 6:0.343948 
0.1441848911239028 1:0.00285387 2:0.00281239 3:0.0044713 4:438.337 5:1 6:2.7522 
0.3416793911925812 1:0.175613 2:0.173057 3:0.275168 4:120.897 5:1 6:2.89074 
0.9068361270322582 1:0.0183761 2:0.0181086 3:0.0287938 4:6.62739 6:2.09922 
1 1:0.0884944 2:0.0902988 3:0.12836 4:1.86571 6:1.10121 
0.256992058476781 1:0.0980595 2:0.0966326 3:0.15365 4:1.02649 5:1 6:1.80632 
1 1:0.162038 2:0.162651 3:0.275032 4:0.380572 6:0.616689 
0.4648604333498809 1:0.00780297 2:0.0076894 3:0.0122265 4:1.04337 5:1 6:0.108216 
0.4971646576166098 1:0.0357049 2:0.0351853 3:0.0559468 4:1.94961 6:2.97149 
0.1403333057355479 1:0.0416379 2:0.0427804 3:0.07902 4:23.7095 6:2.28291 
1 1:0.045724 2:0.0439234 3:0.0578098 4:0.842768 6:1.2824 
0.1443022157745896 1:0.00530514 2:0.00522793 3:0.00831261 4:489.674 5:1 6:0.00512068 
-1 1:297.013 2:312.496 3:340.229 4:39427700 6:2079.38 
-1 1:0.186707 2:0.210988 3:0.199021 4:9.38323 6:0.849305 
-1 1:1.17517 2:1.33232 3:1.2527 4:36.4142 6:3.47205 
-1 1:0.00863934 2:0.00972462 3:0.00974321 4:7.19532 6:2.9099 
-1 1:0.095955 2:0.102738 3:0.123276 4:1.17403 6:0.952292 
-1 1:0.218466 2:0.229892 3:0.29339 4:2.84205 6:0.834848 
-1 1:0.0174341 2:0.019998 3:0.0180016 4:0.947827 6:0.593517 
-1 1:2.07703 2:2.16466 3:2.3276 4:64.1722 6:4.1895 
-1 1:0.0807584 2:0.0896578 3:0.0929607 4:0.810422 6:0.647704 
-1 1:0.465698 2:0.45892 3:0.729701 4:1.76301 6:1.19655 
-1 1:0.233596 2:0.214279 3:0.245952 4:0.60595 6:1.77613 
-1 1:0.186482 2:0.171297 3:0.175975 4:0.453626 6:1.16632 
-1 1:0.118671 2:0.116945 3:0.185945 4:117.787 5:1 6:2.67412 
