svm_type c_svc
kernel_type rbf
gamma 0.166667
nr_class 2
total_sv 52
rho -0.813945
label 0 1
nr_sv 43 9
SV
0.1860319768604136 1:6.41644e-05 2:6.32107e-05 3:0.000100553 4:124.211 5:1 6:0.305423 
0.01876496277724621 1:0.000812739 2:0.000800937 3:0.00127348 4:0.00454426 5:1 6:0.192197 
0.18707511423514 1:0.000447288 2:0.000440747 3:0.000700831 4:44.0389 5:1 6:0.243617 
0.1856332987280543 1:0.00180519 2:0.00177887 3:0.00282857 4:349.818 6:0.307792 
0.4045006992897801 1:0.00041154 2:0.00040549 3:0.000644803 4:18.4096 5:1 6:0.306403 
0.1862146206531002 1:0.00186518 2:0.001838 3:0.00292253 4:385.677 5:1 6:0.281226 
0.1863471118943458 1:0.0015476 2:0.00152507 3:0.00242493 4:6573.22 5:1 6:0.262136 
0.2664189729556642 1:0.000913277 2:0.0009 3:0.00143102 4:27.7419 5:1 6:0.211371 
0.1815614021375482 1:2.59876e-05 2:2.563e-05 3:4.07398e-05 4:363.418 5:1 6:0.299694 
0.1863031810705513 1:1.08629e-05 2:1.06841e-05 3:1.69873e-05 4:4049.15 5:1 6:0.185225 
0.1858119517954114 1:0.000648439 2:0.000639021 3:0.00101599 4:775.148 5:1 6:0.293123 
0.1858101697398848 1:5.94109e-05 2:5.85318e-05 3:9.30727e-05 4:4307.94 5:1 6:0.201488 
0.167008258967844 1:0.00369936 2:0.00364555 3:0.00579655 4:335.706 6:0.138441 
0.1808280642066963 1:0.00105381 2:0.00103848 3:0.0016512 4:368.087 5:1 6:0.177392 
0.186130468609122 1:0.170859 2:0.194859 3:0.179895 4:640.072 6:0.340469 
0.1864372608549693 1:0.00884511 2:0.00871637 3:0.0138594 4:660.387 6:0.148611 
0.1859604958219529 1:0.627 2:0.714139 3:0.66124 4:2070.02 6:0.795076 
0.183333107005978 1:0.649052 2:0.735306 3:0.698785 4:7.23123 6:2.5176 
0.1855740420585981 1:0.678389 2:0.771047 3:0.720724 4:112.828 6:1.3154 
0.1162792078562824 1:0.228466 2:0.268904 3:0.212141 4:0.770231 6:1.18389 
0.02409302630444348 1:0.0878117 2:0.147078 3:0.0617931 4:3.12557 6:0.883582 
0.05742660061446963 1:0.0330892 2:0.0522991 3:0.013401 4:1.13602 6:0.653938 
0.1859006030794171 1:0.0220309 2:0.0217103 3:0.0345203 4:277.112 5:1 6:0.510601 
0.1863287624093725 1:0.00433636 2:0.00427324 3:0.00679469 4:3148.66 5:1 6:0.441525 
0.1484261093595451 1:0.0584159 2:0.0575658 3:0.0915318 4:213.522 5:1 6:0.337126 
1 1:0.360859 2:0.355607 3:0.565429 4:0.701248 6:0.449627 
0.0458777282136267 1:0.191592 2:0.188804 3:0.300206 4:212.209 6:0.694849 
0.1640835730991984 1:0.296779 2:0.29246 3:0.465022 4:209.526 6:0.549338 
0.1863952926372828 1:0.00843537 2:0.0083127 3:0.0132174 4:4900.2 5:1 6:0.723982 
0.1861868361627189 1:0.0984688 2:0.0970356 3:0.154291 4:585.614 5:1 6:0.47433 
0.186031976903032 1:0.000773191 2:0.000761032 3:0.00121069 4:811.862 5:1 6:2.74617 
0.1863471118943458 1:0.306195 2:0.301739 3:0.479776 4:481.663 5:1 6:2.82612 
1 1:0.403566 2:0.397692 3:0.632346 4:1.70064 6:0.880667 
0.1412216848918906 1:0.0229384 2:0.0226045 3:0.0359421 4:3.49153 5:1 6:0.128429 
0.12410864844165 1:0.0298145 2:0.0293806 3:0.0467153 4:0.693984 6:3.40303 
0.06405453388271992 1:0.0214956 2:0.0211825 3:0.0336809 4:2.13967 6:3.59875 
0.02822542537066777 1:0.235209 2:0.231786 3:0.368549 4:2.46017 6:3.19448 
0.1669670580310348 1:0.0221438 2:0.021822 3:0.0346975 4:338.111 5:1 6:2.64231 
0.186449958786512 1:0.207745 2:0.211716 3:0.380627 4:69.7201 6:2.19142 
0.6598965373034209 1:0.255242 2:0.244954 3:0.348154 4:0.846792 6:1.36055 
0.02934847060131043 1:0.0317911 2:0.0313285 3:0.0498135 4:1.03639 5:1 6:0.0317911 
0.1046451986728049 1:0.0220931 2:0.0217714 3:0.0346174 4:0.396079 5:1 6:2.78271 
0.185960495821953 4:1231.21 5:1 
-1 1:1188.05 2:1249.98 3:1360.91 4:44920800 6:3564.44 
-1 1:0.160338 2:0.177194 3:0.184882 4:12.91 6:1.23859 
-1 1:0.29193 2:0.334704 3:0.300662 4:0.922727 6:0.655211 
-1 1:0.527611 2:0.597827 3:0.566937 4:28.0445 6:3.82882 
-1 1:0.388959 2:0.504733 3:0.653744 4:38.0235 6:1.36779 
-1 1:1.79116 2:1.80851 3:1.91592 4:15.9655 6:2.22094 
-1 1:0.174426 2:0.171888 3:0.273308 4:20.7408 6:2.21632 
-1 1:0.736397 2:0.725679 3:1.15386 4:1.69657 6:0.473787 
-1 1:0.109012 2:0.11222 3:0.213592 4:0.956051 6:1.53104 
