svm_type c_svc
kernel_type rbf
gamma 0.125
nr_class 2
total_sv 1268
rho -0.972441
label 1 0
nr_sv 955 313
SV
0.02686589244382254 1:0.153806 2:0.158919 3:0.172874 4:11.6774 5:11.9393 6:11.6246 7:43.8485 8:1 
0.005903349159034788 1:0.272696 2:0.282426 3:0.26598 4:11.7114 5:11.9781 6:12.3783 7:11.0351 8:1 
0.008961453132960484 1:0.0206404 2:0.0206047 3:0.0201677 4:12.675 5:13.0148 6:13.6546 7:21.3376 8:1 
0.003350990367126246 1:0.419177 2:0.449455 3:0.440235 4:13.0133 5:13.3866 6:14.0201 7:15.8122 8:1 
0.006706115658969198 1:0.130505 2:0.139935 3:0.142628 4:12.7271 5:13.1073 6:13.7473 7:14.3274 8:1 
0.01643803003216816 1:0.161229 2:0.168483 3:0.164943 4:3.7107 5:3.78419 6:3.89539 7:6.39918 8:1 
0.004539461355326336 1:0.0144186 2:0.0151235 3:0.0265063 4:5.10411 5:5.2858 6:5.63627 7:15.0205 8:1 
0.002583647908877302 1:0.208963 2:0.226496 3:0.201816 4:14.8642 5:15.3545 6:15.6189 7:5.25992 8:1 
0.004226263102700458 1:0.0210539 2:0.0274484 3:0.0225216 4:7.41747 5:7.58152 6:7.36717 7:2.89507 8:1 
0.007485016077948948 1:0.15756 2:0.165929 3:0.178829 4:7.9728 5:8.1703 6:8.58268 7:8.35258 8:1 
0.01343094995053505 1:0.0655919 2:0.0701267 3:0.0755799 4:7.22821 5:7.48234 6:7.82754 7:18.4798 8:1 
0.004120196086225353 1:0.0498182 2:0.0543756 3:0.0583321 4:13.7658 5:14.2045 6:14.5033 7:5.16736 8:1 
0.0120976309104937 1:0.0647455 2:0.0697045 3:0.0781858 4:9.75775 5:10.1208 6:10.4223 7:16.4852 8:1 
0.004175726008511345 1:0.0206209 2:0.0304269 3:0.0446573 4:13.0358 5:13.4369 6:13.7889 7:4.25837 8:1 
0.01789338014266492 1:0.081879 2:0.0803967 3:0.082369 4:8.7167 5:8.91404 6:9.60093 7:0.406629 8:1 
0.006978134883277154 1:0.147007 2:0.149911 3:0.123919 4:13.3984 5:13.7946 6:14.3012 7:9.26872 8:1 
0.007005578482690207 1:0.00107336 2:0.00269133 3:0.00769275 4:8.46654 5:8.67087 6:9.41083 7:11.5182 8:1 
0.006031992807287067 1:0.336414 2:0.360246 3:0.371948 4:15.8416 5:16.391 6:16.6568 7:2.87813 8:1 
0.01697400479666482 1:0.0468994 2:0.0556881 3:0.0246483 4:15.5394 5:16.0683 6:16.3695 7:7.30287 8:1 
0.01535082988544337 1:0.591536 2:0.626485 3:0.657968 4:13.5435 5:13.8821 6:15.0305 7:23.3556 8:1 
0.0145911685720401 1:0.234535 2:0.241667 3:0.275119 4:15.8419 5:16.2596 6:17.5543 7:33.6166 8:1 
0.02578866028796611 1:0.287704 2:0.294655 3:0.300654 4:13.8422 5:14.285 6:15.7762 7:71.1156 8:1 
0.01383453595876397 1:0.0809861 2:0.0857807 3:0.024708 4:16.1754 5:16.6125 6:17.9712 7:43.2488 8:1 
0.02638426242585357 1:1.07187 2:1.11495 3:1.21587 4:17.5005 5:18.0725 6:19.852 7:95.9854 8:1 
0.02523036709078219 1:0.775288 2:0.81544 3:0.853047 4:15.029 5:15.4394 6:16.6956 7:38.0296 8:1 
0.0166148533123745 1:0.39045 2:0.402368 3:0.463028 4:14.2795 5:14.6666 6:15.9224 7:42.9827 8:1 
0.005629063099725702 1:1.13543 2:1.17656 3:1.23948 4:16.3821 5:16.8573 6:18.2953 7:82.3198 8:1 
0.004827746905869418 1:1.42589 2:1.47282 3:1.61873 4:19.482 5:20.1124 6:21.9964 7:90.9792 8:1 
0.02037865461188779 1:0.0968995 2:0.0928558 3:0.120895 4:17.5018 5:18.0266 6:19.5225 7:121.141 8:1 
0.004374245829776278 1:0.0113077 2:0.0133034 3:0.0228145 4:9.64383 5:9.85284 6:9.69024 7:5.79537 8:1 
0.009233471789554692 1:0.201445 2:0.207088 3:0.212557 4:20.2484 5:20.9054 6:22.7649 7:87.9843 8:1 
0.004541321032113522 1:0.0188929 2:0.0153432 3:0.040459 4:15.3762 5:15.7975 6:17.0665 7:42.2441 8:1 
0.008962180404132325 1:0.158973 2:0.173244 3:0.156073 4:14.6032 5:15.0304 6:15.6798 7:31.3072 8:1 
0.01326271148545699 1:0.322624 2:0.336157 3:0.371512 4:18.4436 5:18.9729 6:20.5723 7:50.6923 8:1 
0.009105512941010018 1:0.489378 2:0.5081 3:0.470832 4:10.3134 5:10.52 6:10.4346 7:11.0725 8:1 
0.0250201428450178 1:0.114356 2:0.117639 3:0.14825 4:16.2971 5:16.7779 6:17.6091 7:50.6168 8:1 
0.02411374839538128 1:0.488173 2:0.502872 3:0.571953 4:21.6343 5:22.2802 6:24.2224 7:40.602 8:1 
0.02639960918596995 1:0.370268 2:0.391832 3:0.39165 4:16.8372 5:17.3339 6:18.2433 7:61.2375 8:1 
0.008289140075709397 1:0.300183 2:0.305031 3:0.331519 4:8.52807 5:8.70373 6:8.68562 7:4.50506 8:1 
0.02437024426137108 1:0.345518 2:0.36331 3:0.377972 4:16.2653 5:16.7561 6:17.6264 7:68.914 8:1 
0.004673964613667293 1:0.34348 2:0.352204 3:0.388629 4:9.41133 5:9.61586 6:9.74106 7:15.5471 8:1 
0.02165006642896847 1:0.643033 2:0.666357 3:0.722891 4:16.7979 5:17.3353 6:18.3194 7:80.8024 8:1 
0.01286094966846982 1:0.695528 2:0.715212 3:0.755189 4:10.0997 5:10.3295 6:10.4876 7:25.0021 8:1 
0.02230862844723891 1:0.287213 2:0.295039 3:0.318044 4:18.1512 5:18.7553 6:19.9446 7:106.438 8:1 
0.0163348605848591 1:0.309479 2:0.315095 3:0.358838 4:19.9348 5:20.4798 6:22.0669 7:91.3619 8:1 
0.01003457644229846 1:1.05407 2:1.08486 3:1.18817 4:9.94559 5:10.1723 6:10.3211 7:26.7364 8:1 
0.02336407451361647 1:0.186315 2:0.195702 3:0.178193 4:9.36627 5:9.58397 6:9.7074 7:29.9266 8:1 
0.0155808246097557 1:0.302891 2:0.311171 3:0.308829 4:19.9579 5:20.628 6:22.021 7:144.076 8:1 
0.01154919373790354 1:0.2584 2:0.277583 3:0.334724 4:16.128 5:16.565 6:17.7148 7:107.3 8:1 
0.00989851733242884 1:0.290075 2:0.291958 3:0.311256 4:19.7106 5:20.3468 6:21.8126 7:142.549 8:1 
0.02152062133006111 1:0.642392 2:0.666632 3:0.779556 4:13.1843 5:13.5533 6:14.3632 7:97.61 8:1 
0.01840025911538589 1:0.325052 2:0.342482 3:0.340312 4:20.3162 5:20.9671 6:22.5002 7:149.584 8:1 
0.02763607651213101 1:0.428227 2:0.441596 3:0.468747 4:13.3291 5:13.724 6:14.5551 7:91.7766 8:1 
0.02114441398424538 1:0.24471 2:0.247241 3:0.294762 4:20.7232 5:21.3927 6:23.2188 7:103.985 8:1 
0.01627716937366235 1:0.109036 2:0.0994991 3:0.125129 4:19.3392 5:19.9322 6:21.4576 7:133.495 8:1 
0.01820449343872094 1:0.224365 2:0.234789 3:0.255929 4:14.0635 5:14.4954 6:15.4099 7:104.893 8:1 
0.007273824461332233 1:1.46127 2:1.53032 3:1.65155 4:21.3197 5:22.0142 6:23.8595 7:124.428 8:1 
0.01968020052271055 1:0.815803 2:0.845517 3:0.90037 4:17.4499 5:17.9778 6:19.2722 7:118.367 8:1 
0.02618396678841639 1:0.919073 2:0.94083 3:1.05422 4:22.0442 5:22.7468 6:24.6651 7:128.619 8:1 
0.02191051777752449 1:0.984065 2:1.00781 3:1.10231 4:18.2799 5:18.8345 6:20.4369 7:137.31 8:1 
0.02131752287854383 1:0.0334775 2:0.0200788 3:0.00406814 4:21.7873 5:22.466 6:24.399 7:146.157 8:1 
0.02149523544527898 1:0.0259265 2:0.0175917 3:0.0356354 4:19.7093 5:20.3068 6:22.0969 7:117.821 
0.005961282658375302 1:0.52038 2:0.550103 3:0.652988 4:21.2473 5:21.9083 6:23.7952 7:148.751 8:1 
0.0178802008252526 1:0.478594 2:0.483954 3:0.56914 4:21.104 5:21.7334 6:23.632 7:137.219 8:1 
0.01631969125696256 1:0.695721 2:0.724732 3:0.770383 4:21.3885 5:22.0388 6:23.9779 7:134.85 8:1 
0.01419881964505707 1:0.90744 2:0.938271 3:0.955708 4:21.382 5:22.0352 6:23.8281 7:152.309 8:1 
0.001729978582360958 1:0.798745 2:0.834861 3:0.973207 4:20.7042 5:21.326 6:23.2329 7:124.027 
0.02155193827018657 1:0.173099 2:0.175794 3:0.172794 4:21.3157 5:21.9691 6:23.7303 7:154.783 8:1 
0.01004832024192578 1:0.288142 2:0.30725 3:0.349551 4:21.2107 5:21.8597 6:23.4862 7:123.977 8:1 
0.02733993944283619 1:1.50006 2:1.52548 3:1.22718 4:30.8109 5:31.663 6:34.7301 7:684.939 
0.02121957913525227 1:0.617059 2:0.624427 3:0.68302 4:22.9538 5:23.6836 6:25.444 7:117.614 8:1 
0.02150723553837525 1:0.847351 2:0.874112 3:0.991923 4:24.1193 5:24.9011 6:26.7516 7:72.1 8:1 
0.02663606238872945 1:0.121362 2:0.124564 3:0.141148 4:8.98678 5:9.20298 6:9.35233 7:34.8177 8:1 
0.02731897537032918 1:0.548858 2:0.56449 3:0.614973 4:9.66596 5:9.92616 6:10.2175 7:56.3968 8:1 
0.009185086530314461 1:0.0817469 2:0.102899 3:0.128868 4:15.6922 5:16.1652 6:17.2555 7:107.308 8:1 
0.01484352156090912 1:0.194454 2:0.210254 3:0.24099 4:11.4196 5:11.7628 6:12.3174 7:98.0777 8:1 
0.006931510852633497 1:0.4399 2:0.469074 3:0.541408 4:15.5619 5:16.0085 6:17.0977 7:102.488 8:1 
0.02638206882220606 1:0.081582 2:0.0848855 3:0.057568 4:14.3864 5:14.8353 6:15.7031 7:159.385 8:1 
0.01616897066848133 1:0.128607 2:0.148598 3:0.141303 4:15.8433 5:16.2628 6:17.3894 7:102.576 8:1 
0.02480762892767852 1:0.41402 2:0.445212 3:0.425575 4:20.5341 5:21.1562 6:22.8383 7:111.938 
0.01539308472384138 1:0.166777 2:0.155557 3:0.173349 4:13.822 5:14.1594 6:15.0578 7:109.747 8:1 
0.02220576567751409 1:0.196927 2:0.195439 3:0.224911 4:12.4094 5:12.6868 6:13.4494 7:101.905 8:1 
0.01683583034470974 1:0.557176 2:0.581509 3:0.625361 4:21.7413 5:22.4201 6:24.2085 7:76.4856 
0.01978456604063583 1:0.00159168 2:0.032128 3:0.0116805 4:12.5009 5:12.7842 6:13.5216 7:109.546 8:1 
0.01987614090428068 1:0.384179 2:0.401874 3:0.42043 4:22.4361 5:23.139 6:24.9269 7:63.5672 
0.02622597026103091 1:1.26644 2:1.30789 3:1.41956 4:14.9715 5:15.3419 6:16.3575 7:142.046 8:1 
0.005312594312587737 1:0.544266 2:0.573652 3:0.624487 4:22.4592 5:23.1444 6:24.9267 7:55.7775 
0.02010210323857663 1:0.245944 2:0.264653 3:0.351635 4:17.22 5:17.6823 6:18.9678 7:142.492 8:1 
0.01787570437051056 1:1.36429 2:1.41161 3:1.56894 4:20.2582 5:20.8222 6:22.4945 7:122.806 8:1 
0.01028461678000323 1:0.0134984 2:0.0246314 3:0.00914562 4:23.225 5:23.9429 6:25.8427 7:48.8781 
0.01126682860528302 1:0.136429 2:0.123929 3:0.107971 4:21.8446 5:22.4377 6:24.2492 7:78.2195 8:1 
0.01920123670409133 1:0.0307022 2:0.0297389 3:0.0435704 4:23.2708 5:23.9804 6:26.001 7:46.7616 
0.01498578909349451 1:0.0532118 2:0.0558195 3:0.0972413 4:21.8688 5:22.4544 6:24.2267 7:54.2889 8:1 
0.02028020642717887 1:0.267602 2:0.276576 3:0.29773 4:19.5248 5:20.0101 6:21.4205 7:55.5437 8:1 
0.01823964305638357 1:0.0979428 2:0.0971365 3:0.0669727 4:18.8772 5:19.4313 6:21.0273 7:99.7958 
0.01140092886534406 1:0.18424 2:0.190305 3:0.196232 4:17.2135 5:17.6432 6:18.7109 7:28.8245 8:1 
0.02103749189497706 1:0.452161 2:0.471919 3:0.519424 4:17.6872 5:18.2284 6:19.5985 7:132.616 8:1 
0.02148017105979338 1:0.250073 2:0.251147 3:0.210191 4:24.3781 5:25.17 6:27.0321 7:51.5918 8:1 
0.01133359969718402 1:0.217773 2:0.231671 3:0.238138 4:18.3864 5:18.9559 6:20.3947 7:140.658 8:1 
0.0006500983353815676 1:0.0874189 2:0.0773383 3:0.0735452 4:20.8895 5:21.5517 6:23.2028 7:135.444 8:1 
0.001657339655995127 1:0.409255 2:0.430441 3:0.399054 4:23.6524 5:24.4183 6:26.2412 7:52.6915 8:1 
0.01808635787646501 1:0.150094 2:0.167281 3:0.225155 4:23.912 5:24.7129 6:26.5613 7:55.6548 8:1 
0.01953330372664641 1:0.405867 2:0.420557 3:0.435376 4:25.7439 5:26.6042 6:28.6287 7:70.6928 8:1 
0.01650580820957898 1:0.219264 2:0.223482 3:0.24673 4:24.0057 5:24.7445 6:26.65 7:66.9126 8:1 
0.006192557292513386 1:0.295733 2:0.309437 3:0.352161 4:23.0671 5:23.7385 6:25.6975 7:63.0545 8:1 
0.01172166334631525 1:0.349263 2:0.353976 3:0.445547 4:27.7624 5:28.6912 6:30.987 7:75.924 8:1 
0.02060473452514827 1:0.289225 2:0.293154 3:0.317526 4:22.3484 5:23 6:24.6953 7:58.4738 8:1 
0.005428515397910061 1:0.801284 2:0.820834 3:0.922557 4:24.9336 5:25.6589 6:27.9383 7:67.751 8:1 
0.02402779259801757 1:0.0110139 2:0.0178624 3:0.000885129 4:20.5932 5:21.1633 6:22.6737 7:45.9887 8:1 
0.01457188624467613 1:0.776866 2:0.807904 3:0.923565 4:24.9226 5:25.6509 6:27.9951 7:63.3944 8:1 
0.01820892602846624 1:0.601037 2:0.625328 3:0.657634 4:26.9223 5:27.8067 6:30.0775 7:76.5079 8:1 
0.02093478452177688 1:0.796029 2:0.820292 3:0.885054 4:23.4792 5:24.1561 6:26.4213 7:77.9026 8:1 
0.02506173651789434 1:0.201375 2:0.218477 3:0.236859 4:26.2104 5:27.0855 6:29.3619 7:82.1944 8:1 
0.01351004919545466 1:0.172662 2:0.175275 3:0.186727 4:19.3935 5:19.9292 6:21.3263 7:27.6168 8:1 
0.005136708210640884 1:0.0605289 2:0.061589 3:0.116722 4:24.8661 5:25.5889 6:27.9919 7:63.5051 8:1 
0.0131713983729891 1:0.286321 2:0.299923 3:0.334355 4:21.4347 5:22.0469 6:24.1083 7:117.36 
0.01186180793699168 1:0.574921 2:0.593445 3:0.668127 4:20.6052 5:21.203 6:22.781 7:51.9824 8:1 
0.01464286037881281 1:0.365028 2:0.389856 3:0.383947 4:24.9689 5:25.7015 6:28.1598 7:97.1558 8:1 
0.001068613230939985 1:0.05159 2:0.0351092 3:0.0606618 4:25.4621 5:26.2985 6:28.5422 7:88.0943 8:1 
0.02093781927162508 1:0.358524 2:0.377095 3:0.41237 4:25.8585 5:26.6297 6:29.1729 7:109.012 8:1 
0.01513434632510365 1:0.225489 2:0.236401 3:0.260636 4:25.6069 5:26.4725 6:28.7102 7:88.126 
0.02790121355682573 1:0.484748 2:0.512491 3:0.563166 4:27.6207 5:28.4656 6:31.2174 7:125.558 8:1 
0.02735284818415257 1:76.9841 2:79.6818 3:94.2284 4:343.475 5:355.125 6:418.076 7:161406 
0.02613407681261165 1:0.615699 2:0.650031 3:0.655872 4:30.4694 5:31.4132 6:34.5463 7:97.1706 8:1 
0.02531909892629136 1:0.415947 2:0.436092 3:0.43348 4:33.2524 5:34.2805 6:37.7206 7:51.8756 8:1 
0.01601031083512651 1:0.113731 2:0.118727 3:0.182588 4:34.4606 5:35.5215 6:39.0221 7:17.8187 8:1 
0.02770221573197906 1:24.9525 2:25.6274 3:30.7805 4:373.944 5:386.45 6:450.912 7:178740 
0.01241890387445411 1:0.0890291 2:0.0951233 3:0.121893 4:34.0342 5:35.0429 6:38.4455 7:11.1744 8:1 
0.02748043417426665 1:2.29471 2:2.36701 3:2.51747 4:20.7589 5:21.4486 6:22.8705 7:201.751 
0.008013509191692513 1:0.33186 2:0.335546 3:0.422982 4:32.4138 5:33.3617 6:36.6174 7:10.1941 8:1 
0.0243702122838641 1:1.0052 2:1.02935 3:1.13672 4:33.4919 5:34.6467 6:37.7685 7:56.3325 
0.005509781578947659 1:0.746369 2:0.785052 3:0.824295 4:29.9652 5:30.845 6:33.7004 7:27.8359 8:1 
0.008171314364448568 1:0.0984573 2:0.1003 3:0.109331 4:27.6412 5:28.4508 6:31.0154 7:33.4374 8:1 
0.02076583399870114 1:0.131565 2:0.140866 3:0.15529 4:26.0539 5:26.8549 6:29.2658 7:23.1866 8:1 
0.005976450967961411 1:0.0286012 2:0.0204585 3:0.0432336 4:30.5409 5:31.3044 6:34.2952 7:9.92496 
0.02671084481081135 1:0.336253 2:0.348872 3:0.374624 4:18.8054 5:19.3405 6:20.5808 7:66.4478 8:1 
0.02022204215031019 1:0.468995 2:0.483089 3:0.555435 4:21.7554 5:22.3613 6:23.9981 7:86.0202 8:1 
0.003800773875818834 1:0.245638 2:0.25562 3:0.264854 4:30.276 5:31.0375 6:33.9299 7:8.31013 
0.005702315100907656 1:0.217596 2:0.223711 3:0.220913 4:29.6914 5:30.4424 6:33.2933 7:7.1646 
0.01970686383899194 1:0.534729 2:0.52916 3:0.609115 4:23.9709 5:24.6106 6:26.6099 7:87.894 8:1 
0.01728921054413062 1:0.233863 2:0.24341 3:0.283724 4:28.3784 5:29.1171 6:31.8957 7:13.9342 
0.02223728811184017 1:0.326469 2:0.363679 3:0.383868 4:24.0325 5:24.6385 6:26.7131 7:83.0339 8:1 
0.0132117548513667 1:0.31576 2:0.311728 3:0.358628 4:24.8087 5:25.4161 6:27.6464 7:96.8538 8:1 
0.01380140155339826 1:0.325698 2:0.329368 3:0.319876 4:26.2764 5:26.9729 6:29.5446 7:16.6134 
0.006970748954492153 1:0.184 2:0.191614 3:0.206978 4:24.7064 5:25.3729 6:27.7826 7:13.559 
0.02528949010795373 1:0.0137072 2:0.00367057 3:0.0189323 4:22.9173 5:23.4756 6:25.5643 7:106.179 8:1 
0.01137285119772247 1:0.58609 2:0.608035 3:0.659238 4:22.9064 5:23.5406 6:25.6852 7:6.98755 
0.02424941193862935 1:0.553855 2:0.567118 3:0.633521 4:20.8151 5:21.3358 6:23.2725 7:96.5708 8:1 
0.007196247233928008 1:0.158995 2:0.157243 3:0.169019 4:21.8003 5:22.4095 6:24.4692 7:9.83639 
0.02168426836866416 1:0.993325 2:1.04584 3:1.19753 4:19.2503 5:19.7197 6:21.4563 7:85.6704 8:1 
0.01181074498203958 1:0.457875 2:0.471587 3:0.512837 4:19.9436 5:20.4586 6:22.2097 7:100.208 8:1 
0.01019678513130303 1:0.0395436 2:0.0403461 3:0.0538023 4:20.2393 5:20.7829 6:22.7266 7:18.3152 
0.01836028963352612 1:0.141519 2:0.155344 3:0.191903 4:26.0735 5:26.8351 6:29.3768 7:65.8014 8:1 
0.0209410042914322 1:0.743298 2:0.759975 3:0.794558 4:22.8262 5:23.4317 6:25.3593 7:122.322 8:1 
0.005063842362052918 1:0.214151 2:0.220074 3:0.229508 4:25.7289 5:26.4732 6:28.9607 7:88.7596 8:1 
0.02684604264411905 1:0.0289956 2:0.0358176 3:0.0566179 4:26.7495 5:27.4608 6:29.709 7:114.56 8:1 
0.02422521170224029 1:0.453336 2:0.475752 3:0.552136 4:26.2142 5:26.964 6:29.485 7:92.0888 8:1 
0.02037973538910391 1:0.432649 2:0.449092 3:0.435305 4:35.4535 5:36.6451 6:39.9564 7:19.4721 
0.004430927014820113 1:0.0659374 2:0.06952 3:0.0564272 4:30.8984 5:31.681 6:34.7546 7:4.13836 8:1 
0.02178962534423767 1:0.403228 2:0.420255 3:0.464799 4:27.6481 5:28.4566 6:31.0873 7:108.648 8:1 
0.005792252355695166 1:0.303796 2:0.315195 3:0.34411 4:30.1383 5:30.887 6:33.9014 7:5.13644 8:1 
0.02661203784859478 1:0.332636 2:0.34064 3:0.350401 4:29.9057 5:30.7764 6:33.6469 7:92.1844 8:1 
0.008330841305951825 1:0.0646319 2:0.0601513 3:0.0973825 4:28.8098 5:29.5203 6:32.3037 7:8.12125 8:1 
0.02598074554770546 1:0.152877 2:0.166233 3:0.223085 4:31.9375 5:32.8255 6:35.9192 7:59.4179 8:1 
0.02579307743328446 1:0.0558016 2:0.0503886 3:0.0373285 4:32.8458 5:33.75 6:36.9628 7:21.6983 8:1 
0.01173001065859217 1:0.38559 2:0.405319 3:0.397247 4:32.8596 5:33.7275 6:36.9988 7:5.65544 8:1 
0.0203226267395263 1:0.117686 2:0.132432 3:0.157517 4:35.0922 5:36.2552 6:39.5414 7:10.7355 
0.002605025454558818 1:0.320056 2:0.346621 3:0.352486 4:25.3373 5:26.1264 6:28.4627 7:10.3836 
0.01103354236007097 1:0.0904926 2:0.0999928 3:0.0789653 4:25.7914 5:26.6149 6:28.9411 7:12.2416 
0.01425601220726713 1:1.58324 2:1.61771 3:1.72394 4:19.663 5:20.2255 6:21.9335 7:90.0215 
0.02713808184183891 1:0.100371 2:0.11433 3:0.12785 4:25.2122 5:25.9983 6:28.3215 7:42.6448 8:1 
0.001636552888721182 1:0.186446 2:0.194074 3:0.189709 4:25.1225 5:25.9062 6:28.0865 7:6.77342 
0.01832209770613195 1:0.221419 2:0.249308 3:0.214773 4:24.3421 5:25.1025 6:27.1814 7:4.81823 
0.02742407011622378 1:2.23955 2:2.36614 3:2.5946 4:37.2431 5:38.1983 6:43.429 7:1196.89 
0.001469760152204405 1:0.299066 2:0.304988 3:0.327018 4:20.958 5:21.5958 6:23.3493 7:6.31694 
0.01309170912481598 1:0.447994 2:0.45418 3:0.536355 4:19.1785 5:19.71 6:21.6873 7:9.73198 
0.01286046152813632 1:0.0549724 2:0.0565284 3:0.0743548 4:18.9698 5:19.5094 6:21.3876 7:4.51986 
0.02753306869354477 1:7.38354 2:7.64647 3:8.49034 4:24.0282 5:24.7752 6:26.884 7:1198.86 
0.02299610661023455 1:0.874701 2:0.902339 3:0.925322 4:17.6443 5:18.1782 6:19.554 7:57.0322 
0.002395456777753713 1:0.38013 2:0.393867 3:0.424707 4:19.6834 5:20.2387 6:22.2263 7:5.18418 
0.01429630722849502 1:0.588313 2:0.606814 3:0.666722 4:18.4217 5:18.9109 6:20.7067 7:20.4045 8:1 
0.02316389196233935 1:0.352692 2:0.352092 3:0.356907 4:7.42254 5:7.56676 6:7.71793 7:22.026 
0.006249272112868465 1:0.397578 2:0.383648 3:0.417355 4:19.4032 5:19.9444 6:21.789 7:12.6887 
0.001922102327256259 1:0.300272 2:0.312415 3:0.338013 4:18.8871 5:19.4018 6:21.33 7:17.8242 8:1 
0.02419156751151708 1:1.60817 2:1.65461 3:1.80144 4:13.5988 5:14.0032 6:14.8997 7:45.8886 
0.01898114973876197 1:0.371769 2:0.395474 3:0.43743 4:18.993 5:19.5462 6:21.4561 7:2.16241 
0.02628429530338094 1:0.486801 2:0.502778 3:0.569074 4:30.2252 5:31.0065 6:33.4955 7:76.8608 8:1 
0.0173387616259688 1:0.199668 2:0.206657 3:0.18541 4:31.9066 5:32.7241 6:35.3376 7:38.4298 8:1 
0.02271814195944684 1:0.236599 2:0.22908 3:0.232109 4:32.5204 5:33.3421 6:36.0666 7:16.3732 8:1 
0.01252044215028203 1:0.250095 2:0.264141 3:0.259857 4:32.0702 5:32.8877 6:35.6184 7:12.2359 8:1 
0.00184356900262643 1:0.104959 2:0.103098 3:0.108326 4:28.3679 5:29.1419 6:31.6538 7:3.39633 8:1 
0.001570337458393911 1:0.157874 2:0.162061 3:0.190643 4:30.9682 5:31.7771 6:34.4718 7:8.49542 8:1 
0.006134693314140476 1:0.0415546 2:0.0298314 3:0.037724 4:29.3266 5:30.1968 6:32.5945 7:4.82856 
0.006455819472028862 1:0.00297666 2:0.014729 3:0.0202627 4:27.4003 5:28.1338 6:30.5319 7:6.35429 8:1 
0.01465333832846704 1:0.137134 2:0.136975 3:0.16765 4:29.5243 5:30.3268 6:32.914 7:1.54146 8:1 
0.000408458785380133 1:0.28483 2:0.306141 3:0.341348 4:26.6216 5:27.3499 6:29.594 7:4.55297 8:1 
1 1:8.20204e-18 2:8.4572e-18 3:8.50059e-18 4:4.10109e-18 5:4.22867e-18 6:4.25037e-18 7:2.27093e-33 
0.01228092286341626 1:0.215435 2:0.221247 3:0.23739 4:27.2336 5:27.8907 6:30.4778 7:9.87142 8:1 
0.002490158282608417 1:0.193945 2:0.195961 3:0.203027 4:27.8658 5:28.5773 6:31.207 7:3.54326 8:1 
0.001227195134900898 1:0.143003 2:0.149548 3:0.179494 4:26.8096 5:27.4983 6:30.0062 7:2.2641 8:1 
0.01285612180212798 1:0.275933 2:0.280303 3:0.275283 4:26.0698 5:26.7324 6:29.1616 7:4.0134 8:1 
0.004446505468177708 1:0.138073 2:0.149273 3:0.186741 4:25.4912 5:26.1333 6:28.4807 7:7.13878 8:1 
0.007546180871672063 1:0.128907 2:0.13262 3:0.12245 4:22.5763 5:23.1352 6:25.1469 7:33.8971 8:1 
0.007752666454248275 1:0.648835 2:0.670681 3:0.731159 4:21.762 5:22.2877 6:24.1667 7:27.2187 
0.02714392101554223 1:1.43491 2:1.46656 3:1.59593 4:18.0578 5:18.4991 6:20.0092 7:73.3693 
0.006823072447224189 1:0.0535294 2:0.0433886 3:0.0503579 4:27.885 5:28.7087 6:30.8723 7:7.66199 
0.02792454063957317 1:0.0981877 2:0.107233 3:0.127831 4:9.8186 5:10.0476 6:10.8676 7:126.821 
0.003014984062121933 1:0.180003 2:0.174933 3:0.182384 4:26.1703 5:26.924 6:28.859 7:14.4139 
0.02791050151013896 1:0.527186 2:0.550538 3:0.607301 4:18.8275 5:19.4162 6:21.0866 7:210.173 
0.01419389338533394 1:0.239632 2:0.243882 3:0.281807 4:23.4947 5:24.18 6:25.9359 7:36.7848 
0.01378034698330621 1:0.485601 2:0.505303 3:0.550126 4:20.998 5:21.6375 6:23.3155 7:49.7025 
0.01243352807103243 1:0.132439 2:0.139804 3:0.110212 4:20.1768 5:20.7989 6:22.4022 7:22.1675 8:1 
0.02007143919458073 1:0.287985 2:0.299167 3:0.326596 4:17.1006 5:17.6575 6:19.1626 7:34.5178 
0.009630094029351947 1:0.100632 2:0.117513 3:0.149046 4:30.3549 5:31.3004 6:33.9601 7:2.67851 
0.01212733824292594 1:0.0646861 2:0.0723233 3:0.0696301 4:20.6007 5:21.2274 6:22.8081 7:8.14416 
0.01041382637271715 1:0.130659 2:0.12749 3:0.137317 4:30.1653 5:31.0919 6:33.6827 7:11.9501 
0.01131222282585695 1:0.203762 2:0.215892 3:0.224261 4:21.7731 5:22.429 6:24.0832 7:13.2526 
0.006808098644104366 1:0.0837891 2:0.093363 3:0.0793965 4:22.0386 5:22.6849 6:24.8003 7:7.96133 8:1 
0.002076743375964178 1:0.532653 2:0.555203 3:0.587317 4:27.0833 5:27.8704 6:30.3179 7:7.12858 8:1 
0.003256826055475971 1:0.152455 2:0.164753 3:0.194967 4:24.9566 5:25.6237 6:27.8858 7:17.6489 
0.002305750139748215 1:0.131028 2:0.120933 3:0.136414 4:23.1308 5:23.8362 6:25.5934 7:10.7173 
0.01400944916731539 1:0.820654 2:0.845994 3:0.931462 4:22.0739 5:22.6658 6:24.6584 7:37.1703 
0.003643026983765896 1:0.0700953 2:0.0748512 3:0.0774207 4:13.3811 5:13.8046 6:15.0291 7:5.02146 8:1 
0.02630402439827738 1:2.42847 2:2.51062 3:2.68537 4:19.7001 5:20.2235 6:21.6691 7:130.812 
0.005284264711750478 1:0.409045 2:0.420612 3:0.455892 4:2.40876 5:2.47617 6:2.68815 7:19.7414 
0.02427555400288312 1:0.535064 2:0.546256 3:0.575095 4:20.1399 5:20.7474 6:22.319 7:80.9675 
0.02072680184135284 1:0.167475 2:0.207083 3:0.229456 4:21.2311 5:21.8583 6:23.8651 7:3.68827 
0.01024783668472277 1:0.343621 2:0.354979 3:0.394285 4:11.9815 5:12.3534 6:13.4376 7:15.7825 
0.02790966283319762 1:0.400556 2:0.412336 3:0.457839 4:8.1062 5:8.30502 6:8.65736 7:204.42 
0.02732517685967195 1:6.72605 2:6.93318 3:7.70463 4:9.41921 5:9.71535 6:10.5867 7:3175.89 
0.027475931477421 1:0.210397 2:0.218121 3:0.248052 4:11.9661 5:12.3272 6:13.4156 7:2140.95 8:1 
0.02746851509125386 1:10.6612 2:11.0418 3:13.1058 4:10.4695 5:10.8172 6:12.5368 7:1795.95 
0.01883513530970184 1:0.00592113 2:0.0155127 3:0.0419691 4:27.4495 5:28.208 6:30.4747 7:1.30905 8:1 
0.007480257307073839 1:0.453064 2:0.46913 3:0.557669 4:25.9335 5:26.6097 6:28.5558 7:9.03434 8:1 
0.02748543519556745 1:9.96478 2:10.295 3:11.4061 4:13.0985 5:13.5294 6:14.8202 7:3557.37 
0.007085156684206192 1:0.143988 2:0.154431 3:0.157409 4:24.5321 5:25.159 6:26.8753 7:18.3208 8:1 
0.01055536553424319 1:0.165252 2:0.184406 3:0.168217 4:22.5834 5:23.1664 6:24.6961 7:23.8479 
0.02751380380075735 1:1.17668 2:1.16296 3:1.05786 4:26.3463 5:27.1909 6:31.4926 7:15065.2 
0.02788475869272977 1:0.705957 2:0.726629 3:0.789337 4:2.76282 5:2.80679 6:3.02752 7:46.5297 8:1 
0.02753530462477199 1:28.1179 2:29.1062 3:34.0888 4:108.629 5:112.276 6:130.438 7:52180.8 
0.02759021960852293 1:0.134467 2:0.100916 3:0.114472 4:121.223 5:125.356 6:145.799 7:57785.6 
0.02018523193209095 1:0.507115 2:0.504923 3:0.542388 4:16.6773 5:17.0328 6:18.1277 7:45.9244 
0.02758393784378749 1:4.01779 2:4.16194 3:4.891 4:14.2691 5:14.6645 6:16.2498 7:15943.4 
0.02796792778785456 1:0.365162 2:0.497208 3:1.15849 4:322.106 5:333.431 6:387.988 7:71573.2 
0.01000093238004273 1:0.0264225 2:0.0194133 3:0.0263584 4:9.68474 5:9.88406 6:10.8249 7:3.22168 
0.02768771859380753 1:18.4976 2:19.1151 3:22.4355 4:77.8985 5:80.4932 6:94.3679 7:75770.9 
0.01364430786396314 1:0.783728 2:0.814636 3:0.811353 4:6.40078 5:6.54041 6:6.41631 7:16.2251 
0.02389223646219824 1:1.70673 2:1.76623 3:1.89077 4:8.66652 5:8.88241 6:9.20411 7:96.7696 
0.02760251108190526 1:0.459991 2:0.491877 3:0.513822 4:18.343 5:18.7786 6:19.83 7:390.305 
0.02798274701221731 1:0.0883837 2:0.0874417 3:0.133662 4:10.9206 5:11.145 6:11.8644 7:195.246 
0.02794118153309399 1:3.56135 2:3.66014 3:4.17305 4:4.2804 5:4.39088 6:4.77685 7:183.172 
0.01173445466131073 1:0.524402 2:0.530361 3:0.559458 4:12.6473 5:12.9908 6:13.8678 7:24.7083 
0.1163773529090179 1:0.505138 2:0.514226 3:0.523118 4:2.19554 5:2.23872 6:2.28858 7:28.9997 
1 
0.01614050827248312 1:1.42542 2:1.46518 3:1.58722 4:15.0215 5:15.4181 6:16.5909 7:12.1154 
0.002609272544799605 1:0.209204 2:0.219707 3:0.24106 4:15.2077 5:15.6078 6:16.7967 7:4.54576 8:1 
0.01488815823577531 1:1.0648 2:1.09193 3:1.1266 4:19.0202 5:19.534 6:20.9121 7:49.4219 
0.01980205665155355 1:0.756224 2:0.766808 3:0.899628 4:20.2705 5:20.7985 6:22.486 7:108.021 
0.007683449596627645 1:0.0654885 2:0.0680692 3:0.0627857 4:3.89151 5:4.01694 6:4.05887 7:17.189 
0.005461558631785435 1:1.00477e-06 2:1.02911e-06 3:9.89899e-07 4:5.02387e-07 5:5.14553e-07 6:4.9495e-07 7:5.73643 
0.02786928041527465 1:0.30519 2:0.31155 3:0.328921 4:7.18682 5:7.38388 6:7.96729 7:65.9819 
0.01072320802313277 1:0.1324 2:0.133377 3:0.141413 4:15.6688 5:16.0982 6:17.3893 7:2.55407 8:1 
0.02790913800294165 1:2.42595 2:2.49444 3:2.81554 4:14.5212 5:14.9591 6:16.4215 7:955.003 
0.02433412120034333 1:1.11153 2:1.14842 3:1.25599 4:14.9548 5:15.3222 6:16.8586 7:84.0158 8:1 
1 1:0.113746 2:0.11777 3:0.120944 4:0.0568732 5:0.0588851 6:0.0604725 7:0.440364 
0.02732347017382408 1:0.863942 2:0.884601 3:0.84771 4:21.9461 5:22.6008 6:25.0479 7:6489.73 
1 1:3.74802e-24 2:3.78172e-24 3:3.52897e-24 4:1.87412e-24 5:1.89098e-24 6:1.7646e-24 7:3.50325e-46 
1 1:3.0247e-34 2:3.12408e-34 3:3.45368e-34 4:1.52273e-34 5:1.57288e-34 6:1.73857e-34 7:0.0482126 
0.02793319281894391 1:0.251351 2:0.265278 3:0.264026 4:1.41642 5:1.41242 6:1.48515 7:2072.23 
0.02791079423661214 1:2.12315 2:2.19096 3:2.24358 4:24.3177 5:25.0142 6:27.354 7:28324.7 
0.02788554717483355 1:12.822 2:13.117 3:15.5436 4:587.888 5:607.496 6:707.89 7:45779.2 
0.01117122252237912 1:0.0514086 2:0.0563073 3:0.0606672 4:13.1953 5:13.5404 6:14.735 7:1.97046 8:1 
0.0279261740327183 1:5.945 2:6.08682 3:6.62223 4:161.135 5:166.226 6:187.927 7:56122.9 
0.02783803295841375 1:5.38564 2:5.44724 3:6.54767 4:586.954 5:606.588 6:708.383 7:123993 
0.02784972174198297 1:2.5995 2:2.6653 3:2.78948 4:36.1668 5:37.0135 6:39.4478 7:768.096 
0.4315755310604987 1:0.0939383 2:0.0950009 3:0.0722362 4:0.693602 5:0.702117 6:0.719684 7:14.0897 
0.02764065060642468 1:0.503574 2:0.516778 3:0.580389 4:6.22855 5:6.41862 6:7.45435 7:524.948 
0.006271966106349955 1:0.267248 2:0.27004 3:0.304915 4:6.69193 5:6.8038 6:7.59094 7:6.54825 
0.02764734514942851 1:59.3303 2:61.3948 3:71.1284 4:118.744 5:122.82 6:142.173 7:57643.2 
0.009769755993533297 1:0.064626 2:0.071248 3:0.0849093 4:4.53376 5:4.57552 6:4.71088 7:3.08261 8:1 
0.0276373902922511 1:6.58846 2:6.79492 3:7.8421 4:26.0122 5:26.8345 6:30.6202 7:821.595 
0.02756668926399547 1:1.14981 2:1.19672 3:1.26265 4:9.69046 5:9.85131 6:10.7032 7:321.463 
0.02790725566551516 1:0.760984 2:0.762419 3:0.734638 4:30.7928 5:31.6499 6:36.0956 7:23225.5 
0.004841986837199856 1:0.0536622 2:0.052531 3:0.0608839 4:10.9193 5:11.1571 6:11.8342 7:4.23032 8:1 
0.02749258624052908 1:19.4093 2:20.1324 3:23.5214 4:76.8031 5:79.5092 6:92.3625 7:37298.6 
0.02785125077368916 1:79.8547 2:82.4338 3:96.9109 4:441.25 5:454.925 6:533.041 7:228907 
0.02798063936028805 1:31.2342 2:32.2632 3:38.3326 4:422.355 5:435.439 6:510.601 7:205892 
0.0157137608374371 1:0.0578936 2:0.0330331 3:0.0909341 4:5.16249 5:5.22303 6:5.56957 7:71.7764 
0.02796381209494625 1:48.5486 2:50.186 3:58.1475 4:354.45 5:366.457 6:424.544 7:96291.4 
0.02708354266031476 1:2.01729 2:2.08755 3:2.39154 4:19.1111 5:19.6123 6:21.9047 7:3314.54 
0.02781156605746199 1:25.9258 2:26.7514 3:31.3742 4:276.444 5:285.903 6:328.708 7:61005.4 
0.02729692387615862 1:0.0226768 2:0.0174488 3:0.060185 4:3.12698 5:3.19163 6:3.15077 7:7590.7 
0.02723690454955946 1:47.6494 2:49.3311 3:57.1037 4:81.9178 5:84.5854 6:95.2414 7:28096 
0.02655924354374184 1:1.62927 2:1.69552 3:1.93175 4:16.7915 5:17.1689 6:17.2264 7:158.038 
0.07275582128809233 1:0.356024 2:0.367549 3:0.370188 4:0.178012 5:0.183775 6:0.185094 7:8.45611 
0.01885046081542086 1:0.698767 2:0.730794 3:0.7846 4:9.69498 5:9.9072 6:10.8431 7:98.9001 
0.008371388097822341 1:0.0156963 2:0.0213152 3:0.0232582 4:10.9261 5:11.1845 6:12.2884 7:7.92079 
0.00354744124724957 1:0.296037 2:0.302315 3:0.342645 4:4.26402 5:4.32175 6:4.84974 7:12.5164 
0.0176746972189533 1:0.139189 2:0.143006 3:0.139319 4:11.3979 5:11.6624 6:12.8297 7:1.46249 8:1 
0.005357746016610343 1:0.122231 2:0.125396 3:0.136739 4:6.52167 5:6.59859 6:7.41305 7:3.3336 
0.02730090076875052 1:32.7187 2:33.8725 3:40.2469 4:127.84 5:132.116 6:155.142 7:61415.3 
0.02773468988340549 1:49.2278 2:50.9165 3:60.7302 4:339.023 5:350.398 6:412.696 7:201601 
0.02034414469536462 1:0.54849 2:0.552142 3:0.588587 4:11.9126 5:12.1586 6:13.1361 7:28.2268 
0.01611128148223162 1:0.14722 2:0.150209 3:0.160163 4:2.7252 5:2.78163 6:3.06547 7:23.298 
0.02754432247803146 1:0.258817 2:0.27129 3:0.320212 4:5.80958 5:5.94004 6:6.35881 7:4686.97 
0.002433403690952059 1:0.476206 2:0.482488 3:0.547494 4:3.65678 5:3.67729 6:4.18567 7:8.56253 
0.007233097390058548 1:0.777311 2:0.799157 3:0.824726 4:9.97312 5:10.1057 6:11.0806 7:6.86494 8:1 
0.01079101719255486 1:0.711681 2:0.736385 3:0.764548 4:12.032 5:12.2131 6:13.3387 7:6.15293 8:1 
0.01270414963683167 1:0.0364009 2:0.0414268 3:0.0392607 4:14.8109 5:15.1839 6:16.2641 7:1.14905 8:1 
0.02754147315106764 1:16.8036 2:17.3802 3:20.5194 4:10.6298 5:10.8715 6:12.6666 7:9598.6 
0.007156538994162252 1:0.0862957 2:0.0878221 3:0.0932771 4:5.16384 5:5.22635 6:5.92769 7:7.61311 
0.02707824200479825 1:11.0248 2:11.4078 3:13.3675 4:167.307 5:173.01 6:204.874 7:101025 
0.02754948909809041 1:3.39321 2:3.53538 3:3.8716 4:34.238 5:35.3273 6:39.8233 7:10921.5 
0.004859867770826505 1:0.670763 2:0.694975 3:0.726232 4:13.3342 5:13.5271 6:14.8287 7:7.71668 8:1 
0.02753824903378271 1:9.02468 2:9.29836 3:10.8318 4:131.536 5:136.048 6:158.743 7:38879.6 
0.02765759631278625 1:33.4702 2:34.7211 3:40.7271 4:84.8879 5:87.8169 6:102.571 7:36715.2 
0.02790817557329706 1:1.12076 2:1.15744 3:1.23573 4:3.18062 5:3.23479 6:3.56751 7:63.0982 
0.02713443785807956 1:3.15455 2:3.2152 3:3.24651 4:15.7284 5:16.0936 6:17.157 7:110.227 
0.0006088775537380153 1:0.213361 2:0.221346 3:0.22455 4:13.864 5:13.9476 6:15.152 7:10.3679 8:1 
0.02786776502779165 1:0.708898 2:0.746425 3:1.38181 4:22.9769 5:23.702 6:27.0475 7:1563.34 
0.02764144754603842 1:2.99859 2:3.11797 3:3.78185 4:13.6231 5:14.0662 6:15.8883 7:2356.96 
1 1:0.0431948 2:0.0433504 3:0.04619 4:0.0261316 5:0.0260132 6:0.0278267 7:0.014296 8:1 
0.02766457324117277 1:1.32945 2:1.37531 3:1.62063 4:2.47102 5:2.55438 6:2.9383 7:2626.99 
0.02767826297875281 1:10.3992 2:10.7822 3:12.5514 4:30.4218 5:31.4903 6:36.4685 7:8733.62 
0.02776359351482188 1:1.27212 2:1.33624 3:1.53281 4:10.4161 5:10.748 6:12.3786 7:746.719 
0.0008542120094960936 1:0.00797731 2:0.0054583 3:0.00345141 4:12.2788 5:12.3937 6:13.744 7:6.74403 8:1 
0.02775662726906009 1:17.4813 2:18.0753 3:20.865 4:109.719 5:113.409 6:131.944 7:47960 
0.02788554717482594 1:1.43563 2:1.47524 3:1.59485 4:4.09221 5:4.20737 6:4.59543 7:168.53 
0.02782335726873586 1:0.0478211 2:0.0504296 3:0.045088 4:0.571288 5:0.579765 6:0.666306 7:9078.47 
0.01590169882512732 1:1.00968 2:1.0372 3:1.08459 4:1.09006 5:1.11148 6:1.18691 7:22.2453 
0.008016112149555043 1:0.049428 2:0.0486174 3:0.0401304 4:14.1071 5:14.1899 6:15.4444 7:13.7985 8:1 
0.001713458543879379 1:0.945947 2:0.964061 3:1.00393 4:14.4398 5:14.5321 6:15.8098 7:13.9557 8:1 
0.003388751322592868 1:0.0692791 2:0.0761954 3:0.0706708 4:14.4626 5:14.5533 6:15.8574 7:17.4344 8:1 
0.004111038252072713 1:0.8166 2:0.840376 3:0.854456 4:14.331 5:14.3967 6:15.7877 7:18.1385 8:1 
0.00313146984628121 1:0.53426 2:0.547002 3:0.575691 4:13.8887 5:13.9468 6:15.2759 7:16.9628 8:1 
0.003673397252389167 1:0.553548 2:0.56663 3:0.59307 4:9.54003 5:9.59947 6:10.7534 7:7.88899 
0.003489628010189302 1:0.889634 2:0.918053 3:0.962786 4:14.4956 5:14.5604 6:15.998 7:16.7125 8:1 
0.001095423655626815 1:0.422017 2:0.430192 3:0.462294 4:10.3435 5:10.4926 6:11.624 7:2.44779 8:1 
0.00792345697619376 1:0.462419 2:0.470408 3:0.483167 4:10.8077 5:10.8563 6:12.2209 7:13.2577 8:1 
0.005082722531642972 1:0.605384 2:0.623119 3:0.685295 4:6.36642 5:6.50902 6:7.25595 7:5.06779 8:1 
0.002758455479157568 1:0.0162033 2:0.0254739 3:0.0133444 4:14.6164 5:14.676 6:16.1886 7:14.4011 8:1 
0.01058648496254483 1:0.262997 2:0.270057 3:0.318677 4:15.7072 5:15.7838 6:17.3654 7:17.4865 8:1 
0.009351699607520277 1:0.740847 2:0.767775 3:0.801273 4:12.5985 5:12.6712 6:14.284 7:10.0758 8:1 
0.01194003327923117 1:0.15249 2:0.155754 3:0.145412 4:18.3265 5:18.4648 6:20.2934 7:15.8033 8:1 
0.01390914754225777 1:0.324121 2:0.338313 3:0.376856 4:16.5885 5:16.6877 6:18.3745 7:11.0958 8:1 
0.0007995486311652231 1:0.350466 2:0.369028 3:0.362247 4:18.6584 5:18.7998 6:20.6584 7:13.5718 8:1 
0.01468390579670271 1:1.06216 2:1.08557 3:1.11075 4:17.3616 5:17.4777 6:19.2139 7:14.6648 8:1 
0.0009196328942899235 1:0.485818 2:0.502566 3:0.530014 4:19.4929 5:19.6588 6:21.5599 7:13.3908 8:1 
0.003024493016855315 1:0.0946056 2:0.101964 3:0.0929537 4:7.39306 5:7.57863 6:8.53005 7:6.45953 8:1 
0.003987503050274883 1:0.12208 2:0.123755 3:0.135965 4:8.53791 5:8.75208 6:9.84468 7:8.37405 8:1 
0.00459541108020221 1:0.10405 2:0.0880342 3:0.103955 4:19.7385 5:19.9152 6:21.9054 7:16.3925 8:1 
0.01681355941410395 1:1.83959 2:1.90485 3:1.91993 4:20.3213 5:20.5088 6:22.4989 7:17.288 8:1 
0.01388833903825555 1:0.320552 2:0.32057 3:0.389066 4:17.9493 5:18.1234 6:19.7999 7:25.4699 8:1 
0.01848110584603607 1:0.00108933 2:0.00320005 3:0.042601 4:15.9217 5:16.0607 6:17.6369 7:27.913 8:1 
0.01753894080600277 1:0.516445 2:0.523071 3:0.58601 4:13.8252 5:13.9353 6:15.3614 7:30.6775 8:1 
0.005178971214376151 1:0.981525 2:1.01021 3:1.03732 4:12.3525 5:12.4642 6:13.8458 7:20.8561 8:1 
0.002949932265613466 1:0.427666 2:0.434912 3:0.452051 4:7.06784 5:7.18615 6:8.11736 7:19.5556 8:1 
0.004651946529617201 1:0.532391 2:0.547905 3:0.568859 4:10.6067 5:10.7176 6:12.0746 7:25.7628 8:1 
0.01415392127453563 1:0.338555 2:0.339221 3:0.367898 4:8.00528 5:8.1332 6:9.2405 7:13.3781 8:1 
0.001355459390309529 1:0.300692 2:0.303141 3:0.306369 4:23.2118 5:23.4157 6:25.8272 7:28.3678 8:1 
0.01179344258714983 1:0.635923 2:0.64912 3:0.730001 4:10.4051 5:10.5544 6:12.0891 7:21.9542 8:1 
0.01764827702833755 1:0.668227 2:0.677221 3:0.706766 4:15.3171 5:15.5539 6:17.1814 7:20.0298 8:1 
0.007287310818622272 1:0.200139 2:0.198025 3:0.230664 4:11.6888 5:11.8642 6:13.5145 7:19.6688 8:1 
0.01078549388076617 1:1.03085 2:1.05932 3:1.14823 4:10.4359 5:10.5894 6:12.1224 7:19.856 8:1 
0.01260949794713769 1:0.0919399 2:0.0957656 3:0.0805459 4:18.0405 5:18.3263 6:20.1627 7:22.6629 8:1 
0.01775760732136056 1:0.35535 2:0.371481 3:0.438374 4:18.8586 5:19.1608 6:21.1074 7:31.2328 8:1 
0.005099012077516204 1:0.453784 2:0.471621 3:0.449442 4:19.6107 5:19.9204 6:21.9446 7:24.8103 8:1 
0.001590214424567193 1:0.143458 2:0.150629 3:0.109506 4:21.9983 5:22.1589 6:24.5824 7:32.9935 8:1 
0.007214777087692491 1:1.26681 2:1.31981 3:1.34773 4:22.5553 5:22.7406 6:25.2521 7:32.5864 8:1 
0.00261608848556856 1:0.0606893 2:0.0597514 3:0.00776887 4:22.4896 5:22.6733 6:25.2482 7:26.3226 8:1 
0.006896714608509273 1:0.355099 2:0.354319 3:0.362155 4:22.6055 5:22.7994 6:25.4922 7:20.3574 8:1 
0.01045830093349551 1:1.58341 2:1.64657 3:1.71651 4:22.5556 5:22.757 6:25.4969 7:24.9399 8:1 
0.002509794996340372 1:0.966541 2:1.00072 3:1.01472 4:22.4245 5:22.6143 6:25.3763 7:21.4098 8:1 
0.00146861985532884 1:0.329365 2:0.339268 3:0.308559 4:23.6598 5:24.0336 6:26.6918 7:25.8855 8:1 
0.01030335651792609 1:0.33752 2:0.348401 3:0.384383 4:21.4903 5:21.6615 6:24.4423 7:19.5036 8:1 
0.002138833117332956 1:0.0137953 2:0.0235606 3:0.0164079 4:9.03776 5:9.13105 6:10.6742 7:5.29776 8:1 
0.01144069697390111 1:1.22885 2:1.26431 3:1.29682 4:10.465 5:10.6785 6:12.1119 7:16.6016 8:1 
0.002405853975731502 1:0.00253075 2:0.00240475 3:0.00872785 4:9.6016 5:9.717 6:11.3549 7:9.77464 8:1 
0.01015957582750688 1:0.0138403 2:0.0195755 3:0.0260133 4:19.0212 5:19.4696 6:21.5891 7:11.5312 8:1 
0.004067628772860144 1:0.565084 2:0.591528 3:0.613168 4:20.0505 5:20.5184 6:22.7204 7:13.9754 8:1 
0.006443233842813637 1:0.124189 2:0.122711 3:0.162163 4:15.7726 5:16.1406 6:17.9976 7:13.4204 8:1 
0.01209026175547312 1:0.486557 2:0.498769 3:0.577957 4:24.2374 5:24.6278 6:27.3537 7:34.0675 8:1 
0.009966301841963539 1:0.171859 2:0.173007 3:0.20524 4:22.7296 5:23.2558 6:25.6258 7:12.8823 8:1 
0.00779274519718952 1:0.702144 2:0.722371 3:0.723832 4:23.5789 5:24.1355 6:26.5333 7:10.5342 8:1 
0.01492108227970071 1:1.84637 2:1.87291 3:1.91911 4:24.2437 5:24.6343 6:27.4989 7:20.8396 8:1 
0.008247574764975575 1:0.0850594 2:0.0793492 3:0.0769569 4:24.1633 5:24.7269 6:27.1195 7:9.32621 8:1 
0.00438413308312227 1:0.0533979 2:0.0325032 3:0.0368266 4:22.1927 5:22.4115 6:25.4895 7:31.5246 8:1 
0.005627625728028607 1:0.735109 2:0.776972 3:0.792035 4:22.6376 5:22.8713 6:25.9968 7:29.9627 8:1 
0.0006249652445357367 1:0.260782 2:0.262643 3:0.151362 4:23.3354 5:23.6105 6:26.8357 7:26.6677 8:1 
0.00199673382814874 1:1.41335 2:1.44971 3:1.51363 4:23.6735 5:23.9824 6:27.2888 7:35.6396 8:1 
0.02187426318927487 1:2.4778 2:2.54972 3:2.82347 4:23.7089 5:24.0096 6:27.3798 7:34.2272 8:1 
0.003091471081585501 1:1.09661 2:1.12445 3:1.14389 4:23.8834 5:24.2906 6:27.3685 7:18.8741 8:1 
0.01494941744283175 1:0.325472 2:0.319167 3:0.34102 4:24.0474 5:24.3797 6:27.7879 7:28.6637 8:1 
0.01085205642028912 1:0.146247 2:0.14037 3:0.168155 4:23.7423 5:24.1574 6:27.26 7:16.6896 8:1 
0.01457721551665962 1:1.15622 2:1.19322 3:1.22377 4:24.5438 5:24.8969 6:28.342 7:26.6666 8:1 
0.0009253283399784343 1:0.437884 2:0.448052 3:0.496358 4:23.6824 5:24.0976 6:27.2393 7:16.8173 8:1 
0.002843766935185131 1:0.140903 2:0.146079 3:0.155523 4:9.85586 5:9.98282 6:11.6922 7:14.1619 8:1 
0.000530225986136312 1:0.253837 2:0.278584 3:0.236508 4:23.717 5:24.1513 6:27.2802 7:18.5033 8:1 
0.01139991563488522 1:1.13739 2:1.17564 3:1.34695 4:26.498 5:26.9286 6:30.5617 7:35.8334 8:1 
0.005450772205118976 1:0.0022127 2:0.00401253 3:0.000861466 4:10.7058 5:10.8807 6:12.8172 7:9.92871 8:1 
0.001952606368427812 1:0.342823 2:0.351777 3:0.318795 4:13.8597 5:14.0442 6:15.5466 7:11.1359 8:1 
0.006086196150090676 1:0.0695933 2:0.06319 3:0.0583826 4:14.9942 5:15.2039 6:16.8456 7:10.0118 8:1 
0.006657250164003332 1:0.622329 2:0.641291 3:0.674884 4:25.2166 5:25.7723 6:27.9412 7:14.66 8:1 
0.01788356679831575 1:0.226705 2:0.231568 3:0.244683 4:26.14 5:26.5673 6:30.316 7:32.346 8:1 
0.004370139682546391 1:0.234612 2:0.238099 3:0.154461 4:21.9576 5:22.3688 6:25.4206 7:28.4925 8:1 
0.003785882368202403 1:0.144201 2:0.129861 3:0.193278 4:26.8738 5:27.3233 6:31.0223 7:35.7431 8:1 
0.00199498035907014 1:0.0605567 2:0.0593678 3:0.0542517 4:21.3429 5:21.7422 6:24.7476 7:26.6771 8:1 
0.009695350152147553 1:1.449 2:1.50489 3:1.68193 4:27.4229 5:27.8939 6:31.6161 7:35.3828 8:1 
0.01768281382436332 1:0.352788 2:0.342341 3:0.334327 4:28.5078 5:29.0027 6:32.9091 7:38.6044 8:1 
0.003862460639404126 1:0.729544 2:0.755004 3:0.898923 4:21.3205 5:21.728 6:24.7248 7:30.6993 8:1 
0.006691237530481176 1:0.301725 2:0.309191 3:0.478638 4:27.7705 5:28.2519 6:32.0716 7:33.9695 8:1 
0.007094016035174955 1:0.2424 2:0.240983 3:0.293999 4:20.3427 5:20.7269 6:23.6394 7:26.2956 8:1 
0.008660189523084895 1:0.222998 2:0.228598 3:0.27746 4:29.3766 5:29.8916 6:33.8239 7:38.0507 8:1 
0.009002006679526961 1:1.13216 2:1.16588 3:1.23133 4:20.9083 5:21.3272 6:24.2824 7:23.9928 8:1 
0.01676151855678062 1:0.645478 2:0.651293 3:0.811509 4:28.8568 5:29.3745 6:33.3192 7:27.8815 8:1 
0.01503512057862129 1:0.0549445 2:0.066542 3:0.111453 4:20.1834 5:20.5977 6:23.551 7:31.9175 8:1 
0.01315187696979006 1:0.26482 2:0.261292 3:0.211821 4:31.0638 5:31.6477 6:35.7671 7:39.7018 8:1 
0.0175321294179864 1:0.914816 2:0.922493 3:0.881028 4:29.9855 5:30.5326 6:34.5393 7:26.102 8:1 
0.01294778997232357 1:1.11819 2:1.13978 3:1.12764 4:21.2045 5:21.6466 6:24.5889 7:15.3957 8:1 
0.01859396412339935 1:1.14804 2:1.21975 3:1.44202 4:32.2654 5:32.8903 6:37.1366 7:44.3492 8:1 
0.01626373433277728 1:0.322105 2:0.339358 3:0.523027 4:32.6304 5:33.2808 6:37.6105 7:47.4173 8:1 
0.001903356512423635 1:0.537051 2:0.553007 3:0.687632 4:20.7857 5:21.228 6:24.3776 7:32.3468 8:1 
0.003042983597701005 1:0.342958 2:0.335407 3:0.30139 4:32.7317 5:33.3817 6:37.6367 7:44.5532 8:1 
0.007229497935307578 1:0.0807862 2:0.0853615 3:0.141583 4:32.8679 5:33.526 6:37.8165 7:45.4277 8:1 
0.02792494974036464 1:0.0497766 2:0.0452373 3:0.0886717 4:36.3201 5:36.9081 6:41.512 7:63.6609 8:1 
0.02757990173794267 1:0.284981 2:0.289391 3:0.0921441 4:8.23627 5:8.36383 6:2.66636 7:58.9778 
0.01937765748380927 1:0.0793594 2:0.0806162 3:0.0263177 4:6.86872 5:6.97528 6:2.22742 7:6.00993 
0.02783547541912063 1:11.8807 2:12.5 3:13.6094 4:124.747 5:131.25 6:142.899 7:87773.4 8:1 
0.02760707518883954 1:0.104241 2:0.102526 3:0.0409338 4:6.28625 5:6.42138 6:2.882 7:187.573 
0.02196468328424162 1:0.171765 2:0.177068 3:0.114863 4:14.6888 5:14.9617 6:5.77425 7:18.5934 
0.003083893902163626 1:0.00520498 2:0.00528595 3:0.00169338 4:5.78585 5:5.87528 6:1.86876 7:1.81304 
1 1:0.0464351 2:0.0471525 3:0.0149925 4:0.183874 5:0.186715 6:0.0593676 7:0.298974 
0.01834284354282045 1:0.239982 2:0.24363 3:0.0761115 4:11.0307 5:11.2041 6:3.62741 7:6.56342 
0.02763255181233787 1:3.1316 2:3.19606 3:1.37169 4:18.4297 5:18.7784 6:7.38332 7:779.153 
0.02791682573605148 1:0.0220641 2:0.0237696 3:0.0376724 4:16.6896 5:17.0402 6:7.46888 7:126.463 
0.02786569589822502 1:0.34379 2:0.353961 3:0.220145 4:70.4395 5:72.0734 6:34.9796 7:20.7982 
0.02607620995850997 1:0.397576 2:0.412643 3:0.328419 4:65.6425 5:67.2738 6:35.0369 7:18.5467 
0.02581381951698134 1:0.0230401 2:0.0270519 3:0.0893328 4:63.091 5:64.7382 6:35.4531 7:15.7141 
0.02573729580267808 1:0.0199356 2:0.0218568 3:0.0425818 4:60.7157 5:62.3623 6:35.497 7:10.0467 
0.02642251850489302 1:0.0351796 2:0.0379679 3:0.0616877 4:57.3403 5:58.9297 6:34.292 7:9.39142 
0.02128669565671809 1:0.0842834 2:0.0850105 3:0.0143321 4:53.188 5:54.6728 6:32.0441 7:8.15233 
0.02747685749605366 1:0.0227222 2:0.0203466 3:0.0537034 4:48.7094 5:50.0643 6:29.2366 7:6.16473 
0.01789274681923149 1:0.332168 2:0.344154 3:0.261051 4:44.4106 5:45.6334 6:26.3762 7:5.67844 
0.02781336900233972 1:0.0814083 2:0.0838485 3:0.0525792 4:40.522 5:41.6181 6:23.6269 7:4.06141 8:1 
0.009168912325568155 1:0.00717115 2:0.00728086 3:0.00232191 4:6.23938 5:6.3358 6:2.01511 7:0.0744246 
0.01926887926542629 1:0.0986288 2:0.10342 3:0.105122 4:34.3144 5:35.205 6:19.1637 7:2.70314 
0.009682818830663464 1:0.219485 2:0.222981 3:0.073219 4:6.87535 5:6.98245 6:2.23949 7:3.74412 
0.0279673476760226 1:0.086359 2:0.0904157 3:0.0889233 4:37.1656 5:38.1521 6:21.2459 7:42.5978 
0.01309619245816094 1:0.0138085 2:0.0142574 3:0.00964308 4:32.1569 5:32.9811 6:17.7257 7:2.43692 
0.01191092904917715 1:0.0869514 2:0.0900285 3:0.0669299 4:30.0854 5:30.846 6:16.347 7:2.26855 8:1 
0.01392200130429389 1:0.0127672 2:0.0133913 3:0.0135463 4:28.2895 5:28.9936 6:15.1235 7:1.7286 
0.007429151079530782 1:0.0421815 2:0.0441562 3:0.0434597 4:26.6272 5:27.2796 6:14.003 7:1.73198 8:1 
0.01300746420735785 1:0.0216284 2:0.0227875 3:0.0255522 4:25.0134 5:25.6183 6:12.9738 7:1.19936 
0.00852055345899747 1:0.017199 2:0.0183314 3:0.0250249 4:22.7232 5:23.2602 6:11.5079 7:1.13502 
0.009509675812357989 1:0.0416737 2:0.0426542 3:0.021082 4:20.6175 5:21.0888 6:10.0819 7:1.23393 
0.02782392651548016 1:2.68038 2:2.75098 3:1.52016 4:45.9061 5:47.0711 6:25.0441 7:1847.24 
0.02466287990932425 1:0.159959 2:0.165621 3:0.123291 4:17.0259 5:17.3831 6:7.60797 7:6.77921 
0.02750824175883032 1:1.48317 2:1.54019 3:1.24388 4:15.5881 5:16.1613 6:12.4872 7:965.555 
0.02790631350823852 1:0.0691504 2:0.0695953 3:0.00852513 4:80.2012 5:82.5661 6:51.1444 7:12.8396 
0.0230813278183068 1:0.012099 2:0.0130454 3:0.020984 4:15.7039 5:16.0096 6:6.48557 7:15.1591 
0.02713556425860741 1:0.0491376 2:0.0488048 3:0.00838447 4:68.449 5:70.5582 6:45.6884 7:10.8048 
0.02687619238430217 1:0.0373909 2:0.0400014 3:0.0576043 4:59.6823 5:61.5174 6:39.7477 7:7.31417 
0.02065989317439277 1:0.163709 2:0.169295 3:0.121433 4:14.2675 5:14.5219 6:5.36744 7:5.34674 
0.02166970394790413 1:0.0871336 2:0.0891962 3:0.0442824 4:51.2014 5:52.7567 6:33.6736 7:7.90235 
0.01126324652002489 1:4.8995e-05 2:5.14388e-05 3:1.0252e-05 4:14.0901 5:14.3185 6:4.79104 7:2.66572e-05 
0.01848992937641296 1:0.0308349 2:0.0307343 3:0.00317538 4:43.4073 5:44.6974 6:27.9096 7:6.67358 
0.02759229987001166 1:0.0267134 2:0.0286214 3:0.0421863 4:36.3107 5:37.3659 6:22.8079 7:68.7179 
0.01956421582422291 1:0.14168 2:0.11343 3:0.277861 4:5.72798 5:4.84367 6:9.26622 7:10.2144 
0.005281974032290613 1:0.00109726 2:0.00112152 3:0.000446081 4:14.0582 5:14.286 6:4.77582 7:0.00051822 
0.001407718863986175 1:0.00316393 2:0.00261658 3:0.00556493 4:9.50203 5:7.85852 6:16.7179 7:0.0676127 8:1 
0.0115885652655905 1:0.1465 2:0.151945 3:0.11876 4:32.5838 5:33.5055 6:19.9013 7:2.26799 
0.07423880467039244 1:0.000330269 2:0.000336349 3:0.000135839 4:13.8671 5:14.0911 6:4.69641 7:0.00103095 
0.009935499482161325 1:0.000751317 2:0.000765324 3:0.000311106 4:13.7902 5:14.0127 6:4.66446 7:0.00124419 8:1 
0.01073083801727246 1:0.00974333 2:0.0101457 3:0.00884199 4:28.9904 5:29.7827 6:17.0843 7:2.01303 8:1 
0.01105237326707327 1:0.0430715 2:0.0445001 3:0.0309246 4:25.6615 5:26.3348 6:14.4933 7:1.6508 8:1 
0.01335929645041347 1:0.0640814 2:0.0658664 3:0.0385126 4:22.7305 5:23.2981 6:12.1921 7:1.26605 8:1 
0.02729551001892516 1:2.68633 2:2.8003 3:2.49255 4:33.7031 5:34.8323 6:24.5296 7:865.854 
0.01145451636913741 1:0.036485 2:0.0373554 3:0.018596 4:20.4448 5:20.928 6:10.3549 7:1.4106 8:1 
0.01945513789130595 1:0.0469894 2:0.0479766 3:0.0210997 4:18.3872 5:18.7959 6:8.73112 7:2.42406 
0.02537473045485455 1:0.00220591 2:0.00224423 3:0.000793725 4:12.4944 5:12.6923 6:4.14241 7:15.7203 
0.01814130744289372 1:0.0218809 2:0.0222093 3:0.0068281 4:16.1212 5:16.4582 6:7.17658 7:1.27893 8:1 
0.008638725708806307 1:0.00322431 2:0.00266695 3:0.00567305 4:10.2047 5:8.44011 6:17.9529 7:0.0370254 
0.0132507390556852 1:0.0692452 2:0.0572754 3:0.121813 4:7.6306 5:6.31205 6:13.4218 7:1.44158 8:1 
0.02084117141393173 1:0.00312823 2:0.00318366 3:0.00112511 4:11.4081 5:11.5873 6:3.7485 7:0.00626384 8:1 
0.01345433758408685 1:0.00449038 2:0.00458008 3:0.001836 4:12.4016 5:12.5996 6:4.14721 7:7.4509 
0.5905031150028149 1:0.00454521 2:0.00463057 3:0.0017743 4:11.753 5:11.9391 6:3.89699 7:0.117161 
0.02730334894807984 1:0.580736 2:0.550111 3:0.831305 4:55.0883 5:47.108 6:92.7004 7:20.8656 8:1 
0.8807068487877644 1:0.0200496 2:0.0204099 3:0.00756244 4:11.3675 5:11.5467 6:3.75132 7:0.196193 
0.02790974944141456 1:0.418835 2:0.371301 3:0.66894 4:58.9498 5:50.8248 6:98.0677 7:20.5662 8:1 
0.0270518738479385 1:0.153814 2:0.145655 3:0.22032 4:62.4585 5:54.2578 6:102.792 7:20.4228 8:1 
0.02788652146878545 1:0.668006 2:0.616549 3:1.00056 4:65.8566 5:57.6241 6:107.254 7:18.0939 8:1 
0.02708026585485118 1:0.288932 2:0.298249 3:0.346666 4:69.6632 5:61.4047 6:112.227 7:19.454 8:1 
0.06274292832428845 1:0.0593881 2:0.0491651 3:0.104355 4:3.50149 5:2.89645 6:6.15893 7:0.0902587 8:1 
0.008293435511311285 1:0.00170058 2:0.00172913 3:0.00055097 4:6.00092 5:6.09365 6:1.9379 7:0.0208157 8:1 
0.8266425968140515 1:0.000397027 2:0.000409603 3:0.000158787 4:13.2667 5:13.4795 6:4.4581 7:0.000810881 
0.02697483764476727 1:0.180467 2:0.144716 3:0.32992 4:72.5293 5:64.2944 6:115.853 7:20.3813 8:1 
0.02788311517730374 1:0.0528989 2:0.070776 3:0.0193286 4:75.4441 5:67.2788 6:119.417 7:25.5558 8:1 
0.02629821914194413 1:0.338364 2:0.317784 3:0.49173 4:77.4503 5:69.4189 6:121.635 7:19.3197 8:1 
0.02655091734886067 1:0.0409174 2:0.0406647 3:0.0534058 4:79.9133 5:71.9954 6:124.497 7:17.5565 
0.02712104516201136 1:0.367139 2:0.345486 3:0.531745 4:81.4301 5:73.6706 6:126.018 7:27.1139 8:1 
0.0249048846411794 1:0.405852 2:0.390583 3:0.564172 4:83.1724 5:75.5671 6:127.841 7:16.2648 
0.01901073476419163 1:0.397946 2:0.396509 3:0.516363 4:84.4031 5:76.9705 6:128.955 7:13.0953 8:1 
0.01459591786943765 1:0.538736 2:0.525578 3:0.729556 4:85.3059 5:78.0584 6:129.613 7:10.4638 8:1 
0.8779225244024899 1:8.9407e-06 2:7.24196e-06 3:1.71959e-05 4:3.27382 5:2.70739 6:5.76046 7:0.000248555 8:1 
0.004554033351612687 1:0.000295177 2:0.000244483 3:0.000519365 4:3.37703 5:2.79275 6:5.94205 7:0.000256073 
0.005962025572311663 1:0.104674 2:0.106915 3:0.128574 4:87.1351 5:80.4526 6:130.427 7:9.69935 8:1 
0.01720439527647267 1:0.000771374 2:0.00063777 3:0.00135818 4:3.42831 5:2.83516 6:6.03227 7:0.000240163 
0.0133547887898044 1:0.262571 2:0.256499 3:0.354758 4:86.9444 5:80.4534 6:129.659 7:11.1151 8:1 
0.01027320382142601 1:0.0918813 2:0.0888638 3:0.126558 4:87.1472 5:80.8483 6:129.396 7:7.96576 8:1 
0.2408625197415557 1:0.00334221 2:0.00340331 3:0.00125825 4:12.0819 5:12.2728 6:3.997 7:0.0049612 
0.004731215011042486 1:0.0090825 2:0.00923693 3:0.00325607 4:11.142 5:11.3167 6:3.65313 7:0.00733022 8:1 
0.4097034093892162 1:0.00138634 2:0.00141102 3:0.000489667 4:10.7876 5:10.9562 6:3.52738 7:0.00749734 
0.007070903955403496 1:0.0164989 2:0.016753 3:0.00536422 4:7.39813 5:7.5125 6:2.39026 7:0.0665467 8:1 
0.003935151096160485 1:0.160903 2:0.153894 3:0.226256 4:87.0435 5:80.927 6:128.765 7:7.78819 8:1 
0.01971173384250363 1:0.209198 2:0.208005 3:0.272538 4:86.5629 5:80.6306 6:127.644 7:4.88506 8:1 
0.004891609371969685 1:0.19068 2:0.178717 3:0.278177 4:85.7988 5:80.2107 6:125.722 7:5.77971 8:1 
0.01553426424980393 1:0.193165 2:0.200819 3:0.227859 4:85.2444 5:79.8168 6:124.57 7:7.37062 
0.01110204621661111 1:0.016078 2:0.0125003 3:0.0304923 4:84.3611 5:79.0929 6:122.998 7:5.90584 
0.008779671843659459 1:0.336769 2:0.328721 3:0.455579 4:83.7175 5:78.6023 6:121.752 7:6.04263 8:1 
0.0156963336700739 1:0.13973 2:0.137829 3:0.185078 4:82.6243 5:77.6549 6:119.946 7:5.57724 8:1 
0.004996964242420523 1:0.14341 2:0.142263 3:0.187768 4:81.9138 5:77.0811 6:118.659 7:4.77369 8:1 
0.01532632398453896 1:0.077013 2:0.0768213 3:0.0996871 4:80.9617 5:76.2564 6:117.085 7:4.60071 8:1 
0.009996146553720428 1:0.13539 2:0.13755 3:0.168434 4:79.887 5:75.3096 6:115.352 7:4.2987 8:1 
0.01574704112811654 1:0.048615 2:0.0494456 3:0.060379 4:78.7636 5:74.3062 6:113.579 7:4.14755 8:1 
0.01162128811892263 1:0.0789027 2:0.0790782 3:0.1012 4:77.5304 5:73.1818 6:111.694 7:3.79049 8:1 
0.02056092157684264 1:1.71065e-05 2:1.29044e-05 3:2.69413e-05 4:4.74489 5:3.92408 6:8.34846 7:17.6663 8:1 
0.01366868116074796 1:0.250751 2:0.238272 3:0.356889 4:76.4827 5:72.2406 6:110.054 7:3.53911 8:1 
0.01355391152230368 1:0.0215683 2:0.0196009 3:0.033103 4:75.2678 5:71.1243 6:108.221 7:3.49034 8:1 
0.01400483677631575 1:0.178096 2:0.168689 3:0.254998 4:74.1263 5:70.0746 6:106.501 7:3.1955 
0.01309867885863102 1:0.194341 2:0.186496 3:0.271646 4:72.9509 5:68.9847 6:104.754 7:3.30046 
0.01238784448867066 1:0.0370822 2:0.0370293 3:0.0478816 4:71.7499 5:67.8637 6:102.989 7:2.65448 
0.01348145698233363 1:0.094882 2:0.0881443 3:0.140543 4:70.6888 5:66.8763 6:101.422 7:2.56582 
0.01506508164710944 1:0.0135512 2:0.0134592 3:0.0177321 4:69.2683 5:65.5315 6:99.3864 7:1.81545 
0.01930931295456456 1:0.354913 2:0.345551 3:0.482554 4:64.8464 5:60.5953 6:95.095 7:3.63278 8:1 
0.01306941816295474 1:0.0271587 2:0.0310285 3:0.0243711 4:68.0957 5:64.4244 6:97.6978 7:2.09018 
0.01517434657875374 1:0.0404286 2:0.0344419 3:0.0683031 4:66.7936 5:63.1861 6:95.8472 7:1.52534 
0.006291634964923487 1:0.112813 2:0.117775 3:0.131784 4:65.6594 5:62.1068 6:94.237 7:1.58652 8:1 
0.01118325629045547 1:0.020678 2:0.0216241 3:0.0240841 4:64.4556 5:60.9582 6:92.5364 7:1.40606 8:1 
0.007596657025607685 1:0.0117533 2:0.00994611 3:0.0200672 4:63.0357 5:59.5974 6:90.5467 7:1.74267 8:1 
0.002548793537354652 1:0.000101507 2:8.50856e-05 3:0.000181377 4:6.36257 5:5.2624 6:11.1935 7:0.00050301 8:1 
0.0009496096791929975 1:0.000355631 2:0.000294238 3:0.000625074 4:6.61059 5:5.46764 6:11.6295 7:0.000532739 
0.013421827693976 1:0.185572 2:0.177803 3:0.260131 4:60.3523 5:57.0407 6:86.7459 7:2.68662 8:1 
0.02374221831836382 1:0.161838 2:0.156924 3:0.22171 4:56.6607 5:53.5177 6:81.5324 7:4.62151 8:1 
0.02715791372136928 1:0.116298 2:0.114673 3:0.154121 4:53.1791 5:50.1823 6:76.6503 7:6.5046 8:1 
0.001465719879984646 1:0.00194618 2:0.00160992 3:0.00342226 4:6.63571 5:5.48842 6:11.6737 7:0.00053197 8:1 
0.009538268965323041 1:0.0462341 2:0.0440047 3:0.0656199 4:63.3288 5:59.5893 6:91.7455 7:2.95968 8:1 
0.02136087360268063 1:0.256644 2:0.244388 3:0.363853 4:49.6544 5:46.7981 6:71.7286 7:4.15712 8:1 
1.971565488427204e-05 1:0.317935 2:0.30914 3:0.433375 4:63.0381 5:59.3688 6:91.1801 7:2.24093 8:1 
0.02792449166784317 1:0.179914 2:0.175994 3:0.242366 4:46.0296 5:43.3145 6:66.6761 7:20.2454 8:1 
0.009306234422487179 1:0.0765083 2:0.0757678 3:0.100513 4:62.113 5:58.5752 6:89.6303 7:1.95517 8:1 
0.02761633637218323 1:0.137606 2:0.134701 3:0.185164 4:42.7898 5:40.1951 6:62.1757 7:13.2631 8:1 
0.009381050427565584 1:0.195658 2:0.189754 3:0.268019 4:61.0989 5:57.6765 6:88.0095 7:1.60242 8:1 
0.02754911519619474 1:0.0279741 2:0.0252869 3:0.0433559 4:60.4949 5:57.1273 6:87.082 7:154.593 
0.02750512904213709 1:0.24793 2:0.240829 3:0.338597 4:39.8042 5:37.3122 6:58.0515 7:17.527 8:1 
0.02679270288088481 1:0.059207 2:0.0538042 3:0.090956 4:36.9078 5:34.5131 6:54.0562 7:18.218 8:1 
0.004334291197691268 1:0.103987 2:0.101453 3:0.14077 4:59.8961 5:56.5808 6:86.1685 7:1.2433 8:1 
0.02787653959497771 1:0.28542 2:0.269462 3:0.411076 4:33.9933 5:31.6964 6:50.0364 7:12.509 8:1 
0.001003482665084821 1:0.0485497 2:0.0483093 3:0.0631685 4:59.288 5:56.0177 6:85.2628 7:1.24454 8:1 
0.01149129467287737 1:0.0381548 2:0.0361154 3:0.0547023 4:58.7713 5:55.5414 6:84.487 7:1.04564 8:1 
0.01761273893322967 1:0.0248327 2:0.0216889 3:0.0405653 4:31.537 5:29.3144 6:46.6711 7:8.14159 8:1 
0.01122444208914802 1:0.0849555 2:0.0820069 3:0.11746 4:58.0876 5:54.9002 6:83.4908 7:1.00528 
0.01332345045789943 1:0.00151807 2:0.00125504 3:0.00266516 4:6.06608 5:5.01707 6:10.6721 7:0.000477969 
0.0110506329656164 1:0.566775 2:0.542244 3:0.79672 4:29.448 5:27.2895 6:43.8063 7:6.77426 8:1 
0.01785543784081572 1:0.239958 2:0.23175 3:0.331369 4:27.3673 5:25.2714 6:40.9565 7:7.29779 8:1 
0.01138918704240444 1:0.0101593 2:0.00693393 3:0.0218916 4:56.7922 5:53.6767 6:81.627 7:0.891616 8:1 
0.01276872638401953 1:0.156029 2:0.147624 3:0.223819 4:25.3428 5:23.3073 6:38.1848 7:5.19848 8:1 
0.002594160247436694 1:0.000604689 2:0.000499398 3:0.00106829 4:6.38382 5:5.27998 6:11.2308 7:0.000501094 8:1 
0.0007222014735476234 1:0.000426501 2:0.000354409 3:0.000752211 4:7.5887 5:6.27722 6:13.3486 7:0.000610372 8:1 
0.003316804678438791 1:0.2177 2:0.197074 3:0.336579 4:10.673 5:9.02514 6:18.2374 7:0.604835 8:1 
0.01344628191723111 1:0.0528407 2:0.0500237 3:0.0756972 4:24.0837 5:22.0774 6:36.4838 7:5.0271 8:1 
0.004929421150831193 1:0.197098 2:0.179334 3:0.302241 4:11.1827 5:9.46995 6:19.071 7:0.524053 
0.01728280468272558 1:0.021481 2:0.0233426 3:0.0225811 4:22.7301 5:20.7617 6:34.6374 7:5.53658 
0.006650573669280302 1:0.0140667 2:0.011964 3:0.0238539 4:11.5584 5:9.80071 6:19.6773 7:0.49032 
0.009735161560936538 1:0.0275035 2:0.0296255 3:0.0296347 4:21.4445 5:19.5074 6:32.8967 7:4.85694 8:1 
0.01267546166034169 1:0.0564146 2:0.0543957 3:0.078196 4:55.5043 5:52.451 6:79.7986 7:0.752407 8:1 
0.02761817699622937 1:0.0855136 2:0.0862978 3:0.107985 4:20.3531 5:18.4455 6:31.4111 7:13.1505 
0.0009654514811237025 1:0.137969 2:0.130281 3:0.198623 4:19.3614 5:17.4738 6:30.0793 7:4.53999 
0.01525598086483007 1:0.0157251 2:0.0151966 3:0.0216513 4:54.2141 5:51.2119 6:77.9982 7:0.594083 8:1 
0.0180967734797628 1:0.246293 2:0.232807 3:0.353938 4:18.8174 5:16.9115 6:29.4286 7:5.61748 8:1 
0.01259458465277394 1:0.0306447 2:0.030452 3:0.0399637 4:52.8819 5:49.9268 6:76.1544 7:0.628936 8:1 
0.002241872383782133 1:0.0353301 2:0.0336969 3:0.0499673 4:52.2913 5:49.3551 6:75.342 7:0.518981 8:1 
0.009186505765741537 1:0.145495 2:0.134143 3:0.218295 4:19.1514 5:17.1905 6:30.009 7:3.80175 8:1 
0.007290532577809036 1:0.0560343 2:0.0544734 3:0.0764599 4:51.6751 5:48.7546 6:74.5056 7:0.530006 8:1 
0.009707578561751713 1:0.00442004 2:0.00485659 3:0.00453424 4:51.0347 5:48.1307 6:73.6363 7:0.469776 8:1 
0.001348222486058071 1:0.0216959 2:0.0181009 3:0.0377373 4:8.10766 5:6.70795 6:14.2575 7:0.0620913 8:1 
0.007168016257171216 1:0.0921984 2:0.0877686 3:0.130784 4:50.2316 5:47.3525 6:72.5342 7:1.09344 8:1 
0.007660979484770751 1:0.0138977 2:0.0148244 3:0.0153928 4:49.0778 5:46.2385 6:70.9397 7:1.19539 8:1 
0.01563673698380983 1:0.06461 2:0.062922 3:0.0877857 4:47.876 5:45.0774 6:69.2814 7:1.29796 8:1 
0.01178160930905091 1:0.011694 2:0.00978065 3:0.0202799 4:8.48227 5:7.01938 6:14.9122 7:0.0910182 
0.01539959356456382 1:0.0605866 2:0.056159 3:0.0900838 4:12.5032 5:10.6199 6:21.2366 7:0.737024 8:1 
0.009825569254547266 1:0.0286005 2:0.024025 3:0.0493077 4:9.58573 5:7.93705 6:16.8398 7:0.89307 8:1 
0.008705970174794493 1:0.135422 2:0.129948 3:0.189296 4:20.2202 5:18.0196 6:32.0388 7:5.2059 8:1 
0.009765314931615865 1:0.0490686 2:0.0406193 3:0.0862241 4:13.6476 5:11.5887 6:23.1891 7:0.873123 8:1 
0.002977242403477798 1:0.0517461 2:0.0482132 3:0.0762929 4:13.7831 5:11.7005 6:23.4283 7:0.897615 8:1 
0.001444346674754093 1:0.395981 2:0.370433 3:0.579569 4:20.2865 5:18.0169 6:32.3126 7:2.8597 8:1 
0.01079352414883909 1:0.121051 2:0.116043 3:0.16952 4:46.6216 5:43.8641 6:67.5539 7:1.4658 8:1 
0.0180974316882388 1:0.0748615 2:0.0697708 3:0.110273 4:45.4674 5:42.7437 6:65.9754 7:1.46495 
0.01628457314120237 1:0.171061 2:0.164663 3:0.237707 4:43.9016 5:41.2277 6:63.8238 7:2.9014 8:1 
0.01251331593825914 1:0.0770204 2:0.0725524 3:0.111369 4:42.699 5:40.0572 6:62.1873 7:2.96655 8:1 
0.0120426203180777 1:0.150323 2:0.144958 3:0.208171 4:41.4955 5:38.8851 6:60.5521 7:3.14227 8:1 
0.01589296129228595 1:0.0968502 2:0.0944338 3:0.131292 4:40.2442 5:37.664 6:58.8584 7:2.79059 8:1 
0.01728692617554706 1:0.142588 2:0.137872 3:0.196461 4:38.9235 5:36.3758 6:57.0688 7:4.77892 8:1 
0.0151791522222526 1:0.221921 2:0.212263 3:0.312052 4:37.6512 5:35.134 6:55.3474 7:3.01269 8:1 
0.0107532965913112 1:0.182508 2:0.176443 3:0.251555 4:36.5396 5:34.0448 6:53.8554 7:3.70923 8:1 
0.0161824649314258 1:0.204945 2:0.196572 3:0.286776 4:35.3298 5:32.8609 6:52.2268 7:4.66782 8:1 
0.009585860320207621 1:0.0751538 2:0.0719991 3:0.105383 4:34.0894 5:31.6462 6:50.5595 7:4.10692 8:1 
0.01609173554012319 1:0.201272 2:0.192779 3:0.282346 4:33.1631 5:30.7325 6:49.3325 7:5.01018 
0.004233802139377302 1:0.276104 2:0.26403 3:0.388476 4:32.1886 5:29.7726 6:48.0376 7:5.48416 8:1 
0.01198789818098533 1:0.102049 2:0.0973103 3:0.144346 4:31.122 5:28.7255 6:46.611 7:5.63311 8:1 
0.004818696873215567 1:0.0396882 2:0.0382069 3:0.0551372 4:20.5683 5:18.1597 6:33.0546 7:2.13283 
0.01090285776700419 1:0.0298103 2:0.0290372 3:0.0404725 4:29.5025 5:27.1192 6:44.4896 7:7.61095 8:1 
0.003846553918809011 1:0.143983 2:0.137453 3:0.20324 4:28.1921 5:25.7825 6:42.8741 7:5.88457 8:1 
0.007053406816404239 1:0.29193 2:0.279273 3:0.410436 4:27.4687 5:25.0373 6:42.0023 7:4.24488 8:1 
0.01266013700200946 1:0.00804019 2:0.00771147 3:0.0112486 4:15.0303 5:12.6856 6:25.7488 7:0.384739 
0.007867154260989051 1:0.0954158 2:0.0880593 3:0.142948 4:27.0223 5:24.5338 6:41.5829 7:1.87587 8:1 
0.01251822771260191 1:0.0475522 2:0.0437206 3:0.0716995 4:15.0909 5:12.7304 6:25.8701 7:0.349588 8:1 
0.02767190657679764 1:0.140152 2:0.126047 3:0.218942 4:14.517 5:12.2444 6:24.8913 7:7.85529 8:1 
0.007893153243984794 1:0.0513399 2:0.0488148 3:0.0730038 4:25.9067 5:23.1445 6:40.8925 7:5.63852 8:1 
0.02150000325931989 1:0.0484024 2:0.0441561 3:0.0739164 4:20.5473 5:17.7482 6:34.0924 7:1.25837 8:1 
0.06217046005818416 7:25.4525 8:1 
0.02801132216676411 1:0.251472 2:0.210087 3:0.436687 4:18.0879 5:15.6068 6:30.0583 7:32.1186 8:1 
0.02572010356870147 1:1.29333 2:1.16487 3:2.01575 4:8.30443 5:7.4985 6:12.8914 7:147.738 8:1 
0.02787574678147604 1:0.0516207 2:0.04892 3:0.0738411 4:21.3133 5:19.2158 6:33.1652 7:140.579 8:1 
0.003058299303262714 1:0.0381041 2:0.033657 3:0.0611956 4:25.4983 5:22.5857 6:40.7771 7:3.72627 
0.01409113232188774 1:0.165141 2:0.157822 3:0.232634 4:28.4176 5:25.5975 6:44.2839 7:1.15268 8:1 
0.01814389885167643 1:0.0732934 2:0.0684216 3:0.107651 4:25.3908 5:22.3811 6:40.9037 7:2.13401 8:1 
0.01015652144422896 1:0.0040679 2:0.00440049 3:0.00434089 4:28.1974 5:25.3405 6:44.1009 7:0.816172 8:1 
0.02797319787621583 1:29.7018 2:31.25 3:34.0236 4:668.289 5:703.125 6:765.53 7:201904 
0.02713814165398309 1:0.000465393 3:0.00012207 4:950.456 5:1000 6:1088.75 
0.02756507042069634 1:29.7019 2:31.25 3:34.0236 4:534.631 5:562.5 6:612.424 7:244385 8:1 
1 1:6.71746e-07 2:7.0676e-07 3:7.69489e-07 4:2.02634e-05 5:2.13196e-05 6:2.32118e-05 7:5.3644e-10 
1 1:5.77152e-07 2:6.07237e-07 3:6.61132e-07 4:8.57088e-07 5:9.01766e-07 6:9.81801e-07 7:3.38831e-11 
1 1:3.05975e-07 2:3.21935e-07 3:3.50512e-07 4:5.50688e-05 5:5.79394e-05 6:6.30817e-05 7:2.57743e-11 8:1 
1 1:5.48569e-07 2:5.77165e-07 3:6.28394e-07 4:4.26209e-05 5:4.48425e-05 6:4.88225e-05 7:3.29583e-11 8:1 
1 1:3.68897e-07 2:3.88108e-07 3:4.2256e-07 4:7.37459e-05 5:7.75901e-05 6:8.44765e-05 7:4.4542e-11 8:1 
1 1:4.03763e-08 2:4.24877e-08 3:4.62628e-08 4:5.85495e-05 5:6.16015e-05 6:6.70689e-05 7:2.86367e-11 8:1 
1 1:2.03801e-07 2:2.14438e-07 3:2.33481e-07 4:9.68231e-05 5:0.00010187 6:0.000110911 7:6.61489e-11 8:1 
1 1:2.88181e-07 2:3.03221e-07 3:3.3012e-07 4:7.87319e-05 5:8.28359e-05 6:9.01879e-05 7:4.47316e-11 8:1 
1 1:3.02708e-07 2:3.1847e-07 3:3.46754e-07 4:0.000125291 5:0.000131822 6:0.000143522 7:1.09632e-10 8:1 
1 1:2.04504e-07 2:2.15153e-07 3:2.34227e-07 4:0.000103579 5:0.000108978 6:0.00011865 7:7.78928e-11 8:1 
1 1:2.94041e-07 2:3.09405e-07 3:3.36876e-07 4:0.000160689 5:0.000169065 6:0.00018407 7:1.48019e-10 8:1 
1 1:1.38298e-08 2:1.45728e-08 3:1.58298e-08 4:0.000134884 5:0.000141915 6:0.00015451 7:1.12433e-10 8:1 
1 1:3.90464e-08 2:4.1101e-08 3:4.47326e-08 4:0.000173526 5:0.000182571 6:0.000198775 7:1.72119e-10 8:1 
1 1:1.16981e-07 2:1.23081e-07 3:1.34006e-07 4:1.87754e-05 5:1.97541e-05 6:2.15073e-05 7:3.08068e-10 
1 1:1.67851e-07 2:1.76602e-07 3:1.92264e-07 4:4.3254e-05 5:4.55087e-05 6:4.95478e-05 7:1.77141e-11 8:1 
1 1:3.77526e-07 2:3.97204e-07 3:4.32458e-07 4:2.83465e-06 5:2.98242e-06 6:3.24712e-06 7:7.24142e-11 
1 1:3.96034e-08 2:4.16649e-08 3:4.53595e-08 4:2.97119e-05 5:3.12607e-05 6:3.40352e-05 7:1.00241e-11 8:1 
1 1:2.54027e-07 2:2.6726e-07 3:2.90973e-07 4:5.92836e-05 5:6.23739e-05 6:6.79098e-05 7:4.01992e-11 8:1 
1 1:1.29838e-07 2:1.36605e-07 3:1.48727e-07 4:4.13131e-05 5:4.34666e-05 6:4.73245e-05 7:1.67353e-11 8:1 
1 1:2.7679e-07 2:2.91216e-07 3:3.17075e-07 4:7.94484e-05 5:8.35898e-05 6:9.10087e-05 7:4.97698e-11 8:1 
1 1:2.24614e-07 2:2.36325e-07 3:2.57286e-07 4:5.64392e-05 5:5.93812e-05 6:6.46515e-05 7:2.69493e-11 8:1 
1 1:4.90091e-07 2:5.15624e-07 3:5.61354e-07 4:0.000104748 5:0.000110208 6:0.00011999 7:7.69478e-11 8:1 
1 1:4.27606e-08 2:4.49896e-08 3:4.89821e-08 4:1.30576e-05 5:1.37383e-05 6:1.49576e-05 7:1.00306e-10 8:1 
1 1:1.15394e-07 2:1.2143e-07 3:1.32187e-07 4:7.59406e-05 5:7.98991e-05 6:8.69905e-05 7:4.5879e-11 8:1 
1 1:6.31775e-08 2:6.64672e-08 3:7.23602e-08 4:2.68052e-05 5:2.82024e-05 6:3.07055e-05 7:7.40351e-12 8:1 
1 1:1.94763e-07 2:2.04936e-07 3:2.23073e-07 4:0.000136539 5:0.000143657 6:0.000156407 7:1.32859e-10 8:1 
1 1:7.13408e-08 2:7.50792e-08 3:8.17158e-08 4:0.000100317 5:0.000105546 6:0.000114913 7:6.80334e-11 8:1 
1 1:6.26054e-07 2:6.58738e-07 3:7.17173e-07 4:0.000175888 5:0.000185056 6:0.000201481 7:1.91482e-10 8:1 
1 1:1.05156e-07 2:1.10629e-07 3:1.2045e-07 4:3.74235e-05 5:3.93742e-05 6:4.28688e-05 7:1.31978e-11 8:1 
1 1:4.38039e-07 2:4.60854e-07 3:5.01781e-07 4:0.000131122 5:0.000137957 6:0.000150202 7:1.62518e-10 8:1 
1 1:2.17658e-07 2:2.28995e-07 3:2.49315e-07 4:5.12054e-05 5:5.38745e-05 6:5.86561e-05 7:2.1799e-11 8:1 
1 1:7.26577e-07 2:7.64483e-07 3:8.32318e-07 4:0.000203787 5:0.00021441 6:0.00023344 7:2.24622e-10 8:1 
1 1:3.80542e-08 2:3.99932e-08 3:4.35657e-08 4:0.000168607 5:0.000177396 6:0.000193141 7:1.69791e-10 8:1 
1 1:1.83659e-08 2:1.93418e-08 3:2.10521e-08 4:6.88695e-05 5:7.24594e-05 6:7.88904e-05 7:3.7174e-11 8:1 
1 1:4.51431e-07 2:4.74967e-07 3:5.17102e-07 4:0.000256346 5:0.000269709 6:0.000293647 7:3.62319e-10 8:1 
1 1:3.90013e-07 2:4.10325e-07 3:4.46752e-07 4:9.10927e-05 5:9.5841e-05 6:0.000104347 7:6.09542e-11 8:1 
1 1:1.91827e-06 2:2.01827e-06 3:2.19727e-06 4:0.000317583 5:0.000334137 6:0.000363793 7:4.98272e-10 8:1 
1 1:1.32383e-07 2:1.39253e-07 3:1.51662e-07 4:0.000220544 5:0.000232041 6:0.000252635 7:2.86703e-10 8:1 
1 1:5.55399e-07 2:5.84315e-07 3:6.36195e-07 4:0.000118192 5:0.000124353 6:0.00013539 7:8.90027e-11 8:1 
1 1:4.79868e-08 2:5.04078e-08 3:5.48498e-08 4:0.000392415 5:0.000412871 6:0.000449514 7:8.29691e-10 8:1 
1 1:1.81919e-06 2:1.91401e-06 3:2.08402e-06 4:0.000276814 5:0.000291244 6:0.000317093 7:4.14587e-10 8:1 
1 1:1.19978e-06 2:1.26233e-06 3:1.37441e-06 4:0.000152584 5:0.000160538 6:0.000174786 7:1.38491e-10 8:1 
1 1:9.23528e-07 2:9.71731e-07 3:1.05784e-06 4:0.000344887 5:0.000362865 6:0.000395071 7:5.6341e-10 8:1 
1 1:5.37233e-07 2:5.65333e-07 3:6.15377e-07 4:0.000427535 5:0.000449821 6:0.000489744 7:9.02706e-10 8:1 
1 1:1.08182e-06 2:1.13817e-06 3:1.23914e-06 4:0.000482235 5:0.000507372 6:0.000552403 7:9.56519e-10 8:1 
1 1:1.36475e-06 2:1.43572e-06 3:1.56317e-06 4:0.000522938 5:0.000550197 6:0.00059903 7:1.23218e-09 8:1 
1 1:3.99428e-06 2:4.20262e-06 3:4.57575e-06 4:0.000582615 5:0.000612985 6:0.00066739 7:1.57359e-09 8:1 
1 1:5.78046e-07 2:6.07892e-07 3:6.61661e-07 4:0.000637665 5:0.000670904 6:0.000730449 7:1.86922e-09 8:1 
1 1:7.69509e-07 2:8.09639e-07 3:8.81562e-07 4:0.000703619 5:0.000740296 6:0.000806001 7:2.1854e-09 8:1 
1 1:1.06809e-06 2:1.12412e-06 3:1.22347e-06 4:0.000774945 5:0.00081534 6:0.000887705 7:3.49666e-09 8:1 
1 1:1.7367e-06 2:1.82698e-06 3:1.9892e-06 4:0.000843704 5:0.000887683 6:0.000966469 7:2.74868e-09 8:1 
1 1:4.75899e-07 2:5.01153e-07 3:5.45217e-07 4:0.000929592 5:0.000978048 6:0.00106485 7:3.98303e-09 8:1 
1 1:1.07269e-07 2:1.12872e-07 3:1.22978e-07 4:0.00100639 5:0.00105885 6:0.00115283 7:3.21503e-09 8:1 
1 1:4.99283e-06 2:5.2532e-06 3:5.71941e-06 4:0.00111076 5:0.00116866 6:0.00127238 7:4.75909e-09 8:1 
1 1:1.08065e-06 2:1.1364e-06 3:1.23762e-06 4:0.00119709 5:0.00125949 6:0.00137128 7:5.12897e-09 8:1 
1 1:1.67268e-06 2:1.75987e-06 3:1.91608e-06 4:0.000223598 5:0.000235253 6:0.000256133 7:2.88587e-10 8:1 
1 1:6.53949e-06 2:6.88058e-06 3:7.4913e-06 4:0.00132505 5:0.00139412 6:0.00151785 7:6.84682e-09 8:1 
1 1:3.08799e-06 2:3.2489e-06 3:3.53741e-06 4:0.00141347 5:0.00148714 6:0.00161913 7:8.10412e-09 8:1 
1 1:1.86456e-06 2:1.96174e-06 3:2.1359e-06 4:0.000281412 5:0.000296081 6:0.000322359 7:4.58159e-10 8:1 
1 1:7.61735e-07 2:8.01374e-07 3:8.72584e-07 4:0.00157285 5:0.00165484 6:0.00180171 7:1.05635e-08 8:1 
1 1:6.18399e-06 2:6.50645e-06 3:7.08407e-06 4:0.00165652 5:0.00174287 6:0.00189755 7:1.10577e-08 8:1 
1 1:5.17222e-07 2:5.44145e-07 3:5.92499e-07 4:0.000353784 5:0.000372225 6:0.000405262 7:6.59997e-10 8:1 
1 1:2.7494e-06 2:2.89259e-06 3:3.15017e-06 4:0.00185759 5:0.00195442 6:0.00212788 7:1.21994e-08 8:1 
1 1:7.63002e-07 2:8.02909e-07 3:8.74137e-07 4:0.000437724 5:0.000460542 6:0.000501416 7:8.98842e-10 8:1 
1 1:3.55963e-07 2:3.74534e-07 3:4.07739e-07 4:0.000214608 5:0.000225795 6:0.000245835 7:2.34437e-10 8:1 
1 1:1.57582e-06 2:1.65782e-06 3:1.80517e-06 4:0.000538606 5:0.000566682 6:0.000616977 7:1.24196e-09 8:1 
1 1:4.66367e-07 2:4.90792e-07 3:5.34288e-07 4:0.00137472 5:0.00144637 6:0.00157475 7:7.82286e-09 8:1 
1 1:2.18102e-06 2:2.29472e-06 3:2.49842e-06 4:0.00027082 5:0.000284937 6:0.000310226 7:4.03286e-10 8:1 
1 1:3.6108e-07 2:3.799e-07 3:4.13776e-07 4:0.000657345 5:0.00069161 6:0.000752994 7:1.94759e-09 8:1 
1 1:2.09759e-05 2:2.20692e-05 3:2.40276e-05 4:0.00164556 5:0.00173134 6:0.001885 7:1.14103e-08 8:1 
1 1:1.15268e-06 2:1.21271e-06 3:1.32033e-06 4:0.000337681 5:0.000355283 6:0.000386816 7:5.60536e-10 8:1 
1 1:1.61142e-06 2:1.69562e-06 3:1.84582e-06 4:0.000795669 5:0.000837144 6:0.000911444 7:2.87947e-09 8:1 
1 1:2.02726e-06 2:2.13296e-06 3:2.32223e-06 4:0.000244432 5:0.000257173 6:0.000279998 7:3.11554e-10 8:1 
1 1:1.79147e-06 2:1.88487e-06 3:2.05218e-06 4:0.000420224 5:0.000442129 6:0.00048137 7:8.45695e-10 8:1 
1 1:2.61e-06 2:2.74622e-06 3:2.99024e-06 4:0.000960141 5:0.00101019 6:0.00109985 7:3.81475e-09 8:1 
1 1:7.24626e-06 2:7.62439e-06 3:8.30078e-06 4:0.00193538 5:0.00203626 6:0.00221699 7:1.63231e-08 8:1 
1 1:2.89343e-07 2:3.04477e-07 3:3.31444e-07 4:0.000194521 5:0.000204661 6:0.000222825 7:0.00195151 8:1 
1 1:1.63369e-07 2:1.71869e-07 3:1.8723e-07 4:0.000307539 5:0.00032357 6:0.000352288 7:4.60478e-10 8:1 
1 1:2.29441e-06 2:2.41392e-06 3:2.62828e-06 4:0.000514451 5:0.000541268 6:0.000589307 7:1.12768e-09 8:1 
1 1:2.75808e-06 2:2.90201e-06 3:3.15941e-06 4:0.00115153 5:0.00121156 6:0.00131909 7:6.96608e-09 8:1 
1 1:7.98245e-07 2:8.39804e-07 3:9.14273e-07 4:0.000380363 5:0.00040019 6:0.000435708 7:6.00128e-10 8:1 
1 1:1.81373e-06 2:1.90831e-06 3:2.07768e-06 4:0.000631018 5:0.00066391 6:0.000722835 7:2.02015e-09 8:1 
1 1:2.38232e-06 2:2.50652e-06 3:2.72902e-06 4:0.00046554 5:0.000489807 6:0.000533279 7:8.9054e-10 8:1 
1 1:5.89114e-06 2:6.19835e-06 3:6.74845e-06 4:0.000766856 5:0.00080683 6:0.000878439 7:2.46612e-09 8:1 
1 1:4.3217e-07 2:4.54758e-07 3:4.94809e-07 4:0.000569698 5:0.000599394 6:0.000652593 7:1.48023e-09 8:1 
1 1:1.17784e-06 2:1.23923e-06 3:1.34926e-06 4:0.000924704 5:0.000972906 6:0.00105926 7:3.17349e-09 8:1 
1 1:2.64454e-06 2:2.78231e-06 3:3.02933e-06 4:0.000689885 5:0.000725846 6:0.000790268 7:1.80917e-09 8:1 
1 1:8.7231e-06 2:9.17787e-06 3:9.9926e-06 4:0.00111411 5:0.00117219 6:0.00127623 7:5.29013e-09 8:1 
1 1:1.38662e-06 2:1.45884e-06 3:1.58848e-06 4:0.000832073 5:0.000875446 6:0.000953145 7:2.7882e-09 8:1 
1 1:1.43176e-07 2:1.50598e-07 3:1.63753e-07 4:0.00133358 5:0.00140309 6:0.00152762 7:7.85692e-09 8:1 
1 1:1.1371e-05 2:1.19639e-05 3:1.30253e-05 4:0.00158525 5:0.00166789 6:0.00181592 7:1.50092e-08 8:1 
1 1:6.12125e-06 2:6.44073e-06 3:7.01218e-06 4:0.00100498 5:0.00105736 6:0.00115121 7:3.46552e-09 8:1 
1 1:4.45734e-06 2:4.68972e-06 3:5.1059e-06 4:0.00194236 5:0.00204361 6:0.00222499 7:1.40049e-08 8:1 
1 1:2.87729e-06 2:3.02735e-06 3:3.29596e-06 4:0.00119991 5:0.00126246 6:0.00137451 7:5.54822e-09 8:1 
1 1:4.60949e-06 2:4.8498e-06 3:5.28005e-06 4:0.00226949 5:0.00238779 6:0.00259972 7:2.32181e-08 8:1 
1 1:9.46281e-06 2:9.95597e-06 3:1.08397e-05 4:0.00142656 5:0.00150092 6:0.00163413 7:8.05028e-09 8:1 
1 1:7.70741e-06 2:8.10984e-06 3:8.82933e-06 4:0.00264286 5:0.00278062 6:0.00302741 7:2.22403e-08 8:1 
1 1:5.2324e-06 2:5.50537e-06 3:5.99374e-06 4:0.00168887 5:0.00177691 6:0.00193462 7:9.00774e-09 8:1 
1 1:4.25447e-06 2:4.47606e-06 3:4.87291e-06 4:0.00187441 5:0.00197212 6:0.00214715 7:1.3025e-08 8:1 
1 1:1.15992e-06 2:1.22079e-06 3:1.32853e-06 4:0.00217523 5:0.00228862 6:0.00249175 7:1.95724e-08 8:1 
1 1:5.56873e-06 2:5.85915e-06 3:6.37818e-06 4:0.00305732 5:0.00321669 6:0.00350218 7:3.63227e-08 8:1 
1 1:1.19542e-05 2:1.25774e-05 3:1.36938e-05 4:0.00255733 5:0.00269064 6:0.00292944 7:2.70313e-08 8:1 
1 1:1.61593e-06 2:1.7001e-06 3:1.8508e-06 4:0.00354378 5:0.0037285 6:0.00405942 7:5.2092e-08 8:1 
1 1:9.40458e-06 2:9.89577e-06 3:1.07725e-05 4:0.004065 5:0.00427689 6:0.00465648 7:6.57849e-08 8:1 
1 1:1.29918e-05 2:1.36693e-05 3:1.48817e-05 4:0.00298029 5:0.00313565 6:0.00341395 7:2.77364e-08 8:1 
1 1:2.02096e-05 2:2.12631e-05 3:2.31509e-05 4:0.00468518 5:0.0049294 6:0.0053669 7:7.96665e-08 8:1 
1 1:2.80897e-05 2:2.9554e-05 3:3.2176e-05 4:0.00346591 5:0.00364658 6:0.00397023 7:4.55375e-08 8:1 
1 1:3.1557e-06 2:3.32014e-06 3:3.61554e-06 4:0.00534513 5:0.00562376 6:0.00612289 7:1.17865e-07 8:1 
1 1:3.24665e-05 2:3.41591e-05 3:3.71913e-05 4:0.00401114 5:0.00422022 6:0.00459479 7:5.81976e-08 8:1 
1 1:2.65252e-06 2:2.79048e-06 3:3.03813e-06 4:0.00227748 5:0.0023962 6:0.00260887 7:2.14803e-08 8:1 
1 1:4.88025e-05 2:5.13442e-05 3:5.59028e-05 4:0.00607163 5:0.00638812 6:0.00695509 7:1.5459e-07 8:1 
1 1:3.33603e-05 2:3.5101e-05 3:3.82154e-05 4:0.00464581 5:0.00488798 6:0.00532181 7:8.09963e-08 8:1 
1 1:1.22432e-05 2:1.28808e-05 3:1.40253e-05 4:0.00266527 5:0.00280421 6:0.00305309 7:2.55502e-08 8:1 
1 1:1.89538e-05 2:1.99404e-05 3:2.17113e-05 4:0.00689034 5:0.00724951 6:0.00789293 7:1.92403e-07 8:1 
1 1:3.06352e-05 2:3.22323e-05 3:3.50923e-05 4:0.00534235 5:0.00562083 6:0.0061197 7:1.48118e-07 8:1 
1 1:5.57967e-06 2:5.87005e-06 3:6.39221e-06 4:0.00312555 5:0.00328847 6:0.00358034 7:3.29295e-08 8:1 
1 1:1.50679e-05 2:1.58534e-05 3:1.72603e-05 4:0.00783831 5:0.0082469 6:0.00897884 7:2.50585e-07 8:1 
1 1:1.60721e-05 2:1.69107e-05 3:1.84121e-05 4:0.00613365 5:0.00645338 6:0.00702614 7:1.53893e-07 8:1 
1 1:2.61122e-05 2:2.74731e-05 3:2.99112e-05 4:0.003624 5:0.00381291 6:0.00415132 7:5.16053e-08 8:1 
1 1:4.0147e-06 2:4.22308e-06 3:4.59934e-06 4:0.00890548 5:0.00936969 6:0.0102013 7:3.62046e-07 8:1 
1 1:0.00014247 2:0.000149896 3:0.000163198 4:0.0100978 5:0.0106242 6:0.0115671 7:4.96535e-07 8:1 
1 1:2.70889e-05 2:2.85011e-05 3:3.10307e-05 4:0.00704794 5:0.00741532 6:0.00807346 7:2.37064e-07 8:1 
1 1:2.51943e-05 2:2.65071e-05 3:2.8859e-05 4:0.00423085 5:0.00445139 6:0.00484647 7:6.19359e-08 8:1 
1 1:5.2235e-05 2:5.49586e-05 3:5.9836e-05 4:0.00804982 5:0.00846943 6:0.00922112 7:3.11658e-07 8:1 
1 1:4.2094e-05 2:4.42892e-05 3:4.82193e-05 4:0.0048849 5:0.00513954 6:0.00559569 7:1.03707e-07 8:1 
1 1:4.23029e-05 2:4.45064e-05 3:4.8458e-05 4:0.00918223 5:0.00966087 6:0.0105183 7:4.26557e-07 8:1 
1 1:4.03284e-05 2:4.24317e-05 3:4.61978e-05 4:0.00569519 5:0.00599206 6:0.00652387 7:1.24711e-07 8:1 
1 1:0.000164251 2:0.000172813 3:0.00018815 4:0.010425 5:0.0109684 6:0.0119419 7:4.86494e-07 8:1 
1 1:7.47127e-05 2:7.86081e-05 3:8.55861e-05 4:0.00658841 5:0.00693184 6:0.00754707 7:2.2034e-07 8:1 
1 1:7.39412e-06 2:7.78207e-06 3:8.47311e-06 4:0.00986584 5:0.0103801 6:0.0113014 7:4.3529e-07 8:1 
1 1:3.52826e-05 2:3.71217e-05 3:4.04169e-05 4:0.00750715 5:0.00789848 6:0.0085995 7:2.54189e-07 8:1 
1 1:8.16754e-05 2:8.59348e-05 3:9.35607e-05 4:0.0118382 5:0.0124553 6:0.0135608 7:7.20906e-07 8:1 
1 1:0.000127306 2:0.000133943 3:0.000145831 4:0.0112562 5:0.0118429 6:0.012894 7:7.11428e-07 8:1 
1 1:1.57452e-05 2:1.65668e-05 3:1.80362e-05 4:0.00220352 5:0.00231838 6:0.00252415 7:2.00861e-08 8:1 
1 1:0.000141674 2:0.000149062 3:0.000162288 4:0.0128257 5:0.0134943 6:0.0146919 7:6.92395e-07 8:1 
1 1:3.39145e-05 2:3.56815e-05 3:3.88473e-05 4:0.00868387 5:0.00913653 6:0.00994744 7:4.15773e-07 8:1 
1 1:1.51134e-05 2:1.59018e-05 3:1.73127e-05 4:0.00259308 5:0.00272824 6:0.00297039 7:2.69846e-08 8:1 
1 1:5.42875e-06 2:5.71131e-06 3:6.2184e-06 4:0.00199205 5:0.00209589 6:0.00228191 7:1.53783e-08 8:1 
1 1:9.47373e-06 2:9.96815e-06 3:1.08521e-05 4:0.00302789 5:0.00318572 6:0.00346847 7:3.301e-08 8:1 
1 1:4.95506e-06 2:5.21363e-06 3:5.67549e-06 4:0.00234509 5:0.00246733 6:0.00268632 7:3.28814e-08 8:1 
1 1:1.15199e-05 2:1.21211e-05 3:1.3196e-05 4:0.00355911 5:0.00374464 6:0.00407699 7:5.11524e-08 8:1 
1 1:1.71724e-05 2:1.80681e-05 3:1.96714e-05 4:0.00273245 5:0.00287489 6:0.00313004 7:2.96915e-08 8:1 
1 1:2.10444e-06 2:2.21413e-06 3:2.41032e-06 4:0.00415288 5:0.00436935 6:0.00475715 7:6.81151e-08 8:1 
1 1:2.31366e-05 2:2.43433e-05 3:2.6503e-05 4:0.00319593 5:0.00336252 6:0.00366096 7:3.88992e-08 8:1 
1 1:3.99158e-05 2:4.19975e-05 3:4.57262e-05 4:0.00478234 5:0.00503162 6:0.0054782 7:9.38195e-08 8:1 
1 1:3.87191e-05 2:4.07374e-05 3:4.43538e-05 4:0.00370817 5:0.00390146 6:0.00424773 7:5.06881e-08 8:1 
1 1:9.25051e-06 2:9.73127e-06 3:1.05948e-05 4:0.00553671 5:0.00582532 6:0.00634234 7:1.27454e-07 8:1 
1 1:3.2254e-05 2:3.39343e-05 3:3.6947e-05 4:0.00432234 5:0.00454764 6:0.00495127 7:7.48401e-08 8:1 
1 1:5.06261e-07 2:5.32396e-07 3:5.79224e-07 4:0.00642046 5:0.00675513 6:0.00735468 7:1.75625e-07 8:1 
1 1:5.09224e-05 2:5.35767e-05 3:5.83327e-05 4:0.0050133 5:0.00527462 6:0.00574277 7:9.04308e-08 8:1 
1 1:8.01091e-05 2:8.42843e-05 3:9.1765e-05 4:0.00738231 5:0.00776712 6:0.00845648 7:2.77911e-07 8:1 
1 1:3.13762e-05 2:3.30104e-05 3:3.59406e-05 4:0.00575657 5:0.00605664 6:0.00659419 7:1.39213e-07 8:1 
1 1:8.44132e-05 2:8.88104e-05 3:9.66936e-05 4:0.00849096 5:0.00893356 6:0.00972645 7:3.12785e-07 8:1 
1 1:3.79772e-05 2:3.99562e-05 3:4.35022e-05 4:0.00666414 5:0.00701152 6:0.00763382 7:2.08151e-07 8:1 
1 1:0.000116195 2:0.000122251 3:0.000133103 4:0.00970882 5:0.0102149 6:0.0111215 7:4.38546e-07 8:1 
1 1:1.61982e-05 2:1.70397e-05 3:1.85535e-05 4:0.00764225 5:0.00804062 6:0.00875426 7:2.44073e-07 8:1 
1 1:9.82938e-05 2:0.000103418 3:0.000112595 4:0.0113779 5:0.011971 6:0.0130335 7:6.24979e-07 8:1 
1 1:3.04079e-05 2:3.19916e-05 3:3.48306e-05 4:0.0111796 5:0.0117624 6:0.0128063 7:7.40804e-07 8:1 
1 1:8.2471e-05 2:8.67689e-05 3:9.44711e-05 4:0.0088485 5:0.00930974 6:0.010136 7:3.28032e-07 8:1 
1 1:0.000122092 2:0.000128457 3:0.00013986 4:0.0126495 5:0.0133089 6:0.0144901 7:7.38644e-07 8:1 
1 1:3.69729e-06 2:3.89275e-06 3:4.23781e-06 4:0.0127958 5:0.0134628 6:0.0146577 7:7.37147e-07 8:1 
1 1:0.000133997 2:0.000140984 3:0.000153496 4:0.0100667 5:0.0105914 6:0.0115315 7:4.22768e-07 8:1 
1 1:0.000127561 2:0.000134209 3:0.000146121 4:0.0143199 5:0.0150664 6:0.0164036 7:1.17473e-06 8:1 
1 1:0.000100599 2:0.000105845 3:0.000115237 4:0.0115558 5:0.0121582 6:0.0132372 7:6.76934e-07 8:1 
1 1:2.85149e-05 2:3.00047e-05 3:3.26649e-05 4:0.0160557 5:0.0168926 6:0.0183919 7:1.4917e-06 8:1 
1 1:0.000109159 2:0.000114853 3:0.000125045 4:0.013492 5:0.0141953 6:0.0154552 7:8.56292e-07 8:1 
1 1:4.74451e-05 2:4.99225e-05 3:5.43513e-05 4:0.0152029 5:0.0159954 6:0.0174151 7:1.07521e-06 8:1 
1 1:0.00012684 2:0.000133455 3:0.000145292 4:0.0171534 5:0.0180475 6:0.0196493 7:1.65382e-06 8:1 
1 1:2.79851e-05 2:2.94475e-05 3:3.20593e-05 4:0.0146234 5:0.0153857 6:0.0167512 7:1.14765e-06 8:1 
1 1:0.000141718 2:0.000149107 3:0.00016234 4:0.0192349 5:0.0202376 6:0.0220337 7:2.0143e-06 8:1 
1 1:6.68328e-05 2:7.03181e-05 3:7.65546e-05 4:0.0166509 5:0.0175189 6:0.0190737 7:1.56464e-06 8:1 
1 1:0.000181047 2:0.000190482 3:0.000207388 4:0.0216836 5:0.0228138 6:0.0248387 7:2.7098e-06 8:1 
1 1:0.00017033 2:0.000179205 3:0.000195111 4:0.0187688 5:0.0197472 6:0.0214998 7:2.13963e-06 8:1 
1 1:2.7323e-05 2:2.87488e-05 3:3.13e-05 4:0.024347 5:0.0256162 6:0.0278897 7:3.64639e-06 8:1 
1 1:0.000241069 2:0.000253635 3:0.000276146 4:0.0213691 5:0.022483 6:0.0244784 7:2.66948e-06 8:1 
1 1:0.000145356 2:0.000152935 3:0.000166508 4:0.0274645 5:0.0288962 6:0.0314608 7:5.53658e-06 8:1 
1 1:7.5749e-05 2:7.96965e-05 3:8.67685e-05 4:0.0241111 5:0.025368 6:0.0276195 7:3.32253e-06 8:1 
1 1:0.000394422 2:0.000414976 3:0.000451797 4:0.0270109 5:0.0284189 6:0.0309412 7:4.34395e-06 8:1 
1 1:7.76525e-05 2:8.16991e-05 3:8.89502e-05 4:0.0305552 5:0.0321479 6:0.0350012 7:5.70403e-06 8:1 
1 1:5.06844e-05 2:5.33272e-05 3:5.80563e-05 4:0.0304391 5:0.0320257 6:0.0348682 7:5.81041e-06 8:1 
1 1:0.000333114 2:0.000350476 3:0.000381569 4:0.0341425 5:0.0359222 6:0.0391105 7:7.8447e-06 8:1 
1 1:2.0449e-05 2:2.15087e-05 3:2.34144e-05 4:0.0343669 5:0.0361584 6:0.0393676 7:9.02287e-06 8:1 
1 1:6.5509e-05 2:6.89141e-05 3:7.50339e-05 4:0.0381612 5:0.0401505 6:0.043714 7:1.07373e-05 8:1 
1 1:0.000101392 2:0.000106675 3:0.000116138 4:0.0385899 5:0.0406015 6:0.0442051 7:1.38894e-05 8:1 
1 1:9.94815e-05 2:0.000104676 3:0.000113959 4:0.0424361 5:0.0446482 6:0.0486109 7:1.46685e-05 8:1 
1 1:0.000537498 2:0.000565519 3:0.000615698 4:0.0474832 5:0.0499583 6:0.0543923 7:1.7004e-05 8:1 
1 1:0.000244985 2:0.000257749 3:0.000280626 4:0.0432814 5:0.0455376 6:0.0495792 7:1.56387e-05 8:1 
1 1:5.79906e-05 2:6.10172e-05 3:6.64273e-05 4:0.0145611 5:0.0153202 6:0.0166799 7:1.15255e-06 8:1 
1 1:0.000282488 2:0.000297212 3:0.000323604 4:0.04874 5:0.0512806 6:0.055832 7:2.09582e-05 8:1 
1 1:4.25305e-05 2:4.47519e-05 3:4.87218e-05 4:0.0165163 5:0.0173772 6:0.0189195 7:1.34924e-06 8:1 
1 1:0.000919488 2:0.000967419 3:0.00105328 4:0.0544164 5:0.0572529 6:0.0623343 7:2.22786e-05 8:1 
1 1:3.4327e-05 2:3.61159e-05 3:3.93246e-05 4:0.0130868 5:0.013769 6:0.014991 7:0.0456041 8:1 
1 1:1.7794e-05 2:1.87233e-05 3:2.03825e-05 4:0.0187321 5:0.0197085 6:0.0214577 7:2.12699e-06 8:1 
1 1:0.000181856 2:0.000191331 3:0.000208317 4:0.0150321 5:0.0158157 6:0.0172194 7:1.22729e-06 8:1 
1 1:0.000286019 2:0.000300921 3:0.000327636 4:0.0210849 5:0.022184 6:0.0241529 7:2.55748e-06 8:1 
1 1:2.66982e-05 2:2.8084e-05 3:3.05843e-05 4:0.0169504 5:0.0178339 6:0.0194168 7:1.7261e-06 8:1 
1 1:0.000233565 2:0.000245731 3:0.000267548 4:0.0241071 5:0.0253637 6:0.0276148 7:3.51195e-06 8:1 
1 1:0.00020466 2:0.000215327 3:0.000234441 4:0.0192233 5:0.0202253 6:0.0220204 7:1.84928e-06 8:1 
1 1:0.000278981 2:0.000293526 3:0.000319581 4:0.0273507 5:0.0287764 6:0.0313304 7:5.34561e-06 8:1 
1 1:3.62224e-05 2:3.81123e-05 3:4.14961e-05 4:0.0218203 5:0.0229577 6:0.0249953 7:2.91329e-06 8:1 
1 1:3.84285e-05 2:4.043e-05 3:4.40306e-05 4:0.0304669 5:0.032055 6:0.0349 7:5.90669e-06 8:1 
1 1:0.000426294 2:0.000448508 3:0.000488303 4:0.0347822 5:0.0365953 6:0.0398432 7:8.77193e-06 8:1 
1 1:0.000376663 2:0.000396295 3:0.000431468 4:0.0248019 5:0.0260947 6:0.0284107 7:3.16192e-06 8:1 
1 1:8.63075e-05 2:9.08072e-05 3:9.8862e-05 4:0.0386952 5:0.0407122 6:0.0443256 7:1.15151e-05 8:1 
1 1:0.000297283 2:0.000312773 3:0.000340532 4:0.0280816 5:0.0295454 6:0.0321677 7:4.97194e-06 8:1 
1 1:0.000226079 2:0.000237854 3:0.000258975 4:0.0440706 5:0.0463678 6:0.0504832 7:1.50958e-05 8:1 
1 1:0.000219146 2:0.000230574 3:0.000251034 4:0.0311314 5:0.0327541 6:0.0356612 7:5.93572e-06 8:1 
1 1:0.000797774 2:0.000839361 3:0.000913862 4:0.0493895 5:0.051964 6:0.056576 7:2.07451e-05 8:1 
1 1:0.000223024 2:0.000234644 3:0.000255465 4:0.0351624 5:0.0369953 6:0.0402787 7:7.66219e-06 8:1 
1 1:0.000718207 2:0.000755629 3:0.000822705 4:0.0555228 5:0.058417 6:0.0636017 7:2.69408e-05 8:1 
1 1:0.000109264 2:0.00011496 3:0.000125164 4:0.0160025 5:0.0168367 6:0.018331 7:1.23441e-06 8:1 
1 1:0.000119817 2:0.00012605 3:0.000137252 4:0.0400027 5:0.042088 6:0.0458234 7:1.17882e-05 8:1 
1 1:9.77846e-05 2:0.00010288 3:0.000112008 4:0.018219 5:0.0191687 6:0.02087 7:1.99493e-06 8:1 
1 1:0.000657048 2:0.0006913 3:0.000752655 4:0.0451233 5:0.0474754 6:0.0516891 7:1.38801e-05 8:1 
1 1:8.67983e-05 2:9.13171e-05 3:9.9427e-05 4:0.0203472 5:0.0214079 6:0.0233079 7:1.88861e-06 8:1 
1 1:0.000492597 2:0.000518278 3:0.000564284 4:0.0503417 5:0.0529659 6:0.0576668 7:2.02536e-05 8:1 
1 1:0.00049368 2:0.000519421 3:0.000565528 4:0.0525508 5:0.0552901 6:0.0601973 7:2.01753e-05 8:1 
1 1:0.000152417 2:0.000160367 3:0.000174598 4:0.0230116 5:0.0242111 6:0.02636 7:3.16894e-06 8:1 
1 1:0.00127913 2:0.00134581 3:0.00146525 4:0.058529 5:0.0615799 6:0.0670454 7:2.98182e-05 8:1 
1 1:0.000427338 2:0.000449618 3:0.000489516 4:0.0604858 5:0.0636387 6:0.0692869 7:2.98693e-05 8:1 
1 1:0.000317949 2:0.000334522 3:0.000364212 4:0.026145 5:0.0275078 6:0.0299493 7:4.1303e-06 8:1 
1 1:2.00113e-05 2:2.10535e-05 3:2.2945e-05 4:0.0646074 5:0.0679752 6:0.0740083 7:3.57179e-05 8:1 
1 1:0.000402738 2:0.000423735 3:0.000461344 4:0.0293627 5:0.0308933 6:0.0336352 7:5.47028e-06 8:1 
1 1:0.000385381 2:0.000405464 3:0.000441452 4:0.0674932 5:0.0710114 6:0.077314 7:3.8528e-05 8:1 
1 1:0.00022105 2:0.000232555 3:0.000253201 4:0.0712184 5:0.0749308 6:0.0815812 7:4.59004e-05 8:1 
1 1:0.000500632 2:0.000526761 3:0.000573496 4:0.0783036 5:0.0823853 6:0.0896973 7:5.74508e-05 8:1 
1 1:0.000101981 2:0.000107295 3:0.000116819 4:0.0331284 5:0.0348553 6:0.0379488 7:7.04297e-06 8:1 
1 1:0.000213814 2:0.000224954 3:0.000244922 4:0.0751006 5:0.0790154 6:0.0860283 7:5.67161e-05 8:1 
1 1:0.000333018 2:0.000350341 3:0.000381436 4:0.0869434 5:0.0914755 6:0.0995943 7:6.86858e-05 8:1 
1 1:0.000227446 2:0.000239303 3:0.000260553 4:0.036966 5:0.0388929 6:0.0423448 7:9.47009e-06 8:1 
1 1:0.000269013 2:0.000283023 3:0.000308151 4:0.084658 5:0.089071 6:0.0969764 7:6.09623e-05 8:1 
1 1:0.00110559 2:0.00116324 3:0.00126648 4:0.0963099 5:0.10133 6:0.110324 7:9.81876e-05 8:1 
1 1:0.000445797 2:0.000469029 3:0.000510661 4:0.0417807 5:0.0439585 6:0.04786 7:1.11413e-05 8:1 
1 1:0.000526951 2:0.000554435 3:0.000603626 4:0.0940715 5:0.0989751 6:0.10776 7:9.17613e-05 8:1 
1 1:0.00102406 2:0.00107739 3:0.00117306 4:0.104313 5:0.10975 6:0.119491 7:0.000107186 8:1 
1 1:0.000320726 2:0.00033746 3:0.000367421 4:0.105725 5:0.111236 6:0.121109 7:0.000107789 8:1 
1 1:0.0012832 2:0.00135008 3:0.00146991 4:0.115459 5:0.121477 6:0.132259 7:0.000133765 8:1 
1 1:0.00162641 2:0.00171116 3:0.00186307 4:0.116576 5:0.122653 6:0.133539 7:0.000136578 8:1 
1 1:0.0027053 2:0.00284631 3:0.00309895 4:0.127001 5:0.133621 6:0.145481 7:0.000179041 8:1 
1 1:0.00088638 2:0.000932576 3:0.00101532 4:0.127404 5:0.134045 6:0.145942 7:0.000171808 8:1 
1 1:5.55543e-05 2:5.84759e-05 3:6.35963e-05 4:0.14279 5:0.150233 6:0.163567 7:0.000229227 8:1 
1 1:0.00143466 2:0.00150943 3:0.00164338 4:0.138712 5:0.145943 6:0.158896 7:0.000199979 8:1 
0.02460083689644682 1:1.89562 2:1.99443 3:2.17144 4:13.4189 5:14.1184 6:15.3715 7:148.362 
1 1:0.00172147 2:0.0018112 3:0.00197194 4:0.154063 5:0.162094 6:0.176481 7:0.000248101 8:1 
1 1:0.000346819 2:0.00036488 3:0.000397286 4:0.0623982 5:0.0656508 6:0.0714776 7:3.20995e-05 8:1 
1 1:0.00172839 2:0.00181847 3:0.00197983 4:0.16702 5:0.175726 6:0.191323 7:0.000336256 8:1 
1 1:0.000723649 2:0.000761389 3:0.000828958 4:0.0701443 5:0.0738007 6:0.0803508 7:4.57211e-05 8:1 
0.02716639320332387 1:0.146179 2:0.1538 3:0.16745 4:6.62725 5:6.97271 6:7.59156 7:118.591 
1 1:0.000501016 2:0.000527142 3:0.000573915 4:0.0781871 5:0.0822628 6:0.0895639 7:5.78366e-05 8:1 
1 1:0.00248713 2:0.00261679 3:0.00284903 4:0.208441 5:0.219306 6:0.23877 7:0.000578083 8:1 
1 1:0.000921156 2:0.000969147 3:0.0010552 4:0.088187 5:0.0927838 6:0.101019 7:7.38998e-05 8:1 
1 1:0.00153175 2:0.00161161 3:0.00175463 4:0.0566415 5:0.059594 6:0.0648832 7:2.6898e-05 8:1 
1 1:0.00127127 2:0.00133755 3:0.00145627 4:0.0976034 5:0.102691 6:0.111805 7:8.9604e-05 8:1 
1 1:0.00034724 2:0.000365333 3:0.000397771 4:0.0630828 5:0.0663711 6:0.0722618 7:3.92899e-05 8:1 
1 1:0.000963844 2:0.00101407 3:0.00110406 4:0.107884 5:0.113507 6:0.123582 7:0.000121317 8:1 
0.02593331253329312 1:0.690986 2:0.727004 3:0.791528 4:10.2805 5:10.8164 6:11.7764 7:149.295 
1 1:0.00113328 2:0.00119235 3:0.00129818 4:0.0712784 5:0.0749939 6:0.0816499 7:4.4529e-05 8:1 
1 1:0.000603291 2:0.000634732 3:0.000691056 4:0.0801919 5:0.0843721 6:0.0918604 7:5.85357e-05 8:1 
0.007399524459587915 1:0.404776 2:0.425876 3:0.463668 4:27.462 5:28.8935 6:31.4579 7:19.6876 8:1 
1 1:0.000293524 2:0.000308833 3:0.000336234 4:0.0888941 5:0.0935279 6:0.101829 7:7.72778e-05 8:1 
1 1:0.00154974 2:0.00163055 3:0.00177529 4:0.0986647 5:0.103808 6:0.113021 7:9.32348e-05 8:1 
0.01364590969725391 1:0.241446 2:0.254028 3:0.276578 4:29.1371 5:30.6559 6:33.3768 7:16.4725 8:1 
0.01401978779277195 1:0.0417109 2:0.0438855 3:0.0477817 4:32.3492 5:34.0354 6:37.0562 7:2.89774 8:1 
1 1:0.000241155 2:0.000253709 3:0.000276226 4:0.0466815 5:0.0491148 6:0.053474 7:1.70088e-05 8:1 
1 1:0.00169969 2:0.00178829 3:0.00194701 4:0.1106 5:0.116366 6:0.126694 7:0.000130306 8:1 
1 1:0.000340548 2:0.000358292 3:0.0003901 4:0.051277 5:0.0539499 6:0.0587381 7:1.83161e-05 8:1 
1 1:0.00213439 2:0.00224567 3:0.00244497 4:0.124113 5:0.130582 6:0.142172 7:0.000172246 8:1 
1 1:0.000268881 2:0.00028288 3:0.000308013 4:0.0712959 5:0.0750123 6:0.0816699 7:4.41763e-05 8:1 
0.003447937698157113 1:0.0269215 2:0.0283294 3:0.0308483 4:31.7121 5:33.3651 6:36.3264 7:6.58727 8:1 
1 1:0.00143284 2:0.00150752 3:0.0016413 4:0.136929 5:0.144066 6:0.156853 7:0.000201406 8:1 
1 1:0.000337046 2:0.000354603 3:0.00038607 4:0.0579723 5:0.0609942 6:0.0664077 7:2.66271e-05 8:1 
1 1:0.00122124 2:0.00128491 3:0.00139893 4:0.0815216 5:0.0857711 6:0.0933836 7:5.91144e-05 8:1 
1 1:0.00114319 2:0.00120281 3:0.00130957 4:0.153816 5:0.161833 6:0.176197 7:0.000274369 8:1 
1 1:0.000262515 2:0.000276225 3:0.000300725 4:0.0908065 5:0.0955399 6:0.104019 7:8.03132e-05 8:1 
1 1:0.00134818 2:0.00141845 3:0.00154434 4:0.0645097 5:0.0678723 6:0.0738963 7:4.42717e-05 8:1 
1 1:0.000542846 2:0.000571093 3:0.000621784 4:0.170047 5:0.178911 6:0.19479 7:0.000369514 8:1 
1 1:0.00206772 2:0.00217548 3:0.00236859 4:0.100689 5:0.105938 6:0.11534 7:0.000101229 
1 1:0.000973336 2:0.00102405 3:0.001115 4:0.185949 5:0.195642 6:0.213006 7:0.000450114 8:1 
1 1:0.00126954 2:0.00133577 3:0.00145427 4:0.188369 5:0.198188 6:0.215778 7:0.000441022 8:1 
1 1:0.000751126 2:0.00079027 3:0.000860433 4:0.111068 5:0.116858 6:0.127229 7:0.000140262 
1 1:3.52692e-05 2:3.71281e-05 3:4.04138e-05 4:0.210728 5:0.221713 6:0.241391 7:0.000600985 8:1 
1 1:0.00111113 2:0.00116905 3:0.00127281 4:0.123858 5:0.130315 6:0.14188 7:0.000195311 
1 1:0.00195064 2:0.00205236 3:0.00223453 4:0.200124 5:0.210556 6:0.229243 7:0.000547164 8:1 
1 1:0.0017938 2:0.00188727 3:0.00205483 4:0.219078 5:0.230498 6:0.250955 7:0.000744398 8:1 
1 1:0.0029812 2:0.00313659 3:0.00341501 4:0.137476 5:0.144643 6:0.15748 7:0.000226637 
1 1:0.00217267 2:0.00228595 3:0.00248878 4:0.230278 5:0.242282 6:0.263785 7:0.000775159 8:1 
0.7457583844773328 1:0.00305424 2:0.00321352 3:0.00349872 4:0.237395 5:0.249769 6:0.271938 7:0.000776652 8:1 
1 1:0.00137972 2:0.00145165 3:0.00158051 4:0.1517 5:0.159608 6:0.173773 7:0.000285031 
1 1:0.000514721 2:0.000541609 3:0.000589604 4:0.170408 5:0.17929 6:0.195203 7:0.000361778 
0.007051761139897832 1:0.0374184 2:0.0393741 3:0.0428686 4:32.1792 5:33.8566 6:36.8615 7:3.04945 
0.003540179306154054 1:0.0803951 2:0.0845735 3:0.0920923 4:31.8913 5:33.5537 6:36.5317 7:5.78085 
0.008633144064624964 1:0.311107 2:0.327319 3:0.356372 4:31.1357 5:32.7587 6:35.6662 7:8.66806 8:1 
0.008871249534281273 1:0.543625 2:0.571958 3:0.62273 4:29.6625 5:31.2087 6:33.9786 7:14.2285 8:1 
0.0121241661906696 1:0.288993 2:0.304062 3:0.331043 4:27.9561 5:29.4134 6:32.0239 7:18.6672 8:1 
0.02712299595466139 1:0.928283 2:0.976669 3:1.06335 4:8.07318 5:8.49401 6:9.24789 7:141.309 
0.01141193281694672 1:0.113909 2:0.119849 3:0.130483 4:26.3967 5:27.7727 6:30.2376 7:19.8855 8:1 
0.01051394903315489 1:1.76806 2:1.86022 3:2.02532 4:23.9692 5:25.2186 6:27.4568 7:23.4494 8:1 
0.01025295735604175 1:0.0991704 2:0.104344 3:0.113611 4:23.5883 5:24.8179 6:27.0206 7:22.2522 8:1 
0.01651276246080805 1:0.38543 2:0.40552 3:0.441512 4:4.21158 5:4.43112 6:4.8244 7:71.2772 
1 1:0.00504148 2:0.00530428 3:0.00577509 4:0.188282 5:0.198096 6:0.215678 7:0.000453424 
0.02449463519694045 1:0.0359585 2:0.0378347 3:0.0411899 4:14.6031 5:15.3643 6:16.7279 7:147.891 
1 1:0.000611471 2:0.000643401 3:0.000700426 4:0.209043 5:0.219939 6:0.23946 7:0.000569198 
1 1:0.0028079 2:0.00295428 3:0.00321648 4:0.230485 5:0.2425 6:0.264022 7:0.000689642 
0.005098706027394376 1:0.0195896 2:0.0206105 3:0.0224393 4:4.23707 5:4.45794 6:4.8536 7:0.436159 8:1 
0.008074321451960239 1:0.00779672 2:0.00820354 3:0.00893123 4:2.62729 5:2.76424 6:3.00958 7:18.8163 8:1 
0.00678461608617259 1:0.294621 2:0.30998 3:0.33749 4:6.48891 5:6.82715 6:7.43309 7:0.727923 8:1 
0.003612290728027823 1:0.618899 2:0.651158 3:0.708952 4:6.61091 5:6.95552 6:7.57285 7:1.85714 8:1 
0.008471321810175569 1:0.968996 2:1.0195 3:1.10999 4:6.28343 5:6.61096 6:7.19771 7:9.56755 8:1 
0.008988885041626201 1:0.0173986 2:0.0183063 3:0.0199304 4:5.99265 5:6.30503 6:6.86463 7:12.3859 8:1 
0.01101295542007071 1:1.6056 2:1.68929 3:1.83922 4:3.98694 5:4.19476 6:4.56707 7:18.8143 8:1 
0.009794256423315613 1:1.44423 2:1.51951 3:1.65437 4:3.52024 5:3.70374 6:4.03246 7:20.9076 8:1 
0.004136085450847971 1:1.05642 2:1.11149 3:1.21014 4:3.81661 5:4.01555 6:4.37195 7:16.8553 8:1 
1 1:0.163431 2:0.171951 3:0.187212 4:0.0817157 5:0.0859753 6:0.0936059 7:0.938752 8:1 
1 1:0.00358915 2:0.00377624 3:0.0041114 4:0.00179458 5:0.00188812 6:0.0020557 7:0.918929 8:1 
1 1:0.153247 2:0.161236 3:0.175546 4:0.0766237 5:0.0806179 6:0.087773 7:0.825403 8:1 
1 1:0.15247 2:0.160418 3:0.174656 4:0.076235 5:0.0802089 6:0.0873278 7:0.817051 8:1 
0.003531245312251085 1:0.807592 2:0.849689 3:0.925102 4:5.19918 5:5.47019 6:5.95569 7:8.30457 8:1 
1 1:0.154032 2:0.162062 3:0.176445 4:0.0770162 5:0.0810308 6:0.0882226 7:0.83388 8:1 
0.3413370625785669 1:0.27734 2:0.291797 3:0.317695 4:1.19701 5:1.25941 6:1.37118 7:11.4723 8:1 
0.007363984092859922 1:0.772452 2:0.812718 3:0.884849 4:4.64796 5:4.89024 6:5.32427 7:11.0634 8:1 
0.01415827597977992 1:0.0664781 2:0.0699432 3:0.0761508 4:4.39583 5:4.62497 6:5.03546 7:20.8797 8:1 
0.00306174974958243 1:0.214649 2:0.225838 3:0.245881 4:4.3997 5:4.62904 6:5.03989 7:10.644 8:1 
0.008922610694744563 1:0.880738 2:0.926648 3:1.00889 4:4.67886 5:4.92276 6:5.35967 7:14.0631 8:1 
0.004066663458080044 1:0.532747 2:0.560519 3:0.610267 4:5.2319 5:5.50462 6:5.99318 7:4.84015 8:1 
0.001114168966169361 1:0.140195 2:0.147504 3:0.160596 4:4.14293 5:4.35888 6:4.74575 7:15.4672 8:1 
-1 7:3333.62 
-1 1:0.000457764 3:0.000312805 4:760.365 5:800 6:871.004 7:15000 8:1 
-0.9721392019794208 7:30000 8:1 
-0.9721269863933718 1:0.000457764 3:0.000312805 4:760.365 5:800 6:871.004 8:1 
-1 1:0.000457764 3:0.000312805 4:760.365 5:800 6:871.004 8:1 
-1 7:30000 8:1 
-1 7:1.32087 
-1 7:72.6222 
-1 1:0.000779688 2:0.000793099 3:0.00027813 4:11.6151 5:11.7978 6:3.82312 7:0.00544671 
-1 1:0.00174171 2:0.0017724 3:0.000623167 4:11.1935 5:11.369 6:3.67178 7:0.173457 
-1 7:30.5341 8:1 
-1 1:0.000541687 2:0.000549138 3:0.000214189 4:13.2528 5:13.4651 6:4.44894 7:0.00121712 
-1 1:0.000226364 2:0.000186905 3:0.000399113 4:3.17105 5:2.6224 6:5.57963 7:0.000247671 8:1 
-0.08954838660627862 
-1 
-1 
-1 
-1 
-1 
-1 
-1 
-1 
-1 
-0.2001504650010362 8:1 
-1 8:1 
-1 8:1 
-1 8:1 
-1 8:1 
-1 8:1 
-1 8:1 
-1 8:1 
-1 8:1 
-1 
-1 8:1 
-1 8:1 
-1 8:1 
-1 8:1 
-1 8:1 
-1 8:1 
-1 8:1 
-1 8:1 
-1 
-1 8:1 
-1 8:1 
-1 8:1 
-1 8:1 
-1 7:12.4263 8:1 
-1 8:1 
-1 8:1 
-1 8:1 
-1 8:1 
-1 8:1 
-1 8:1 
-1 8:1 
-1 8:1 
-1 8:1 
-1 8:1 
-1 8:1 
-1 8:1 
-1 8:1 
-1 8:1 
-1 8:1 
-1 8:1 
-1 8:1 
-1 8:1 
-1 8:1 
-1 8:1 
-1 8:1 
-1 8:1 
-1 8:1 
-1 8:1 
-1 8:1 
-1 8:1 
-1 8:1 
-1 8:1 
-1 8:1 
-1 8:1 
-1 8:1 
-1 8:1 
-1 8:1 
-1 8:1 
-1 8:1 
-1 8:1 
-1 8:1 
-1 8:1 
-1 8:1 
-1 8:1 
-1 8:1 
-1 8:1 
-1 8:1 
-1 8:1 
-1 8:1 
-1 8:1 
-1 8:1 
-1 8:1 
-1 8:1 
-1 8:1 
-1 8:1 
-1 8:1 
-1 8:1 
-1 8:1 
-1 8:1 
-1 8:1 
-1 8:1 
-1 8:1 
-1 8:1 
-1 8:1 
-1 8:1 
-1 8:1 
-1 8:1 
-1 8:1 
-1 
-1 8:1 
-1 
-1 8:1 
-1 
-1 8:1 
-1 
-1 8:1 
-1 8:1 
-1 8:1 
-1 8:1 
-1 8:1 
-1 8:1 
-1 8:1 
-1 8:1 
-1 8:1 
-1 8:1 
-1 8:1 
-1 8:1 
-1 8:1 
-1 8:1 
-1 8:1 
-1 8:1 
-1 8:1 
-1 8:1 
-1 8:1 
-1 8:1 
-1 8:1 
-1 8:1 
-1 8:1 
-1 8:1 
-1 8:1 
-1 8:1 
-1 8:1 
-1 8:1 
-1 8:1 
-1 8:1 
-1 8:1 
-1 8:1 
-1 8:1 
-1 8:1 
-1 8:1 
-1 8:1 
-1 8:1 
-1 8:1 
-1 8:1 
-1 8:1 
-1 8:1 
-1 8:1 
-1 8:1 
-1 8:1 
-1 
-1 8:1 
-1 8:1 
-1 
-1 
-1 8:1 
-1 8:1 
-1 8:1 
-1 
-1 8:1 
-1 8:1 
-1 8:1 
-1 8:1 
-1 8:1 
-1 8:1 
-1 8:1 
-1 8:1 
-1 8:1 
-1 8:1 
-1 8:1 
-1 8:1 
-1 8:1 
-1 8:1 
-1 8:1 
-1 8:1 
-1 8:1 
-1 8:1 
-1 8:1 
-1 8:1 
-1 8:1 
-1 8:1 
-1 8:1 
-1 8:1 
-1 8:1 
-1 8:1 
-1 8:1 
-1 8:1 
-1 8:1 
-1 8:1 
-1 8:1 
-1 8:1 
-1 8:1 
-1 8:1 
-1 8:1 
-1 8:1 
-1 8:1 
-1 8:1 
-1 8:1 
-1 8:1 
-1 8:1 
-1 8:1 
-1 8:1 
-1 8:1 
-1 8:1 
-1 8:1 
-1 8:1 
-1 8:1 
-1 8:1 
-1 8:1 
-1 8:1 
-1 8:1 
-1 8:1 
-1 8:1 
-1 8:1 
-1 8:1 
-1 8:1 
-1 8:1 
-1 8:1 
-1 8:1 
-1 8:1 
-1 8:1 
-1 8:1 
-1 8:1 
-1 8:1 
-1 8:1 
-1 8:1 
-1 8:1 
-1 8:1 
-1 8:1 
-1 8:1 
-1 8:1 
-1 8:1 
-1 8:1 
-1 8:1 
-1 8:1 
-1 8:1 
-1 8:1 
-1 8:1 
-1 8:1 
-1 8:1 
-1 8:1 
-1 8:1 
-1 8:1 
-1 8:1 
-1 8:1 
-1 8:1 
-1 8:1 
-1 8:1 
-1 8:1 
-1 8:1 
-1 8:1 
-1 8:1 
-1 8:1 
-1 8:1 
-1 8:1 
-1 8:1 
-1 8:1 
-1 7:1.51347 8:1 
-1 8:1 
-1 8:1 
-1 8:1 
-1 8:1 
-1 8:1 
-1 8:1 
-1 8:1 
-1 8:1 
-1 8:1 
-1 8:1 
-1 8:1 
-1 8:1 
-1 8:1 
-1 8:1 
-1 8:1 
-1 8:1 
-1 8:1 
-1 8:1 
-1 8:1 
-1 8:1 
-1 8:1 
-1 8:1 
-1 8:1 
-1 8:1 
-1 8:1 
-1 8:1 
-1 8:1 
-1 8:1 
-1 8:1 
-1 8:1 
-1 8:1 
-1 8:1 
-1 8:1 
-1 8:1 
-1 8:1 
-1 8:1 
-1 8:1 
-1 8:1 
-1 8:1 
-1 8:1 
-1 8:1 
-1 8:1 
-0.9821698985172145 8:1 
