svm_type c_svc
kernel_type rbf
gamma 0.125
nr_class 2
total_sv 2380
rho -0.978896
label 1 0
nr_sv 1771 609
SV
0.01203993518145119 1:1.5267 2:1.57448 3:1.59017 4:11.6218 5:11.8813 6:11.5644 7:53.409 8:1 
0.01028847981138376 1:0.43714 2:0.415081 3:0.502005 4:11.9075 5:12.2699 6:12.4463 7:44.6486 8:1 
0.013548407332096 1:0.735641 2:0.775144 3:0.842426 4:13.8076 5:14.2257 6:14.3891 7:37.6521 8:1 
0.01307693384611358 1:2.49325 2:2.59702 3:2.56872 4:15.124 5:15.5813 6:15.7745 7:13.0776 8:1 
0.00833827209690452 1:0.100018 2:0.0898829 3:0.125093 4:5.05163 5:5.1096 6:4.73695 7:20.655 8:1 
0.001604711708763695 1:0.264658 2:0.270278 3:0.184279 4:14.1837 5:14.5914 6:14.8927 7:13.3899 8:1 
0.01633330156187013 1:0.935749 2:0.987959 3:0.952898 4:9.11223 5:9.29844 6:9.03313 7:49.4717 8:1 
0.01150777028724931 1:0.895721 2:0.926365 3:0.907693 4:15.1377 5:15.6222 6:15.8676 7:21.7918 8:1 
0.009549815326333432 1:0.69874 2:0.71296 3:0.759154 4:10.3454 5:10.552 6:10.3036 7:38.8939 8:1 
1 1:0.0572987 2:0.0513871 3:0.0363364 4:0.151749 5:0.139882 6:0.078639 7:0.0607968 8:1 
0.001372534653975304 1:0.77555 2:0.7941 3:0.805682 4:14.6592 5:15.1319 6:15.4196 7:17.1629 8:1 
0.003931537921837883 1:0.397388 2:0.415969 3:0.38437 4:12.713 5:13.0275 6:12.864 7:22.2588 8:1 
1 1:0.0409937 2:0.0433445 3:0.018646 4:0.0439331 5:0.0404963 6:0.013152 7:0.042912 8:1 
0.003117044737617901 1:0.326741 2:0.34008 3:0.293129 4:12.1192 5:12.4975 6:12.7257 7:16.5865 8:1 
0.00656214297082347 1:0.451379 2:0.432663 3:0.513888 4:12.5644 5:12.8867 6:12.6639 7:13.8249 8:1 
0.005837721516298411 1:1.15487 2:1.19781 3:1.17283 4:11.708 5:12.0098 6:11.7024 7:7.05415 8:1 
0.01291443890571969 1:0.85571 2:0.884165 3:0.870675 4:9.72041 5:10.0365 6:10.2108 7:56.5848 8:1 
1 1:0.000966334 2:0.000386362 3:0.000435208 4:0.00893524 5:0.00728107 6:0.0013538 7:0.000270142 8:1 
0.003250057690360227 1:0.172563 2:0.164521 3:0.131798 4:11.6144 5:11.8876 6:12.4249 7:17.276 8:1 
0.0006023293628878434 1:0.0715983 2:0.0694919 3:0.0128837 4:11.9773 5:12.3419 6:12.975 7:14.2688 8:1 
0.002419834361746616 1:0.0193624 2:0.0363271 3:0.0211294 4:8.33888 5:8.56396 6:9.15614 7:4.61902 8:1 
0.005803962125498642 1:0.318421 2:0.330983 3:0.278862 4:10.49 5:10.7781 6:10.3989 7:11.8216 8:1 
0.008294301616980674 1:0.0278932 2:0.0328865 3:0.0334903 4:5.22987 5:5.33619 6:5.69231 7:0.0137676 8:1 
0.003733465592761985 1:0.131853 2:0.136804 3:0.122785 4:9.5039 5:9.75279 6:9.30694 7:6.59229 8:1 
1 1:1.40494e-06 2:7.0623e-07 3:4.53372e-06 4:7.2739e-07 5:3.63608e-07 6:2.37478e-06 7:1.92933e-12 8:1 
1 1:0.000135122 2:0.000113999 3:4.25136e-05 4:6.75636e-05 5:5.70005e-05 6:2.12697e-05 7:9.96895e-08 8:1 
1 1:0.00279658 2:0.00257838 3:0.000686161 4:0.00279918 5:0.00254241 6:0.000598497 7:0.000123549 8:1 
0.003874268536445458 1:0.0617995 2:0.0548368 3:0.0308464 4:9.37185 5:9.61317 6:9.2498 7:3.18936 8:1 
1 1:0.0500268 2:0.0437055 3:0.0161773 4:0.03761 5:0.0328121 6:0.00986774 7:0.00635927 8:1 
1 1:0.00471415 2:0.00285223 3:0.000153058 4:0.0716013 5:0.0610035 6:0.0135043 7:0.0104744 8:1 
0.008755129215687772 1:0.294662 2:0.297571 3:0.306281 4:8.27864 5:8.49083 6:8.26534 7:0.793641 8:1 
1 1:0.0198503 2:0.0220491 3:0.00408572 4:0.106684 5:0.0908779 6:0.0213876 7:0.013898 8:1 
0.003019994160650186 1:0.0538909 2:0.0583041 3:0.0428398 4:4.17372 5:4.25192 6:3.90217 7:6.32334 8:1 
0.007051817305430662 1:0.0362933 2:0.0632224 3:0.113561 4:14.9186 5:15.4022 6:15.6992 7:6.23309 8:1 
0.0188308189459272 1:0.584684 2:0.600829 3:0.639465 4:7.16563 5:7.41407 6:7.73028 7:22.5133 8:1 
0.003604185445003463 1:0.0652668 2:0.0445774 3:0.0799026 4:8.87329 5:9.08063 6:9.77973 7:0.396991 8:1 
0.003524715285053672 1:0.0902247 2:0.0865479 3:0.114434 4:9.66089 5:10.0251 6:10.3216 7:17.7996 8:1 
0.005075145321498617 1:0.0119424 2:0.0279984 3:0.0314314 4:13.1835 5:13.5874 6:13.9205 7:5.10994 8:1 
0.01396683973820395 1:1.90347 2:1.95318 3:2.01681 4:13.3838 5:13.768 6:14.2874 7:5.64436 8:1 
0.004480686307640743 1:0.0284274 2:0.0316148 3:0.0682135 4:15.7243 5:16.2891 6:16.5708 7:4.1944 8:1 
0.002047314122187316 1:0.00177741 2:0.00667262 3:0.118345 4:11.5964 5:11.8861 6:12.4891 7:5.39642 8:1 
0.0024993000136137 1:0.373603 2:0.395026 3:0.366075 4:15.5882 5:16.1235 6:16.4209 7:10.4206 8:1 
0.01238784734600758 1:0.93827 2:0.968217 3:1.08151 4:11.8819 5:12.2456 6:13.3964 7:33.2454 8:1 
0.02106979259089298 1:0.382047 2:0.403487 3:0.491706 4:13.3977 5:13.8263 6:15.2992 7:70.601 8:1 
0.01949424723420323 1:0.931343 2:0.979076 3:1.03656 4:14.6291 5:15.0893 6:16.5576 7:59.7463 8:1 
0.01147072966947293 1:0.893311 2:0.946921 3:0.974133 4:16.1276 5:16.5606 6:17.8665 7:43.7905 8:1 
0.002117915852567284 1:1.56616 2:1.64286 3:1.89849 4:17.4271 5:17.9972 6:19.7571 7:106.186 8:1 
0.01415723791889573 1:0.0378757 2:0.0548687 3:0.00535774 4:17.7014 5:18.2599 6:19.9904 7:85.614 8:1 
0.01164114211471146 1:1.53703 2:1.61629 3:1.90428 4:15.7524 5:16.186 6:17.4994 7:35.1172 8:1 
0.005780011026407105 1:0.722861 2:0.779112 3:0.869587 4:20.7419 5:21.4047 6:23.3084 7:73.8136 8:1 
0.008842143522809799 1:0.378088 2:0.410409 3:0.331719 4:14.7209 5:15.1631 6:16.0389 7:41.1863 8:1 
0.01748860392867135 1:0.25452 2:0.258186 3:0.126729 4:13.9269 5:14.2977 6:15.579 7:46.1961 8:1 
0.01398472755749783 1:0.350951 2:0.330512 3:0.588676 4:17.1218 5:17.62 6:19.1317 7:69.2462 8:1 
0.01735348894077353 1:1.63968 2:1.71566 3:1.90687 4:20.3264 5:20.9865 6:22.698 7:62.3872 8:1 
0.002876739485400756 1:0.340679 2:0.323612 3:0.464515 4:19.7092 5:20.3393 6:22.2469 7:84.2065 8:1 
0.0032878751623476 1:0.276597 2:0.308865 3:0.450407 4:14.6539 5:15.1311 6:16.167 7:42.0806 8:1 
0.01189130748615368 1:0.00221729 2:0.0384197 3:0.10272 4:23.6633 5:24.4827 6:26.6135 7:91.8784 8:1 
0.009387404100277238 1:0.859838 2:0.876211 3:0.961837 4:16.7004 5:17.1808 6:18.6749 7:125.494 8:1 
0.006815495978565332 1:0.875608 2:1.0177 3:1.14053 4:17.9244 5:18.572 6:19.9647 7:84.3731 8:1 
0.006160178373993879 1:1.52422 2:1.60991 3:1.88168 4:20.0267 5:20.6892 6:22.393 7:116.546 8:1 
0.01792079923676161 1:3.97141 2:4.11974 3:4.41664 4:17.4483 5:17.9729 6:19.4852 7:112.528 8:1 
0.003963253312387116 1:0.109147 2:0.106816 3:0.148391 4:10.8297 5:11.151 6:12.033 7:42.8939 8:1 
0.0128452665256234 1:0.91097 2:0.943058 3:1.04473 4:18.535 5:19.1018 6:20.72 7:117.153 8:1 
0.00136168902495637 1:0.315456 2:0.326239 3:0.342704 4:12.642 5:12.9858 6:13.9176 7:24.5688 8:1 
0.002653433857060447 1:0.0330942 2:0.0290587 3:0.0579686 4:10.5999 5:10.8617 6:11.4774 7:15.0741 8:1 
0.01131826802858405 1:1.76525 2:1.81985 3:1.95067 4:20.0153 5:20.6622 6:22.3715 7:103.224 8:1 
0.003998439109682912 1:1.20628 2:1.23938 3:1.36199 4:15.2804 5:15.6956 6:16.9598 7:41.0462 8:1 
0.01860923950125759 1:1.07063 2:1.11753 3:1.23396 4:15.0291 5:15.4745 6:16.7548 7:64.3293 8:1 
0.01224251200551067 1:0.547213 2:0.547733 3:0.68518 4:14.6506 5:15.0855 6:15.7361 7:30.3012 8:1 
0.01138530650443653 1:0.265243 2:0.279585 3:0.2467 4:17.883 5:18.3861 6:19.9129 7:48.4062 8:1 
0.01047696512332025 1:0.180319 2:0.190552 3:0.268223 4:19.0198 5:19.6043 6:21.2571 7:81.1713 8:1 
0.003618867234884249 1:0.360765 2:0.366329 3:0.351662 4:15.377 5:15.7949 6:16.8577 7:30.0543 8:1 
0.008050961316428429 1:0.938015 2:0.978744 3:1.07523 4:18.3914 5:18.9227 6:20.248 7:32.8727 8:1 
0.001301530136495643 1:1.12352 2:1.18468 3:1.16421 4:10.4474 5:10.6666 6:10.5505 7:15.0074 8:1 
0.01257119601348779 1:0.629115 2:0.634927 3:0.653561 4:21.1285 5:21.7485 6:23.6167 7:39.7809 8:1 
0.004220323673688735 1:0.733104 2:0.792745 3:0.841103 4:21.2635 5:21.908 6:23.8184 7:66.7203 8:1 
0.007428233807637934 1:0.00383043 2:0.0179701 3:0.0465345 4:23.2357 5:23.9177 6:26.0128 7:32.3567 8:1 
0.01304564305578257 1:0.72611 2:0.761468 3:0.850885 4:17.5513 5:18.0719 6:19.0573 7:66.181 8:1 
0.01078578494732132 1:0.153417 2:0.154134 3:0.132463 4:21.6213 5:22.2548 6:23.9203 7:28.3352 8:1 
0.009891349534755012 1:0.138253 2:0.13479 3:0.129164 4:16.7382 5:17.2435 6:18.1819 7:46.1502 8:1 
0.006549094107338671 1:0.57225 2:0.616751 3:0.657155 4:20.3254 5:20.9211 6:22.7162 7:97.9307 8:1 
0.007517054370181917 1:0.0243769 2:0.000500679 3:0.0116181 4:21.2718 5:21.8495 6:23.4909 7:48.2874 8:1 
0.01126399520698477 1:0.394499 2:0.398308 3:0.461219 4:21.6513 5:22.255 6:24.107 7:74.1582 8:1 
0.01708044327188706 1:2.16454 2:2.27058 3:2.46882 4:16.9979 5:17.5364 6:18.5323 7:80.7888 8:1 
0.01613371854366924 1:0.134375 2:0.161405 3:0.189066 4:18.1926 5:18.728 6:20.1634 7:98.7862 8:1 
0.007936874919848059 1:0.660056 2:0.670173 3:0.749035 4:10.12 5:10.3497 6:10.4932 7:29.0603 8:1 
0.008770721734125147 1:0.651594 2:0.683013 3:0.731063 4:19.6088 5:20.1323 6:21.5857 7:69.6256 8:1 
0.01106775500172472 1:2.02295 2:2.1146 3:2.23247 4:18.9003 5:19.5391 6:20.7836 7:112.741 8:1 
0.01255386522906651 1:0.330254 2:0.367002 3:0.456099 4:19.986 5:20.5361 6:22.1364 7:92.8009 8:1 
0.0006603013411466355 1:0.744891 2:0.754188 3:0.780607 4:10.3839 5:10.6195 6:10.8146 7:26.1921 8:1 
0.01237865285695484 1:2.20052 2:2.26634 3:2.50326 4:17.8663 5:18.3842 6:19.7262 7:107.865 8:1 
0.01422656554398932 1:0.0787711 2:0.0871606 3:0.152299 4:16.7196 5:17.1609 6:18.2136 7:117.225 8:1 
0.01278438232503826 1:0.539842 2:0.565074 3:0.617773 4:9.06097 5:9.26928 6:9.39249 7:28.0276 8:1 
0.008833099307375164 1:1.37264 2:1.43742 3:1.51107 4:19.9969 5:20.6655 6:22.082 7:153.532 8:1 
0.0131458562667891 1:0.210698 2:0.20138 3:0.225691 4:16.6421 5:17.1305 6:18.4008 7:108.275 8:1 
0.009585861834918686 1:1.79602 2:1.86723 3:2.14132 4:16.6174 5:17.0701 6:18.2748 7:110.078 8:1 
0.009454886690502359 1:1.26971 2:1.31966 3:1.43688 4:18.5091 5:19.088 6:20.4227 7:126.722 8:1 
0.01793855732587678 1:1.93901 2:2.01788 3:2.34516 4:13.0441 5:13.4013 6:14.183 7:108.776 8:1 
0.01295163974999338 1:1.63617 2:1.68928 3:1.86022 4:15.3723 5:15.8084 6:16.6433 7:118.485 8:1 
0.003440676565888858 1:0.486497 2:0.516759 3:0.599448 4:19.0847 5:19.6363 6:21.2023 7:137.948 8:1 
0.01394518715307315 1:1.62376 2:1.70603 3:1.79737 4:18.938 5:19.5437 6:20.9684 7:140.309 8:1 
0.01009864767007277 1:1.6231 2:1.68378 3:1.95322 4:22.2065 5:22.944 6:24.9367 7:57.2293 8:1 
0.003097939026866636 1:1.05996 2:1.10236 3:1.17958 4:19.655 5:20.2247 6:21.8665 7:110.628 8:1 
0.02060796503604084 1:0.333862 2:0.331985 3:0.267237 4:12.9656 5:13.3467 6:14.1538 7:97.1157 8:1 
0.001207512961233724 1:0.382495 2:0.384925 3:0.454379 4:21.3689 5:22.0684 6:23.9425 7:104.219 8:1 
0.01512160778500411 1:0.568053 2:0.617315 3:0.765772 4:19.5443 5:20.1263 6:21.7056 7:131.183 8:1 
0.009616739204039363 1:1.73685 2:1.80794 3:2.01576 4:20.7775 5:21.4631 6:23.255 7:83.6345 8:1 
0.006731231613673807 1:0.420231 2:0.433517 3:0.407721 4:14.0338 5:14.4647 6:15.3625 7:111.31 8:1 
0.0118003237371106 1:0.24755 2:0.265978 3:0.322593 4:20.0813 5:20.6507 6:22.3641 7:135.428 8:1 
0.01701658838716263 1:3.54434 2:3.66309 3:4.03063 4:21.0641 5:21.7474 6:23.5533 7:132.677 8:1 
0.003761565479315776 1:0.965113 2:1.00443 3:1.06683 4:18.2686 5:18.814 6:20.1798 7:112.964 8:1 
0.01047321714099176 1:0.981288 2:1.02015 3:1.19299 4:19.9812 5:20.6437 6:22.2435 7:79.7157 8:1 
0.01239540993471178 1:2.74272 2:2.83411 3:2.97912 4:17.5072 5:18.0446 6:19.6088 7:120.298 8:1 
0.007654565912445699 1:0.650368 2:0.640248 3:0.820241 4:23.8652 5:24.631 6:26.7641 7:128.167 8:1 
0.01180543932711733 1:0.226507 2:0.214209 3:0.22826 4:20.6541 5:21.3639 6:23.1545 7:90.7282 8:1 
0.00304093422488966 1:1.39262 2:1.47047 3:1.57351 4:20.5597 5:21.2672 6:22.9061 7:94.7465 8:1 
0.0108712863173154 1:1.74649 2:1.81842 3:1.99817 4:21.7216 5:22.4012 6:24.3118 7:136.816 8:1 
0.01533865927031175 1:0.401843 2:0.412769 3:0.486136 4:21.2205 5:21.8816 6:23.6936 7:148.001 8:1 
0.01069882177752834 1:0.122988 2:0.139092 3:0.125648 4:21.2001 5:21.8537 6:23.7844 7:121.351 8:1 
0.002410613672635287 1:1.76398 2:1.84264 3:2.14261 4:20.9084 5:21.55 6:23.4577 7:151.879 8:1 
0.01290572140288358 1:2.40726 2:2.48713 3:2.76083 4:21.1467 5:21.806 6:23.6086 7:116.555 8:1 
0.01059138025393808 1:0.902154 2:0.913971 3:0.984533 4:21.5555 5:22.3002 6:23.8109 7:144.083 8:1 
0.01271300981070761 1:1.57582 2:1.64616 3:1.83361 4:21.4272 5:22.1099 6:24.1251 7:176.869 8:1 
0.01503089216670742 1:1.76835 2:1.83598 3:2.0195 4:21.905 5:22.5434 6:24.5451 7:140.193 8:1 
0.01259527838700425 1:1.92834 2:2.0289 3:2.22231 4:22.4513 5:23.1595 6:24.9858 7:118.646 8:1 
0.01283459388937784 1:2.00661 2:2.07056 3:2.3029 4:22.5449 5:23.3136 6:24.9918 7:164.512 8:1 
0.01498665143740391 1:0.0567756 2:0.0685916 3:0.00427818 4:21.9094 5:22.6499 6:24.3055 7:153.781 8:1 
0.0162072486991689 1:3.29597 2:3.43106 3:3.67989 4:20.1675 5:20.7671 6:22.7494 7:151.734 8:1 
0.009089127461127632 1:0.696034 2:0.758469 3:0.79489 4:20.0993 5:20.6902 6:22.2561 7:100.086 8:1 
0.02051921127549017 1:3.79078 2:3.96336 3:4.43134 4:22.9102 5:23.6423 6:25.7387 7:175.947 8:1 
0.01090588183073473 1:0.0805888 2:0.0656643 3:0.035675 4:19.9449 5:20.5333 6:22.3401 7:104.684 8:1 
0.01608876061988729 1:1.02227 2:1.06316 3:1.21914 4:22.1549 5:22.8403 6:24.647 7:161.226 8:1 
0.01043555507652949 1:0.103214 2:0.131137 3:0.16056 4:20.0805 5:20.6731 6:22.4682 7:120.447 
0.02040756072105178 1:0.821858 2:0.866339 3:0.954319 4:21.5187 5:22.2439 6:23.858 7:168.226 8:1 
0.001094045089850004 1:0.356652 2:0.361396 3:0.316281 4:20.875 5:21.5045 6:23.0366 7:93.873 8:1 
0.01642611789041587 1:2.58805 2:2.67349 3:2.92703 4:20.0172 5:20.6319 6:22.3148 7:96.5504 8:1 
0.01578995477367329 1:0.519493 2:0.539695 3:0.760316 4:20.0954 5:20.7584 6:22.2509 7:175.395 8:1 
0.0208446358732764 1:2.60014 2:2.71891 3:3.06454 4:22.1749 5:22.8819 6:24.7526 7:183.032 8:1 
0.01377787120261148 1:1.58748 2:1.62183 3:1.73474 4:22.4291 5:23.1469 6:24.7916 7:78.0076 8:1 
0.00987070567668169 1:2.30914 2:2.41321 3:2.62762 4:20.4329 5:21.0492 6:22.6181 7:134.139 8:1 
0.004606902945085062 1:1.16031 2:1.19962 3:1.28954 4:19.8613 5:20.5452 6:21.9401 7:154.739 8:1 
0.02111671092461148 1:2.49644 2:2.54524 3:2.14633 4:30.3617 5:31.1558 6:33.5393 7:460.694 
0.01186371630516297 1:2.1237 2:2.16587 3:2.4151 4:24.0148 5:24.7515 6:26.6539 7:46.2606 8:1 
0.01821679041021612 1:2.40517 2:2.46696 3:2.67108 4:19.2153 5:19.8567 6:21.2326 7:148.147 8:1 
0.00731750510723167 1:0.272073 2:0.283131 3:0.392056 4:22.0483 5:22.7307 6:24.4096 7:128.316 8:1 
0.008508887541036653 1:1.91098 2:2.02738 3:2.26981 4:26.7775 5:27.6238 6:29.8492 7:69.2122 8:1 
0.01608699474512339 1:0.92672 2:0.975238 3:1.07419 4:8.80085 5:9.00956 6:9.14663 7:35.0063 8:1 
0.01022797117795184 1:1.9346 2:2.02271 3:2.06496 4:24.2558 5:25.0036 6:26.8833 7:61.0956 8:1 
0.005964684875428406 1:0.470103 2:0.468469 3:0.474974 4:19.5314 5:20.1162 6:21.7996 7:109.491 
0.01539282270139699 1:0.184005 2:0.179952 3:0.249974 4:14.1021 5:14.4941 6:15.2179 7:137.624 8:1 
0.01222768575538025 1:0.570602 2:0.604949 3:0.695789 4:8.81564 5:9.04049 6:9.26662 7:54.969 8:1 
0.01277769192567503 1:0.161248 2:0.176695 3:0.261001 4:15.2698 5:15.728 6:16.7586 7:112.613 8:1 
0.01927876370375742 1:0.666379 2:0.680423 3:0.646493 4:16.8889 5:17.4006 6:18.4343 7:158.363 8:1 
0.02099496498841569 1:0.617051 2:0.632088 3:0.706503 4:11.0497 5:11.3823 6:11.8858 7:78.5558 8:1 
0.01505627038379026 1:0.851517 2:0.891185 3:0.985023 4:14.9866 5:15.4128 6:16.448 7:90.8962 8:1 
0.01632245808290933 1:1.65887 2:1.7213 3:1.99009 4:17.8265 5:18.3289 6:19.5675 7:137.171 8:1 
0.01185429722171083 1:0.526892 2:0.550114 3:0.522006 4:14.2866 5:14.7293 6:15.5967 7:158.591 8:1 
0.01927473744143138 1:0.898762 2:0.926471 3:1.08004 4:15.8321 5:16.2294 6:17.3491 7:99.6753 8:1 
0.005215527570673868 1:0.93259 2:1.00801 3:1.07684 4:20.5241 5:21.148 6:22.7843 7:118.869 
0.01266373181048014 1:0.8054 2:0.82689 3:0.977035 4:20.8494 5:21.4279 6:22.9166 7:124.173 8:1 
0.01719452261110652 1:0.159754 2:0.192301 3:0.195137 4:14.063 5:14.4208 6:15.3608 7:131.053 8:1 
0.01867291876015165 1:1.22168 2:1.28964 3:1.44536 4:12.5478 5:12.8271 6:13.6144 7:88.6965 8:1 
0.009827467979335647 1:0.555732 2:0.579831 3:0.653108 4:20.9423 5:21.5047 6:23.0293 7:127.921 8:1 
0.005397019625327513 1:1.23381 2:1.28892 3:1.34747 4:21.912 5:22.6009 6:24.3415 7:56.6714 
0.01724309745477812 1:1.13216 2:1.12586 3:1.25473 4:20.3232 5:20.8469 6:22.2383 7:157.643 8:1 
0.001377059415901454 1:0.142554 2:0.173794 3:0.153679 4:25.528 5:26.3173 6:28.6018 7:74.3074 
0.01286211928776002 1:0.547717 2:0.576487 3:0.592361 4:17.3097 5:17.7764 6:19.1151 7:104.923 8:1 
0.01616161698505143 1:0.727785 2:0.697422 3:0.812916 4:12.7001 5:13.0085 6:13.693 7:127.06 8:1 
0.02058586500158882 1:3.817 2:3.94573 3:4.51751 4:16.7571 5:17.1465 6:18.2618 7:160.104 8:1 
0.01504094430463088 1:2.52163 2:2.61359 3:2.85503 4:21.7887 5:22.4572 6:24.1523 7:68.04 
0.01132089665072022 1:0.264266 2:0.258828 3:0.294745 4:13.8808 5:14.2303 6:15.2197 7:91.5375 8:1 
0.0147133929440915 1:1.03074 2:1.12434 3:1.37115 4:15.1793 5:15.5643 6:16.6302 7:136.807 8:1 
0.01236351807298458 1:2.33276 2:2.40237 3:2.72195 4:16.1999 5:16.5996 6:17.8211 7:113.61 8:1 
0.01250916171678285 1:0.39492 2:0.421178 3:0.45631 4:15.0614 5:15.4492 6:16.6068 7:124.611 8:1 
0.01322956722458605 1:0.102309 2:0.129335 3:0.134755 4:13.4119 5:13.7562 6:14.4926 7:109.307 8:1 
0.0139727247885444 1:0.531903 2:0.575845 3:0.580565 4:22.7493 5:23.4511 6:25.2379 7:50.5 
0.01997345054067717 1:3.18798 2:3.3147 3:3.70475 4:17.3303 5:17.7801 6:19.0273 7:142.456 8:1 
0.01247030763409468 1:1.11351 2:1.16003 3:1.29882 4:15.0195 5:15.4117 6:16.333 7:121.251 8:1 
0.008249361007401904 1:1.95548 2:1.99024 3:2.24144 4:17.4947 5:17.9715 6:19.4352 7:122.956 8:1 
0.02109896903192027 1:10.4913 2:10.7832 3:13.256 4:32.3954 5:33.2479 6:37.1839 7:1016.54 
0.002593999191167928 1:0.956914 2:0.989098 3:1.12916 4:20.2161 5:20.7663 6:22.4632 7:130.799 8:1 
0.0211719494134589 1:0.513502 2:0.525482 3:0.588408 4:16.8448 5:17.3164 6:18.53 7:148.579 8:1 
0.01229440178690719 1:0.00506639 2:0.0123286 3:0.0627065 4:23.3403 5:24.0599 6:25.993 7:56.2807 
0.00694168575987915 1:0.737765 2:0.792491 3:0.869188 4:22.0337 5:22.627 6:24.4679 7:86.4106 8:1 
0.00954626710594068 1:0.399865 2:0.400603 3:0.514527 4:19.5578 5:20.0759 6:21.7251 7:107.566 8:1 
0.009896529700627828 1:0.617116 2:0.649264 3:0.692518 4:20.6961 5:21.2399 6:23.0389 7:65.3416 8:1 
0.01232389683167395 1:0.0132294 2:0.00942373 3:0.0345421 4:20.6483 5:21.2134 6:22.9739 7:138.398 8:1 
0.01470418217256682 1:0.664591 2:0.744299 3:0.616352 4:23.5784 5:24.2899 6:26.3554 7:41.7204 
0.00813022645224809 1:1.06593 2:1.09538 3:1.25978 4:22.2819 5:22.8802 6:24.7219 7:54.4319 8:1 
0.01720233428830015 1:2.84933 2:2.91251 3:3.28893 4:22.6302 5:23.2183 6:25.2011 7:97.5829 8:1 
0.01208245965328453 1:1.6766 2:1.73076 3:2.02568 4:20.484 5:21.0055 6:22.7672 7:45.8634 8:1 
0.01700638559347167 1:2.28402 2:2.32105 3:2.62444 4:19.4346 5:19.9233 6:21.2889 7:57.3009 8:1 
0.0209804928071945 1:2.14567 2:2.20884 3:5.44585 4:87.1364 5:89.9997 6:103.421 7:28211.9 
0.0161089650207784 1:2.44963 2:2.49209 3:2.8696 4:22.367 5:22.9392 6:24.7659 7:93.3057 8:1 
0.01821200581632466 1:3.93311 2:4.06116 3:4.39918 4:18.7432 5:19.2966 6:20.9477 7:118.914 
0.001402891918020743 1:0.509985 2:0.524126 3:0.580508 4:17.2694 5:17.709 6:18.7784 7:33.801 8:1 
0.01295087289361713 1:0.277452 2:0.300764 3:0.351193 4:17.3059 5:17.8337 6:19.1506 7:122.354 8:1 
0.01983039758017541 1:2.65427 2:2.75716 3:2.94014 4:22.4767 5:23.236 6:24.8954 7:108.003 8:1 
0.01543496240786729 1:0.538592 2:0.540687 3:0.523167 4:24.3022 5:25.0768 6:26.8915 7:48.0424 8:1 
0.001457618375505519 1:0.730401 2:0.764445 3:0.840305 4:18.943 5:19.5463 6:21.0378 7:138.973 8:1 
0.01161986067910342 1:0.113146 2:0.101856 3:0.0730333 4:20.5879 5:21.2527 6:22.9079 7:145.053 8:1 
0.01137014727203049 1:1.06691 2:1.11617 3:1.33268 4:18.0197 5:18.4891 6:19.7421 7:26.7996 8:1 
0.01295705985030482 1:0.74562 2:0.743482 3:0.785056 4:25.2443 5:26.0056 6:28.6296 7:111.743 
0.01133071747071723 1:0.1994 2:0.225109 3:0.272213 4:19.6697 5:20.1915 6:21.6184 7:53.0657 8:1 
0.0104660918762568 1:0.098989 2:0.136298 3:0.171465 4:24.2088 5:24.9747 6:26.8338 7:71.5774 8:1 
0.007672179916272242 1:0.469081 2:0.471492 3:0.585972 4:23.2768 5:24.0122 6:25.8837 7:127.19 8:1 
0.01054531254236213 1:0.45734 2:0.507689 3:0.413505 4:25.1067 5:25.8593 6:27.803 7:64.3766 8:1 
0.00913492565859016 1:0.845828 2:0.891798 3:0.963653 4:22.4443 5:23.0626 6:24.9079 7:82.3686 8:1 
0.008321123231023408 1:0.828794 2:0.864516 3:0.965557 4:24.9407 5:25.7802 6:27.7282 7:58.2048 8:1 
0.003051639324270987 1:0.860835 2:0.899152 3:0.990277 4:23.0201 5:23.7769 6:25.4213 7:62.9982 8:1 
0.01363436351679143 1:1.46237 2:1.49891 3:1.62484 4:24.3249 5:25.0738 6:26.9886 7:53.7209 8:1 
0.01114945170706166 1:0.444604 2:0.462221 3:0.534075 4:22.9663 5:23.6407 6:25.5715 7:63.6547 8:1 
0.002361512869586376 1:1.81796 2:1.85818 3:1.95364 4:22.8241 5:23.4924 6:25.2168 7:65.8485 8:1 
0.01810552847829494 1:2.20542 2:2.27996 3:2.57169 4:27.7353 5:28.6503 6:30.998 7:78.5988 8:1 
0.01179180924318307 1:0.388858 2:0.413635 3:0.361384 4:25.8151 5:26.6002 6:28.9337 7:67.4662 8:1 
0.01277347982062591 1:1.17533 2:1.21707 3:1.41162 4:25.6505 5:26.3784 6:28.7441 7:61.1832 8:1 
0.01695240255088698 1:3.10187 2:3.25015 3:3.49434 4:21.8439 5:22.528 6:24.0738 7:39.1774 8:1 
0.009468429169250406 1:0.435223 2:0.472219 3:0.557953 4:27.2088 5:28.093 6:30.4551 7:79.8323 8:1 
0.01559786688301751 1:0.0190706 2:0.0104432 3:0.0685058 4:26.7109 5:27.5324 6:30.0056 7:88.4397 8:1 
0.0113562019832481 1:1.91734 2:1.97091 3:2.18341 4:23.0756 5:23.7514 6:25.9614 7:84.0514 8:1 
0.006054839755574042 1:0.608283 2:0.645854 3:0.635771 4:25.924 5:26.797 6:29.0507 7:94.222 8:1 
0.008533103050478164 1:0.686711 2:0.705836 3:0.801162 4:25.1817 5:25.8987 6:28.3316 7:55.9262 8:1 
0.003038013083791026 1:0.122188 2:0.149335 3:0.159614 4:25.3593 5:26.1456 6:28.563 7:80.7708 8:1 
0.01290120556690025 1:1.58857 2:1.64698 3:1.84736 4:22.0363 5:22.6737 6:24.8552 7:153.31 
0.004630985379496863 1:0.588199 2:0.599092 3:0.677533 4:19.917 5:20.4959 6:21.9806 7:54.1398 8:1 
0.007255199395860906 1:0.122709 2:0.142489 3:0.132664 4:24.6219 5:25.3391 6:27.8538 7:87.2067 8:1 
0.01063626036015789 1:0.596325 2:0.600328 3:0.740038 4:26.2682 5:27.1432 6:29.4149 7:93.7049 8:1 
0.01712361431107207 1:1.04641 2:1.11331 3:1.25784 4:24.1426 5:24.9337 6:27.2185 7:119.109 8:1 
0.01732737106343119 1:2.26472 2:2.36318 3:2.56405 4:25.6587 5:26.4287 6:28.9211 7:104.946 8:1 
0.006442569311388903 1:0.934486 2:0.943111 3:0.983297 4:25.2595 5:26.1036 6:28.3149 7:89.6339 
0.008653995850495087 1:0.0709639 2:0.0562 3:0.0074811 4:25.6931 5:26.5284 6:28.5019 7:76.4518 
0.009706885464839773 1:1.63335 2:1.69052 3:1.86306 4:25.6965 5:26.531 6:29.0176 7:112.422 8:1 
0.01281822428765761 1:1.33615 2:1.42037 3:1.49783 4:27.4923 5:28.3407 6:31.0376 7:112.854 8:1 
0.02103343345597525 1:126.812 2:131.422 3:155.126 4:400.811 5:414.502 6:488.8 7:191140 
0.007356994628167239 1:1.36158 2:1.41021 3:1.49097 4:26.2899 5:27.1222 6:29.2353 7:70.0777 
0.02083347959924409 1:0.156245 2:0.135053 3:0.1985 4:30.1772 5:31.0856 6:34.2795 7:90.5637 8:1 
0.01605941749317191 1:1.49435 2:1.53583 3:1.59993 4:34.1334 5:35.1919 6:38.762 7:28.4639 8:1 
0.008423919067689412 1:0.619639 2:0.646034 3:0.734049 4:26.7143 5:27.5657 6:29.8425 7:81.5068 
0.00617350212470661 1:1.31262 2:1.30456 3:1.45707 4:34.2973 5:35.3593 6:38.8375 7:19.2106 8:1 
0.02080241774267932 1:78.1077 2:80.801 3:94.2728 4:321.986 5:332.69 6:387.387 7:159657 
0.007093772510135876 1:2.0373 2:2.11018 3:2.3779 4:22.8672 5:23.5504 6:25.2564 7:163.112 
0.01189295591749484 1:0.652251 2:0.680344 3:0.645921 4:34.0618 5:35.0738 6:38.4891 7:11.0527 8:1 
0.02109131355640942 1:4.19258 2:4.33175 3:4.76541 4:20.0859 5:20.7568 6:22.2345 7:210.271 
0.01508893334348843 1:0.0841379 2:0.110649 3:0.121928 4:24.1868 5:24.9356 6:27.4925 7:101.95 
0.02105451170584632 1:25.6826 2:26.5157 3:29.523 4:39.5495 5:40.8158 6:44.6356 7:12648.2 
0.02051601983460527 1:2.06711 2:2.15194 3:2.29382 4:31.0265 5:32.051 6:35.041 7:85.827 
0.02104008914853644 1:57.2698 2:59.2613 3:69.9938 4:59.0372 5:60.8133 6:68.0823 7:14626.6 
0.005588929859524472 1:0.453878 2:0.457742 3:0.577329 4:32.4702 5:33.4092 6:36.738 7:10.7841 8:1 
0.01504013341134369 1:2.08617 2:2.133 3:2.259 4:33.3714 5:34.5337 6:37.6327 7:56.8659 
0.01997121097452192 1:1.82807 2:1.90387 3:2.17341 4:25.59 5:26.3562 6:29.0396 7:132.202 
0.01293494736285095 1:1.29938 2:1.35665 3:1.54436 4:30.3318 5:31.2434 6:34.0885 7:27.493 8:1 
0.003459385866434128 1:0.40279 2:0.416464 3:0.608838 4:27.9978 5:28.8182 6:31.3769 7:33.8699 8:1 
0.005568688986228052 1:0.400333 2:0.417006 3:0.492639 4:24.8657 5:25.6902 6:28.0573 7:81.2262 
0.02157107479702308 1:0.436588 2:0.407875 3:0.53604 4:34.2285 5:35.3101 6:38.5611 7:76.656 
0.02051089610763995 1:0.243355 2:0.258439 3:0.276355 4:28.0929 5:28.9474 6:31.9423 7:106.697 
0.01425989622017716 1:1.22697 2:1.28068 3:1.34398 4:28.3951 5:29.2856 6:32.0064 7:115.608 
0.0156964115078288 1:0.559808 2:0.583599 3:0.707174 4:35.5641 5:36.6594 6:39.9823 7:27.7663 
0.01791936938112543 1:0.811043 2:0.895659 3:1.13934 4:23.1239 5:23.7751 6:26.2477 7:133.801 
0.004652814641963432 1:0.842028 2:0.85267 3:0.951573 4:17.0022 5:17.4494 6:18.4942 7:38.2032 8:1 
0.01541805525131906 1:0.115985 2:0.119436 3:0.172793 4:18.3539 5:18.7707 6:20.0624 7:57.4677 8:1 
0.001762893141962456 1:0.420294 2:0.457723 3:0.608565 4:30.5562 5:31.3075 6:34.3329 7:8.62037 
0.01309480948079272 1:1.27466 2:1.31017 3:1.42077 4:34.2568 5:35.2741 6:38.5345 7:18.014 
0.01532260578205596 1:1.24248 2:1.32356 3:1.36567 4:32.5345 5:33.5026 6:36.5366 7:22.6769 
0.007279153720910743 1:1.3924 2:1.40682 3:1.59065 4:19.2954 5:19.8485 6:21.1457 7:69.9254 8:1 
0.006424770809884961 1:0.730505 2:0.750356 3:0.920222 4:22.8832 5:23.5335 6:25.3229 7:91.4141 8:1 
0.01129654916058851 1:0.0686209 2:0.0558906 3:0.0381787 4:13.9371 5:14.2797 6:15.0702 7:1.55205 8:1 
0.005525535872977739 1:0.0860777 2:0.0934253 3:0.0706797 4:29.8843 5:30.6272 6:33.4935 7:10.8764 
0.02071275063318845 1:1.14659 2:1.15634 3:1.32938 4:25.275 5:26.0202 6:28.3091 7:188.415 
0.007176845997936785 1:0.719888 2:0.755134 3:0.787988 4:29.8665 5:30.6301 6:33.5096 7:5.08153 
0.01018977993027775 1:0.222435 2:0.196258 3:0.247914 4:33.0623 5:34.0122 6:37.1113 7:7.41541 
0.01050550513804116 1:0.870675 2:0.877909 3:1.00438 4:18.206 5:18.7238 6:19.9349 7:54.7401 8:1 
0.01994816961432788 1:1.29889 2:1.30606 3:1.42115 4:24.1045 5:24.7304 6:26.8879 7:143.571 8:1 
0.005675711152993345 1:0.359755 2:0.373272 3:0.336932 4:28.7314 5:29.4623 6:32.2892 7:10.7074 
0.00508852065245945 1:1.55765 2:1.59161 3:1.80634 4:21.2795 5:21.9046 6:23.5499 7:80.1529 8:1 
0.011260340674034 1:1.25417 2:1.30857 3:1.4987 4:24.3483 5:24.9875 6:27.1109 7:79.5371 8:1 
0.009778388442547784 1:0.377697 2:0.380651 3:0.343667 4:31.9953 5:32.8664 6:35.7816 7:15.0186 
0.01746514458992671 1:1.80309 2:1.81916 3:2.02008 4:24.8448 5:25.463 6:27.7119 7:99.8103 8:1 
0.008292788695583586 1:0.518209 2:0.567784 3:0.649256 4:23.4538 5:24.1321 6:26.0599 7:87.111 8:1 
0.007218811834235209 1:0.0796447 2:0.0883288 3:0.0478272 4:26.2977 5:26.9874 6:29.5587 7:17.0379 
0.02091266973067935 1:0.168277 2:0.172501 3:0.149976 4:26.4579 5:27.195 6:29.7777 7:2449.18 
0.009797817880312032 1:0.626239 2:0.688501 3:0.625666 4:24.4813 5:25.1233 6:27.2672 7:73.8043 8:1 
0.005762571301992426 1:0.219235 2:0.23752 3:0.185886 4:25.2855 5:25.9961 6:28.0365 7:77.4215 8:1 
0.009497456919920389 1:1.55554 2:1.63891 3:1.79441 4:23.603 5:24.1898 6:26.349 7:66.3518 8:1 
0.02097931067665515 1:56.3529 2:58.2285 3:68.3643 4:169.621 5:175.14 6:203.941 7:122713 
0.01326916895798652 1:0.145936 2:0.177701 3:0.0660954 4:29.755 5:30.5598 6:33.3085 7:22.1181 
0.01171172294473655 1:1.47138 2:1.52643 3:1.64018 4:25.475 5:26.191 6:28.3192 7:83.2144 8:1 
0.002172258880875466 1:0.228905 2:0.236057 3:0.1849 4:23.8345 5:24.4808 6:26.7973 7:6.87646 
0.009811774945800674 1:0.501949 2:0.495586 3:0.577374 4:22.3756 5:22.8882 6:24.8844 7:103.417 8:1 
0.009500782557365682 1:0.0434494 2:0.0733743 3:0.203426 4:24.1608 5:24.7817 6:27.0442 7:68.4147 8:1 
0.01223932275172597 1:0.206816 2:0.199749 3:0.138736 4:22.5858 5:23.2043 6:25.0716 7:105.688 8:1 
0.01331108118413693 1:0.368621 2:0.415246 3:0.489871 4:21.8556 5:22.4091 6:24.5523 7:70.2589 8:1 
0.008250639616909514 1:0.938728 2:0.938323 3:1.03101 4:22.2442 5:22.8485 6:24.9488 7:4.7493 
0.01579223344797054 1:2.09478 2:2.12179 3:2.33709 4:21.3912 5:21.9324 6:23.9367 7:88.2821 8:1 
0.009662888854675533 1:1.31373 2:1.36675 3:1.58256 4:18.5884 5:19.0759 6:20.5526 7:102.57 8:1 
0.001784549055241003 1:0.932733 2:0.962326 3:1.12692 4:28.309 5:29.0984 6:31.7358 7:24.3636 
0.01683213716485142 1:0.134751 2:0.131048 3:0.114011 4:22.0568 5:22.5985 6:24.6876 7:96.5435 8:1 
0.006474176531825806 1:0.0414672 2:0.069788 3:0.0327954 4:22.9966 5:23.6894 6:25.8111 7:9.47146 
0.00217727043449415 1:0.791816 2:0.826374 3:0.809359 4:18.9029 5:19.3374 6:21.0367 7:84.973 8:1 
0.01211193320056846 1:0.0524721 2:0.0500398 3:0.00946236 4:19.2119 5:19.7079 6:21.3973 7:111.706 8:1 
0.01055215445063725 1:0.471004 2:0.467325 3:0.588562 4:26.4228 5:27.1924 6:29.7496 7:74.143 8:1 
0.011828923848552 1:0.946093 2:0.974204 3:1.20012 4:24.735 5:25.401 6:27.7944 7:107.712 8:1 
0.01054405890554672 1:0.0279398 2:0.0216885 3:0.0491905 4:23.6753 5:24.3046 6:26.3044 7:129.943 8:1 
0.02105146189231616 1:2.47496 2:2.6374 3:2.8244 4:30.7293 5:31.7128 6:34.6189 7:131.874 8:1 
0.006970296409686881 1:1.37025 2:1.40723 3:1.53092 4:25.1941 5:25.9077 6:28.3261 7:86.6786 8:1 
0.01376982200824223 1:1.43746 2:1.47818 3:1.71465 4:27.7205 5:28.4655 6:31.1237 7:72.2293 8:1 
0.01557266106293557 1:0.137146 2:0.110826 3:0.0830073 4:26.4705 5:27.1712 6:29.4259 7:117.735 8:1 
0.003726000129241588 1:1.20096 2:1.21806 3:1.36288 4:25.8029 5:26.5418 6:29.0219 7:89.0456 8:1 
0.02133751074130186 1:0.0764914 2:0.0923424 3:0.105413 4:33.0634 5:34.1454 6:37.3788 7:101.101 
0.0191378850761856 1:1.46877 2:1.53842 3:1.69017 4:35.6689 5:36.8753 6:40.1674 7:22.295 8:1 
0.01310270475111647 1:2.14543 2:2.21941 3:2.42514 4:31.0803 5:31.9062 6:34.824 7:45.1431 8:1 
0.007466366123386975 1:0.247896 2:0.264486 3:0.268243 4:27.6764 5:28.4844 6:31.1035 7:116.572 8:1 
0.01221986725181973 1:0.18781 2:0.182185 3:0.223042 4:32.464 5:33.3033 6:36.3777 7:20.7446 8:1 
0.01978478903120141 1:0.174871 2:0.172674 3:0.132439 4:29.4207 5:30.2829 6:33.1021 7:98.5489 8:1 
0.02043468967653339 1:2.98415 2:3.09763 3:3.32705 4:36.0927 5:37.2682 6:40.7909 7:35.6246 
0.007442095740604863 1:0.309603 2:0.323039 3:0.342258 4:28.8221 5:29.5362 6:32.3413 7:8.0147 8:1 
0.01882785497208716 1:1.99179 2:2.03254 3:2.19596 4:28.0584 5:28.8953 6:31.4392 7:97.6087 
0.0152856543688521 1:1.26823 2:1.30364 3:1.44995 4:36.0798 5:37.2052 6:40.6193 7:9.32053 8:1 
0.0189444646728586 1:0.159049 2:0.190543 3:0.19864 4:31.6541 5:32.5314 6:35.5448 7:66.5229 8:1 
0.01964500386767104 1:1.14805 2:1.15721 3:1.27304 4:36.8948 5:38.0624 6:41.5931 7:13.7207 
0.005446057218024087 1:1.30439 2:1.34963 3:1.49381 4:29.1181 5:29.9755 6:32.5148 7:21.1054 
0.007088571569033713 1:0.740037 2:0.788353 3:0.993101 4:33.057 5:33.9447 6:37.2286 7:5.65802 8:1 
0.009970037864533265 1:0.0698414 2:0.0655098 3:0.0640755 4:35.1549 5:36.3301 6:39.6297 7:9.75416 
0.0009821170069352686 1:0.783641 2:0.810499 3:0.928564 4:26.7422 5:27.5398 6:29.9256 7:34.9451 
0.004059369306888531 1:1.40352 2:1.47975 3:1.46878 4:24.9628 5:25.7314 6:28.0362 7:12.7986 
0.01007894140219082 1:0.0802245 2:0.0810852 3:0.0594296 4:25.9587 5:26.7888 6:29.1388 7:21.9974 
0.008725419841152937 1:0.775204 2:0.778254 3:0.916143 4:25.7234 5:26.542 6:28.7974 7:34.304 
0.01686661688510577 1:2.37959 2:2.48745 3:2.74738 4:20.7852 5:21.3707 6:23.1254 7:74.9044 
0.005920636500007955 1:0.406652 2:0.439128 3:0.282378 4:24.9824 5:25.7593 6:28.0892 7:93.513 8:1 
0.01498051475832751 1:0.108706 2:0.128871 3:0.135808 4:30.4885 5:31.3503 6:34.2903 7:1.21838 8:1 
0.002983169318916068 1:0.0893149 2:0.105069 3:0.0298223 4:22.07 5:22.7183 6:24.8075 7:7.33898 8:1 
0.002185824588411561 1:1.21674 2:1.26123 3:1.36321 4:26.8284 5:27.6891 6:30.0725 7:20.1798 
0.01100588067295806 1:1.46957 2:1.52075 3:1.59387 4:24.0047 5:24.7404 6:26.8078 7:5.64102 
0.005070892880584764 1:0.0123763 2:0.00292206 3:0.133134 4:20.753 5:21.3765 6:23.323 7:4.59854 8:1 
0.003801131308344474 1:0.249659 2:0.240913 3:0.250285 4:22.6337 5:23.312 6:25.2194 7:5.75447 
0.002012362178926565 1:0.919907 2:0.935808 3:0.970204 4:20.0837 5:20.6566 6:22.5497 7:7.0608 8:1 
0.02074149668317832 1:12.4775 2:13.0439 3:15.0809 4:38.7455 5:39.6829 6:45.1842 7:1197.75 
0.001247791402131221 1:0.358851 2:0.367694 3:0.391705 4:26.9272 5:27.7821 6:30.0753 7:8.40537 
0.003284531279436005 1:0.121312 2:0.120872 3:0.0233626 4:21.7461 5:22.4109 6:24.2245 7:8.68898 
0.001000721933442024 1:0.431384 2:0.430014 3:0.60252 4:18.953 5:19.4842 6:21.4167 7:12.3401 
0.003325485243466228 1:0.0655031 2:0.0759621 3:0.080996 4:18.9594 5:19.5017 6:21.2703 7:6.48449 8:1 
0.008779345630933411 1:0.973912 2:1.00459 3:1.12931 4:27.2483 5:28.1304 6:30.4707 7:7.71505 
0.02106792141603508 1:12.7199 2:13.135 3:14.8318 4:28.0693 5:28.9662 6:31.5992 7:3230.53 
0.01537141993383799 1:0.864974 2:0.903851 3:1.21253 4:19.5193 5:20.1011 6:21.625 7:42.5682 
0.009196072256904109 1:0.11875 2:0.130726 3:0.144038 4:18.1524 5:18.688 6:20.4828 7:3.90438 
0.009495120613940056 1:0.352124 2:0.368225 3:0.36197 4:7.96958 5:8.12766 6:8.23475 7:13.7266 
0.007262864566458084 1:0.204754 2:0.188909 3:0.293388 4:19.924 5:20.4823 6:22.3993 7:16.3641 
0.01499455293753658 1:1.35092 2:1.41365 3:1.5729 4:12.6593 5:13.0473 6:13.8152 7:42.7025 
0.01267269051079496 1:0.897974 2:0.913702 3:0.982919 4:18.689 5:19.2288 6:21.1266 7:1.60514 
0.00683895510836996 1:1.58986 2:1.63445 3:1.6872 4:21.8769 5:22.5443 6:24.5533 7:11.9231 
0.0210702174379957 1:4.84221 2:5.05308 3:6.25431 4:58.1895 5:60.1561 6:68.086 7:16209 
0.01954259619754557 1:1.19794 2:1.20786 3:1.38486 4:30.7539 5:31.5547 6:34.1073 7:72.9753 8:1 
0.01420560470245586 1:0.869273 2:0.881401 3:1.04975 4:31.3351 5:32.131 6:34.6839 7:40.7662 8:1 
0.01029521636939764 1:0.938324 2:0.95965 3:1.04723 4:32.5052 5:33.3301 6:36.0438 7:16.5241 8:1 
0.005523756728500661 1:0.370276 2:0.378909 3:0.362214 4:28.9539 5:29.7437 6:32.2907 7:2.2158 8:1 
0.008994090840521052 1:0.436542 2:0.430082 3:0.463752 4:31.9563 5:32.7609 6:35.4389 7:12.383 8:1 
0.001855276515417815 1:0.443674 2:0.501122 3:0.608421 4:28.4378 5:29.2149 6:31.7087 7:3.52436 8:1 
0.007205823639189389 1:0.00271559 2:0.0222058 3:0.129845 4:30.994 5:31.7956 6:34.4969 7:8.95609 8:1 
0.001536042563438034 1:0.137063 2:0.15254 3:0.191141 4:29.2637 5:30.1145 6:32.5004 7:4.38149 
0.002397601449730567 1:0.399671 2:0.416346 3:0.597672 4:27.6521 5:28.3893 6:30.8055 7:5.79114 8:1 
0.004746785813393767 1:0.012228 2:0.00848961 3:0.0638657 4:30.0253 5:30.827 6:33.4885 7:4.90657 8:1 
0.0008971865391832479 1:0.305755 2:0.342895 3:0.273983 4:31.6201 5:32.3836 6:35.4445 7:3.75033 8:1 
0.003659820824717061 1:0.174102 2:0.178324 3:0.199075 4:27.6183 5:28.2836 6:30.7349 7:15.985 8:1 
1 
0.003284318414139358 1:0.595786 2:0.632044 3:0.695371 4:26.5755 5:27.2849 6:29.5157 7:4.32746 8:1 
0.003043107751998508 1:0.166731 2:0.147615 3:0.00155497 4:27.1686 5:27.8024 6:30.1689 7:7.69164 8:1 
0.001285959481590494 1:0.0932541 2:0.088913 3:0.144839 4:26.6308 5:27.2413 6:29.6386 7:3.94195 8:1 
0.004433511669073351 1:0.0191989 2:0.0138645 3:0.0445142 4:23.3075 5:23.9245 6:26.2798 7:9.59815 8:1 
0.007797584951029446 1:1.11093 2:1.16269 3:1.36706 4:27.2634 5:27.93 6:30.5181 7:11.7722 8:1 
0.02109766002774183 1:1.61734 2:1.63126 3:1.759 4:210.212 5:216.919 6:247.969 7:102133 
0.003929815864227153 1:0.305681 2:0.302274 3:0.248977 4:25.0442 5:25.6492 6:27.8691 7:17.5166 8:1 
0.005504363361312548 1:0.172951 2:0.190387 3:0.140756 4:26.8299 5:27.5226 6:30.0463 7:2.81208 8:1 
0.003971418036565106 1:0.157878 2:0.149603 3:0.237606 4:28.7413 5:29.5634 6:32.204 7:14.8775 8:1 
0.01118528415275877 1:0.00711727 2:0.0554543 3:0.163363 4:25.5924 5:26.2365 6:28.5496 7:5.6747 8:1 
0.004549349136344583 1:1.97438 2:2.09152 3:2.28816 4:23.4153 5:24.0607 6:26.0238 7:23.0853 
0.01247992607424944 1:0.261162 2:0.28039 3:0.367831 4:14.6844 5:15.0514 6:16.1897 7:128.157 
0.002891070600192391 1:1.24367 2:1.29094 3:1.42589 4:17.6472 5:18.0847 6:19.5601 7:67.9784 
0.001868270992908071 1:0.422377 2:0.459561 3:0.533154 4:28.1636 5:28.9887 6:31.1712 7:6.30761 
0.02101672342371136 1:0.682317 2:0.702776 3:0.766983 4:10.1198 5:10.3554 6:11.2005 7:136.893 
0.01945569552603625 1:1.1637 2:1.19414 3:1.26253 4:8.08109 5:8.23126 6:8.74697 7:119.256 8:1 
0.008959819876455175 1:1.29424 2:1.31471 3:1.36712 4:26.6797 5:27.4455 6:29.4401 7:14.101 
0.02105167801257829 1:0.168998 2:0.17403 3:0.183406 4:0.0844989 5:0.0870152 6:0.0917029 7:65.993 
0.02104120958376932 1:5.31608 2:5.4623 3:5.89024 4:19.1049 5:19.6963 6:21.3811 7:220.007 
0.00860524777365515 1:0.0949125 2:0.0758114 3:0.0763969 4:23.6221 5:24.3048 6:26.0324 7:31.1393 
0.02097606551571479 1:73.4165 2:75.7157 3:87.4671 4:301.283 5:311.239 6:358.379 7:164376 
0.009528394505244104 1:1.24755 2:1.26722 3:1.33299 4:22.1416 5:22.8119 6:24.5545 7:42.3038 
0.02111310041028786 1:2.47959 2:2.57902 3:2.69137 4:15.9265 5:16.4477 6:17.844 7:74.4946 
0.001516122384703115 1:0.000310898 2:0.014679 3:0.0798111 4:29.4384 5:30.3564 6:32.9854 7:4.42276 
0.00698410136841769 1:0.232016 2:0.255135 3:0.285442 4:20.0482 5:20.6608 6:22.2924 7:46.6764 8:1 
0.01054366789428296 1:0.767214 2:0.778628 3:0.829368 4:15.9376 5:16.4581 6:17.8942 7:28.8014 
0.01761368681385673 1:1.87333 2:1.93359 3:2.07626 4:7.6214 5:7.83924 6:8.58101 7:63.1919 8:1 
0.006836215772062493 1:0.450322 2:0.481752 3:0.486464 4:20.2516 5:20.8606 6:22.51 7:7.78025 
0.01589039405451087 1:0.0416331 2:0.050971 3:0.0723381 4:30.1336 5:31.0665 6:33.6894 7:33.2794 
0.008455587193172156 1:0.0327377 2:0.0537305 3:0.0315113 4:22.0102 5:22.6788 6:24.6607 7:15.6735 
0.00339896608468025 1:0.777259 2:0.823852 3:0.806384 4:22.7259 5:23.3751 6:25.3535 7:20.2566 
0.003267648439988187 1:0.581324 2:0.64657 3:0.476797 4:21.9542 5:22.6155 6:24.2853 7:14.2984 
0.005010382373724019 1:1.12339 2:1.19602 3:1.24965 4:24.0476 5:24.7562 6:26.6872 7:14.9875 
0.008552489576464851 1:0.146819 2:0.156476 3:0.190671 4:23.7653 5:24.4525 6:26.2292 7:24.097 
0.004391654869899897 1:0.403008 2:0.452196 3:0.464448 4:26.1486 5:26.9196 6:29.3487 7:11.2077 8:1 
0.02015549445897796 1:0.95786 2:0.997072 3:1.14092 4:10.1868 5:10.4613 6:11.0007 7:97.0871 
0.02148158396800925 1:4.28339 2:4.40926 3:4.64615 4:14.7763 5:15.2128 6:16.142 7:104.946 
0.003921331774535741 1:1.32583 2:1.32344 3:1.54009 4:20.9234 5:21.4713 6:23.3416 7:46.362 
0.02104064588541643 1:3.49078 2:3.6144 3:4.48957 4:34.8895 5:35.927 6:39.7369 7:1840.3 
0.01035204285576492 1:0.862843 2:0.896179 3:0.943261 4:16.6488 5:17.1358 6:18.4969 7:33.1493 
0.01062207958451206 1:2.07389 2:2.16788 3:2.24824 4:21.0219 5:21.6093 6:23.2132 7:174.912 
0.02058551978194945 1:1.12352 2:1.20154 3:1.2474 4:8.36387 5:8.47245 6:9.39505 7:80.652 
0.00810900521379871 1:0.15111 2:0.136874 3:0.167437 4:19.8268 5:20.4067 6:22.3213 7:2.47187 8:1 
0.02017405539984119 1:4.00495 2:4.15256 3:4.33392 4:19.3372 5:19.9235 6:21.4705 7:79.3262 
0.007139630748511633 1:0.699223 2:0.753297 3:0.810007 4:20.8767 5:21.4592 6:23.4443 7:3.52915 
0.006614451530572277 1:0.0423682 2:0.0478156 3:0.077234 4:11.896 5:12.2597 6:13.3595 7:21.0089 
0.02111667546570256 1:3.40273 2:3.49026 3:3.66261 4:8.6844 5:8.89338 6:9.20473 7:157.461 
0.0210324575612541 1:77.2332 2:79.7518 3:93.9364 4:150.837 5:155.485 6:181.139 7:58347.7 
0.02119978528214855 1:2.84521 2:2.94626 3:2.8899 4:5.64919 5:5.81615 6:6.23658 7:6905.84 
0.02117461292367101 1:0.029608 2:0.0279915 3:0.0212438 4:11.8696 5:12.2252 6:13.3001 7:8544.27 8:1 
0.004987257214386105 1:0.838879 2:0.880539 3:0.943223 4:21.4616 5:22.088 6:24.3383 7:9.30883 8:1 
0.001220237635898846 1:0.0431981 2:0.0527215 3:0.0194478 4:21.2737 5:21.8543 6:24.119 7:6.6609 8:1 
0.02071926766592741 1:3.66229 2:3.75088 3:3.73078 4:15.4793 5:15.7813 6:16.8463 7:178.674 
0.02117166134065968 1:29.9092 2:31.0098 3:36.9427 4:24.137 5:24.9713 6:29.2734 7:4622.83 
0.01472684922687155 1:0.298333 2:0.327373 3:0.36781 4:27.493 5:28.257 6:30.4841 7:0.689189 8:1 
0.007190053165930034 1:0.0518303 2:0.0529528 3:0.0546713 4:17.379 5:17.8594 6:19.8358 7:16.0835 8:1 
0.02094126476236008 1:0.593666 2:0.571661 3:0.522059 4:7.57347 5:7.80397 6:8.48038 7:73.9924 
0.004180416466306144 1:0.335691 2:0.327691 3:0.359419 4:19.319 5:19.8477 6:21.9793 7:32.502 8:1 
0.007973834871146121 1:0.0518017 2:0.0363808 3:0.0539193 4:16.4933 5:16.8187 6:18.3245 7:15.9519 
0.003853081930187701 1:0.441807 2:0.462032 3:0.441916 4:23.0926 5:23.7112 6:25.2551 7:20.3725 8:1 
0.005028795021026277 1:0.51091 2:0.553832 3:0.601075 4:18.1807 5:18.5688 6:20.3207 7:18.2551 8:1 
0.006273251963913413 1:1.76217 2:1.83347 3:2.00098 4:21.7754 5:22.2887 6:23.8225 7:22.7994 
0.01504998894401943 1:0.45915 2:0.462564 3:0.508953 4:10.1359 5:10.298 6:10.734 7:44.3769 
0.02008245728797481 1:0.760188 2:0.760294 3:0.793478 4:14.6021 5:14.8811 6:15.8108 7:84.7072 
0.01258252956628159 1:0.0694947 2:0.0981674 3:0.08635 4:25.63 5:26.2323 6:28.194 7:105.297 8:1 
0.02134863379625779 1:32.4212 2:33.51 3:39.9205 4:25.1863 5:25.963 6:30.0305 7:12202.1 
0.02032196164903877 1:1.61631 2:1.64202 3:1.71185 4:7.14564 5:7.2974 6:7.59362 7:98.68 8:1 
0.01439713036695709 1:2.49594 2:2.56167 3:2.81087 4:2.68347 5:2.72522 6:2.94571 7:44.4133 8:1 
0.0210604833280098 1:152.43 2:157.915 3:185.803 4:120.115 5:124.185 6:144.955 7:43759.4 
0.02104659680738058 1:20.902 2:21.759 3:25.9635 4:82.3166 5:85.0188 6:98.4539 7:39538.1 
0.008993114907325652 1:1.6503 2:1.69873 3:1.98471 4:17.6215 5:18.0109 6:19.1787 7:38.324 
0.02103247477123599 1:14.3833 2:14.8743 3:17.149 4:15.424 5:15.8512 6:17.576 7:32434.4 
0.006421149031807289 1:0.0240422 2:0.0252032 3:0.0377672 4:8.37996 5:8.57331 6:8.8864 7:7.06565 8:1 
0.02099397442337647 1:69.2907 2:71.9388 3:84.0227 4:301.938 5:312.662 6:364.677 7:90600.1 
0.001079549680048546 1:1.06136 2:1.07542 3:1.24582 4:9.83359 5:10.0287 6:10.9359 7:4.3611 
0.02099156356398268 1:119.989 2:124.16 3:147.414 4:67.2421 5:69.475 6:81.5878 7:62635 
0.00219012854611412 1:0.494774 2:0.493528 3:0.448623 4:5.54264 5:5.65863 6:5.55595 7:16.4787 
0.01669513973117215 1:2.1748 2:2.20646 3:2.31452 4:7.68767 5:7.86298 6:8.15979 7:50.6064 
0.0210508760515683 1:1.46386 2:1.49945 3:1.54489 4:19.816 5:20.2962 6:21.4311 7:347.496 
0.02105267714470088 1:0.58148 2:0.60123 3:0.62803 4:11.9076 5:12.1635 6:12.885 7:292.887 
0.02098152609219867 1:160.703 2:166.275 3:195.698 4:184.14 5:190.139 6:222.429 7:93198 
0.02098216197894737 1:49.3002 2:50.855 3:58.8929 4:92.6834 5:95.6262 6:110.576 7:40407.8 
0.104612392418388 1:0.13145 2:0.113929 3:0.174005 4:2.25371 5:2.31207 6:2.45599 7:23.9578 
0.01225734121892822 1:0.295128 2:0.298785 3:0.351478 4:12.886 5:13.2467 6:14.1432 7:25.351 
0.01336915416804257 1:1.24673 2:1.26863 3:1.36265 4:3.01918 5:3.08099 6:3.13864 7:39.5009 
0.02127027214740718 1:50.1927 2:51.8826 3:60.3575 4:225.327 5:232.398 6:270.195 7:153243 
1 
0.02095116440725414 1:4.98956 2:5.22322 3:6.21747 4:44.6524 5:46.0547 6:52.5983 7:3601.06 
0.02093903676279441 1:104.492 2:107.97 3:127.537 4:330.775 5:341.742 6:402.54 7:187231 
0.003739720432247302 1:0.961479 2:0.98635 3:1.06213 4:14.3517 5:14.7271 6:15.8244 7:18.5992 
0.01630637710638416 1:0.73665 2:0.740652 3:0.727899 4:4.14163 5:4.21725 6:4.15217 7:37.3078 
0.0137732751075611 1:2.39703 2:2.46212 3:2.56419 4:19.7065 5:20.2291 6:21.5704 7:67.0633 
0.02095184345328999 1:13.4834 2:13.9487 3:16.1429 4:26.1624 5:26.8202 6:29.1965 7:2068.56 
0.004748755246613889 1:0.0348841 2:0.0289899 3:0.0582973 4:5.16297 5:5.27108 6:5.9277 7:8.74868 8:1 
0.007678290218176321 1:0.361048 2:0.363787 3:0.794475 4:20.1041 5:20.6448 6:22.2976 7:83.7473 
0.0006369385480182732 1:1.26939 2:1.33504 3:1.43067 4:16.6128 5:16.9548 6:18.4799 7:15.5155 
0.003019401622271035 1:0.935764 2:0.966678 3:1.055 4:10.2641 5:10.5662 6:11.5439 7:23.5104 
0.009232844401128593 1:1.61513 2:1.69499 3:1.8487 4:14.3098 5:14.6222 6:16 7:25.7476 8:1 
0.010877495096562 1:1.87216 2:1.91895 3:2.04502 4:8.47933 5:8.61354 6:9.52171 7:18.1858 8:1 
0.7158071551868461 1:3.02451e-32 2:3.07641e-32 3:3.10156e-32 4:1.51225e-32 5:1.5382e-32 6:1.55078e-32 7:15.1203 
0.01835696417391329 1:0.180044 2:0.180581 3:0.214442 4:6.72933 5:6.90973 6:7.46239 7:64.6378 
0.01366231437203902 1:0.263282 2:0.280947 3:0.399298 4:11.2446 5:11.5584 6:12.3215 7:52.7511 
0.004747659327772406 1:1.27213 2:1.31543 3:1.41827 4:7.31173 5:7.44599 6:8.2713 7:3.65744 8:1 
0.02106818698594742 1:14.0124 2:14.4889 3:16.565 4:14.045 5:14.4576 6:15.9585 7:1322.05 
0.01773991690794513 1:0.493142 2:0.498626 3:0.461168 4:15.8575 5:16.2429 6:17.897 7:79.8075 8:1 
0.0122370446607623 1:0.100235 2:0.102232 3:0.105231 4:16.2609 5:16.7122 6:17.7741 7:1.07416 8:1 
0.02096527106435286 1:0.0192407 2:0.0202964 3:0.0198064 4:0.784696 5:0.743544 6:0.769717 7:784.629 8:1 
0.001974798074805806 1:0.13073 2:0.144995 3:0.110752 4:16.5635 5:17.0427 6:18.1485 7:1.93088 8:1 
0.003021307405112911 1:1.2996 2:1.32871 3:1.43088 4:10.2267 5:10.4989 6:11.3055 7:53.7386 
0.02096296951514443 1:69.1912 2:71.8124 3:87.0561 4:274.798 5:284.051 6:330.085 7:137564 
0.004063567135574275 1:1.05107 2:1.08169 3:1.18219 4:9.96154 5:10.2277 6:11.1357 7:27.9851 
0.01958656733443398 1:0.0304897 2:0.0309374 3:0.045753 4:12.2822 5:12.6069 6:13.7387 7:156.463 8:1 
0.02097510061553248 1:15.1128 2:15.6483 3:17.5238 4:17.2717 5:17.8074 6:19.9513 7:8958.52 
1 1:1.49925e-23 2:1.51274e-23 3:1.41163e-23 4:7.49627e-24 5:7.56368e-24 6:7.05817e-24 7:1.4013e-45 
0.02096826393941353 1:23.1133 2:23.8277 3:28.3159 4:437.8 5:452.806 6:530.38 7:116442 
1 1:3.16759e-39 2:3.28002e-39 3:3.63357e-39 4:1.5838e-39 5:1.64001e-39 6:1.81678e-39 
0.02099364318263236 1:0.529819 2:0.540055 3:0.558631 4:1.39878 5:1.38273 6:1.4622 7:8263.32 
0.02097845060305298 1:1.05108 2:1.14847 3:1.46841 4:24.7701 5:25.4813 6:27.7721 7:78650.9 
0.0210481013421176 1:78.4193 2:80.7064 3:93.7835 4:326.911 5:337.526 6:396.87 7:227126 
0.02104236296466194 1:74.2605 2:76.4851 3:92.3527 4:352.605 5:364.581 6:422.956 7:114877 
0.0210509811422494 1:47.701 2:49.1045 3:57.5962 4:568.048 5:587.035 6:683.783 7:73411.3 
1 1:3.80032e-06 2:3.9306e-06 3:3.92647e-06 4:1.90016e-06 5:1.9653e-06 6:1.96323e-06 7:0.0183327 
0.02105178338960118 1:53.4972 2:54.9524 3:63.6062 4:149.782 5:154.499 6:174.186 7:54691.4 
0.02105458155774631 1:34.4664 2:35.5816 3:42.4041 4:570.062 5:589.161 6:687.717 7:134409 
0.01629487080788039 1:2.37153 2:2.44062 3:2.52228 4:1.81937 5:1.86943 6:1.90408 7:40.6427 
0.02107802551569232 1:5.75251 2:5.91248 3:6.50291 4:34.6919 5:35.5227 6:37.9157 7:705.917 
0.0208983361268878 1:0.358885 2:0.357589 3:0.355098 4:3.49036 5:3.52447 6:3.89635 7:71.5249 
0.02103500425809041 1:1.64272 2:1.70017 3:1.91576 4:15.5961 5:15.951 6:17.225 7:172.369 
0.0210775001937456 1:0.0365129 2:0.0444241 3:0.0127563 4:7.49705 5:7.738 6:8.97918 7:532.894 
1 7:2.41266 
0.004937871981525566 1:1.16064 2:1.19393 3:1.24697 4:5.87269 5:5.92802 6:6.67508 7:1.98565 8:1 
0.02107410206010252 1:6.27988 2:6.54628 3:7.59969 4:18.0353 5:18.5321 6:20.3911 7:1178.62 
0.01324207396757579 1:1.66393 2:1.73544 3:1.80405 4:15.6459 5:16.0145 6:17.3175 7:4.15904 8:1 
0.02108101482387109 1:43.8042 2:45.2389 3:53.7082 4:53.7431 5:55.3771 6:63.6173 7:14200.4 
0.02108238339047591 1:7.48005 2:7.65548 3:8.80579 4:153.805 5:159.081 6:184.349 7:71274.8 
0.002074713926467928 1:0.884004 2:0.923798 3:0.936715 4:4.4392 5:4.47587 6:4.59983 7:3.99556 8:1 
0.02109708140341238 1:4.92184 2:5.11178 3:6.70767 4:24.4419 5:25.1954 6:28.7163 7:813.076 
0.0210974472306304 1:0.848427 2:0.880916 3:0.887533 4:8.73184 5:8.85924 6:9.69255 7:833.073 
0.01917052102597741 1:1.98971 2:2.06308 3:2.14091 4:4.96916 5:5.03369 6:5.2671 7:102.156 
0.02104731402488114 1:4.43734 2:4.59876 3:4.95776 4:11.924 5:12.1656 6:13.1584 7:142.097 
0.02109977891798093 1:9.4272 2:9.70942 3:9.89987 4:82.2829 5:84.905 6:94.1225 7:37856.5 
0.003844691296935591 1:0.0145571 2:0.0169401 3:0.000637531 4:11.0726 5:11.3178 6:12.0127 7:3.76514 8:1 
0.00409496606312491 1:0.120917 2:0.121743 3:0.135528 4:12.569 5:12.864 6:13.699 7:18.3176 8:1 
0.02110579585299999 1:38.3087 2:39.5758 3:46.0609 4:21.1466 5:21.8051 6:25.3195 7:6218.45 
0.02111490563910279 1:3.3249 2:3.49178 3:4.46067 4:41.6117 5:43.0687 6:49.7208 7:11469.9 
1 1:0.0918071 2:0.0934328 3:0.0926118 4:0.0459036 5:0.0467164 6:0.0463059 7:0.067655 
0.02111555657064995 1:145.735 2:150.266 3:176.495 4:426.6 5:439.789 6:515.009 7:256800 
0.0211167498489071 1:8.0664 2:8.30142 3:9.9558 4:155.09 5:160.493 6:189.827 7:32042.1 
0.0211215711351625 1:7.62458 2:7.86616 3:9.18697 4:15.079 5:15.4843 6:16.556 7:653.369 
0.02066138626104319 1:108.731 2:112.603 3:133.667 4:411.371 5:425.05 6:502.195 7:110053 
0.02068249028527819 1:77.9276 2:80.2507 3:95.0053 4:340.375 5:350.877 6:410.767 7:152528 
0.01620411815401809 1:2.35227 2:2.40862 3:2.51193 4:3.67863 5:3.72389 6:3.93185 7:47.3564 
0.0203399692558775 1:3.80425 2:3.99722 3:3.89208 4:7.98335 5:8.15758 6:8.50452 7:59.4644 
0.02074993879307901 1:64.9256 2:67.3021 3:78.7583 4:260.871 5:269.592 6:318.285 7:84525.6 
0.02075767904443432 1:33.6421 2:34.6543 3:42.3869 4:380.077 5:392.964 6:455.839 7:99425.5 
0.02130001691165806 1:2.0459 2:2.09529 3:2.64648 4:9.09603 5:9.27816 6:10.1467 7:307.533 
0.02076869665124242 1:0.925063 2:0.945642 3:0.966834 4:6.8864 5:7.07416 6:7.24611 7:22273.3 
0.02153477249042668 1:10.9788 2:11.3749 3:13.0794 4:242.338 5:250.58 6:287.596 7:60316.5 
0.02159109402397674 1:23.2214 2:23.9911 3:28.6414 4:21.9299 5:22.5881 6:25.7495 7:4386.11 
0.02117076240898835 1:0.337696 2:0.356602 3:0.386333 4:3.74707 5:3.83043 6:3.77341 7:30302.8 
0.01676516661081162 1:0.032961 2:0.0192407 3:0.144066 4:3.94417 5:4.04053 6:4.01491 7:53.8135 
0.01110622011673784 1:1.76347 2:1.82851 3:1.87283 4:3.68431 5:3.7234 6:3.72078 7:8.62082 
0.0213482111374646 1:67.5545 2:69.8932 3:81.7469 4:93.582 5:96.6054 6:109.064 7:33576.6 
0.005739859311235381 1:0.405172 2:0.41874 3:0.398837 4:5.13373 5:5.31076 6:4.96918 7:10.9882 
0.0214233034704932 1:2.55365 2:2.62588 3:3.12005 4:18.0649 5:18.4773 6:18.6227 7:279.399 
1 
0.149062638922131 1:1.42409 2:1.4702 3:1.48075 4:0.712047 5:0.735099 6:0.740377 7:26.7038 
0.02142078934566094 1:5.22713 2:5.39074 3:5.97874 4:10.1841 5:10.4267 6:11.4666 7:115.537 
1 
0.004290491468891221 1:0.154305 2:0.166927 3:0.198442 4:10.5716 5:10.8162 6:11.8858 7:6.98242 
0.007126899563520439 1:0.0430627 2:0.0415075 3:0.0302477 4:11.4333 5:11.7001 6:12.8748 7:1.31072 8:1 
0.00114520517221411 1:0.310143 2:0.317881 3:0.317989 4:6.52876 5:6.60526 6:7.42394 7:5.33042 
0.003577091260674733 1:0.280588 2:0.274996 3:0.346247 4:3.43226 5:3.46564 6:3.96026 7:6.51969 
0.02143008016306502 1:117.748 2:121.864 3:144.638 4:97.0116 5:100.235 6:117.309 7:41692.7 
0.02143307540653006 1:136.251 2:140.942 3:165.497 4:313.371 5:323.869 6:380.862 7:204205 
0.004651217420816913 1:0.318665 2:0.340466 3:0.215577 4:11.2122 5:11.4347 6:12.3625 7:19.3628 
0.02160307165427218 1:1.88979 2:1.92833 3:1.93678 4:6.20153 5:6.3459 6:6.80092 7:166.251 
0.002068192656784207 1:0.0217955 2:0.0271385 3:0.0241692 4:12.1076 5:12.3241 6:13.5133 7:4.70194 8:1 
0.003122064095889489 1:1.29739 2:1.33988 3:1.37524 4:9.93575 5:10.0687 6:11.0446 7:3.849 8:1 
0.02092794170032458 1:4.88578 2:5.07347 3:6.02426 4:12.7032 5:13.0484 6:14.1056 7:814.066 
0.01934964172894621 1:0.317148 2:0.32303 3:0.36743 4:10.7391 5:10.9676 6:11.6352 7:129.184 
0.00196777761159872 1:1.32331 2:1.35443 3:1.39457 4:8.44784 5:8.49963 6:9.37186 7:7.06609 8:1 
0.005571218793947699 1:0.104662 2:0.1034 3:0.125698 4:14.8428 5:15.2174 6:16.315 7:0.79746 8:1 
1 
0.0008062612000491742 1:1.29141 2:1.32197 3:1.32639 4:3.12531 5:3.15711 6:3.44019 7:11.2387 
0.02084704249453584 1:51.1247 2:52.8983 3:61.7528 4:62.8449 5:64.9934 6:75.1024 7:19538.9 
1 1:4.04459e-29 2:4.21246e-29 3:4.33206e-29 4:2.0223e-29 5:2.10623e-29 6:2.16603e-29 7:2.39897 
0.02134863379625784 1:27.2914 2:28.248 3:32.571 4:20.7895 5:21.4555 6:23.7498 7:6723.94 
0.02109902368711075 1:67.2677 2:69.5727 3:82.1393 4:35.8594 5:36.9642 6:43.4708 7:37485 
0.00571373117850903 1:0.0111427 2:0.0156491 3:0.0251019 4:9.75704 5:9.95872 6:11.026 7:14.2808 8:1 
0.02133397294032363 1:109.175 2:112.821 3:132.756 4:88.6575 5:91.7258 6:107.402 7:62775.5 
0.02160085969693076 1:26.5218 2:27.5143 3:32.5396 4:71.6946 5:74.0618 6:85.852 7:18728.7 
0.0127443306092329 1:0.8672 2:0.881399 3:0.825164 4:4.2808 5:4.37544 6:4.63954 7:78.6716 
0.003996832913943274 1:1.21559 2:1.26541 3:1.32597 4:9.54593 5:9.65912 6:10.7735 7:2.36813 8:1 
0.02104259222913413 1:307.349 2:317.96 3:377.268 4:159.305 5:164.738 6:194.747 7:100345 
0.02103040339039236 1:7.189 2:7.45242 3:7.64502 4:20.1361 5:20.7417 6:22.2309 7:356.923 
0.01117831864389232 1:0.211916 2:0.218876 3:0.223011 4:9.71024 5:9.91329 6:11.0864 7:40.1867 8:1 
0.002263762576324362 1:0.0976574 2:0.0877242 3:0.111073 4:13.3647 5:13.5558 6:14.8491 7:7.05896 8:1 
0.02087640095257909 1:21.5119 2:22.2788 3:26.1035 4:141.505 5:146.29 6:170.517 7:45392.7 
0.01431754984652174 1:3.00201 2:3.07201 3:3.11898 4:10.5165 5:10.5791 6:11.6136 7:8.42024 8:1 
0.02104236296466194 1:39.7933 2:41.1924 3:48.7179 4:61.7639 5:63.8284 6:74.6417 7:27376.9 
0.101594155500513 1:0.507254 2:0.513648 3:0.554808 4:1.65299 5:1.66912 6:1.86795 7:16.6235 
0.01316613700018865 1:2.58431 2:2.65934 3:2.71578 4:3.61373 5:3.68488 6:3.94649 7:25.411 
0.003797423609027225 1:0.166197 2:0.167978 3:0.168707 4:7.90818 5:7.92364 6:9.01294 7:8.97746 
0.02078930194729844 1:5.3803 2:5.54819 3:5.79537 4:19.5092 5:19.9776 6:21.1169 7:167.993 
0.005369463136920938 1:0.225394 2:0.238144 3:0.247006 4:14.1733 5:14.2821 6:15.4726 7:20.9676 8:1 
0.02106183109242743 1:14.3496 2:14.7737 3:17.7629 4:27.9313 5:28.8064 6:33.075 7:1592.97 
0.001951623313438844 1:1.61129 2:1.66294 3:1.69648 4:13.8075 5:13.8849 6:15.1052 7:18.753 8:1 
0.0209544504077967 1:1.38686 2:1.43514 3:1.59868 4:5.89975 5:6.05467 6:6.52823 7:283.262 
0.008515154778481257 1:0.828673 2:0.848584 3:0.898921 4:11.9673 5:12.2103 6:13.3043 7:1.54622 8:1 
0.0003839577010362177 1:0.590173 2:0.619595 3:0.672469 4:14.5135 5:14.6126 6:15.858 7:18.35 8:1 
0.005083247008074012 1:0.00294816 2:0.00219011 3:0.0211768 4:6.26068 5:6.32737 6:7.17375 7:6.45629 8:1 
1 1:0.00921007 2:0.00871642 3:0.0101929 4:0.00460504 5:0.00435821 6:0.00509644 7:0.000588813 8:1 
0.02108281467209083 1:1.09157 2:1.11291 3:1.13605 4:0.546792 5:0.557499 6:0.56925 7:9132 
0.02107443652131036 1:19.2032 2:19.9155 3:22.8361 4:16.8324 5:17.4311 6:20.1731 7:6088.47 
0.01133073921008047 1:1.97819 2:2.01384 3:2.1992 4:6.58301 5:6.59881 6:7.55835 7:16.7469 
0.02108842870294275 1:19.2259 2:19.817 3:22.8296 4:16.2931 5:16.796 6:19.3175 7:1492.86 
0.006534640700654791 1:0.109492 2:0.121874 3:0.0979249 4:12.3812 5:12.5052 6:13.8602 7:8.3385 8:1 
0.02139649584192121 1:76.6325 2:79.0407 3:92.3585 4:74.0743 5:76.5529 6:88.9814 7:25949.6 
0.0163271087758167 1:0.418465 2:0.433851 3:0.430354 4:4.15168 5:4.25039 6:4.51037 7:29.9232 
0.003517789988230706 1:0.346057 2:0.344876 3:0.366885 4:9.19255 5:9.38505 6:10.635 7:1.10475 
0.02109744723063034 1:0.397924 2:0.405598 3:0.418432 4:0.502016 5:0.509079 6:0.585889 7:36308.5 
0.01752906032020818 1:1.10063 2:1.14634 3:1.46 4:2.76652 5:2.83911 6:3.03412 7:51.1859 
0.01383347196536524 1:0.243786 2:0.269313 3:0.327634 4:12.4913 5:12.5795 6:13.8312 7:28.941 8:1 
0.0209567629202872 1:83.1525 2:86.0276 3:101.779 4:80.5177 5:83.1114 6:97.7086 7:45526.5 
0.01149153043644729 1:2.55309 2:2.58959 3:2.70878 4:9.05621 5:9.0667 6:10.3135 7:10.4947 8:1 
0.00431196470635147 1:1.73129 2:1.77505 3:1.84635 4:14.0126 5:14.0908 6:15.4012 7:15.0217 8:1 
0.00609452454352004 1:0.0456011 2:0.0483725 3:0.0243578 4:13.929 5:14.0053 6:15.3281 7:14.7817 8:1 
0.00500928600734124 1:1.23471 2:1.28524 3:1.28522 4:14.993 5:15.1175 6:16.6601 7:8.38275 8:1 
0.0009430153749648009 1:0.0533772 2:0.0628161 3:0.0747452 4:9.80936 5:9.87197 6:11.0322 7:9.2679 
0.0007639187673540437 1:1.10377 2:1.11407 3:1.10019 4:16.0224 5:16.1739 6:17.7869 7:13.3911 
0.003859168329342479 1:0.101566 2:0.0818629 3:0.0558605 4:9.59541 5:9.64932 6:10.8692 7:8.9895 
0.003600976103436009 1:1.70346 2:1.75668 3:1.80404 4:15.3517 5:15.4289 6:16.9655 7:15.1415 
0.02096674864930881 1:89.7342 2:92.8362 3:107.805 4:124.375 5:128.63 6:149.206 7:41653.8 
0.02080551993319785 1:31.2805 2:32.3607 3:37.3203 4:68.7975 5:71.1758 6:83.0073 7:12589.9 
0.02102675822399919 1:55.3452 2:57.3586 3:67.1743 4:99.8158 5:103.257 6:119.925 7:15265.3 
0.02104574510015478 1:9.82865 2:10.0783 3:11.5506 4:6.99198 5:7.17631 6:7.99671 7:388.807 
0.02105080621263394 1:38.3556 2:39.7177 3:45.461 4:25.4234 5:26.1517 6:30.0719 7:11437.7 
0.01089539365863706 1:1.76271 2:1.80598 3:1.83421 4:16.1192 5:16.2523 6:17.9064 7:17.422 8:1 
0.01412932307624922 1:2.36172 2:2.42091 3:2.45605 4:16.9045 5:17.055 6:18.7882 7:10.4244 8:1 
0.001767070649452424 1:2.14878 2:2.20228 3:2.27195 4:15.8954 5:16.009 6:17.6894 7:10.5365 8:1 
0.01226763166212302 1:1.97786 2:2.04774 3:2.04487 4:12.476 5:12.5857 6:13.8971 7:22.0094 8:1 
0.008275940552967043 1:2.53005 2:2.59428 3:2.61289 4:18.9098 5:19.062 6:20.9285 7:17.8782 8:1 
0.004361399441353405 1:0.0456705 2:0.0791354 3:0.185806 4:20.443 5:20.62 6:22.3701 7:14.429 8:1 
0.004090513143944046 1:0.158681 2:0.169866 3:0.184031 4:10.0058 5:10.1497 6:11.3002 7:0.991544 8:1 
0.0008603198658351796 1:1.32994 2:1.37872 3:1.4847 4:20.1679 5:20.3224 6:22.0669 7:21.9814 8:1 
1 1:0.0094397 2:0.00933445 3:0.00975446 4:0.045209 5:0.0453517 6:0.0512513 7:0.0349599 8:1 
0.001435899388047237 1:1.57049 2:1.61216 3:1.62733 4:17.8624 5:18.005 6:19.7583 7:16.2924 8:1 
0.008774767160548334 1:2.49986 2:2.52891 3:2.3947 4:19.8422 5:19.9886 6:21.7876 7:26.8102 8:1 
0.005972734789123713 1:0.0779028 2:0.0477057 3:0.11993 4:18.404 5:18.5162 6:20.245 7:12.4626 8:1 
1 1:8.51812e-12 2:8.78058e-12 3:1.04795e-11 4:4.25906e-12 5:4.39029e-12 6:5.23977e-12 7:8.0033e-21 8:1 
0.004668072555218333 1:2.06363 2:2.10744 3:2.17427 4:19.2115 5:19.3286 6:21.1957 7:15.4905 8:1 
0.00876118195675385 1:0.374409 2:0.385411 3:0.398262 4:20.7934 5:20.982 6:23.0911 7:49.7569 8:1 
1 1:8.14422e-22 2:8.39639e-22 3:1.02486e-21 4:4.07292e-22 5:4.19902e-22 6:5.12533e-22 7:5.46471e-42 8:1 
1 1:8.9748e-17 2:9.12588e-17 3:9.65841e-17 4:4.48746e-17 5:4.563e-17 6:4.82927e-17 7:6.45441e-32 8:1 
0.003598489252253784 1:0.0710611 2:0.0626583 3:0.0412562 4:11.1101 5:11.3724 6:12.7483 7:11.4368 8:1 
0.005373737872760862 1:0.890516 2:0.905368 3:0.928426 4:16.0277 5:16.1652 6:17.9798 7:114.7 8:1 
0.00555046599367176 1:1.54632 2:1.582 3:1.68899 4:3.6414 5:3.7173 6:4.05785 7:12.3022 8:1 
0.001673409513519355 1:1.0582 2:1.0819 3:1.039 4:19.646 5:19.8112 6:21.7916 7:9.94218 8:1 
0.01045107616713558 1:0.252883 2:0.248644 3:0.305638 4:20.4052 5:20.5917 6:22.4933 7:34.4305 8:1 
0.02317749045023826 1:0.473799 2:0.480243 3:0.565973 4:1.20326 5:1.21113 6:1.50052 7:27.9764 8:1 
0.001759058132361768 1:0.476099 2:0.490986 3:0.735127 4:20.1509 5:20.3497 6:22.2923 7:22.7633 8:1 
0.006292738975232449 1:1.71706 2:1.75271 3:1.86068 4:19.0528 5:19.2404 6:21.0426 7:24.0914 8:1 
0.007093467644085305 1:0.835687 2:0.844892 3:0.853965 4:17.8523 5:18.0218 6:19.6662 7:35.8607 8:1 
0.006376296163984551 1:0.811504 2:0.837838 3:0.896477 4:18.7741 5:18.87 6:20.8858 7:29.4852 8:1 
0.0109680200545815 1:2.05725 2:2.11999 3:2.07944 4:15.9571 5:16.0938 6:17.647 7:38.816 8:1 
0.001305371269325284 1:1.09306 2:1.13604 3:1.31373 4:12.2467 5:12.5267 6:14.0529 7:15.1428 8:1 
0.007712295531716706 1:0.578728 2:0.592956 3:0.366085 4:12.9817 5:13.0627 6:14.3965 7:34.725 8:1 
0.01736833832205426 1:4.1324 2:4.24604 3:4.45258 4:20.1161 5:20.2795 6:22.2814 7:24.0254 8:1 
0.006073049895322535 1:0.335456 2:0.332731 3:0.30986 4:8.58662 5:8.77146 6:9.84576 7:11.4289 8:1 
0.002131550792183136 1:0.210365 2:0.224082 3:0.203495 4:19.1568 5:19.364 6:21.5962 7:7.94105 8:1 
0.002243193428761225 1:0.0197978 2:0.0298681 3:0.066988 4:19.5082 5:19.6475 6:21.663 7:14.8953 8:1 
0.0005699902387150124 1:0.230718 2:0.238992 3:0.298232 4:20.6512 5:20.8057 6:22.9491 7:17.329 8:1 
0.007596443047239782 1:0.0367194 2:0.036887 3:0.00575376 4:7.48532 5:7.61129 6:8.61269 7:16.5768 8:1 
0.01011180738792433 1:0.810346 2:0.828183 3:0.911207 4:10.0718 5:10.1713 6:11.5058 7:24.7225 8:1 
0.009928240739015215 1:0.486842 2:0.501233 3:0.510223 4:20.7438 5:20.9028 6:23.2235 7:20.2216 8:1 
0.01251362814630863 1:2.19907 2:2.21655 3:2.35749 4:20.7398 5:20.9054 6:23.1913 7:12.3514 8:1 
0.0116588916151133 1:1.77202 2:1.80655 3:2.21803 4:15.5943 5:15.8311 6:17.5041 7:26.0603 8:1 
0.003655862951893796 1:0.258407 2:0.231148 3:0.152719 4:22.3651 5:22.5201 6:24.7958 7:17.6308 8:1 
0.006657818999685408 1:0.102654 2:0.0906649 3:0.11799 4:14.2528 5:14.5766 6:16.2725 7:10.8045 8:1 
0.004756271256905571 1:0.123669 2:0.125253 3:0.176602 4:4.42525 5:4.44387 6:5.19228 7:5.08917 8:1 
0.006067611461744169 1:0.00667143 2:0.0409293 3:0.0269933 4:15.6122 5:15.9752 6:17.7859 7:7.74564 8:1 
0.01043516339547407 1:0.39846 2:0.399698 3:0.389316 4:9.72443 5:9.85169 6:11.3261 7:35.6561 8:1 
0.00217543649350598 1:0.33623 2:0.34781 3:0.38935 4:16.6398 5:17.0391 6:18.9023 7:11.1772 8:1 
0.00388516903065877 1:1.5629 2:1.58922 3:1.45772 4:14.8597 5:15.0917 6:16.6981 7:19.7293 8:1 
0.001396768322977943 1:0.219177 2:0.200451 3:0.298619 4:19.0478 5:19.2887 6:21.5317 7:19.5255 8:1 
0.004032804719886465 1:0.171558 2:0.184968 3:0.230207 4:16.0941 5:16.4755 6:18.3085 7:9.60637 8:1 
0.003822367523517339 1:0.699217 2:0.723403 3:0.903694 4:9.89295 5:10.0312 6:11.5312 7:22.5728 8:1 
0.01332535574038096 1:1.96344 2:2.0184 3:2.10258 4:17.3227 5:17.6015 6:19.4249 7:21.176 8:1 
0.009194738800065988 1:0.147338 2:0.140081 3:0.0638227 4:19.6067 5:19.8788 6:22.0447 7:11.2121 8:1 
0.00813515925074914 1:1.32094 2:1.34407 3:1.47781 4:10.2948 5:10.4568 6:11.9531 7:20.9353 8:1 
0.01344587625698551 1:1.50068 2:1.55224 3:1.91761 4:19.2225 5:19.5425 6:21.5661 7:38.4516 8:1 
0.01295410371393057 1:2.89191 2:2.9388 3:3.2001 4:20.0066 5:20.3187 6:22.3871 7:19.222 8:1 
0.007398222003226436 1:0.0875416 2:0.0584912 3:0.0199218 4:21.5369 5:21.6921 6:24.1285 7:34.4454 8:1 
0.001608984158464002 1:1.90059 2:1.96269 3:2.16474 4:23.5281 5:23.7627 6:26.3635 7:35.5437 8:1 
0.0009582916850648769 1:1.52856 2:1.5441 3:1.63595 4:9.09386 5:9.25263 6:10.5537 7:12.5395 8:1 
0.005550754050155182 1:0.292787 2:0.298252 3:0.405913 4:20.7148 5:21.0283 6:23.2397 7:25.2536 8:1 
0.001764937561031578 1:2.57391 2:2.58819 3:2.61515 4:20.4832 5:20.7175 6:23.0445 7:24.021 8:1 
0.006534854308238504 1:0.133556 2:0.146547 3:0.178741 4:15.8871 5:16.1389 6:18.076 7:13.1156 8:1 
0.002467467734363306 1:1.98224 2:2.02324 3:2.16213 4:22.6687 5:22.8724 6:25.6168 7:26.3489 8:1 
0.002327034687629466 1:2.77002 2:2.88553 3:3.08956 4:21.7745 5:21.9477 6:24.5601 7:23.5966 8:1 
0.006908281180747995 1:2.49853 2:2.53775 3:2.74753 4:21.8149 5:22.1404 6:24.6065 7:27.133 8:1 
0.003539005277154025 1:2.53925 2:2.63616 3:2.88579 4:23.0056 5:23.2203 6:25.9587 7:28.2799 8:1 
0.001062502777044525 1:2.483 2:2.52527 3:2.63526 4:21.9932 5:22.3127 6:24.855 7:31.411 8:1 
0.01467235090172081 1:3.61266 2:3.73897 3:3.92586 4:23.4267 5:23.7893 6:26.3657 7:21.7465 8:1 
0.003108287338662883 1:0.155885 2:0.156672 3:0.0816097 4:24.0599 5:24.4459 6:27.1313 7:24.0236 8:1 
0.006764127410707643 1:2.87442 2:3.03088 3:3.3584 4:22.0065 5:22.2027 6:25.0746 7:21.7795 8:1 
0.008873112533626271 1:1.89641 2:1.97088 3:2.19747 4:23.4181 5:23.7741 6:26.365 7:39.339 8:1 
0.007452008756626816 1:1.0993 2:1.14752 3:1.33918 4:22.1951 5:22.3962 6:25.3011 7:35.7405 8:1 
0.01081220638198775 1:2.11053 2:2.18329 3:2.42935 4:24.2422 5:24.618 6:27.4303 7:36.2053 8:1 
0.006785598060172093 1:1.64722 2:1.68177 3:1.66677 4:9.38876 5:9.47934 6:10.8645 7:5.85991 8:1 
0.002391742412261368 1:0.934765 2:0.936849 3:0.913261 4:17.0158 5:17.4165 6:19.2685 7:6.78894 8:1 
0.005547197535096748 1:1.29171 2:1.31027 3:1.24771 4:17.9783 5:18.4033 6:20.2458 7:6.77981 8:1 
0.001997837191747931 1:0.520023 2:0.5389 3:0.570052 4:17.1067 5:17.502 6:19.3276 7:7.72511 8:1 
0.008011398344007381 1:1.90712 2:1.94123 3:2.11919 4:10.4875 5:10.7071 6:12.1565 7:12.4566 8:1 
0.004328529537372584 1:1.37964 2:1.40098 3:1.39683 4:18.6058 5:19.0216 6:20.8425 7:7.00356 8:1 
0.001453878883829043 1:0.260679 2:0.284213 3:0.227408 4:18.0232 5:18.4453 6:20.2297 7:7.1526 8:1 
0.01561256491417451 1:2.56352 2:2.61337 3:2.65227 4:10.6358 5:10.7485 6:12.1681 7:16.1456 8:1 
0.007891045211135227 1:0.0128874 2:0.00948966 3:0.0810242 4:9.14387 5:9.29363 6:10.7447 7:17.8672 8:1 
0.0006414172644208516 1:0.137995 2:0.110408 3:0.076216 4:14.0162 5:14.34 6:16.0811 7:10.8595 8:1 
0.001577390684789126 1:1.8363 2:1.91 3:1.93292 4:21.1742 5:21.6729 6:24.001 7:14.1887 8:1 
0.003115055060936222 1:1.21888 2:1.26333 3:1.39611 4:24.4607 5:24.8618 6:27.6705 7:29.705 8:1 
0.006836011022514212 1:0.647586 2:0.677731 3:0.73257 4:17.8235 5:18.2291 6:20.2725 7:22.9453 8:1 
0.004944729241824933 1:0.436961 2:0.483797 3:0.542756 4:24.454 5:24.828 6:27.5919 7:27.2528 8:1 
0.003404859513714948 1:1.26107 2:1.32047 3:1.36673 4:23.8365 5:24.2312 6:27.1089 7:18.2054 8:1 
0.01140934210899066 1:2.02088 2:2.04862 3:2.09188 4:24.9577 5:25.3265 6:28.2022 7:33.2651 8:1 
0.002406135020604394 1:1.06369 2:1.06874 3:1.25903 4:7.97193 5:8.10279 6:9.49556 7:14.9361 8:1 
0.003228456124696182 1:0.154099 2:0.182525 3:0.248587 4:21.9832 5:22.1828 6:25.2149 7:29.8663 8:1 
0.005547083910701578 1:0.522689 2:0.563682 3:0.588581 4:27.4312 5:27.8671 6:30.9597 7:54.2228 8:1 
0.004959995541727109 1:0.319728 2:0.312955 3:0.262691 4:23.6108 5:23.9852 6:26.9363 7:16.1756 8:1 
0.008238857341164862 1:1.34649 2:1.3535 3:1.43092 4:26.809 5:27.2566 6:30.3298 7:42.6943 8:1 
0.002626900624260479 1:1.10521 2:1.14508 3:1.4495 4:7.78395 5:7.91571 6:9.23329 7:18.8638 8:1 
0.002242114754817892 1:1.66765 2:1.6828 3:1.71763 4:22.2039 5:22.4047 6:25.4231 7:30.0671 8:1 
0.007361242498119692 1:1.98702 2:2.03942 3:2.11766 4:24.6539 5:25.0966 6:28.2568 7:20.6471 8:1 
0.000990763827392771 1:0.150939 2:0.112044 3:0.0690808 4:27.1076 5:27.5546 6:30.6867 7:47.7971 8:1 
0.003391179711972003 1:0.603658 2:0.627798 3:0.722956 4:24.3226 5:24.6335 6:27.9818 7:29.0056 8:1 
0.01241685980031693 1:0.122074 2:0.104138 3:0.126061 4:27.3183 5:27.7723 6:30.8924 7:48.3124 8:1 
0.004243708594154937 1:0.464833 2:0.45965 3:0.443865 4:22.6543 5:23.0315 6:26.1233 7:19.0009 8:1 
0.006688358620871319 1:2.09352 2:2.11757 3:2.12723 4:28.1697 5:28.6624 6:31.876 7:32.1126 8:1 
0.001095842837370742 1:0.928484 2:0.96369 3:1.0468 4:28.4237 5:28.7493 6:32.1339 7:36.6039 8:1 
0.01766039205824266 1:3.30319 2:3.43545 3:3.95977 4:24.7309 5:25.0799 6:28.6071 7:47.1139 8:1 
0.01258330616942373 1:0.517508 2:0.502881 3:0.492804 4:27.3906 5:27.9111 6:31.2659 7:29.5156 8:1 
0.005188988373425574 1:0.178015 2:0.190946 3:0.264133 4:23.6917 5:24.111 6:27.1862 7:21.3413 8:1 
0.01187991987565218 1:0.90515 2:0.928504 3:1.11049 4:27.654 5:27.9729 6:31.5335 7:46.9757 8:1 
0.009590582502569021 1:1.67155 2:1.67558 3:1.75041 4:23.4999 5:23.8984 6:27.0578 7:12.6575 8:1 
0.01195603658761712 1:0.285621 2:0.254807 3:0.0431862 4:29.1265 5:29.5653 6:33.4402 7:37.616 8:1 
0.01265010532035987 1:2.26894 2:2.33915 3:2.55595 4:24.3042 5:24.7558 6:27.9065 7:27.5543 8:1 
0.02109184683761944 1:4.21357 2:4.37833 3:5.02742 4:28.2375 5:28.6027 6:32.4121 7:51.4082 8:1 
0.007582208097851539 1:1.59056 2:1.60996 3:1.65705 4:12.5084 5:12.7857 6:14.579 7:17.993 8:1 
0.001969070098681446 1:1.8689 2:1.87441 3:1.65237 4:28.5375 5:29.0929 6:32.5591 7:29.5883 8:1 
0.01476228926147063 1:2.08654 2:2.23586 3:2.80651 4:25.3737 5:25.7773 6:29.3776 7:40.4665 8:1 
0.0005252307534781009 1:0.0484767 2:0.0504584 3:0.0603724 4:27.24 5:27.6875 6:31.344 7:31.9164 8:1 
0.01803154888006565 1:2.61469 2:2.65762 3:2.9302 4:11.4174 5:11.6791 6:13.2819 7:27.4103 8:1 
0.02037915937588891 1:2.12251 2:2.23828 3:2.52536 4:29.2476 5:29.6619 6:33.4231 7:56.5428 8:1 
0.004211887372282993 1:0.142851 2:0.153749 3:0.147555 4:10.3168 5:10.4681 6:12.2937 7:8.88197 8:1 
0.01501629461129494 1:2.57308 2:2.61829 3:2.55483 4:23.7685 5:24.313 6:26.684 7:8.57034 8:1 
0.001339579518584322 1:1.08064 2:1.11621 3:1.12554 4:25.3881 5:25.968 6:28.3759 7:7.55474 8:1 
0.006922774291109601 1:0.00831604 2:0.00294447 3:0.0253444 4:24.496 5:25.063 6:27.4682 7:13.274 8:1 
0.003106994346396208 1:0.135416 2:0.15002 3:0.12453 4:11.7606 5:11.9188 6:13.6629 7:12.8471 8:1 
0.00467273418153666 1:0.0411873 2:0.035255 3:0.0288291 4:25.5875 5:26.1717 6:28.4788 7:14.5597 8:1 
0.002744041109172296 1:0.958598 2:0.990601 3:1.06223 4:18.1372 5:18.4722 6:20.0607 7:9.7002 8:1 
0.01317933498366856 1:2.06669 2:2.11831 3:2.15475 4:12.8571 5:13.0444 6:14.8696 7:10.2347 8:1 
0.006182083097000786 1:1.67082 2:1.72169 3:1.73074 4:25.226 5:25.8016 6:28.1016 7:18.8082 8:1 
0.004731813934061711 1:0.232816 2:0.22797 3:0.219144 4:12.7625 5:12.9476 6:14.7994 7:10.9452 8:1 
0.01491047853427781 1:2.17742 2:2.22804 3:2.45067 4:12.0304 5:12.2888 6:14.021 7:36.1975 8:1 
0.01006384738318148 1:0.0837421 2:0.0905185 3:0.0929675 4:18.8675 5:19.2118 6:20.8128 7:21.1496 8:1 
0.005483713829578629 1:0.0277615 2:0.0532835 3:6.24657e-05 4:14.4018 5:14.7221 6:16.5937 7:15.1652 8:1 
0.009023362791696871 1:0.30187 2:0.28886 3:0.249767 4:25.2491 5:25.8248 6:28.031 7:9.60403 8:1 
0.007108282407969699 1:1.57359 2:1.6064 3:1.59074 4:18.5621 5:18.8906 6:20.4952 7:13.6387 8:1 
0.001615481723611312 1:0.10176 2:0.0905871 3:0.0804095 4:17.7089 5:18.0083 6:19.6175 7:13.1124 8:1 
0.01399082710142435 1:1.50046 2:1.57408 3:1.78501 4:16.9864 5:17.3943 6:19.4021 7:48.211 8:1 
0.0149828691370531 1:3.83724 2:3.96786 3:4.24412 4:27.5284 5:28.0441 6:31.4396 7:34.4331 8:1 
0.004119779313748617 1:2.75317 2:2.83766 3:2.79076 4:21.5098 5:21.8911 6:24.9783 7:28.8065 8:1 
0.01037936688234263 1:0.136055 2:0.0743837 3:0.0739107 4:26.5709 5:27.0119 6:30.8822 7:33.8214 8:1 
0.01520502537101237 1:0.0259361 2:0.0501657 3:0.232286 4:29.4498 5:30.0564 6:33.6851 7:42.7397 8:1 
0.00399757099533411 1:0.851824 2:0.868114 3:0.734074 4:19.4462 5:19.8716 6:22.1588 7:27.4184 8:1 
0.01431824243268121 1:3.31741 2:3.49231 3:4.06837 4:27.2741 5:27.719 6:31.5353 7:43.8625 8:1 
0.0002567330317272318 1:1.84179 2:1.89032 3:1.84916 4:21.2637 5:21.6625 6:24.6762 7:24.3759 8:1 
0.01045010405982313 1:2.53334 2:2.68739 3:2.89387 4:28.8409 5:29.3869 6:33.2488 7:42.3704 8:1 
0.006689310349966185 1:0.0686283 2:0.0470819 3:0.101805 4:28.3451 5:28.7317 6:32.5526 7:31.653 8:1 
0.001493362497837714 1:0.760459 2:0.765945 3:0.636677 4:28.5538 5:29.1362 6:32.8136 7:40.1918 8:1 
0.009158590412671308 1:2.09035 2:2.13232 3:2.246 4:21.961 5:22.3754 6:25.3271 7:33.6831 8:1 
0.003315730706738193 1:0.327332 2:0.335106 3:0.389652 4:24.0265 5:24.5614 6:27.0449 7:28.242 8:1 
0.005131854710835354 1:2.05453 2:2.09924 3:2.18261 4:29.1926 5:29.7669 6:33.3946 7:39.4709 8:1 
0.01485895607757193 1:0.0213766 2:0.00202942 3:0.143636 4:26.8921 5:27.3433 6:31.1891 7:41.1152 8:1 
0.01396175915766993 1:3.75725 2:3.83663 3:3.83453 4:27.7076 5:28.0466 6:31.8248 7:40.2461 8:1 
0.01391290925143723 1:3.85478 2:4.05524 3:4.12384 4:28.4314 5:28.9272 6:32.8347 7:31.5052 8:1 
0.01689215642891123 1:3.91777 2:4.06421 3:4.24054 4:22.0653 5:22.5325 6:25.5571 7:31.0719 8:1 
0.01374640419766769 1:2.88617 2:2.93973 3:2.95751 4:28.4526 5:28.8464 6:32.7968 7:26.5693 8:1 
0.01517142630231122 1:0.132116 2:0.13465 3:0.139212 4:27.3308 5:27.8639 6:31.5057 7:54.4226 8:1 
0.01147324591858084 1:1.82901 2:1.88675 3:2.12997 4:27.0221 5:27.5633 6:31.3006 7:24.7638 8:1 
0.01888200616590774 1:2.54358 2:2.66657 3:3.17289 4:28.2886 5:28.707 6:32.858 7:68.1274 8:1 
0.01363578165123087 1:2.40781 2:2.47458 3:2.49838 4:19.2933 5:19.6652 6:22.5771 7:30.8316 8:1 
0.0148397955642785 1:0.0499973 2:0.0466056 3:0.00192738 4:31.2803 5:31.8541 6:35.9645 7:37.2312 8:1 
0.01202704342354992 1:2.01969 2:2.16403 3:2.69261 4:29.706 5:30.1672 6:34.2737 7:36.9456 8:1 
0.01858084995652259 1:3.59521 2:3.73846 3:4.06688 4:30.9507 5:31.517 6:35.5251 7:26.9663 8:1 
0.006909822551220246 1:2.64122 2:2.74472 3:2.8923 4:28.6874 5:29.1332 6:33.4328 7:34.9135 8:1 
0.001492411849787545 1:1.03466 2:1.07502 3:1.14629 4:27.2137 5:27.8429 6:30.6617 7:16.0214 8:1 
0.01222724293884257 1:1.39557 2:1.46033 3:1.5942 4:26.7212 5:27.2536 6:30.9232 7:37.143 8:1 
0.01418543627801022 1:3.45075 2:3.57506 3:3.9477 4:33.1153 5:33.7732 6:38.141 7:62.0387 8:1 
0.008727141189332752 1:1.21739 2:1.34575 3:1.69464 4:29.7217 5:30.1796 6:34.3676 7:29.697 8:1 
0.001912706123647647 1:0.429847 2:0.449472 3:0.269058 4:21.7608 5:22.2229 6:25.2652 7:32.7033 8:1 
0.01393380953446471 1:0.0888968 2:0.118917 3:0.251223 4:32.9341 5:33.5229 6:38.2092 7:69.3878 8:1 
0.01125283046175964 1:0.0439987 2:0.0596695 3:0.153209 4:28.1885 5:28.7862 6:32.6928 7:25.5479 8:1 
0.004776629924880964 1:0.350216 2:0.371099 3:0.326248 4:27.6718 5:28.3035 6:31.1628 7:19.6189 8:1 
0.008905783520604187 1:0.0775175 2:0.0850472 3:0.258156 4:21.1411 5:21.6085 6:24.597 7:23.9439 8:1 
0.01090802596498368 1:0.746576 2:0.767004 3:1.07926 4:31.9554 5:32.5054 6:36.964 7:70.6307 8:1 
0.0163430082365773 1:0.713815 2:0.742292 3:0.969019 4:32.8991 5:33.544 6:37.7759 7:57.8984 8:1 
0.00595521858973824 1:0.639292 2:0.650513 3:0.695343 4:19.8557 5:20.2754 6:23.3476 7:30.2685 8:1 
0.008115607187479945 1:2.86302 2:3.02461 3:4.12413 4:33.612 5:34.2646 6:39.258 7:63.1707 8:1 
0.02097399637004133 1:4.50547 2:4.71343 3:5.37919 4:33.6658 5:34.3397 6:38.6444 7:36.3528 8:1 
0.007676652070247088 1:1.53663 2:1.52532 3:1.57639 4:20.5421 5:20.9908 6:24.1454 7:16.2737 8:1 
0.01613358847956764 1:1.89592 2:2.03565 3:2.44966 4:31.2028 5:31.7283 6:36.1788 7:47.5662 8:1 
0.01909981444830333 1:0.912634 2:0.989777 3:1.07427 4:32.3819 5:33.0303 6:37.2796 7:33.3482 8:1 
0.01772321464460953 1:2.02199 2:2.06402 3:1.77183 4:34.8236 5:35.4578 6:40.2423 7:62.7377 8:1 
0.02111490027320045 1:1.11032 2:1.1359 3:1.35831 4:36.0878 5:36.6769 6:41.3395 7:127.791 8:1 
0.02068547913243751 1:0.0176619 2:0.0179884 3:0.00691879 4:8.59834 5:8.73152 6:2.78361 7:55.3836 
0.02102787110458681 1:47.5228 2:50 3:54.4377 4:498.989 5:525 6:571.596 7:154375 8:1 
0.01490064447112304 1:0.809695 2:0.822293 3:0.263394 4:6.70969 5:6.81373 6:2.17479 7:5.74391 
0.02098847581643909 4:95.0456 5:100 6:108.875 7:70000 8:1 
0.02107359330431846 1:1.63725 2:1.66758 3:0.641597 4:7.42893 5:7.58964 6:3.42886 7:221.016 
0.0134438672187801 1:0.403942 2:0.416825 3:0.27941 4:14.9665 5:15.2472 6:5.94129 7:17.8314 
0.004696418857333233 1:0.0279405 2:0.028371 3:0.00896925 4:5.80145 5:5.89111 6:1.87383 7:4.81404 
1 1:0.133044 2:0.1351 3:0.042956 4:0.119446 5:0.121292 6:0.0385657 7:0.148878 
0.02117302791481179 1:3.05176e-05 3:3.05176e-05 4:617.796 5:650 6:707.69 7:120000 8:1 
0.01044446880162152 1:0.293434 2:0.297566 3:0.0857357 4:11.0251 5:11.1984 6:3.62631 7:6.04905 
0.02106578109404394 1:4.16829 2:4.24205 3:1.55578 4:15.9071 5:16.1992 6:6.17403 7:767.019 
0.0211186897124136 1:0.469059 2:0.482684 3:0.294571 4:16.3224 5:16.6674 6:7.35216 7:125.501 
0.005571091609645631 1:0.237222 2:0.240881 3:0.0764549 4:15.1408 5:15.3751 6:4.89639 7:0.886029 
0.03394433545092918 1:3.46128 2:3.52316 3:1.306 4:1.73064 5:1.76158 6:0.653002 7:56.4509 
0.008347432921013396 1:0.389721 2:0.395751 3:0.126003 4:13.6664 5:13.8779 6:4.42202 7:3.7507 
0.02074515445591105 1:1.21216 2:1.23515 3:0.486982 4:9.77012 5:9.9306 6:3.36826 7:13.213 
0.0209546144181334 1:0.353319 2:0.368696 3:0.336471 4:19.4183 5:19.8709 6:9.69246 7:29.2498 
0.02148574202845199 1:1.65562 2:1.68195 3:0.551372 4:12.0265 5:12.2151 6:3.94527 7:174.301 
0.01805077953641288 1:0.932798 2:0.960473 3:0.598632 4:15.1964 5:15.5062 6:6.59022 7:13.3865 
0.02109715376891963 1:1.92869 2:1.95846 3:0.622278 4:34.6691 5:35.2302 6:11.764 7:70.7077 
0.02097461882157209 1:0.217017 2:0.222858 3:0.125851 4:13.5194 5:13.7627 6:5.13708 7:210.632 
0.00386165270459835 1:0.638438 2:0.65391 3:0.331974 4:12.5188 5:12.7339 6:4.52897 7:2.91654 
0.02100795047531451 1:0.382697 2:0.38508 3:0.0446553 4:37.9501 5:38.7885 6:17.9054 7:226.427 
0.02105651876941123 1:0.0496688 2:0.0511246 3:0.0315666 4:25.3341 5:25.954 6:13.3065 7:90.4339 
0.02101073631962677 1:0.138695 2:0.159449 3:0.462167 4:70.0161 5:71.6327 6:34.603 7:26.0909 
0.02095978273026894 1:0.0962435 2:0.103654 3:0.163928 4:12.851 5:13.0837 6:4.91546 7:253.635 
0.02066387242743409 1:0.0243263 2:0.0233612 3:0.0222092 4:65.4548 5:67.0782 6:34.8643 7:17.3411 
0.02096228930888205 1:2.45691 2:2.59195 3:2.97071 4:34.9056 5:35.9635 6:22.9027 7:2724.53 
0.02109940865407939 1:0.0467348 2:0.051774 3:0.111975 4:33.8879 5:34.6901 6:17.1902 7:116.61 
0.01949262575568689 1:0.410365 2:0.420174 3:0.210441 4:63.0038 5:64.6451 6:35.3217 7:13.6404 
0.01877596274590354 1:0.259514 2:0.271761 3:0.268434 4:60.6453 5:62.2911 6:35.4789 7:9.2448 8:1 
0.02016302825085314 1:0.296335 2:0.308656 3:0.269311 4:57.2308 5:58.8157 6:34.1943 7:9.67345 
0.01678052542244246 1:0.0486088 2:0.0529251 3:0.0957899 4:53.1114 5:54.5949 6:32.0172 7:9.79468 
0.02096956371309322 1:1.69351 2:1.76843 3:1.64036 4:26.9663 5:27.6938 6:15.6806 7:803.056 
0.02138817330646442 1:0.424385 2:0.44038 3:0.348782 4:48.6802 5:50.0319 6:29.1658 7:5.86322 
0.01071265868321786 1:0.10864 2:0.110174 3:0.0317645 4:29.6232 5:30.3364 6:15.2945 7:4.58251 
0.01850572687387688 1:0.00864887 2:0.0135708 3:0.1103 4:44.7086 5:45.943 6:26.631 7:4.39013 
0.01977697028403049 1:0.241165 2:0.2487 3:0.163349 4:23.0684 5:23.5783 6:10.8924 7:6.69105 
0.02099261743495223 1:0.00192142 2:0.00195056 3:0.00062041 4:3.0701 5:3.11754 6:0.991251 7:508.643 
0.02088294271748209 1:0.159389 2:0.165823 3:0.140599 4:40.611 5:41.7102 6:23.6938 7:3.51817 8:1 
0.01184482783677476 1:0.127314 2:0.127943 3:0.0110765 4:15.882 5:16.1757 6:6.2132 7:8.16616 
0.02099463680896907 1:5.1901 2:5.39592 3:4.49378 4:54.5019 5:55.9683 6:31.6006 7:1245.95 
0.009030027368399586 1:0.072196 2:0.0761166 3:0.0862169 4:34.246 5:35.1327 6:19.0779 7:2.26191 
0.02105076782912535 1:0.272377 2:0.280326 3:0.171928 4:37.0619 5:38.0437 6:21.1458 7:101.419 
0.0207733076176066 1:4.41483 2:4.57421 3:3.47011 4:115.939 5:120.253 6:94.0309 7:172.346 
0.006996576048602932 1:0.082303 2:0.0828247 3:0.00967979 4:32.1274 5:32.9513 6:17.7196 7:2.75589 
0.02107158970004053 1:0.300224 2:0.32732 3:0.600597 4:111.022 5:115.212 6:91.3674 7:58.9229 
0.01270879766117072 1:0.159204 2:0.162347 3:0.0667101 4:11.9741 5:12.1698 6:4.10462 7:8.01062 8:1 
0.02139512925404302 1:0.382439 2:0.411861 3:0.651024 4:102.469 5:106.338 6:84.374 7:63.914 
0.005501368294272224 1:0.233771 2:0.240083 3:0.135947 4:28.2905 5:28.9951 6:15.1339 7:1.86511 
0.007157649288411505 1:0.0173085 2:0.0175786 3:0.00560141 4:6.27058 5:6.36748 6:2.02504 7:0.0430405 8:1 
0.005490945318235332 1:0.00941789 2:0.0095638 3:0.00304505 4:5.90817 5:5.99946 6:1.90784 7:2.37891 
0.0207733563625298 1:0.232798 2:0.239851 3:0.152407 4:93.3897 5:96.9039 6:76.6123 7:35.7811 
0.02081509696037304 1:0.365698 2:0.379604 3:0.303045 4:78.9488 5:81.8731 6:63.7229 7:46.8632 
0.006976340499563331 1:0.248768 2:0.2559 3:0.154175 4:25.0695 5:25.6759 6:13.0083 7:1.27026 
0.02088180462834205 1:1.42233 2:1.48188 3:1.30183 4:63.7072 5:65.9944 6:49.7921 7:112.791 8:1 
0.003905861753887632 1:0.0862293 2:0.0883489 3:0.0455093 4:22.6685 5:23.2033 6:11.4586 7:1.17734 
0.02126866664157329 1:1.99461 2:2.09447 3:2.1928 4:43.1853 5:44.5767 6:30.186 7:131.838 
0.02103449503811122 1:0.398737 2:0.403108 3:0.0885706 4:44.2358 5:45.6782 6:31.3051 7:76.3447 
0.02088436212047462 1:6.00568 2:6.18692 3:3.92301 4:44.5149 5:45.6356 6:24.083 7:1868.31 
0.0135431250882414 1:0.282551 2:0.29382 3:0.246039 4:16.8827 5:17.2349 6:7.49943 7:6.63295 
0.02090105977288426 1:5.987 2:6.24753 3:5.70189 4:15.4602 5:16.0241 6:12.2831 7:900.302 
0.02092507334491839 1:0.352972 2:0.384933 3:0.708486 4:80.4481 5:82.8265 6:51.4413 7:14.0257 
0.02129863981804397 1:1.23949 2:1.28997 3:1.10271 4:38.1051 5:39.3478 6:26.9711 7:73.2029 
0.008037856956183476 1:0.0101328 2:0.0128443 3:0.0605365 4:15.6472 5:15.9508 6:6.4407 7:16.4044 
0.0215817321446356 1:0.341814 2:0.357252 3:0.338181 4:68.5658 5:70.6772 6:45.7356 7:12.3852 
0.02160305062356876 1:0.276074 2:0.288491 3:0.271912 4:27.7282 5:28.5346 6:17.4306 7:14.8214 
0.01961449330295206 1:0.022891 2:0.0227261 3:0.00401497 4:59.7226 5:61.5603 6:39.8066 7:8.32083 
0.009794919706913225 1:0.597545 2:0.615849 3:0.396387 4:14.3199 5:14.5762 6:5.4107 7:6.08338 
0.01645537119476786 1:0.504088 2:0.526485 3:0.490252 4:51.3495 5:52.9104 6:33.7934 7:8.81139 
0.004984189389289535 1:0.000525951 2:0.000535727 3:0.000212669 4:14.0901 5:14.3185 6:4.79105 7:4.02285e-05 
0.01351009205500087 1:0.0767832 2:0.0798912 3:0.0678172 4:19.9528 5:20.4358 6:10.3619 7:3.87075 
0.01932657695610527 1:0.352618 2:0.36202 3:0.202581 4:43.6012 5:44.8982 6:28.0603 7:7.96433 
0.000880687171925946 1:0.246149 2:0.254189 3:0.174465 4:16.2038 5:16.536 6:7.06607 7:0.86103 8:1 
0.0213339985630624 1:0.2169 2:0.219949 3:0.0632114 4:36.3525 5:37.4099 6:22.8571 7:179.026 
0.0007287807113944115 1:0.00737786 2:0.00611401 3:0.012948 4:10.0302 5:8.29565 6:17.6465 7:0.03666 8:1 
0.01555173319605737 1:0.0278107 2:0.0238487 3:0.0424407 4:5.80483 5:4.90845 6:9.39216 7:9.70471 
0.01307071405226301 1:0.0182238 2:0.0178061 3:0.00974512 4:32.6715 5:33.5961 6:19.9664 7:3.17004 
0.01260380687119722 1:0.0781684 2:0.0825176 3:0.0956745 4:28.9816 5:29.7734 6:17.0732 7:2.37191 8:1 
0.001569151394648171 1:0.00812602 2:0.00825524 3:0.00271618 4:9.27174 5:9.41565 6:3.00857 7:0.019195 
0.003218371779880991 1:0.0185885 2:0.0188849 3:0.00618559 4:9.0248 5:9.16479 6:2.92635 7:0.0182364 8:1 
0.0109165009321868 1:0.158355 2:0.16236 3:0.0860891 4:25.7105 5:26.3854 6:14.5281 7:1.98526 8:1 
0.001270789775503507 1:0.00944543 2:0.00959516 3:0.0031299 4:8.77653 5:8.91259 6:2.84402 7:0.0138056 
0.008588048963467237 1:0.0803728 2:0.0831294 3:0.0598731 4:22.8705 5:23.4426 6:12.291 7:1.82539 8:1 
0.0204679990785944 1:2.71666 2:2.25973 3:4.74436 4:3.89751 5:3.23758 6:6.81858 7:105.057 
0.02145049807440141 1:0.4337 2:0.380778 3:1.19716 4:37.9705 5:39.2606 6:28.0381 7:1257.44 
0.006823263990977713 1:0.00442123 2:0.00404406 3:0.00853491 4:18.4913 5:18.9021 6:8.77655 7:3.09982 
0.02085995521160738 1:0.00248122 2:0.00253201 3:0.00105655 4:12.4918 5:12.6897 6:4.14145 7:58.8962 
0.004944955834217327 1:0.000174046 2:0.000177622 3:7.66516e-05 4:12.4955 5:12.6935 6:4.14554 7:0.000985763 8:1 
0.006331661163250245 1:0.00838375 2:0.0089612 3:0.012704 4:16.1967 5:16.5356 6:7.21742 7:1.37478 8:1 
0.003146876296649725 1:0.00223112 2:0.00227737 3:0.000957608 4:13.8547 5:14.0785 6:4.69084 7:0.00102848 8:1 
0.005655722405430498 1:0.0992973 2:0.102818 3:0.0766188 4:15.2561 5:15.5593 6:6.43932 7:0.845193 8:1 
0.005655762350646234 1:0.0432131 2:0.0357399 3:0.0760245 4:10.2184 5:8.45144 6:17.977 7:0.0376158 
0.02147906145255218 1:0.100501 2:0.0382462 3:0.478521 4:45.594 5:40.3173 6:61.6061 7:60.2468 
0.2508269596291897 1:0.242434 2:0.200493 3:0.426562 4:0.121217 5:0.100246 6:0.213281 7:0.31153 8:1 
0.00353306286232156 1:0.00566435 2:0.00575256 3:0.0018512 4:7.64201 5:7.76022 6:2.47061 7:1.46093 8:1 
0.0209249302873436 1:0.0199308 2:0.0214596 3:0.0341063 4:46.1647 5:47.0293 6:18.2992 7:8.47875 
0.002736513492197334 1:0.0375292 2:0.0382712 3:0.015744 4:12.8065 5:13.0193 6:4.46923 7:7.10717 8:1 
0.02113355866370181 1:0.366642 2:0.373562 3:0.146559 4:39.1048 5:39.9396 6:17.7982 7:4.32979 
0.01759940188293657 1:0.052083 2:0.057807 3:0.127229 4:35.3238 5:36.094 6:16.4392 7:1.82098 8:1 
0.002277154411764598 1:0.00475824 2:0.0048337 3:0.00154108 4:6.3762 5:6.47474 6:2.05935 7:0.0544496 
0.0140359318496272 1:0.0654149 2:0.0672836 3:0.0403793 4:31.1958 5:31.8804 6:14.6162 7:2.44816 
0.01764537959195794 1:0.0156094 2:0.0128982 3:0.0274947 4:7.63849 5:6.31859 6:13.4357 7:4.31099 8:1 
0.01288200796244959 1:0.422904 2:0.434859 3:0.258133 4:27.1443 5:27.734 6:12.5838 7:2.60128 
0.008032835931030657 1:0.20701 2:0.211415 3:0.09391 4:23.5139 5:24.0165 6:10.7174 7:2.40607 
0.01263742791338168 1:0.0353441 2:0.0337348 3:0.0369091 4:20.9395 5:21.3802 6:9.3908 7:0.718707 8:1 
0.02011382996867783 1:0.00592041 2:0.00602937 3:0.00232577 4:12.4081 5:12.6062 6:4.14985 7:19.8756 
0.005446408275877185 1:0.141681 2:0.145209 3:0.0758095 4:19.2775 5:19.6726 6:8.40512 7:0.851111 8:1 
1 8:1 
0.01018457763292939 1:0.137764 2:0.141533 3:0.0812693 4:17.7073 5:18.0591 6:7.47319 7:0.839727 8:1 
0.0215893061052137 1:0.208524 2:0.173171 3:0.364918 4:61.6669 5:52.8519 6:103.448 7:37.672 8:1 
0.02071376705861294 1:0.848586 2:0.798774 3:1.2286 4:65.5609 5:56.6241 6:108.794 7:25.5805 8:1 
0.02101306615710841 1:0.44455 2:0.360556 3:0.801521 4:55.5264 5:47.5098 6:93.3639 7:19.4843 8:1 
0.02158844419182648 1:2.03849 2:1.95813 3:2.84411 4:70.0281 5:61.0243 6:114.73 7:33.5442 8:1 
0.02099312228338207 1:0.211349 2:0.216352 3:0.107211 4:14.9679 5:15.2458 6:5.88025 7:387.682 
0.02101264673656805 1:1.17978 2:1.088 3:1.76954 4:58.7272 5:50.6229 6:97.7246 7:22.6149 8:1 
0.02124059280659696 1:3.11629 2:2.94866 3:4.4699 4:74.6122 5:65.5442 6:120.808 7:41.8646 
0.02098425855572039 1:0.632454 2:0.614716 3:0.862801 4:62.9968 5:54.7652 6:103.57 7:24.3731 8:1 
0.02023403830110204 1:0.385147 2:0.380741 3:0.507984 4:76.0744 5:67.1187 6:122.384 7:23.0895 8:1 
0.02075451951551049 1:0.198879 2:0.249261 3:0.118706 4:65.1746 5:56.9877 6:106.252 7:20.3105 8:1 
0.01882586144921035 1:0.170591 2:0.198353 3:0.143934 4:78.7797 5:69.9186 6:125.61 7:20.4505 8:1 
0.02157733822180824 1:1.95674 2:1.88144 3:2.72494 4:69.9179 5:61.6564 6:112.563 7:16.4256 8:1 
0.02063144117952631 1:0.748934 2:0.683165 3:1.14374 4:81.5359 5:72.7488 6:128.957 7:36.6816 8:1 
0.02086691794107537 1:0.738922 2:0.705088 3:1.04375 4:83.1911 5:74.5821 6:130.603 7:19.7958 8:1 
0.01428856923704308 1:0.890091 2:0.848625 3:1.25924 4:84.2779 5:75.8467 6:131.517 7:12.785 8:1 
0.007636705767953204 1:0.00314569 2:0.003196 3:0.00108325 4:10.1795 5:10.3381 6:3.31748 7:0.0115634 8:1 
0.006386000268334151 1:0.0226269 2:0.0229816 3:0.0073992 4:7.7196 5:7.83904 6:2.49622 7:0.0290841 
0.005495273683273597 1:0.00128818 2:0.00131416 3:0.000507832 4:12.162 5:12.3545 6:4.02836 7:0.00466881 
0.009792773726963366 1:0.864107 2:0.8433 3:1.16951 4:86.8422 5:78.5371 6:134.475 7:15.3986 8:1 
0.01092868976433692 1:0.0370178 2:0.037658 3:0.0134721 4:10.38 5:10.5425 6:3.40031 7:2.90462 
0.009914865651265203 1:0.310411 2:0.314554 3:0.388412 4:86.5786 5:78.5003 6:133.517 7:12.8446 
0.009334265608624059 1:0.204151 2:0.217562 3:0.226337 4:87.5435 5:79.6599 6:134.229 7:15.3258 8:1 
0.009840585304064856 1:1.08413 2:1.06534 3:1.44724 4:87.6037 5:79.9581 6:133.657 7:8.63566 8:1 
0.01590857493440288 1:1.25056 2:1.20784 3:1.72682 4:88.576 5:81.099 6:134.449 7:11.2702 8:1 
0.02105211952106928 1:0.417736 2:0.429255 3:0.506538 4:72.772 5:64.5106 6:116.238 7:23.6219 8:1 
0.0211237779051634 1:0.018034 2:0.0492325 3:0.0618572 4:75.8931 5:67.6943 6:120.086 7:29.0368 8:1 
0.0128455991423667 1:0.536259 2:0.5334 3:0.698296 4:87.9491 5:80.9248 6:132.407 7:7.07803 
0.01947857965258774 1:0.234146 2:0.223406 3:0.330795 4:77.7218 5:69.6708 6:122.038 7:18.1778 8:1 
0.0007679104764219957 1:0.00199294 2:0.00202751 3:0.000714362 4:10.8651 5:11.0352 6:3.55653 7:0.00762316 
0.02079376151846907 1:1.4954 2:1.43413 3:2.0927 4:80.3866 5:72.4417 6:125.18 7:12.7795 
0.006124774886272888 1:0.18803 2:0.182024 3:0.258488 4:86.8439 5:80.2227 6:129.885 7:5.96931 8:1 
0.02071682431993255 1:1.18163 2:1.1246 3:1.67706 4:81.829 5:74.0489 6:126.588 7:41.5293 8:1 
0.01872952176619802 1:1.95094 2:1.88828 3:2.68308 4:83.3497 5:75.7392 6:128.083 7:14.829 
0.01329038064741744 1:0.248707 2:0.264442 3:0.277334 4:84.1426 5:76.7146 6:128.607 7:11.8473 8:1 
0.01115255910304108 1:0.137562 2:0.13596 3:0.181522 4:84.7504 5:78.6902 6:125.659 7:3.69359 8:1 
0.0131520318081302 1:0.00725555 2:0.00392151 3:0.0184517 4:85.0957 5:77.854 6:129.326 7:7.58992 8:1 
0.006929823071489165 1:0.272976 2:0.295418 3:0.290255 4:83.4505 5:77.5544 6:123.537 7:4.41647 8:1 
0.006536252994121139 1:0.245171 2:0.233257 3:0.348232 4:85.8562 5:78.7952 6:129.813 7:10.3476 8:1 
0.01657491533625555 1:0.988863 2:0.945509 3:1.39155 4:86.6136 5:79.7508 6:130.247 7:14.6953 8:1 
0.01718099360407604 1:0.237381 2:0.218536 3:0.357037 4:72.866 5:66.3451 6:111.612 7:8.27296 8:1 
0.0009301069512835426 1:0.00979447 2:0.0099678 3:0.00362462 4:11.7893 5:11.9751 6:3.88807 7:0.00551263 8:1 
0.01006734608805817 1:0.0397816 2:0.0450153 3:0.0369587 4:82.2773 5:76.5775 6:121.491 7:6.61074 
0.0009423735559572766 1:0.000759959 2:0.000628471 3:0.00133729 4:4.27812 5:3.53801 6:7.52735 7:0.000353741 8:1 
0.0110111199874588 1:0.577549 2:0.569584 3:0.765438 4:81.197 5:75.6584 6:119.661 7:3.56386 8:1 
0.0121485070873623 1:0.268436 2:0.291513 3:0.282719 4:87.301 5:81.1758 6:129.121 7:8.78961 8:1 
0.01277901916720123 1:0.513014 2:0.518696 3:0.645157 4:80.2448 5:74.8408 6:118.067 7:6.80266 8:1 
0.01294020574517067 1:0.80722 2:0.758724 3:1.17167 4:86.2291 5:80.3064 6:127.188 7:4.64278 8:1 
0.007467869423117461 1:0.178751 2:0.166367 3:0.263966 4:78.8536 5:73.6261 6:115.795 7:4.53805 8:1 
0.01238669609182064 1:0.738806 2:0.732845 3:0.967649 4:74.5652 5:68.1597 6:113.485 7:8.775 8:1 
0.003054516663622386 1:0.795219 2:0.780968 3:1.06286 4:85.4916 5:79.9098 6:125.309 7:5.51724 8:1 
0.006861645414083951 1:0.701258 2:0.67498 3:0.97468 4:76.4296 5:71.4614 6:111.966 7:6.57072 8:1 
0.01184008691823712 1:0.155396 2:0.152826 3:0.207132 4:75.2165 5:69.152 6:113.394 7:5.52524 
0.01657632553319174 1:0.0180206 2:0.0152359 3:0.113939 4:85.1037 5:79.6906 6:124.349 7:8.63284 
0.003371780450072994 1:0.133039 2:0.136412 3:0.162125 4:75.1055 5:70.272 6:109.894 7:3.84347 8:1 
0.00535348917611141 1:0.918144 2:0.91287 3:1.19667 4:76.3339 5:70.3894 6:114.506 7:6.23241 8:1 
0.004150983261955875 1:0.0893288 2:0.105989 3:0.0695591 4:84.2314 5:78.9684 6:122.817 7:6.80714 
0.006799904027815662 1:0.461006 2:0.462059 3:0.59078 4:74.0967 5:69.3794 6:108.278 7:3.50709 
0.007561864878730206 1:0.357864 2:0.330502 3:0.535458 4:83.6525 5:78.5418 6:121.656 7:4.53403 8:1 
0.00641219228224511 1:0.18569 2:0.201403 3:0.196247 4:72.6489 5:68.0478 6:106.097 7:3.86879 8:1 
0.005667009079948933 1:0.226082 2:0.243303 3:0.244143 4:82.5115 5:77.5414 6:119.803 7:6.41308 8:1 
0.01097132885954538 1:0.279634 2:0.203334 3:0.624502 4:4.13343 5:3.45767 6:7.104 7:3.02188 
0.006145415495235327 1:0.395338 2:0.370966 3:0.575481 4:81.9022 5:77.0742 6:118.631 7:3.95044 8:1 
0.02081990474622643 1:0.307911 2:0.295382 3:0.430674 4:71.1839 5:66.6982 6:103.896 7:12.0723 8:1 
0.01127745483051889 1:0.222248 2:0.215038 3:0.305815 4:77.2622 5:71.7748 6:114.454 7:7.68565 8:1 
0.0007339324929397928 1:0.362968 2:0.353329 3:0.493692 4:80.8896 5:76.1911 6:116.974 7:5.03032 8:1 
0.008219008230266339 1:0.343969 2:0.3221 3:0.502548 4:79.8932 5:75.319 6:115.351 7:5.03523 8:1 
0.01293171567681306 1:0.275309 2:0.279051 3:0.344341 4:69.8819 5:65.4861 6:101.974 7:3.77236 8:1 
0.006062070999688196 1:0.538866 2:0.531553 3:0.713806 4:78.8054 5:74.3541 6:113.616 7:4.42022 8:1 
0.005130259547924176 1:0.00148523 2:0.00122875 3:0.00261331 4:4.15841 5:3.439 6:7.31676 7:0.00126538 8:1 
0.0207137312373053 1:0.104731 2:0.0860558 3:0.185793 4:67.447 5:63.2045 6:98.4204 7:8.42203 8:1 
0.01024484822936592 1:0.25868 2:0.246473 3:0.366392 4:77.5192 5:73.1682 6:111.686 7:3.24032 8:1 
0.003936833923868122 1:0.083395 2:0.0877895 3:0.0954647 4:77.1319 5:72.2054 6:112.757 7:3.82302 
0.02091293473541145 1:0.450684 2:0.417417 3:0.671028 4:64.5761 5:60.4912 6:94.2936 7:12.7659 8:1 
0.003162394876938916 1:0.0042268 2:0.00349647 3:0.00743592 4:4.38764 5:3.62859 6:7.72002 7:0.00036695 
0.02045335679010385 1:0.399702 2:0.402927 3:0.505924 4:76.696 5:71.9039 6:111.829 7:12.3804 8:1 
0.01481008541877878 1:0.0210735 2:0.0214003 3:0.0068301 4:3.51151 5:3.56593 6:1.13734 7:8.54817 
0.00686626555729924 1:0.000355601 2:0.000294328 3:0.000624895 4:5.5229 5:4.56767 6:9.71691 7:0.000498647 
0.01953373549080495 1:0.0048697 2:0.00402725 3:0.00856495 4:4.74506 5:3.92423 6:8.34876 7:53.8427 8:1 
0.02111788044135737 1:0.000701904 2:0.00804615 3:0.0191212 4:60.3632 5:56.4792 6:88.3209 7:9.46834 8:1 
0.002824118656527157 1:0.333008 2:0.324532 3:0.45191 4:76.6535 5:72.404 6:110.295 7:3.2158 8:1 
0.02127138746108531 1:0.337211 2:0.325321 3:0.466639 4:56.5333 5:52.8295 6:82.8982 7:13.5641 8:1 
0.00337546348173214 1:0.23938 2:0.231632 3:0.329372 4:75.2785 5:71.1301 6:108.248 7:3.66858 8:1 
0.02046596844067072 1:0.239792 2:0.243746 3:0.298023 4:53.1875 5:49.6486 6:78.1397 7:12.4844 
0.005996177855228553 1:0.507107 2:0.486607 3:0.708935 4:75.7213 5:71.2939 6:109.579 7:2.88734 8:1 
0.01242447466927573 1:0.175175 2:0.169064 3:0.242237 4:72.9823 5:69.0205 6:104.782 7:4.96269 
0.02096433397824693 1:0.775386 2:0.744157 3:1.08364 4:49.6284 5:46.2583 6:73.0966 7:19.6839 8:1 
0.01050353430786165 1:0.0608654 2:0.0405865 3:0.133726 4:74.2585 5:70.0532 6:107.09 7:1.98618 8:1 
0.02105247426907247 1:0.377215 2:0.362171 3:0.52676 4:45.1493 5:42.0303 6:66.6441 7:19.4613 8:1 
0.01032073061408432 1:0.130247 2:0.145172 3:0.126997 4:71.7379 5:67.8547 6:102.966 7:2.51846 
0.01811549832279271 1:1.10225 2:1.03758 3:1.59574 4:40.2566 5:37.3887 6:59.659 7:14.9329 8:1 
0.008854943915219357 1:0.4537 2:0.431829 3:0.643875 4:35.5966 5:32.9684 6:53.005 7:10.2427 8:1 
0.01048227104446412 1:0.00807762 2:0.0154533 3:0.0745754 4:69.2058 5:65.4734 6:99.2941 7:1.89986 
0.02082641772335714 1:0.578339 2:0.56148 3:0.790697 4:31.6309 5:29.2116 6:47.3284 7:18.3126 8:1 
0.01354930804744098 1:0.208075 2:0.192532 3:0.310312 4:65.186 5:60.9302 6:95.5455 7:4.0048 8:1 
0.00451025971246341 1:0.369789 2:0.360412 3:0.501766 4:67.9771 5:64.3037 6:97.5508 7:2.3232 
0.002132694445295789 1:0.196777 2:0.199171 3:0.246859 4:71.5428 5:67.7052 6:102.59 7:2.74375 8:1 
0.02111477053424143 1:0.313671 2:0.293754 3:0.45823 4:28.6048 5:26.337 6:43.0187 7:148.584 8:1 
0.003373447292317945 1:0.182661 2:0.180882 3:0.240108 4:66.8388 5:63.2257 6:95.9206 7:1.16926 
0.002922668638020209 1:0.39687 2:0.393999 3:0.518883 4:70.7028 5:66.9412 6:101.301 7:2.52332 8:1 
0.00605856862991706 1:0.252099 2:0.251538 3:0.32613 4:64.3343 5:60.2817 6:93.8944 7:3.71811 8:1 
0.001159965093242484 1:0.0146499 2:0.0198259 3:0.00473213 4:24.9974 5:22.912 6:37.8761 7:7.33119 8:1 
0.001899991382084116 1:0.0723534 2:0.0527763 3:0.146627 4:69.6959 5:66.0205 6:99.7694 7:2.3628 8:1 
0.006540042428828219 1:0.327572 2:0.319373 3:0.444176 4:22.4762 5:20.5145 6:34.2921 7:5.43147 8:1 
0.008429859684911278 1:0.178259 2:0.168245 3:0.256861 4:67.9724 5:64.4305 6:97.1862 7:1.48571 8:1 
0.001041567813653277 1:0.338912 2:0.321735 3:0.483251 4:20.0531 5:18.1978 6:30.8821 7:5.28751 
0.001215028278308105 1:0.00150836 2:0.00124788 3:0.00265217 4:5.93906 5:4.91198 6:10.4488 7:0.00044115 8:1 
0.00194877859965549 1:0.00203586 2:0.00168419 3:0.00357962 4:5.85714 5:4.8442 6:10.3047 7:0.954404 
0.002416962708224606 1:0.001387 2:0.0011481 3:0.00243783 4:6.61045 5:5.46752 6:11.6292 7:0.000569407 
0.00333282255138361 1:0.000174046 2:0.000144362 3:0.000305891 4:6.34141 5:5.24489 6:11.1563 7:0.000488137 8:1 
0.01274383151714886 1:0.243833 2:0.212175 3:0.400312 4:17.9279 5:16.1925 6:27.8186 7:7.11656 8:1 
0.01305609518029472 1:0.380577 2:0.361448 3:0.542219 4:60.3238 5:57.015 6:86.7015 7:2.80531 8:1 
0.01405949250406946 1:0.745147 2:0.696427 3:1.09238 4:16.4066 5:14.7345 6:25.6866 7:7.92383 8:1 
0.0184196710322776 1:0.0120754 2:0.00277233 3:0.0409088 4:56.235 5:53.1122 6:80.9293 7:5.47783 8:1 
0.001944419830842005 1:0.143284 2:0.149414 3:0.167814 4:66.9042 5:63.4201 6:95.6527 7:2.00944 8:1 
0.01362901396513799 1:0.185651 2:0.172339 3:0.275373 4:14.4461 5:12.8869 6:22.8545 7:5.45898 8:1 
0.01972564812413902 1:0.0190163 2:0.0198174 3:0.0222931 4:53.116 5:50.1231 6:76.5586 7:7.3053 8:1 
0.009679264059103854 1:0.296038 2:0.298958 3:0.37323 4:66.1427 5:62.7219 6:94.4996 7:0.962537 
0.001934344181608871 1:0.565582 2:0.538703 3:0.801607 4:63.3395 5:59.597 6:91.7678 7:2.56869 8:1 
0.01296582956488469 1:0.777636 2:0.752288 3:1.07048 4:49.3058 5:46.4604 6:71.2501 7:3.73738 8:1 
0.004016528835130636 1:0.154976 2:0.164871 3:0.17252 4:64.9596 5:61.5863 6:92.8466 7:1.15229 8:1 
0.003792043150598477 1:0.121694 2:0.119412 3:0.16293 4:63.0848 5:59.4157 6:91.2393 7:2.90691 8:1 
0.006948642902756319 1:0.22158 2:0.228219 3:0.26722 4:62.604 5:58.9948 6:90.4572 7:2.66005 8:1 
0.008070305845673722 1:0.365984 2:0.352942 3:0.506874 4:64.3275 5:60.9932 6:91.9263 7:1.09828 8:1 
0.02122851733246556 1:0.154645 2:0.151775 3:0.206968 4:46.1057 5:43.3893 6:66.7775 7:40.1066 8:1 
0.008991657609090299 1:0.387996 2:0.366609 3:0.557949 4:12.6971 5:11.2138 6:20.3951 7:3.47293 8:1 
0.0007656324219517265 1:0.137237 2:0.130606 3:0.194826 4:63.3046 5:60.0184 6:90.4783 7:1.0915 8:1 
0.008751756588606642 1:0.0123692 2:0.0115852 3:0.0180855 4:62.2819 5:59.0374 6:89.0477 7:1.04268 8:1 
0.01933060227039633 1:0.869767 2:0.834106 3:1.21721 4:42.5123 5:39.9283 6:61.7894 7:13.5883 8:1 
0.005570883182506323 1:0.264041 2:0.255151 3:0.364223 4:61.3397 5:58.133 6:87.7311 7:0.591745 8:1 
0.02099314713014566 1:0.166286 2:0.158872 3:0.234352 4:60.5629 5:57.1937 6:87.1742 7:410.253 
0.02046451236525788 1:0.0657482 2:0.0679989 3:0.0785408 4:40.2071 5:37.6991 6:58.6134 7:19.4252 8:1 
0.006857806303609984 1:0.0455999 2:0.0462322 3:0.0569878 4:60.111 5:56.9456 6:86.0363 7:0.795432 8:1 
0.02093562044131803 1:0.798939 2:0.76419 3:1.12353 4:36.9572 5:34.5597 6:54.1273 7:20.0585 8:1 
0.00794311299195468 1:0.00178909 2:0.00449467 3:0.00507164 4:58.5168 5:55.407 6:83.8321 7:0.534056 8:1 
0.01629634912195159 1:0.386191 2:0.370137 3:0.541069 4:33.8028 5:31.5181 6:49.758 7:13.2529 8:1 
0.01986482022947708 1:0.401731 2:0.371701 3:0.599196 4:9.5488 5:8.20222 6:15.9683 7:11.2146 8:1 
0.009533172339690003 1:0.322183 2:0.299178 3:0.477602 4:10.4616 5:9.02034 6:17.4021 7:3.59318 8:1 
0.00768200149676701 1:0.69421 2:0.654627 3:1.00186 4:31.3286 5:29.1185 6:46.3686 7:5.83279 8:1 
0.006792405666477652 1:0.24485 2:0.235447 3:0.340912 4:55.1676 5:52.189 6:79.1616 7:2.7855 8:1 
0.009063032798983454 1:0.199271 2:0.188673 3:0.285515 4:58.1943 5:55.0004 6:83.6461 7:0.877904 
0.01518657262305002 1:0.402442 2:0.38516 3:0.565344 4:27.2973 5:25.2039 6:40.8594 7:9.6337 8:1 
0.0094623911039039 1:0.45003 2:0.44221 3:0.600796 4:56.8242 5:53.7068 6:81.6733 7:1.04503 8:1 
0.004250273494596505 1:0.0542765 2:0.0414805 3:0.104785 4:25.4321 5:23.3941 6:38.3069 7:5.04403 8:1 
0.009204536504957006 1:0.200165 2:0.193737 3:0.275269 4:53.0877 5:50.1817 6:76.2852 7:2.66392 8:1 
0.001147326157665324 1:0.000359297 2:0.000297785 3:0.000633001 4:6.25614 5:5.17432 6:11.0063 7:0.00045775 8:1 
0.004150418563302338 1:0.00413001 2:0.00341916 3:0.00725818 4:7.4262 5:6.14269 6:13.0631 7:0.000557375 
0.00309778240051617 1:0.540631 2:0.502933 3:0.798975 4:10.7729 5:9.29795 6:17.8946 7:3.49338 8:1 
0.002818996656225868 1:0.209623 2:0.200002 3:0.296165 4:24.2111 5:22.2034 6:36.6518 7:5.66497 8:1 
0.004126761851438334 1:0.244387 2:0.224043 3:0.370175 4:11.7346 5:10.1719 6:19.3726 7:3.63056 8:1 
0.01087754980896061 1:0.408834 2:0.392691 3:0.570473 4:22.6984 5:20.733 6:34.5882 7:6.74712 
0.01267431043995704 1:0.206993 2:0.193295 3:0.303925 4:51.0621 5:48.234 6:73.4646 7:3.64334 
0.004746230496289881 1:0.0386448 2:0.0370266 3:0.0541701 4:11.4668 5:9.7192 6:19.5316 7:0.402323 
0.004861133266577193 1:0.0883598 2:0.0900717 3:0.109121 4:56.0854 5:53.0065 6:80.6169 7:0.779847 8:1 
0.004190287252636352 1:0.481672 2:0.461569 3:0.675073 4:21.5147 5:19.5707 6:33.0057 7:6.4619 8:1 
0.001897590559964419 1:0.0107501 2:0.0131927 3:0.00717831 4:14.4264 5:12.576 6:23.6231 7:1.91649 8:1 
0.0009263580704725524 1:0.409368 2:0.395287 3:0.565508 4:49.0219 5:46.2605 6:70.6554 7:2.88499 
0.02102667658572094 1:0.184443 2:0.181718 3:0.244925 4:20.4069 5:18.4994 6:31.4798 7:21.2961 8:1 
0.0139639484233211 1:0.142655 2:0.132437 3:0.211565 4:46.6248 5:43.9484 6:67.337 7:3.11082 8:1 
0.005027083214366388 1:0.121705 2:0.122258 3:0.155207 4:54.9246 5:51.8943 6:78.9897 7:0.592586 8:1 
0.006674760451229333 1:0.153106 2:0.149096 3:0.208081 4:19.0412 5:17.1668 6:29.6309 7:3.58781 
0.01176329915186164 1:0.450975 2:0.432126 3:0.632111 4:44.2768 5:41.6714 6:64.1198 7:3.36182 8:1 
