svm_type c_svc
kernel_type rbf
gamma 0.125
nr_class 2
total_sv 1294
rho -0.972969
label 1 0
nr_sv 985 309
SV
0.02425217599116641 1:0.264871 2:0.27488 3:0.293265 4:11.7543 5:12.0187 6:11.7111 7:46.4086 8:1 
0.001092711400911994 1:0.103282 2:0.0999698 3:0.120016 4:4.87901 5:4.9886 6:4.98809 7:4.16913 8:1 
0.004652710238898102 1:0.0745631 2:0.0654697 3:0.10147 4:11.8477 5:12.1193 6:12.5112 7:12.3947 8:1 
0.003947609313497328 1:0.139969 2:0.148749 3:0.171297 4:11.6844 5:11.962 6:12.5106 7:16.2633 8:1 
0.0115201583651696 1:0.34285 2:0.369881 3:0.38647 4:12.6647 5:13.0045 6:13.6646 7:22.1674 8:1 
0.00486839994910996 1:0.0691237 2:0.0990107 3:0.084309 4:12.6618 5:13.0373 6:13.676 7:13.5191 8:1 
0.006861978024082569 1:0.01682 2:0.00252336 3:0.060641 4:5.21155 5:5.33242 6:5.66501 7:0.01733 8:1 
0.0048888298660984 1:0.00711876 2:0.00153708 3:0.0170334 4:5.25163 5:5.36454 6:5.71512 7:0.0184231 8:1 
0.003192613469880997 1:0.148494 2:0.148966 3:0.125139 4:8.26463 5:8.48947 6:9.09357 7:4.19505 8:1 
0.01153402830868186 1:0.164504 2:0.173753 3:0.17251 4:3.63008 5:3.69995 6:3.81292 7:6.61195 8:1 
0.002150859655330653 1:0.0798036 2:0.0823616 3:0.162591 4:4.21362 5:4.2931 6:3.98346 7:6.40779 8:1 
0.002112502217473722 1:0.13808 2:0.133221 3:0.136351 4:5.83358 5:5.96041 6:5.67513 7:4.34071 8:1 
0.007108333302823728 1:0.317757 2:0.32194 3:0.3623 4:14.7598 5:15.2412 6:15.518 7:5.81018 8:1 
0.00664372172384972 1:0.0914943 2:0.0850368 3:0.137133 4:7.40694 5:7.5678 6:7.3559 7:2.93016 8:1 
0.01104264459936568 1:0.00619054 2:0.00809699 3:0.00207353 4:7.89402 5:8.08734 6:8.49327 7:7.99529 8:1 
0.01825391829526388 1:0.0595599 2:0.0664095 3:0.118937 4:7.19541 5:7.44727 6:7.78975 7:19.4371 8:1 
0.006324312164826734 1:0.258479 2:0.26114 3:0.279547 4:9.79013 5:10.1557 6:10.4614 7:16.1684 8:1 
0.006031635456204879 1:0.315974 2:0.331393 3:0.307948 4:13.0255 5:13.4217 6:13.7665 7:4.45414 8:1 
0.01783749137400248 1:0.0166218 2:0.0200844 3:0.0204006 4:8.75764 5:8.95424 6:9.64212 7:0.401582 8:1 
0.006796751983968296 1:0.176353 2:0.203128 3:0.151472 4:13.4719 5:13.8696 6:14.3631 7:9.68066 8:1 
0.001642541700892231 1:0.0174131 2:0.0254014 3:0.00384939 4:14.204 5:14.7193 6:14.9925 7:7.53639 8:1 
0.00681648152681574 1:0.0341154 2:0.0402484 3:0.0572777 4:16.0098 5:16.5712 6:16.8428 7:3.18479 8:1 
0.01227917040150998 1:0.144482 2:0.166095 3:0.127454 4:15.516 5:16.0404 6:16.3572 7:8.99962 8:1 
0.00809406288281784 1:0.667659 2:0.694668 3:0.827057 4:13.2477 5:13.5688 6:14.7015 7:17.8677 8:1 
0.009550549170044085 1:0.306282 2:0.320018 3:0.349901 4:10.9155 5:11.2357 6:12.3752 7:23.5701 8:1 
0.02733452140056092 1:0.601444 2:0.622926 3:0.653461 4:13.6984 5:14.1377 6:15.6259 7:68.6555 8:1 
0.0195271881426845 1:0.17667 2:0.189687 3:0.234188 4:16.2159 5:16.6554 6:17.9836 7:42.0338 8:1 
0.01621779666095015 1:1.2188 2:1.26553 3:1.40553 4:18.0365 5:18.63 6:20.4599 7:105.552 8:1 
0.01723272075191473 1:0.671457 2:0.677817 3:0.754563 4:15.4167 5:15.8471 6:17.1221 7:36.9694 8:1 
0.01844561387878457 1:0.31477 2:0.335434 3:0.223664 4:14.0843 5:14.4654 6:15.6908 7:48.1291 8:1 
0.01957545416888503 1:0.343921 2:0.348859 3:0.433205 4:16.9498 5:17.4456 6:18.9151 7:77.1807 8:1 
0.01723935302156086 1:0.971533 2:1.01918 3:1.11758 4:20.195 5:20.8488 6:22.8057 7:93.5288 8:1 
0.02293781987296861 1:1.69973 2:1.78447 3:1.81608 4:17.5502 5:18.073 6:19.5829 7:133.23 8:1 
0.008580851157887757 1:0.0711746 2:0.0879128 3:0.0831981 4:9.63818 5:9.84619 6:9.67884 7:5.26348 8:1 
0.01215206881573431 1:0.0528402 2:0.0550706 3:0.0368383 4:20.3491 5:21.009 6:22.8711 7:91.8836 8:1 
0.02160897721488039 1:1.01316 2:1.03865 3:1.10235 4:17.9548 5:18.4922 6:20.0364 7:121.917 8:1 
0.008322863398147678 1:0.0055033 2:0.00225234 3:0.0239255 4:10.9599 5:11.1827 6:11.0227 7:10.8845 8:1 
0.01184414548723628 1:0.210583 2:0.21909 3:0.253879 4:15.3857 5:15.8052 6:17.0867 7:40.4659 8:1 
0.01257570199027316 1:0.0640409 2:0.0630722 3:0.0436298 4:14.6827 5:15.117 6:15.7579 7:32.7008 8:1 
0.0181907109863428 1:0.798603 2:0.837384 3:0.94729 4:18.2823 5:18.8048 6:20.3865 7:48.8998 8:1 
0.001608924365456279 1:0.221413 2:0.214846 3:0.238947 4:10.5581 5:10.7741 6:10.67 7:13.3683 8:1 
0.01738152595941088 1:0.681027 2:0.686548 3:0.751967 4:16.3543 5:16.8367 6:17.6832 7:50.2199 8:1 
0.01347851467427216 1:0.523347 2:0.56037 3:0.639427 4:21.3902 5:22.0287 6:23.9364 7:41.2395 8:1 
0.004848937051829705 1:0.108869 2:0.101475 3:0.0977349 4:23.2901 5:23.9684 6:26.0616 7:32.024 8:1 
0.0239955165075747 1:1.7984 2:1.86782 3:2.01971 4:16.6521 5:17.138 6:18.0475 7:57.7354 8:1 
0.02608214045470614 1:1.2913 2:1.33819 3:1.489 4:16.0926 5:16.5745 6:17.4374 7:62.7646 8:1 
0.01159975340241417 1:0.135538 2:0.142928 3:0.128811 4:9.23959 5:9.43976 6:9.54674 7:14.521 8:1 
0.01299170080346225 1:1.395 2:1.44626 3:1.67023 4:22.3488 5:22.9782 6:24.9421 7:66.1937 8:1 
0.006698030192453551 1:0.243201 2:0.264252 3:0.296996 4:17.1195 5:17.6685 6:18.6808 7:77.5637 8:1 
0.009876158035261318 1:1.21097 2:1.27263 3:1.35992 4:18.2948 5:18.9028 6:20.1036 7:107.889 8:1 
0.004601750362804111 1:0.207165 2:0.202542 3:0.219716 4:20.0896 5:20.6374 6:22.2463 7:93.0215 8:1 
0.007035217852500266 1:0.177453 2:0.19039 3:0.201044 4:10.4726 5:10.7147 6:10.9152 7:29.6904 8:1 
0.02092039128548995 1:0.424286 2:0.433687 3:0.451635 4:9.27311 5:9.48612 6:9.6183 7:30.3394 8:1 
0.01959474277932349 1:0.224967 2:0.23624 3:0.18682 4:20.1094 5:20.7836 6:22.1754 7:145.79 8:1 
0.01979290868806639 1:0.720475 2:0.732435 3:0.785262 4:16.2572 5:16.7038 6:17.8822 7:112.955 8:1 
0.01886664464693357 1:2.69315 2:2.80966 3:3.09104 4:19.8556 5:20.4928 6:21.9682 7:151.714 8:1 
0.02406057506975451 1:0.36201 2:0.362567 3:0.418997 4:12.8631 5:13.22 6:13.9735 7:92.8166 8:1 
0.01905011092374907 1:2.43143 2:2.50446 3:2.72323 4:20.1537 5:20.7959 6:22.33 7:148.823 8:1 
0.009521786500218588 1:0.046823 2:0.0660298 3:0.0698733 4:20.9445 5:21.6122 6:23.2611 7:134.897 8:1 
0.01809296349520867 1:1.15527 2:1.19625 3:1.27138 4:13.5432 5:13.9448 6:14.7895 7:96.7138 8:1 
0.0228481587807307 1:1.53615 2:1.59849 3:1.74231 4:20.6008 5:21.2691 6:23.0714 7:108.994 8:1 
0.01046788282350954 1:0.301145 2:0.288602 3:0.370857 4:19.3938 5:19.982 6:21.5201 7:136.021 8:1 
0.02517037798716532 1:0.164953 2:0.173448 3:0.161255 4:13.9514 5:14.378 6:15.2819 7:108.278 8:1 
0.009431904945439384 1:0.950048 2:0.996536 3:1.03933 4:20.5891 5:21.2491 6:23.0337 7:120.452 8:1 
0.0103066421650717 1:0.82167 2:0.826853 3:0.914933 4:17.8578 5:18.4005 6:19.7223 7:125.208 8:1 
0.02159308979412245 1:0.561365 2:0.5719 3:0.553838 4:17.7879 5:18.3305 6:19.8857 7:127.847 8:1 
0.02398787612879146 1:2.72295 2:2.82757 3:3.14377 4:22.5037 5:23.2172 6:25.1922 7:133.974 8:1 
0.014386194043433 1:0.0978656 2:0.109486 3:0.178372 4:21.7706 5:22.456 6:24.401 7:145.028 8:1 
0.01199510400646102 1:1.14019 2:1.19088 3:1.325 4:19.6964 5:20.298 6:22.0791 7:124.367 8:1 
0.01263915677175975 1:1.19812 2:1.26677 3:1.32808 4:21.5075 5:22.1833 6:24.1217 7:145.591 8:1 
0.01757168733670204 1:1.12338 2:1.13617 3:1.257 4:21.3433 5:21.9754 6:23.9166 7:130.495 8:1 
0.004477460428735883 1:1.21428 2:1.23931 3:1.33451 4:21.7364 5:22.4012 6:24.3631 7:131.437 8:1 
0.01117808995422337 1:0.638405 2:0.671834 3:0.682119 4:21.8357 5:22.5043 6:24.3059 7:155.044 8:1 
0.005614764729716403 1:0.448568 2:0.47106 3:0.556221 4:20.3048 5:20.9086 6:22.7463 7:121.795 
0.01624775075288853 1:1.89158 2:2.00144 3:2.21751 4:21.2291 5:21.8812 6:23.6439 7:154.571 8:1 
0.02722517673271907 1:2.39844 2:2.53971 3:3.60871 4:31.5609 5:32.4257 6:35.3437 7:801.033 
0.02689739925684714 1:2.42806 2:2.5301 3:2.75191 4:23.2624 5:23.9958 6:25.7855 7:117.634 8:1 
0.01850110516829426 1:1.21846 2:1.23685 3:1.34148 4:24.543 5:25.3382 6:27.2475 7:74.6431 8:1 
0.02662086487437332 1:0.493217 2:0.511395 3:0.552544 4:9.04746 5:9.26526 6:9.4229 7:36.0522 8:1 
0.02594616898153858 1:1.49506 2:1.53475 3:1.63801 4:20.2789 5:20.8835 6:22.6186 7:114.038 
0.02686931289174747 1:2.2495 2:2.33582 3:2.51669 4:9.94038 5:10.2084 6:10.525 7:62.1318 8:1 
0.01547573313760793 1:0.926415 2:0.97727 3:1.12262 4:15.733 5:16.2167 6:17.3199 7:110.577 8:1 
0.01804421668231949 1:0.545331 2:0.550736 3:0.622088 4:11.3224 5:11.6577 6:12.1969 7:97.0982 8:1 
0.02008512631229981 1:1.59034 2:1.66038 3:1.84088 4:15.7818 5:16.243 6:17.3684 7:93.7173 8:1 
0.01950506988740676 1:0.117912 2:0.127104 3:0.155253 4:14.3456 5:14.7928 6:15.6743 7:152.16 8:1 
0.01883042281535247 1:0.106246 2:0.08174 3:0.0608504 4:15.779 5:16.1885 6:17.3187 7:94.8812 8:1 
0.01400458662315668 1:0.434103 2:0.461559 3:0.533444 4:20.7411 5:21.3788 6:23.0511 7:120.195 
0.02683047926941134 1:0.648774 2:0.678316 3:0.779489 4:13.7386 5:14.0816 6:14.9711 7:121.324 8:1 
0.0121226586858515 1:0.473609 2:0.476079 3:0.555013 4:12.311 5:12.589 6:13.3369 7:98.5709 8:1 
0.02409997597614599 1:0.898466 2:0.943084 3:0.891348 4:21.4627 5:22.1294 6:23.8959 7:70.4206 
0.0266148708823411 1:0.396711 2:0.416507 3:0.354435 4:12.5017 5:12.8003 6:13.5158 7:115.881 8:1 
0.01601877187077305 1:0.910525 2:0.961673 3:1.12863 4:22.244 5:22.938 6:24.7166 7:63.2101 
0.01674123034655166 1:0.850836 2:0.862977 3:0.874045 4:15.6047 5:15.9958 6:17.0672 7:151.15 8:1 
0.01504896035865085 1:0.035955 2:0.0399051 3:0.00197935 4:22.7313 5:23.4312 6:25.2389 7:54.6251 
0.02425542542416801 1:0.466539 2:0.460219 3:0.4707 4:17.097 5:17.55 6:18.792 7:139.964 8:1 
0.01652657402147965 1:1.44849 2:1.52346 3:1.63162 4:20.9403 5:21.528 6:23.279 7:126.303 8:1 
0.005528924652015599 1:0.244003 2:0.258728 3:0.29142 4:23.2183 5:23.9306 6:25.8473 7:51.6243 
0.02056996384452573 1:0.241841 2:0.254698 3:0.329314 4:21.9128 5:22.4996 6:24.3032 7:80.0149 8:1 
0.02215393746989819 1:0.645818 2:0.648801 3:0.752436 4:23.2554 5:23.9655 6:25.9792 7:45.9387 
0.01181434632769244 1:0.772886 2:0.79587 3:0.893175 4:21.8955 5:22.4823 6:24.2753 7:52.6359 8:1 
0.01416726687452442 1:0.0871565 2:0.102877 3:0.0345597 4:19.391 5:19.8719 6:21.2716 7:51.3484 8:1 
0.01944661019931303 1:0.170091 2:0.172239 3:0.0923271 4:18.8282 5:19.3828 6:20.9939 7:109.333 
0.009296778373825927 1:0.296044 2:0.321782 3:0.331273 4:17.1214 5:17.5481 6:18.6128 7:28.1461 8:1 
0.007873044838076632 1:1.21477 2:1.26125 3:1.41519 4:17.9133 5:18.4643 6:19.8582 7:136.262 8:1 
0.0102791117908004 1:0.895403 2:0.949151 3:1.04804 4:18.4953 5:19.0717 6:20.5138 7:137.458 8:1 
0.01047503687999655 1:0.515822 2:0.520659 3:0.516174 4:20.8458 5:21.5131 6:23.166 7:136.666 8:1 
0.01757773906426143 1:0.968008 2:1.01477 3:1.19369 4:23.4478 5:24.2031 6:26.0416 7:49.786 8:1 
0.005142204875422163 1:1.17388 2:1.22626 3:1.31553 4:22.6899 5:23.399 6:25.2259 7:126.073 8:1 
0.00855481781340567 1:0.245497 2:0.254292 3:0.273721 4:23.8369 5:24.6293 6:26.4487 7:53.5141 8:1 
0.01171127351421109 1:1.20066 2:1.22753 3:1.36566 4:25.541 5:26.394 6:28.4111 7:70.4618 8:1 
0.01493866511290089 1:0.857663 2:0.882103 3:0.923833 4:23.8961 5:24.6328 6:26.5267 7:67.8251 8:1 
0.01074287965910614 1:0.0942035 2:0.113796 3:0.100305 4:22.9192 5:23.5838 6:25.5214 7:65.5946 8:1 
0.02302462330095545 1:0.662309 2:0.69178 3:0.725392 4:22.493 5:23.1465 6:24.8541 7:59.5466 8:1 
0.02081892532006478 1:0.403579 2:0.435885 3:0.42345 4:27.9371 5:28.8682 6:31.2097 7:74.7095 8:1 
0.008246312817224268 1:0.632369 2:0.618299 3:0.689013 4:25.3343 5:26.0693 6:28.3996 7:65.0159 8:1 
0.0210713074651338 1:0.313826 2:0.308975 3:0.298683 4:20.5877 5:21.1544 6:22.6741 7:45.4867 8:1 
0.002906510098910936 1:0.160773 2:0.155022 3:0.245389 4:24.5341 5:25.2469 6:27.5333 7:64.3925 8:1 
0.01418267768083347 1:1.17412 2:1.19793 3:1.41284 4:26.6218 5:27.494 6:29.7487 7:74.8669 8:1 
0.0212967654097331 1:0.0111179 2:0.0108862 3:0.0348287 4:23.0812 5:23.7459 6:25.9788 7:75.5263 8:1 
0.01617329197798348 1:0.774245 2:0.795502 3:0.859214 4:26.3111 5:27.1948 6:29.4803 7:85.8836 8:1 
0.01005606370557379 1:0.69055 2:0.711313 3:0.779062 4:19.3071 5:19.8415 6:21.2329 7:24.0096 8:1 
0.02422838522383192 1:0.570616 2:0.557966 3:0.562774 4:24.8964 5:25.6197 6:28.0502 7:56.3428 8:1 
0.01171444075087373 1:0.916899 2:0.953594 3:1.15943 4:21.5779 5:22.1969 6:24.2755 7:134.993 
0.0131822934596512 1:0.801492 2:0.82068 3:0.932572 4:20.3178 5:20.9063 6:22.4469 7:51.7464 8:1 
0.007408834751690574 1:0.329028 2:0.335109 3:0.228035 4:24.7864 5:25.5066 6:27.9678 7:92.0668 8:1 
0.01307230472017152 1:1.66372 2:1.72441 3:1.80614 4:25.4363 5:26.281 6:28.5118 7:90.0756 8:1 
0.02656498337271063 1:0.0409799 2:0.024889 3:0.0911047 4:25.6792 5:26.4412 6:28.9667 7:106.09 8:1 
0.01158437469005082 1:0.46948 2:0.501431 3:0.530053 4:25.4942 5:26.3543 6:28.5799 7:84.4556 
0.02718109171995917 1:0.741457 2:0.762308 3:0.922836 4:27.863 5:28.7218 6:31.499 7:124.044 8:1 
0.0267357032978256 1:37.6868 2:39.0723 3:47.2202 4:381.967 5:394.966 6:465.19 7:171537 
0.01567266629789551 1:0.0313821 2:0.00514078 3:0.122277 4:30.1615 5:31.0881 6:34.2184 7:95.5761 8:1 
0.01729596817068724 1:2.17812 2:2.25877 3:2.51632 4:33.0444 5:34.0625 6:37.5039 7:45.0958 8:1 
0.02330357169536245 1:0.440346 2:0.443079 3:0.551809 4:34.5174 5:35.5808 6:39.1134 7:16.4281 8:1 
0.02657126609651533 1:78.9617 2:81.8915 3:96.2691 4:361.467 5:373.636 6:435.522 7:165188 
0.01007340856689953 1:0.144223 2:0.156776 3:0.209217 4:33.9897 5:34.9954 6:38.3845 7:10.7166 8:1 
0.02684270631451624 1:0.948641 2:0.9834 3:1.2455 4:19.6115 5:20.2651 6:21.6118 7:185.287 
0.009371209343079646 1:0.219168 2:0.240559 3:0.181769 4:32.5797 5:33.5295 6:36.8289 7:8.88621 8:1 
0.02428574783093927 1:0.764128 2:0.803483 3:0.865066 4:32.9893 5:34.132 6:37.2002 7:62.2074 
0.0194701353613046 1:0.0132811 2:0.0118539 3:0.048027 4:30.3384 5:31.2375 6:34.1125 7:26.741 8:1 
0.0206049113204013 1:0.614616 2:0.634568 3:0.613594 4:27.6905 5:28.5009 6:31.0701 7:33.1153 8:1 
0.019486809623005 1:0.0569072 2:0.0620511 3:0.140123 4:26.1196 5:26.9254 6:29.3435 7:24.0053 8:1 
0.01873640382484047 1:0.532943 2:0.549241 3:0.610899 4:16.7357 5:17.1748 6:18.1888 7:31.3768 8:1 
0.00456729775527897 1:0.00211048 2:0.014194 3:0.0320849 4:30.5552 5:31.3146 6:34.3168 7:8.74085 
0.0262139613447836 1:0.64361 2:0.667138 3:0.755112 4:18.9736 5:19.5149 6:20.7681 7:69.0425 8:1 
0.01855822012162328 1:1.7866 2:1.86127 3:2.09409 4:21.9899 5:22.6029 6:24.2758 7:87.0868 8:1 
0.01002595804293567 1:0.53764 2:0.564913 3:0.608078 4:30.1532 5:30.9097 6:33.7975 7:9.82824 
0.006614651380604464 1:0.567609 2:0.598976 3:0.653481 4:29.5826 5:30.3306 6:33.1828 7:7.0616 
0.01788061884164882 1:0.718883 2:0.740186 3:0.846031 4:23.7036 5:24.346 6:26.3054 7:85.4218 8:1 
0.0150468091871882 1:0.472232 2:0.446941 3:0.50344 4:28.4953 5:29.2388 6:32.0375 7:13.0154 
0.02027878590427212 1:0.305037 2:0.334384 3:0.411756 4:24.1958 5:24.8203 6:26.905 7:81.8568 8:1 
0.01907309109652091 1:0.24354 2:0.218002 3:0.227565 4:24.9666 5:25.572 6:27.8257 7:94.1388 8:1 
0.01323381491857423 1:0.283189 2:0.300337 3:0.291744 4:26.4393 5:27.1376 6:29.7045 7:17.1452 
0.02584567020179851 1:1.06957 2:1.17114 3:1.37883 4:22.9104 5:23.4738 6:25.5738 7:105.206 8:1 
0.007883379816593492 1:0.738365 2:0.77616 3:0.813643 4:22.6134 5:23.2366 6:25.3556 7:6.64963 
0.01667991582302031 1:0.598382 2:0.626207 3:0.694967 4:21.092 5:21.6193 6:23.5892 7:88.4536 8:1 
0.009068203158672905 1:0.563267 2:0.577235 3:0.583948 4:21.7208 5:22.3309 6:24.3847 7:10.5632 
0.02079995038771127 1:0.298491 2:0.281243 3:0.35835 4:18.7536 5:19.1968 6:20.8575 7:85.8898 8:1 
0.02407575818675578 1:1.00557 2:1.02989 3:1.11197 4:19.7147 5:20.2228 6:21.9533 7:103.038 8:1 
0.01338994515505335 1:0.840113 2:0.869809 3:0.937578 4:26.0027 5:26.7575 6:29.2808 7:70.8944 8:1 
0.01952677197406306 1:0.954911 2:0.985965 3:1.09573 4:23.1978 5:23.8116 6:25.7566 7:126.92 8:1 
0.008754169382592663 1:0.855488 2:0.910874 3:1.0396 4:25.6218 5:26.3632 6:28.8459 7:88.5348 8:1 
0.01556474349595443 1:0.529186 2:0.543414 3:0.509522 4:26.735 5:27.4429 6:29.6807 7:116.647 8:1 
0.01781472426567219 1:1.276 2:1.32019 3:1.47843 4:26.4409 5:27.2019 6:29.7611 7:92.5952 8:1 
0.02397219730984912 1:0.00165987 2:0.0114427 3:0.0133166 4:35.6698 5:36.8696 6:40.174 7:20.1117 8:1 
0.004601251194116725 1:0.141769 2:0.131445 3:0.199813 4:30.9314 5:31.7158 6:34.7828 7:4.06825 8:1 
0.01568332743903392 1:0.459771 2:0.4759 3:0.497228 4:27.4465 5:28.2465 6:30.8549 7:116.293 8:1 
0.003233270835050624 1:0.333377 2:0.344596 3:0.336634 4:29.9864 5:30.7294 6:33.7293 7:5.21568 8:1 
0.01560808047636556 1:0.637364 2:0.646483 3:0.739208 4:29.7394 5:30.6061 6:33.4717 7:96.3932 8:1 
0.01012983756384695 1:0.0893831 2:0.0920119 3:0.172628 4:28.7774 5:29.4902 6:32.255 7:9.05987 8:1 
0.02428595536108948 1:0.413855 2:0.421983 3:0.52576 4:31.861 5:32.7424 6:35.8076 7:65.5344 8:1 
0.01907538684853438 1:0.170105 2:0.169892 3:0.158878 4:32.8179 5:33.7248 6:36.9442 7:21.0105 8:1 
0.01172638814242189 1:0.00905657 2:0.0291214 3:0.0624304 4:33.0524 5:33.9301 6:37.1974 7:5.4855 8:1 
0.02120098528609005 1:0.00770283 2:0.017458 3:0.0190601 4:35.1511 5:36.3214 6:39.6201 7:11.0264 
0.005320978724998537 1:0.429049 2:0.443418 3:0.50052 4:25.1773 5:25.9531 6:28.2864 7:11.3002 
0.0006040089510105373 1:0.243996 2:0.247784 3:0.316416 4:25.8367 5:26.6649 6:28.9806 7:16.5242 
0.02361802902590653 1:0.661176 2:0.672811 3:0.659832 4:20.4546 5:21.0343 6:22.7955 7:76.3592 
0.01699651175139338 1:0.559962 2:0.592388 3:0.592494 4:25.2623 5:26.0555 6:28.3854 7:63.604 8:1 
0.003525527039083043 1:0.180583 2:0.18494 3:0.19661 4:25.2157 5:26.0033 6:28.1814 7:7.07002 
0.01582221368143984 1:0.453359 2:0.474892 3:0.532474 4:24.2313 5:24.9778 6:27.074 7:5.02077 
0.001117143191913028 1:0.397939 2:0.414131 3:0.409474 4:22.8327 5:23.519 6:25.4241 7:5.8622 
0.02716812460296364 1:5.24445 2:5.33539 3:6.10506 4:36.1233 5:37.0152 6:42.1317 7:962.008 
0.0008166282342492726 1:0.0597932 2:0.0679228 3:0.076371 4:21.7162 5:22.377 6:24.1863 7:8.52774 
0.0144527721775353 1:0.00299025 2:0.00256991 3:0.00475907 4:18.9545 5:19.4829 6:21.4191 7:11.585 
0.01320307330603227 1:0.533399 2:0.556348 3:0.656827 4:18.9973 5:19.5376 6:21.4247 7:4.57317 
0.02690925413153783 1:0.698545 2:0.73557 3:0.9399 4:27.72 5:28.5984 6:31.1292 7:2356.87 
0.02467262792260033 1:2.87534 2:2.94348 3:3.21681 4:18.0816 5:18.6294 6:20.0166 7:55.4356 
0.0131095281596213 1:1.56777 2:1.60373 3:1.706 4:18.1276 5:18.6074 6:20.3733 7:22.0531 8:1 
0.02523495777010368 1:0.74138 2:0.769707 3:0.676736 4:7.59889 5:7.7428 6:7.89638 7:23.9392 
0.003380976990435442 1:0.389785 2:0.397627 3:0.48172 4:18.737 5:19.2456 6:21.161 7:17.889 8:1 
0.01832582628170959 1:0.270847 2:0.257265 3:0.367656 4:12.7947 5:13.1759 6:13.999 7:49.3701 
0.02133276761491765 1:0.236224 2:0.239404 3:0.22157 4:18.8071 5:19.3485 6:21.2373 7:1.43342 
0.002118610288822521 1:0.563678 2:0.606612 3:0.608178 4:19.4145 5:20.0019 6:21.8939 7:5.25902 
0.02685032546882795 1:0.570663 2:0.59358 3:0.654474 4:30.4686 5:31.2579 6:33.7801 7:78.4745 8:1 
0.01643376872620875 1:0.943274 2:0.979446 3:1.12215 4:31.8067 5:32.6208 6:35.2449 7:40.317 8:1 
0.01596526380130543 1:0.2062 2:0.205132 3:0.186684 4:32.4021 5:33.2276 6:35.9505 7:18.5245 8:1 
0.01923011857731923 1:0.477925 2:0.517716 3:0.61876 4:32.1952 5:33.0198 6:35.7483 7:11.9182 8:1 
0.002847880666106306 1:0.106146 2:0.12501 3:0.140396 4:31.0471 5:31.8581 6:34.5671 7:8.08757 8:1 
0.004443172543207863 1:0.167238 2:0.194427 3:0.225928 4:29.3474 5:30.2117 6:32.6134 7:4.79046 
0.01460009364430386 1:0.0800958 2:0.0847836 3:0.0449777 4:29.5929 5:30.3953 6:32.9979 7:1.70303 8:1 
1 1:1.39776e-22 2:1.43501e-22 3:1.47644e-22 4:6.98879e-23 5:7.17505e-23 6:7.38218e-23 7:3.24751e-43 
0.00234152304488922 1:0.192628 2:0.17625 3:0.184873 4:26.4792 5:27.1968 6:29.4233 7:4.33699 8:1 
0.00100506968729408 1:0.266349 2:0.277309 3:0.332874 4:26.8578 5:27.5927 6:29.8708 7:2.68535 8:1 
0.0100185341980038 1:0.275104 2:0.299797 3:0.317873 4:27.1259 5:27.7801 6:30.3591 7:10.658 8:1 
0.008103007969425022 1:0.854435 2:0.882432 3:0.972196 4:27.9628 5:28.6753 6:31.3085 7:3.69965 8:1 
0.0008797402305522023 1:0.102425 2:0.100917 3:0.0991998 4:26.8811 5:27.5731 6:30.0959 7:2.4165 8:1 
0.01058532295375057 1:0.155843 2:0.172899 3:0.200801 4:25.9318 5:26.5923 6:29.024 7:4.96121 8:1 
0.01598209857457727 1:1.43385 2:1.50235 3:1.71845 4:24.3253 5:24.9255 6:27.1876 7:19.3782 8:1 
0.01985935006359707 1:0.613609 2:0.637903 3:0.697769 4:17.3403 5:17.7658 6:19.2113 7:82.0854 
0.008881772816506029 1:0.5037 2:0.516507 3:0.547497 4:27.9117 5:28.7304 6:30.8974 7:6.04868 
0.02593315804023927 1:0.504208 2:0.508473 3:0.537822 4:9.86769 5:10.1012 6:10.9315 7:134.363 
0.01415811292759026 1:0.838899 2:0.868165 3:0.979801 4:26.2603 5:27.0115 6:28.9502 7:13.8798 
0.02697608605395729 1:1.08202 2:1.11083 3:1.19617 4:18.5639 5:19.1409 6:20.783 7:216.222 
0.0127561397295506 1:0.494518 2:0.493499 3:0.474911 4:23.3749 5:24.058 6:25.795 7:36.08 
0.01920025906422798 1:1.80144 2:1.84356 3:1.92784 4:21.2408 5:21.8902 6:23.5906 7:47.5497 
0.01669099847256812 1:0.124757 2:0.136389 3:0.109299 4:20.1106 5:20.729 6:22.3471 7:32.7001 8:1 
0.02545749356253874 1:2.61384 2:2.69797 3:2.86338 4:17.2445 5:17.8071 6:19.3259 7:38.7688 
0.003022758114789418 1:0.60237 2:0.62965 3:0.724356 4:30.3135 5:31.2763 6:33.9373 7:3.79337 
0.007093029118141006 1:0.20015 2:0.195971 3:0.212123 4:30.4053 5:31.3592 6:34.0346 7:2.74991 
0.01637746170216464 1:0.633378 2:0.661229 3:0.526551 4:20.5683 5:21.1912 6:22.7733 7:8.1338 
0.02179510841358038 1:0.0672305 2:0.0766091 3:0.150675 4:30.1 5:31.0282 6:33.614 7:19.5803 
0.01000637055881298 1:0.565969 2:0.58899 3:0.628417 4:21.6712 5:22.321 6:23.9711 7:13.5634 
0.006543369628477957 1:0.341353 2:0.343709 3:0.280612 4:21.9967 5:22.6382 6:24.7606 7:7.465 8:1 
0.004637245223780749 1:0.198519 2:0.21103 3:0.233716 4:26.0493 5:26.8141 6:29.2319 7:10.8016 8:1 
0.005175233887535075 1:0.532565 2:0.54598 3:0.514481 4:27.3496 5:28.148 6:30.6116 7:7.65981 8:1 
0.002047124368563509 1:0.124919 2:0.135579 3:0.16931 4:26.7757 5:27.5354 6:29.9038 7:8.31005 8:1 
0.008759739728533323 1:0.0202892 2:0.040761 3:0.0355823 4:23.1963 5:23.8966 6:25.6616 7:11.3794 
0.01597459271425044 1:1.48043 2:1.54297 3:1.70198 4:21.6636 5:22.2428 6:24.1926 7:40.9319 
0.01770481821474912 1:0.215188 2:0.260863 3:0.402725 4:20.9143 5:21.4788 6:23.0118 7:155.684 
0.001812249027059454 1:0.233123 2:0.243107 3:0.258308 4:2.61328 5:2.68647 6:2.9161 7:20.2125 
0.004862808647115469 1:0.451312 2:0.490207 3:0.508039 4:20.0525 5:20.6518 6:22.5753 7:3.87817 8:1 
0.01765298031994558 1:1.07052 2:1.10156 3:1.12196 4:19.8724 5:20.4743 6:22.0315 7:81.0371 
0.01789796683399541 1:0.00419283 2:0.0102668 3:0.000435114 4:21.3149 5:21.9618 6:23.9798 7:4.13712 
0.006905872059486007 1:0.514576 2:0.542277 3:0.550431 4:12.1533 5:12.5309 6:13.6347 7:14.3588 
0.02653933715615886 1:1.55696 2:1.58904 3:1.55258 4:7.90592 5:8.09886 6:8.42844 7:175.808 
0.02703260885524217 1:0.813993 2:0.865214 3:0.995587 4:6.05618 5:6.24876 6:6.73437 7:4739.07 
0.02704499319158993 1:0.0174218 2:0.0142971 3:0.0170783 4:11.8609 5:12.2181 6:13.2915 7:4273.8 8:1 
0.02710593664649896 1:16.6738 2:17.2664 3:20.3673 4:15.8001 5:16.3381 6:19.0897 7:2934.86 
0.01869951236825163 1:0.0928979 2:0.113433 3:0.0608754 4:27.4465 5:28.2003 6:30.4537 7:1.35198 8:1 
0.02018793171923747 1:1.08529 2:1.15596 3:1.27364 4:8.11611 5:8.38195 6:9.1172 7:119.677 
0.005595986485989916 1:0.318897 2:0.341815 3:0.485785 4:26.16 5:26.8442 6:28.8347 7:8.05002 8:1 
0.01134765667029094 1:0.128585 2:0.146999 3:0.16449 4:24.6041 5:25.2363 6:26.954 7:15.9998 8:1 
0.02711134467532594 1:3.49676 2:3.61881 3:3.98199 4:26.9346 5:27.7724 6:32.0215 7:14141 
0.02699781627771991 1:0.864657 2:0.889784 3:0.952959 4:3.1158 5:3.17011 6:3.42219 7:53.203 8:1 
0.02715235784780068 1:51.0899 2:52.9235 3:63.1218 4:94.5704 5:97.7228 6:113.394 7:39646.5 
0.02715664701194742 1:77.9474 2:80.775 3:94.8039 4:121.29 5:125.406 6:145.856 7:56811.3 
0.02107013184315842 1:2.39548 2:2.46101 3:2.64424 4:16.4238 5:16.7803 6:17.8565 7:49.8766 
0.02718254780764878 1:6.32766 2:6.53535 3:7.54346 4:12.2602 5:12.5835 6:13.8043 7:16286.8 
0.02719063328741617 1:40.7024 2:42.036 3:47.7802 4:322.289 5:333.68 6:388.567 7:75377.4 
0.003457892355768211 1:0.271276 2:0.269942 3:0.248297 4:9.69795 5:9.89377 6:10.8117 7:3.73398 
0.02719828643714772 1:2.81511 2:2.92127 3:3.12461 4:68.6497 5:70.9356 6:83.1501 7:66195.2 
0.006849914395319556 1:0.932556 2:0.948931 3:0.909365 4:6.00892 5:6.1331 6:6.01064 7:15.9326 
0.02661564536086741 1:0.25097 2:0.272616 3:0.19787 4:7.81315 5:7.99929 6:8.25873 7:58.905 
0.02721461887691168 1:3.40598 2:3.52718 3:3.71611 4:18.113 5:18.5327 6:19.5731 7:335.936 
0.02745926659048498 1:2.06236 2:2.12446 3:2.17495 4:10.8764 5:11.1013 6:11.7975 7:199.599 
0.02050865742196796 1:0.492018 2:0.497469 3:0.468665 4:2.49972 5:2.56081 6:2.69032 7:42.338 
0.01873306451372853 1:1.0018 2:1.04221 3:1.11027 4:12.3851 5:12.7256 6:13.588 7:30.1828 
0.02060166314510808 1:1.14214 2:1.1703 3:1.177 4:2.44811 5:2.49584 6:2.55014 7:33.6197 
1 
0.01069273434304654 1:0.0859708 2:0.0832279 3:0.0541346 4:14.3087 5:14.6855 6:15.7973 7:15.2802 
0.008195798611666243 1:0.0577559 2:0.0692823 3:0.0567276 4:15.3123 5:15.7177 6:16.9173 7:4.95899 8:1 
0.02644612817657701 1:0.307791 2:0.298261 3:0.190089 4:19.5526 5:20.08 6:21.4754 7:60.73 
0.01233358762262093 1:0.423354 2:0.459426 3:0.522873 4:19.8924 5:20.4151 6:22.0362 7:83.7792 
0.005178052038825054 1:1.75851 2:1.81604 3:1.85703 4:3.85877 5:3.9829 6:4.02748 7:16.8939 
0.02655858420030296 1:1.22017 2:1.25986 3:1.33872 4:7.33942 5:7.53966 6:8.13175 7:66.9939 
0.0103106977150121 1:0.634243 2:0.658345 3:0.699054 4:15.735 5:16.1649 6:17.46 7:2.46166 8:1 
0.02717615255066569 1:3.37825 2:3.49748 3:3.74147 4:15.7341 5:16.2063 6:17.8293 7:1263.22 
0.02435071277602924 1:0.693693 2:0.692963 3:0.82071 4:15.5106 5:15.8964 6:17.4866 7:84.564 8:1 
0.005117616417048733 1:0.341835 2:0.35098 3:0.395927 4:7.69008 5:7.8338 6:8.73866 7:13.584 8:1 
1 1:0.227492 2:0.23554 3:0.241889 4:0.113746 5:0.11777 6:0.120945 7:0.873794 
0.02718755708510029 1:8.48488 2:8.70208 3:9.34543 4:21.5141 5:22.1584 6:24.6241 7:8625.51 
1 1:7.49627e-24 2:7.56368e-24 3:7.05817e-24 4:3.74813e-24 5:3.78184e-24 6:3.52909e-24 7:7.00649e-46 
1 1:2.07401e-36 2:2.16534e-36 3:2.34187e-36 4:1.03859e-36 5:1.08431e-36 6:1.17275e-36 7:0.0553579 
0.02676595524769759 1:0.216072 2:0.205907 3:0.218109 4:1.29075 5:1.27978 6:1.35314 7:4135.99 
0.02724694259475929 1:1.21845 2:1.25681 3:1.40725 4:25.3793 5:26.1097 6:28.4758 7:47480.4 
0.02724985743790415 1:26.8579 2:27.8046 3:32.6694 4:581.477 5:600.937 6:700.118 7:51360 
0.01147799899483835 1:0.0800784 2:0.087945 3:0.112375 4:13.1696 5:13.5122 6:14.7046 7:2.04388 8:1 
0.02724867077193732 1:28.6514 2:29.5401 3:34.1025 4:164.107 5:169.269 6:191.238 7:47768.9 
0.02703075025543417 1:28.3984 2:29.4063 3:34.7843 4:584.261 5:603.864 6:705.109 7:129898 
0.02723210532234271 1:0.35017 2:0.316148 3:0.274649 4:34.867 5:35.6808 6:38.0531 7:633.071 
0.1977828787978388 1:0.304992 2:0.317974 3:0.354628 4:0.646633 5:0.654617 6:0.683566 7:10.3088 
0.02701660586803761 1:2.03344 2:2.12198 3:2.46928 4:6.48034 5:6.67701 6:7.74455 7:389.419 
0.001094423429613056 1:0.118169 2:0.125363 3:0.130621 4:6.55831 5:6.66878 6:7.43848 7:6.90825 
0.02699762135063005 1:10.7905 2:11.1257 3:13.2235 4:148.409 5:153.518 6:177.737 7:70386.3 
0.02698799267009439 1:9.72906 2:10.073 3:11.6498 4:29.3064 5:30.2319 6:34.5412 7:888.094 
0.02724985743790415 1:0.767431 2:0.787412 3:0.7586 4:9.11555 5:9.25295 6:10.0718 7:584.911 
0.0273088356199141 1:38.4986 2:39.7309 3:46.609 4:31.1733 5:32.0311 6:36.4629 7:23017.9 
0.0267992431974311 1:89.7921 2:93.0134 3:108.805 4:86.5078 5:89.5754 6:104.123 7:38785.3 
0.02679094807519411 1:109.156 2:112.705 3:132.975 4:481.178 5:496.142 6:581.496 7:255072 
0.02705980840989208 1:132.725 2:136.86 3:161.336 4:406.738 5:419.307 6:491.435 7:189098 
0.02701520590167744 1:2.90983 2:2.96523 3:3.18451 4:5.13355 5:5.20651 6:5.5241 7:74.1025 
0.02717834200834807 1:2.70568 2:2.82878 3:4.44403 4:378.724 5:391.55 6:453.617 7:99890 
0.02722308080719271 1:22.0474 2:22.7559 3:25.9076 4:20.1198 5:20.6561 6:23.1005 7:3327.06 
0.02724686337393717 1:42.2873 2:43.8947 3:50.8505 4:263.481 5:272.528 6:313.021 7:62280.9 
0.02704149943259904 1:1.2175 2:1.26014 3:1.1851 4:3.13832 5:3.20036 6:3.18086 7:15157.8 
0.02704873705786948 1:24.3212 2:25.2912 3:29.4576 4:105.743 5:109.251 6:123.793 7:37223.4 
0.02717178271648441 1:0.917541 2:0.921386 3:0.860797 4:17.6061 5:18.0166 6:18.1923 7:234.041 
0.1445850597777363 1:0.712047 2:0.735099 3:0.740377 4:0.356024 5:0.367549 6:0.370188 7:15.235 
0.02693728950197409 1:0.279505 2:0.308264 3:0.462453 4:10.0444 5:10.2726 6:11.2354 7:110.088 
0.006059611250818039 1:0.693367 2:0.715196 3:0.782019 4:10.9182 5:11.1738 6:12.2768 7:6.27278 
0.01637623047061867 1:0.210098 2:0.218269 3:0.229601 4:11.3283 5:11.5909 6:12.76 7:1.39785 8:1 
0.007103422646993009 1:0.108049 2:0.112051 3:0.114956 4:6.58278 5:6.66128 6:7.48142 7:4.42837 
0.02700841462221232 1:28.9376 2:29.8903 3:35.419 4:111.48 5:115.18 6:135.019 7:48751.9 
0.02701403329325153 1:2.07636 2:2.14043 3:2.93883 4:314.409 5:324.94 6:382.331 7:207327 
0.01310612105341668 1:0.85227 2:0.895677 3:0.958732 4:11.6384 5:11.8825 6:12.8419 7:24.6985 
0.02251249352066456 1:1.02437 2:1.04927 3:1.16296 4:2.79881 5:2.85673 6:3.14556 7:24.0942 
0.02701448939018491 1:1.04271 2:1.08302 3:1.20444 4:5.68017 5:5.80439 6:6.1987 7:9238.16 
0.003914978545137128 1:0.0208727 2:0.0231812 3:0.0522174 4:11.3627 5:11.5269 6:12.6364 7:4.23221 8:1 
0.001848374814558077 1:0.074973 2:0.0754628 3:0.069402 4:10.9489 5:11.0999 6:12.1524 7:6.24529 8:1 
0.003515542848148053 1:0.0104983 2:0.00152957 3:0.0059222 4:13.6387 5:13.8507 6:15.1117 7:7.93198 8:1 
0.01418556791798905 1:0.100324 2:0.108362 3:0.141121 4:14.7927 5:15.1632 6:16.2444 7:1.05951 8:1 
0.02676595524769748 1:33.6555 2:34.8053 3:41.0889 4:19.0317 5:19.5616 6:22.9263 7:19045.6 
0.003618003922468452 1:0.374127 2:0.39378 3:0.291686 4:4.13709 5:4.20618 6:4.42068 7:14.0008 
0.007701954801816931 1:0.0872357 2:0.0925343 3:0.0732892 4:5.20699 5:5.27026 6:5.97432 7:7.74075 
0.02718713466857947 1:27.0294 2:27.9527 3:33.6216 4:172.82 5:178.714 6:211.557 7:105636 
0.02692456356050427 1:31.5972 2:32.7067 3:39.0564 4:35.9346 5:37.095 6:41.7591 7:1152.48 
0.0269089416823714 1:10.9134 2:11.1857 3:12.7168 4:136.048 5:140.697 6:164.159 7:43540.9 
0.008694678029902923 1:0.979952 2:1.01986 3:1.02651 4:12.9651 5:13.1298 6:14.4472 7:6.03629 8:1 
0.02748339320436521 1:12.7778 2:13.2561 3:15.1313 4:68.1528 5:70.4564 6:82.2074 7:29474.3 
0.02619772572166013 1:1.9345 2:1.97391 3:2.16339 4:2.62024 5:2.65607 6:2.94964 7:64.5446 
0.01819367280760903 1:0.46163 2:0.463205 3:0.593885 4:3.84454 5:3.91648 6:4.24343 7:33.7541 
0.001883470562776879 1:0.00998425 2:0.00982988 3:0.0183316 4:14.4742 5:14.5808 6:15.78 7:13.1903 8:1 
0.02730407171501639 1:4.407 2:4.55274 3:4.67338 4:17.3057 5:17.7012 6:18.7803 7:122.743 
0.004776749295781754 1:0.123344 2:0.128093 3:0.142846 4:13.7573 5:13.8369 6:15.0398 7:12.246 8:1 
0.02747281265625956 1:9.20007 2:9.46252 3:10.6731 4:23.3313 5:24.0752 6:27.7384 7:1999.06 
0.02743257233751595 1:18.4453 2:19.1411 3:22.5019 4:15.1224 5:15.6252 6:17.7792 7:3458.61 
1 1:0.000141618 2:4.05549e-05 3:0.00072941 4:0.00453423 5:0.00433793 6:0.00473173 7:0.000583323 8:1 
0.02739119933793971 1:5.1779 2:5.36908 3:6.35874 4:3.13574 5:3.24204 6:3.74862 7:5117.64 
0.02739102883345768 1:16.7796 2:17.3363 3:20.0394 4:25.2222 5:26.0992 6:30.1928 7:7401.47 
0.02738279336207305 1:13.0261 2:13.4323 3:15.4105 4:9.78003 5:10.0798 6:11.6122 7:882.235 
0.02736511331218794 1:53.8083 2:55.6378 3:65.0609 4:100.978 5:104.372 6:121.512 7:38145.6 
0.02700759807353292 1:1.31669 2:1.38921 3:1.76496 4:4.81002 5:4.94499 6:5.39285 7:166.492 
0.02722046912074033 1:0.186365 2:0.191801 3:0.205923 4:0.595199 5:0.60498 6:0.68885 7:18155.6 
0.002161668648515987 1:0.0549966 2:0.0607238 3:0.0593709 4:11.4977 5:11.5616 6:12.9464 7:6.71616 8:1 
0.02058766690674383 1:1.53216 2:1.56882 3:1.61632 4:1.5949 5:1.63009 6:1.72921 7:40.5663 
0.009965755764924157 1:0.830777 2:0.848706 3:0.841747 4:14.428 5:14.5152 6:15.8221 7:21.3232 8:1 
0.001574761729579019 1:0.1416 2:0.148744 3:0.13546 4:13.9096 5:13.9851 6:15.2731 7:13.5977 8:1 
0.008441235560593572 1:1.16513 2:1.18988 3:1.22069 4:14.5116 5:14.6002 6:15.9385 7:17.1726 8:1 
0.008685663530925036 1:1.12062 2:1.1366 3:1.12239 4:9.49106 5:9.56221 6:10.631 7:8.01391 8:1 
0.006154287354305702 1:0.0148907 2:0.0216424 3:0.0354376 4:9.8168 5:9.88279 6:11.0499 7:8.98649 
0.002308854865861833 1:0.350426 2:0.349822 3:0.36687 4:14.9404 5:15.0194 6:16.4794 7:16.9313 8:1 
0.007469102857183471 1:0.772978 2:0.801147 3:0.857418 4:10.1598 5:10.3087 6:11.4047 7:2.3267 8:1 
0.004576071121852979 1:0.938792 2:0.972327 3:0.960346 4:11.2235 5:11.2718 6:12.7377 7:11.572 8:1 
0.008418162802061313 1:1.16716 2:1.19385 3:1.15479 4:12.202 5:12.2554 6:13.8553 7:9.27139 8:1 
0.01428975446882325 1:0.8412 2:0.868652 3:0.9041 4:15.5757 5:15.6488 6:17.206 7:20.1746 8:1 
0.002771117179477567 1:1.05168 2:1.06975 3:1.11527 4:10.2419 5:10.2912 6:11.6251 7:15.6791 8:1 
0.0120923835912093 1:1.58284 2:1.64304 3:1.67217 4:16.4021 5:16.4956 6:18.1631 7:13.4189 8:1 
0.0145721681028979 1:0.0646534 2:0.0709362 3:0.0461433 4:16.7506 5:16.8568 6:18.563 7:10.7729 8:1 
0.00328641491418663 1:1.1629 2:1.19386 3:1.24179 4:18.8337 5:18.9843 6:20.8395 7:12.6811 8:1 
0.01318098519696511 1:1.61014 2:1.67709 3:1.72436 4:19.25 5:19.4075 6:21.2949 7:14.7102 8:1 
0.0064565349389912 1:0.434027 2:0.427548 3:0.456046 4:18.0794 5:18.2187 6:19.9863 7:13.2499 8:1 
0.003272904546973793 1:0.957322 2:0.987194 3:1.00848 4:20.0698 5:20.2538 6:22.2086 7:21.7734 8:1 
0.002027869856225161 1:0.133982 2:0.145045 3:0.176507 4:6.62625 5:6.7808 6:7.57229 7:9.59255 8:1 
0.00211974287927985 1:0.389328 2:0.402107 3:0.418244 4:8.47687 5:8.6902 6:9.77669 7:9.00078 8:1 
0.004990256319546521 1:0.317486 2:0.32813 3:0.357877 4:19.6865 5:19.8712 6:21.8535 7:17.8635 8:1 
0.002587963960603012 1:0.488944 2:0.509777 3:0.505419 4:19.4015 5:19.5563 6:21.5389 7:11.6395 8:1 
0.008148433572023661 1:0.0328469 2:0.0305221 3:0.0461373 4:20.3888 5:20.5764 6:22.5164 7:25.609 8:1 
0.01815108928457787 1:0.270129 2:0.2762 3:0.254248 4:1.33832 5:1.34923 6:1.62764 7:20.2576 8:1 
0.00572798598279084 1:0.501107 2:0.512413 3:0.593826 4:19.9003 5:20.0935 6:21.9954 7:20.0446 8:1 
0.0149937638421193 1:0.126538 2:0.117358 3:0.12156 4:17.789 5:17.9631 6:19.6054 7:27.5996 8:1 
0.01123074628825143 1:0.0696797 2:0.0692186 3:0.06269 4:15.9223 5:16.0591 6:17.6156 7:34.5039 8:1 
0.01770226238238037 1:1.17042 2:1.22211 3:1.34377 4:13.5669 5:13.6738 6:15.0684 7:32.9871 8:1 
0.004490621902561673 1:0.311494 2:0.335638 3:0.397989 4:12.8433 5:12.9693 6:14.3644 7:19.8907 8:1 
0.01334908380692407 1:1.26263 2:1.28519 3:1.44273 4:6.85401 5:6.96869 6:7.89133 7:17.5976 8:1 
0.008623096497111495 1:1.21086 2:1.24976 3:1.35063 4:11.2536 5:11.3683 6:12.6444 7:15.2466 8:1 
0.0123071911578363 1:1.60227 2:1.64064 3:1.70652 4:10.8729 5:10.9916 6:12.3591 7:28.4426 8:1 
0.008518093740998434 1:0.463992 2:0.464838 3:0.46538 4:7.83601 5:7.96359 6:9.05655 7:12.7791 8:1 
0.0052050432607883 1:0.0800626 2:0.0819124 3:0.0538983 4:11.6794 5:11.8262 6:13.2614 7:20.2638 8:1 
0.02478726436440187 1:1.56906 2:1.60923 3:1.73455 4:14.8097 5:15.0265 6:16.6368 7:25.5225 8:1 
0.006074660113507656 1:0.124593 2:0.131778 3:0.10032 4:4.48755 5:4.50975 6:5.24244 7:5.02777 8:1 
0.01172835855878657 1:0.725349 2:0.756274 3:0.795952 4:10.0871 5:10.2298 6:11.7241 7:26.8471 8:1 
0.004128892695128481 1:0.246516 2:0.247118 3:0.259861 4:14.983 5:15.2153 6:16.828 7:19.1186 8:1 
0.01773227153469473 1:0.055027 2:0.0571053 3:0.0342722 4:9.92046 5:10.0598 6:11.5483 7:19.9156 8:1 
0.01477765390890156 1:1.52763 2:1.54536 3:1.55614 4:18.0865 5:18.3742 6:20.203 7:18.5187 8:1 
0.002761333282387868 1:0.00562501 2:0.00440693 3:0.022823 4:10.292 5:10.4546 6:11.9645 7:17.3685 8:1 
0.02378490388511639 1:0.372404 2:0.391865 3:0.479009 4:19.0363 5:19.3465 6:21.3266 7:36.1022 8:1 
0.01335939624067206 1:0.415266 2:0.424497 3:0.449952 4:19.8376 5:20.1562 6:22.1693 7:27.9811 8:1 
0.01750582747248004 1:1.06621 2:1.08417 3:1.01719 4:22.07 5:22.2342 6:24.6371 7:37.1685 8:1 
0.004703445692727293 1:0.678885 2:0.724396 3:0.875008 4:23.1887 5:23.4005 6:25.926 7:33.9006 8:1 
0.004012151356316163 1:0.468807 2:0.489918 3:0.575559 4:9.32827 5:9.49759 6:10.8414 7:11.5832 8:1 
0.0094860480831922 1:1.25758 2:1.29643 3:1.42249 4:22.2477 5:22.4154 6:24.9427 7:19.909 8:1 
0.01243735950125335 1:1.52044 2:1.55601 3:1.5853 4:20.7993 5:21.1117 6:23.3645 7:16.7621 8:1 
0.01370873908220865 1:0.0849257 2:0.0866296 3:0.0582056 4:21.7187 5:22.0416 6:24.3963 7:17.3357 8:1 
0.006066208399152296 1:0.113304 2:0.126608 3:0.123137 4:21.8715 5:22.2037 6:24.668 7:21.8927 8:1 
0.003799296232260198 1:0.209546 2:0.240523 3:0.1614 4:22.098 5:22.4329 6:24.9357 7:26.1805 8:1 
0.001432358465343701 1:0.225071 2:0.264409 3:0.520798 4:22.0826 5:22.264 6:25.0407 7:32.0945 8:1 
0.004558626369184571 1:0.75768 2:0.773244 3:0.774832 4:9.00992 5:9.09272 6:10.477 7:4.62472 8:1 
0.005029226652880081 1:1.2851 2:1.3106 3:1.33953 4:11.4388 5:11.6356 6:12.8088 7:7.69606 8:1 
0.008656777006536109 1:1.18373 2:1.20711 3:1.20777 4:11.0794 5:11.3106 6:12.7603 7:17.8841 8:1 
0.003646468616724519 1:0.653266 2:0.667809 3:0.67445 4:9.60033 5:9.71579 6:11.3506 7:11.1547 8:1 
0.001184039218120213 1:0.0696539 2:0.0634335 3:0.053515 4:12.3923 5:12.5743 6:13.8312 7:10.0487 8:1 
0.001715026118972711 1:0.0567333 2:0.0567027 3:0.0427883 4:12.6781 5:12.8554 6:14.1622 7:7.47551 8:1 
0.009189267427863967 1:0.0361784 2:0.0315025 3:0.0324814 4:19.7679 5:20.2226 6:22.4138 7:14.4487 8:1 
0.01189633888690411 1:0.0497775 2:0.0499456 3:0.06815 4:15.8347 5:16.202 6:18.0787 7:14.1024 8:1 
0.001476469713921014 1:0.516422 2:0.52244 3:0.467265 4:21.4324 5:21.9341 6:24.2346 7:14.2296 8:1 
0.01643048121820142 1:0.0401301 2:0.0307069 3:0.0557518 4:24.4807 5:24.8772 6:27.6427 7:29.4281 8:1 
0.009551900892417897 1:1.20043 2:1.23099 3:1.27137 4:22.8155 5:23.3423 6:25.7285 7:13.5845 8:1 
0.01343511229837119 1:0.102 2:0.120868 3:0.0709021 4:17.8745 5:18.2895 6:20.3079 7:20.8411 8:1 
0.01503524165826204 1:1.73264 2:1.78337 3:1.78483 4:23.9299 5:24.4967 6:26.8952 7:11.4528 8:1 
0.01286406085718401 1:1.88016 2:1.94016 3:2.10213 4:22.1305 5:22.3435 6:25.2114 7:23.936 8:1 
0.001392970685500605 1:1.19338 2:1.22373 3:1.24196 4:24.0304 5:24.4265 6:27.3523 7:21.7708 8:1 
0.00766393400080582 1:0.000424862 2:0.00269389 3:0.0247934 4:24.2059 5:24.7666 6:27.158 7:9.77606 8:1 
0.009002507908992305 1:0.13227 2:0.15609 3:0.355315 4:22.2701 5:22.4828 6:25.6008 7:30.0145 8:1 
0.005862432459787733 1:0.22926 2:0.256088 3:0.27107 4:24.4462 5:24.859 6:27.8458 7:14.7827 8:1 
0.002349278925196542 1:1.41049 2:1.43804 3:1.4685 4:23.205 5:23.4792 6:26.7601 7:26.4109 8:1 
0.002593449256199531 1:0.767623 2:0.806375 3:0.926447 4:24.2701 5:24.6934 6:27.7936 7:17.2832 8:1 
0.00435297170574157 1:0.324054 2:0.311877 3:0.325498 4:22.271 5:22.52 6:25.6742 7:26.9063 8:1 
0.007936479281744957 1:0.115308 2:0.147559 3:0.127629 4:24.3802 5:24.7072 6:28.0456 7:31.4588 8:1 
0.01086461542924882 1:1.1561 2:1.19949 3:1.50954 4:22.47 5:22.7348 6:25.968 7:32.2442 8:1 
0.0186426261795055 1:0.431017 2:0.442716 3:0.636718 4:24.5154 5:24.8585 6:28.2887 7:37.5656 8:1 
0.01139353024441109 1:0.0451708 2:0.0475793 3:0.0205517 4:23.6691 5:24.0872 6:27.176 7:20.0485 8:1 
0.0175733468419522 1:1.62155 2:1.69488 3:1.80501 4:23.9656 5:24.3003 6:27.7302 7:24.9369 8:1 
0.007642802684633354 1:0.830452 2:0.838825 3:0.980837 4:25.789 5:26.1967 6:29.868 7:36.2602 8:1 
0.02149014374030006 1:2.62125 2:2.69343 3:2.91159 4:25.9293 5:26.3408 6:29.8882 7:33.0556 8:1 
0.006776448721022364 1:0.802827 2:0.815364 3:0.857509 4:24.1699 5:24.7207 6:27.1128 7:7.65369 8:1 
0.003404195427496155 1:0.0101192 2:0.0161186 3:0.00469625 4:10.5046 5:10.6653 6:12.5777 7:8.7591 8:1 
0.0009070307807393743 1:0.111574 2:0.112091 3:0.109152 4:24.5518 5:25.1191 6:27.5228 7:12.0547 8:1 
0.002734851218963653 1:1.31246 2:1.34834 3:1.37219 4:14.0312 5:14.2201 6:15.706 7:10.7758 8:1 
0.0171765525300968 1:2.02912 2:2.0699 3:2.08777 4:14.7332 5:14.936 6:16.4814 7:12.0021 8:1 
0.002246425915306725 1:0.00720441 2:0.000580788 3:0.0149319 4:15.029 5:15.2355 6:16.8748 7:9.61012 8:1 
0.001659658822677027 1:0.0706718 2:0.0819025 3:0.141627 4:21.5452 5:21.9321 6:25.0491 7:24.3701 8:1 
0.01421733578294943 1:1.0885 2:1.12077 3:1.37693 4:26.0267 5:26.4515 6:30.1937 7:31.088 8:1 
0.0066913049991345 1:1.65306 2:1.69886 3:1.79713 4:22.0749 5:22.4879 6:25.4978 7:28.4797 8:1 
0.01594127035292781 1:0.656491 2:0.661424 3:0.832852 4:26.9459 5:27.3882 6:31.1189 7:37.3798 8:1 
0.002752230397844113 1:0.0978513 2:0.100028 3:0.0884571 4:21.3126 5:21.7125 6:24.7204 7:25.3183 8:1 
0.01623848960214187 1:0.399752 2:0.443583 3:0.576104 4:28.6842 5:29.1738 6:33.0762 7:40.0137 8:1 
0.01341970391481166 1:2.01052 2:2.04975 3:2.10346 4:20.9557 5:21.3505 6:24.2754 7:27.6377 8:1 
0.01470680472595292 1:2.05847 2:2.1264 3:2.24355 4:27.9214 5:28.4065 6:32.3109 7:40.0836 8:1 
0.004959616972445427 1:1.12045 2:1.15592 3:1.12651 4:20.2215 5:20.6064 6:23.4924 7:24.1126 8:1 
0.01668345224068563 1:2.11351 2:2.15739 3:2.25576 4:29.4881 5:30.0059 6:33.9626 7:41.0336 8:1 
0.02283068192955517 1:1.14357 2:1.19681 3:1.54982 4:28.5341 5:29.0489 6:32.9135 7:25.7978 8:1 
0.01713853809529031 1:1.72532 2:1.79842 3:1.83638 4:20.1559 5:20.5644 6:23.4953 7:31.6887 8:1 
0.02525526344086962 1:0.168323 2:0.151532 3:0.182981 4:31.1962 5:31.7784 6:35.873 7:36.1956 8:1 
0.02217584865259487 1:1.01572 2:1.04623 3:1.09059 4:30.4429 5:30.9939 6:34.9798 7:29.86 8:1 
0.02542255576025976 1:0.551681 2:0.546082 3:0.566764 4:32.8395 5:33.5001 6:37.8576 7:52.6228 8:1 
0.004487973033497368 1:0.551567 2:0.601833 3:0.562052 4:20.8653 5:21.3076 6:24.316 7:21.28 8:1 
0.01741965330024503 1:0.859437 2:0.86587 3:0.853879 4:32.4694 5:33.1111 6:37.349 7:45.8817 8:1 
0.02122993856009608 1:2.21111 2:2.2513 3:2.31671 4:32.5602 5:33.214 6:37.486 7:49.3061 8:1 
0.002463106993261409 1:0.523428 2:0.523517 3:0.514683 4:20.8038 5:21.2525 6:24.4028 7:20.082 8:1 
0.01988159809660411 1:1.0526 2:1.07676 3:1.21538 4:32.9082 5:33.5686 6:37.8873 7:40.7661 8:1 
0.02726375473070347 1:0.414861 2:0.41715 3:0.256361 4:36.2952 5:36.8855 6:41.4677 7:80.4719 8:1 
0.02677044783541727 1:0.439161 2:0.445973 3:0.142359 4:8.37876 5:8.50853 6:2.71243 7:57.9492 
0.01203343297964997 1:0.23871 2:0.242482 3:0.0789454 4:6.82904 5:6.93497 6:2.21426 7:6.02148 
0.02724719907213208 1:47.5228 2:50 3:54.4377 4:118.807 5:125 6:136.094 7:84375 8:1 
0.02708542182164619 1:2.38959 2:2.43905 3:1.0528 4:6.23413 5:6.37011 6:2.90246 7:193.268 
0.02223661950411115 1:0.383676 2:0.393855 3:0.219206 4:14.7747 5:15.0502 6:5.83169 7:18.4679 
0.01133697135455769 1:0.0259806 2:0.0263838 3:0.00845173 4:5.78846 5:5.87792 6:1.86961 7:3.16119 
1 1:0.0824213 2:0.0836947 3:0.0266114 4:0.160657 5:0.163139 6:0.0518714 7:0.273247 
0.02273399572854874 1:0.251256 2:0.255011 3:0.0783081 4:11.1507 5:11.3259 6:3.66546 7:7.05954 
0.02724803308596102 1:1.91357 2:1.96227 3:1.0469 4:16.8639 5:17.1803 6:6.69748 7:714.032 
0.02677091921150426 1:0.756497 2:0.769382 3:0.271101 4:16.7007 5:17.0521 6:7.48771 7:126.442 
0.01085760131921237 1:0.113908 2:0.115702 3:0.0375794 4:15.1977 5:15.4329 6:4.91518 7:1.02804 
0.001523357271794438 1:0.0647367 2:0.0657701 3:0.0216624 4:7.82689 5:7.94871 6:2.54727 7:1.08351 
0.0269971857487793 1:0.50304 2:0.527333 3:0.533024 4:70.2676 5:71.8964 6:34.8695 7:26.22 
0.02258692073978018 1:0.0220928 2:0.0213623 3:0.0168686 4:65.4437 5:67.0675 6:34.8727 7:17.0008 
0.02195170400029223 1:0.151274 2:0.159161 3:0.173485 4:63.0794 5:64.7246 6:35.4084 7:18.0634 
0.02424282507658843 1:0.160759 2:0.164432 3:0.0787158 4:60.7257 5:62.3733 6:35.5183 7:9.90783 8:1 
0.02617370537661967 1:0.254264 2:0.266006 3:0.257141 4:57.3579 5:58.9487 6:34.3228 7:8.53692 
0.02110429518621032 1:0.0689802 2:0.0708084 3:0.0394521 4:53.1459 5:54.6303 6:32.0369 7:9.5457 
0.02681098359431133 1:0.0811882 2:0.0851994 3:0.0880435 4:48.7208 5:50.0745 6:29.2098 7:5.72678 
0.01808853695017368 1:0.263709 2:0.275069 3:0.248511 4:44.5767 5:45.8055 6:26.5067 7:5.7996 
0.02682970730376932 1:0.0965858 2:0.100307 3:0.0813661 4:40.5627 5:41.6601 6:23.6531 7:3.77935 8:1 
0.008227613901022775 1:0.0025959 2:0.00263697 3:0.000842482 4:6.23579 5:6.33216 6:2.01395 7:0.0947196 
0.01842181222975886 1:0.0383525 2:0.0413504 3:0.0663571 4:34.2651 5:35.1533 6:19.1111 7:2.34297 
0.01048443499155472 1:0.86621 2:0.880511 3:0.300276 4:6.98509 5:7.09394 6:2.2761 7:5.3273 
0.02747600891717555 1:0.121151 2:0.126243 3:0.111253 4:37.1224 5:38.1069 6:21.2015 7:63.2424 
0.01396369563367327 1:0.0451188 2:0.0452766 3:0.0024519 4:32.15 5:32.974 6:17.7209 7:2.38742 
0.01124154173139019 1:0.183436 2:0.189205 3:0.125056 4:30.042 5:30.801 6:16.3136 7:2.3321 8:1 
0.01274233667305501 1:0.0148594 2:0.0163999 3:0.0342934 4:28.2831 5:28.9869 6:15.1168 7:1.70965 
0.008684445338079775 1:0.00856078 2:0.00869441 3:0.00277066 4:6.27486 5:6.37183 6:2.02642 7:0.0382088 8:1 
0.008681553307542902 1:0.0649881 2:0.0673163 3:0.0508018 4:26.6483 5:27.3017 6:14.0248 7:1.92401 8:1 
0.01323819242446809 1:0.13378 2:0.138141 3:0.0946286 4:25.0026 5:25.6069 6:12.961 7:1.2437 
0.01113032002047701 1:0.0921717 2:0.0955427 3:0.0735102 4:22.7146 5:23.2511 6:11.4954 7:1.19938 
0.006330671415032086 1:0.063282 2:0.0653574 3:0.0450288 4:20.5967 5:21.0675 6:10.0713 7:1.40917 8:1 
0.02724867077193749 1:0.102148 2:0.120187 3:0.402212 4:44.5659 5:45.6956 6:24.2841 7:1856.38 
0.02441589446120046 1:0.126372 2:0.130684 3:0.0937786 4:16.9459 5:17.3002 6:7.54632 7:6.98772 
0.0267557877514461 1:1.73908 2:1.81457 3:1.65208 4:16.3297 5:16.9314 6:13.1091 7:982.868 
0.02723395173482168 1:0.562963 2:0.590424 3:0.602304 4:80.1667 5:82.5313 6:51.1401 7:12.6243 
0.006989386659707315 1:0.338134 2:0.344222 3:0.128566 4:12.6795 5:12.8832 6:4.27024 7:3.66875 
0.02128748525329932 1:0.101364 2:0.104536 3:0.0687509 4:15.6978 5:16.0031 6:6.47508 7:15.4796 
0.02664933084162135 1:0.184365 2:0.189132 3:0.102822 4:68.4736 5:70.5826 6:45.6842 7:10.9099 
0.02536262693020087 1:0.118036 2:0.125991 3:0.175433 4:59.6636 5:61.4974 6:39.7189 7:8.56081 
0.02007000524347149 1:0.0589259 2:0.0605427 3:0.0348964 4:14.3494 5:14.6065 6:5.42815 7:6.4127 
0.02122415118868115 1:0.209111 2:0.21805 3:0.195392 4:51.245 5:52.8013 6:33.6957 7:8.75638 
0.01872586657080807 1:0.356996 2:0.370955 3:0.304635 4:43.4227 5:44.7127 6:27.908 7:7.19431 
0.02702911607253294 1:0.0567532 2:0.0593181 3:0.056159 4:36.3241 5:37.3802 6:22.829 7:112.811 
0.00806465563637692 1:0.000304699 2:0.000311255 3:0.000111461 4:14.0851 5:14.3134 6:4.78761 7:0.000186306 8:1 
0.001254471194073637 1:0.00310671 2:0.00257218 3:0.00546622 4:10.1416 5:8.38784 6:17.8421 7:0.040624 8:1 
0.02048045497420881 1:0.0120295 2:0.0161276 3:0.0259789 4:5.79882 5:4.90038 6:9.40515 7:10.2212 
0.01064622730913862 1:0.0288482 2:0.0293851 3:0.0113385 4:32.6571 5:33.5815 6:19.9607 7:2.57675 
0.01140273778305179 1:0.0274379 2:0.0288572 3:0.0310907 4:28.9953 5:29.7878 6:17.0887 7:2.32327 8:1 
0.009751468376326207 1:0.0549159 2:0.0566974 3:0.0386367 4:25.6831 5:26.357 6:14.5088 7:1.73452 8:1 
0.01091906038852303 1:0.215897 2:0.223224 3:0.15919 4:22.7626 5:23.331 6:12.2114 7:1.29299 8:1 
0.02701536854965231 1:5.84848 2:6.05637 3:4.52445 4:35.0463 5:36.2324 6:25.7759 7:1062.39 
0.01314677954449506 1:0.150668 2:0.155144 3:0.0968786 4:20.4265 5:20.9093 6:10.3456 7:1.28119 8:1 
0.01959540615438959 1:0.161221 2:0.164503 3:0.0697491 4:18.4107 5:18.8199 6:8.74167 7:2.42864 
0.02696885146756656 1:0.00302708 2:0.00308084 3:0.00111824 4:12.4933 5:12.6912 6:4.14201 7:29.9819 
0.001083314977212757 1:3.31402e-05 2:2.75373e-05 3:9.45926e-05 4:12.4955 5:12.6935 6:4.14549 7:0.000880504 8:1 
0.0182121120871756 1:0.129165 2:0.132637 3:0.0748668 4:16.1321 5:16.4693 6:7.17999 7:1.39815 8:1 
0.0007045021208311741 1:0.00326478 2:0.00337219 3:0.00233996 4:14.4771 5:14.7512 6:5.80648 7:0.467389 8:1 
0.009430598654423313 1:0.0306054 2:0.0253248 3:0.0538127 4:10.2031 5:8.43878 6:17.95 7:0.0378967 
0.009001904385205104 1:0.00659764 2:0.00686085 3:0.00573385 4:12.8098 5:13.0227 6:4.4721 7:4.35268 8:1 
0.001666038037366562 1:0.0028888 2:0.00240368 3:0.00504005 4:8.99084 5:7.43668 6:15.816 7:0.0887257 8:1 
0.0156625576198875 1:0.0534604 2:0.0441989 3:0.0940992 4:7.66522 5:6.34069 6:13.4827 7:2.22884 8:1 
0.007395273471662023 1:0.00763154 2:0.00776136 3:0.00270486 4:10.9487 5:11.1201 6:3.58506 7:0.0080525 8:1 
0.0263438275480099 1:0.00854015 2:0.0087024 3:0.00343931 4:12.4038 5:12.6019 6:4.14813 7:12.4191 
0.02740716280724337 1:0.295521 2:0.253345 3:0.495602 4:55.3787 5:47.3831 6:93.1161 7:23.2041 8:1 
0.02724453526532844 1:0.0263839 2:0.0325184 3:0.0172768 4:58.7404 5:50.6391 6:97.7332 7:23.7349 8:1 
0.02671765590167391 1:1.23042 2:1.16059 3:1.77483 4:62.3816 5:54.1849 6:102.682 7:19.4653 8:1 
0.02676979740461329 1:0.696028 2:0.6563 3:1.00461 4:65.5226 5:57.3158 6:106.754 7:19.2337 8:1 
0.02717099084059837 1:0.220489 2:0.205132 3:0.325825 4:69.8076 5:61.5538 6:112.4 7:18.7173 8:1 
0.003985802902183086 1:0.00377262 2:0.00383198 3:0.0012553 4:8.96899 5:9.10813 6:2.90867 7:0.0183598 
0.01033091754026954 1:0.00748718 2:0.00760496 3:0.00247738 4:8.56291 5:8.69562 6:2.77394 7:0.0191212 8:1 
0.0006853322405264706 1:0.00587857 2:0.00597203 3:0.00193638 4:8.13772 5:8.26372 6:2.63343 7:0.0217552 
0.008465752108545287 1:0.00243783 2:0.00249362 3:0.00111288 4:13.1445 5:13.3548 6:4.40505 7:0.00262043 
0.01205534751035097 1:0.00893211 2:0.00908625 3:0.00326347 4:10.3844 5:10.5471 6:3.40194 7:1.79326 
0.001136762669868341 1:0.00180364 2:0.00183308 3:0.000633955 4:10.7049 5:10.8734 6:3.5262 7:0.00172972 
0.02659398474034933 1:0.304827 2:0.287601 3:0.439503 4:72.6196 5:64.3668 6:116.018 7:25.1415 8:1 
0.0269205592352072 1:0.950843 2:0.90189 3:1.35787 4:75.4176 5:67.2434 6:119.407 7:23.1479 8:1 
0.02660176498533934 1:0.204636 2:0.186135 3:0.313904 4:77.6195 5:69.5778 6:121.881 7:18.2812 8:1 
0.026557315572866 1:0.987486 2:0.933136 3:1.4198 4:79.8929 5:71.9751 6:124.47 7:14.4456 
0.0272480330859497 1:0.430766 2:0.411065 3:0.608413 4:81.6136 5:73.8433 6:126.284 7:33.2394 8:1 
0.02717049744367295 1:0.0512562 2:0.0463943 3:0.0792217 4:83.3753 5:75.7624 6:128.123 7:18.1824 
0.02236550349570139 1:0.123163 2:0.115284 3:0.180064 4:84.2042 5:76.7723 6:128.697 7:11.9263 8:1 
0.01832563204260828 1:0.118267 2:0.11689 3:0.156 4:85.0365 5:77.7956 6:129.248 7:8.05379 8:1 
0.01843009568122961 1:0.056365 2:0.040185 3:0.116711 4:86.6418 5:79.7709 6:130.306 7:12.3286 8:1 
0.01204830786917755 1:0.562773 2:0.530298 3:0.81324 4:87.1875 5:80.506 6:130.492 7:9.8752 8:1 
0.009939115117807684 1:0.460832 2:0.430276 3:0.676701 4:87.1013 5:80.8039 6:129.333 7:7.26547 8:1 
0.00182883750174001 1:0.00018084 2:0.000150025 3:0.000317633 4:3.88498 5:3.21285 6:6.83572 7:0.000314246 
0.006661379499042497 1:0.000985086 2:0.000814199 3:0.00173134 4:4.08199 5:3.37579 6:7.18231 7:0.000361317 8:1 
0.001329922793096568 1:0.00895035 2:0.00910878 3:0.00337243 4:12.0836 5:12.2745 6:3.99763 7:0.00515881 
0.004160011218261363 1:0.00296772 2:0.00302124 3:0.00109521 4:11.7908 5:11.9766 6:3.88862 7:0.00546329 8:1 
0.001931760637528201 1:0.0159959 2:0.0162501 3:0.00528699 4:8.43305 5:8.56361 6:2.72877 7:0.0634539 
0.003805182712644901 1:0.354094 2:0.343661 3:0.484465 4:87.124 5:81.004 6:128.878 7:8.39811 8:1 
0.01414197277840769 1:0.458298 2:0.440378 3:0.63907 4:86.4583 5:80.5266 6:127.508 7:5.13589 8:1 
0.009483924516557996 1:0.423824 2:0.422955 3:0.548176 4:85.7035 5:80.1213 6:125.583 7:5.30834 8:1 
0.01824219917392605 1:0.474648 2:0.453251 3:0.669602 4:85.341 5:79.9172 6:124.684 7:8.24009 
0.007900183586697307 1:0.243261 2:0.236564 3:0.331431 4:84.353 5:79.0866 6:122.982 7:6.0852 
0.01268086593013201 1:0.466812 2:0.449644 3:0.647894 4:83.8859 5:78.7666 6:121.98 7:5.51559 8:1 
0.01518542996933768 1:0.0857964 2:0.0890894 3:0.101525 4:82.5544 5:77.586 6:119.854 7:6.57399 8:1 
0.01467938429322857 1:0.108483 2:0.090535 3:0.179013 4:4.18767 5:3.50294 6:7.19351 7:2.59969 
0.01410076782407466 1:0.166717 2:0.15598 3:0.244001 4:81.9855 5:77.1522 6:118.753 7:4.15462 8:1 
0.009248787633557904 1:0.0672035 2:0.0536823 3:0.123416 4:80.9232 5:76.218 6:117.035 7:5.06904 8:1 
0.0125202285959135 1:0.123004 2:0.118745 3:0.170044 4:79.9547 5:75.3784 6:115.436 7:4.96656 8:1 
0.01630738628719011 1:0.0348978 2:0.0463552 3:0.0137329 4:78.7879 5:74.3309 6:113.609 7:4.05787 8:1 
0.009190667233498064 1:0.0565042 2:0.0519571 3:0.0851984 4:77.491 5:73.1422 6:111.643 7:3.64302 8:1 
0.002748729217533885 1:0.00131285 2:0.00108656 3:0.00231004 4:4.81266 5:3.98014 6:8.46767 7:0.000388692 
0.0009768351452339452 1:0.0012731 2:0.00105339 3:0.00223863 4:5.07858 5:4.20011 6:8.93542 7:0.000403629 
0.02550299938419275 1:0.000356793 2:0.000295579 3:0.000628948 4:4.74488 5:3.92408 6:8.34845 7:31.8884 8:1 
0.009432951570765704 1:0.000192702 2:0.000159562 3:0.000337839 4:5.6169 5:4.64543 6:9.88222 7:0.000475853 8:1 
0.01449122020125876 1:0.09095 2:0.0885887 3:0.123553 4:76.6081 5:72.3597 6:110.233 7:3.30712 8:1 
0.01285803842324887 1:0.0428772 2:0.0312939 3:0.0868244 4:75.257 5:71.1145 6:108.204 7:3.43016 8:1 
0.01403302629897159 1:0.00701046 2:0.0062809 3:0.0452585 4:74.2153 5:70.159 6:106.628 7:3.09252 
0.01557669188865533 1:0.256994 2:0.258142 3:0.327803 4:72.8538 5:68.8914 6:104.618 7:3.83791 
0.01209359108776714 1:0.0131769 2:0.0190201 3:0.00102329 4:71.7314 5:67.8452 6:102.965 7:2.4362 
0.0127818415064201 1:0.0685329 2:0.0629616 3:0.103459 4:70.7363 5:66.9204 6:101.493 7:2.19491 
0.0161762636842031 1:0.111392 2:0.102739 3:0.16701 4:69.2615 5:65.5247 6:99.3776 7:1.77628 
0.01752942861993412 1:0.324405 2:0.324198 3:0.418294 4:65.0238 5:60.7681 6:95.3363 7:3.64858 8:1 
0.01108472131720846 1:0.21011 2:0.210433 3:0.269644 4:68.0821 5:64.4089 6:97.6856 7:2.10656 
0.01647123913907883 1:0.0499582 2:0.0447979 3:0.0784397 4:66.8138 5:63.2033 6:95.8814 7:1.27471 
0.005142491801119374 1:0.0392094 2:0.0491567 3:0.0233335 4:65.603 5:62.0479 6:94.1711 7:1.54531 8:1 
0.01134640900399773 1:0.190043 2:0.187358 3:0.252033 4:64.466 5:60.969 6:92.5484 7:1.65374 8:1 
0.009854612830500004 1:0.601343 2:0.579393 3:0.834198 4:63.7355 5:59.9183 6:92.4812 7:3.36333 8:1 
0.002551163485009532 1:0.000357628 2:0.000295579 3:0.00063014 4:6.00348 5:4.96528 6:10.5621 7:0.000480271 
0.01054892299186432 1:6.31213e-05 2:5.23925e-05 3:0.000111699 4:6.61042 5:5.46749 6:11.6292 7:0.000560222 
0.01376223459635216 1:0.242504 2:0.229135 3:0.348756 4:60.4451 5:57.1296 6:86.8759 7:2.7116 8:1 
0.02437601766002129 1:0.689513 2:0.65415 3:0.98436 4:56.5798 5:53.4393 6:81.4215 7:4.77502 8:1 
0.02726661879681136 1:0.0098629 2:0.00378227 3:0.0292816 4:53.1209 5:50.125 6:76.5732 7:6.93583 8:1 
0.0009967083564886292 1:0.0677567 2:0.0593982 3:0.110078 4:63.3057 5:59.5673 6:91.7127 7:2.96853 8:1 
0.02261269764255691 1:0.440495 2:0.431007 3:0.593108 4:49.526 5:46.6759 6:71.5467 7:4.59363 8:1 
0.007575392805122039 1:0.161365 2:0.164261 3:0.199871 4:62.6847 5:59.0769 6:90.5571 7:2.32137 8:1 
0.02746115339364424 1:0.0278144 2:0.0264149 3:0.0396357 4:46.1196 5:43.4025 6:66.7973 7:27.2919 8:1 
0.01207811899807321 1:0.0646377 2:0.0608144 3:0.0937119 4:62.1513 5:58.613 6:89.6805 7:1.62538 8:1 
0.02666018908641662 1:0.417233 2:0.398804 3:0.587484 4:42.7209 5:40.1277 6:62.0832 7:13.7997 8:1 
0.006648258713540578 1:0.0656023 2:0.0645661 3:0.087307 4:61.0011 5:57.5816 6:87.8755 7:1.33988 8:1 
0.02709824131442923 1:0.164091 2:0.15806 3:0.227757 4:60.4809 5:57.1147 6:87.0604 7:256.985 
0.02641540746033097 1:0.557704 2:0.533095 3:0.78528 4:39.9282 5:37.4326 6:58.2208 7:18.0413 8:1 
0.02669033758111788 1:0.0394878 2:0.0394168 3:0.0510755 4:36.9374 5:34.54 6:54.1017 7:17.7837 8:1 
0.005780736204443526 1:0.227772 2:0.224306 3:0.302751 4:59.948 5:56.6315 6:86.2389 7:1.14293 8:1 
0.02699095249140404 1:0.0955434 2:0.0871577 3:0.145882 4:33.8506 5:31.5617 6:49.8309 7:11.8336 8:1 
0.002782879948582044 1:0.0142975 2:0.00745392 3:0.0370693 4:59.2637 5:55.9935 6:85.2312 7:1.33482 8:1 
0.006489302464096403 1:0.0229106 2:0.0210919 3:0.0345163 4:58.7903 5:55.5595 6:84.5144 7:1.10548 8:1 
0.01366515570371618 1:0.391951 2:0.370061 3:0.564399 4:31.5246 5:29.3035 6:46.6508 7:7.49969 8:1 
0.01408150023661839 1:0.128521 2:0.118421 3:0.193081 4:58.13 5:54.9412 6:83.5496 7:0.914327 
0.00419939364419566 1:0.0198679 2:0.0224152 3:0.0186577 4:57.3777 5:54.2269 6:82.4768 7:0.927355 8:1 
0.01657318923253506 1:0.0998843 2:0.096715 3:0.137258 4:27.2473 5:25.1555 6:40.7908 7:7.47307 8:1 
0.01120342710587592 1:0.0226302 2:0.0258505 3:0.0203538 4:25.4208 5:23.3811 6:38.2967 7:4.89642 8:1 
0.002647459275574581 1:0.10753 2:0.0960823 3:0.169685 4:10.8691 5:9.1956 6:18.56 7:0.533275 8:1 
0.01502530220439842 1:0.202037 2:0.202003 3:0.260258 4:24.1101 5:22.1024 6:36.5216 7:5.08861 8:1 
0.01852039641829879 1:0.0849867 2:0.0807257 3:0.121052 4:22.7408 5:20.7734 6:34.6487 7:6.24572 
0.009364737781821831 1:0.169249 2:0.151055 3:0.267564 4:11.5514 5:9.79473 6:19.6654 7:0.434802 
0.01526568152879165 1:0.16028 2:0.153443 3:0.225072 4:56.1655 5:53.0832 6:80.7294 7:0.831645 8:1 
0.008776492001803155 1:0.167714 2:0.156123 3:0.247592 4:21.4308 5:19.4926 6:32.8819 7:5.17079 8:1 
0.02747725571345272 1:0.022048 2:0.0216708 3:0.0294237 4:20.3959 5:18.4886 6:31.4651 7:13.6965 
0.006275793773551227 1:0.100582 2:0.0987296 3:0.134555 4:54.9749 5:51.9437 6:79.057 7:0.548656 8:1 
0.01397233422105463 1:0.0570774 2:0.0565391 3:0.0749798 4:54.222 5:51.2195 6:78.009 7:0.484362 8:1 
0.01632575807907816 1:0.403662 2:0.390847 3:0.554739 4:18.6942 5:16.7951 6:29.2516 7:5.22844 8:1 
0.01007908127667145 1:0.135279 2:0.129683 3:0.189425 4:52.8973 5:49.942 6:76.1743 7:0.580977 8:1 
0.00808362692083409 1:0.0381131 2:0.0395312 3:0.0451708 4:52.3089 5:49.372 6:75.367 7:0.542636 8:1 
0.003441661638096019 1:0.016116 2:0.0134304 3:0.0280749 4:7.79351 5:6.447 6:13.7079 7:0.018268 8:1 
0.01207016955144508 1:0.32616 2:0.309683 3:0.464933 4:19.0787 5:17.1234 6:29.8999 7:3.32792 8:1 
0.01560825105930587 1:0.0912728 2:0.0866842 3:0.130061 4:51.0325 5:48.1283 6:73.634 7:0.445485 8:1 
0.005807800805636032 1:0.0937595 2:0.0888519 3:0.134111 4:50.1855 5:47.3086 6:72.4689 7:1.14333 8:1 
0.007944628552848054 1:0.17636 2:0.167312 3:0.251746 4:49.0708 5:46.2311 6:70.932 7:1.22408 8:1 
0.01445764248013721 1:0.136672 2:0.128322 3:0.198727 4:47.9084 5:45.1089 6:69.3253 7:1.21506 8:1 
0.009341473201355957 1:0.0220927 2:0.0184197 3:0.0384673 4:8.48812 5:7.02427 6:14.9223 7:0.0852789 
0.006203180125277236 1:0.101647 2:0.0909243 3:0.160139 4:11.9802 5:10.1651 6:20.3771 7:0.693732 8:1 
0.003683579416682847 1:0.0347073 2:0.0337461 3:0.0473163 4:12.3272 5:10.4699 6:20.9391 7:1.16649 8:1 
0.001097310359517726 1:0.00487852 2:0.00401521 3:0.00863314 4:9.25639 5:7.66271 6:16.2657 7:0.0849505 8:1 
0.01457449605460215 1:0.0499228 2:0.0460869 3:0.0747485 4:13.2544 5:11.2632 6:22.498 7:0.968773 8:1 
0.00916732628856007 1:0.291088 2:0.240908 3:0.511686 4:9.57143 5:7.92503 6:16.8151 7:0.684541 8:1 
0.01447463422026044 1:0.0060432 2:0.00468445 3:0.011487 4:20.1589 5:18.0114 6:31.8152 7:6.04615 8:1 
0.001293568365323565 1:0.130891 2:0.119895 3:0.198534 4:13.7573 5:11.6764 6:23.3901 7:0.932917 8:1 
0.002248284281935908 1:0.0285975 2:0.0234495 3:0.0508523 4:13.8512 5:11.7537 6:23.5563 7:0.757133 8:1 
0.0007971236260719272 1:0.0301144 2:0.0288982 3:0.0420961 4:20.0885 5:17.8317 6:32.0228 7:2.78807 8:1 
0.01120935495283521 1:0.275788 2:0.260796 3:0.395991 4:46.6821 5:43.9221 6:67.6387 7:1.52998 8:1 
0.01845891485243166 1:0.135258 2:0.128998 3:0.191264 4:45.4299 5:42.7088 6:65.9203 7:1.53139 
0.01733050122819174 1:0.221075 2:0.212933 3:0.306858 4:43.8161 5:41.1453 6:63.7049 7:2.9329 8:1 
0.008388474891971899 1:0.0581546 2:0.0572295 3:0.0774217 4:42.7375 5:40.0935 6:62.243 7:3.01063 8:1 
0.01509762524728333 1:0.294065 2:0.279894 3:0.417307 4:41.5707 5:38.9576 6:60.6562 7:3.06416 8:1 
0.01487914660416369 1:0.128809 2:0.122877 3:0.182042 4:40.1958 5:37.6168 6:58.7927 7:2.97998 8:1 
0.01838662660301497 1:0.0799837 2:0.0749621 3:0.116692 4:38.9947 5:36.4448 6:57.1671 7:5.32614 8:1 
0.01620116540277142 1:0.153509 2:0.142445 3:0.227855 4:37.7621 5:35.2402 6:55.5034 7:2.82523 8:1 
0.01095439724131887 1:0.00334454 2:0.00719023 3:0.00616026 4:36.6309 5:34.133 6:53.9812 7:4.00533 8:1 
0.01450101460648839 1:0.0181642 2:0.0204296 3:0.0172377 4:35.4323 5:32.9592 6:52.3702 7:4.77505 8:1 
0.01434665901998076 1:0.0251989 2:0.0240889 3:0.0354881 4:34.0518 5:31.6102 6:50.5068 7:3.9228 8:1 
0.01383081504789704 1:0.18348 2:0.17541 3:0.25825 4:33.0625 5:30.6361 6:49.1913 7:5.03905 
0.004071863183758739 1:0.485259 2:0.463158 3:0.68513 4:32.0505 5:29.6406 6:47.8433 7:5.69196 8:1 
0.01063162583298178 1:0.0478866 2:0.051168 3:0.0527163 4:31.1731 5:28.7742 6:46.6832 7:5.69887 8:1 
0.006655217071808051 1:0.224045 2:0.210954 3:0.324203 4:20.5882 5:18.1788 6:33.0821 7:2.17561 
0.01682782666167248 1:0.0963089 2:0.0952344 3:0.126948 4:29.4876 5:27.1047 6:44.4693 7:7.55971 8:1 
0.001909426054494182 1:0.306477 2:0.295257 3:0.425244 4:28.6689 5:26.2916 6:43.3998 7:7.27913 8:1 
0.007796552911536572 1:0.0481014 2:0.0469778 3:0.0650115 4:28.2641 5:25.8512 6:42.9757 7:6.11614 8:1 
0.001698596579710054 1:0.186228 2:0.176362 3:0.266695 4:27.6147 5:25.1769 6:42.2075 7:5.19556 8:1 
0.00319015469244222 1:0.265317 2:0.254677 3:0.370639 4:27.2689 5:24.8203 6:41.7916 7:3.37648 8:1 
0.01329562255426652 1:0.0975595 2:0.0852908 3:0.159075 4:15.0343 5:12.6894 6:25.7544 7:0.382081 
0.008966670456065603 1:0.12921 2:0.124998 3:0.177857 4:27.0701 5:24.5779 6:41.6544 7:1.91668 8:1 
0.01259116180404336 1:0.167999 2:0.152573 3:0.258397 4:15.0671 5:12.7085 6:25.8342 7:0.328814 8:1 
0.02698183575930961 1:0.651027 2:0.556657 3:1.09569 4:14.5871 5:12.3074 6:25.0008 7:8.07158 8:1 
0.001271720736998994 1:0.35613 2:0.338857 3:0.505676 4:26.473 5:23.9364 6:41.0064 7:2.87514 
0.009665176028247284 1:0.0683179 2:0.0660286 3:0.0942268 4:25.9323 5:23.169 6:40.929 7:6.10082 8:1 
0.008927105619914768 1:0.0184968 2:0.0187721 3:0.0230751 4:20.7288 5:17.9309 6:34.3227 7:1.48475 8:1 
0.01157023667209787 1:0.137916 2:0.123667 3:0.216459 4:20.5231 5:17.7261 6:34.0555 7:1.2367 8:1 
0.02729903859741023 7:50.905 8:1 
0.02700008009768851 1:0.809786 2:0.705574 3:1.32698 4:18.2137 5:15.7118 6:30.2766 7:32.3515 8:1 
0.02731847309136187 1:0.208667 2:0.196576 3:0.301667 4:8.9511 5:8.08093 6:13.8993 7:157.031 8:1 
0.02717296674117531 1:0.0191035 2:0.0201027 3:0.0218658 4:21.3391 5:19.2402 6:33.2021 7:152.027 8:1 
0.002281422398423747 1:0.0885105 2:0.0838773 3:0.126603 4:25.4792 5:22.5689 6:40.7465 7:3.84744 
0.02290230387062886 1:0.0192277 2:0.0183301 3:0.0272102 4:28.5002 5:25.6764 6:44.4003 7:0.957283 8:1 
0.01787506810816308 1:0.183945 2:0.175149 3:0.260849 4:25.3542 5:22.3469 6:40.8498 7:2.16646 8:1 
0.0006667183708898398 1:0.0637259 2:0.0598826 3:0.0925422 4:28.2075 5:25.3268 6:44.1787 7:0.826156 8:1 
0.02660892150825878 1:59.4034 2:62.5 3:68.0471 4:653.438 5:687.5 6:748.518 7:194336 
0.02724694259475924 1:0.000411987 4:950.456 5:1000 6:1088.75 
0.02726743078006838 1:29.7017 2:31.25 3:34.0236 4:549.482 5:578.125 6:629.436 7:241943 8:1 
1 1:7.83994e-08 2:8.24891e-08 3:8.98081e-08 4:2.05993e-05 5:2.1673e-05 6:2.35966e-05 7:5.37505e-10 8:1 
1 1:4.10296e-09 2:4.3168e-09 3:4.69993e-09 4:1.14566e-06 5:1.20538e-06 6:1.31237e-06 7:4.50416e-11 
1 1:3.79629e-07 2:3.99428e-07 3:4.34869e-07 4:5.52218e-05 5:5.81003e-05 6:6.3257e-05 7:2.51496e-11 8:1 
1 1:2.82304e-07 2:2.9702e-07 3:3.23383e-07 4:4.28951e-05 5:4.51311e-05 6:4.91367e-05 7:1.71413e-11 8:1 
1 1:9.29442e-07 2:9.77891e-07 3:1.06469e-06 4:7.39304e-05 5:7.77841e-05 6:8.46878e-05 7:4.29007e-11 8:1 
1 1:3.96522e-07 2:4.17181e-07 3:4.54213e-07 4:5.85294e-05 5:6.15803e-05 6:6.70458e-05 7:2.83058e-11 8:1 
1 1:1.58298e-07 2:1.66548e-07 3:1.81322e-07 4:9.6925e-05 5:0.000101977 6:0.000111028 7:6.55786e-11 8:1 
1 1:1.38437e-07 2:1.45656e-07 3:1.58592e-07 4:7.8876e-05 5:8.29875e-05 6:9.0353e-05 7:4.37225e-11 8:1 
1 1:5.76287e-07 2:6.06318e-07 3:6.6014e-07 4:0.000125443 5:0.000131982 6:0.000143695 7:1.16667e-10 8:1 
1 1:9.37232e-07 2:9.86091e-07 3:1.07361e-06 4:0.000103681 5:0.000109085 6:0.000118767 7:8.20204e-11 8:1 
1 1:1.07548e-06 2:1.13153e-06 3:1.23196e-06 4:0.000160836 5:0.00016922 6:0.000184239 7:1.53685e-10 8:1 
1 1:1.85235e-07 2:1.94925e-07 3:2.12201e-07 4:0.000134877 5:0.000141907 6:0.000154502 7:1.13688e-10 8:1 
1 1:3.09978e-07 2:3.26125e-07 3:3.55067e-07 4:0.000173506 5:0.000182551 6:0.000198753 7:1.75694e-10 8:1 
1 1:4.14584e-08 2:4.3621e-08 3:4.7492e-08 4:1.87169e-05 5:1.96925e-05 6:2.14403e-05 7:3.05453e-10 
1 1:1.23192e-07 2:1.29615e-07 3:1.41109e-07 4:4.33379e-05 5:4.5597e-05 6:4.96439e-05 7:1.74991e-11 8:1 
1 1:7.30613e-07 2:7.68698e-07 3:8.36923e-07 4:2.64589e-06 5:2.78381e-06 6:3.03089e-06 7:7.38978e-11 
1 1:1.86513e-07 2:1.96238e-07 3:2.13653e-07 4:2.97317e-05 5:3.12816e-05 6:3.40579e-05 7:1.0389e-11 8:1 
1 1:4.31008e-07 2:4.53467e-07 3:4.93733e-07 4:5.94106e-05 5:6.25075e-05 6:6.80553e-05 7:4.87515e-11 8:1 
1 1:9.98239e-08 2:1.0504e-07 3:1.14362e-07 4:4.12482e-05 5:4.33983e-05 6:4.72501e-05 7:1.79632e-11 8:1 
1 1:9.09395e-08 2:9.5687e-08 3:1.0417e-07 4:7.931e-05 5:8.34442e-05 6:9.08502e-05 7:4.88845e-11 8:1 
1 1:1.2812e-07 2:1.3479e-07 3:1.46755e-07 4:5.65515e-05 5:5.94993e-05 6:6.47801e-05 7:2.77832e-11 8:1 
1 1:3.29784e-07 2:3.46973e-07 3:3.77767e-07 4:0.000104503 5:0.00010995 6:0.000119709 7:6.97259e-11 8:1 
1 1:6.92494e-08 2:7.28585e-08 3:7.93273e-08 4:1.30363e-05 5:1.37158e-05 6:1.49331e-05 7:1.00045e-10 8:1 
1 1:1.4436e-07 2:1.51904e-07 3:1.65358e-07 4:7.59983e-05 5:7.99599e-05 6:8.70566e-05 7:4.67447e-11 8:1 
1 1:2.2742e-07 2:2.39271e-07 3:2.60507e-07 4:2.68368e-05 5:2.82357e-05 6:3.07417e-05 7:7.48161e-12 8:1 
1 1:3.91388e-07 2:4.11763e-07 3:4.48328e-07 4:0.000136442 5:0.000143554 6:0.000156295 7:1.38487e-10 8:1 
1 1:2.83326e-07 2:2.98093e-07 3:3.2455e-07 4:0.000100352 5:0.000105583 6:0.000114954 7:6.61648e-11 8:1 
1 1:2.32681e-07 2:2.44847e-07 3:2.6654e-07 4:0.000176201 5:0.000185386 6:0.00020184 7:2.05241e-10 8:1 
1 1:5.79535e-08 2:6.09757e-08 3:6.63858e-08 4:3.7476e-05 5:3.94295e-05 6:4.29291e-05 7:1.36469e-11 8:1 
1 1:7.13137e-07 2:7.50279e-07 3:8.16883e-07 4:0.000131341 5:0.000138188 6:0.000150453 7:2.02558e-10 8:1 
1 1:3.66379e-07 2:3.85483e-07 3:4.19698e-07 4:5.13142e-05 5:5.3989e-05 6:5.87808e-05 7:2.14581e-11 8:1 
1 1:1.532e-06 2:1.61186e-06 3:1.75495e-06 4:0.00020415 5:0.000214792 6:0.000233856 7:2.17459e-10 8:1 
1 1:8.27391e-07 2:8.70516e-07 3:9.47772e-07 4:0.000168626 5:0.000177416 6:0.000193162 7:1.68539e-10 8:1 
1 1:1.54713e-07 2:1.62802e-07 3:1.77237e-07 4:6.88786e-05 5:7.24691e-05 6:7.8901e-05 7:3.91321e-11 8:1 
1 1:1.31555e-06 2:1.38416e-06 3:1.50697e-06 4:0.000256121 5:0.000269471 6:0.000293388 7:3.28831e-10 8:1 
1 1:4.59986e-07 2:4.83977e-07 3:5.26928e-07 4:9.12877e-05 5:9.60462e-05 6:0.000104571 7:6.06744e-11 8:1 
1 1:1.22445e-06 2:1.2883e-06 3:1.4026e-06 4:0.000316623 5:0.000333128 6:0.000362694 7:4.91481e-10 8:1 
1 1:5.23383e-07 2:5.50684e-07 3:5.99484e-07 4:0.000220611 5:0.00023211 6:0.000252711 7:2.72056e-10 8:1 
1 1:4.9988e-07 2:5.2593e-07 3:5.72618e-07 4:0.000117914 5:0.000124061 6:0.000135072 7:8.7613e-11 8:1 
1 1:1.06172e-06 2:1.11706e-06 3:1.21615e-06 4:0.000392439 5:0.000412896 6:0.000449542 7:1.03284e-09 8:1 
1 1:2.36905e-08 2:2.49129e-08 3:2.70884e-08 4:0.000275905 5:0.000290287 6:0.000316051 7:4.22403e-10 8:1 
1 1:5.56916e-07 2:5.85913e-07 3:6.37943e-07 4:0.000151984 5:0.000159907 6:0.000174099 7:1.30642e-10 8:1 
1 1:1.48832e-06 2:1.56587e-06 3:1.70486e-06 4:0.000345349 5:0.000363351 6:0.0003956 7:5.42957e-10 8:1 
1 1:3.39824e-08 2:3.57577e-08 3:3.89882e-08 4:0.000427803 5:0.000450103 6:0.000490052 7:1.01791e-09 8:1 
1 1:1.00954e-06 2:1.06198e-06 3:1.15644e-06 4:0.000481694 5:0.000506803 6:0.000551784 7:9.80818e-10 8:1 
1 1:2.21629e-06 2:2.33174e-06 3:2.53865e-06 4:0.000523621 5:0.000550915 6:0.000599811 7:1.2908e-09 8:1 
1 1:1.34997e-06 2:1.4202e-06 3:1.54632e-06 4:0.000584613 5:0.000615086 6:0.000669678 7:1.71578e-09 8:1 
1 1:4.6191e-06 2:4.85993e-06 3:5.29122e-06 4:0.000637954 5:0.000671208 6:0.00073078 7:1.80651e-09 8:1 
1 1:1.09562e-05 2:1.15272e-05 3:1.25503e-05 4:0.000703234 5:0.000739892 6:0.00080556 7:2.15576e-09 8:1 
1 1:8.32583e-06 2:8.75988e-06 3:9.53733e-06 4:0.000774411 5:0.000814778 6:0.000887093 7:3.44502e-09 8:1 
1 1:5.17964e-06 2:5.44949e-06 3:5.93332e-06 4:0.000842836 5:0.00088677 6:0.000965474 7:3.01478e-09 8:1 
1 1:2.1225e-06 2:2.23311e-06 3:2.43136e-06 4:0.00092983 5:0.000978298 6:0.00106513 7:4.46731e-09 8:1 
1 1:2.02785e-06 2:2.13376e-06 3:2.3231e-06 4:0.00100645 5:0.00105891 6:0.00115289 7:2.87328e-09 8:1 
1 1:4.08458e-06 2:4.29773e-06 3:4.67905e-06 4:0.00111326 5:0.00117129 6:0.00127524 7:4.6961e-09 8:1 
1 1:1.79329e-05 2:1.88675e-05 3:2.05422e-05 4:0.00119655 5:0.00125892 6:0.00137066 7:5.0259e-09 8:1 
1 1:4.65427e-06 2:4.89686e-06 3:5.33147e-06 4:0.000222762 5:0.000234373 6:0.000255175 7:2.93576e-10 8:1 
1 1:6.9193e-06 2:7.27974e-06 3:7.92585e-06 4:0.00132178 5:0.00139068 6:0.00151411 7:6.2491e-09 8:1 
1 1:2.7768e-07 2:2.92406e-07 3:3.18076e-07 4:0.00141501 5:0.00148877 6:0.0016209 7:8.75072e-09 8:1 
1 1:3.79725e-07 2:3.99472e-07 3:4.34975e-07 4:0.00028048 5:0.0002951 6:0.000321291 7:5.04514e-10 8:1 
1 1:6.12054e-07 2:6.43602e-07 3:7.00486e-07 4:0.00157323 5:0.00165524 6:0.00180215 7:1.04932e-08 8:1 
1 1:4.66242e-06 2:4.90506e-06 3:5.34074e-06 4:0.00165343 5:0.00173961 6:0.00189401 7:9.92084e-09 8:1 
1 1:4.03285e-07 2:4.24294e-07 3:4.62045e-07 4:0.000354042 5:0.000372497 6:0.000405558 7:6.02802e-10 8:1 
1 1:9.00586e-06 2:9.47501e-06 3:1.03163e-05 4:0.00185622 5:0.00195298 6:0.00212631 7:1.26693e-08 8:1 
1 1:1.5934e-07 2:1.67769e-07 3:1.8259e-07 4:0.000438106 5:0.000460943 6:0.000501854 7:9.36082e-10 8:1 
1 1:1.52343e-06 2:1.60283e-06 3:1.74505e-06 4:0.00021443 5:0.000225608 6:0.000245631 7:2.38296e-10 8:1 
1 1:5.02027e-07 2:5.28307e-07 3:5.7515e-07 4:0.000539394 5:0.00056751 6:0.000617879 7:1.3278e-09 8:1 
1 1:6.30388e-06 2:6.63268e-06 3:7.22136e-06 4:0.00137448 5:0.00144613 6:0.00157448 7:7.20224e-09 8:1 
1 1:1.07937e-06 2:1.13557e-06 3:1.23633e-06 4:0.000269729 5:0.000283789 6:0.000308977 7:4.02279e-10 8:1 
1 1:3.11764e-06 2:3.28019e-06 3:3.57111e-06 4:0.000657165 5:0.00069142 6:0.000752787 7:1.85502e-09 8:1 
1 1:6.23456e-06 2:6.55963e-06 3:7.14154e-06 4:0.00165605 5:0.00174237 6:0.00189702 7:1.17231e-08 8:1 
1 1:1.11865e-06 2:1.177e-06 3:1.28138e-06 4:0.000337105 5:0.000354677 6:0.000386156 7:4.73025e-10 8:1 
1 1:4.06987e-06 2:4.28181e-06 3:4.66197e-06 4:0.000796474 5:0.000837992 6:0.000912367 7:3.44857e-09 8:1 
1 1:7.18954e-07 2:7.56398e-07 3:8.23537e-07 4:0.000243418 5:0.000256107 6:0.000278837 7:3.07989e-10 8:1 
1 1:2.38026e-06 2:2.50434e-06 3:2.72659e-06 4:0.00042112 5:0.000443072 6:0.000482396 7:8.63039e-10 8:1 
1 1:8.37346e-06 2:8.81005e-06 3:9.59192e-06 4:0.000961446 5:0.00101156 6:0.00110134 7:4.07578e-09 8:1 
1 1:5.87202e-06 2:6.17816e-06 3:6.72622e-06 4:0.00193175 5:0.00203245 6:0.00221284 7:1.81631e-08 8:1 
1 1:9.7834e-07 2:1.02933e-06 3:1.12068e-06 4:0.000194376 5:0.000204508 6:0.000222659 7:0.00390302 8:1 
1 1:4.22502e-06 2:4.44522e-06 3:4.83975e-06 4:0.000307621 5:0.000323656 6:0.000352382 7:4.33347e-10 8:1 
1 1:2.25097e-06 2:2.36832e-06 3:2.57853e-06 4:0.000513304 5:0.000540061 6:0.000587993 7:1.11447e-09 8:1 
1 1:8.66184e-06 2:9.11344e-06 3:9.92228e-06 4:0.00115291 5:0.00121301 6:0.00132067 7:7.51948e-09 8:1 
1 1:4.14593e-06 2:4.36211e-06 3:4.74929e-06 4:0.000380762 5:0.00040061 6:0.000436165 7:5.88605e-10 8:1 
1 1:2.75236e-06 2:2.89577e-06 3:3.15279e-06 4:0.000630111 5:0.000662956 6:0.000721796 7:2.056e-09 8:1 
1 1:2.28571e-06 2:2.40476e-06 3:2.61828e-06 4:0.000464348 5:0.000488553 6:0.000531914 7:9.07072e-10 8:1 
1 1:2.41643e-06 2:2.54226e-06 3:2.76783e-06 4:0.00076391 5:0.00080373 6:0.000875065 7:2.23335e-09 8:1 
1 1:1.87189e-06 2:1.96943e-06 3:2.14428e-06 4:0.000569482 5:0.000599167 6:0.000652345 7:1.59498e-09 8:1 
1 1:5.28842e-06 2:5.56428e-06 3:6.05804e-06 4:0.000924115 5:0.000972286 6:0.00105858 7:2.65161e-09 8:1 
1 1:4.59944e-06 2:4.83923e-06 3:5.26878e-06 4:0.000691207 5:0.000727237 6:0.000791783 7:1.75582e-09 8:1 
1 1:9.35953e-06 2:9.84718e-06 3:1.07211e-05 4:0.00110975 5:0.0011676 6:0.00127123 7:4.87135e-09 8:1 
1 1:1.89292e-06 2:1.99155e-06 3:2.16826e-06 4:0.00083138 5:0.000874717 6:0.000952351 7:2.42447e-09 8:1 
1 1:1.90505e-06 2:2.00429e-06 3:2.18218e-06 4:0.00133351 5:0.00140302 6:0.00152754 7:7.35809e-09 8:1 
1 1:6.11943e-06 2:6.43838e-06 3:7.00947e-06 4:0.00157957 5:0.0016619 6:0.0018094 7:2.00712e-08 8:1 
1 1:5.26689e-06 2:5.54147e-06 3:6.03337e-06 4:0.00100804 5:0.00106058 6:0.00115471 7:3.59534e-09 8:1 
1 1:1.19623e-05 2:1.25858e-05 3:1.37027e-05 4:0.00194014 5:0.00204127 6:0.00222244 7:1.24662e-08 8:1 
1 1:2.26611e-05 2:2.38425e-05 3:2.59585e-05 4:0.00119848 5:0.00126095 6:0.00137286 7:5.46441e-09 8:1 
1 1:1.89635e-06 2:1.99594e-06 3:2.17295e-06 4:0.0022718 5:0.00239022 6:0.00260236 7:2.35378e-08 8:1 
1 1:9.72136e-06 2:1.02283e-05 3:1.1136e-05 4:0.00143129 5:0.0015059 6:0.00163955 7:7.37078e-09 8:1 
1 1:7.71784e-06 2:8.11997e-06 3:8.84119e-06 4:0.00264671 5:0.00278467 6:0.00303182 7:1.7924e-08 8:1 
1 1:6.72275e-06 2:7.0731e-06 3:7.70131e-06 4:0.00168626 5:0.00177416 6:0.00193162 7:7.81364e-09 8:1 
1 1:8.48519e-06 2:8.92744e-06 3:9.71975e-06 4:0.00187229 5:0.00196988 6:0.00214472 7:1.23599e-08 8:1 
1 1:2.23341e-05 2:2.34981e-05 3:2.55839e-05 4:0.00217581 5:0.00228923 6:0.00249241 7:2.12404e-08 8:1 
1 1:1.09447e-05 2:1.15148e-05 3:1.25375e-05 4:0.00306011 5:0.00321962 6:0.00350537 7:3.75954e-08 8:1 
1 1:1.72928e-05 2:1.81942e-05 3:1.9809e-05 4:0.00256331 5:0.00269693 6:0.00293629 7:2.66059e-08 8:1 
1 1:2.54015e-05 2:2.67256e-05 3:2.90988e-05 4:0.00354297 5:0.00372765 6:0.0040585 7:4.82986e-08 8:1 
1 1:2.44042e-05 2:2.56766e-05 3:2.79548e-05 4:0.0040697 5:0.00428184 6:0.00466187 7:5.58061e-08 8:1 
1 1:1.60139e-05 2:1.68487e-05 3:1.83441e-05 4:0.00298679 5:0.00314248 6:0.00342139 7:2.78508e-08 8:1 
1 1:5.41423e-05 2:5.69654e-05 3:6.20207e-05 4:0.00469528 5:0.00494003 6:0.00537848 7:8.45713e-08 8:1 
1 1:1.44871e-05 2:1.52428e-05 3:1.65948e-05 4:0.00347996 5:0.00366136 6:0.00398632 7:4.51865e-08 8:1 
1 1:2.6387e-05 2:2.77617e-05 3:3.02264e-05 4:0.00534356 5:0.0056221 6:0.00612108 7:1.17382e-07 8:1 
1 1:1.04738e-05 2:1.10204e-05 3:1.19981e-05 4:0.00402737 5:0.0042373 6:0.00461338 7:5.18799e-08 8:1 
1 1:1.16962e-05 2:1.2306e-05 3:1.33982e-05 4:0.00227615 5:0.0023948 6:0.00260735 7:2.07311e-08 8:1 
1 1:4.66933e-05 2:4.91271e-05 3:5.34872e-05 4:0.00609603 5:0.0064138 6:0.00698305 7:2.00866e-07 8:1 
1 1:1.254e-05 2:1.31938e-05 3:1.43647e-05 4:0.00462913 5:0.00487043 6:0.0053027 7:9.80739e-08 8:1 
1 1:4.18904e-05 2:4.40738e-05 3:4.79851e-05 4:0.00265915 5:0.00279777 6:0.00304608 7:2.62661e-08 8:1 
1 1:0.000124797 2:0.000131305 3:0.000142957 4:0.00688086 5:0.00723954 6:0.00788208 7:1.88019e-07 8:1 
1 1:3.37983e-05 2:3.55591e-05 3:3.87161e-05 4:0.00532704 5:0.00560472 6:0.00610216 7:1.57418e-07 8:1 
1 1:9.7903e-06 2:1.03006e-05 3:1.12153e-05 4:0.00312276 5:0.00328554 6:0.00357714 7:3.43529e-08 8:1 
1 1:2.66432e-05 2:2.80319e-05 3:3.05193e-05 4:0.00783078 5:0.00823897 6:0.00897021 7:2.91059e-07 8:1 
1 1:2.45511e-05 2:2.58308e-05 3:2.81226e-05 4:0.00612562 5:0.00644492 6:0.00701694 7:1.75006e-07 8:1 
1 1:7.12511e-06 2:7.49662e-06 3:8.16199e-06 4:0.00361095 5:0.00379918 6:0.00413637 7:4.92074e-08 8:1 
1 1:1.68229e-05 2:1.76998e-05 3:1.927e-05 4:0.00890347 5:0.00936758 6:0.010199 7:3.34484e-07 8:1 
1 1:1.86607e-05 2:1.96338e-05 3:2.13793e-05 4:0.0101691 5:0.0106991 6:0.0116487 7:5.3943e-07 8:1 
1 1:2.72011e-05 2:2.86198e-05 3:3.11603e-05 4:0.00703439 5:0.00740107 6:0.00805795 7:2.24907e-07 8:1 
1 1:1.59072e-05 2:1.67373e-05 3:1.82234e-05 4:0.00424345 5:0.00446464 6:0.0048609 7:5.46072e-08 8:1 
1 1:1.001e-05 2:1.05327e-05 3:1.14676e-05 4:0.0080237 5:0.00844195 6:0.0091912 7:2.91591e-07 8:1 
1 1:5.13514e-06 2:5.40313e-06 3:5.88206e-06 4:0.00486386 5:0.00511739 6:0.00557158 7:1.00846e-07 8:1 
1 1:0.000161537 2:0.000169956 3:0.00018504 4:0.00920338 5:0.00968312 6:0.0105425 7:3.92881e-07 8:1 
1 1:9.43053e-05 2:9.92216e-05 3:0.000108027 4:0.00571535 5:0.00601327 6:0.00654697 7:1.17644e-07 8:1 
1 1:0.000158015 2:0.000166249 3:0.000181006 4:0.0103429 5:0.010882 6:0.0118478 7:3.66963e-07 8:1 
1 1:4.97268e-06 2:5.23281e-06 3:5.69766e-06 4:0.00662577 5:0.00697115 6:0.00758986 7:2.1812e-07 8:1 
1 1:8.23818e-05 2:8.66762e-05 3:9.43689e-05 4:0.00986214 5:0.0103762 6:0.0112971 7:4.11461e-07 8:1 
1 1:4.17905e-05 2:4.39694e-05 3:4.78713e-05 4:0.0075248 5:0.00791704 6:0.00861971 7:2.61609e-07 8:1 
1 1:1.6213e-05 2:1.70576e-05 3:1.85724e-05 4:0.0117974 5:0.0124123 6:0.013514 7:7.08835e-07 8:1 
1 1:7.81352e-05 2:8.22081e-05 3:8.95037e-05 4:0.0111925 5:0.011776 6:0.0128211 7:6.76348e-07 8:1 
1 1:1.20311e-05 2:1.26587e-05 3:1.37818e-05 4:0.0022114 5:0.00232667 6:0.00253317 7:2.04548e-08 8:1 
1 1:0.000253433 2:0.000266642 3:0.000290307 4:0.0127549 5:0.0134197 6:0.0146108 7:7.08099e-07 8:1 
1 1:0.000105043 2:0.000110519 3:0.000120327 4:0.00870083 5:0.00915437 6:0.00996686 7:4.42385e-07 8:1 
1 1:5.29058e-06 2:5.5655e-06 3:6.05985e-06 4:0.00258552 5:0.00272029 6:0.00296173 7:2.57436e-08 8:1 
1 1:6.01946e-06 2:6.33305e-06 3:6.89513e-06 4:0.00198934 5:0.00209304 6:0.0022788 7:1.70038e-08 8:1 
1 1:6.31553e-08 2:6.71134e-08 3:7.23521e-08 4:0.00302315 5:0.00318074 6:0.00346304 7:3.09205e-08 8:1 
1 1:1.1081e-05 2:1.16586e-05 3:1.2693e-05 4:0.00234262 5:0.00246473 6:0.00268348 7:4.49869e-08 8:1 
1 1:1.03091e-05 2:1.08465e-05 3:1.18103e-05 4:0.00356487 5:0.0037507 6:0.00408359 7:4.19489e-08 8:1 
1 1:9.23788e-06 2:9.71931e-06 3:1.05816e-05 4:0.00272387 5:0.00286585 6:0.00312021 7:2.9809e-08 8:1 
1 1:1.59659e-05 2:1.67972e-05 3:1.82885e-05 4:0.00415393 5:0.00437046 6:0.00475836 7:6.76993e-08 8:1 
1 1:1.52024e-05 2:1.59947e-05 3:1.74142e-05 4:0.0032075 5:0.00337469 6:0.00367421 7:4.1858e-08 8:1 
1 1:7.69706e-05 2:8.09821e-05 3:8.81694e-05 4:0.00480229 5:0.00505262 6:0.00550106 7:8.34204e-08 8:1 
1 1:5.72333e-05 2:6.0217e-05 3:6.55622e-05 4:0.00368881 5:0.00388109 6:0.00422555 7:5.19345e-08 8:1 
1 1:6.55127e-05 2:6.89265e-05 3:7.50448e-05 4:0.00554133 5:0.00583018 6:0.00634764 7:1.27698e-07 8:1 
1 1:1.62143e-05 2:1.70593e-05 3:1.85743e-05 4:0.00433846 5:0.00456461 6:0.00496974 7:7.98664e-08 8:1 
1 1:4.02078e-05 2:4.23041e-05 3:4.60577e-05 4:0.00642021 5:0.00675487 6:0.00735439 7:1.81312e-07 8:1 
1 1:1.13769e-05 2:1.19702e-05 3:1.30333e-05 4:0.00498783 5:0.00524783 6:0.0057136 7:9.63212e-08 8:1 
1 1:3.70844e-05 2:3.90185e-05 3:4.24797e-05 4:0.00734225 5:0.00772498 6:0.0084106 7:2.83839e-07 8:1 
1 1:0.000132549 2:0.000139458 3:0.000151837 4:0.00577226 5:0.00607314 6:0.00661216 7:1.46794e-07 8:1 
1 1:7.72661e-05 2:8.12941e-05 3:8.85092e-05 4:0.00844875 5:0.00888916 6:0.0096781 7:3.03121e-07 8:1 
1 1:4.03921e-05 2:4.24968e-05 3:4.62689e-05 4:0.00668313 5:0.00703149 6:0.00765557 7:2.06949e-07 8:1 
1 1:3.26473e-05 2:3.43504e-05 3:3.73987e-05 4:0.00976692 5:0.010276 6:0.0111881 7:4.05005e-07 8:1 
1 1:0.000168938 2:0.000177745 3:0.000193521 4:0.00763416 5:0.0080321 6:0.00874498 7:2.77255e-07 8:1 
1 1:6.72392e-05 2:7.07438e-05 3:7.70221e-05 4:0.0111644 5:0.0117464 6:0.0127889 7:7.5311e-07 8:1 
1 1:2.26421e-05 2:2.3823e-05 3:2.5937e-05 4:0.0114271 5:0.0120228 6:0.0130898 7:5.96418e-07 8:1 
1 1:9.12428e-06 2:9.60077e-06 3:1.04523e-05 4:0.00888973 5:0.00935313 6:0.0101833 7:3.21893e-07 8:1 
1 1:5.49494e-05 2:5.78123e-05 3:6.29452e-05 4:0.0127106 5:0.0133731 6:0.01456 7:7.20026e-07 8:1 
1 1:0.000120412 2:0.000126689 3:0.000137931 4:0.0127977 5:0.0134648 6:0.0146598 7:8.5138e-07 8:1 
1 1:6.20477e-05 2:6.52823e-05 3:7.10777e-05 4:0.00999971 5:0.010521 6:0.0114547 7:4.3191e-07 8:1 
1 1:0.000151153 2:0.000159032 3:0.000173148 4:0.0143837 5:0.0151335 6:0.0164766 7:1.23045e-06 8:1 
1 1:0.000115719 2:0.00012175 3:0.000132558 4:0.0116061 5:0.0122111 6:0.0132949 7:6.56042e-07 8:1 
1 1:8.56922e-05 2:9.01581e-05 3:9.81607e-05 4:0.0160414 5:0.0168776 6:0.0183755 7:1.57715e-06 8:1 
1 1:7.22036e-05 2:7.5968e-05 3:8.27085e-05 4:0.0135466 5:0.0142528 6:0.0155177 7:8.07214e-07 8:1 
1 1:0.000186919 2:0.000196662 3:0.00021412 4:0.0152267 5:0.0160204 6:0.0174422 7:1.20163e-06 8:1 
1 1:8.29417e-05 2:8.72721e-05 3:9.50128e-05 4:0.01709 5:0.0179808 6:0.0195767 7:1.68385e-06 8:1 
1 1:0.00032975 2:0.000346938 3:0.000377731 4:0.0146094 5:0.0153709 6:0.0167352 7:1.08225e-06 8:1 
1 1:0.000326258 2:0.000343264 3:0.000373735 4:0.019164 5:0.020163 6:0.0219525 7:1.71869e-06 8:1 
1 1:3.46804e-05 2:3.64827e-05 3:3.9723e-05 4:0.0166175 5:0.0174837 6:0.0190355 7:1.4819e-06 8:1 
1 1:0.000172672 2:0.000181674 3:0.000197799 4:0.0217741 5:0.0229091 6:0.0249424 7:2.7303e-06 8:1 
1 1:2.37143e-05 2:2.49452e-05 3:2.71627e-05 4:0.018854 5:0.0198368 6:0.0215974 7:2.00313e-06 8:1 
1 1:0.00027585 2:0.000290231 3:0.000315991 4:0.0243607 5:0.0256305 6:0.0279053 7:3.6217e-06 8:1 
1 1:0.000268068 2:0.000282043 3:0.000307076 4:0.0214896 5:0.0226098 6:0.0246165 7:2.80625e-06 8:1 
1 1:0.00107477 2:0.0011308 3:0.00123115 4:0.0273919 5:0.0288197 6:0.0313776 7:5.34975e-06 8:1 
1 1:8.06244e-05 2:8.48239e-05 3:9.23555e-05 4:0.024149 5:0.0254078 6:0.0276628 7:3.20016e-06 8:1 
1 1:0.000199639 2:0.000210045 3:0.000228685 4:0.0268137 5:0.0282114 6:0.0307153 7:4.37957e-06 8:1 
1 1:1.57668e-05 2:1.65845e-05 3:1.8063e-05 4:0.030594 5:0.0321888 6:0.0350457 7:5.00519e-06 8:1 
1 1:5.49071e-05 2:5.77725e-05 3:6.2895e-05 4:0.0304644 5:0.0320524 6:0.0348972 7:6.10038e-06 8:1 
1 1:0.000190767 2:0.00020071 3:0.000218521 4:0.0339759 5:0.035747 6:0.0389197 7:7.50444e-06 8:1 
1 1:0.000421187 2:0.000443141 3:0.000482475 4:0.0343567 5:0.0361476 6:0.0393558 7:9.2316e-06 8:1 
1 1:0.000288107 2:0.000303127 3:0.000330033 4:0.0381285 5:0.040116 6:0.0436765 7:1.07568e-05 8:1 
1 1:0.00102554 2:0.001079 3:0.00117477 4:0.0386406 5:0.0406549 6:0.0442631 7:1.41244e-05 8:1 
1 1:8.62377e-05 2:9.07416e-05 3:9.87891e-05 4:0.0424859 5:0.0447005 6:0.0486679 7:1.53771e-05 8:1 
1 1:0.000268129 2:0.000282111 3:0.000307152 4:0.0472144 5:0.0496756 6:0.0540845 7:1.89648e-05 8:1 
1 1:0.000149603 2:0.000157408 3:0.000171387 4:0.0434039 5:0.0456664 6:0.0497195 7:1.58493e-05 8:1 
1 1:7.60501e-05 2:8.00141e-05 3:8.71164e-05 4:0.0145322 5:0.0152897 6:0.0166467 7:1.15268e-06 8:1 
1 1:0.000180608 2:0.000190021 3:0.000206879 4:0.0485988 5:0.051132 6:0.0556702 7:2.05847e-05 8:1 
1 1:8.84025e-05 2:9.3013e-05 3:0.000101266 4:0.0165375 5:0.0173996 6:0.0189439 7:1.35594e-06 8:1 
1 1:0.000391105 2:0.0004115 3:0.000448017 4:0.0539566 5:0.0567692 6:0.0618077 7:2.59613e-05 8:1 
1 1:0.000274987 2:0.000289323 3:0.000315002 4:0.013104 5:0.013787 6:0.0150107 7:0.0760092 8:1 
1 1:9.91414e-05 2:0.000104312 3:0.000113568 4:0.0187232 5:0.0196991 6:0.0214475 7:2.26717e-06 8:1 
1 1:8.76578e-05 2:9.22277e-05 3:0.000100409 4:0.0149412 5:0.01572 6:0.0171153 7:1.22083e-06 8:1 
1 1:0.000135325 2:0.000142384 3:0.000155017 4:0.0212279 5:0.0223345 6:0.0243167 7:2.38747e-06 8:1 
1 1:0.000410015 2:0.00043139 3:0.000469673 4:0.0169637 5:0.017848 6:0.019432 7:1.98501e-06 8:1 
1 1:0.000198256 2:0.000208588 3:0.000227106 4:0.0242238 5:0.0254865 6:0.0277486 7:3.50094e-06 8:1 
1 1:0.000143357 2:0.000150827 3:0.000164205 4:0.0274902 5:0.0289231 6:0.0314902 7:6.01167e-06 8:1 
1 1:0.000151456 2:0.000159349 3:0.000173493 4:0.019121 5:0.0201177 6:0.0219032 7:1.73767e-06 8:1 
1 1:0.000121479 2:0.000127813 3:0.000139158 4:0.0218384 5:0.0229768 6:0.0250161 7:3.02912e-06 8:1 
1 1:0.000151064 2:0.000158937 3:0.000173044 4:0.0304476 5:0.0320348 6:0.034878 7:5.95378e-06 8:1 
1 1:0.00055312 2:0.000581954 3:0.000633591 4:0.0349953 5:0.0368195 6:0.0400874 7:9.07479e-06 8:1 
1 1:2.17429e-05 2:2.2877e-05 3:2.49031e-05 4:0.0249902 5:0.0262929 6:0.0286264 7:2.93237e-06 8:1 
1 1:0.000448354 2:0.000471718 3:0.000513584 4:0.0387383 5:0.0407576 6:0.044375 7:1.16827e-05 8:1 
1 1:0.000419779 2:0.000441669 3:0.000480868 4:0.027933 5:0.029389 6:0.0319974 7:5.47799e-06 8:1 
1 1:4.32013e-05 2:4.54457e-05 3:4.94779e-05 4:0.0439576 5:0.0462489 6:0.0503537 7:1.55408e-05 8:1 
1 1:1.89617e-06 2:1.99582e-06 3:2.17324e-06 4:0.0312409 5:0.0328694 6:0.0357867 7:5.9767e-06 8:1 
1 1:0.000335442 2:0.000352924 3:0.000384234 4:0.0489906 5:0.0515443 6:0.056119 7:2.04536e-05 8:1 
1 1:0.00136865 2:0.00143999 3:0.0015678 4:0.0350509 5:0.0368779 6:0.040151 7:7.32535e-06 8:1 
1 1:0.00204899 2:0.00215579 3:0.00234713 4:0.0558819 5:0.0587948 6:0.0640131 7:2.69226e-05 8:1 
1 1:8.95357e-05 2:9.42035e-05 3:0.00010256 4:0.0160572 5:0.0168942 6:0.0183936 7:1.18557e-06 8:1 
1 1:0.00129974 2:0.00136748 3:0.00148886 4:0.0400627 5:0.042151 6:0.0458921 7:1.17932e-05 8:1 
1 1:0.000315626 2:0.000332079 3:0.000361552 4:0.0181701 5:0.0191172 6:0.020814 7:1.88136e-06 8:1 
1 1:0.000594371 2:0.000625367 3:0.000680858 4:0.0447948 5:0.0471298 6:0.0513127 7:1.04322e-05 8:1 
1 1:0.000150425 2:0.000158267 3:0.000172315 4:0.0203906 5:0.0214535 6:0.0233576 7:2.00634e-06 8:1 
1 1:0.00174164 2:0.00183243 3:0.00199506 4:0.0500954 5:0.0527067 6:0.0573847 7:2.00452e-05 8:1 
1 1:0.000732408 2:0.000770584 3:0.00083897 4:0.052304 5:0.0550304 6:0.0599146 7:1.89403e-05 8:1 
1 1:5.54156e-05 2:5.8305e-05 3:6.3481e-05 4:0.0230878 5:0.0242913 6:0.0264473 7:3.20152e-06 8:1 
1 1:0.000227247 2:0.00023908 3:0.000260305 4:0.0578895 5:0.060907 6:0.0663128 7:2.59198e-05 8:1 
1 1:0.000931766 2:0.000980329 3:0.00106734 4:0.0606994 5:0.0638635 6:0.0695316 7:2.99921e-05 8:1 
1 1:0.000404076 2:0.000425139 3:0.000462873 4:0.025986 5:0.0273406 6:0.0297672 7:3.50069e-06 8:1 
1 1:1.2083e-05 2:1.27219e-05 3:1.38525e-05 4:0.0645974 5:0.0679647 6:0.0739968 7:3.45502e-05 8:1 
1 1:0.000521576 2:0.000548769 3:0.000597476 4:0.0295641 5:0.0311052 6:0.0338659 7:5.93901e-06 8:1 
1 1:0.00125364 2:0.00131898 3:0.00143604 4:0.0673006 5:0.0708087 6:0.0770933 7:4.40243e-05 8:1 
1 1:0.000948641 2:0.000998095 3:0.00108667 4:0.0713289 5:0.075047 6:0.0817078 7:4.53101e-05 8:1 
1 1:0.000841346 2:0.000885183 3:0.000963752 4:0.0785539 5:0.0826486 6:0.089984 7:6.46791e-05 8:1 
1 1:0.000183819 2:0.00019339 3:0.000210559 4:0.0330774 5:0.0348016 6:0.0378904 7:6.76694e-06 8:1 
1 1:0.000391298 2:0.000411686 3:0.000448225 4:0.0752075 5:0.0791279 6:0.0861508 7:5.95677e-05 8:1 
1 1:0.000535621 2:0.000563562 3:0.000613563 4:0.0871099 5:0.0916507 6:0.099785 7:7.37299e-05 8:1 
1 1:2.50302e-05 2:2.63331e-05 3:2.8667e-05 4:0.0370797 5:0.0390125 6:0.0424751 7:9.36533e-06 8:1 
1 1:0.000237565 2:0.000249941 3:0.00027212 4:0.0847925 5:0.0892125 6:0.0971304 7:6.52914e-05 8:1 
1 1:0.000174331 2:0.000183417 3:0.000199698 4:0.0957572 5:0.100749 6:0.10969 7:9.77362e-05 8:1 
1 1:0.000681882 2:0.000717431 3:0.000781115 4:0.0415578 5:0.043724 6:0.0476047 7:1.18663e-05 8:1 
1 1:0.0017293 2:0.00181945 3:0.00198094 4:0.0943349 5:0.0992523 6:0.108061 7:0.00010537 8:1 
1 1:0.000641695 2:0.000675139 3:0.000735068 4:0.104825 5:0.110289 6:0.120077 7:0.000111252 8:1 
1 1:0.00253937 2:0.00267174 3:0.00290886 4:0.105565 5:0.111067 6:0.120925 7:0.000108219 8:1 
1 1:0.0041172 2:0.00433182 3:0.00471629 4:0.114817 5:0.120802 6:0.131524 7:0.000140989 8:1 
1 1:0.00233944 2:0.0024614 3:0.00267983 4:0.115763 5:0.121797 6:0.132607 7:0.000153067 8:1 
1 1:0.000309007 2:0.000325095 3:0.000353953 4:0.125648 5:0.132198 6:0.143931 7:0.000175217 8:1 
1 1:0.00106755 2:0.00112319 3:0.00122285 4:0.127847 5:0.134512 6:0.14645 7:0.000166697 8:1 
1 1:0.00139899 2:0.00147191 3:0.00160259 4:0.142762 5:0.150204 6:0.163535 7:0.00022818 8:1 
1 1:0.000946919 2:0.000996234 3:0.0010847 4:0.137995 5:0.145188 6:0.158074 7:0.000186878 8:1 
0.02695250570527431 1:0.165581 2:0.174213 3:0.189674 4:14.3667 5:15.1156 6:16.4572 7:164.807 
1 1:0.000310857 2:0.000327066 3:0.000356104 4:0.153203 5:0.161189 6:0.175495 7:0.000201403 8:1 
1 1:0.000888283 2:0.000934581 3:0.00101754 4:0.0622248 5:0.0654684 6:0.071279 7:2.91362e-05 8:1 
1 1:0.00106245 2:0.00111785 3:0.00121704 4:0.166156 5:0.174817 6:0.190333 7:0.000320449 8:1 
1 1:2.19122e-05 2:2.30512e-05 3:2.50768e-05 4:0.0697825 5:0.07342 6:0.0799363 7:4.749e-05 8:1 
0.01995380032642 1:0.49916 2:0.52518 3:0.571793 4:6.70034 5:7.04961 6:7.67529 7:120.881 
1 1:0.00124219 2:0.00130693 3:0.00142294 4:0.0779366 5:0.0819992 6:0.089277 7:6.10449e-05 8:1 
1 1:0.00221784 2:0.00233346 3:0.0025406 4:0.207197 5:0.217998 6:0.237346 7:0.000645276 8:1 
1 1:0.00116927 2:0.00123022 3:0.00133942 4:0.0886475 5:0.0932684 6:0.101546 7:6.88538e-05 8:1 
1 1:0.000637546 2:0.000670779 3:0.000730311 4:0.0558756 5:0.0587882 6:0.0640059 7:2.42039e-05 8:1 
1 1:0.00076387 2:0.000803688 3:0.000875036 4:0.0982391 5:0.10336 6:0.112534 7:9.28659e-05 8:1 
1 1:0.00134664 2:0.00141683 3:0.00154258 4:0.0632564 5:0.0665538 6:0.0724607 7:4.06153e-05 8:1 
1 1:0.00183615 2:0.00193184 3:0.0021033 4:0.107402 5:0.113 6:0.12303 7:0.0001245 8:1 
0.02565673627836917 1:0.122044 2:0.128405 3:0.139802 4:9.935 5:10.4529 6:11.3806 7:139.092 
1 1:0.00211699 2:0.00222732 3:0.00242502 4:0.071845 5:0.07559 6:0.082299 7:4.7324e-05 8:1 
1 1:0.000792752 2:0.000834074 3:0.000908093 4:0.0798903 5:0.0840547 6:0.0915149 7:6.36237e-05 8:1 
0.01403518159677523 1:1.00311 2:1.0554 3:1.14908 4:27.2596 5:28.6806 6:31.2261 7:20.0125 8:1 
1 1:0.000350398 2:0.000368686 3:0.000401385 4:0.0890409 5:0.0936823 6:0.101997 7:7.85535e-05 8:1 
1 1:0.00223845 2:0.00235513 3:0.00256412 4:0.0978899 5:0.102993 6:0.112134 7:7.78447e-05 8:1 
0.004692460034345989 1:0.64695 2:0.680671 3:0.741084 4:29.0164 5:30.5289 6:33.2385 7:15.7347 8:1 
0.009715956829056516 1:0.17259 2:0.181585 3:0.197703 4:32.37 5:34.0573 6:37.0801 7:2.99509 8:1 
1 1:0.000602801 2:0.000634227 3:0.000690518 4:0.0465609 5:0.048988 6:0.0533358 7:1.43583e-05 8:1 
1 1:0.00449568 2:0.00473001 3:0.0051498 4:0.109751 5:0.115471 6:0.12572 7:0.000124342 8:1 
0.002177355604179798 1:0.0251024 2:0.0264139 3:0.0287519 4:31.073 5:32.6927 6:35.5943 7:8.37281 8:1 
1 1:0.000962368 2:0.00101252 3:0.0011024 4:0.0514473 5:0.054129 6:0.0589332 7:1.89358e-05 8:1 
1 1:0.00194611 2:0.00204756 3:0.00222927 4:0.123046 5:0.12946 6:0.14095 7:0.000150424 8:1 
1 1:0.00108905 2:0.00114582 3:0.00124752 4:0.0714303 5:0.0751537 6:0.0818239 7:4.09156e-05 8:1 
1 1:0.000522345 2:0.00054957 3:0.00059835 4:0.0581408 5:0.0611715 6:0.0666007 7:2.4527e-05 8:1 
1 1:0.000625761 2:0.000658397 3:0.000716805 4:0.136212 5:0.143313 6:0.156032 7:0.000188734 8:1 
1 1:0.0003636 2:0.000382553 3:0.000416495 4:0.0821322 5:0.0864135 6:0.0940831 7:5.62078e-05 8:1 
1 1:0.00443032 2:0.00466123 3:0.00507495 4:0.154387 5:0.162435 6:0.176852 7:0.000276211 8:1 
1 1:0.000301885 2:0.000317607 3:0.000345806 4:0.0906752 5:0.0954018 6:0.103869 7:8.29782e-05 8:1 
1 1:0.00208786 2:0.0021967 3:0.00239166 4:0.0651838 5:0.0685816 6:0.0746684 7:4.88851e-05 8:1 
1 1:0.00273206 2:0.00287445 3:0.00312955 4:0.170319 5:0.179197 6:0.195101 7:0.000393712 8:1 
1 1:0.00266963 2:0.00280879 3:0.00305808 4:0.101723 5:0.107026 6:0.116525 7:9.29174e-05 
1 1:0.00313641 2:0.00329991 3:0.00359277 4:0.186436 5:0.196154 6:0.213563 7:0.000441062 8:1 
1 1:0.00022153 2:0.000233088 3:0.000253726 4:0.189003 5:0.198855 6:0.216505 7:0.000385719 8:1 
1 1:0.000536794 2:0.00056478 3:0.000614921 4:0.110693 5:0.116463 6:0.126799 7:0.000144771 
1 1:0.000310186 2:0.000326376 3:0.000355359 4:0.210711 5:0.221694 6:0.241371 7:0.000634663 8:1 
1 1:0.000500983 2:0.000527104 3:0.000573898 4:0.124414 5:0.130899 6:0.142517 7:0.000212847 
1 1:0.00389335 2:0.00409632 3:0.00445985 4:0.201099 5:0.211582 6:0.230361 7:0.000550821 8:1 
1 1:2.16607e-05 2:2.28044e-05 3:2.4816e-05 4:0.219975 5:0.231441 6:0.251983 7:0.000780133 8:1 
1 1:0.00778488 2:0.00819063 3:0.00891764 4:0.135986 5:0.143074 6:0.155773 7:0.000210756 
1 1:0.000508139 2:0.000534615 3:0.000582058 4:0.229192 5:0.241139 6:0.262541 7:0.000735874 8:1 
1 1:0.00851021 2:0.00895385 3:0.00974855 4:0.235868 5:0.248163 6:0.270188 7:0.000677468 8:1 
1 1:0.00457809 2:0.00481673 3:0.00524424 4:0.15101 5:0.158882 6:0.172983 7:0.000278162 
1 1:0.00208811 2:0.00219693 3:0.00239195 4:0.170665 5:0.179561 6:0.195498 7:0.000361994 
0.01058805312210333 1:0.188896 2:0.198743 3:0.216383 4:32.1605 5:33.8369 6:36.8401 7:2.91726 
0.003367205251293423 1:0.129829 2:0.136593 3:0.148716 4:31.8511 5:33.5114 6:36.4857 7:6.49226 
0.006156632059364951 1:0.521989 2:0.54919 3:0.59794 4:31.2912 5:32.9223 6:35.8443 7:6.70144 8:1 
0.01561407533852494 1:0.855503 2:0.900095 3:0.979988 4:29.3907 5:30.9227 6:33.6672 7:14.5339 8:1 
0.009889409005878334 1:0.546266 2:0.574737 3:0.625752 4:27.8116 5:29.2613 6:31.8584 7:17.6388 8:1 
0.02692497290276857 1:1.49099 2:1.56871 3:1.70794 4:8.53732 5:8.98234 6:9.77956 7:152.377 
0.007048991673356707 1:0.238617 2:0.251055 3:0.273339 4:26.4537 5:27.8326 6:30.3029 7:19.7694 8:1 
0.01106624919938303 1:0.0788002 2:0.0829086 3:0.0902672 4:22.7949 5:23.9831 6:26.1117 7:23.6061 8:1 
0.007944500224980746 1:0.0346906 2:0.0364945 3:0.0397348 4:25.2707 5:26.5879 6:28.9477 7:22.1859 8:1 
0.02322116556626247 1:0.911859 2:0.95939 3:1.04454 4:4.01887 5:4.22836 6:4.60364 7:66.9344 
1 1:0.00125278 2:0.00131807 3:0.00143505 4:0.185761 5:0.195444 6:0.212791 7:0.000436921 
0.02433331866079339 1:0.307827 2:0.323872 3:0.352618 4:14.621 5:15.3832 6:16.7485 7:147.408 
1 1:0.000349704 2:0.000367908 3:0.000400567 4:0.208737 5:0.219617 6:0.239109 7:0.000554637 
1 1:0.0061998 2:0.00652297 3:0.00710196 4:0.231889 5:0.243977 6:0.265631 7:0.00066269 
0.0005433884683025414 1:0.788845 2:0.829965 3:0.903628 4:4.37945 5:4.60774 6:5.01669 7:13.5047 8:1 
0.002913078583904804 1:0.0505978 2:0.0532351 3:0.0579599 4:3.33766 5:3.51164 6:3.82331 7:22.0581 8:1 
0.008920279588705504 1:0.0358355 2:0.0377035 3:0.0410498 4:3.58331 5:3.7701 6:4.10471 7:16.3047 8:1 
0.005326412329893262 1:0.0123399 2:0.0129831 3:0.0141354 4:2.65673 5:2.79522 6:3.0433 7:17.877 8:1 
1 8:1 
0.0005346452222694253 1:0.0780134 2:0.0820804 3:0.0893649 4:6.63622 5:6.98214 6:7.60184 7:0.672439 8:1 
0.002889614201002964 1:0.311569 2:0.32781 3:0.356904 4:6.92036 5:7.28109 6:7.92732 7:0.740315 8:1 
0.01677527367196862 1:1.4648 2:1.54115 3:1.67793 4:6.74305 5:7.09455 6:7.72421 7:6.39028 8:1 
0.009831323129947925 1:1.3788 2:1.45067 3:1.57942 4:4.78974 5:5.03941 6:5.48668 7:18.3913 8:1 
0.00527790935643072 1:0.824262 2:0.867228 3:0.944198 4:4.24235 5:4.46349 6:4.85965 7:21.5758 8:1 
0.02141769418049649 1:2.68972 2:2.82993 3:3.0811 4:3.2884 5:3.45981 6:3.76688 7:15.5655 8:1 
0.01405451055835191 1:1.3178 2:1.38649 3:1.50955 4:5.98172 5:6.29352 6:6.8521 7:12.3636 8:1 
1 7:1.83695 8:1 
0.218951342240806 1:0.00247255 2:0.00260144 3:0.00283232 4:0.308723 5:0.324816 6:0.353645 7:6.13941 8:1 
0.09567281479445683 1:0.307 2:0.323003 3:0.351671 4:0.1535 5:0.161501 6:0.175835 7:1.64321 8:1 
1 8:1 
1 1:0.30494 2:0.320836 3:0.349311 4:0.15247 5:0.160418 6:0.174656 7:1.62123 8:1 
0.005798578829541733 1:0.637736 2:0.67098 3:0.730531 4:6.53732 5:6.87809 6:7.48855 7:1.43385 8:1 
0.4699642174886381 1:0.307509 2:0.323538 3:0.352254 4:1.05834 5:1.11351 6:1.21234 7:11.8213 8:1 
0.006552288300899128 1:1.11511 2:1.17324 3:1.27737 4:2.87417 5:3.02399 6:3.29238 7:19.9711 8:1 
0.0006388295571000855 1:0.0734024 2:0.0772285 3:0.0840826 4:3.34691 5:3.52138 6:3.83391 7:19.3364 8:1 
0.01342765632724128 1:0.0556189 2:0.0585179 3:0.0637119 4:4.3626 5:4.59 6:4.99738 7:21.2595 8:1 
0.009173791576320034 1:0.0620527 2:0.0652873 3:0.0710806 4:4.29237 5:4.51612 6:4.91695 7:10.6541 8:1 
0.001202155793130218 1:0.239268 2:0.251741 3:0.274084 4:4.81775 5:5.06888 6:5.51876 7:18.5312 8:1 
0.007495290814711216 1:0.909729 2:0.95715 3:1.0421 4:5.07341 5:5.33787 6:5.81163 7:9.76359 8:1 
0.00542353877634815 1:0.0672913 2:0.0707993 3:0.0770831 4:5.32333 5:5.60081 6:6.09791 7:15.8578 8:1 
0.004481634082680355 1:0.0607096 2:0.0638735 3:0.0695434 4:4.38859 5:4.61735 6:5.02716 7:14.1995 8:1 
0.004058163151665867 1:0.0883908 2:0.0929979 3:0.101251 4:5.38067 5:5.66114 6:6.16359 7:14.5712 8:1 
0.001264007494120756 1:0.0616357 2:0.0648504 3:0.0706051 4:5.29644 5:5.57253 6:6.06711 7:11.385 8:1 
-0.003977774249693862 
-1 7:6665.12 
-1 1:0.000183105 3:0.000259399 4:760.365 5:800 6:871.003 7:30000 8:1 
-0.9726591114581934 7:50000 8:1 
-0.972657114591944 1:0.000183105 3:0.000259399 4:760.365 5:800 6:871.003 8:1 
-1 1:0.000183105 3:0.000259399 4:760.365 5:800 6:871.003 8:1 
-1 7:50000 8:1 
-1 7:2.19238 
-1 7:145.244 
-1 7:61.0682 8:1 
-0.2608700125450436 
-1 
-1 
-1 
-1 
-1 
-1 
-1 
-1 
-0.7832378861463696 8:1 
-1 8:1 
-1 8:1 
-1 8:1 
-1 8:1 
-1 8:1 
-1 8:1 
-1 8:1 
-1 8:1 
-1 
-1 8:1 
-1 8:1 
-1 8:1 
-1 8:1 
-1 8:1 
-1 8:1 
-1 8:1 
-1 8:1 
-1 
-1 8:1 
-1 8:1 
-1 8:1 
-1 8:1 
-1 7:12.0915 8:1 
-1 8:1 
-1 8:1 
-1 8:1 
-1 8:1 
-1 8:1 
-1 8:1 
-1 8:1 
-1 8:1 
-1 8:1 
-1 8:1 
-1 8:1 
-1 8:1 
-1 8:1 
-1 8:1 
-1 8:1 
-1 8:1 
-1 8:1 
-1 8:1 
-1 8:1 
-1 8:1 
-1 8:1 
-1 8:1 
-1 8:1 
-1 8:1 
-1 8:1 
-1 8:1 
-1 8:1 
-1 8:1 
-1 8:1 
-1 8:1 
-1 8:1 
-1 8:1 
-1 8:1 
-1 8:1 
-1 8:1 
-1 8:1 
-1 8:1 
-1 8:1 
-1 8:1 
-1 8:1 
-1 8:1 
-1 8:1 
-1 8:1 
-1 8:1 
-1 8:1 
-1 8:1 
-1 8:1 
-1 8:1 
-1 8:1 
-1 8:1 
-1 8:1 
-1 8:1 
-1 8:1 
-1 8:1 
-1 8:1 
-1 8:1 
-1 8:1 
-1 8:1 
-1 8:1 
-1 8:1 
-1 8:1 
-1 8:1 
-1 8:1 
-1 8:1 
-1 
-1 8:1 
-1 
-1 8:1 
-1 
-1 8:1 
-1 
-1 8:1 
-1 8:1 
-1 8:1 
-1 8:1 
-1 8:1 
-1 8:1 
-1 8:1 
-1 8:1 
-1 8:1 
-1 8:1 
-1 8:1 
-1 8:1 
-1 8:1 
-1 8:1 
-1 8:1 
-1 8:1 
-1 8:1 
-1 8:1 
-1 8:1 
-1 8:1 
-1 8:1 
-1 8:1 
-1 8:1 
-1 8:1 
-1 8:1 
-1 8:1 
-1 8:1 
-1 8:1 
-1 8:1 
-1 8:1 
-1 8:1 
-1 8:1 
-1 8:1 
-1 8:1 
-1 8:1 
-1 8:1 
-1 8:1 
-1 8:1 
-1 8:1 
-1 8:1 
-1 8:1 
-1 8:1 
-1 8:1 
-1 8:1 
-1 
-1 8:1 
-1 
-1 8:1 
-1 
-1 8:1 
-1 8:1 
-1 8:1 
-1 
-1 8:1 
-1 8:1 
-1 8:1 
-1 8:1 
-1 8:1 
-1 8:1 
-1 8:1 
-1 8:1 
-1 8:1 
-1 8:1 
-1 8:1 
-1 8:1 
-1 8:1 
-1 8:1 
-1 8:1 
-1 8:1 
-1 8:1 
-1 8:1 
-1 8:1 
-1 8:1 
-1 8:1 
-1 8:1 
-1 8:1 
-1 8:1 
-1 8:1 
-1 8:1 
-1 8:1 
-1 8:1 
-1 8:1 
-1 8:1 
-1 8:1 
-1 8:1 
-1 8:1 
-1 8:1 
-1 8:1 
-1 8:1 
-1 8:1 
-1 8:1 
-1 8:1 
-1 8:1 
-1 8:1 
-1 8:1 
-1 8:1 
-1 8:1 
-1 8:1 
-1 8:1 
-1 8:1 
-1 8:1 
-1 8:1 
-1 8:1 
-1 8:1 
-1 8:1 
-1 8:1 
-1 8:1 
-1 8:1 
-1 8:1 
-1 8:1 
-1 8:1 
-1 8:1 
-1 8:1 
-1 8:1 
-1 8:1 
-1 8:1 
-1 8:1 
-1 8:1 
-1 8:1 
-1 8:1 
-1 8:1 
-1 8:1 
-1 8:1 
-1 8:1 
-1 8:1 
-1 8:1 
-1 8:1 
-1 8:1 
-1 8:1 
-1 8:1 
-1 8:1 
-1 8:1 
-1 8:1 
-1 8:1 
-1 8:1 
-1 8:1 
-1 8:1 
-1 8:1 
-1 8:1 
-1 8:1 
-1 8:1 
-1 8:1 
-1 8:1 
-1 8:1 
-1 8:1 
-1 8:1 
-1 8:1 
-1 8:1 
-1 8:1 
-1 8:1 
-1 8:1 
-1 7:3.02693 8:1 
-1 8:1 
-1 8:1 
-1 8:1 
-1 8:1 
-1 8:1 
-1 8:1 
-1 8:1 
-1 8:1 
-1 8:1 
-1 8:1 
-1 8:1 
-1 8:1 
-1 8:1 
-1 8:1 
-1 8:1 
-1 8:1 
-1 8:1 
-1 8:1 
-1 8:1 
-1 8:1 
-1 8:1 
-1 8:1 
-1 8:1 
-1 8:1 
-1 8:1 
-1 8:1 
-1 8:1 
-1 8:1 
-1 8:1 
-1 8:1 
-1 8:1 
-1 8:1 
-1 8:1 
-1 8:1 
-1 8:1 
-1 8:1 
-1 8:1 
-1 8:1 
-1 8:1 
-1 8:1 
-1 8:1 
-1 8:1 
-0.9861947037672667 8:1 
