svm_type c_svc
kernel_type rbf
gamma 0.125
nr_class 2
total_sv 2314
rho -0.98167
label 1 0
nr_sv 1716 598
SV
0.00776504894586419 1:0.264871 2:0.27488 3:0.293265 4:11.7543 5:12.0187 6:11.7111 7:46.4086 8:1 
0.003802345475988503 1:0.71629 2:0.730719 3:0.75963 4:11.5494 5:11.9045 6:12.0665 7:44.303 8:1 
0.01049295841284414 1:1.47114 2:1.5372 3:1.56273 4:11.5814 5:11.9206 6:12.0425 7:45.7112 8:1 
0.01480172686579406 1:0.098129 2:0.102259 3:0.122487 4:13.7585 5:14.1746 6:14.3279 7:38.2838 8:1 
0.004583557637893809 1:0.0537624 2:0.0537412 3:0.050475 4:15.0971 5:15.5544 6:15.7492 7:15.3986 8:1 
0.01503954629095338 1:0.617673 2:0.651967 3:0.619545 4:5.36047 5:5.43558 6:5.04673 7:28.7672 8:1 
0.01389628428132797 1:0.0141651 2:0.00768268 3:0.00855339 4:9.10515 5:9.29459 6:9.02885 7:46.7525 8:1 
0.00597932712161212 1:0.674656 2:0.697013 3:0.686198 4:14.8004 5:15.2737 6:15.5245 7:21.8247 8:1 
0.008300374167173078 1:0.710837 2:0.75904 3:0.819994 4:10.7008 5:10.9315 6:10.7136 7:37.8313 8:1 
1 1:0.0142174 2:0.0135134 3:0.0169271 4:0.14464 5:0.133125 6:0.0701755 7:0.0558881 8:1 
0.006866431057154648 1:0.935273 2:0.980106 3:0.938796 4:12.2453 5:12.5374 6:12.3946 7:20.8162 8:1 
1 1:0.0156457 2:0.016182 3:0.00701849 4:0.0361103 5:0.0324052 6:0.00964274 7:0.136433 8:1 
0.00427156207121521 1:0.153851 2:0.159842 3:0.131823 4:12.0423 5:12.4175 6:12.6598 7:16.1894 8:1 
0.005495483005452673 1:0.0394529 2:0.0424321 3:0.0865079 4:12.5841 5:12.9079 6:12.7071 7:11.624 8:1 
0.0007318717653542976 1:0.365595 2:0.377279 3:0.35205 4:11.5252 5:11.8211 6:11.5264 7:8.40719 8:1 
0.01417931284076598 1:1.16718 2:1.22575 3:1.24538 4:9.13682 5:9.42362 6:9.58808 7:49.3801 8:1 
1 1:0.00118631 2:0.000494224 3:0.000447366 4:0.00834209 5:0.00703396 6:0.00113011 7:0.000442746 8:1 
0.0007791007610121747 1:0.0709065 2:0.0716957 3:0.0729911 4:14.9378 5:15.3304 6:15.8431 7:4.28697 8:1 
0.0007723492297575518 1:0.120105 2:0.12322 3:0.149409 4:14.596 5:15.0103 6:15.5287 7:1.1622 8:1 
0.007478476340412387 1:0.144064 2:0.146126 3:0.12945 4:13.9664 5:14.3632 6:14.9795 7:1.4186 8:1 
0.001349455954975709 1:0.0730661 2:0.0819279 3:0.0349916 4:11.7024 5:12.0166 6:12.5899 7:3.92561 8:1 
0.001214831064981339 1:0.0543406 2:0.054176 3:0.0558406 4:10.9649 5:11.257 6:11.8224 7:1.77033 8:1 
0.004897193495615234 1:0.00711876 2:0.00153708 3:0.0170334 4:5.25163 5:5.36454 6:5.71512 7:0.0184231 8:1 
0.002116656031563469 1:0.351766 2:0.366546 3:0.384943 4:9.67978 5:9.93606 6:9.49941 7:7.3427 8:1 
1 1:6.74541e-07 2:3.33224e-07 3:2.28886e-06 4:3.9012e-07 5:1.96996e-07 6:1.23035e-06 7:9.99847e-13 8:1 
1 1:6.75636e-05 2:5.70005e-05 3:2.12697e-05 4:3.37818e-05 5:2.85002e-05 6:1.06349e-05 7:5.0657e-08 8:1 
0.001379902703811275 1:0.412745 2:0.427992 3:0.420238 4:9.26812 5:9.51873 6:9.09331 7:2.85357 8:1 
1 1:0.00539529 2:0.00453792 3:0.00316287 4:0.00549683 5:0.00481137 6:0.00217993 7:0.000456596 8:1 
1 1:0.0136175 2:0.0123515 3:0.00244907 4:0.0308012 5:0.0266363 6:0.0086432 7:0.00570526 8:1 
1 1:0.00806021 2:0.00828131 3:0.00532953 4:0.0756314 5:0.0651441 6:0.0161691 7:0.0115468 8:1 
0.002733750976850635 1:0.446564 2:0.455486 3:0.45463 4:8.50192 5:8.71857 6:8.49265 7:1.11924 8:1 
1 1:0.0110159 2:0.00813431 3:0.00287662 4:0.112192 5:0.094945 6:0.0228259 7:0.0132103 8:1 
0.003134573556913637 1:0.00503647 2:0.0136533 3:0.0346208 4:7.94618 5:8.1481 6:7.90755 7:1.25726 8:1 
0.007419824067148917 1:0.065034 2:0.069945 3:0.0650872 4:3.79431 5:3.86295 6:3.93855 7:5.97097 8:1 
0.000871864563030067 1:0.0914943 2:0.0850368 3:0.137133 4:7.40694 5:7.5678 6:7.3559 7:2.93016 8:1 
0.002144150095271949 1:0.00619054 2:0.00809699 3:0.00207353 4:7.89402 5:8.08734 6:8.49327 7:7.99529 8:1 
0.009249297442353118 1:0.0595599 2:0.0664095 3:0.118937 4:7.19541 5:7.44727 6:7.78975 7:19.4371 8:1 
0.005261647503238502 1:0.258479 2:0.26114 3:0.279547 4:9.79013 5:10.1557 6:10.4614 7:16.1684 8:1 
0.007769256120750974 1:0.0166218 2:0.0200844 3:0.0204006 4:8.75764 5:8.95424 6:9.64212 7:0.401582 8:1 
0.006927811689165339 1:0.0174131 2:0.0254014 3:0.00384939 4:14.204 5:14.7193 6:14.9925 7:7.53639 8:1 
0.003149059608093252 1:0.144482 2:0.166095 3:0.127454 4:15.516 5:16.0404 6:16.3572 7:8.99962 8:1 
0.01480449965093006 1:0.601444 2:0.622926 3:0.653461 4:13.6984 5:14.1377 6:15.6259 7:68.6555 8:1 
0.01631205115557305 1:0.88888 2:0.933988 3:0.994361 4:14.1846 5:14.6223 6:16.0604 7:53.3735 8:1 
0.01161958060377242 1:0.17667 2:0.189687 3:0.234188 4:16.2159 5:16.6554 6:17.9836 7:42.0338 8:1 
0.00730902607537473 1:1.2188 2:1.26553 3:1.40553 4:18.0365 5:18.63 6:20.4599 7:105.552 8:1 
0.007320346804086529 1:0.0404429 2:0.0410233 3:0.0199969 4:14.2839 5:14.7032 6:15.5696 7:26.9836 8:1 
0.01348114228304009 1:0.111164 2:0.103427 3:0.131824 4:17.6458 5:18.2082 6:19.9245 7:86.7586 8:1 
0.01010259231289867 1:0.671457 2:0.677817 3:0.754563 4:15.4167 5:15.8471 6:17.1221 7:36.9694 8:1 
0.004584900026675021 1:0.125949 2:0.141934 3:0.176766 4:20.8048 5:21.4757 6:23.3968 7:77.237 8:1 
0.007594038236130992 1:0.633894 2:0.676183 3:0.80531 4:15.0379 5:15.5012 6:16.4415 7:42.4232 8:1 
0.01215429064860279 1:0.31477 2:0.335434 3:0.223664 4:14.0843 5:14.4654 6:15.6908 7:48.1291 8:1 
0.01526996867055752 1:0.343921 2:0.348859 3:0.433205 4:16.9498 5:17.4456 6:18.9151 7:77.1807 8:1 
0.003179480401170887 1:1.10605 2:1.16866 3:1.24204 4:15.5237 5:16.0439 6:17.0747 7:40.6723 8:1 
0.009859748109039002 1:0.028697 2:0.0134511 3:0.0146716 4:20.312 5:20.9797 6:22.6907 7:88.7161 8:1 
0.004231990030015176 1:0.280018 2:0.2754 3:0.272999 4:14.5139 5:14.9934 6:16.0305 7:41.14 8:1 
0.007899306476900169 1:1.73155 2:1.84045 3:2.07481 4:22.7975 5:23.5624 6:25.5761 7:95.2007 8:1 
0.01305763223247924 1:1.69973 2:1.78447 3:1.81608 4:17.5502 5:18.073 6:19.5829 7:133.23 8:1 
0.003981205766083122 1:0.0711746 2:0.0879128 3:0.0831981 4:9.63818 5:9.84619 6:9.67884 7:5.26348 8:1 
0.007626560599885531 1:0.844375 2:0.899393 3:0.947788 4:17.5022 5:18.1223 6:19.4909 7:80.7474 8:1 
0.005822567795813027 1:1.38776 2:1.46409 3:1.58995 4:19.3328 5:19.9571 6:21.598 7:110.013 8:1 
0.01007634396752893 1:1.01316 2:1.03865 3:1.10235 4:17.9548 5:18.4922 6:20.0364 7:121.917 8:1 
0.004771500448400753 1:0.0356539 2:0.032213 3:0.0494729 4:8.44437 5:8.63828 6:9.08319 7:10.1089 8:1 
0.01119556686603533 1:0.660958 2:0.684498 3:0.755664 4:11.1602 5:11.4933 6:12.4108 7:41.0117 8:1 
0.01299586170245848 1:0.555932 2:0.567219 3:0.651233 4:18.8129 5:19.3854 6:21.0456 7:117.162 8:1 
0.001992909609617529 1:0.0055033 2:0.00225234 3:0.0239255 4:10.9599 5:11.1827 6:11.0227 7:10.8845 8:1 
0.00895629336921913 1:0.231118 2:0.231404 3:0.263391 4:12.7892 5:13.123 6:13.9077 7:23.6947 8:1 
0.006210262139400331 1:0.198773 2:0.217343 3:0.237796 4:15.1285 5:15.5832 6:16.8737 7:66.969 8:1 
0.01131042991160358 1:0.0640409 2:0.0630722 3:0.0436298 4:14.6827 5:15.117 6:15.7579 7:32.7008 8:1 
0.01392136404520212 1:0.798603 2:0.837384 3:0.94729 4:18.2823 5:18.8048 6:20.3865 7:48.8998 8:1 
0.009727378306158718 1:0.0898812 2:0.0931609 3:0.121447 4:19.0647 5:19.6509 6:21.3178 7:76.9174 8:1 
0.004523807365764798 1:0.0269463 2:0.0288283 3:0.0261859 4:10.6683 5:10.8774 6:10.7193 7:9.92309 8:1 
0.004741723543401891 1:0.265121 2:0.27766 3:0.302229 4:15.5096 5:15.9337 6:17.0088 7:29.4175 8:1 
0.008276241883837998 1:0.0627973 2:0.0629613 3:0.0650926 4:18.4228 5:18.9542 6:20.2806 7:31.5147 8:1 
0.002351955951471109 1:0.221413 2:0.214846 3:0.238947 4:10.5581 5:10.7741 6:10.67 7:13.3683 8:1 
0.01049467583983488 1:0.681027 2:0.686548 3:0.751967 4:16.3543 5:16.8367 6:17.6832 7:50.2199 8:1 
0.00448923793574306 1:0.857874 2:0.888929 3:0.99052 4:21.6925 5:22.3525 6:24.3137 7:68.6676 8:1 
0.002278677563697807 1:0.108869 2:0.101475 3:0.0977349 4:23.2901 5:23.9684 6:26.0616 7:32.024 8:1 
0.01445691745121358 1:1.7984 2:1.86782 3:2.01971 4:16.6521 5:17.138 6:18.0475 7:57.7354 8:1 
0.007111877861968346 1:0.00699353 2:0.00554609 3:0.0809894 4:21.6248 5:22.2576 6:23.9608 7:28.1548 8:1 
0.01651691434904467 1:1.2913 2:1.33819 3:1.489 4:16.0926 5:16.5745 6:17.4374 7:62.7646 8:1 
0.001697530939449576 1:0.135538 2:0.142928 3:0.128811 4:9.23959 5:9.43976 6:9.54674 7:14.521 8:1 
0.008958592169273645 1:0.349295 2:0.368743 3:0.384809 4:20.5001 5:21.1054 6:22.9086 7:99.4937 8:1 
0.005222976350463942 1:0.796373 2:0.837551 3:0.939573 4:21.67 5:22.2683 6:23.9607 7:51.8057 8:1 
0.007507161736376722 1:1.395 2:1.44626 3:1.67023 4:22.3488 5:22.9782 6:24.9421 7:66.1937 8:1 
0.008984525854558195 1:0.23297 2:0.241852 3:0.220851 4:18.0761 5:18.6071 6:20.053 7:105.853 8:1 
0.004539117198394615 1:0.09497 2:0.0938516 3:0.133036 4:19.6563 5:20.1792 6:21.6522 7:81.5147 8:1 
0.008088944051447881 1:0.207165 2:0.202542 3:0.219716 4:20.0896 5:20.6374 6:22.2463 7:93.0215 8:1 
0.00383796269365777 1:0.177453 2:0.19039 3:0.201044 4:10.4726 5:10.7147 6:10.9152 7:29.6904 8:1 
0.006546216085773845 1:0.0567143 2:0.0685565 3:0.0877857 4:17.8946 5:18.4185 6:19.7701 7:109.863 8:1 
0.003089344846275157 1:0.649572 2:0.670998 3:0.75101 4:17.0444 5:17.4964 6:18.5891 7:111.982 8:1 
0.01378773626988988 1:0.424286 2:0.433687 3:0.451635 4:9.27311 5:9.48612 6:9.6183 7:30.3394 8:1 
0.0067236503462592 1:0.224967 2:0.23624 3:0.18682 4:20.1094 5:20.7836 6:22.1754 7:145.79 8:1 
0.0138562413966612 1:0.242349 2:0.245095 3:0.263984 4:16.7633 5:17.2531 6:18.5327 7:116.989 8:1 
0.009478830322148522 1:0.720475 2:0.732435 3:0.785262 4:16.2572 5:16.7038 6:17.8822 7:112.955 8:1 
0.01406505248879769 1:2.69315 2:2.80966 3:3.09104 4:19.8556 5:20.4928 6:21.9682 7:151.714 8:1 
0.01591698804606628 1:0.36201 2:0.362567 3:0.418997 4:12.8631 5:13.22 6:13.9735 7:92.8166 8:1 
0.009996683519266303 1:0.872299 2:0.913653 3:0.981707 4:14.9361 5:15.3516 6:16.1524 7:108.32 8:1 
0.01273836801991612 1:0.22393 2:0.223565 3:0.219603 4:18.9727 5:19.5245 6:21.0925 7:132.104 8:1 
0.00761324318809542 1:2.43143 2:2.50446 3:2.72323 4:20.1537 5:20.7959 6:22.33 7:148.823 8:1 
0.003640394299606711 1:0.733079 2:0.770389 3:0.832508 4:21.8399 5:22.5588 6:24.5205 7:64.0752 8:1 
0.009288764133925487 1:0.046823 2:0.0660298 3:0.0698733 4:20.9445 5:21.6122 6:23.2611 7:134.897 8:1 
0.005300327582474427 1:0.180947 2:0.201698 3:0.211041 4:19.5645 5:20.1238 6:21.7609 7:120.692 8:1 
0.009581232434147768 1:1.15527 2:1.19625 3:1.27138 4:13.5432 5:13.9448 6:14.7895 7:96.7138 8:1 
0.008775026366799166 1:1.53615 2:1.59849 3:1.74231 4:20.6008 5:21.2691 6:23.0714 7:108.994 8:1 
0.006943770437715768 1:0.301145 2:0.288602 3:0.370857 4:19.3938 5:19.982 6:21.5201 7:136.021 8:1 
0.002658235581101454 1:1.10653 2:1.16174 3:1.2112 4:21.3308 5:22.044 6:23.8606 7:91.5681 8:1 
0.008012891995555289 1:0.164953 2:0.173448 3:0.161255 4:13.9514 5:14.378 6:15.2819 7:108.278 8:1 
0.00592340210894434 1:1.72499 2:1.77412 3:2.02111 4:19.2188 5:19.7637 6:21.3536 7:122.494 8:1 
0.001302620374354257 1:0.950048 2:0.996536 3:1.03933 4:20.5891 5:21.2491 6:23.0337 7:120.452 8:1 
0.008786840987906178 1:0.82167 2:0.826853 3:0.914933 4:17.8578 5:18.4005 6:19.7223 7:125.208 8:1 
0.008850426622268426 1:0.900295 2:0.929009 3:0.941143 4:19.5311 5:20.1792 6:21.7729 7:89.8435 8:1 
0.006124872954837162 1:0.561365 2:0.5719 3:0.553838 4:17.7879 5:18.3305 6:19.8857 7:127.847 8:1 
0.01516087778919761 1:2.72295 2:2.82757 3:3.14377 4:22.5037 5:23.2172 6:25.1922 7:133.974 8:1 
0.008540759088299439 1:1.19548 2:1.24003 3:1.41386 4:20.0564 5:20.7439 6:22.4476 7:94.3889 8:1 
0.01046102789362409 1:0.0794973 2:0.0707493 3:0.118294 4:20.5994 5:21.3026 6:22.9652 7:105.848 8:1 
0.01084257673360681 1:0.736527 2:0.750463 3:0.88465 4:20.4132 5:21.1083 6:22.6023 7:141.152 8:1 
0.01178332275630595 1:0.0978656 2:0.109486 3:0.178372 4:21.7706 5:22.456 6:24.401 7:145.028 8:1 
0.00475644407819973 1:0.48017 2:0.511158 3:0.545663 4:20.9804 5:21.6261 6:23.4208 7:142.076 8:1 
0.006568398087856551 1:1.14019 2:1.19088 3:1.325 4:19.6964 5:20.298 6:22.0791 7:124.367 8:1 
0.003029359129944701 1:1.19812 2:1.26677 3:1.32808 4:21.5075 5:22.1833 6:24.1217 7:145.591 8:1 
0.01235960908359324 1:0.351223 2:0.36664 3:0.330114 4:21.3223 5:21.9893 6:23.7737 7:110.758 8:1 
0.01507003997859446 1:0.750407 2:0.751403 3:0.749188 4:21.8024 5:22.4856 6:24.4997 7:170.559 8:1 
0.005700123043559621 1:1.79758 2:1.87426 3:2.08862 4:21.5525 5:22.2223 6:23.9415 7:128.43 8:1 
0.0157345077263558 1:1.23033 2:1.26724 3:1.36951 4:21.9298 5:22.68 6:24.3071 7:166.331 8:1 
0.007308344765804178 1:1.21428 2:1.23931 3:1.33451 4:21.7364 5:22.4012 6:24.3631 7:131.437 8:1 
0.006720882042512285 1:1.54517 2:1.63566 3:1.76301 4:21.1368 5:21.832 6:23.424 7:147.337 8:1 
0.002568765188323496 1:0.873724 2:0.923814 3:0.923071 4:20.6044 5:21.229 6:23.211 7:138.076 8:1 
0.015724311726933 1:2.76053 2:2.86727 3:3.05976 4:21.53 5:22.2087 6:24.2089 7:157.155 8:1 
0.009120616429986128 1:0.638405 2:0.671834 3:0.682119 4:21.8357 5:22.5043 6:24.3059 7:155.044 8:1 
0.004652212680123525 1:0.448568 2:0.47106 3:0.556221 4:20.3048 5:20.9086 6:22.7463 7:121.795 
0.001142559821496541 1:1.04221 2:1.08869 3:1.2183 4:22.0398 5:22.7883 6:24.4672 7:167.493 8:1 
0.006783482455970102 1:1.38024 2:1.39368 3:1.52481 4:20.1849 5:20.8077 6:22.2742 7:100.18 8:1 
0.002492486956381545 1:0.19375 2:0.194189 3:0.188944 4:19.9203 5:20.5348 6:22.2203 7:97.7332 8:1 
0.01710254795545996 1:1.30521 2:1.37046 3:1.54264 4:20.748 5:21.4437 6:23.0222 7:174.282 8:1 
0.005493063124763498 1:1.89158 2:2.00144 3:2.21751 4:21.2291 5:21.8812 6:23.6439 7:154.571 8:1 
0.008883549569738801 1:1.19567 2:1.23048 3:1.38965 4:23.0269 5:23.7621 6:25.4865 7:78.8058 8:1 
0.01637960811837502 1:0.097225 2:0.107775 3:0.0846398 4:19.8127 5:20.4913 6:21.8978 7:158.933 8:1 
0.006658238918683224 1:0.200449 2:0.185328 3:0.131365 4:21.596 5:22.2915 6:23.9899 7:41.7334 8:1 
0.01810665862146404 1:2.39844 2:2.53971 3:3.60871 4:31.5609 5:32.4257 6:35.3437 7:801.033 
0.01237686219775333 1:1.71346 2:1.80488 3:1.93001 4:24.8715 5:25.654 6:27.6189 7:62.8921 8:1 
0.01387634158010328 1:2.42806 2:2.5301 3:2.75191 4:23.2624 5:23.9958 6:25.7855 7:117.634 8:1 
0.006785831493667538 1:0.42752 2:0.442704 3:0.472959 4:22.7572 5:23.4769 6:25.15 7:44.9389 8:1 
0.0121228450623212 1:1.15445 2:1.17686 3:1.2843 4:26.2003 5:27.0353 6:29.2071 7:66.6255 8:1 
0.007373583127459841 1:1.21846 2:1.23685 3:1.34148 4:24.543 5:25.3382 6:27.2475 7:74.6431 8:1 
0.01423947724880753 1:0.493217 2:0.511395 3:0.552544 4:9.04746 5:9.26526 6:9.4229 7:36.0522 8:1 
0.01520209110052589 1:1.49506 2:1.53475 3:1.63801 4:20.2789 5:20.8835 6:22.6186 7:114.038 
0.007492861909950384 1:1.21995 2:1.26451 3:1.4033 4:23.6458 5:24.3714 6:26.1816 7:58.3664 8:1 
0.01028081969490252 1:1.73177 2:1.79219 3:1.9051 4:25.4599 5:26.2451 6:28.4039 7:77.4014 8:1 
0.01689243704732385 1:0.165616 2:0.176713 3:0.239125 4:14.1849 5:14.5825 6:15.3375 7:128.828 8:1 
0.01832672062752266 1:2.2495 2:2.33582 3:2.51669 4:9.94038 5:10.2084 6:10.525 7:62.1318 8:1 
0.005984635587012788 1:0.926415 2:0.97727 3:1.12262 4:15.733 5:16.2167 6:17.3199 7:110.577 8:1 
0.01286131285186487 1:1.94241 2:2.00867 3:2.14628 4:15.9177 5:16.3963 6:17.3611 7:149.029 8:1 
0.004220288038465692 1:0.545331 2:0.550736 3:0.622088 4:11.3224 5:11.6577 6:12.1969 7:97.0982 8:1 
0.008437312430841877 1:1.59034 2:1.66038 3:1.84088 4:15.7818 5:16.243 6:17.3684 7:93.7173 8:1 
0.01603193304264966 1:1.09296 2:1.12992 3:1.24923 4:18.373 5:18.8939 6:20.1921 7:145.66 8:1 
0.01544562593332838 1:0.117912 2:0.127104 3:0.155253 4:14.3456 5:14.7928 6:15.6743 7:152.16 8:1 
0.01303246330701953 1:0.106246 2:0.08174 3:0.0608504 4:15.779 5:16.1885 6:17.3187 7:94.8812 8:1 
0.005454979938759955 1:0.434103 2:0.461559 3:0.533444 4:20.7411 5:21.3788 6:23.0511 7:120.195 
0.01242270165023385 1:1.68067 2:1.726 3:2.03258 4:21.6898 5:22.2909 6:23.9329 7:137.577 8:1 
0.01618350781883565 1:0.648774 2:0.678316 3:0.779489 4:13.7386 5:14.0816 6:14.9711 7:121.324 8:1 
0.01244142494966372 1:0.473609 2:0.476079 3:0.555013 4:12.311 5:12.589 6:13.3369 7:98.5709 8:1 
0.006946905464095801 1:0.778755 2:0.809201 3:0.891333 4:21.3316 5:21.9093 6:23.475 7:130.27 8:1 
0.00474688728475925 1:0.898466 2:0.943084 3:0.891348 4:21.4627 5:22.1294 6:23.8959 7:70.4206 
0.01289558770930005 1:0.378403 2:0.368704 3:0.477976 4:20.5124 5:21.0313 6:22.4773 7:149.671 8:1 
0.009726506841649604 1:0.217203 2:0.206127 3:0.290117 4:25.4194 5:26.2142 6:28.4568 7:79.0741 
0.003545897634147168 1:0.890589 2:0.913438 3:1.00769 4:17.7549 5:18.2332 6:19.619 7:109.384 8:1 
0.0162987450780735 1:0.396711 2:0.416507 3:0.354435 4:12.5017 5:12.8003 6:13.5158 7:115.881 8:1 
0.01262507127785917 1:1.06575 2:1.06161 3:1.31095 4:16.2242 5:16.6157 6:17.6063 7:152.434 8:1 
0.00829376778905778 1:0.910525 2:0.961673 3:1.12863 4:22.244 5:22.938 6:24.7166 7:63.2101 
0.004128327135169862 1:1.12001 2:1.15919 3:1.27992 4:14.4408 5:14.8099 6:15.8597 7:95.8683 8:1 
0.001487820575690256 1:0.450114 2:0.439236 3:0.512915 4:15.9748 5:16.38 6:17.5646 7:112.181 8:1 
0.01102156982705116 1:1.15457 2:1.15916 3:1.28344 4:14.4841 5:14.8696 6:15.9651 7:117.249 8:1 
0.01524017436818835 1:0.0546744 2:0.0372714 3:0.00673723 4:13.4393 5:13.7748 6:14.4959 7:105.131 8:1 
0.006457033833205859 1:0.035955 2:0.0399051 3:0.00197935 4:22.7313 5:23.4312 6:25.2389 7:54.6251 
0.01666742544131766 1:0.466539 2:0.460219 3:0.4707 4:17.097 5:17.55 6:18.792 7:139.964 8:1 
0.01719045353791704 1:0.382558 2:0.380327 3:0.373275 4:14.8282 5:15.2216 6:16.1463 7:133.311 8:1 
0.01085898038895882 1:0.85684 2:0.887144 3:0.979868 4:17.0663 5:17.5279 6:18.9453 7:128.574 8:1 
0.0184667943057521 1:49.795 2:51.2948 3:58.1719 4:57.2928 5:58.8953 6:66.2698 7:18062.8 
0.0093585285450275 1:1.44849 2:1.52346 3:1.63162 4:20.9403 5:21.528 6:23.279 7:126.303 8:1 
0.01725506801904747 1:0.520207 2:0.546459 3:0.547702 4:16.5847 5:17.0432 6:18.2562 7:157.445 8:1 
0.003687770353397735 1:0.244003 2:0.258728 3:0.29142 4:23.2183 5:23.9306 6:25.8473 7:51.6243 
0.001490962362962201 1:0.241841 2:0.254698 3:0.329314 4:21.9128 5:22.4996 6:24.3032 7:80.0149 8:1 
0.008063142543559219 1:0.0563455 2:0.0672183 3:0.0390251 4:20.7243 5:21.2735 6:23.0585 7:71.0873 8:1 
0.009977527242696215 1:0.645818 2:0.648801 3:0.752436 4:23.2554 5:23.9655 6:25.9792 7:45.9387 
0.005083696132374102 1:0.772886 2:0.79587 3:0.893175 4:21.8955 5:22.4823 6:24.2753 7:52.6359 8:1 
0.002062599717013891 1:1.09254 2:1.15709 3:1.16598 4:21.0303 5:21.584 6:23.3502 7:41.5595 8:1 
0.004956307831703767 1:0.0871565 2:0.102877 3:0.0345597 4:19.391 5:19.8719 6:21.2716 7:51.3484 8:1 
0.01854452261644091 1:98.3927 2:101.843 3:121.112 4:136.333 5:140.921 6:163.976 7:74397.2 
0.006397169078422041 1:0.170091 2:0.172239 3:0.0923271 4:18.8282 5:19.3828 6:20.9939 7:109.333 
0.009023023710827707 1:1.05181 2:1.06669 3:1.19356 4:21.8411 5:22.4058 6:24.1691 7:82.2907 8:1 
0.006744831965941331 1:0.296044 2:0.321782 3:0.331273 4:17.1214 5:17.5481 6:18.6128 7:28.1461 8:1 
0.006162002284057333 1:1.21477 2:1.26125 3:1.41519 4:17.9133 5:18.4643 6:19.8582 7:136.262 8:1 
0.001855288015211953 1:0.076843 2:0.0717156 3:0.0387614 4:18.2719 5:18.7387 6:20.0052 7:24.136 8:1 
0.01101469193189178 1:0.740628 2:0.774346 3:0.850172 4:22.1064 5:22.8489 6:24.4703 7:119.185 8:1 
0.005238065840124095 1:0.895403 2:0.949151 3:1.04804 4:18.4953 5:19.0717 6:20.5138 7:137.458 8:1 
0.001237643655284712 1:0.192774 2:0.184587 3:0.229359 4:17.9234 5:18.3968 6:19.6274 7:23.1266 8:1 
0.01059938220825773 1:0.0825362 2:0.111029 3:0.0470176 4:25.2856 5:26.0611 6:28.6531 7:115.616 
0.01062193976240612 1:1.58841 2:1.6663 3:1.80064 4:22.8707 5:23.6229 6:25.3133 7:96.6524 8:1 
0.007336514352492741 1:0.968008 2:1.01477 3:1.19369 4:23.4478 5:24.2031 6:26.0416 7:49.786 8:1 
0.009010291127175373 1:0.307103 2:0.301428 3:0.354318 4:19.5161 5:20.0408 6:21.4413 7:53.1994 8:1 
0.00442450060293962 1:1.17388 2:1.22626 3:1.31553 4:22.6899 5:23.399 6:25.2259 7:126.073 8:1 
0.00632222187434861 1:0.245497 2:0.254292 3:0.273721 4:23.8369 5:24.6293 6:26.4487 7:53.5141 8:1 
0.006182065641600397 1:0.0255857 2:0.00564075 3:0.015696 4:22.457 5:23.0597 6:24.9158 7:79.361 8:1 
0.007079410391605923 1:1.20066 2:1.22753 3:1.36566 4:25.541 5:26.394 6:28.4111 7:70.4618 8:1 
0.006964948924842909 1:0.857663 2:0.882103 3:0.923833 4:23.8961 5:24.6328 6:26.5267 7:67.8251 8:1 
0.01143863978960558 1:1.13241 2:1.18518 3:1.28103 4:26.5495 5:27.3584 6:29.6448 7:82.4834 8:1 
0.006517509380983433 1:0.0942035 2:0.113796 3:0.100305 4:22.9192 5:23.5838 6:25.5214 7:65.5946 8:1 
0.01209983807047565 1:0.662309 2:0.69178 3:0.725392 4:22.493 5:23.1465 6:24.8541 7:59.5466 8:1 
0.0062477246529694 1:0.403579 2:0.435885 3:0.42345 4:27.9371 5:28.8682 6:31.2097 7:74.7095 8:1 
0.01325233440539525 1:0.313826 2:0.308975 3:0.298683 4:20.5877 5:21.1544 6:22.6741 7:45.4867 8:1 
0.003570115337751534 1:0.380431 2:0.409219 3:0.421449 4:22.0341 5:22.7326 6:24.2846 7:39.111 8:1 
0.006543759603349307 1:0.160773 2:0.155022 3:0.245389 4:24.5341 5:25.2469 6:27.5333 7:64.3925 8:1 
0.004632749658922329 1:1.17412 2:1.19793 3:1.41284 4:26.6218 5:27.494 6:29.7487 7:74.8669 8:1 
0.003495920767596057 1:1.37771 2:1.4276 3:1.55902 4:26.022 5:26.8186 6:29.2261 7:85.7376 8:1 
0.01152323908100606 1:0.0111179 2:0.0108862 3:0.0348287 4:23.0812 5:23.7459 6:25.9788 7:75.5263 8:1 
0.006010472064192497 1:0.774245 2:0.795502 3:0.859214 4:26.3111 5:27.1948 6:29.4803 7:85.8836 8:1 
0.0048065574476747 1:0.67796 2:0.713117 3:0.784549 4:23.0368 5:23.7807 6:25.4727 7:55.8052 
0.01417790210270264 1:0.570616 2:0.557966 3:0.562774 4:24.8964 5:25.6197 6:28.0502 7:56.3428 8:1 
0.006194733099262777 1:0.2402 2:0.238358 3:0.304475 4:25.2392 5:26.0264 6:28.4107 7:85.6969 8:1 
0.004709855626484072 1:0.916899 2:0.953594 3:1.15943 4:21.5779 5:22.1969 6:24.2755 7:134.993 
0.005206899673305673 1:0.801492 2:0.82068 3:0.932572 4:20.3178 5:20.9063 6:22.4469 7:51.7464 8:1 
0.005197247424972171 1:0.329028 2:0.335109 3:0.228035 4:24.7864 5:25.5066 6:27.9678 7:92.0668 8:1 
0.009413602462680467 1:1.66372 2:1.72441 3:1.80614 4:25.4363 5:26.281 6:28.5118 7:90.0756 8:1 
0.008739033345788315 1:0.375737 2:0.387242 3:0.461225 4:24.3305 5:25.1273 6:27.4491 7:102.127 8:1 
0.01483919303571624 1:0.0409799 2:0.024889 3:0.0911047 4:25.6792 5:26.4412 6:28.9667 7:106.09 8:1 
0.001876206081329546 1:0.112666 2:0.105256 3:0.0973394 4:25.6367 5:26.4757 6:28.4532 7:71.7918 
0.008049121439634432 1:0.0256212 2:0.0140674 3:0.0203214 4:25.6837 5:26.524 6:29.0074 7:117.596 8:1 
0.01505085567637854 1:0.741457 2:0.762308 3:0.922836 4:27.863 5:28.7218 6:31.499 7:124.044 8:1 
0.0185538029001579 1:37.6868 2:39.0723 3:47.2202 4:381.967 5:394.966 6:465.19 7:171537 
0.007050433300251588 1:0.0175405 2:0.0409617 3:0.118641 4:26.2987 5:27.1426 6:29.2946 7:71.3822 
0.009571384178475433 1:0.0313821 2:0.00514078 3:0.122277 4:30.1615 5:31.0881 6:34.2184 7:95.5761 8:1 
0.01194541622511197 1:2.17812 2:2.25877 3:2.51632 4:33.0444 5:34.0625 6:37.5039 7:45.0958 8:1 
0.007820960538187692 1:0.203585 2:0.196774 3:0.158942 4:26.6125 5:27.4673 6:29.763 7:75.8944 
0.007846788456702083 1:0.440346 2:0.443079 3:0.551809 4:34.5174 5:35.5808 6:39.1134 7:16.4281 8:1 
0.01856260773108714 1:78.9617 2:81.8915 3:96.2691 4:361.467 5:373.636 6:435.522 7:165188 
0.01831995917307577 1:3.38022 2:3.50098 3:3.69695 4:21.1771 5:21.7999 6:23.4079 7:194.175 
0.01009578016632423 1:0.144223 2:0.156776 3:0.209217 4:33.9897 5:34.9954 6:38.3845 7:10.7166 8:1 
0.01820328705755736 1:0.948641 2:0.9834 3:1.2455 4:19.6115 5:20.2651 6:21.6118 7:185.287 
0.009392587726963433 1:1.17091 2:1.19633 3:1.29506 4:24.7723 5:25.5338 6:28.14 7:104.585 
0.01856597069629329 1:2.96609 2:3.0846 3:3.33729 4:41.0325 5:42.3581 6:46.3043 7:10385.8 
0.01113725066900084 1:0.242345 2:0.237545 3:0.200102 4:31.1476 5:32.1698 6:35.141 7:97.8597 
0.01809307088217416 1:15.6789 2:16.2241 3:19.4784 4:66.8767 5:68.9253 6:77.8215 7:19862.2 
0.003414804226859358 1:0.219168 2:0.240559 3:0.181769 4:32.5797 5:33.5295 6:36.8289 7:8.88621 8:1 
0.01433703814641035 1:0.764128 2:0.803483 3:0.865066 4:32.9893 5:34.132 6:37.2002 7:62.2074 
0.01679633754218818 1:0.451634 2:0.480908 3:0.557108 4:25.8158 5:26.5967 6:29.3181 7:125.768 
0.01054974836020306 1:0.0132811 2:0.0118539 3:0.048027 4:30.3384 5:31.2375 6:34.1125 7:26.741 8:1 
0.004362095105537086 1:0.614616 2:0.634568 3:0.613594 4:27.6905 5:28.5009 6:31.0701 7:33.1153 8:1 
0.002435680032263743 1:1.27281 2:1.29467 3:1.36969 4:25.5021 5:26.3375 6:28.7421 7:81.0224 
0.01588023671722888 1:0.118689 2:0.118801 3:0.0656514 4:34.1692 5:35.2507 6:38.5282 7:72.6865 
0.01723808847459146 1:0.606518 2:0.624573 3:0.631525 4:28.3962 5:29.2597 6:32.2581 7:99.6472 
0.006454598838130403 1:0.0569072 2:0.0620511 3:0.140123 4:26.1196 5:26.9254 6:29.3435 7:24.0053 8:1 
0.01734354331647259 1:0.448002 2:0.414968 3:0.438362 4:28.1711 5:29.0781 6:31.7872 7:112.068 
0.00506902979792917 1:0.410625 2:0.425829 3:0.564225 4:35.7694 5:36.8723 6:40.2644 7:20.904 
0.0118040352317586 1:1.35956 2:1.38858 3:1.32617 4:23.8037 5:24.4693 6:26.9108 7:119.612 
0.002654603338857971 1:0.711157 2:0.698052 3:0.785078 4:20.4587 5:20.9487 6:22.4917 7:69.3234 8:1 
0.008759514181781058 1:0.532943 2:0.549241 3:0.610899 4:16.7357 5:17.1748 6:18.1888 7:31.3768 8:1 
0.004550040554051211 1:0.422716 2:0.440345 3:0.503221 4:18.1426 5:18.5505 6:19.8108 7:57.8507 8:1 
0.006974340311508564 1:0.00211048 2:0.014194 3:0.0320849 4:30.5552 5:31.3146 6:34.3168 7:8.74085 
0.01000251742647393 1:0.627049 2:0.669858 3:0.678113 4:34.5704 5:35.6091 6:38.8735 7:15.6338 
0.01445449466865245 1:0.895264 2:0.911219 3:0.988013 4:32.0868 5:33.047 6:36.0426 7:27.7023 
0.01574627125063308 1:0.64361 2:0.667138 3:0.755112 4:18.9736 5:19.5149 6:20.7681 7:69.0425 8:1 
0.0007612219372965523 1:0.599807 2:0.617274 3:0.685878 4:15.0554 5:15.3884 6:16.2162 7:23.4047 8:1 
0.01385730818330783 1:1.7866 2:1.86127 3:2.09409 4:21.9899 5:22.6029 6:24.2758 7:87.0868 8:1 
0.002139107949021335 1:0.53764 2:0.564913 3:0.608078 4:30.1532 5:30.9097 6:33.7975 7:9.82824 
0.01846818368016701 1:0.765935 2:0.797961 3:0.831404 4:24.8921 5:25.6212 6:27.8934 7:182.159 
0.003000840028258622 1:0.567609 2:0.598976 3:0.653481 4:29.5826 5:30.3306 6:33.1828 7:7.0616 
0.01053649423307829 1:0.303322 2:0.314229 3:0.288854 4:33.2139 5:34.1694 6:37.2558 7:6.41546 
0.009671423495664017 1:0.718883 2:0.740186 3:0.846031 4:23.7036 5:24.346 6:26.3054 7:85.4218 8:1 
0.009197460922174232 1:0.440132 2:0.467326 3:0.526111 4:18.4261 5:18.9575 6:20.1979 7:56.8415 8:1 
0.01682397543928943 1:0.225138 2:0.218346 3:0.304594 4:23.9919 5:24.6212 6:26.7356 7:112.079 8:1 
0.00568666806968543 1:0.472232 2:0.446941 3:0.50344 4:28.4953 5:29.2388 6:32.0375 7:13.0154 
0.001834484955131221 1:0.275779 2:0.30929 3:0.379971 4:21.1417 5:21.75 6:23.3599 7:82.348 8:1 
0.006742158828888305 1:0.305037 2:0.334384 3:0.411756 4:24.1958 5:24.8203 6:26.905 7:81.8568 8:1 
0.01162482979308918 1:0.345453 2:0.351541 3:0.29692 4:31.8226 5:32.6906 6:35.6332 7:16.5496 
0.01070844425197977 1:0.24354 2:0.218002 3:0.227565 4:24.9666 5:25.572 6:27.8257 7:94.1388 8:1 
0.0008248603693093368 1:0.568789 2:0.560511 3:0.55421 4:23.7382 5:24.4123 6:26.337 7:81.2035 8:1 
0.001491867595763863 1:0.283189 2:0.300337 3:0.291744 4:26.4393 5:27.1376 6:29.7045 7:17.1452 
0.01798038688253856 1:21.7567 2:22.5283 3:26.5258 4:37.3363 5:38.4592 6:43.0406 7:17085.6 
0.01798072441598092 1:20.1994 2:20.9327 3:24.4214 4:159.521 5:164.674 6:191.73 7:114529 
0.01107972791983072 1:0.501435 2:0.512566 3:0.538564 4:30.0057 5:30.8161 6:33.5778 7:22.3503 
0.004799108562173526 1:1.35522 2:1.42051 3:1.51245 4:24.7974 5:25.4808 6:27.563 7:82.8712 8:1 
0.01169537560591 1:1.06957 2:1.17114 3:1.37883 4:22.9104 5:23.4738 6:25.5738 7:105.206 8:1 
0.008458789724544582 1:0.443665 2:0.454425 3:0.482685 4:23.939 5:24.5545 6:26.8029 7:72.1564 8:1 
0.009874733083849389 1:0.841491 2:0.859745 3:0.919653 4:22.165 5:22.7744 6:24.6118 7:102.611 8:1 
0.001821930124448809 1:0.311521 2:0.28859 3:0.331363 4:24.247 5:24.9798 6:27.1802 7:8.47163 
0.006218824590456047 1:0.293932 2:0.301878 3:0.265558 4:22.0026 5:22.56 6:24.6851 7:71.2214 8:1 
0.004893341806169019 1:0.738365 2:0.77616 3:0.813643 4:22.6134 5:23.2366 6:25.3556 7:6.64963 
0.01232803452263848 1:0.918595 2:0.968019 3:0.980631 4:19.0477 5:19.5599 6:21.0429 7:97.2327 8:1 
0.008742423763435902 1:0.118761 2:0.137011 3:0.100903 4:28.2497 5:29.0299 6:31.6853 7:24.1731 
0.01257926611973903 1:0.247911 2:0.293794 3:0.413061 4:22.1808 5:22.7454 6:24.8942 7:91.6555 8:1 
0.003830055852954375 1:0.298491 2:0.281243 3:0.35835 4:18.7536 5:19.1968 6:20.8575 7:85.8898 8:1 
0.005382935445314053 1:1.00557 2:1.02989 3:1.11197 4:19.7147 5:20.2228 6:21.9533 7:103.038 8:1 
0.002102107603638159 1:1.18935 2:1.17299 3:1.21951 4:22.5316 5:23.0909 6:25.2097 7:86.0388 8:1 
0.01472524376948137 1:0.142734 2:0.127575 3:0.104554 4:24.8063 5:25.4648 6:27.8467 7:99.0022 8:1 
0.01166015450493221 1:0.954911 2:0.985965 3:1.09573 4:23.1978 5:23.8116 6:25.7566 7:126.92 8:1 
0.01757686567953715 1:0.447393 2:0.462167 3:0.458434 4:30.5056 5:31.4817 6:34.3897 7:124.134 8:1 
0.005372580195229129 1:0.855488 2:0.910874 3:1.0396 4:25.6218 5:26.3632 6:28.8459 7:88.5348 8:1 
0.009204710962074852 1:0.0425992 2:0.0393999 3:0.00445318 4:27.7418 5:28.4852 6:31.1215 7:73.1221 8:1 
0.01227323786727069 1:1.276 2:1.32019 3:1.47843 4:26.4409 5:27.2019 6:29.7611 7:92.5952 8:1 
0.01694198775038336 1:0.746975 2:0.801985 3:0.842259 4:32.6899 5:33.7444 6:36.9577 7:100.695 
0.007350704082093484 1:0.00165987 2:0.0114427 3:0.0133166 4:35.6698 5:36.8696 6:40.174 7:20.1117 8:1 
0.01180495912518026 1:0.703075 2:0.737938 3:0.777014 4:30.7288 5:31.5372 6:34.4355 7:45.2746 8:1 
0.01276447957614313 1:0.459771 2:0.4759 3:0.497228 4:27.4465 5:28.2465 6:30.8549 7:116.293 8:1 
0.0009943808416870478 1:0.379346 2:0.403167 3:0.348318 4:32.2743 5:33.1017 6:36.2035 7:18.0806 8:1 
0.006597342317685757 1:0.637364 2:0.646483 3:0.739208 4:29.7394 5:30.6061 6:33.4717 7:96.3932 8:1 
0.01814309584340401 1:0.433202 2:0.458132 3:0.478183 4:35.8761 5:37.0391 6:40.5518 7:44.032 
0.008667210888338314 1:0.0893831 2:0.0920119 3:0.172628 4:28.7774 5:29.4902 6:32.255 7:9.05987 8:1 
0.01613860719220928 1:1.8576 2:1.90514 3:2.13136 4:27.1296 5:27.9428 6:30.3735 7:119.926 
0.01431571075726266 1:0.177673 2:0.174686 3:0.203188 4:36.1686 5:37.2925 6:40.7209 7:9.95187 8:1 
0.01667322547962152 1:0.413855 2:0.421983 3:0.52576 4:31.861 5:32.7424 6:35.8076 7:65.5344 8:1 
0.01532778157465264 1:0.170105 2:0.169892 3:0.158878 4:32.8179 5:33.7248 6:36.9442 7:21.0105 8:1 
0.01100963175220432 1:0.700039 2:0.729756 3:0.816814 4:36.5448 5:37.6975 6:41.1847 7:19.7082 
0.004924023713124131 1:0.00770283 2:0.017458 3:0.0190601 4:35.1511 5:36.3214 6:39.6201 7:11.0264 
0.01114160655234225 1:0.0490301 2:0.0629778 3:0.0455408 4:26.7667 5:27.5713 6:29.9483 7:35.661 
0.002444497974107562 1:0.429049 2:0.443418 3:0.50052 4:25.1773 5:25.9531 6:28.2864 7:11.3002 
0.003234173141369423 1:0.107371 2:0.0950909 3:0.115896 4:30.6794 5:31.5688 6:34.5464 7:4.57541 8:1 
0.006816689580653457 1:0.243996 2:0.247784 3:0.316416 4:25.8367 5:26.6649 6:28.9806 7:16.5242 
0.008127103017339099 1:0.112938 2:0.142844 3:0.171308 4:25.667 5:26.4706 6:28.7117 7:31.163 
0.009777077705345338 1:0.661176 2:0.672811 3:0.659832 4:20.4546 5:21.0343 6:22.7955 7:76.3592 
0.004048188240536932 1:0.559962 2:0.592388 3:0.592494 4:25.2623 5:26.0555 6:28.3854 7:63.604 8:1 
0.0104999509700617 1:0.0429525 2:0.0310271 3:0.0838408 4:30.5099 5:31.3659 6:34.3322 7:1.37153 8:1 
0.006523112190186423 1:0.0818803 2:0.0965738 3:0.0361226 4:25.6849 5:26.5018 6:28.78 7:19.7867 
0.001053974473463453 1:0.180583 2:0.18494 3:0.19661 4:25.2157 5:26.0033 6:28.1814 7:7.07002 
0.0005153984805172211 1:0.277848 2:0.279368 3:0.321436 4:26.6895 5:27.5494 6:29.9118 7:14.4796 
0.01023468963523893 1:0.453359 2:0.474892 3:0.532474 4:24.2313 5:24.9778 6:27.074 7:5.02077 
0.001691505264157408 1:0.144289 2:0.170319 3:0.166353 4:20.1559 5:20.7417 6:22.6328 7:8.35526 8:1 
0.01804889511615887 1:5.24445 2:5.33539 3:6.10506 4:36.1233 5:37.0152 6:42.1317 7:962.008 
0.002277265946922106 1:0.288613 2:0.298378 3:0.318754 4:26.7829 5:27.6329 6:29.9159 7:7.24559 
0.006852850208723932 1:0.00299025 2:0.00256991 3:0.00475907 4:18.9545 5:19.4829 6:21.4191 7:11.585 
0.00655844118918103 1:0.244514 2:0.253174 3:0.218705 4:18.8372 5:19.3751 6:21.161 7:7.31286 8:1 
0.00448431671227859 1:0.533399 2:0.556348 3:0.656827 4:18.9973 5:19.5376 6:21.4247 7:4.57317 
0.006253324748697876 1:0.776175 2:0.823208 3:0.90683 4:26.8602 5:27.7188 6:30.0173 7:9.20508 
0.01838141291308654 1:0.698545 2:0.73557 3:0.9399 4:27.72 5:28.5984 6:31.1292 7:2356.87 
0.01579098354441671 1:2.87534 2:2.94348 3:3.21681 4:18.0816 5:18.6294 6:20.0166 7:55.4356 
0.002975654688113164 1:0.297757 2:0.297087 3:0.3369 4:18.3012 5:18.8366 6:20.6512 7:3.64829 
0.00623051548560024 1:1.56777 2:1.60373 3:1.706 4:18.1276 5:18.6074 6:20.3733 7:22.0531 8:1 
0.01610609263633932 1:0.74138 2:0.769707 3:0.676736 4:7.59889 5:7.7428 6:7.89638 7:23.9392 
0.01257043627553062 1:0.270847 2:0.257265 3:0.367656 4:12.7947 5:13.1759 6:13.999 7:49.3701 
0.01319233273667287 1:0.236224 2:0.239404 3:0.22157 4:18.8071 5:19.3485 6:21.2373 7:1.43342 
0.003160226734911689 1:0.692938 2:0.73465 3:0.743939 4:21.5305 5:22.177 6:24.1813 7:10.3214 
0.01837332693587229 1:2.80797 2:2.89378 3:3.39797 4:59.5935 5:61.603 6:69.785 7:17368.7 
0.01823543206912687 1:0.570663 2:0.59358 3:0.654474 4:30.4686 5:31.2579 6:33.7801 7:78.4745 8:1 
0.009022066463685967 1:0.943274 2:0.979446 3:1.12215 4:31.8067 5:32.6208 6:35.2449 7:40.317 8:1 
0.003721887778941438 1:0.2062 2:0.205132 3:0.186684 4:32.4021 5:33.2276 6:35.9505 7:18.5245 8:1 
0.01202362896391351 1:0.477925 2:0.517716 3:0.61876 4:32.1952 5:33.0198 6:35.7483 7:11.9182 8:1 
0.005114877400334287 1:0.167238 2:0.194427 3:0.225928 4:29.3474 5:30.2117 6:32.6134 7:4.79046 
0.0006824135538928133 1:0.03387 2:0.0239785 3:0.00277901 4:28.9201 5:29.597 6:32.1596 7:13.8119 8:1 
0.005055103970160809 1:0.370935 2:0.377078 3:0.319487 4:27.8038 5:28.4721 6:30.8946 7:14.996 8:1 
0.005192259556092018 1:0.0800958 2:0.0847836 3:0.0449777 4:29.5929 5:30.3953 6:32.9979 7:1.70303 8:1 
1 1:1.39776e-22 2:1.43501e-22 3:1.47644e-22 4:6.98879e-23 5:7.17505e-23 6:7.38218e-23 7:3.24751e-43 
0.004428992574238216 1:0.192628 2:0.17625 3:0.184873 4:26.4792 5:27.1968 6:29.4233 7:4.33699 8:1 
0.003098244163658665 1:0.0274594 2:0.0302458 3:0.0771019 4:27.1823 5:27.8175 6:30.2074 7:8.9058 8:1 
0.004198301925405418 1:0.0536442 2:0.03772 3:0.0198765 4:22.1005 5:22.7068 6:25.0103 7:7.40576 8:1 
0.01810347846135091 1:18.3189 2:18.9112 3:19.9015 4:201.053 5:207.464 6:238.018 7:91021.3 
0.0006398832979239155 1:0.159054 2:0.164337 3:0.15142 4:27.2406 5:27.9178 6:30.4855 7:6.76524 8:1 
0.005622913132294589 1:0.854435 2:0.882432 3:0.972196 4:27.9628 5:28.6753 6:31.3085 7:3.69965 8:1 
0.001392197014670915 1:0.152579 2:0.156859 3:0.173525 4:29.975 5:30.812 6:33.6483 7:6.30048 8:1 
0.001754029671615866 1:0.0851209 2:0.070735 3:0.0811214 4:28.7839 5:29.5988 6:32.2446 7:12.3863 8:1 
0.005085786436772078 1:0.155843 2:0.172899 3:0.200801 4:25.9318 5:26.5923 6:29.024 7:4.96121 8:1 
0.003079575686189718 1:0.199145 2:0.218707 3:0.194816 4:23.0428 5:23.6524 6:25.5425 7:6.36801 8:1 
0.0009915809084135585 1:0.235733 2:0.252568 3:0.256916 4:23.7173 5:24.3075 6:26.2672 7:16.9353 8:1 
0.009356412157833642 1:1.43385 2:1.50235 3:1.71845 4:24.3253 5:24.9255 6:27.1876 7:19.3782 8:1 
0.002196023454312523 1:0.737536 2:0.751734 3:0.802993 4:23.0466 5:23.6848 6:25.6223 7:30.1037 
0.01524917362868583 1:3.38425 2:3.46077 3:3.75446 4:16.3765 5:16.7818 6:18.0669 7:119.77 
0.007812892403025238 1:0.613609 2:0.637903 3:0.697769 4:17.3403 5:17.7658 6:19.2113 7:82.0854 
0.004903812457529797 1:0.5037 2:0.516507 3:0.547497 4:27.9117 5:28.7304 6:30.8974 7:6.04868 
0.01744029201175917 1:0.504208 2:0.508473 3:0.537822 4:9.86769 5:10.1012 6:10.9315 7:134.363 
0.01779399330458969 1:3.27816 2:3.37047 3:3.67343 4:9.72017 5:9.9165 6:10.5837 7:122.264 8:1 
0.002902106897149942 1:0.838899 2:0.868165 3:0.979801 4:26.2603 5:27.0115 6:28.9502 7:13.8798 
0.3796762258867009 1:0.623409 2:0.639673 3:0.682356 4:0.396203 5:0.406852 6:0.432881 7:44.3839 
0.01837637103155393 1:1.08202 2:1.11083 3:1.19617 4:18.5639 5:19.1409 6:20.783 7:216.222 
0.008572909486610157 1:0.494518 2:0.493499 3:0.474911 4:23.3749 5:24.058 6:25.795 7:36.08 
0.01602868858511947 1:1.79263 2:1.84004 3:2.00095 4:2.88319 5:2.89558 6:2.92859 7:28.9098 8:1 
0.01837791288002233 1:37.986 2:39.2277 3:45.061 4:320.276 5:330.852 6:380.91 7:169617 
0.01391586374219789 1:1.80144 2:1.84356 3:1.92784 4:21.2408 5:21.8902 6:23.5906 7:47.5497 
0.01204093003925782 1:1.65135 2:1.70492 3:1.81015 4:15.1008 5:15.5952 6:16.939 7:83.4079 
0.004899757213482924 1:0.124757 2:0.136389 3:0.109299 4:20.1106 5:20.729 6:22.3471 7:32.7001 8:1 
0.01757753680572133 1:2.61384 2:2.69797 3:2.86338 4:17.2445 5:17.8071 6:19.3259 7:38.7688 
0.01748300706777295 1:2.22481 2:2.30346 3:2.44488 4:6.509 5:6.68751 6:7.35857 7:55.9436 8:1 
0.00354917282243966 1:0.60237 2:0.62965 3:0.724356 4:30.3135 5:31.2763 6:33.9373 7:3.79337 
0.006451500577723829 1:0.633378 2:0.661229 3:0.526551 4:20.5683 5:21.1912 6:22.7733 7:8.1338 
0.004604174984579192 1:0.0672305 2:0.0766091 3:0.150675 4:30.1 5:31.0282 6:33.614 7:19.5803 
0.006663451886541672 1:0.0485039 2:0.0266287 3:0.0614672 4:22.0344 5:22.6921 6:24.6914 7:15.581 
0.003101586053659137 1:1.02723 2:1.07044 3:1.1702 4:23.2395 5:23.9103 6:25.9386 7:19.2667 
0.003386708659331298 1:0.565969 2:0.58899 3:0.628417 4:21.6712 5:22.321 6:23.9711 7:13.5634 
0.005024535912969194 1:0.772031 2:0.812918 3:0.92182 4:24.1513 5:24.8589 6:26.6901 7:15.8584 
0.005224469751012767 1:0.198519 2:0.21103 3:0.233716 4:26.0493 5:26.8141 6:29.2319 7:10.8016 8:1 
0.01589464611194763 1:0.191303 2:0.219666 3:0.063406 4:10.2824 5:10.5711 6:11.0324 7:95.3432 
0.00422619513756578 1:0.69763 2:0.712512 3:0.768713 4:14.4275 5:14.8565 6:15.7576 7:118.655 
0.00688920412427352 1:0.0202892 2:0.040761 3:0.0355823 4:23.1963 5:23.8966 6:25.6616 7:11.3794 
0.009491227388552322 1:1.48043 2:1.54297 3:1.70198 4:21.6636 5:22.2428 6:24.1926 7:40.9319 
0.01837714024167858 1:57.8088 2:59.8592 3:69.546 4:63.7939 5:65.8567 6:74.5099 7:20111.9 
0.01157722677339531 1:0.0328653 2:0.0401477 3:0.0297694 4:16.6323 5:17.1157 6:18.482 7:24.2887 
0.009300807920835208 1:0.215188 2:0.260863 3:0.402725 4:20.9143 5:21.4788 6:23.0118 7:155.684 
0.01763114460288153 1:3.12228 2:3.23549 3:3.54437 4:9.92501 5:10.0902 6:11.1672 7:176.775 
0.004992836107686521 1:0.451312 2:0.490207 3:0.508039 4:20.0525 5:20.6518 6:22.5753 7:3.87817 8:1 
0.008120023603505 1:1.07052 2:1.10156 3:1.12196 4:19.8724 5:20.4743 6:22.0315 7:81.0371 
0.01211570001951418 1:0.00419283 2:0.0102668 3:0.000435114 4:21.3149 5:21.9618 6:23.9798 7:4.13712 
0.002896888920485452 1:0.514576 2:0.542277 3:0.550431 4:12.1533 5:12.5309 6:13.6347 7:14.3588 
0.01765666576027467 1:1.55696 2:1.58904 3:1.55258 4:7.90592 5:8.09886 6:8.42844 7:175.808 
0.01837684500557057 1:47.7445 2:49.2604 3:58.1753 4:126.965 5:130.855 6:152.051 7:40969.5 
0.01837702238435496 1:0.813993 2:0.865214 3:0.995587 4:6.05618 5:6.24876 6:6.73437 7:4739.07 
0.01788850692793098 1:0.0174218 2:0.0142971 3:0.0170783 4:11.8609 5:12.2181 6:13.2915 7:4273.8 8:1 
0.003695299060226245 1:0.294128 2:0.27486 3:0.328628 4:21.6087 5:22.2254 6:24.5026 7:9.7728 8:1 
0.01409109728082601 1:0.629351 2:0.64145 3:0.754807 4:15.7939 5:16.102 6:17.2237 7:167.267 
0.01794062745603164 1:16.6738 2:17.2664 3:20.3673 4:15.8001 5:16.3381 6:19.0897 7:2934.86 
0.01361714577606277 1:0.0928979 2:0.113433 3:0.0608754 4:27.4465 5:28.2003 6:30.4537 7:1.35198 8:1 
0.006893939461405293 1:0.0796337 2:0.0632482 3:0.0490241 4:17.4188 5:17.891 6:19.8604 7:16.8568 8:1 
0.01320660201586676 1:1.08529 2:1.15596 3:1.27364 4:8.11611 5:8.38195 6:9.1172 7:119.677 
0.003420268619396925 1:0.0262606 2:0.000224113 3:0.0644813 4:16.5574 5:16.8603 6:18.3874 7:14.6787 
0.006142590498619607 1:0.274229 2:0.269001 3:0.245072 4:18.6432 5:19.149 6:21.1891 7:26.1837 8:1 
0.002617993858679946 1:0.128585 2:0.146999 3:0.16449 4:24.6041 5:25.2363 6:26.954 7:15.9998 8:1 
0.001891726863197496 1:0.821421 2:0.831991 3:0.969493 4:18.9083 5:19.4317 6:21.4946 7:33.7101 8:1 
0.002478792607393365 1:0.578819 2:0.638801 3:0.740616 4:21.486 5:21.9693 6:23.4522 7:24.8133 
0.01712078590493738 1:2.98452 2:3.06776 3:3.25432 4:8.64366 5:8.76408 6:9.10687 7:37.2128 
0.01388190013320617 1:1.46804 2:1.55346 3:1.6564 4:15.3362 5:15.6578 6:16.639 7:91.0208 
0.006618808344424507 1:0.0312321 2:0.0402832 3:0.0263503 4:25.6143 5:26.2121 6:28.1808 7:68.6315 8:1 
0.01802662613743033 1:3.49676 2:3.61881 3:3.98199 4:26.9346 5:27.7724 6:32.0215 7:14141 
0.01808236662770013 1:2.1377 2:2.19475 3:2.43181 4:8.21449 5:8.39478 6:8.80952 7:101.902 8:1 
0.01502450924287851 1:0.864657 2:0.889784 3:0.952959 4:3.1158 5:3.17011 6:3.42219 7:53.203 8:1 
0.01804269454896718 1:51.0899 2:52.9235 3:63.1218 4:94.5704 5:97.7228 6:113.394 7:39646.5 
0.01806169711954031 1:77.9474 2:80.775 3:94.8039 4:121.29 5:125.406 6:145.856 7:56811.3 
0.01429125146476645 1:2.39548 2:2.46101 3:2.64424 4:16.4238 5:16.7803 6:17.8565 7:49.8766 
0.01809336410907036 1:6.32766 2:6.53535 3:7.54346 4:12.2602 5:12.5835 6:13.8043 7:16286.8 
0.01809654870591992 1:40.7024 2:42.036 3:47.7802 4:322.289 5:333.68 6:388.567 7:75377.4 
0.01808308895465188 1:2.81511 2:2.92127 3:3.12461 4:68.6497 5:70.9356 6:83.1501 7:66195.2 
0.01750176906777734 1:0.25097 2:0.272616 3:0.19787 4:7.81315 5:7.99929 6:8.25873 7:58.905 
0.008896600207377561 1:1.08186 2:1.12085 3:1.13725 4:4.40501 5:4.52456 6:5.06999 7:7.94605 
0.01814747305204545 1:3.40598 2:3.52718 3:3.71611 4:18.113 5:18.5327 6:19.5731 7:335.936 
0.01798549038075742 1:2.06236 2:2.12446 3:2.17495 4:10.8764 5:11.1013 6:11.7975 7:199.599 
0.01817132935977939 1:4.86635 2:5.13532 3:7.10749 4:186.573 5:192.707 6:225.982 7:97677.7 
0.01812456286996506 1:0.723038 2:0.743457 3:0.879447 4:92.3219 5:95.2545 6:110.136 7:51016 
0.01049662600193461 1:1.0018 2:1.04221 3:1.11027 4:12.3851 5:12.7256 6:13.588 7:30.1828 
0.01288222330168126 1:1.14214 2:1.1703 3:1.177 4:2.44811 5:2.49584 6:2.55014 7:33.6197 
0.0180412459799244 1:95.443 2:98.6049 3:115.562 4:273.048 5:281.7 6:327.976 7:153586 
1 
0.01839129778729948 1:4.56282 2:4.69937 3:5.4264 4:42.371 5:43.705 6:49.8851 7:3278.62 
0.01851030282847294 1:39.3317 2:40.6237 3:48.067 4:350.441 5:362.054 6:426.573 7:186328 
0.004979509289161721 1:0.0859708 2:0.0832279 3:0.0541346 4:14.3087 5:14.6855 6:15.7973 7:15.2802 
0.01074436975440028 1:1.17823 2:1.20111 3:1.17162 4:4.73074 5:4.8178 6:4.73798 7:37.739 
0.01684661705420659 1:0.307791 2:0.298261 3:0.190089 4:19.5526 5:20.08 6:21.4754 7:60.73 
0.01837440295421067 1:6.40299 2:6.61113 3:7.28713 4:22.9609 5:23.5146 6:25.5529 7:1733.65 
0.009001266270378198 1:1.65373 2:1.6894 3:1.73237 4:1.49024 5:1.52551 6:1.57695 7:20.9555 
0.008900907851255468 1:0.423354 2:0.459426 3:0.522873 4:19.8924 5:20.4151 6:22.0362 7:83.7792 
0.003121440416621515 1:0.330267 2:0.36083 3:0.346037 4:16.4477 5:16.7744 6:18.3069 7:16.0821 
0.007582733205913832 1:0.37326 2:0.386765 3:0.409043 4:10.4508 5:10.7596 6:11.7484 7:23.9989 
0.00122744060907215 1:1.75851 2:1.81604 3:1.85703 4:3.85877 5:3.9829 6:4.02748 7:16.8939 
0.005531909910930301 1:0.0656714 2:0.0565162 3:0.040282 4:14.3427 5:14.6505 6:16.0201 7:28.5619 8:1 
0.00679744966094589 1:0.361683 2:0.367958 3:0.361528 4:8.66017 5:8.79752 6:9.70247 7:20.8088 8:1 
0.8573652466485273 1:1.02712e-23 2:1.01406e-23 3:9.21647e-24 4:5.13561e-24 5:5.0703e-24 6:4.60824e-24 7:7.56015 
0.01802330953611281 1:1.22017 2:1.25986 3:1.33872 4:7.33942 5:7.53966 6:8.13175 7:66.9939 
0.01785530682120701 1:0.239787 2:0.248792 3:0.298308 4:11.3645 5:11.6828 6:12.4706 7:85.9402 
0.01809502462689616 1:3.37825 2:3.49748 3:3.74147 4:15.7341 5:16.2063 6:17.8293 7:1263.22 
0.01047255700322847 1:0.693693 2:0.692963 3:0.82071 4:15.5106 5:15.8964 6:17.4866 7:84.564 8:1 
0.003195200738876878 1:0.104884 2:0.110377 3:0.164124 4:13.6986 5:14.0672 6:14.8878 7:4.67281 8:1 
0.001552492979292108 1:0.167562 2:0.165703 3:0.192306 4:11.0256 5:11.3015 6:11.8924 7:5.56093 8:1 
0.002381898182374567 1:0.341835 2:0.35098 3:0.395927 4:7.69008 5:7.8338 6:8.73866 7:13.584 8:1 
0.01009954333810592 1:0.11653 2:0.122444 3:0.0959265 4:16.347 5:16.8122 6:17.8856 7:1.57515 8:1 
0.01811785819679956 1:0.014409 2:0.0151859 3:0.0173548 4:0.791901 5:0.751137 6:0.778394 7:514.274 8:1 
0.003011222475172382 1:0.443863 2:0.464383 3:0.516827 4:16.3416 5:16.8105 6:17.8901 7:1.99773 8:1 
0.008301064273528835 1:0.0746624 2:0.0855731 3:0.145071 4:10.2641 5:10.5417 6:11.378 7:39.6096 
0.01835644661296243 1:92.5978 2:95.8418 3:112.63 4:321.097 5:331.971 6:386.4 7:156533 
0.002193484591714645 1:0.559642 2:0.572273 3:0.613219 4:9.68172 5:9.94153 6:10.829 7:28.6138 
0.01791467452079093 1:0.113572 2:0.116173 3:0.14095 4:12.2255 5:12.5488 6:13.6682 7:79.4057 8:1 
0.01793976349833082 1:8.48488 2:8.70208 3:9.34543 4:21.5141 5:22.1584 6:24.6241 7:8625.51 
1 1:7.49627e-24 2:7.56368e-24 3:7.05817e-24 4:3.74813e-24 5:3.78184e-24 6:3.52909e-24 7:7.00649e-46 
0.01837499710796681 1:19.5462 2:20.3969 3:23.6849 4:447.573 5:463.004 6:542.223 7:113822 
1 1:2.07401e-36 2:2.16534e-36 3:2.34187e-36 4:1.03859e-36 5:1.08431e-36 6:1.17275e-36 7:0.0553579 
0.01803162804783864 1:0.216072 2:0.205907 3:0.218109 4:1.29075 5:1.27978 6:1.35314 7:4135.99 
0.01805081566392097 1:1.21845 2:1.25681 3:1.40725 4:25.3793 5:26.1097 6:28.4758 7:47480.4 
0.01813773912969652 1:7.76766 2:7.93141 3:9.55658 4:330.795 5:341.492 6:401.648 7:212834 
0.01814655431432582 1:26.8579 2:27.8046 3:32.6694 4:581.477 5:600.937 6:700.118 7:51360 
0.01836970572905572 1:0.945065 2:1.14693 3:0.38031 4:353.078 5:365.155 6:422.766 7:102693 
0.01816742331092963 1:32.1569 2:33.1324 3:38.6315 4:16.0785 5:16.5662 6:19.3158 7:15958.6 
0.01808337533524512 1:28.6514 2:29.5401 3:34.1025 4:164.107 5:169.269 6:191.238 7:47768.9 
0.01812381032737037 1:28.3984 2:29.4063 3:34.7843 4:584.261 5:603.864 6:705.109 7:129898 
0.01086317719448063 1:0.445679 2:0.456405 3:0.502056 4:3.9518 5:4.04515 6:4.4173 7:25.4467 
0.01798053438463532 1:1.29986 2:1.33297 3:1.40725 4:2.4693 5:2.53592 6:2.60771 7:74.4254 
0.01812927307557149 1:0.35017 2:0.316148 3:0.274649 4:34.867 5:35.6808 6:38.0531 7:633.071 
0.006146369604908497 1:0.199111 2:0.206828 3:0.188268 4:3.39081 5:3.42106 6:3.80222 7:39.1138 
0.006353692422649953 1:0.472003 2:0.525833 3:0.650696 4:15.3601 5:15.6881 6:16.8996 7:146.965 
0.5001671760126329 1:0.304992 2:0.317974 3:0.354628 4:0.646633 5:0.654617 6:0.683566 7:10.3088 
0.001248856568393816 1:0.772403 2:0.795005 3:0.817751 4:14.1304 5:14.4604 6:15.6549 7:3.91093 8:1 
0.01813434412874826 1:2.03344 2:2.12198 3:2.46928 4:6.48034 5:6.67701 6:7.74455 7:389.419 
0.003223288090160446 1:1.48697 2:1.52078 3:1.57396 4:3.3218 5:3.40103 6:3.50525 7:17.489 
0.01833952062877714 1:3.01545 2:3.14711 3:4.16814 4:16.5275 5:16.9586 6:18.307 7:671.135 
0.0050679863707847 1:0.853295 2:0.885892 3:0.895438 4:15.2684 5:15.6253 6:16.902 7:5.24865 8:1 
0.01819076224517802 1:14.1985 2:14.7275 3:17.8677 4:46.6438 5:48.0134 6:54.6834 7:11015.4 
0.01820052574796921 1:10.7905 2:11.1257 3:13.2235 4:148.409 5:153.518 6:177.737 7:70386.3 
0.002847781600406699 1:0.158004 2:0.162821 3:0.167508 4:15.8239 5:16.1934 6:17.4958 7:4.46961 8:1 
0.0182238525833594 1:9.72906 2:10.073 3:11.6498 4:29.3064 5:30.2319 6:34.5412 7:888.094 
0.018235449569871 1:0.767431 2:0.787412 3:0.7586 4:9.11555 5:9.25295 6:10.0718 7:584.911 
0.01467076630305475 1:0.196765 2:0.197432 3:0.219739 4:4.87078 5:4.93497 6:5.15724 7:69.7911 
0.01802045141403558 1:38.4986 2:39.7309 3:46.609 4:31.1733 5:32.0311 6:36.4629 7:23017.9 
0.01802401513444229 1:12.8312 2:13.214 3:15.0034 4:75.8673 5:78.298 6:86.6208 7:35139.6 
0.01804747984482219 1:19.4636 2:20.1564 3:23.5531 4:10.0588 5:10.4169 6:12.1638 7:6612.36 
0.0180659064811442 1:0.748733 2:0.697794 3:0.635674 4:21.521 5:22.154 6:25.6373 7:4799.24 
0.01838437047976549 1:89.7921 2:93.0134 3:108.805 4:86.5078 5:89.5754 6:104.123 7:38785.3 
1 1:0.0459036 2:0.0467164 3:0.0463059 4:0.0229518 5:0.0233582 6:0.0231529 7:0.0343731 
0.01837463544448864 1:109.156 2:112.705 3:132.975 4:481.178 5:496.142 6:581.496 7:255072 
0.01836369845853902 1:12.6949 2:13.1497 3:15.2874 4:161.438 5:167.068 6:197.471 7:31937.6 
0.01839052288047516 1:1.79708 2:1.82925 3:1.77857 4:14.1805 5:14.5697 6:15.6667 7:679.397 
0.01838153176128515 1:38.0509 2:39.6148 3:47.4718 4:430.397 5:444.857 6:525.931 7:129603 
0.01837176268375962 1:132.725 2:136.86 3:161.336 4:406.738 5:419.307 6:491.435 7:189098 
0.01815210452018107 1:2.90983 2:2.96523 3:3.18451 4:5.13355 5:5.20651 6:5.5241 7:74.1025 
0.01766573288254708 1:1.50301 2:1.56092 3:1.50574 4:7.23184 5:7.37712 6:7.75165 7:42.0782 
0.01838804003827033 1:36.4178 2:37.6958 3:44.4111 4:242.662 5:250.744 6:296.08 7:87321.6 
0.01846219783395603 1:2.70568 2:2.82878 3:4.44403 4:378.724 5:391.55 6:453.617 7:99890 
0.0183855678371676 1:22.0474 2:22.7559 3:25.9076 4:20.1198 5:20.6561 6:23.1005 7:3327.06 
0.01839692202567617 1:25.4676 2:26.3253 3:31.0019 4:19.6202 5:20.2368 6:22.7471 7:21339.6 
0.0184786499903018 1:42.2873 2:43.8947 3:50.8505 4:263.481 5:272.528 6:313.021 7:62280.9 
0.01836447278909431 1:36.5451 2:37.7455 3:44.3519 4:40.2025 5:41.4608 6:47.9254 7:11860.2 
0.01836888458587893 1:1.2175 2:1.26014 3:1.1851 4:3.13832 5:3.20036 6:3.18086 7:15157.8 
0.01304848995107196 1:1.03601 2:1.04755 3:1.09501 4:4.46217 5:4.5643 6:4.56242 7:41.2296 
0.004356386275428194 1:0.196085 2:0.191742 3:0.158471 4:5.60095 5:5.77208 6:5.57165 7:15.7522 
0.01841209808745969 1:24.3212 2:25.2912 3:29.4576 4:105.743 5:109.251 6:123.793 7:37223.4 
0.007729600344064643 1:0.221126 2:0.228697 3:0.179703 4:5.02316 5:5.19641 6:4.87933 7:10.793 
0.01863185946095658 1:0.917541 2:0.921386 3:0.860797 4:17.6061 5:18.0166 6:18.1923 7:234.041 
1 1:9.54518e-29 2:9.90455e-29 3:9.89777e-29 4:4.77259e-29 5:4.95228e-29 6:4.94889e-29 
0.1446637225287037 1:0.712047 2:0.735099 3:0.740377 4:0.356024 5:0.367549 6:0.370188 7:15.235 
0.01858194877374647 1:0.279505 2:0.308264 3:0.462453 4:10.0444 5:10.2726 6:11.2354 7:110.088 
1 1:1.48713e-38 2:1.52985e-38 3:1.54243e-38 4:7.43564e-39 5:7.64924e-39 6:7.71216e-39 
0.003632928886177247 1:0.693367 2:0.715196 3:0.782019 4:10.9182 5:11.1738 6:12.2768 7:6.27278 
0.003127963561948752 1:0.210098 2:0.218269 3:0.229601 4:11.3283 5:11.5909 6:12.76 7:1.39785 8:1 
0.005619910018418328 1:0.108049 2:0.112051 3:0.114956 4:6.58278 5:6.66128 6:7.48142 7:4.42837 
0.01837714526882372 1:28.9376 2:29.8903 3:35.419 4:111.48 5:115.18 6:135.019 7:48751.9 
0.01837757145964697 1:2.07636 2:2.14043 3:2.93883 4:314.409 5:324.94 6:382.331 7:207327 
0.005871073433274339 1:0.85227 2:0.895677 3:0.958732 4:11.6384 5:11.8825 6:12.8419 7:24.6985 
0.007240096711877721 1:1.02437 2:1.04927 3:1.16296 4:2.79881 5:2.85673 6:3.14556 7:24.0942 
0.01863515847409869 1:1.04271 2:1.08302 3:1.20444 4:5.68017 5:5.80439 6:6.1987 7:9238.16 
0.01845577334303994 1:0.117387 2:0.127034 3:0.296039 4:12.7619 5:13.1119 6:14.2536 7:783.064 
0.001728756457852996 1:0.0446426 2:0.0389582 3:0.0724647 4:11.6479 5:11.8402 6:13.0243 7:5.53241 8:1 
0.01807854709131967 1:0.838079 2:0.843003 3:0.720476 4:11.1581 5:11.3891 6:11.9955 7:127.699 
0.005535878269629382 1:0.100324 2:0.108362 3:0.141121 4:14.7927 5:15.1632 6:16.2444 7:1.05951 8:1 
1 1:1.60057e-34 2:1.6602e-34 3:1.71738e-34 4:8.00283e-35 5:8.301e-35 6:8.58692e-35 7:1.38144 
1 1:1.07756e-39 2:1.1259e-39 3:1.14871e-39 4:5.38782e-40 5:5.62948e-40 6:5.74355e-40 
0.0182919558066339 1:12.5958 2:12.9066 3:15.2983 4:69.1428 5:71.4467 6:82.7515 7:29297.8 
1 1:2.0223e-29 2:2.10623e-29 3:2.16603e-29 4:1.01115e-29 5:1.05311e-29 6:1.08301e-29 7:1.19948 
0.01837482729236933 1:0.577978 2:0.558515 3:0.287261 4:20.5006 5:21.1763 6:23.6062 7:6296.18 
0.00208075615127461 1:0.0871947 2:0.0921183 3:0.119427 4:12.3734 5:12.6645 6:13.6362 7:3.80545 8:1 
0.0183775714596468 1:33.6555 2:34.8053 3:41.0889 4:19.0317 5:19.5616 6:22.9263 7:19045.6 
0.01837496070249051 1:39.6184 2:40.8126 3:48.5049 4:108.467 5:112.132 6:131.654 7:95237.8 
0.01837637103155393 1:24.5231 2:25.3751 3:29.9097 4:83.9562 5:86.7493 6:100.807 7:22305.2 
0.01416125029844817 1:0.893413 2:0.900684 3:0.922983 4:4.7275 5:4.82578 6:5.10103 7:88.8529 
0.01837744196711572 1:27.0294 2:27.9527 3:33.6216 4:172.82 5:178.714 6:211.557 7:105636 
0.0181081226484342 1:31.5972 2:32.7067 3:39.0564 4:35.9346 5:37.095 6:41.7591 7:1152.48 
0.004746747068310538 1:0.163684 2:0.169868 3:0.167297 4:9.6284 5:9.82835 6:11.0028 7:22.1019 8:1 
0.01838459539678089 1:10.9134 2:11.1857 3:12.7168 4:136.048 5:140.697 6:164.159 7:43540.9 
0.00507377112027493 1:0.979952 2:1.01986 3:1.02651 4:12.9651 5:13.1298 6:14.4472 7:6.03629 8:1 
0.01851186264266541 1:12.7778 2:13.2561 3:15.1313 4:68.1528 5:70.4564 6:82.2074 7:29474.3 
0.001881461590486688 1:0.051867 2:0.0396669 3:0.0611576 4:12.7524 5:12.8875 6:14.2249 7:7.76979 8:1 
0.01529583168214949 1:1.9345 2:1.97391 3:2.16339 4:2.62024 5:2.65607 6:2.94964 7:64.5446 
0.004944915081238302 1:0.46163 2:0.463205 3:0.593885 4:3.84454 5:3.91648 6:4.24343 7:33.7541 
0.003995582802010697 1:0.141227 2:0.152514 3:0.194508 4:7.97879 5:7.9999 6:9.1102 7:7.18924 
0.00321358880539285 1:0.00998425 2:0.00982988 3:0.0183316 4:14.4742 5:14.5808 6:15.78 7:13.1903 8:1 
0.01595936258077746 1:4.407 2:4.55274 3:4.67338 4:17.3057 5:17.7012 6:18.7803 7:122.743 
0.01862926320244246 1:9.20007 2:9.46252 3:10.6731 4:23.3313 5:24.0752 6:27.7384 7:1999.06 
0.01861713726365738 1:18.4453 2:19.1411 3:22.5019 4:15.1224 5:15.6252 6:17.7792 7:3458.61 
0.008442838465469213 1:0.422717 2:0.427663 3:0.462765 4:12.1787 5:12.4242 6:13.5357 7:1.72936 
1 1:0.000141618 2:4.05549e-05 3:0.00072941 4:0.00453423 5:0.00433793 6:0.00473173 7:0.000583323 8:1 
0.01846018603596206 1:5.1779 2:5.36908 3:6.35874 4:3.13574 5:3.24204 6:3.74862 7:5117.64 
0.004344587266392542 1:0.183692 2:0.184106 3:0.173697 4:10.1899 5:10.417 6:11.7306 7:1.34863 8:1 
0.01807598106984593 1:16.7796 2:17.3363 3:20.0394 4:25.2222 5:26.0992 6:30.1928 7:7401.47 
0.006777364581001793 1:0.0511135 2:0.0522673 3:0.0542037 4:6.60857 5:6.62495 6:7.58545 7:15.5305 
0.01860327669738293 1:13.0261 2:13.4323 3:15.4105 4:9.78003 5:10.0798 6:11.6122 7:882.235 
0.01860492734948355 1:53.8083 2:55.6378 3:65.0609 4:100.978 5:104.372 6:121.512 7:38145.6 
0.002213723768030596 1:0.0699203 2:0.0555899 3:0.0645931 4:9.7738 5:9.98651 6:11.2837 7:4.54962 8:1 
0.01846724277027056 1:1.31669 2:1.38921 3:1.76496 4:4.81002 5:4.94499 6:5.39285 7:166.492 
0.002687862007451894 1:0.582247 2:0.601681 3:0.64614 4:9.48367 5:9.68589 6:10.9581 7:1.97166 
0.01811267071998518 1:0.186365 2:0.191801 3:0.205923 4:0.595199 5:0.60498 6:0.68885 7:18155.6 
0.06537519439593552 1:0.783351 2:0.825037 3:0.937734 4:2.37484 5:2.42659 6:2.56525 7:48.1835 
0.009583827394500144 1:1.8524 2:1.90102 3:1.94623 4:13.2017 5:13.3089 6:14.6496 7:10.3527 8:1 
0.01812511522062027 1:2.43419 2:2.44473 3:2.72757 4:79.3006 5:81.889 6:96.3448 7:46223.1 
0.0003652058640338314 1:0.90448 2:0.915674 3:0.920303 4:14.1318 5:14.2142 6:15.4645 7:14.857 8:1 
0.006543331904888473 1:1.16513 2:1.18988 3:1.22069 4:14.5116 5:14.6002 6:15.9385 7:17.1726 8:1 
0.2810937705897718 7:2.34488 
0.004872379196284742 1:1.12062 2:1.1366 3:1.12239 4:9.49106 5:9.56221 6:10.631 7:8.01391 8:1 
0.001988905177649071 1:0.0148907 2:0.0216424 3:0.0354376 4:9.8168 5:9.88279 6:11.0499 7:8.98649 
0.004304326887969057 1:0.888271 2:0.927224 3:0.953288 4:15.5783 5:15.7103 6:17.3103 7:9.85313 
0.01817245053636524 1:71.8641 2:74.2897 3:85.0704 4:160.307 5:165.775 6:191.741 7:63790.3 
0.01825071825200481 1:1.5303 2:1.61609 3:2.09731 4:68.0324 5:70.3677 6:81.9587 7:13154.1 
0.001784134693437153 1:0.772978 2:0.801147 3:0.857418 4:10.1598 5:10.3087 6:11.4047 7:2.3267 8:1 
0.01846066481957276 1:42.6301 2:44.0406 3:51.0048 4:121.131 5:125.277 6:145.427 7:20631 
0.01806047831155028 1:0.302596 2:0.288987 3:0.0927195 4:7.14328 5:7.32081 6:8.04307 7:233.035 
0.002531713035222025 1:0.938792 2:0.972327 3:0.960346 4:11.2235 5:11.2718 6:12.7377 7:11.572 8:1 
0.01837346951148588 1:18.5599 2:19.2356 3:22.1189 4:16.1434 5:16.5339 6:19.0125 7:5819.11 
0.004336044700530886 1:1.01452 2:1.04692 3:1.10296 4:15.4689 5:15.5947 6:17.2708 7:6.73146 8:1 
0.01022646665169464 1:1.83047 2:1.87008 3:1.9104 4:16.5656 5:16.7063 6:18.4376 7:14.5211 8:1 
0.003406236191333421 1:0.146378 2:0.146273 3:0.159036 4:13.6484 5:13.7544 6:15.1726 7:21.453 8:1 
0.008087325156293049 1:0.8412 2:0.868652 3:0.9041 4:15.5757 5:15.6488 6:17.206 7:20.1746 8:1 
0.002613309770814917 1:0.254829 2:0.259189 3:0.234108 4:12.6035 5:12.7153 6:14.0141 7:16.7386 8:1 
0.0005806146660255473 1:1.05168 2:1.06975 3:1.11527 4:10.2419 5:10.2912 6:11.6251 7:15.6791 8:1 
0.005457170206168184 1:0.0646534 2:0.0709362 3:0.0461433 4:16.7506 5:16.8568 6:18.563 7:10.7729 8:1 
0.002313877820768046 1:0.715504 2:0.719854 3:0.768565 4:13.3772 5:13.481 6:15.0415 7:17.7911 8:1 
1 1:0.0772308 2:0.0775359 3:0.0882549 4:0.0838244 5:0.0841197 6:0.0953788 7:0.0589751 8:1 
0.001632627537756579 1:1.61014 2:1.67709 3:1.72436 4:19.25 5:19.4075 6:21.2949 7:14.7102 8:1 
0.00319368058191731 1:1.18695 2:1.20497 3:1.23296 4:18.9974 5:19.1187 6:20.8615 7:11.8931 8:1 
1 1:3.92663e-12 2:4.04487e-12 3:4.82544e-12 4:2.29574e-12 5:2.36785e-12 6:2.82705e-12 7:4.00759e-21 8:1 
0.003438462635303706 1:0.131634 2:0.137977 3:0.128533 4:19.2773 5:19.3976 6:21.2599 7:16.6967 8:1 
1 1:2.18565e-10 2:2.22059e-10 3:2.55159e-10 4:1.09283e-10 5:1.1103e-10 6:1.27579e-10 7:3.69827e-20 8:1 
1 1:8.63861e-10 2:8.94914e-10 3:1.04656e-09 4:4.3193e-10 5:4.47457e-10 6:5.23281e-10 7:1.26137e-17 8:1 
0.002277497854618077 1:0.0556141 2:0.056698 3:0.0657504 4:7.95906 5:8.09308 6:9.07312 7:4.31362 8:1 
0.009094421465066964 1:1.04455 2:1.06469 3:1.11689 4:15.5054 5:15.6329 6:17.4213 7:66.8722 8:1 
0.001231579536534255 1:0.056144 2:0.0487232 3:0.0483934 4:11.4515 5:11.7184 6:13.1446 7:9.30505 8:1 
0.005840811074884491 1:0.00877586 2:0.00626069 3:0.0108434 4:4.71626 5:4.82152 6:5.27159 7:13.3126 8:1 
0.006355474423170892 1:0.0328469 2:0.0305221 3:0.0461373 4:20.3888 5:20.5764 6:22.5164 7:25.609 8:1 
0.008071719617919611 1:0.270129 2:0.2762 3:0.254248 4:1.33832 5:1.34923 6:1.62764 7:20.2576 8:1 
0.0007462916278931919 1:0.0377409 2:0.0321813 3:0.0207267 4:18.8253 5:19.0222 6:21.0982 7:15.535 8:1 
0.003950932455612042 1:1.54421 2:1.57812 3:1.60071 4:19.9378 5:20.1534 6:22.3274 7:14.2335 8:1 
0.004449294065488138 1:0.126538 2:0.117358 3:0.12156 4:17.789 5:17.9631 6:19.6054 7:27.5996 8:1 
0.002350530484948397 1:0.327126 2:0.338815 3:0.364627 4:7.30932 5:7.46921 6:8.32457 7:11.1665 8:1 
0.003459717536011815 1:0.0696797 2:0.0692186 3:0.06269 4:15.9223 5:16.0591 6:17.6156 7:34.5039 8:1 
0.001822875460156909 1:0.00375533 2:0.00776815 3:0.0827179 4:18.8711 5:18.9814 6:21.0698 7:18.0242 8:1 
0.00361250192194178 1:1.17042 2:1.22211 3:1.34377 4:13.5669 5:13.6738 6:15.0684 7:32.9871 8:1 
0.007920048864981655 1:1.89837 2:1.94614 3:1.9379 4:19.0063 5:19.1266 6:21.1033 7:19.2024 8:1 
0.0009771659887252749 1:0.753565 2:0.798233 3:0.779032 4:19.5336 5:19.7631 6:21.9857 7:9.70635 8:1 
0.004817689305244768 1:1.57782 2:1.64445 3:1.7865 4:18.7193 5:18.8253 6:20.7698 7:14.3035 8:1 
0.008250921785531218 1:1.26263 2:1.28519 3:1.44273 4:6.85401 5:6.96869 6:7.89133 7:17.5976 8:1 
0.007363900408594193 1:1.21086 2:1.24976 3:1.35063 4:11.2536 5:11.3683 6:12.6444 7:15.2466 8:1 
0.007081353376399401 1:0.967237 2:1.0182 3:1.00948 4:20.3512 5:20.5077 6:22.8879 7:35.4081 8:1 
0.009432115148276077 1:1.60227 2:1.64064 3:1.70652 4:10.8729 5:10.9916 6:12.3591 7:28.4426 8:1 
0.005650325675289256 1:0.253187 2:0.25384 3:0.216566 4:20.6132 5:20.7785 6:23.0831 7:11.2848 8:1 
0.002444125108151007 1:0.0800626 2:0.0819124 3:0.0538983 4:11.6794 5:11.8262 6:13.2614 7:20.2638 8:1 
0.01270738544373845 1:1.56906 2:1.60923 3:1.73455 4:14.8097 5:15.0265 6:16.6368 7:25.5225 8:1 
0.003038011419513203 1:0.124593 2:0.131778 3:0.10032 4:4.48755 5:4.50975 6:5.24244 7:5.02777 8:1 
0.003721271569111794 1:0.0372025 2:0.0469741 3:0.0720077 4:14.0249 5:14.348 6:16.0512 7:10.6484 8:1 
0.006040799949923625 1:0.725349 2:0.756274 3:0.795952 4:10.0871 5:10.2298 6:11.7241 7:26.8471 8:1 
0.004558445333181943 1:1.00502 2:1.03607 3:1.06271 4:17.6407 5:18.0647 6:19.9273 7:10.9477 8:1 
0.002119807255903366 1:0.246516 2:0.247118 3:0.259861 4:14.983 5:15.2153 6:16.828 7:19.1186 8:1 
0.005747986470639966 1:0.055027 2:0.0571053 3:0.0342722 4:9.92046 5:10.0598 6:11.5483 7:19.9156 8:1 
0.003502826175512409 1:1.52763 2:1.54536 3:1.55614 4:18.0865 5:18.3742 6:20.203 7:18.5187 8:1 
0.0008198761575881099 1:0.248899 2:0.260365 3:0.278153 4:16.5383 5:16.9317 6:18.809 7:11.6287 8:1 
0.002383933349165738 1:0.00562501 2:0.00440693 3:0.022823 4:10.292 5:10.4546 6:11.9645 7:17.3685 8:1 
0.005687643909512643 1:0.0553651 2:0.0458069 3:0.0517106 4:16.5806 5:16.9799 6:18.877 7:8.01158 8:1 
0.009350387460325627 1:0.372404 2:0.391865 3:0.479009 4:19.0363 5:19.3465 6:21.3266 7:36.1022 8:1 
0.00335310053107668 1:0.415266 2:0.424497 3:0.449952 4:19.8376 5:20.1562 6:22.1693 7:27.9811 8:1 
0.004160467862373246 1:0.277363 2:0.26207 3:0.204697 4:20.0731 5:20.264 6:22.5667 7:19.2961 8:1 
0.006771306544594642 1:1.06621 2:1.08417 3:1.01719 4:22.07 5:22.2342 6:24.6371 7:37.1685 8:1 
0.00419204072002458 1:0.109678 2:0.101288 3:0.0857277 4:19.3533 5:19.5437 6:21.7437 7:22.1243 8:1 
0.004370515262772611 1:0.678885 2:0.724396 3:0.875008 4:23.1887 5:23.4005 6:25.926 7:33.9006 8:1 
0.009928956052118883 1:1.6487 2:1.69018 3:1.80659 4:19.8421 5:20.0553 6:22.3835 7:23.541 8:1 
0.005059935434071485 1:1.25758 2:1.29643 3:1.42249 4:22.2477 5:22.4154 6:24.9427 7:19.909 8:1 
0.00861738020180125 1:1.52044 2:1.55601 3:1.5853 4:20.7993 5:21.1117 6:23.3645 7:16.7621 8:1 
0.0051522085996214 1:0.0849257 2:0.0866296 3:0.0582056 4:21.7187 5:22.0416 6:24.3963 7:17.3357 8:1 
0.007559861889978619 1:0.620363 2:0.616445 3:0.73122 4:20.5706 5:20.8331 6:23.137 7:39.0503 8:1 
0.005097431627783823 1:0.113304 2:0.126608 3:0.123137 4:21.8715 5:22.2037 6:24.668 7:21.8927 8:1 
0.003948195921131242 1:1.88974 2:1.94427 3:2.00989 4:22.3484 5:22.6533 6:25.2114 7:27.153 8:1 
0.003810092464886429 1:0.225071 2:0.264409 3:0.520798 4:22.0826 5:22.264 6:25.0407 7:32.0945 8:1 
0.003096390213899513 1:0.75768 2:0.773244 3:0.774832 4:9.00992 5:9.09272 6:10.477 7:4.62472 8:1 
0.00566544018222549 1:1.2851 2:1.3106 3:1.33953 4:11.4388 5:11.6356 6:12.8088 7:7.69606 8:1 
0.008525218501485188 1:0.998148 2:1.0265 3:1.02076 4:17.5148 5:17.9297 6:19.7789 7:6.66656 8:1 
0.001666515532526558 1:0.121599 2:0.10226 3:0.090415 4:18.2282 5:18.6591 6:20.4836 7:9.31427 8:1 
0.002788970910323596 1:1.18373 2:1.20711 3:1.20777 4:11.0794 5:11.3106 6:12.7603 7:17.8841 8:1 
0.003048244540217588 1:0.0129859 2:0.0107844 3:0.014575 4:9.13738 5:9.28824 6:10.7374 7:13.314 8:1 
0.004512132466679867 1:0.0361784 2:0.0315025 3:0.0324814 4:19.7679 5:20.2226 6:22.4138 7:14.4487 8:1 
0.003165392851080343 1:0.0497775 2:0.0499456 3:0.06815 4:15.8347 5:16.202 6:18.0787 7:14.1024 8:1 
0.0009279270016918121 1:0.516422 2:0.52244 3:0.467265 4:21.4324 5:21.9341 6:24.2346 7:14.2296 8:1 
0.007459337006271993 1:0.0401301 2:0.0307069 3:0.0557518 4:24.4807 5:24.8772 6:27.6427 7:29.4281 8:1 
0.007943598954691364 1:1.09072 2:1.11288 3:1.20966 4:9.04958 5:9.19492 6:10.727 7:11.8812 8:1 
0.004607749145758905 1:1.20043 2:1.23099 3:1.27137 4:22.8155 5:23.3423 6:25.7285 7:13.5845 8:1 
0.007548237830351901 1:0.102 2:0.120868 3:0.0709021 4:17.8745 5:18.2895 6:20.3079 7:20.8411 8:1 
0.01119069078239203 1:1.73264 2:1.78337 3:1.78483 4:23.9299 5:24.4967 6:26.8952 7:11.4528 8:1 
0.004810441338843412 1:1.08377 2:1.09895 3:1.21392 4:24.9959 5:25.3775 6:28.1988 7:36.3303 8:1 
0.008501907319649664 1:1.88016 2:1.94016 3:2.10213 4:22.1305 5:22.3435 6:25.2114 7:23.936 8:1 
0.01462029510324148 1:1.9581 2:2.03193 3:2.18668 4:25.9368 5:26.3425 6:29.2955 7:46.8648 8:1 
0.001887037538425623 1:0.413071 2:0.413024 3:0.421755 4:8.17846 5:8.3093 6:9.70644 7:14.8053 8:1 
0.004578204565218506 1:0.000424862 2:0.00269389 3:0.0247934 4:24.2059 5:24.7666 6:27.158 7:9.77606 8:1 
0.01354687100808305 1:0.906224 2:0.922152 3:1.0549 4:26.9781 5:27.406 6:30.4323 7:50.6099 8:1 
0.01254957252355693 1:0.22865 2:0.254626 3:0.297101 4:26.6946 5:27.1293 6:30.1813 7:43.7492 8:1 
0.004185567948061181 1:0.466211 2:0.47102 3:0.531764 4:8.01705 5:8.15122 6:9.49917 7:15.8192 8:1 
0.002638810250463638 1:0.13227 2:0.15609 3:0.355315 4:22.2701 5:22.4828 6:25.6008 7:30.0145 8:1 
0.004626099148334895 1:0.22926 2:0.256088 3:0.27107 4:24.4462 5:24.859 6:27.8458 7:14.7827 8:1 
0.00880481263107763 1:1.65149 2:1.72651 3:1.90817 4:27.9334 5:28.4179 6:31.6408 7:43.7657 8:1 
0.004029770986842934 1:0.115308 2:0.147559 3:0.127629 4:24.3802 5:24.7072 6:28.0456 7:31.4588 8:1 
0.01008709074295139 1:0.00551796 2:0.0301919 3:0.131178 4:27.3211 5:27.7874 6:30.958 7:40.353 8:1 
0.005101226584384444 1:1.1561 2:1.19949 3:1.50954 4:22.47 5:22.7348 6:25.968 7:32.2442 8:1 
0.005528697518235989 1:0.610811 2:0.636489 3:0.606991 4:27.8643 5:28.3442 6:31.5725 7:37.601 8:1 
0.01343099428922606 1:2.656 2:2.74937 3:2.87039 4:27.9525 5:28.2968 6:31.6507 7:36.6129 8:1 
0.002932073288914538 1:0.486331 2:0.465587 3:0.418667 4:28.1806 5:28.5165 6:31.9246 7:30.7685 8:1 
0.01069749709117772 1:0.431017 2:0.442716 3:0.636718 4:24.5154 5:24.8585 6:28.2887 7:37.5656 8:1 
0.007339344749975172 1:0.455894 2:0.444626 3:0.383807 4:27.6186 5:28.1334 6:31.4578 7:29.0078 8:1 
0.006358441047162712 1:0.0451708 2:0.0475793 3:0.0205517 4:23.6691 5:24.0872 6:27.176 7:20.0485 8:1 
0.01244828669052755 1:1.62155 2:1.69488 3:1.80501 4:23.9656 5:24.3003 6:27.7302 7:24.9369 8:1 
0.001913359657973686 1:0.335305 2:0.344305 3:0.345253 4:9.78541 5:9.90978 6:11.6145 7:18.1481 8:1 
0.004623200929174991 1:1.02048 2:1.04194 3:1.24127 4:11.9982 5:12.2648 6:13.9583 7:19.4843 8:1 
0.001683802062297846 1:0.830452 2:0.838825 3:0.980837 4:25.789 5:26.1967 6:29.868 7:36.2602 8:1 
0.0005394735547816652 1:0.996619 2:1.05207 3:1.13227 4:28.0392 5:28.5668 6:31.993 7:29.8195 8:1 
0.001246719612405304 1:0.259361 2:0.330357 3:0.713962 4:27.8023 5:28.132 6:31.7539 7:31.2148 8:1 
0.01494573276888406 1:2.62125 2:2.69343 3:2.91159 4:25.9293 5:26.3408 6:29.8882 7:33.0556 8:1 
0.01346424651776557 1:1.45014 2:1.48374 3:1.73464 4:12.1424 5:12.421 6:14.1493 7:33.4287 8:1 
0.01627232148000912 1:0.377831 2:0.390179 3:0.471362 4:29.4365 5:29.857 6:33.6587 7:52.1588 8:1 
0.005290566289921308 1:0.797271 2:0.79411 3:0.81138 4:24.9895 5:25.571 6:27.9702 7:7.29251 8:1 
0.0008919266810678006 1:0.111574 2:0.112091 3:0.109152 4:24.5518 5:25.1191 6:27.5228 7:12.0547 8:1 
0.002531009487182178 1:0.0515351 2:0.0497895 3:0.0555201 4:11.7712 5:11.9249 6:13.6048 7:12.6766 8:1 
0.002150775110731493 1:0.0194533 2:0.0258663 3:0.0199357 4:11.7589 5:11.9249 6:13.7191 7:7.67475 8:1 
0.010678733641307 1:2.02912 2:2.0699 3:2.08777 4:14.7332 5:14.936 6:16.4814 7:12.0021 8:1 
0.002435086393982433 1:0.100554 2:0.103993 3:0.0787935 4:18.0225 5:18.3415 6:19.9359 7:13.5768 8:1 
0.003788748200342724 1:0.0306374 2:0.0299338 3:0.0375477 4:12.8605 5:13.0506 6:14.9357 7:11.8592 8:1 
0.002756596208760185 1:0.103274 2:0.0907069 3:0.15461 4:14.3502 5:14.6767 6:16.5164 7:19.9506 8:1 
0.0005673982634125108 1:0.00720441 2:0.000580788 3:0.0149319 4:15.029 5:15.2355 6:16.8748 7:9.61012 8:1 
0.01088212951974133 1:0.0423882 2:0.0693219 3:0.0633552 4:16.9652 5:17.3597 6:19.3704 7:35.8041 8:1 
0.004997120433025222 1:1.0885 2:1.12077 3:1.37693 4:26.0267 5:26.4515 6:30.1937 7:31.088 8:1 
0.005545920602306131 1:0.0550966 2:0.0444312 3:0.135845 4:19.4186 5:19.8494 6:22.0909 7:30.4129 8:1 
0.005120506557504789 1:0.0186625 2:0.0195067 3:0.0137882 4:22.1742 5:22.6845 6:25.0637 7:25.4971 8:1 
0.0126595463767058 1:1.25455 2:1.32074 3:1.52629 4:28.9724 5:29.3921 6:33.3158 7:33.5152 8:1 
0.002559530617769388 1:0.45827 2:0.454746 3:0.346384 4:28.7829 5:29.3636 6:32.9868 7:45.2635 8:1 
0.002913858228536903 1:0.399752 2:0.443583 3:0.576104 4:28.6842 5:29.1738 6:33.0762 7:40.0137 8:1 
0.009120353541623391 1:2.01052 2:2.04975 3:2.10346 4:20.9557 5:21.3505 6:24.2754 7:27.6377 8:1 
0.005134670092217464 1:1.17676 2:1.19469 3:1.16303 4:23.4381 5:23.9641 6:26.4633 7:29.2882 8:1 
0.006339023987885326 1:0.0245643 2:0.0729933 3:0.0375946 4:29.1649 5:29.5792 6:33.4873 7:44.1244 8:1 
0.006552547161266964 1:2.05847 2:2.1264 3:2.24355 4:27.9214 5:28.4065 6:32.3109 7:40.0836 8:1 
0.01024437794619715 1:2.11351 2:2.15739 3:2.25576 4:29.4881 5:30.0059 6:33.9626 7:41.0336 8:1 
0.0056108437503707 1:1.30691 2:1.40224 3:1.75978 4:29.1061 5:29.5476 6:33.6766 7:28.5175 8:1 
0.0119100829529059 1:1.45948 2:1.51166 3:1.47799 4:28.0605 5:28.6197 6:32.2447 7:47.9507 8:1 
0.007286622042652069 1:1.14357 2:1.19681 3:1.54982 4:28.5341 5:29.0489 6:32.9135 7:25.7978 8:1 
0.01728528760292852 1:0.730814 2:0.749525 3:0.712297 4:28.654 5:29.0817 6:33.2141 7:56.7098 8:1 
0.01135840419466028 1:1.72532 2:1.79842 3:1.83638 4:20.1559 5:20.5644 6:23.4953 7:31.6887 8:1 
0.01708102677561907 1:0.168323 2:0.151532 3:0.182981 4:31.1962 5:31.7784 6:35.873 7:36.1956 8:1 
0.003763594714300687 1:0.0214739 2:0.0172658 3:0.216039 4:29.6952 5:30.1585 6:34.3818 7:42.2535 8:1 
0.001457928149779213 1:0.302182 2:0.33055 3:0.374336 4:28.1645 5:28.7179 6:32.3909 7:28.8536 8:1 
0.01001975266138235 1:1.01572 2:1.04623 3:1.09059 4:30.4429 5:30.9939 6:34.9798 7:29.86 8:1 
0.01737165477137409 1:3.83218 2:3.99732 3:4.21072 4:30.6035 5:31.1319 6:35.5382 7:50.1761 8:1 
0.007470776482696159 1:1.05978 2:1.10887 3:1.09555 4:26.6838 5:27.2884 6:30.1139 7:13.2768 8:1 
0.01540325613501109 1:0.551681 2:0.546082 3:0.566764 4:32.8395 5:33.5001 6:37.8576 7:52.6228 8:1 
0.004603555043397439 1:0.447763 2:0.484578 3:0.596963 4:29.9456 5:30.4219 6:34.6661 7:40.6369 8:1 
0.00299700987467275 1:0.398154 2:0.397011 3:0.44362 4:27.2829 5:27.8354 6:31.5158 7:20.2811 8:1 
0.0115282944576468 1:2.15103 2:2.21073 3:2.49217 4:31.8586 5:32.4175 6:36.9632 7:56.1197 8:1 
0.001216595746802319 1:0.130335 2:0.131583 3:0.252114 4:27.7369 5:28.3693 6:31.2889 7:19.1376 8:1 
0.01704756733265367 1:0.504189 2:0.517108 3:0.421404 4:31.7033 5:32.2469 6:36.7533 7:70.8412 8:1 
0.008200034623606876 1:0.661673 2:0.704714 3:0.840737 4:26.4543 5:27.0008 6:30.7833 7:25.7489 8:1 
0.009721655534146563 1:0.859437 2:0.86587 3:0.853879 4:32.4694 5:33.1111 6:37.349 7:45.8817 8:1 
0.01307181770293298 1:1.25609 2:1.34174 3:1.82476 4:32.984 5:33.5938 6:38.3456 7:59.2026 8:1 
0.01347371823001275 1:2.21111 2:2.2513 3:2.31671 4:32.5602 5:33.214 6:37.486 7:49.3061 8:1 
0.005181539268103141 1:0.523428 2:0.523517 3:0.514683 4:20.8038 5:21.2525 6:24.4028 7:20.082 8:1 
0.009259814264675205 1:0.739401 2:0.769595 3:1.04817 4:31.5725 5:32.1131 6:36.7029 7:56.0994 8:1 
0.01413263689247157 1:1.0526 2:1.07676 3:1.21538 4:32.9082 5:33.5686 6:37.8873 7:40.7661 8:1 
0.01584417520820813 1:0.310332 2:0.26549 3:0.0340695 4:34.6684 5:35.325 6:40.2253 7:76.4989 8:1 
0.01709704052874766 1:0.414861 2:0.41715 3:0.256361 4:36.2952 5:36.8855 6:41.4677 7:80.4719 8:1 
0.01800424220967706 1:0.439161 2:0.445973 3:0.142359 4:8.37876 5:8.50853 6:2.71243 7:57.9492 
0.01815197208008279 1:47.5227 2:50 3:54.4378 4:475.228 5:500 6:544.377 7:156875 8:1 
0.01022925490746283 1:0.23871 2:0.242482 3:0.0789454 4:6.82904 5:6.93497 6:2.21426 7:6.02148 
0.01847732279052872 1:47.5228 2:50 3:54.4377 4:118.807 5:125 6:136.094 7:84375 8:1 
0.01790352117139316 1:2.38959 2:2.43905 3:1.0528 4:6.23413 5:6.37011 6:2.90246 7:193.268 
0.01492692469694945 1:0.383676 2:0.393855 3:0.219206 4:14.7747 5:15.0502 6:5.83169 7:18.4679 
0.004031095603492706 1:0.0259806 2:0.0263838 3:0.00845173 4:5.78846 5:5.87792 6:1.86961 7:3.16119 
1 1:0.0824213 2:0.0836947 3:0.0266114 4:0.160657 5:0.163139 6:0.0518714 7:0.273247 
0.01800663396915425 1:23.7613 2:25 3:27.2188 4:605.916 5:637.5 6:694.081 7:109219 8:1 
0.003477686299529083 1:0.360731 2:0.366315 3:0.116691 4:6.28113 5:6.37868 6:2.03944 7:2.1609 
0.01417996915058117 1:0.251256 2:0.255011 3:0.0783081 4:11.1507 5:11.3259 6:3.66546 7:7.05954 
0.01814568453708032 1:1.91357 2:1.96227 3:1.0469 4:16.8639 5:17.1803 6:6.69748 7:714.032 
0.01863290331203715 1:0.756497 2:0.769382 3:0.271101 4:16.7007 5:17.0521 6:7.48771 7:126.442 
0.006286232363402754 1:0.113908 2:0.115702 3:0.0375794 4:15.1977 5:15.4329 6:4.91518 7:1.02804 
0.629947827182038 1:0.250066 2:0.253685 3:0.0752486 4:1.85567 5:1.88842 6:0.690626 7:59.7268 
0.005486251144150855 1:0.479559 2:0.486991 3:0.155381 4:13.4266 5:13.6344 6:4.34433 7:6.35427 
0.01775316781798458 1:0.251523 2:0.255926 3:0.0928368 4:9.89588 5:10.0586 6:3.41468 7:16.4241 
0.01839113712543167 1:0.213725 2:0.220708 3:0.151557 4:19.5252 5:19.9813 6:9.76824 7:28.2118 
0.01837326359978508 1:1.33134 2:1.3524 3:0.440746 4:11.3608 5:11.5389 6:3.7249 7:152.771 
0.01464017746023558 1:0.209317 2:0.216708 3:0.16076 4:15.0917 5:15.3979 6:6.50984 7:10.5543 
0.01863870676856844 1:0.514151 2:0.521607 3:0.154651 4:34.9262 5:35.491 6:11.8413 7:54.6362 
0.01806298472236034 1:0.268024 2:0.274633 3:0.141854 4:13.3854 5:13.6254 6:5.06616 7:139.826 
0.01818026371143983 1:1.60122 2:1.64994 3:1.05489 4:38.7507 5:39.6134 6:18.4329 7:230.417 
0.001758107051336498 1:0.134311 2:0.137546 3:0.0693899 4:12.4699 5:12.6808 6:4.43501 7:2.5822 
0.01862188188281072 1:1.32428 2:1.37358 3:1.07441 4:25.9962 5:26.6408 6:13.8437 7:92.9486 
0.01797509454223289 1:0.50304 2:0.527333 3:0.533024 4:70.2676 5:71.8964 6:34.8695 7:26.22 
0.01792113518281191 1:0.840924 2:0.85677 3:0.335486 4:13.2715 5:13.5121 6:5.08321 7:242.606 
0.01564633547875272 1:0.0220928 2:0.0213623 3:0.0168686 4:65.4437 5:67.0675 6:34.8727 7:17.0008 
0.01837792475451278 1:0.648575 2:0.674326 3:0.562311 4:35.2299 5:36.3007 6:23.1839 7:3398.76 
0.01805160514730227 1:0.0350242 2:0.0366664 3:0.0359447 4:33.9054 5:34.7084 6:17.2082 7:73.7544 
0.01527803288848323 1:0.151274 2:0.159161 3:0.173485 4:63.0794 5:64.7246 6:35.4084 7:18.0634 
0.01686042619069708 1:0.160759 2:0.164432 3:0.0787158 4:60.7257 5:62.3733 6:35.5183 7:9.90783 8:1 
0.01786390095503737 1:0.254264 2:0.266006 3:0.257141 4:57.3579 5:58.9487 6:34.3228 7:8.53692 
0.01437765559796039 1:0.0689802 2:0.0708084 3:0.0394521 4:53.1459 5:54.6303 6:32.0369 7:9.5457 
0.01815371055114406 1:2.41403 2:2.48873 3:1.61831 4:28.1733 5:28.9382 6:16.4897 7:955.514 
0.01822292906744155 1:0.0811882 2:0.0851994 3:0.0880435 4:48.7208 5:50.0745 6:29.2098 7:5.72678 
0.007849352428532269 1:0.0107105 2:0.00997066 3:0.0168068 4:29.6179 5:30.3314 6:15.3029 7:4.15654 
0.01233376144216025 1:0.263709 2:0.275069 3:0.248511 4:44.5767 5:45.8055 6:26.5067 7:5.7996 
0.01518383619376423 1:0.347212 2:0.357128 3:0.214045 4:23.242 5:23.7569 6:10.9995 7:5.10321 
0.01823884122904107 1:0.00343359 2:0.00348648 3:0.00110856 4:3.07182 5:3.11928 6:0.991805 7:254.323 
0.004810936032028112 1:0.0774785 2:0.0800788 3:0.0565207 4:15.8432 5:16.1357 6:6.18494 7:6.5796 
0.0181566291195972 1:0.0965858 2:0.100307 3:0.0813661 4:40.5627 5:41.6601 6:23.6531 7:3.77935 8:1 
0.01825073290881279 1:0.994055 2:1.0349 3:0.892799 4:54.9989 5:56.4858 6:32.047 7:1167.57 
0.006797080374684171 1:0.0383525 2:0.0413504 3:0.0663571 4:34.2651 5:35.1533 6:19.1111 7:2.34297 
0.005901249204271891 1:0.86621 2:0.880511 3:0.300276 4:6.98509 5:7.09394 6:2.2761 7:5.3273 
0.01819765387186562 1:0.121151 2:0.126243 3:0.111253 4:37.1224 5:38.1069 6:21.2015 7:63.2424 
0.01826960233629543 1:0.250798 2:0.264186 3:0.294501 4:116.064 5:120.385 6:94.1781 7:191.102 
0.005908769368897004 1:0.0451188 2:0.0452766 3:0.0024519 4:32.15 5:32.974 6:17.7209 7:2.38742 
0.01828494768982675 1:1.10184 2:1.14557 3:0.954294 4:110.471 5:114.64 6:90.8902 7:67.1782 
0.002791431190143319 1:0.0152695 2:0.0155078 3:0.00494641 4:6.63058 5:6.73306 6:2.14157 7:0.0526657 8:1 
0.01806761489633252 1:0.48016 2:0.496336 3:0.352016 4:102.228 5:106.09 6:84.198 7:51.0241 
0.003565994138146844 1:0.0148594 2:0.0163999 3:0.0342934 4:28.2831 5:28.9869 6:15.1168 7:1.70965 
0.002078818358535961 1:0.00856078 2:0.00869441 3:0.00277066 4:6.27486 5:6.37183 6:2.02642 7:0.0382088 8:1 
0.01846012009759657 1:0.464732 2:0.482987 3:0.397918 4:93.6221 5:97.1454 6:76.8113 7:36.5941 
0.01837808932643231 1:0.254323 2:0.272295 3:0.397145 4:79.076 5:82.0093 6:63.9215 7:47.9059 
0.004732567639120389 1:0.13378 2:0.138141 3:0.0946286 4:25.0026 5:25.6069 6:12.961 7:1.2437 
0.01837512197997099 1:0.389487 2:0.403917 3:0.314689 4:63.5125 5:65.7924 6:49.6347 7:104.79 8:1 
0.0183790115855097 1:1.02736 2:1.06896 3:0.90854 4:42.6717 5:44.0423 6:29.7318 7:147.485 
0.01837189144770618 1:0.614152 2:0.643708 3:0.648385 4:43.9287 5:45.3563 6:30.9809 7:72.5381 
0.01837525621067654 1:0.102148 2:0.120187 3:0.402212 4:44.5659 5:45.6956 6:24.2841 7:1856.38 
0.0130377345017666 1:0.126372 2:0.130684 3:0.0937786 4:16.9459 5:17.3002 6:7.54632 7:6.98772 
0.01836625562236516 1:1.73908 2:1.81457 3:1.65208 4:16.3297 5:16.9314 6:13.1091 7:982.868 
0.01836275685772493 1:0.562963 2:0.590424 3:0.602304 4:80.1667 5:82.5313 6:51.1401 7:12.6243 
0.00129839513632018 1:0.338134 2:0.344222 3:0.128566 4:12.6795 5:12.8832 6:4.27024 7:3.66875 
0.01839093757654187 1:0.0430145 2:0.0442886 3:0.0275424 4:38.0836 5:39.3257 6:26.9573 7:55.1835 
0.01391552631056652 1:0.101364 2:0.104536 3:0.0687509 4:15.6978 5:16.0031 6:6.47508 7:15.4796 
0.01862526935352374 1:0.184365 2:0.189132 3:0.102822 4:68.4736 5:70.5826 6:45.6842 7:10.9099 
0.0183815289156324 1:0.378387 2:0.393169 3:0.322594 4:27.539 5:28.338 6:17.2693 7:13.513 
0.01722998330363379 1:0.118036 2:0.125991 3:0.175433 4:59.6636 5:61.4974 6:39.7189 7:8.56081 
0.006361581588991704 1:0.0589259 2:0.0605427 3:0.0348964 4:14.3494 5:14.6065 6:5.42815 7:6.4127 
0.01466615149972733 1:0.209111 2:0.21805 3:0.195392 4:51.245 5:52.8013 6:33.6957 7:8.75638 
0.0115350396789865 1:0.112111 2:0.115246 3:0.0676696 4:19.8967 5:20.3782 6:10.3281 7:3.49282 
0.005749605887424347 1:0.000659943 2:0.000672579 3:0.000236005 4:11.2462 5:11.4224 6:3.68685 7:0.0077895 8:1 
0.01283333457886199 1:0.356996 2:0.370955 3:0.304635 4:43.4227 5:44.7127 6:27.908 7:7.19431 
0.004608978147207633 1:0.13712 2:0.142626 3:0.120204 4:16.2724 5:16.6073 6:7.12617 7:1.15134 
0.01811101979237689 1:0.0567532 2:0.0593181 3:0.056159 4:36.3241 5:37.3802 6:22.829 7:112.811 
0.002692788969052614 1:0.000304699 2:0.000311255 3:0.000111461 4:14.0851 5:14.3134 6:4.78761 7:0.000186306 8:1 
0.01332352713792566 1:0.0120295 2:0.0161276 3:0.0259789 4:5.79882 5:4.90038 6:9.40515 7:10.2212 
0.007795855063683253 1:0.00251842 2:0.00208056 3:0.00443029 4:9.50045 5:7.85721 6:16.7151 7:0.0949365 8:1 
0.01138899276583356 1:0.0288482 2:0.0293851 3:0.0113385 4:32.6571 5:33.5815 6:19.9607 7:2.57675 
0.01122756690827552 1:0.0274379 2:0.0288572 3:0.0310907 4:28.9953 5:29.7878 6:17.0887 7:2.32327 8:1 
0.01016046510003554 1:0.0549159 2:0.0566974 3:0.0386367 4:25.6831 5:26.357 6:14.5088 7:1.73452 8:1 
0.01182791326354388 1:0.215897 2:0.223224 3:0.15919 4:22.7626 5:23.331 6:12.2114 7:1.29299 8:1 
0.007983121730220623 1:0.00815105 2:0.00827956 3:0.00269681 4:8.48169 5:8.61308 6:2.74636 7:0.0138544 8:1 
0.01422398390521656 1:1.34351 2:1.11856 3:2.3435 4:3.22576 5:2.6783 6:5.64683 7:88.2062 
0.01837792475451278 1:5.84848 2:6.05637 3:4.52445 4:35.0463 5:36.2324 6:25.7759 7:1062.39 
0.004994515951029121 1:0.161221 2:0.164503 3:0.0697491 4:18.4107 5:18.8199 6:8.74167 7:2.42864 
0.01838905042348607 1:0.00302708 2:0.00308084 3:0.00111824 4:12.4933 5:12.6912 6:4.14201 7:29.9819 
0.002036705236279384 1:0.129165 2:0.132637 3:0.0748668 4:16.1321 5:16.4693 6:7.17999 7:1.39815 8:1 
0.004597703069653603 1:0.0332874 2:0.0346426 3:0.0296353 4:15.2727 5:15.5766 6:6.45413 7:0.878092 8:1 
0.002845631597993171 1:0.0306054 2:0.0253248 3:0.0538127 4:10.2031 5:8.43878 6:17.95 7:0.0378967 
0.01849102433888106 1:0.136269 2:0.131817 3:0.117875 4:45.6621 5:40.3833 6:61.6651 7:55.15 
1 1:0.00966895 2:0.00799585 3:0.0170136 4:0.116382 5:0.0962485 6:0.204774 7:0.287688 8:1 
0.01864516557839058 1:0.104036 2:0.104857 3:0.016006 4:46.1127 5:46.9769 6:18.2912 7:8.12031 
0.007426983287591005 1:0.00659764 2:0.00686085 3:0.00573385 4:12.8098 5:13.0227 6:4.4721 7:4.35268 8:1 
0.01798164474893715 1:0.230177 2:0.237589 3:0.160629 4:38.9897 5:39.8208 6:17.7179 7:3.09006 
0.01463250492738355 1:0.0506949 2:0.0497251 3:0.0228374 4:35.2984 5:36.0691 6:16.4506 7:1.97612 
0.006278853584051846 1:0.00490922 2:0.00498366 3:0.00158927 4:6.37865 5:6.47723 6:2.06014 7:0.0377403 
0.01219681333800496 1:0.00546622 2:0.00518799 3:0.00651681 4:31.1986 5:31.883 6:14.6129 7:2.34995 
0.01011892513613644 1:0.0534604 2:0.0441989 3:0.0940992 4:7.66522 5:6.34069 6:13.4827 7:2.22884 8:1 
0.01175309643866768 1:0.175733 2:0.179948 3:0.0904197 4:27.2322 5:27.824 6:12.629 7:2.09699 
0.003420174015462574 1:0.0908842 2:0.093468 3:0.0558661 4:23.5593 5:24.0633 6:10.7453 7:2.31964 
0.01046603114765132 1:0.0129886 2:0.0135682 3:0.0126762 4:20.933 5:21.3735 6:9.38446 7:0.785712 
0.0166261416871652 1:0.00854015 2:0.0087024 3:0.00343931 4:12.4038 5:12.6019 6:4.14813 7:12.4191 
0.004524448951859366 1:0.0322974 2:0.0334537 3:0.0252123 4:19.2613 5:19.6558 6:8.39251 7:0.809628 8:1 
0.01861168194805707 1:1.99368 2:1.69853 3:3.37219 4:0.996841 5:0.849264 6:1.6861 7:103.609 8:1 
0.008856200340735448 1:0.00813866 2:0.00844932 3:0.00679398 4:17.7032 5:18.0549 6:7.46979 7:0.686096 8:1 
0.01837897618989404 1:0.570208 2:0.501354 3:0.922014 4:61.3818 5:52.6012 6:102.987 7:33.3747 8:1 
0.0180179123939973 1:0.0461574 2:0.0535045 3:0.0393848 4:65.5839 5:56.6509 6:108.814 7:27.3652 8:1 
0.01811761994508693 1:0.295521 2:0.253345 3:0.495602 4:55.3787 5:47.3831 6:93.1161 7:23.2041 8:1 
0.01817369276842196 1:0.672565 2:0.630503 3:0.980717 4:70.3644 5:61.3396 6:115.22 7:35.7472 8:1 
0.01793816444663709 1:0.00569046 2:0.00589371 3:0.00438285 4:14.965 5:15.2429 6:5.87806 7:232.233 
0.01790925236177686 1:0.0263839 2:0.0325184 3:0.0172768 4:58.7404 5:50.6391 6:97.7332 7:23.7349 8:1 
0.0183580578883405 1:1.36926 2:1.2815 3:2.00248 4:73.9276 5:64.9034 6:119.807 7:38.1741 
0.0181901605255035 1:1.23042 2:1.16059 3:1.77483 4:62.3816 5:54.1849 6:102.682 7:19.4653 8:1 
0.01453951277443788 1:0.533661 2:0.518106 3:0.729563 4:76.3412 5:67.3777 6:122.749 7:24.6391 8:1 
0.01797079045294098 1:0.696028 2:0.6563 3:1.00461 4:65.5226 5:57.3158 6:106.754 7:19.2337 8:1 
0.01700905981835399 1:0.553178 2:0.524748 3:0.789857 4:78.5031 5:69.6562 6:125.215 7:22.58 8:1 
0.01794544260640113 1:0.220489 2:0.205132 3:0.325825 4:69.8076 5:61.5538 6:112.4 7:18.7173 8:1 
0.01359452819027046 1:0.161355 2:0.131576 3:0.289017 4:81.4552 5:72.683 6:128.812 7:32.5358 8:1 
0.01075396076490086 1:0.43409 2:0.42052 3:0.595982 4:83.4082 5:74.7924 6:130.901 7:18.2655 8:1 
0.01172576327391801 1:0.647057 2:0.635166 3:0.865644 4:84.6014 5:76.1643 6:131.95 7:15.8773 8:1 
0.004023995834698897 1:0.00377262 2:0.00383198 3:0.0012553 4:8.96899 5:9.10813 6:2.90867 7:0.0183598 
0.007927156349432866 1:0.00144196 2:0.00147021 3:0.000586689 4:13.2525 5:13.4649 6:4.44883 7:0.00146456 
0.001073600329743907 1:0.000706434 2:0.000716448 3:0.000273108 4:13.2732 5:13.486 6:4.45967 7:0.00101642 8:1 
0.004173140787722611 1:0.755586 2:0.724888 3:1.05665 4:86.4644 5:78.1747 6:133.947 7:16.116 8:1 
0.008422157724104238 1:0.00893211 2:0.00908625 3:0.00326347 4:10.3844 5:10.5471 6:3.40194 7:1.79326 
0.008342709865589385 1:0.160613 2:0.1254 3:0.30291 4:86.4982 5:78.4376 6:133.366 7:14.2855 
0.01448680993239143 1:0.177782 2:0.189744 3:0.196207 4:87.6323 5:79.7547 6:134.327 7:16.9369 8:1 
0.01019209944330953 1:0.443607 2:0.421399 3:0.63176 4:87.8255 5:80.1688 6:133.973 7:10.8764 8:1 
0.003650546390146833 1:0.555583 2:0.526461 3:0.794823 4:88.2982 5:80.8358 6:134.052 7:9.93976 8:1 
0.01766099038344088 1:0.304827 2:0.287601 3:0.439503 4:72.6196 5:64.3668 6:116.018 7:25.1415 8:1 
0.005457173784046201 1:0.165801 2:0.151814 3:0.251642 4:88.3844 5:81.1255 6:133.608 7:8.31354 8:1 
0.0157369520946874 1:0.950843 2:0.90189 3:1.35787 4:75.4176 5:67.2434 6:119.407 7:23.1479 8:1 
0.01291447607913574 1:0.328306 2:0.291444 3:0.523258 4:88.1133 5:81.0705 6:132.669 7:6.08665 
0.01770646713536023 1:0.204636 2:0.186135 3:0.313904 4:77.6195 5:69.5778 6:121.881 7:18.2812 8:1 
0.01841186973796721 1:0.987486 2:0.933136 3:1.4198 4:79.8929 5:71.9751 6:124.47 7:14.4456 
0.003925854034375068 1:0.520033 2:0.498918 3:0.727205 4:87.1039 5:80.4721 6:130.248 7:6.06547 8:1 
0.01410275633813046 1:0.430766 2:0.411065 3:0.608413 4:81.6136 5:73.8433 6:126.284 7:33.2394 8:1 
0.01444952166398846 1:0.0512562 2:0.0463943 3:0.0792217 4:83.3753 5:75.7624 6:128.123 7:18.1824 
0.0150659464768888 1:0.123163 2:0.115284 3:0.180064 4:84.2042 5:76.7723 6:128.697 7:11.9263 8:1 
0.004044706575286883 1:0.398691 2:0.391504 3:0.532961 4:84.551 5:78.4944 6:125.392 7:5.22302 8:1 
0.01222010733153084 1:0.118267 2:0.11689 3:0.156 4:85.0365 5:77.7956 6:129.248 7:8.05379 8:1 
0.009391326703967251 1:0.148146 2:0.160328 3:0.157624 4:83.5245 5:77.6346 6:123.616 7:4.47764 8:1 
0.01112512304567179 1:0.056365 2:0.040185 3:0.116711 4:86.6418 5:79.7709 6:130.306 7:12.3286 8:1 
0.002429167339236662 1:0.562773 2:0.530298 3:0.81324 4:87.1875 5:80.506 6:130.492 7:9.8752 8:1 
0.0009351686579938566 1:0.186451 2:0.181094 3:0.254656 4:86.8132 5:80.3251 6:129.482 7:10.0272 8:1 
0.01400749652730982 1:0.42981 2:0.396461 3:0.644358 4:73.0809 5:66.5433 6:111.935 7:8.53689 8:1 
0.00230870819499529 1:0.00636685 2:0.00647748 3:0.00231525 4:11.476 5:11.6564 6:3.77347 7:0.00700914 8:1 
0.02095620988018916 1:0.00202566 2:0.00167561 3:0.00356275 4:4.5323 5:3.74824 6:7.9745 7:0.000393534 8:1 
0.0053756773738316 1:0.519822 2:0.498307 3:0.728044 4:82.5372 5:76.8267 6:121.855 7:5.85061 
0.00525753698364114 1:0.433832 2:0.427004 3:0.577269 4:81.4139 5:75.8719 6:119.949 7:4.50625 8:1 
0.007305755510724191 1:0.354094 2:0.343661 3:0.484465 4:87.124 5:81.004 6:128.878 7:8.39811 8:1 
0.006162613638089878 1:0.154952 2:0.171244 3:0.155075 4:80.3223 5:74.9264 6:118.145 7:5.69839 8:1 
0.0117686545290595 1:0.458298 2:0.440378 3:0.63907 4:86.4583 5:80.5266 6:127.508 7:5.13589 8:1 
0.006115070685900226 1:0.180652 2:0.171486 3:0.25762 4:78.944 5:73.7119 6:115.924 7:4.85703 8:1 
0.008682972997755001 1:0.103185 2:0.106928 3:0.122659 4:74.5136 5:68.1062 6:113.424 7:8.02549 8:1 
0.001781853878452311 1:0.423824 2:0.422955 3:0.548176 4:85.7035 5:80.1213 6:125.583 7:5.30834 8:1 
0.001405123390839608 1:0.0459318 2:0.0610924 3:0.0178099 4:76.4525 5:71.4919 6:111.975 7:5.77696 8:1 
0.01019048271525932 1:1.04421 2:1.00118 3:1.46192 4:75.7386 5:69.6526 6:114.125 7:6.62784 
0.013256869949989 1:0.474648 2:0.453251 3:0.669602 4:85.341 5:79.9172 6:124.684 7:8.24009 
0.005625212758900378 1:0.157722 2:0.158057 3:0.202209 4:75.1843 5:70.351 6:109.995 7:4.06495 8:1 
0.003663284720991422 1:0.243261 2:0.236564 3:0.331431 4:84.353 5:79.0866 6:122.982 7:6.0852 
0.007535881639414841 1:0.414158 2:0.401775 3:0.567012 4:73.8896 5:69.1785 6:107.994 7:3.72169 
0.002777173955063015 1:0.466812 2:0.449644 3:0.647894 4:83.8859 5:78.7666 6:121.98 7:5.51559 8:1 
0.0009607878704140926 1:0.280194 2:0.262579 3:0.408864 4:76.808 5:71.0234 6:114.68 7:6.19123 8:1 
0.006276033419487582 1:0.202579 2:0.19867 3:0.271524 4:72.5476 5:67.9484 6:105.961 7:3.80329 8:1 
0.008551107199172747 1:0.0857964 2:0.0890894 3:0.101525 4:82.5544 5:77.586 6:119.854 7:6.57399 8:1 
0.007827878730782627 1:0.000181198 2:0.0014534 3:0.00326538 4:76.8965 5:71.2693 6:114.365 7:8.90716 8:1 
0.007927188385485008 1:0.108483 2:0.090535 3:0.179013 4:4.18767 5:3.50294 6:7.19351 7:2.59969 
0.005864219829778062 1:0.166717 2:0.15598 3:0.244001 4:81.9855 5:77.1522 6:118.753 7:4.15462 8:1 
0.01749330895904239 1:0.0132999 2:0.0211802 3:0.00443554 4:71.1772 5:66.6876 6:103.898 7:8.7365 8:1 
0.003971919897243752 1:0.0672035 2:0.0536823 3:0.123416 4:80.9232 5:76.218 6:117.035 7:5.06904 8:1 
0.005932188511413179 1:0.997964 2:0.949832 3:1.4163 4:77.3915 5:72.0587 6:114.199 7:6.18312 8:1 
0.004282112378535794 1:0.123004 2:0.118745 3:0.170044 4:79.9547 5:75.3784 6:115.436 7:4.96656 8:1 
0.01205761043433366 1:0.353877 2:0.331422 3:0.516924 4:69.705 5:65.3204 6:101.715 7:4.07252 8:1 
0.009541333981375948 1:0.0348978 2:0.0463552 3:0.0137329 4:78.7879 5:74.3309 6:113.609 7:4.05787 8:1 
0.01769109811390412 1:0.216405 2:0.208578 3:0.299989 4:67.3388 5:63.1002 6:98.2704 7:8.56094 8:1 
0.002225356416883567 1:0.0565042 2:0.0519571 3:0.0851984 4:77.491 5:73.1422 6:111.643 7:3.64302 8:1 
0.005288487088753735 1:0.438298 2:0.418584 3:0.618199 4:76.9128 5:71.9961 6:112.448 7:3.99192 
0.01845564505912195 1:0.427353 2:0.405591 3:0.609646 4:64.3624 5:60.2884 6:93.9888 7:11.4857 8:1 
0.01201973138015425 1:0.297782 2:0.304262 3:0.365755 4:76.8449 5:72.056 6:112.012 7:9.16553 8:1 
0.01236648947508196 1:0.00294822 2:0.00243878 3:0.00518847 4:4.44788 5:3.67842 6:7.826 7:0.000363979 8:1 
0.03780903699831138 1:0.00126994 2:0.00105023 3:0.00223482 4:4.47859 5:3.70382 6:7.88002 7:0.000378717 8:1 
0.02590765741829413 1:0.00146383 2:0.00121155 3:0.00257671 4:4.50667 5:3.72704 6:7.92941 7:0.000364761 8:1 
0.1726120982267498 1:0.000973165 2:0.000804543 3:0.00171262 4:4.54489 5:3.75866 6:7.99665 7:0.000352484 8:1 
0.02590687457896167 1:0.00184739 2:0.00152719 3:0.00324798 4:4.75348 5:3.93119 6:8.36357 7:0.000375491 8:1 
0.07874488533383973 1:0.00198865 2:0.0016441 3:0.0034976 4:4.56599 5:3.77611 6:8.03377 7:0.000367051 8:1 
0.06362379742784419 1:0.000302255 2:0.000249416 3:0.000530005 4:4.61219 5:3.81432 6:8.11504 7:0.000394139 8:1 
0.1567410317520473 1:0.00139254 2:0.00115183 3:0.00244939 4:4.626 5:3.82575 6:8.13934 7:0.000370519 8:1 
0.0627486814303186 1:8.17776e-05 2:6.71446e-05 3:0.000144482 4:4.67875 5:3.86938 6:8.23213 7:0.000401384 8:1 
0.006954847165849078 1:0.00171423 2:0.00141791 3:0.00301468 4:4.68416 5:3.87385 6:8.24163 7:0.000343085 
0.1366439188268424 1:0.00117588 2:0.000973374 3:0.00206804 4:4.74381 5:3.92319 6:8.34657 7:0.000447037 8:1 
0.2248248893913256 1:0.0034886 2:0.00288606 3:0.00613403 4:4.92402 5:4.07226 6:8.66356 7:0.000443545 8:1 
0.01561348876219409 1:0.000356793 2:0.000295579 3:0.000628948 4:4.74488 5:3.92408 6:8.34845 7:31.8884 8:1 
0.0181455183452397 1:0.0517883 2:0.0479941 3:0.0770273 4:60.389 5:56.5032 6:88.3595 7:11.1075 8:1 
0.008235058475489136 1:0.09095 2:0.0885887 3:0.123553 4:76.6081 5:72.3597 6:110.233 7:3.30712 8:1 
0.01831211498191754 1:0.460742 2:0.440187 3:0.649381 4:56.7637 5:53.0495 6:83.2229 7:13.0582 8:1 
0.004290918744499308 1:0.0428772 2:0.0312939 3:0.0868244 4:75.257 5:71.1145 6:108.204 7:3.43016 8:1 
0.002399006756767971 1:0.00701046 2:0.0062809 3:0.0452585 4:74.2153 5:70.159 6:106.628 7:3.09252 
0.01785971294056327 1:0.0676498 2:0.0714235 3:0.0768528 4:53.1537 5:49.6129 6:78.1013 7:14.4511 
0.003855289901651344 1:0.256994 2:0.258142 3:0.327803 4:72.8538 5:68.8914 6:104.618 7:3.83791 
0.01834593967749321 1:0.409559 2:0.385212 3:0.593745 4:49.8332 5:46.4509 6:73.3935 7:17.2401 8:1 
0.01816211409247104 1:0.588912 2:0.5585 3:0.841272 4:45.4437 5:42.3095 6:67.0647 7:19.9424 8:1 
0.00699889547813048 1:0.0131769 2:0.0190201 3:0.00102329 4:71.7314 5:67.8452 6:102.965 7:2.4362 
0.005004118099919733 1:0.027812 2:0.0148106 3:0.0712576 4:73.7686 5:69.656 6:106.206 7:2.64397 8:1 
0.01134011223788459 1:0.132968 2:0.144457 3:0.139882 4:40.323 5:37.4609 6:59.729 7:16.4746 8:1 
0.004216722701508246 1:0.0685329 2:0.0629616 3:0.103459 4:70.7363 5:66.9204 6:101.493 7:2.19491 
0.0123961878956248 1:0.513602 2:0.48227 3:0.746815 4:35.8534 5:33.2095 6:53.3784 7:11.538 8:1 
0.007513985195120051 1:0.111392 2:0.102739 3:0.16701 4:69.2615 5:65.5247 6:99.3776 7:1.77628 
0.002388902970230585 1:0.0732365 2:0.0733261 3:0.0940647 4:72.0113 5:68.0967 6:103.403 7:2.91743 8:1 
0.01628277672713327 1:0.181053 2:0.183678 3:0.225966 4:31.5404 5:29.1198 6:47.2154 7:15.6108 8:1 
0.01222211677673257 1:0.324405 2:0.324198 3:0.418294 4:65.0238 5:60.7681 6:95.3363 7:3.64858 8:1 
0.002900646264769055 1:0.21011 2:0.210433 3:0.269644 4:68.0821 5:64.4089 6:97.6856 7:2.10656 
0.001443825171085063 1:0.123055 2:0.125602 3:0.151475 4:71.4812 5:67.6424 6:102.514 7:3.55848 8:1 
0.01802662494299173 1:0.294476 2:0.290933 3:0.388863 4:28.4576 5:26.1915 6:42.8243 7:94.367 8:1 
0.00198285754164701 1:0.0499582 2:0.0447979 3:0.0784397 4:66.8138 5:63.2033 6:95.8814 7:1.27471 
0.004664451809477551 1:0.0507424 2:0.0518146 3:0.0624113 4:24.972 5:22.8861 6:37.8449 7:7.68089 8:1 
0.001517741788076935 1:0.0529766 2:0.0442562 3:0.0919676 4:69.7224 5:66.0427 6:99.8154 7:2.22886 8:1 
0.0006833572773974339 1:0.274744 2:0.26856 3:0.370677 4:68.898 5:65.2887 6:98.562 7:1.85137 8:1 
0.004847726856236411 1:0.556946 2:0.526103 3:0.801285 4:22.7546 5:20.7775 6:34.6927 7:5.19659 8:1 
0.008081138074822126 1:0.124974 2:0.118064 3:0.179767 4:68.0349 5:64.4896 6:97.2761 7:1.70838 8:1 
0.007805911743983647 1:0.0209193 2:0.0265408 3:0.011601 4:20.0636 5:18.2111 6:30.8879 7:6.01891 
0.008333295141610797 1:0.601343 2:0.579393 3:0.834198 4:63.7355 5:59.9183 6:92.4812 7:3.36333 8:1 
0.0008121605505655074 1:6.31213e-05 2:5.23925e-05 3:0.000111699 4:6.61042 5:5.46749 6:11.6292 7:0.000560222 
0.01449034126513038 1:0.113093 2:0.110457 3:0.152814 4:17.9845 5:16.2477 6:27.895 7:7.05995 8:1 
0.01045629215664173 1:0.242504 2:0.229135 3:0.348756 4:60.4451 5:57.1296 6:86.8759 7:2.7116 8:1 
0.008394506659340328 1:0.444459 2:0.411191 3:0.663045 4:16.1844 5:14.5289 6:25.3551 7:7.16509 8:1 
0.01577797122874947 1:0.689513 2:0.65415 3:0.98436 4:56.5798 5:53.4393 6:81.4215 7:4.77502 8:1 
0.002593270035407604 1:0.216253 2:0.210808 3:0.293359 4:67.0123 5:63.5255 6:95.7994 7:2.05889 8:1 
0.01010259954561088 1:0.431827 2:0.403711 3:0.632731 4:14.6621 5:13.0888 6:23.1709 7:5.71267 8:1 
0.01696551072140096 1:0.0098629 2:0.00378227 3:0.0292816 4:53.1209 5:50.125 6:76.5732 7:6.93583 8:1 
0.009133005423162865 1:0.112679 2:0.119179 3:0.127365 4:66.0863 5:62.6623 6:94.436 7:1.1723 
0.0008782476001873984 1:0.0677567 2:0.0593982 3:0.110078 4:63.3057 5:59.5673 6:91.7127 7:2.96853 8:1 
0.002270153166861851 1:0.324747 2:0.308328 3:0.462955 4:13.5478 5:12.0244 6:21.5998 7:3.14315 8:1 
0.01275124048009546 1:0.440495 2:0.431007 3:0.593108 4:49.526 5:46.6759 6:71.5467 7:4.59363 8:1 
0.004400305881368157 1:0.120731 2:0.117413 3:0.164537 4:65.0199 5:61.6451 6:92.9289 7:1.18956 8:1 
0.002861434710257793 1:0.161365 2:0.164261 3:0.199871 4:62.6847 5:59.0769 6:90.5571 7:2.32137 8:1 
0.001252687538044639 1:0.0114145 2:0.00998592 3:0.0186043 4:64.3217 5:60.9882 6:91.917 7:1.22298 8:1 
0.01834791365845728 1:0.0278144 2:0.0264149 3:0.0396357 4:46.1196 5:43.4025 6:66.7973 7:27.2919 8:1 
0.00854008925466972 1:0.078406 2:0.0786892 3:0.100193 4:12.6578 5:11.1744 6:20.345 7:3.26538 8:1 
0.001715015182092938 1:0.0646377 2:0.0608144 3:0.0937119 4:62.1513 5:58.613 6:89.6805 7:1.62538 8:1 
0.009233954032835463 1:0.0824466 2:0.0795813 3:0.113938 4:63.2634 5:59.9786 6:90.4213 7:1.04101 8:1 
0.001042106818090771 1:0.0522757 2:0.0496769 3:0.0743532 4:61.6087 5:58.1313 6:88.8159 7:1.87033 8:1 
0.01789071146739137 1:0.417233 2:0.398804 3:0.587484 4:42.7209 5:40.1277 6:62.0832 7:13.7997 8:1 
0.008149900585630135 1:0.0827422 2:0.0768628 3:0.122572 4:61.2983 5:58.0946 6:87.6698 7:0.733519 8:1 
0.01815761479368766 1:0.164091 2:0.15806 3:0.227757 4:60.4809 5:57.1147 6:87.0604 7:256.985 
0.01286114974549246 1:0.557704 2:0.533095 3:0.78528 4:39.9282 5:37.4326 6:58.2208 7:18.0413 8:1 
0.001929582909409866 1:0.371937 2:0.366071 3:0.494936 4:60.2969 5:57.1286 6:86.2838 7:0.698966 8:1 
0.004443254176722194 1:0.0161266 2:0.0149055 3:0.0241098 4:59.4709 5:56.3326 6:85.1382 7:0.95811 8:1 
0.01778392921750904 1:0.0394878 2:0.0394168 3:0.0510755 4:36.9374 5:34.54 6:54.1017 7:17.7837 8:1 
0.005989596598531981 1:0.0793362 2:0.0721202 3:0.121844 4:58.4772 5:55.371 6:83.7712 7:0.690421 8:1 
0.002895070418970733 1:0.447698 2:0.417616 3:0.658538 4:9.80313 5:8.41667 6:16.4046 7:2.3822 8:1 
0.01174944934508925 1:0.0955434 2:0.0871577 3:0.145882 4:33.8506 5:31.5617 6:49.8309 7:11.8336 8:1 
0.01691422278078419 1:0.0599856 2:0.0584538 3:0.0814118 4:9.51881 5:8.173 6:15.9276 7:8.65909 8:1 
0.01216661816743253 1:0.0867227 2:0.0811565 3:0.126845 4:10.4183 5:8.97977 6:17.3387 7:4.30875 8:1 
0.008255235491100826 1:0.391951 2:0.370061 3:0.564399 4:31.5246 5:29.3035 6:46.6508 7:7.49969 8:1 
0.004888125747301186 1:0.1702 2:0.164869 3:0.233688 4:55.2527 5:52.2714 6:79.2785 7:2.26377 8:1 
0.006766119178833258 1:0.128521 2:0.118421 3:0.193081 4:58.13 5:54.9412 6:83.5496 7:0.914327 
0.002300353563646672 1:0.0198679 2:0.0224152 3:0.0186577 4:57.3777 5:54.2269 6:82.4768 7:0.927355 8:1 
0.01163468145634911 1:0.0998843 2:0.096715 3:0.137258 4:27.2473 5:25.1555 6:40.7908 7:7.47307 8:1 
0.003037798384541741 1:0.0538497 2:0.0533271 3:0.070776 4:56.7973 5:53.6802 6:81.6379 7:0.907991 8:1 
0.0006326594453883727 1:0.0226302 2:0.0258505 3:0.0203538 4:25.4208 5:23.3811 6:38.2967 7:4.89642 8:1 
0.007455784462915505 1:0.0330048 2:0.0268116 3:0.0594101 4:53.0712 5:50.1683 6:76.2555 7:2.90271 8:1 
0.007065550631648979 1:0.000230014 2:0.000192046 3:0.000404954 4:7.42608 5:6.14259 6:13.0629 7:0.000567073 
0.003639199970802653 1:0.202037 2:0.202003 3:0.260258 4:24.1101 5:22.1024 6:36.5216 7:5.08861 8:1 
0.003961293834081097 1:0.0322772 2:0.0314536 3:0.0438213 4:11.0842 5:9.38028 6:18.9198 7:0.471198 
0.001458026430571008 1:0.00780165 2:0.00409508 3:0.0201621 4:11.7307 5:10.1698 6:19.3625 7:3.25092 8:1 
0.009325250892409525 1:0.0849867 2:0.0807257 3:0.121052 4:22.7408 5:20.7734 6:34.6487 7:6.24572 
0.009550266495345794 1:0.0325394 2:0.0292192 3:0.0509262 4:51.0784 5:48.2486 6:73.4901 7:3.61125 
0.0009779774196658655 1:0.169249 2:0.151055 3:0.267564 4:11.5514 5:9.79473 6:19.6654 7:0.434802 
0.005242214595468232 1:0.16028 2:0.153443 3:0.225072 4:56.1655 5:53.0832 6:80.7294 7:0.831645 8:1 
0.005818208830043414 1:0.167714 2:0.156123 3:0.247592 4:21.4308 5:19.4926 6:32.8819 7:5.17079 8:1 
0.0008498166322723188 1:0.0631925 2:0.0564764 3:0.0996928 4:14.3948 5:12.5478 6:23.5732 7:2.0771 8:1 
0.0009278347098277684 1:0.248808 2:0.237812 3:0.350373 4:48.8975 5:46.1416 6:70.4803 7:2.83883 
0.01852160612984155 1:0.022048 2:0.0216708 3:0.0294237 4:20.3959 5:18.4886 6:31.4651 7:13.6965 
0.01336063787982106 1:0.385235 2:0.361106 3:0.561868 4:46.8174 5:44.129 6:67.618 7:3.47636 8:1 
0.006112555716857216 1:0.100582 2:0.0987296 3:0.134555 4:54.9749 5:51.9437 6:79.057 7:0.548656 8:1 
0.003145738369742738 1:0.502443 2:0.483672 3:0.698179 4:19.2924 5:17.4087 6:29.98 7:4.19997 
0.01068286248830608 1:0.506059 2:0.483801 3:0.712341 4:44.5298 5:41.9133 6:64.476 7:3.28865 8:1 
0.001472036909346334 1:0.0570774 2:0.0565391 3:0.0749798 4:54.222 5:51.2195 6:78.009 7:0.484362 8:1 
0.01436386647436999 1:0.206564 2:0.196685 3:0.292918 4:42.904 5:40.3319 6:62.2614 7:5.98751 8:1 
0.007268553488892995 1:0.0294838 2:0.0279512 3:0.0421953 4:53.5783 5:50.6003 6:77.1134 7:0.593677 8:1 
0.002447084560326829 1:0.172472 2:0.163212 3:0.24735 4:13.459 5:11.7251 6:22.0599 7:2.434 
0.0007778015540793604 1:0.403662 2:0.390847 3:0.554739 4:18.6942 5:16.7951 6:29.2516 7:5.22844 8:1 
0.003828064467523293 1:0.491296 2:0.406419 3:0.864113 4:3.35101 5:2.77191 6:5.89437 7:10.0357 8:1 
0.01251999213346828 1:0.0669622 2:0.066915 3:0.0863633 4:40.8665 5:38.3516 6:59.4819 7:6.4774 8:1 
0.0006491338820063808 1:0.00128877 2:0.0010674 3:0.00226414 4:7.32482 5:6.05877 6:12.8849 7:0.000559242 8:1 
0.01065331687151549 1:0.321675 2:0.306993 3:0.454292 4:39.0538 5:36.5872 6:57.0158 7:7.62382 8:1 
0.004944130343123405 1:0.0381131 2:0.0395312 3:0.0451708 4:52.3089 5:49.372 6:75.367 7:0.542636 8:1 
0.01329922729270033 1:0.179199 2:0.17548 3:0.240878 4:37.4502 5:35.0227 6:54.8442 7:9.23983 
0.006098212530327003 1:0.32616 2:0.309683 3:0.464933 4:19.0787 5:17.1234 6:29.8999 7:3.32792 8:1 
0.003866083225353978 1:0.0227442 2:0.0220976 3:0.0310693 4:35.6001 5:33.2224 6:52.3261 7:10.4032 8:1 
0.01139380055967341 1:0.0912728 2:0.0866842 3:0.130061 4:51.0325 5:48.1283 6:73.634 7:0.445485 8:1 
0.007095393567095876 1:0.0338173 2:0.0334568 3:0.0445404 4:34.0532 5:31.7092 6:50.2423 7:9.77747 8:1 
0.006838570845692338 1:0.17636 2:0.167312 3:0.251746 4:49.0708 5:46.2311 6:70.932 7:1.22408 8:1 
0.00915662617361118 1:0.631584 2:0.609218 3:0.874255 4:32.5451 5:30.232 6:48.2159 7:8.25867 8:1 
0.009701948026065832 1:0.136672 2:0.128322 3:0.198727 4:47.9084 5:45.1089 6:69.3253 7:1.21506 8:1 
0.005352934875929584 1:0.0220927 2:0.0184197 3:0.0384673 4:8.48812 5:7.02427 6:14.9223 7:0.0852789 
0.01671183782942809 1:0.106074 2:0.0996456 3:0.15412 4:31.0189 5:28.7424 6:46.1508 7:19.6046 8:1 
