svm_type c_svc
kernel_type rbf
gamma 0.125
nr_class 2
total_sv 1379
rho -0.976433
label 1 0
nr_sv 1059 320
SV
0.02342753331853392 1:0.0392523 2:0.0414214 3:0.156976 4:10.8585 5:11.0941 6:10.7694 7:57.7539 8:1 
0.5882994740582206 1:0.0431371 2:0.043715 3:0.0160586 4:0.32413 5:0.310362 6:0.146771 7:0.0957727 8:1 
0.005351910388781646 1:0.0176749 2:0.00087285 3:0.0545125 4:5.0795 5:5.18146 6:5.49264 7:0.0314225 8:1 
0.006589255699371366 1:0.249229 2:0.275609 3:0.294023 4:12.0131 5:12.3766 6:12.9685 7:14.6047 8:1 
0.002678856103040972 1:0.0113559 2:0.0117464 3:0.052223 4:5.1269 5:5.23915 6:5.56483 7:0.0161722 8:1 
0.002688003310412393 1:0.0813508 2:0.0815268 3:0.0470467 4:10.2348 5:10.5414 6:11.1095 7:3.36313 8:1 
0.003215397940087347 1:0.0357037 2:0.0370288 3:0.178166 4:5.66956 5:5.80201 6:5.4792 7:4.83013 8:1 
0.007656794144090861 1:2.39712 2:2.49426 3:2.46048 4:5.51857 5:5.72975 6:6.0486 7:17.8105 8:1 
0.002213545318162054 1:0.857693 2:0.864647 3:0.966088 4:8.19833 5:8.39815 6:8.84941 7:11.1569 8:1 
0.02116631692052543 1:1.49647 2:1.58886 3:1.46492 4:6.87329 5:7.11365 6:7.41055 7:29.1403 8:1 
0.006167963062843493 1:0.0757651 2:0.0869279 3:0.00604057 4:8.84066 5:9.05834 6:9.73978 7:0.282857 8:1 
0.01297192067229248 1:0.40549 2:0.442677 3:0.389683 4:9.61577 5:9.98183 6:10.2644 7:17.2403 8:1 
0.005993464319099475 1:0.031642 2:0.0253668 3:0.108851 4:13.1775 5:13.6014 6:13.9048 7:5.02997 8:1 
0.003587517311962556 1:0.775121 2:0.745371 3:0.805753 4:8.78676 5:8.97263 6:9.66702 7:0.364498 8:1 
0.003540329418787388 1:1.332 2:1.38893 3:1.45314 4:14.3355 5:14.7446 6:15.2958 7:6.14516 8:1 
0.009100790599254227 1:0.0664287 2:0.0580673 3:0.0446568 4:11.8645 5:12.2941 6:12.5723 7:9.36006 8:1 
0.0081444859029989 1:0.179802 2:0.207088 3:0.100643 4:14.0381 5:14.5447 6:14.8383 7:7.52226 8:1 
0.001907253711724811 1:0.747476 2:0.792049 3:0.879858 4:15.4958 5:16.0508 6:16.3231 7:2.24208 8:1 
0.008876996294266016 1:1.60093 2:1.67049 3:1.76503 4:8.23012 5:8.4389 6:9.18306 7:13.5546 8:1 
0.008082429770663195 1:0.05024 2:0.057806 3:0.0666924 4:15.8225 5:16.3828 6:16.6254 7:4.3501 8:1 
0.003313053505452357 1:1.77301 2:1.88436 3:1.87148 4:15.775 5:16.321 6:16.6039 7:15.5441 8:1 
0.01175540251587946 1:0.0993104 2:0.066925 3:0.263399 4:12.372 5:12.6547 6:13.6938 7:19.5204 8:1 
0.01146264397015245 1:2.48215 2:2.61481 3:2.9301 4:10.9448 5:11.2641 6:12.4268 7:18.9227 8:1 
0.01744053198193952 1:1.38462 2:1.44822 3:1.74364 4:16.1877 5:16.6066 6:17.9109 7:29.7826 8:1 
0.02337455312736228 1:4.29769 2:4.46323 3:4.87235 4:13.2066 5:13.6245 6:15.0533 7:61.5225 8:1 
0.01520494058668783 1:1.7252 2:1.84176 3:2.19776 4:16.5742 5:17.034 6:18.3536 7:40.0326 8:1 
0.01893058450690654 1:1.21737 2:1.23171 3:1.3149 4:18.2101 5:18.8187 6:20.7064 7:127.721 8:1 
0.02008827976522798 1:3.0462 2:3.17495 3:3.30312 4:14.9839 5:15.3779 6:16.5472 7:42.014 8:1 
0.02347158978490368 1:0.137121 2:0.13659 3:0.258708 4:13.7996 5:14.1686 6:15.5156 7:58.0733 8:1 
0.02332414084804879 1:1.17287 2:1.21347 3:1.33894 4:17.2973 5:17.7853 6:19.426 7:88.5429 8:1 
0.0154058120877637 1:3.09333 2:3.20212 3:3.60748 4:19.8796 5:20.5011 6:22.4792 7:91.9987 8:1 
0.002506541386662457 1:0.424528 2:0.437256 3:0.452835 4:8.31185 5:8.48435 6:8.344 7:1.02179 8:1 
0.02181689187681168 1:3.72039 2:3.84706 3:4.29236 4:17.1303 5:17.6189 6:19.1558 7:115.58 8:1 
0.01020288596258836 1:3.01691 2:3.15648 3:3.30813 4:20.301 5:20.9537 6:22.8456 7:106.804 8:1 
0.02017437983118248 1:2.73601 2:2.78225 3:3.02477 4:15.4626 5:15.9131 6:17.2769 7:109.29 8:1 
0.001503942575084738 1:0.273264 2:0.254391 3:0.380628 4:9.75126 5:9.95708 6:9.78171 7:7.51689 8:1 
0.0049718415330486 1:2.33013 2:2.43478 3:2.75083 4:12.7997 5:13.149 6:14.0889 7:21.3243 8:1 
0.00298589451543752 1:0.470953 2:0.476172 3:0.525212 4:11.4317 5:11.6655 6:11.5488 7:13.5296 8:1 
0.01849603775788261 1:0.521367 2:0.522497 3:0.670516 4:14.6772 5:15.076 6:16.2788 7:40.4097 8:1 
0.01959297307677277 1:2.79739 2:2.89532 3:2.95064 4:14.9242 5:15.3594 6:16.0787 7:34.1291 8:1 
0.01679377388078757 1:1.97625 2:2.03277 3:2.2386 4:17.7504 5:18.2464 6:19.7895 7:43.6373 8:1 
0.0006332090642166555 1:1.12455 2:1.16982 3:1.31897 4:10.9439 5:11.1757 6:11.0562 7:9.70854 8:1 
0.0007319634341785192 1:0.672868 2:0.64482 3:0.793238 4:9.88565 5:10.0743 6:9.96843 7:14.4906 8:1 
0.01880200928120684 1:2.55693 2:2.63825 3:2.80762 4:17.1209 5:17.6177 6:18.5422 7:48.444 8:1 
0.01351525536730452 1:1.2483 2:1.29649 3:1.42447 4:20.814 5:21.4311 6:23.2899 7:41.1063 8:1 
0.01282190474952294 1:3.56317 2:3.68604 3:4.19908 4:23.2376 5:23.9267 6:26.036 7:27.0309 8:1 
0.002443442728468952 1:1.87784 2:1.97073 3:2.14143 4:17.1882 5:17.6911 6:18.6319 7:41.6941 8:1 
0.006888667900969991 1:0.199894 2:0.223664 3:0.354889 4:9.55721 5:9.75209 6:9.73102 7:6.50976 8:1 
0.01566437350350801 1:2.26866 2:2.35468 3:2.55779 4:16.8074 5:17.3109 6:18.2465 7:34.8612 8:1 
0.01554070298138128 1:1.35739 2:1.41545 3:1.4789 4:21.454 5:22.0559 6:23.8764 7:82.8095 8:1 
0.02343507021106506 1:6.36003 2:6.61939 3:7.23532 4:18.0801 5:18.6716 6:19.7667 7:80.8168 8:1 
0.01537837072483981 1:1.60698 2:1.66535 3:1.79177 4:9.78998 5:10.0146 6:10.1187 7:34.3384 8:1 
0.01135397487249462 1:0.24827 2:0.251222 3:0.245992 4:19.9118 5:20.5964 6:21.8998 7:100.008 8:1 
0.01311141579511871 1:2.51523 2:2.56112 3:2.81114 4:19.8209 5:20.3526 6:21.9084 7:108.1 8:1 
0.01392540191594153 1:0.235962 2:0.260475 3:0.241824 4:10.7563 5:10.9966 6:11.2049 7:27.5149 8:1 
0.01315904933927474 1:0.996275 2:1.03655 3:1.03297 4:8.79105 5:8.98674 6:9.0836 7:24.0534 8:1 
0.00890928192815621 1:1.69211 2:1.75522 3:1.91072 4:20.6832 5:21.3842 6:22.8375 7:143.389 8:1 
0.02253406004726638 1:2.78092 2:2.89997 3:3.30972 4:15.7194 5:16.1364 6:17.2042 7:120.628 8:1 
0.01608363722166289 1:1.61246 2:1.70915 3:1.87198 4:17.8742 5:18.4281 6:19.7043 7:109.472 8:1 
0.01698488895772123 1:0.979887 2:1.01309 3:1.02696 4:12.0746 5:12.3923 6:13.0104 7:109.16 8:1 
0.01988275610137569 1:2.38388 2:2.44349 3:2.75896 4:19.7499 5:20.3967 6:21.8671 7:125.956 8:1 
0.02343503983070319 1:1.4544 2:1.54162 3:1.68826 4:20.6355 5:21.2983 6:22.9339 7:154.45 8:1 
0.02359181683149358 1:2.47924 2:2.53379 3:2.8076 4:12.7987 5:13.1807 6:14.0202 7:88.0712 8:1 
0.02104486023590918 1:0.25837 2:0.297277 3:0.174342 4:21.5602 5:22.2608 6:24.1697 7:97.4444 8:1 
0.01486820577085529 1:0.355403 2:0.352384 3:0.525279 4:19.8284 5:20.435 6:22.0885 7:146.899 8:1 
0.01474312382216791 1:2.82873 2:2.88122 3:3.01426 4:14.244 5:14.6815 6:15.5664 7:129.292 8:1 
0.02322493450255925 1:4.9123 2:5.03979 3:5.61075 4:22.8363 5:23.5789 6:25.5687 7:134.582 8:1 
0.01737660936455571 1:0.489685 2:0.423803 3:0.502095 4:18.7512 5:19.3162 6:20.7132 7:100.251 8:1 
0.02311200453185536 1:0.287186 2:0.32859 3:0.435674 4:16.1359 5:16.6275 6:18.1192 7:105.366 8:1 
0.01976076811694066 1:2.43066 2:2.51374 3:2.73058 4:23.54 5:24.3109 6:26.354 7:106.742 8:1 
0.02145120755220664 1:5.14957 2:5.40641 3:5.92703 4:20.8484 5:21.492 6:23.3127 7:122.125 8:1 
0.01546867811233738 1:2.56986 2:2.65254 3:2.86536 4:19.5427 5:20.1318 6:21.8946 7:143.469 8:1 
0.02369529010854654 1:5.00998 2:5.19141 3:5.64687 4:20.0264 5:20.6286 6:22.3864 7:168.833 8:1 
0.01585276352926542 1:4.57229 2:4.79882 3:5.25729 4:22.7892 5:23.4614 6:25.5549 7:153.579 8:1 
0.02325064685127787 1:5.91649 2:6.13135 3:6.95793 4:22.5761 5:23.2898 6:25.3833 7:146.048 8:1 
0.01539146534030957 1:4.60006 2:4.77971 3:5.24053 4:21.6438 5:22.3087 6:24.0374 7:154.398 8:1 
0.02240377437971613 1:1.80522 2:1.90625 3:1.98636 4:20.0289 5:20.6075 6:22.3879 7:113.619 
0.02329796476509083 1:2.52653 2:2.58344 3:2.73059 4:23.475 5:24.2413 6:26.2849 7:192.047 8:1 
0.0183409627243119 1:3.21634 2:3.29556 3:3.2272 4:21.5875 5:22.2558 6:23.9319 7:142.329 8:1 
0.0234302198575419 1:3.91193 2:3.99291 3:3.92076 4:29.1135 5:29.8832 6:32.4662 7:531.705 
0.02262382354564552 1:3.11644 2:3.18385 3:3.30457 4:21.9123 5:22.5892 6:24.2136 7:117.531 8:1 
0.01460947178749519 1:0.221489 2:0.240581 3:0.310654 4:8.33749 5:8.52194 6:8.60953 7:26.5391 8:1 
0.02168827071507545 1:2.24877 2:2.32876 3:2.59272 4:19.7664 5:20.3504 6:22.0371 7:86.3219 
0.02214578538475309 1:2.51229 2:2.65114 3:2.95634 4:9.10094 5:9.34296 6:9.61452 7:63.0403 8:1 
0.02303842603919376 1:0.14798 2:0.160815 3:0.240916 4:15.3505 5:15.8164 6:16.8891 7:114.121 8:1 
0.01782559159980283 1:0.189359 2:0.209819 3:0.11935 4:10.7412 5:11.0663 6:11.5326 7:108.541 8:1 
0.02295546884240529 1:2.40141 2:2.45826 3:2.67832 4:14.5609 5:14.9672 6:15.9554 7:75.0671 8:1 
0.02355622013483361 1:3.67392 2:3.84005 3:4.16566 4:14.5501 5:15.0044 6:15.8577 7:178.803 8:1 
0.02245576126525717 1:0.0556645 2:0.0368829 3:0.0309782 4:15.3828 5:15.7661 6:16.8091 7:119.882 8:1 
0.02327666931344846 1:0.602946 2:0.647653 3:0.914964 4:20.0578 5:20.644 6:22.2459 7:120.139 
0.01593834043815534 1:2.33144 2:2.37544 3:2.73997 4:13.9831 5:14.3246 6:15.2633 7:133.289 8:1 
0.02354034021112078 1:0.0863132 2:0.0331178 3:0.00909805 4:11.9369 5:12.1823 6:12.8918 7:68.3717 8:1 
0.01405869289144457 1:0.947963 2:1.00875 3:0.995512 4:22.5289 5:23.2454 6:25.0153 7:54.5208 
0.01826396486957002 1:2.29442 2:2.43232 3:2.55059 4:12.3362 5:12.6598 6:13.2866 7:132.992 8:1 
0.01163646802300498 1:1.41057 2:1.48358 3:1.68787 4:23.0495 5:23.764 6:25.5798 7:64.8452 
0.02351799499070767 1:0.315663 2:0.375225 3:0.400425 4:15.6946 5:16.1265 6:17.3158 7:145.878 8:1 
0.01559233969913514 1:1.75664 2:1.81351 3:2.19037 4:22.4834 5:23.1632 6:24.9476 7:50.0489 
0.01695049460017911 1:2.17145 2:2.3402 3:2.71074 4:15.7363 5:16.1228 6:17.175 7:128.516 8:1 
0.01316697975776003 1:1.09673 2:1.17177 3:1.25551 4:20.6945 5:21.2608 6:23.0278 7:147.543 8:1 
0.02187049488794646 1:5.16276 2:5.38485 3:5.84263 4:23.3378 5:24.0538 6:25.9616 7:62.0048 
0.01245327514614341 1:2.19225 2:2.28457 3:2.57226 4:21.6648 5:22.2307 6:24.0333 7:105.477 8:1 
0.02210780958055408 1:0.442786 2:0.442387 3:0.414258 4:23.2461 5:23.9178 6:26.0472 7:46.3354 
0.02116472396668369 1:3.24492 2:3.35785 3:3.84309 4:22.8149 5:23.4279 6:25.3518 7:53.6569 8:1 
0.02076549730653932 1:2.21079 2:2.27455 3:2.47925 4:18.2926 5:18.7628 6:19.9767 7:54.6942 8:1 
0.0133027320070378 1:3.81532 2:3.94358 3:4.28476 4:20.7097 5:21.3272 6:23.1473 7:91.8143 
0.02013469802029445 1:0.165879 2:0.125465 3:0.179552 4:17.0144 5:17.4469 6:18.4881 7:34.6374 8:1 
0.0225531651387651 1:0.308092 2:0.297096 3:0.304816 4:17.4447 5:17.9841 6:19.3262 7:135.789 8:1 
0.01150516347643394 1:0.604642 2:0.636442 3:0.554668 4:24.5715 5:25.3471 6:27.153 7:54.0563 8:1 
0.02168791719489077 1:0.421094 2:0.432313 3:0.384857 4:19.3082 5:19.9285 6:21.458 7:132.263 8:1 
0.02273967343129984 1:4.52254 2:4.70269 3:5.07617 4:20.6445 5:21.3037 6:22.9444 7:130.547 8:1 
0.01133237586525295 1:1.27073 2:1.29788 3:1.43383 4:24.0772 5:24.8582 6:26.8007 7:63.8648 8:1 
0.02355802745285818 1:0.0641422 2:0.0813818 3:0.220174 4:23.5113 5:24.2479 6:26.1766 7:137.243 8:1 
0.0231060146636845 1:3.77316 2:3.93069 3:4.39029 4:23.2378 5:24.0187 6:25.7816 7:44.898 8:1 
0.005730575054229692 1:1.14169 2:1.1827 3:1.23171 4:25.3551 5:26.2124 6:28.211 7:52.1667 8:1 
0.005596526017516022 1:0.0950174 2:0.0732193 3:0.0684452 4:25.0561 5:25.8233 6:27.801 7:52.402 8:1 
0.008824931536042857 1:3.09342 2:3.17926 3:3.52146 4:22.744 5:23.4096 6:25.3045 7:61.8256 8:1 
0.02308604840661971 1:0.177276 2:0.196058 3:0.184072 4:21.9151 5:22.5633 6:24.24 7:69.4071 8:1 
0.02213529261845665 1:2.15254 2:2.22114 3:2.40301 4:28.838 5:29.7903 6:32.2839 7:79.7462 8:1 
0.01357534026652087 1:0.365093 2:0.443815 3:0.407005 4:26.2381 5:26.987 6:29.4499 7:52.0294 8:1 
0.01164668674177635 1:1.05461 2:1.02066 3:1.27195 4:20.808 5:21.3858 6:22.9105 7:55.403 8:1 
0.01271603667104443 1:2.81305 2:2.95542 3:3.18034 4:23.9507 5:24.6448 6:26.8857 7:64.0726 8:1 
0.02337538181665511 1:1.35011 2:1.35232 3:1.43781 4:27.4264 5:28.3291 6:30.7341 7:70.301 8:1 
0.02055652039509437 1:1.76125 2:1.84512 3:1.98142 4:22.117 5:22.7659 6:24.8697 7:75.6909 8:1 
0.02343969484186853 1:3.97566 2:4.15286 3:4.6236 4:26.2281 5:27.1199 6:29.3686 7:102.233 8:1 
0.00997361906368043 1:0.378568 2:0.386488 3:0.488243 4:20.1738 5:20.7343 6:22.2049 7:18.832 8:1 
0.02204865752238516 1:0.511012 2:0.517538 3:0.400091 4:25.525 5:26.2516 6:28.7322 7:59.3105 8:1 
0.02368450339425021 1:2.37774 2:2.47539 3:2.45426 4:22.8306 5:23.4971 6:25.7789 7:186.118 
0.00650263786689953 1:1.27223 2:1.26801 3:1.35509 4:19.6229 5:20.1964 6:21.6418 7:55.0617 8:1 
0.01251473014556117 1:0.754825 2:0.736956 3:0.998928 4:24.5605 5:25.2678 6:27.7875 7:82.2799 8:1 
0.0231591700651223 1:3.03811 2:3.12327 3:3.33868 4:26.5663 5:27.4434 6:29.7849 7:110.817 8:1 
0.02277886183635702 1:1.35597 2:1.43164 3:1.42613 4:24.5264 5:25.2471 6:27.6391 7:119.855 8:1 
0.01846735307063951 1:1.92021 2:1.98139 3:1.94453 4:24.7922 5:25.6321 6:27.8232 7:86.9754 
0.01496941911087853 1:2.46699 2:2.60211 3:2.86361 4:28.1604 5:29.0508 6:31.7865 7:116.316 8:1 
0.02338223865243022 1:182.341 2:189.006 3:224.633 4:464.217 5:480.214 6:566.363 7:198718 
0.02328987780749558 1:3.16253 2:3.24125 3:3.68748 4:30.0991 5:31.018 6:34.1803 7:85.8102 8:1 
0.0233739410313421 1:2.62617 2:2.71462 3:2.94856 4:34.8806 5:35.9598 6:39.562 7:18.6754 8:1 
0.02338224820792062 1:327.452 2:338.341 3:398.211 4:282.933 5:292.29 6:340.251 7:160743 
0.01860133954024362 1:1.73529 2:1.83491 3:2.09442 4:33.641 5:34.707 6:38.109 7:26.7268 8:1 
0.01153288820089826 1:0.417524 2:0.433678 3:0.447893 4:33.7357 5:34.7336 6:38.1662 7:12.3997 8:1 
0.02338214977504094 1:2.65459 2:2.69717 3:2.60087 4:17.9896 5:18.5909 6:19.8518 7:201.396 
0.01104897870480808 1:0.629748 2:0.657671 3:0.841181 4:32.2432 5:33.1803 6:36.4493 7:16.1531 8:1 
0.01842975555167072 1:1.5393 2:1.69332 3:2.04659 4:32.3283 5:33.4672 6:36.5032 7:59.1411 
0.01214679529560142 1:1.6691 2:1.68117 3:1.76002 4:30.9815 5:31.9218 6:34.8607 7:18.5197 8:1 
0.02132900343103039 1:1.71053 2:1.76892 3:1.92116 4:28.1992 5:29.0264 6:31.6813 7:35.7875 8:1 
0.006355636206970597 1:1.02298 2:1.03147 3:1.08824 4:25.7068 5:26.5015 6:28.9687 7:22.1891 8:1 
0.005874311288968806 1:1.87447 2:1.89322 3:2.0413 4:17.4232 5:17.8757 6:18.97 7:45.9459 8:1 
0.006507696797911531 1:0.972767 2:1.0018 3:1.2848 4:30.7664 5:31.5364 6:34.6372 7:8.10976 
0.006136033502793204 1:0.688456 2:0.681076 3:0.785738 4:19.9916 5:20.5519 6:21.941 7:80.961 8:1 
0.01820647878808047 1:1.47353 2:1.55879 3:1.76105 4:23.2484 5:23.9087 6:25.783 7:94.1769 8:1 
0.01304479515635178 1:0.332838 2:0.418979 3:0.533342 4:29.9274 5:30.6739 6:33.5288 7:12.4028 
0.009788313006568745 1:0.185859 2:0.235727 3:0.302713 4:30.2264 5:31.0076 6:33.9036 7:2.1821 
0.01837420719045684 1:1.85238 2:1.94867 3:1.94532 4:22.7781 5:23.4074 6:25.2304 7:90.643 8:1 
0.0005968828010764482 1:0.538757 2:0.513393 3:0.523081 4:28.9113 5:29.6489 6:32.4577 7:13.4856 
0.01293832516604608 1:2.105 2:2.10672 3:2.47868 4:24.9754 5:25.6418 6:27.8602 7:82.5074 8:1 
0.02104869377520202 1:1.76185 2:1.82104 3:1.98795 4:25.7464 5:26.3726 6:28.722 7:91.1702 8:1 
0.01585523690071063 1:2.16652 2:2.21654 3:2.4394 4:26.2579 5:26.9433 6:29.5348 7:11.6601 
0.01220870690800937 1:0.132746 2:0.111685 3:0.0466042 4:24.9226 5:25.6072 6:27.9835 7:15.5042 
0.007380009137173035 1:0.570279 2:0.556686 3:0.631718 4:23.72 5:24.3628 6:26.7048 7:7.39845 
0.005085179541299808 1:1.89966 2:1.98287 3:2.26842 4:22.1247 5:22.6404 6:24.5957 7:106.956 8:1 
0.01027248028033192 1:0.930099 2:0.976531 3:1.16096 4:22.7136 5:23.3177 6:25.4643 7:3.75801 
0.01495925321928856 1:0.0938663 2:0.0990772 3:0.0219336 4:20.3438 5:20.8715 6:22.7682 7:82.7502 8:1 
0.003972120351391538 1:0.937849 2:0.992529 3:1.01314 4:21.3347 5:21.912 6:23.8769 7:8.53822 
0.02017702759600093 1:0.80594 2:0.834296 3:0.865372 4:18.507 5:18.9242 6:20.632 7:78.3519 8:1 
0.02118146104200874 1:5.54666 2:5.70899 3:6.4301 4:19.1857 5:19.6829 6:21.402 7:125.129 8:1 
0.02188288709975017 1:3.66848 2:3.77332 3:4.15899 4:26.6583 5:27.426 6:30.0439 7:79.7985 8:1 
0.02319798858966433 1:2.72254 2:2.8354 3:3.21401 4:23.6893 5:24.3155 6:26.2799 7:147.467 8:1 
0.02315321396785047 1:1.19378 2:1.20981 3:1.30124 4:25.8792 5:26.6113 6:29.0916 7:97.7013 8:1 
0.01907170224083918 1:3.47749 2:3.54591 3:3.99787 4:26.539 5:27.2266 6:29.4674 7:117.017 8:1 
0.008467320920800046 1:0.80844 2:0.823586 3:0.818035 4:25.2024 5:25.9328 6:28.3404 7:84.1336 8:1 
0.01952470444048071 1:1.80759 2:1.92234 3:2.04653 4:34.9346 5:36.1061 6:39.3223 7:29.423 8:1 
0.00346185052792259 1:0.0344439 2:0.0556107 3:0.229765 4:30.6383 5:31.442 6:34.3901 7:4.73371 8:1 
0.007925972545283877 1:2.16707 2:2.23085 3:2.47569 4:27.5525 5:28.3522 6:30.9694 7:117.307 8:1 
0.02330030834844643 1:0.670749 2:0.639003 3:0.732788 4:29.3333 5:30.1965 6:33.0358 7:98.1979 8:1 
0.00796648068386685 1:0.182003 2:0.176809 3:0.187386 4:28.9769 5:29.6977 6:32.5124 7:8.91442 8:1 
0.02343732341955007 1:1.25097 2:1.31791 3:1.39422 4:31.7336 5:32.6266 6:35.6441 7:67.6149 8:1 
0.009865941453415064 1:0.878286 2:0.916555 3:0.854113 4:33.3274 5:34.2484 6:37.5319 7:10.5943 8:1 
0.01620870315824402 1:0.120562 2:0.118759 3:0.191463 4:33.427 5:34.3389 6:37.7251 7:4.78993 8:1 
0.02195035194872373 1:1.65742 2:1.75806 3:1.77798 4:35.1898 5:36.3629 6:39.6617 7:9.46208 
0.007749360599695701 1:0.04457 2:0.0700054 3:0.0165634 4:31.7669 5:32.5531 6:35.796 7:6.9761 8:1 
0.002539455838594606 1:1.92221 2:1.99085 3:2.20144 4:24.261 5:24.9915 6:27.3018 7:12.2055 
0.0194982133719163 1:0.677489 2:0.716312 3:0.702573 4:25.9988 5:26.8293 6:29.1685 7:34.821 
0.01568536479178262 1:1.98693 2:2.01541 3:2.45575 4:21.975 5:22.6145 6:24.4991 7:61.4893 
0.02358423132348203 1:0.173621 2:0.174167 3:0.17808 4:24.779 5:25.5397 6:27.948 7:132.126 8:1 
0.005476641998566133 1:1.39078 2:1.46829 3:1.49156 4:25.0168 5:25.7843 6:27.9652 7:5.48726 
0.0006172775908818706 1:1.57812 2:1.70177 3:1.72471 4:24.7395 5:25.5008 6:27.6047 7:5.88339 
0.02341675044488034 1:14.1741 2:14.8874 3:17.3363 4:32.5067 5:33.161 6:37.6437 7:638.463 
0.004558022273391846 1:0.339969 2:0.336057 3:0.357356 4:21.6854 5:22.3505 6:24.2362 7:9.85759 
0.007416941678061537 1:0.122206 2:0.0769157 3:0.285416 4:21.1889 5:21.8408 6:23.6002 7:9.38919 
0.01172720708083409 1:1.10969 2:1.14401 3:1.19696 4:18.7373 5:19.2692 6:21.1155 7:11.2723 
0.01705303379918124 1:2.2427 2:2.2981 3:2.29664 4:20.0468 5:20.6359 6:22.3733 7:6.20182 
0.001925317658745651 1:1.12571 2:1.18851 3:1.39637 4:19.1853 5:19.7265 6:21.6832 7:3.39488 
0.02343416352246308 1:0.581882 2:0.635332 3:0.733849 4:21.7093 5:22.3987 6:24.1832 7:3229.16 
0.02323172003871476 1:1.93184 2:2.0047 3:2.01193 4:19.0868 5:19.6492 6:21.0188 7:67.2191 
0.002186243255104509 1:1.66171 2:1.72003 3:1.75294 4:19.3751 5:19.9478 6:21.948 7:4.56584 
0.01193427064160372 1:0.240324 2:0.203205 3:0.241646 4:19.7527 5:20.2976 6:22.2806 7:6.14249 
0.01682757734921814 1:0.0956469 2:0.131426 3:0.143574 4:16.7233 5:17.1849 6:18.8961 7:21.7096 8:1 
0.008506856933779783 1:2.01449 2:2.0405 3:2.02877 4:8.14564 5:8.31177 6:8.41573 7:20.1155 
0.01427799955745403 1:0.179104 2:0.170507 3:0.16732 4:20.0264 5:20.5768 6:22.546 7:23.8656 
0.02192559130719229 1:0.663834 2:0.630842 3:0.688671 4:11.9838 5:12.3404 6:13.0287 7:40.8262 
0.01486821884291128 1:0.341826 2:0.372569 3:0.376708 4:19.1379 5:19.6856 6:21.618 7:2.01504 
0.01830054208325519 1:0.934731 2:0.983351 3:0.93409 4:31.3529 5:32.1586 6:34.7997 7:60.3485 8:1 
0.02320410738320078 1:0.139452 2:0.137512 3:0.0551968 4:31.7697 5:32.5717 6:35.2087 7:37.2385 8:1 
0.009916564461089249 1:1.17892 2:1.27424 3:1.36745 4:32.9744 5:33.8099 6:36.5675 7:15.0385 8:1 
0.01012446953237611 1:0.130251 2:0.145283 3:0.282438 4:32.1745 5:32.9759 6:35.6708 7:12.1643 8:1 
0.004254015260233168 1:0.332978 2:0.300181 3:0.300423 4:30.9927 5:31.7845 6:34.432 7:11.0191 8:1 
0.004769044521377157 1:0.403824 2:0.392738 3:0.347916 4:30.0192 5:30.8228 6:33.4566 7:7.11662 8:1 
0.004975694279436785 1:0.192282 2:0.152317 3:0.156397 4:29.6473 5:30.463 6:33.0007 7:2.46927 8:1 
1 
0.006515398936834179 1:0.0523539 2:0.0348434 3:0.0284939 4:26.2776 5:26.9689 6:29.1681 7:4.06072 8:1 
0.00743313129155178 1:0.401074 2:0.435269 3:0.361278 4:26.5274 5:27.2432 6:29.472 7:2.2744 8:1 
0.0008046122962350188 1:0.114751 2:0.121387 3:0.0284834 4:27.1897 5:27.8644 6:30.4389 7:4.14026 8:1 
0.007702315091739416 1:0.508255 2:0.549438 3:0.45729 4:27.2133 5:27.8802 6:30.4197 7:7.55606 8:1 
0.009796713236605747 1:0.850757 2:0.863524 3:0.968195 4:28.5785 5:29.3112 6:32.0173 7:4.20276 8:1 
0.005322976266501247 1:1.52968 2:1.6442 3:1.8173 4:25.5889 5:26.2088 6:28.4679 7:6.01063 8:1 
0.003144747655678772 1:0.339428 2:0.37136 3:0.484851 4:25.5691 5:26.2242 6:28.6985 7:4.95206 8:1 
0.001089584628851947 1:0.630998 2:0.656831 3:0.702308 4:21.7377 5:22.2615 6:24.1429 7:24.8076 8:1 
0.02313350835481681 1:4.85101 2:5.00893 3:5.41097 4:17.0253 5:17.4393 6:18.8472 7:68.9535 
0.008512846393655904 1:0.806939 2:0.801615 3:0.902131 4:28.3748 5:29.2184 6:31.4378 7:8.48909 
0.02379169699614133 1:3.86774 2:3.99479 3:4.40803 4:9.77864 5:10.004 6:10.817 7:151.964 8:1 
0.0127547809749633 1:0.0131111 2:0.00769997 3:0.11076 4:27.3268 5:28.1029 6:30.1236 7:11.9251 
0.02343849189218578 1:3.89028 2:4.03637 3:4.38023 4:16.4469 5:16.9652 6:18.436 7:254.456 
0.01418215200283268 1:0.178267 2:0.114872 3:0.0482178 4:23.6696 5:24.3427 6:26.0706 7:29.5144 
0.002871063028634113 1:1.35554 2:1.3868 3:1.5612 4:22.7653 5:23.4455 6:25.221 7:32.0143 
0.001255022399182559 1:0.752308 2:0.816044 3:0.829231 4:29.4382 5:30.349 6:32.9455 7:4.65222 
0.02207089250119104 1:0.596638 2:0.650834 3:0.768738 4:19.9322 5:20.5332 6:22.1497 7:59.9637 8:1 
0.001920905252349786 1:1.08484 2:1.1158 3:1.17071 4:15.554 5:16.0688 6:17.4795 7:17.0351 
0.005884425272442495 1:0.954729 2:1.00539 3:1.01814 4:30.3007 5:31.2543 6:33.8656 7:3.28903 
0.005321935410141925 1:0.475117 2:0.509318 3:0.531528 4:21.6635 5:22.2922 6:24.0469 7:15.6354 
0.00727028245580367 1:0.317175 2:0.378412 3:0.609152 4:21.9492 5:22.601 6:24.7701 7:6.29146 8:1 
0.008738638037676367 1:0.127244 2:0.12544 3:0.0537014 4:23.2271 5:23.9312 6:26.1886 7:10.6574 8:1 
0.005771006636478053 1:0.513829 2:0.537692 3:0.635145 4:26.3501 5:27.1457 6:29.581 7:9.82061 8:1 
0.006905532482588548 1:0.130706 2:0.136709 3:0.276488 4:24.8306 5:25.4877 6:27.7416 7:11.4842 
0.009650470290190973 1:0.532585 2:0.567832 3:0.676761 4:20.2604 5:20.8096 6:22.5716 7:51.5612 
0.008591968263644055 1:0.257252 2:0.259368 3:0.271599 4:13.4722 5:13.9034 6:15.1201 7:12.8351 8:1 
0.02340201695530819 1:1.67738 2:1.80736 3:1.91128 4:22.0588 5:22.6932 6:24.3373 7:203.448 
0.004922293838831499 1:0.314859 2:0.320334 3:0.357065 4:2.6775 5:2.75506 6:2.98849 7:14.0275 
0.004037009236697772 1:0.943115 2:0.989766 3:0.96331 4:19.7513 5:20.3383 6:22.2376 7:2.68052 8:1 
0.01466656469699096 1:3.02279 2:3.05989 3:3.26662 4:17.3347 5:17.8472 6:19.3036 7:111.449 
0.008819178552751619 1:0.233961 2:0.250528 3:0.282279 4:21.6059 5:22.2631 6:24.2702 7:3.45164 
0.004397137074763446 1:0.278249 2:0.304801 3:0.352966 4:20.5271 5:21.0826 6:23.0393 7:2.5535 
0.005571396071177792 1:2.02672 2:2.08776 3:2.27817 4:11.9172 5:12.2836 6:13.3981 7:18.9426 
0.02330130803570311 1:0.710019 2:0.724241 3:0.681464 4:10.3858 5:10.6385 6:11.036 7:185.411 
0.02359008616020725 1:0.88415 2:0.94135 3:0.994116 4:4.22658 5:4.34302 6:4.79163 7:13724 
0.0236132538288607 1:0.315147 2:0.324914 3:0.335026 4:11.8844 5:12.2392 6:13.3107 7:17083.3 8:1 
0.0235329857571035 1:22.2489 2:23.0743 3:28.1278 4:39.0916 5:40.4761 6:47.7447 7:8049.06 
0.01682273438590596 1:0.281038 2:0.337656 3:0.388685 4:27.6421 5:28.4207 6:30.668 7:0.651569 8:1 
0.008107874298227425 1:1.40709 2:1.4351 3:1.63501 4:26.9368 5:27.6507 6:29.7356 7:5.21614 8:1 
0.0223115506879184 1:1.46402 2:1.52508 3:1.87261 4:7.27663 5:7.51814 6:8.21935 7:80.3095 
0.004703105976380448 1:0.0037632 2:0.000230789 3:0.0224476 4:24.7433 5:25.3715 6:27.0962 7:11.6811 8:1 
0.01076236836689365 1:0.16259 2:0.137783 3:0.131199 4:22.8717 5:23.4802 6:25.0342 7:19.3443 8:1 
0.0233928958751895 1:1.07211 2:1.18448 3:1.74425 4:8.97566 5:9.20798 6:10.0703 7:216.221 
0.01940448364386415 1:3.11539 2:3.21166 3:3.53887 4:3.93144 5:4.00605 6:4.35115 7:63.5482 8:1 
0.0234990043740117 1:1.75984 2:1.69081 3:2.36619 4:196.33 5:203.142 6:237.857 7:55931.1 
0.02362499228554432 1:164.811 2:170.605 3:199.731 4:92.7676 5:95.8983 6:111.436 7:51022.3 
1 1:0.0158806 2:0.0143705 3:0.02441 4:0.268341 5:0.244695 6:0.227815 7:0.0163578 8:1 
0.02144622709260348 1:0.120832 2:0.133763 3:0.14716 4:16.7964 5:17.1615 6:18.1863 7:48.3781 
0.02362850467488248 1:2.32233 2:2.40516 3:2.47285 4:8.2324 5:8.41399 6:9.0015 7:61578.4 
0.02348486961239704 1:112.579 2:116.764 3:135.238 4:336.583 5:348.631 6:406.689 7:88306.2 
0.02342400941257416 1:5.04858 2:5.17489 3:6.19541 4:7.2475 5:7.39496 6:7.88095 7:87.832 
0.009318910662353538 1:0.796901 2:0.797929 3:0.850101 4:5.79003 5:5.90539 6:5.78027 7:17.67 
0.01893923064189448 1:0.651023 2:0.646972 3:0.72043 4:8.77507 5:8.96621 6:9.31705 7:37.1799 
0.0235017724310137 1:7.48218 2:7.64691 3:8.04726 4:19.0841 5:19.5465 6:20.6587 7:389.484 
0.003615737205552228 1:0.262858 2:0.273385 3:0.176204 4:2.40924 5:2.48563 6:2.65086 7:17.1568 
0.02360189375184174 1:0.46928 2:0.491141 3:0.433718 4:11.6168 5:11.8629 6:12.571 7:307.061 
0.01514819432653943 1:3.14219 2:3.18924 3:3.41708 4:2.31944 5:2.36904 6:2.54299 7:21.3427 
0.01368560344071118 1:0.569364 2:0.588264 3:0.544628 4:13.0336 5:13.3961 6:14.3189 7:28.3387 
1 
0.01399870209194996 1:0.516398 2:0.545205 3:0.497108 4:13.871 5:14.2339 6:15.2933 7:22.4847 
0.007522611801712805 1:0.406277 2:0.429339 3:0.568559 4:15.7699 5:16.1966 6:17.4282 7:4.6034 8:1 
0.01658065207252156 1:1.87275 2:1.91835 3:1.65907 4:20.905 5:21.4602 6:22.8525 7:78.08 
0.02305421950680159 1:6.51167 2:6.66694 3:7.28458 4:19.9236 5:20.4629 6:21.9004 7:90.1057 
0.0121317775611885 7:18.2314 
0.02129715294694101 1:1.90592 2:1.94892 3:2.11305 4:6.81935 5:7.00002 6:7.56961 7:61.2723 
0.003598904871497899 1:0.94135 2:0.984494 3:0.99445 4:15.3462 5:15.7767 6:17.05 7:3.04171 8:1 
0.02348852636522358 1:25.7166 2:26.6801 3:30.8791 4:21.0512 5:21.702 6:24.241 7:2474.12 
0.02210856213684248 1:0.775694 2:0.851073 3:1.05062 4:15.6109 5:15.9936 6:17.6664 7:79.2827 8:1 
0.2631300512714977 1:1.05178 2:1.07252 3:1.15735 4:0.525888 5:0.53626 6:0.578673 7:4.31363 
0.02391015585303863 1:28.8243 2:29.8339 3:33.5196 4:24.8281 5:25.6316 6:28.7132 7:17661 
1 
1 1:6.33518e-39 2:6.56004e-39 3:7.26713e-39 4:3.16759e-39 5:3.28002e-39 6:3.63357e-39 
0.02403518649879305 1:0.186913 2:0.18042 3:0.189315 4:1.13388 5:1.1127 6:1.18288 7:16517.9 
0.02356958141017301 1:0.846195 2:0.775361 3:0.588545 4:25.2956 5:26.0555 6:28.5063 7:111324 
0.02360914444719509 1:104.391 2:106.824 3:128.271 4:591.898 5:611.587 6:712.582 7:90327.7 
0.02316508464355477 1:28.5591 2:29.569 3:31.0402 4:176.53 5:181.975 6:205.99 7:66375.3 
0.02319999364404868 1:20.5009 2:21.0582 3:24.9763 4:587.295 5:606.952 6:708.919 7:128089 
0.005284161241322686 1:0.841887 2:0.866265 3:0.90007 4:12.8393 5:13.1706 6:14.3453 7:2.46015 8:1 
0.02329660479437523 1:18.0532 2:18.8157 3:21.3864 4:31.8157 5:32.5665 6:34.6643 7:673.146 
1 7:0.17097 
0.02339770781453754 1:14.9576 2:15.4316 3:17.9711 4:7.4788 5:7.71579 6:8.98556 7:1010.87 
0.007514705205969212 1:1.56158 2:1.62073 3:1.64088 4:6.5718 5:6.63877 6:7.39527 7:2.80084 8:1 
0.02359941654421777 1:6.26616 2:6.43885 3:7.28175 4:157.545 5:162.908 6:188.752 7:73914.1 
0.001992323779557956 1:0.0887015 2:0.0824289 3:0.0734756 4:7.28124 5:7.3447 6:8.1297 7:4.39801 8:1 
0.0236132538288607 1:11.5363 2:11.8506 3:12.5409 4:21.981 5:22.6395 6:25.3625 7:663.926 
0.02360955525698022 1:0.172895 2:0.191618 3:0.220059 4:8.30763 5:8.41879 6:9.24878 7:1621.37 
0.02320321510932834 1:0.000856876 2:0.0105987 3:0.0264096 4:9.70529 5:9.86623 6:10.6795 7:134.062 
0.007994213635661574 1:0.0233455 2:0.0252981 3:0.0146055 4:13.1769 5:13.4939 6:14.4117 7:2.36199 8:1 
0.01891234257814806 1:0.403865 2:0.426527 3:0.448586 4:12.5085 5:12.8032 6:13.6313 7:32.7139 8:1 
0.02362617085387858 1:72.6427 2:75.3887 3:88.5484 4:43.2742 5:44.8146 6:51.9512 7:4477.83 
0.02353283319305294 1:135.065 2:139.373 3:161.719 4:353.732 5:364.656 6:426.761 7:200668 
0.02354008077450598 1:89.5084 2:92.4148 3:109.256 4:301.411 5:310.752 6:363.264 7:107277 
0.02347797669504564 1:6.22809 2:6.3606 3:6.76849 4:4.85477 5:4.9282 6:5.18781 7:70.5909 
0.02356187367581941 1:50.9946 2:52.209 3:63.3026 4:396.898 5:410.291 6:477.033 7:82023.7 
0.02286407302322196 1:3.91468 2:4.09384 3:4.68598 4:8.07309 5:8.23051 6:8.82342 7:77.8248 
0.02358108685258098 1:87.6597 2:90.6652 3:104.038 4:236.848 5:244.893 6:281.056 7:62308.7 
0.01979644809897071 1:2.85556 2:2.97329 3:2.76542 4:3.57822 5:3.65213 6:3.58025 7:60.3281 
0.02333839990370773 1:21.0886 2:21.8378 3:24.775 4:127.359 5:131.552 6:149.938 7:41605.5 
0.02341282739828532 1:0.303395 2:0.426063 3:2.03817 4:19.3417 5:19.7903 6:20.1827 7:472.604 
0.01084147515327131 7:19.9047 
0.0190215036967551 1:1.83316 2:1.85478 3:1.86372 4:12.7977 5:13.1221 6:14.456 7:155.77 
0.006824205903782399 1:1.49669 2:1.52227 3:1.6737 4:10.6487 5:10.8997 6:11.985 7:5.04754 
0.002002308612726982 1:0.82288 2:0.839511 3:0.94365 4:3.84071 5:3.89074 6:4.37403 7:12.0516 
0.004216162104833924 1:0.379828 2:0.380027 3:0.423677 4:11.4118 5:11.6793 6:12.8597 7:1.66111 8:1 
0.02403116257427323 1:73.2663 2:75.7213 3:89.8942 4:155.886 5:161.167 6:189.628 7:69099.3 
0.02350430986570423 1:11.2903 2:11.6511 3:14.0503 4:381.497 5:394.341 6:463.61 7:237832 
0.008955605980034389 1:0.21505 2:0.256613 3:0.392976 4:11.0529 5:11.2645 6:12.2547 7:14.8574 
0.003495874752095229 1:2.77713 2:2.83485 3:3.12438 4:2.86029 5:2.91964 6:3.19193 7:26.2712 
0.0008359812386101173 1:1.06438 2:1.07639 3:1.07344 4:8.20267 5:8.28562 6:9.17021 7:7.54931 8:1 
0.02311924068010004 1:2.11143 2:2.16369 3:2.58547 4:7.14643 5:7.31007 6:7.76931 7:179.595 
0.008380404199046882 1:1.2887 2:1.35314 3:1.40645 4:11.1444 5:11.3011 6:12.3608 7:1.99228 8:1 
0.01286216917966185 1:0.424267 2:0.456433 3:0.378815 4:13.636 5:13.8483 6:15.0837 7:16.3159 8:1 
0.01557432916954171 1:0.285325 2:0.301223 3:0.333756 4:14.7905 5:15.1657 6:16.2522 7:0.888312 8:1 
0.02359015046979862 1:134.67 2:139.281 3:164.41 4:69.4933 5:71.7506 6:84.5404 7:72549.2 
0.01106340509766137 1:0.423246 2:0.440025 3:0.472129 4:9.75147 5:9.9509 6:11.0134 7:20.9561 8:1 
0.004082420291767142 1:2.33954 2:2.38426 3:2.48353 4:4.71595 5:4.81946 6:4.91717 7:19.2471 
0.003368238898026961 1:0.279634 2:0.292158 3:0.298877 4:4.91533 5:4.97869 6:5.62385 7:10.8971 
0.02356678989704186 1:109.538 2:113.505 3:133.996 4:312.98 5:323.718 6:383.381 7:150055 
0.004653882936877685 1:0.0741673 2:0.0700119 3:0.0931754 4:5.58645 5:5.65767 6:6.39599 7:5.39837 
0.02353511906890621 1:17.2337 2:17.8966 3:20.0586 4:23.7306 5:24.4679 6:26.0534 7:450.863 
0.02373394492056646 1:29.0305 2:29.9737 3:35.6258 4:130.749 5:135.151 6:157.465 7:63382.7 
0.005727019593752191 1:0.0979233 2:0.0990887 3:0.0805759 4:12.8993 5:13.0481 6:14.3737 7:9.04393 8:1 
0.02356098232234988 1:73.8882 2:76.4496 3:89.5953 4:41.8673 5:43.2322 6:50.2828 7:19434.5 
0.009897545570238669 1:2.76853 2:2.87071 3:2.94904 4:13.3849 5:13.5553 6:14.8887 7:8.2365 8:1 
0.01880644203150073 1:0.710631 2:0.721175 3:0.816852 4:1.39937 5:1.41229 6:1.59054 7:27.1187 
0.0226702670627672 1:4.81165 2:4.92967 3:5.30628 4:16.819 5:17.2035 6:18.2193 7:129.696 
0.006214368780963164 1:1.96322 2:2.01258 3:2.15477 4:14.0606 5:14.163 6:15.3491 7:20.4127 8:1 
0.02361718570412136 1:5.38399 2:5.70415 3:6.74419 4:35.1061 5:36.1933 6:41.9564 7:1616.46 
0.004024452947819142 1:0.312628 2:0.32562 3:0.232059 4:13.6843 5:13.7557 6:14.945 7:11.4721 8:1 
0.02368914697824441 1:1.87373 2:1.91516 3:2.19849 4:5.20632 5:5.3371 6:5.72889 7:51.0975 
1 1:3.93366e-34 2:4.06193e-34 3:4.97419e-34 4:1.96683e-34 5:2.03097e-34 6:2.4871e-34 8:1 
0.02394708651781535 1:0.00201589 2:0.00208461 3:0.00245075 4:0.00100794 5:0.0010423 6:0.00122538 7:1375.52 
0.02394214710398918 1:13.72 2:14.2139 3:16.5285 4:7.23084 5:7.47329 6:8.75508 7:794.793 
0.02392341140903209 1:2.7957 2:2.92046 3:3.74678 4:25.906 5:26.7045 6:30.7323 7:2464.6 
0.02374426733284213 1:131.416 2:136.097 3:159.549 4:112.391 5:116.073 6:135.161 7:43101.4 
0.02311960104133448 1:3.33993 2:3.44904 3:3.33487 4:3.94245 5:4.03346 6:4.2952 7:33.774 
0.02348788479817815 1:0.282849 2:0.292462 3:0.349282 4:0.303055 5:0.30628 6:0.376673 7:72614.5 
0.003907032533390483 1:0.151519 2:0.152555 3:0.0896239 4:11.7631 5:11.8478 6:13.2119 7:6.18562 8:1 
0.0120373533524243 1:2.45299 2:2.52488 3:2.62066 4:1.46644 5:1.50027 6:1.60819 7:25.2715 
0.01254898328566774 1:2.93713 2:3.01815 3:3.13489 4:15.156 5:15.2578 6:16.5417 7:13.4084 8:1 
0.006136593010369567 1:0.630828 2:0.646314 3:0.711657 4:14.6623 5:14.7612 6:16.0025 7:20.1905 8:1 
0.01468074070263659 1:2.71632 2:2.80801 3:2.77979 4:9.66755 5:9.73489 6:10.8686 7:8.70188 8:1 
0.005978813508030229 1:0.285629 2:0.282522 3:0.305131 4:15.8991 5:16.0053 6:17.414 7:12.9011 8:1 
0.007179145525502268 1:0.0127239 2:0.00928974 3:0.0558186 4:9.78267 5:9.84056 6:10.9948 7:8.91 8:1 
0.01193529979156439 1:2.28948 2:2.38139 3:2.5641 4:15.5353 5:15.6275 6:17.1158 7:18.8731 8:1 
0.009340013838130786 1:0.29247 2:0.289517 3:0.355385 4:9.54463 5:9.60839 6:10.8412 7:12.2171 
0.01576304262911006 1:0.475807 2:0.49667 3:0.493457 4:16.2034 5:16.3073 6:17.8675 7:8.64905 
0.005742144116189469 1:0.0207338 2:0.0137386 3:0.0151324 4:5.89061 5:5.9393 6:6.74122 7:6.53071 8:1 
0.005112619405394092 1:1.52239 2:1.59232 3:1.67903 4:9.39152 5:9.51543 6:10.5005 7:2.2901 8:1 
0.01365259164827945 1:1.84056 2:1.91863 3:2.06047 4:4.79352 5:4.91273 6:5.49529 7:3.849 8:1 
0.009879854512406042 1:1.99755 2:2.0766 3:2.13118 4:12.6283 5:12.6913 6:14.3401 7:5.50166 8:1 
0.01030690551836749 1:0.0687847 2:0.0558679 3:0.00332165 4:7.59546 5:7.76932 6:8.67711 7:8.75257 8:1 
0.01045268331200561 1:3.0765 2:3.17447 3:3.27629 4:13.5775 5:13.6019 6:15.1423 7:15.5518 8:1 
0.008093375177944451 1:0.375373 2:0.378103 3:0.435926 4:16.1406 5:16.2224 6:17.7727 7:18.0784 8:1 
0.0008088552226450114 1:0.889251 2:0.902411 3:0.92689 4:16.5794 5:16.6933 6:18.3255 7:16.3603 8:1 
0.005020403797111603 1:2.08617 2:2.13256 3:2.24094 4:15.8548 5:15.9319 6:17.6034 7:13.4154 8:1 
0.01596969104410267 1:2.61418 2:2.67395 3:2.67728 4:17.3872 5:17.5199 6:19.2455 7:20.6811 8:1 
0.009448821296152599 1:0.291662 2:0.313321 3:0.298608 4:19.9024 5:20.0769 6:21.9131 7:11.1008 8:1 
0.009123765394259221 1:0.00324821 2:0.0172787 3:0.0464287 4:9.92641 5:10.0647 6:11.2082 7:0.817549 8:1 
0.01263642485299155 1:0.258712 2:0.317088 3:0.393738 4:18.6476 5:18.811 6:20.572 7:18.246 8:1 
6.103248502864456e-05 1:0.822462 2:0.853504 3:0.83831 4:4.3031 5:4.34736 6:4.80042 7:8.85764 8:1 
0.005392863765582179 1:0.0271466 2:0.0231781 3:0.0439885 4:6.58389 5:6.74211 6:7.53537 7:10.665 8:1 
0.000967978332130701 1:0.0693321 2:0.0754313 3:0.119649 4:4.71495 5:4.82747 6:5.42818 7:11.57 8:1 
0.00619922067107284 1:2.381 2:2.4337 3:2.38245 4:11.2624 5:11.5223 6:12.9596 7:7.80432 8:1 
0.008126079600013283 1:1.62936 2:1.67082 3:1.67784 4:11.6976 5:11.9642 6:13.3791 7:11.7099 8:1 
0.009076566957265376 1:1.8354 2:1.83906 3:1.85477 4:20.1751 5:20.3522 6:22.3111 7:12.6613 8:1 
0.01209164912945554 1:2.08784 2:2.07623 3:2.03064 4:20.2787 5:20.4674 6:22.3405 7:24.1623 8:1 
0.01095589875963327 1:0.0235494 2:0.0215879 3:0.0495182 4:1.44016 5:1.45125 6:1.78351 7:21.5717 8:1 
0.007879435125826562 1:1.29311 2:1.32653 3:1.30951 4:18.1943 5:18.364 6:20.1123 7:21.9272 8:1 
0.02309201589587218 1:5.59326 2:5.71685 3:5.85531 4:17.4344 5:17.5993 6:19.2392 7:44.3687 8:1 
0.01506995149738184 1:0.874287 2:0.855247 3:0.758153 4:14.9285 5:15.0338 6:16.6073 7:28.0524 8:1 
0.002077727884117317 1:1.46806 2:1.49222 3:1.62962 4:3.24559 5:3.30883 6:3.66041 7:16.7574 8:1 
0.01822974169212449 1:0.347816 2:0.367348 3:0.262018 4:13.2711 5:13.3592 6:14.5795 7:36.2859 8:1 
0.01482773167874008 1:3.15543 2:3.20574 3:3.51684 4:11.7473 5:11.8536 6:13.1281 7:15.8907 8:1 
0.01339393337544716 1:2.42151 2:2.45302 3:2.63537 4:7.50368 5:7.62973 6:8.61557 7:19.8705 8:1 
0.01884661762134949 1:3.11498 2:3.16138 3:3.14565 4:12.5242 5:12.6958 6:14.1196 7:23.7995 8:1 
0.005276502668277246 1:0.0346489 2:0.0318413 3:0.0526557 4:10.8862 5:11.1346 6:12.5344 7:4.57568 8:1 
0.004337985981199383 1:1.05778 2:1.0166 3:0.876677 4:23.4293 5:23.6911 6:26.4966 7:18.9403 8:1 
0.008229116155076169 1:0.0940528 2:0.0898402 3:0.119735 4:4.48708 5:4.50649 6:5.28058 7:8.77832 8:1 
0.009982710160388097 1:0.934693 2:0.956011 3:1.13884 4:9.92366 5:10.0515 6:11.5207 7:35.8748 8:1 
0.004268391518028214 1:0.117406 2:0.138711 3:0.243042 4:11.8581 5:12.0292 6:13.7758 7:20.8312 8:1 
0.004029346254457984 1:2.85461 2:2.91833 3:2.96858 4:14.0783 5:14.2971 6:15.9692 7:16.3873 8:1 
0.01280910796890549 1:0.0965819 2:0.0941291 3:0.0407066 4:12.3583 5:12.553 6:14.2559 7:25.8339 8:1 
0.002403160176447955 1:0.491751 2:0.474906 3:0.562252 4:10.2426 5:10.3929 6:11.983 7:27.4793 8:1 
0.007618800728809938 1:1.00369 2:1.06298 3:1.01986 4:18.3044 5:18.6107 6:20.4762 7:14.0657 8:1 
0.002131041375569732 1:2.12207 2:2.14684 3:2.19278 4:9.39629 5:9.51194 6:11.0301 7:10.9338 8:1 
0.01143455476909272 1:0.798682 2:0.790949 3:0.839563 4:10.9553 5:11.1288 6:12.692 7:23.5257 8:1 
0.009338791523351913 1:0.754547 2:0.750955 3:0.414213 4:19.9728 5:20.3186 6:22.5249 7:51.8755 8:1 
0.003910492957793782 1:1.38923 2:1.45039 3:1.4241 4:9.62695 5:9.77021 6:11.1614 7:20.7942 8:1 
0.01243591652385821 1:1.07199 2:1.08376 3:1.16824 4:20.1325 5:20.4558 6:22.4851 7:33.4167 8:1 
0.006183934223490506 1:2.95358 2:3.10563 3:3.77049 4:21.5807 5:21.7214 6:24.1385 7:30.4995 8:1 
0.01100671728759263 1:1.99883 2:2.0551 3:2.24781 4:9.00033 5:9.16479 6:10.4662 7:16.5691 8:1 
0.004791170376766216 1:1.55124 2:1.62881 3:1.63188 4:20.9009 5:21.2097 6:23.3829 7:30.7917 8:1 
0.01705728815266297 1:2.98419 2:3.12723 3:3.4117 4:22.5778 5:22.7813 6:25.2811 7:39.3253 8:1 
0.00459004529555865 1:2.01866 2:2.0426 3:2.29342 4:9.85814 5:10.0247 6:11.3716 7:13.978 8:1 
0.005679337457315449 1:0.533738 2:0.549755 3:0.474927 4:23.4621 5:23.6539 6:26.128 7:21.3062 8:1 
0.008196504267686089 1:0.7399 2:0.801823 3:0.60465 4:22.1475 5:22.4972 6:24.8803 7:12.5771 8:1 
0.0103540452220925 1:0.0603867 2:0.0349131 3:0.00632095 4:21.1221 5:21.4315 6:23.7408 7:16.0211 8:1 
0.01336974366784825 1:0.119271 2:0.0809231 3:0.133286 4:23.1595 5:23.3904 6:26.1049 7:25.6395 8:1 
0.01662163529772639 1:3.6461 2:3.69337 3:4.09802 4:20.5656 5:20.8716 6:23.2327 7:29.371 8:1 
0.01399125909508381 1:2.09657 2:2.14327 3:2.47779 4:24.2753 5:24.5384 6:27.4016 7:31.0425 8:1 
0.01711792834915266 1:0.537047 2:0.569184 3:0.597552 4:20.7517 5:21.05 6:23.5374 7:37.4939 8:1 
0.009744997581453158 1:2.07635 2:2.15771 3:2.57607 4:21.2104 5:21.383 6:24.3546 7:19.4639 8:1 
0.009904969245279208 1:2.87178 2:2.9762 3:3.10862 4:20.5692 5:20.6873 6:23.3954 7:16.1885 8:1 
0.007659276101258546 1:0.287537 2:0.297059 3:0.303597 4:7.67872 5:7.72092 6:8.98695 7:13.2458 8:1 
0.01111262236741591 1:1.68945 2:1.78528 3:2.3753 4:21.6455 5:21.8224 6:24.6315 7:34.3488 8:1 
0.007801833870400052 1:0.272177 2:0.294773 3:0.163358 4:21.2276 5:21.3899 6:24.271 7:22.3512 8:1 
0.00361301606143046 1:2.60806 2:2.66687 3:2.67014 4:12.2158 5:12.4254 6:13.5956 7:8.30836 8:1 
0.003072441181917015 1:1.4546 2:1.48237 3:1.54143 4:8.52828 5:8.60816 6:10.1186 7:2.57537 8:1 
0.0078215071949569 1:1.73288 2:1.76326 3:1.75938 4:8.98702 5:9.06657 6:10.6209 7:5.12972 8:1 
0.01204063199447286 1:1.98169 2:2.048 3:2.2153 4:18.3284 5:18.7691 6:20.7832 7:15.6671 8:1 
0.007901440763855183 1:0.59918 2:0.608245 3:0.638273 4:15.9572 5:16.3267 6:18.2223 7:11.9127 8:1 
0.0001235607115881945 1:0.409503 2:0.435311 3:0.442783 4:22.0923 5:22.6279 6:24.9675 7:17.2419 8:1 
0.02366007478123941 1:5.32706 2:5.4392 3:5.78002 4:25.0701 5:25.4935 6:28.3686 7:35.6828 8:1 
0.005305187059497186 1:0.685999 2:0.70195 3:0.64895 4:22.8225 5:23.354 6:25.7142 7:14.8149 8:1 
0.02150140966944773 1:2.73374 2:2.80685 3:3.01942 4:18.1473 5:18.5679 6:20.6387 7:27.0908 8:1 
0.01778055870520863 1:3.23719 2:3.32235 3:3.49509 4:22.9729 5:23.3598 6:26.0815 7:11.7451 8:1 
0.01344200737951333 1:3.63769 2:3.74576 3:3.93112 4:23.206 5:23.571 6:26.4256 7:22.5937 8:1 
0.009512171010154006 1:1.60128 2:1.68577 3:1.74707 4:21.0925 5:21.2724 6:24.1083 7:26.6778 8:1 
0.007390522040103587 1:0.690802 2:0.673636 3:0.695777 4:23.782 5:24.3304 6:26.7064 7:4.50915 8:1 
0.01772739748478275 1:4.51402 2:4.65629 3:4.81411 4:21.9062 5:22.0916 6:25.0906 7:17.6235 8:1 
0.0149164717626139 1:2.46831 2:2.55912 3:2.53219 4:23.4509 5:23.8287 6:26.805 7:7.44298 8:1 
0.005435911313715291 1:0.65975 2:0.659094 3:0.813208 4:23.8095 5:24.1981 6:26.9624 7:16.9635 8:1 
0.01063558650702334 1:0.555555 2:0.582402 3:0.692777 4:23.0378 5:23.2461 6:26.282 7:32.4435 8:1 
0.004854292068600641 1:1.16507 2:1.2071 3:1.53353 4:22.2072 5:22.4311 6:25.5276 7:22.049 8:1 
0.008236089150045419 1:0.633254 2:0.665534 3:0.553972 4:21.5254 5:21.7298 6:24.7698 7:30.1799 8:1 
0.009241998288931739 1:2.90547 2:3.00429 3:2.79822 4:24.0207 5:24.3196 6:27.6203 7:14.8885 8:1 
0.01033647666833054 1:3.43194 2:3.4488 3:3.55671 4:23.0941 5:23.3826 6:26.5374 7:29.7926 8:1 
0.008340080816830521 1:2.70292 2:2.71902 3:2.95722 4:23.8825 5:24.213 6:27.8291 7:24.467 8:1 
0.0194580262477311 1:1.30416 2:1.35345 3:2.06223 4:26.3825 5:26.7976 6:30.587 7:55.4407 8:1 
0.002851318628376843 1:0.398968 2:0.397551 3:0.383675 4:23.7807 5:24.2064 6:27.3183 7:13.7631 8:1 
0.005504667079941211 1:1.42422 2:1.50516 3:1.59696 4:24.3767 5:24.7357 6:28.233 7:27.0783 8:1 
0.02001076729514112 1:2.47251 2:2.51764 3:2.5678 4:9.57195 5:9.68921 6:11.4044 7:27.7519 8:1 
0.01992726469631741 1:1.97633 2:2.08198 3:2.01983 4:25.4386 5:25.9254 6:29.1845 7:41.2328 8:1 
0.02342621971188084 1:5.60684 2:5.81204 3:6.02509 4:26.417 5:26.8952 6:30.7809 7:54.111 8:1 
0.01045733947381837 1:3.75826 2:3.86321 3:4.0555 4:23.3538 5:23.7783 6:26.8978 7:16.596 8:1 
0.02108094221580478 1:1.08707 2:1.12038 3:1.17249 4:27.2642 5:27.7127 6:31.3138 7:30.3606 8:1 
0.001282838909005615 1:0.243459 2:0.250037 3:0.261275 4:10.3882 5:10.545 6:12.3675 7:6.89066 8:1 
0.00700416206270961 1:2.24815 2:2.29701 3:2.28657 4:10.0651 5:10.2119 6:12.0839 7:11.7425 8:1 
0.001369935770309695 1:1.17407 2:1.18635 3:1.172 4:13.2592 5:13.427 6:14.868 7:11.4347 8:1 
0.002949638446162354 1:0.289056 2:0.277546 3:0.210555 4:10.3848 5:10.5594 6:12.4747 7:10.0376 8:1 
0.009161126787207038 1:2.45842 2:2.52865 3:2.5784 4:14.3222 5:14.5215 6:15.995 7:9.7255 8:1 
0.009012961905238703 1:0.0421314 2:0.0884752 3:0.170645 4:25.237 5:25.8323 6:28.1385 7:22.3035 8:1 
0.008051879258972395 1:0.475033 2:0.458261 3:0.398518 4:15.9671 5:16.1877 6:17.7272 7:15.6415 8:1 
0.005384079140876075 1:1.78204 2:1.82884 3:1.8101 4:24.3906 5:24.9408 6:27.2362 7:10.0341 8:1 
0.002686130310600747 1:1.85781 2:1.86583 3:1.89113 4:25.6382 5:26.2121 6:28.4512 7:22.0262 8:1 
0.006058317912044808 1:1.65608 2:1.6631 3:1.59927 4:15.0585 5:15.2669 6:16.9141 7:7.96188 8:1 
0.001728698742325767 1:0.536829 2:0.546813 3:0.51261 4:14.7742 5:14.9713 6:16.635 7:11.5464 8:1 
0.0166554191622861 1:3.29566 2:3.36258 3:3.41618 4:25.243 5:25.8022 6:28.0096 7:19.0927 8:1 
0.00707170239463456 1:1.7336 2:1.7764 3:1.72834 4:25.4018 5:25.9696 6:28.1524 7:14.5672 8:1 
0.01052751649570244 1:2.27845 2:2.32013 3:2.37343 4:22.8864 5:23.31 6:26.3737 7:36.8597 8:1 
0.01906856497193012 1:0.297633 2:0.290075 3:0.562082 4:26.5029 5:26.9747 6:30.8452 7:38.9884 8:1 
0.007199848752436783 1:3.08039 2:3.18764 3:3.22167 4:22.0227 5:22.4396 6:25.5041 7:23.9785 8:1 
0.02316139226310426 1:5.90842 2:6.20824 3:7.4575 4:28.9328 5:29.4651 6:33.5695 7:59.3782 8:1 
0.0004483974229384392 1:2.13975 2:2.19388 3:2.28629 4:20.3428 5:20.7173 6:23.7516 7:19.5426 8:1 
0.01606479962455188 1:2.50115 2:2.60907 3:3.10012 4:27.5742 5:28.0432 6:31.8018 7:23.4363 8:1 
0.01360262339443874 1:1.20147 2:1.20985 3:1.04653 4:28.0629 5:28.5162 6:32.1721 7:13.6677 8:1 
0.01622378668591221 1:0.761827 2:0.769802 3:1.08832 4:23.0062 5:23.4415 6:26.4501 7:38.8183 8:1 
0.02273102236253877 1:1.68865 2:1.79983 3:2.22133 4:26.8814 5:27.3423 6:31.1173 7:45.3892 8:1 
0.01060988391244184 1:2.39413 2:2.48701 3:2.54025 4:19.2161 5:19.5863 6:22.5088 7:18.8041 8:1 
0.0204707373108019 1:3.23727 2:3.38897 3:3.45761 4:26.504 5:26.8996 6:30.7728 7:27.6013 8:1 
0.003140474715866603 1:1.04709 2:1.05521 3:1.11391 4:20.1064 5:20.5003 6:23.4368 7:14.5459 8:1 
0.0233465668311631 1:4.92136 2:5.16713 3:5.51579 4:29.5675 5:30.1194 6:34.1591 7:31.7857 8:1 
0.008562652066396604 1:0.231823 2:0.285785 3:0.185176 4:20.4972 5:20.9025 6:23.8263 7:32.2751 8:1 
0.02293453158633912 1:1.89769 2:1.93715 3:1.77978 4:31.3053 5:31.8774 6:35.9635 7:31.0634 8:1 
0.01510098726180714 1:3.03323 2:3.06975 3:3.0012 4:29.1531 5:29.6478 6:33.4917 7:20.3181 8:1 
0.02329279733729539 1:0.181927 2:0.240231 3:0.0178509 4:31.3899 5:31.9856 6:36.1671 7:44.301 8:1 
0.009219337207256349 1:0.708447 2:0.738136 3:1.11092 4:21.5458 5:21.9982 6:25.1307 7:51.4278 8:1 
0.001934302654995163 1:0.623991 2:0.596795 3:0.323402 4:21.1799 5:21.6511 6:24.7261 7:24.301 8:1 
0.02338051718291634 1:6.91035 2:7.0748 3:7.57347 4:33.256 5:33.9152 6:38.2604 7:85.5797 8:1 
0.018915706156412 1:0.413498 2:0.373966 3:0.266457 4:20.1754 5:20.6007 6:23.6953 7:43.5399 8:1 
0.02346039643154441 1:7.33382 2:7.6616 3:8.69404 4:35.9185 5:36.6964 6:41.334 7:47.6654 8:1 
0.005264916854747149 1:2.48374 2:2.52317 3:2.70243 4:21.3104 5:21.7534 6:24.9336 7:16.4434 8:1 
0.02128346394895175 1:1.25988 2:1.32472 3:1.50573 4:31.9256 5:32.5354 6:36.7425 7:21.8953 8:1 
0.02339509672047141 1:0.0550575 2:0.0313892 3:0.781631 4:36.643 5:37.2449 6:42.0187 7:112.858 8:1 
0.02332035438080937 1:2.28768 2:2.32291 3:0.736008 4:8.60717 5:8.74051 6:2.78707 7:51.2579 
0.005556044173082869 1:0.153735 2:0.156041 3:0.048111 4:12.2033 5:12.3928 6:3.96138 7:0.835326 
0.008180520884815634 1:0.805608 2:0.818386 3:0.267536 4:6.30484 5:6.40258 6:2.04309 7:5.55914 
0.02357871585911869 4:95.0456 5:100 6:108.875 7:70000 8:1 
0.02357183064643392 1:0.377505 2:0.386447 3:0.191645 4:8.24755 5:8.42343 6:3.74966 7:229.282 
0.01060615500172466 1:0.0861659 2:0.0859842 3:0.00611472 4:14.7645 5:15.0388 6:5.80158 7:13.1846 
0.01249402827046958 1:0.215337 2:0.218675 3:0.0697709 4:5.78748 5:5.87693 6:1.86935 7:6.96097 
1 1:0.0659475 2:0.0669664 3:0.0212925 4:0.0529242 5:0.0537419 6:0.0170877 7:0.0291863 
0.006481047732464273 1:0.0527344 2:0.0535805 3:0.0177152 4:6.10637 5:6.20122 6:1.98295 7:0.0882854 
0.01461246117047461 1:0.458802 2:0.465184 3:0.132262 4:11.1718 5:11.3472 6:3.66918 7:5.29645 
0.02361480418567158 1:0.272474 2:0.253859 3:0.423907 4:13.823 5:14.0782 6:5.39614 7:756.782 
0.02353223990659392 1:3.26396 2:3.32581 3:1.30998 4:16.0879 5:16.4261 6:7.20488 7:128.13 
0.01180403226994934 1:0.23617 2:0.239847 3:0.0769448 4:15.0222 5:15.2546 6:4.85816 7:0.923588 
0.002069952328778446 1:0.155523 2:0.157869 3:0.0489495 4:7.82884 5:7.95067 6:2.54736 7:0.9249 8:1 
0.02356948598520492 1:0.543839 2:0.566929 3:0.505152 4:69.9467 5:71.553 6:34.3719 7:30.5226 
0.02321239011872156 1:0.427452 2:0.445007 3:0.383835 4:65.4426 5:67.0665 6:34.8754 7:22.8739 
0.01993229668375776 1:0.0307446 2:0.0319519 3:0.0261288 4:63.209 5:64.8552 6:35.4269 7:13.3662 
0.01927750521023527 1:0.0252686 2:0.0247993 3:0.0112247 4:60.775 5:62.4269 6:35.6131 7:13.1634 8:1 
0.02339207397788777 1:0.766819 2:0.793371 3:0.577421 4:57.379 5:58.97 6:34.3289 7:9.1392 
0.02242701740206438 1:1.08215 2:1.12767 3:0.995447 4:53.1357 5:54.6214 6:32.0651 7:8.89885 
0.0233321848611523 1:0.291451 2:0.301659 3:0.22211 4:48.468 5:49.8117 6:28.9914 7:7.09296 
0.0234411063299339 1:0.387938 2:0.399685 3:0.254185 4:44.7129 5:45.9498 6:26.6862 7:3.14062 
0.02346038579367438 1:0.290499 2:0.305752 3:0.335333 4:40.6907 5:41.7931 6:23.7641 7:4.05285 8:1 
0.0158037214452153 1:0.358702 2:0.373272 3:0.318201 4:34.2099 5:35.0946 6:19.0348 7:2.22854 
0.02354230867464391 1:0.390404 2:0.403837 3:0.292026 4:36.9257 5:37.9036 6:21.0599 7:148.629 
0.01226496458004289 1:0.330626 2:0.342247 3:0.252808 4:32.0863 5:32.9099 6:17.7148 7:2.5251 
0.008624371880869959 1:0.133021 2:0.138456 3:0.118712 4:29.9136 5:30.6698 6:16.2536 7:2.27944 8:1 
0.01091843413155448 1:0.215446 2:0.221277 3:0.125773 4:28.4074 5:29.1151 6:15.2019 7:1.85339 
0.006242591972326565 1:0.0104575 2:0.0106192 3:0.00338268 4:6.26192 5:6.35869 6:2.02224 7:0.0423687 8:1 
0.004874638669622853 1:0.0197318 2:0.0200379 3:0.00637752 4:5.91288 5:6.00424 6:1.90936 7:3.58827 
0.006321922768392117 1:0.51741 2:0.534268 3:0.365807 4:26.7907 5:27.4499 6:14.1516 7:2.2373 8:1 
0.01145756093812994 1:0.116074 2:0.120677 3:0.100537 4:25.1939 5:25.8039 6:13.0854 7:1.50126 
0.01098999873898808 1:0.105896 2:0.109515 3:0.0787258 4:22.7116 5:23.2475 6:11.4814 7:1.07108 
0.006055606349816167 1:0.105701 2:0.109414 3:0.0807958 4:20.5058 5:20.9741 6:10.0188 7:2.33758 8:1 
0.02346509233485022 1:1.24662 2:1.29951 3:1.15672 4:41.512 5:42.5421 6:22.1215 7:1813.73 
0.01946225480647013 1:0.200908 2:0.204417 3:0.0739644 4:16.7415 5:17.088 6:7.37641 7:7.60473 
0.02368760103090611 1:4.37029 2:4.51708 3:3.18892 4:12.4667 5:12.9003 6:9.43212 7:506.106 
0.02339058872228222 1:0.4231 2:0.430557 3:0.157072 4:80.2717 5:82.634 6:51.087 7:12.3291 8:1 
0.01695145026138778 1:0.766342 2:0.790981 3:0.534509 4:15.6421 5:15.9444 6:6.41044 7:14.174 
0.02321075130250549 1:0.0151787 2:0.00613785 3:0.203257 4:68.7367 5:70.8558 6:45.9047 7:16.6654 
0.02316026483208178 1:0.994978 2:1.03598 3:0.896069 4:59.734 5:61.5717 6:39.8046 7:7.31961 
0.01800093451745954 1:0.628951 2:0.650045 3:0.458252 4:14.6187 5:14.8842 6:5.6089 7:6.96402 
0.02237611979199023 1:0.780382 2:0.808899 3:0.621174 4:51.0975 5:52.6471 6:33.5483 7:5.18572 
0.02387101243531642 1:0.545187 2:0.56386 3:0.406009 4:43.7775 5:45.0792 6:28.1616 7:11.0621 
0.002482572153240844 1:0.0105891 2:0.00875211 3:0.0186453 4:9.66435 5:7.99283 6:17.0033 7:0.0483977 8:1 
0.02362972455356377 1:0.869263 2:0.904623 3:0.772392 4:36.244 5:37.2999 6:22.8255 7:265.14 
0.01750434506069114 1:0.937668 2:0.745298 3:1.87982 4:5.81874 5:4.92037 6:9.41338 7:9.7304 
0.01107326015423904 1:0.365904 2:0.378206 3:0.267377 4:32.6624 5:33.5872 6:19.9713 7:3.33719 
0.01047238798940666 1:0.186421 2:0.193516 3:0.154739 4:28.9425 5:29.7321 6:17.0254 7:3.00965 8:1 
0.009621515624891119 1:0.29611 2:0.306356 3:0.222837 4:25.7897 5:26.4666 6:14.5711 7:2.32089 8:1 
0.01133127453786649 1:0.308542 2:0.318965 3:0.226455 4:22.9107 5:23.4842 6:12.3209 7:2.22139 8:1 
0.02352807734505047 1:19.9514 2:20.8231 3:19.0791 4:37.7537 5:39.0702 6:28.6367 7:1339.33 
0.01205661291669841 1:0.24275 2:0.251286 3:0.185631 4:20.3651 5:20.847 6:10.3264 7:1.31903 8:1 
0.01734857201146657 1:0.0437851 2:0.0473776 3:0.0794954 4:18.4935 5:18.9042 6:8.77228 7:3.11065 
0.02350176736209242 1:0.0263162 2:0.0267963 3:0.0101302 4:12.4931 5:12.6909 6:4.14198 7:90.0761 
0.01518301206415246 1:0.0613651 2:0.0635824 3:0.04827 4:16.2009 5:16.5401 6:7.22378 7:1.50056 8:1 
0.004102601700556389 1:0.214983 2:0.22105 3:0.131007 4:15.2064 5:15.5079 6:6.40101 7:0.513712 8:1 
0.01050124044537464 1:0.013104 2:0.0108299 3:0.0230742 4:10.24 5:8.46931 6:18.015 7:0.0348349 
0.0210003839833842 1:0.0295844 2:0.0300975 3:0.0108161 4:12.7878 5:13.0001 6:4.46136 7:10.5725 8:1 
0.01393188679521055 1:0.0070672 2:0.00719261 3:0.00263858 4:12.2195 5:12.4128 6:4.0452 7:0.0111867 8:1 
0.1628884731146743 1:0.012064 2:0.0122776 3:0.00446725 4:12.0259 5:12.2158 6:3.97339 7:0.0066007 8:1 
0.09231999783286408 1:0.00290298 2:0.00295353 3:0.00107467 4:11.8169 5:12.0031 6:3.89655 7:0.00997519 8:1 
0.0213322719363977 1:0.0115421 2:0.00957155 3:0.0202384 4:7.63069 5:6.31214 6:13.422 7:6.246 8:1 
0.02315235065361532 1:0.0122318 2:0.0124574 3:0.00477934 4:12.4111 5:12.6092 6:4.15101 7:29.8219 
0.02320390295099748 1:0.292862 2:0.308033 3:0.335754 4:55.7487 5:47.6901 6:93.7647 7:21.4512 8:1 
0.02311681807873602 1:0.988535 2:0.873169 3:1.58755 4:58.1373 5:50.0789 6:96.8398 7:18.3123 8:1 
0.02409915794650336 1:2.77498 2:2.60968 3:4.02409 4:62.6806 5:54.4579 6:103.138 7:31.3479 8:1 
0.0233823717826624 1:1.10777 2:1.04328 3:1.60233 4:65.0751 5:56.8631 6:106.193 7:22.594 8:1 
0.02368884239864504 1:0.361912 2:0.382826 3:0.408997 4:70.8962 5:62.5971 6:113.926 7:12.7847 8:1 
0.001289634231007131 1:0.00817442 2:0.00830412 3:0.00270593 4:8.57189 5:8.70474 6:2.77692 7:0.0343836 8:1 
0.00271822267374522 1:0.0159249 2:0.0161748 3:0.00524068 4:8.14552 5:8.27164 6:2.636 7:0.0443539 
0.001282814666820114 1:0.00129795 2:0.00131845 3:0.000429153 4:7.17676 5:7.28773 6:2.31914 7:0.0520528 8:1 
0.005939206659645417 1:0.0198164 2:0.0201237 3:0.00642502 4:6.58749 5:6.68931 6:2.12781 7:2.57056 
0.01011958573493032 1:0.0714817 2:0.0727143 3:0.0259356 4:10.3615 5:10.5237 6:3.39358 7:4.32852 
0.02337493733170621 1:1.54113 2:1.58632 3:1.86118 4:72.5631 5:64.296 6:115.985 7:31.649 8:1 
0.02319571123312074 1:2.01506 2:1.91255 3:2.87433 4:75.9021 5:67.719 6:120.055 7:37.2374 8:1 
0.02338072352047889 1:2.85965 2:2.69121 3:4.14171 4:77.8389 5:69.7825 6:122.203 7:15.1376 8:1 
0.02336959000207294 1:0.192131 2:0.199417 3:0.227524 4:79.6389 5:71.7246 6:124.134 7:9.03411 
0.02359564194031211 1:1.38121 2:1.29792 3:2.00567 4:81.2382 5:73.4866 6:125.75 7:51.2469 8:1 
0.01904266970480484 1:0.902916 2:0.751816 3:1.57476 4:84.3251 5:76.6833 6:129.425 7:13.5092 
0.01631457823402455 1:0.613533 2:0.64325 3:0.708965 4:84.0182 5:76.5824 6:128.468 7:9.85823 8:1 
0.01936017845869348 1:2.4919 2:2.41765 3:3.41126 4:85.0993 5:77.856 6:129.335 7:10.4067 8:1 
0.01289039598277364 1:0.161469 2:0.155876 3:0.223183 4:85.9788 5:78.9118 6:129.987 7:7.78283 8:1 
0.02381050179175764 1:1.23885 2:1.27046 3:1.50899 4:87.1081 5:80.2236 6:130.943 7:17.5458 8:1 
0.01702785489349551 1:0.829994 2:0.804878 3:1.1373 4:87.4344 5:80.733 6:130.864 7:6.44082 8:1 
0.003227471304414952 1:0.00211763 2:0.00175166 3:0.00372624 4:3.88636 5:3.21399 6:6.83814 7:0.000314595 
0.008259167639177617 1:0.000786304 2:0.000800133 3:0.000295639 4:12.0924 5:12.2835 6:4.00095 7:0.00631522 
0.0009087773510974562 1:0.00397325 2:0.00328672 3:0.00699139 4:4.14671 5:3.42932 6:7.29618 7:0.000370401 8:1 
0.7546669575928286 1:0.000978947 2:0.000996113 3:0.000375152 4:11.4829 5:11.6634 6:3.77596 7:0.00837119 8:1 
0.006466898987730257 1:0.0200686 2:0.0203857 3:0.00664258 4:8.41855 5:8.54888 6:2.724 7:0.0595232 
0.0210139014322836 1:0.148964 2:0.140713 3:0.214348 4:87.1668 5:81.0301 6:128.979 7:11.9803 8:1 
0.01968260772914349 1:0.299728 2:0.2855 3:0.424786 4:86.6327 5:80.6858 6:127.774 7:2.41646 8:1 
0.01361032309670657 1:1.00252 2:0.997547 3:1.30443 4:86.3646 5:80.6195 6:126.878 7:6.93171 8:1 
0.01004789682908985 1:0.147141 2:0.131973 3:0.230804 4:85.8892 5:80.3003 6:125.84 7:4.96306 8:1 
0.02274604086084386 1:0.652359 2:0.681595 3:0.760296 4:85.0947 5:79.6982 6:124.292 7:12.9753 
0.01774679233120768 1:0.624748 2:0.619099 3:0.819904 4:84.2761 5:79.0213 6:122.851 7:6.1169 
0.009674702250225653 1:0.231888 2:0.230995 3:0.301064 4:83.4736 5:78.3766 6:121.388 7:4.49837 8:1 
0.01682693403159274 1:0.403076 2:0.401524 3:0.523243 4:82.3985 5:77.4198 6:119.681 7:2.66383 8:1 
0.01208821066172993 1:0.159723 2:0.13403 3:0.330318 4:4.27324 5:3.55934 6:7.41625 7:2.80098 
0.000658050015582575 1:0.45052 2:0.448467 3:0.585747 4:81.7045 5:76.8887 6:118.343 7:4.26757 8:1 
0.01655291380763478 1:0.881821 2:0.82534 3:1.28955 4:81.0711 5:76.3678 6:117.22 7:5.00968 8:1 
0.01353270958817743 1:0.0477638 2:0.0617027 3:0.0234985 4:79.7212 5:75.158 6:115.1 7:3.25313 8:1 
0.01390221617429854 1:0.0977745 2:0.0879402 3:0.15271 4:79.0748 5:74.6198 6:113.973 7:5.32816 8:1 
0.01338266126909997 1:0.82732 2:0.845509 3:1.01572 4:77.3899 5:73.045 6:111.503 7:3.62135 8:1 
0.007262572837717121 1:0.00129485 2:0.00107098 3:0.00227761 4:4.54478 5:3.75857 6:7.99645 7:0.000345822 8:1 
0.000953979505421717 1:0.00277448 2:0.00229526 3:0.00487947 4:5.07656 5:4.19844 6:8.93188 7:0.000485125 
0.02300256612163953 1:0.00103617 2:0.000857115 3:0.00182152 4:4.74749 5:3.92624 6:8.35304 7:81.1924 8:1 
0.01122922019914004 1:0.019989 2:0.0133972 3:0.116825 4:76.8201 5:72.5663 6:110.521 7:2.92089 8:1 
0.01387784830436706 1:0.0935669 2:0.100929 3:0.10041 4:75.1588 5:71.0143 6:108.083 7:3.64345 8:1 
0.01470392536445059 1:0.256924 2:0.27581 3:0.279362 4:74.0042 5:69.9411 6:106.375 7:2.91111 
0.01998654868785582 1:0.0701218 2:0.0742264 3:0.0790939 4:72.8947 5:68.936 6:104.661 7:6.62612 
0.01357957677044617 1:0.101192 2:0.112061 3:0.100689 4:71.6728 5:67.7821 6:102.902 7:3.20923 
0.01150111995844941 1:0.130821 2:0.136902 3:0.151821 4:70.6971 5:66.8758 6:101.457 7:2.23136 
0.01457228985818419 1:0.407307 2:0.389488 3:0.573048 4:69.2018 5:65.4811 6:99.2568 7:2.49891 
0.014865169692943 1:0.912975 2:0.919739 3:1.15715 4:65.2901 5:61.0264 6:95.7006 7:3.81739 8:1 
0.01296620652232772 1:0.236969 2:0.260191 3:0.241814 4:67.7922 5:64.1235 6:97.2999 7:2.88766 8:1 
0.003451584621992284 1:0.0466423 2:0.00292587 3:0.179298 4:64.6324 5:60.492 6:94.5177 7:2.13079 8:1 
0.01644736591353013 1:0.140087 2:0.13958 3:0.181786 4:66.7475 5:63.1353 6:95.8005 7:0.806639 
0.01132512650636652 1:0.0132484 2:0.00192642 3:0.0584717 4:64.432 5:60.9403 6:92.4904 7:1.40809 8:1 
0.01004206375676457 1:1.27306 2:1.25254 3:1.69521 4:64.2018 5:60.3712 6:93.1182 7:3.1539 8:1 
0.003477894343443105 1:0.00025177 2:0.000207663 3:0.000441551 4:5.74206 5:4.74899 6:10.1023 7:0.000632088 8:1 
0.00561843632758442 1:0.00379705 2:0.00314236 3:0.00667858 4:5.85613 5:4.84336 6:10.3029 7:1.30742 
0.009007336898652253 1:0.00671792 2:0.00555921 3:0.0118098 4:6.61114 5:5.46809 6:11.6305 7:0.000609251 
0.01699179723363864 1:0.629356 2:0.609226 3:0.865337 4:60.5141 5:57.1958 6:86.9727 7:3.65373 8:1 
0.0230858755217112 1:1.41932 2:1.35256 3:2.00969 4:56.229 5:53.1108 6:80.9089 7:6.27107 8:1 
0.02347291150726716 1:0.234512 2:0.224106 3:0.330353 4:53.1065 5:50.1132 6:76.5475 7:8.85794 8:1 
0.01737169538050343 1:0.371601 2:0.351709 3:0.532734 4:48.917 5:46.0842 6:70.7149 7:4.32857 8:1 
0.01008627135921417 1:0.10676 2:0.106493 3:0.138222 4:63.1456 5:59.4754 6:91.3208 7:3.1952 8:1 
0.02358974723948415 1:1.60927 2:1.53321 3:2.27962 4:46.183 5:43.4652 6:66.881 7:55.1151 8:1 
0.01049007845911527 1:0.525549 2:0.519678 3:0.692764 4:62.3005 5:58.7629 6:89.8709 7:1.69009 8:1 
0.004046285834268351 1:0.15871 2:0.145607 3:0.240101 4:61.6981 5:58.2227 6:88.9254 7:1.90294 8:1 
0.02313413356760625 1:0.208124 2:0.199883 3:0.290495 4:42.0774 5:39.5113 6:61.1808 7:14.6312 8:1 
0.001276708219744294 1:0.726543 2:0.70035 3:1.00699 4:61.1004 5:57.6768 6:88.0147 7:1.58425 8:1 
0.02359290984491219 1:0.227745 2:0.225584 3:0.299164 4:60.4798 5:57.1143 6:87.0571 7:613.707 
0.02245291770578389 1:0.731068 2:0.703434 3:1.01675 4:40.2399 5:37.7331 6:58.6527 7:18.0374 8:1 
0.02346366238650268 1:0.955048 2:0.898184 3:1.38487 4:37.3566 5:34.9418 6:54.689 7:20.8929 8:1 
0.01376833108044012 1:0.00950813 2:0.0149899 3:0.00271225 4:60.0993 5:56.7805 6:86.4396 7:0.568255 8:1 
0.02342006190574234 1:0.51816 2:0.497137 3:0.724564 4:33.9959 5:31.7032 6:50.0285 7:17.3358 8:1 
0.007401460490852892 1:0.0494328 2:0.0469646 3:0.0704002 4:58.6645 5:55.4342 6:84.3506 7:1.22143 8:1 
0.008096388367747462 1:0.665165 2:0.641743 3:0.920401 4:31.6757 5:29.4458 6:46.8696 7:6.82447 8:1 
0.01124645670876086 1:0.373167 2:0.359013 3:0.519135 4:58.0947 5:54.9061 6:83.5033 7:0.473919 
0.0194426838803714 1:1.58687 2:1.53269 3:2.19114 4:27.0961 5:25.0113 6:40.5767 7:9.98464 8:1 
0.01083975609353174 1:0.0226803 2:0.016943 3:0.044838 4:57.0493 5:53.9279 6:81.9737 7:1.2203 8:1 
0.01137778391243369 1:0.944265 2:0.888133 3:1.36901 4:25.405 5:23.3733 6:38.2545 7:4.57139 8:1 
0.00129274254481437 1:0.00199962 2:0.00165462 3:0.00351477 4:7.09885 5:5.87172 6:12.4878 7:0.000646016 8:1 
0.002375099371888394 1:0.000311375 2:0.000257492 3:0.000547886 4:7.18261 5:5.94106 6:12.635 7:0.000477173 8:1 
0.002092203050311138 1:0.00227356 2:0.00188184 3:0.00399542 4:7.3418 5:6.07283 6:12.9147 7:0.000483144 8:1 
0.003922479955169715 1:0.0150423 2:0.0153837 3:0.0184355 4:10.4935 5:8.8611 6:17.9642 7:0.600754 8:1 
0.001639369906233728 1:0.00576305 2:0.00477099 3:0.0101261 4:7.67257 5:6.34665 6:13.496 7:0.0266438 8:1 
0.01367556647054746 1:0.0587654 2:0.0592051 3:0.0744724 4:24.1063 5:22.1034 6:36.5037 7:6.1383 8:1 
0.01309292596101142 1:0.301281 2:0.273811 3:0.462875 4:22.9028 5:20.9294 6:34.8734 7:6.31167 
0.006646212101617529 1:0.21196 2:0.184605 3:0.347545 4:11.4861 5:9.73771 6:19.5587 7:0.488572 
0.001925955791930001 1:0.218231 2:0.204313 3:0.318981 4:56.1296 5:53.0515 6:80.6714 7:0.910048 8:1 
0.01604044503378504 1:0.111641 2:0.119262 3:0.122976 4:21.2738 5:19.3399 6:32.6682 7:7.72838 8:1 
0.01151108418739455 1:0.293869 2:0.290466 3:0.387676 4:55.6442 5:52.5858 6:79.9931 7:0.825472 8:1 
0.02335624159571575 1:0.0209312 2:0.00987434 3:0.0571175 4:20.3147 5:18.4086 6:31.3573 7:32.4448 8:1 
0.0008131436249714667 1:0.134672 2:0.128019 3:0.19157 4:54.9855 5:51.9554 6:79.0673 7:0.548697 8:1 
0.01143299822659483 1:0.26581 2:0.26405 3:0.347077 4:18.9647 5:17.0923 6:29.5268 7:4.53349 
0.01197954274983035 1:0.312645 2:0.304621 3:0.424461 4:54.2247 5:51.2215 6:78.0143 7:0.521278 8:1 
0.002120964715840301 1:0.0246811 2:0.0269737 3:0.0255394 4:53.6615 5:50.6818 6:77.2251 7:0.587351 8:1 
0.01008216413845961 1:0.0739422 2:0.0672665 3:0.113411 4:52.9012 5:49.9425 6:76.1885 7:0.630201 8:1 
0.01177230743867014 1:0.15022 2:0.127069 3:0.256584 4:19.3715 5:17.4074 6:30.3008 7:7.11927 8:1 
0.000793034048078144 1:0.236475 2:0.243246 3:0.286045 4:52.3198 5:49.3838 6:75.3783 7:0.642882 8:1 
0.01153772637142619 1:0.787747 2:0.745113 3:1.13064 4:19.7953 5:17.8035 6:30.9219 7:2.04793 8:1 
0.008533842210919676 1:0.228003 2:0.218433 3:0.319702 4:51.6892 5:48.7675 6:74.5271 7:0.516769 8:1 
0.007368962473346639 1:0.14036 2:0.126209 3:0.219311 4:51.0272 5:48.1221 6:73.6296 7:0.367882 8:1 
0.007015564385820905 1:1.12894 2:1.0735 3:1.60491 4:19.0041 5:17.0312 6:29.8518 7:5.66187 8:1 
0.009139428754705721 1:0.046463 2:0.0437927 3:0.0671005 4:50.0703 5:47.199 6:72.305 7:1.45552 8:1 
0.006682996227197318 1:0.425989 2:0.403812 3:0.60902 4:49.1382 5:46.2968 6:71.0234 7:1.01818 8:1 
0.005495087127123598 1:0.0162411 2:0.0134857 3:0.028429 4:8.34637 5:6.90651 6:14.6744 7:0.075573 8:1 
0.01051814148750518 1:0.406605 2:0.384045 3:0.585098 4:47.934 5:45.1334 6:69.3617 7:1.5692 8:1 
0.007471529930097733 1:0.0550189 2:0.0458031 3:0.0959811 4:8.53104 5:7.06006 6:14.997 7:0.0966054 
0.005849267257725758 1:0.0628734 2:0.0507984 3:0.113891 4:11.9225 5:10.1126 6:20.2885 7:1.35617 8:1 
0.00652567636746626 1:0.122767 2:0.112122 3:0.187116 4:12.2974 5:10.4462 6:20.8837 7:1.57641 8:1 
0.008542907939486144 1:1.12074 2:1.06109 3:1.60582 4:20.4611 5:18.3132 6:32.2051 7:5.01116 8:1 
0.01865065750285016 1:1.32758 2:1.10011 3:2.32988 4:9.06566 5:7.50581 6:15.9278 7:2.17431 8:1 
0.004244726751837795 1:0.0559254 2:0.0426683 3:0.108171 4:20.4402 5:18.2451 6:32.3072 7:1.25733 8:1 
0.006391969445889989 1:0.0284343 2:0.0293489 3:0.0341177 4:13.5765 5:11.5323 6:23.0572 7:0.479895 8:1 
0.01266915682399786 1:0.920092 2:0.833712 3:1.42037 4:13.4157 5:11.3657 6:22.8662 7:1.0606 8:1 
0.01088745692697197 1:0.563534 2:0.539322 3:0.791683 4:46.5668 5:43.8146 6:67.4691 7:1.88993 8:1 
0.0164544571298584 1:0.18811 2:0.178574 3:0.26823 4:45.4521 5:42.7301 6:65.9513 7:1.64026 
0.01807720063051638 1:1.38946 2:1.33075 3:1.94933 4:43.7046 5:41.0374 6:63.5516 7:3.15347 8:1 
0.01510568250876054 1:0.0173588 2:0.0160618 3:0.0258846 4:42.7005 5:40.0569 6:62.1944 7:3.30694 8:1 
0.006781979935063404 1:0.0778236 2:0.0703964 3:0.120461 4:41.3543 5:38.7535 6:60.344 7:2.94714 8:1 
0.01888664720759337 1:0.496046 2:0.477936 3:0.688145 4:40.2986 5:37.7127 6:58.9439 7:2.14261 8:1 
0.02206087263008449 1:0.679173 2:0.644987 3:0.96776 4:39.0665 5:36.5127 6:57.2698 7:8.60376 8:1 
0.01773311890975499 1:0.122068 2:0.113586 3:0.180309 4:37.6416 5:35.128 6:55.3254 7:4.82438 8:1 
0.01896728950780394 1:0.653049 2:0.623125 3:0.922537 4:36.3272 5:33.8473 6:53.5412 7:8.06387 8:1 
0.0146982037757408 1:0.346624 2:0.337158 3:0.472179 4:35.5988 5:33.1164 6:52.61 7:4.43627 8:1 
0.01558342031850057 1:0.555592 2:0.534164 3:0.773849 4:33.8576 5:31.423 6:50.2374 7:3.90723 8:1 
0.01293784429380807 1:0.220997 2:0.216294 3:0.297382 4:32.815 5:30.3984 6:48.8457 7:6.04983 
0.01252631114829791 1:0.0862823 2:0.0797377 3:0.128948 4:15.1286 5:12.7946 6:25.8463 7:0.543705 8:1 
0.0125136190598907 1:0.15257 2:0.138117 3:0.235882 4:31.2551 5:28.8487 6:46.8093 7:5.27258 8:1 
0.001463021128672674 1:0.334959 2:0.303753 3:0.516424 4:15.0799 5:12.7409 6:25.7973 7:0.601017 8:1 
0.001155984173108432 1:0.581509 2:0.55277 3:0.827171 4:30.1668 5:27.7792 6:45.357 7:7.19423 8:1 
0.01703815573783888 1:0.230321 2:0.224562 3:0.312283 4:29.9173 5:27.5181 6:45.0669 7:8.78557 8:1 
0.01301124886782062 1:0.607525 2:0.580855 3:0.855017 4:28.3681 5:25.9528 6:43.1162 7:5.99934 8:1 
0.01344641662926139 1:0.0355358 2:0.0411482 3:0.0304527 4:27.702 5:25.2881 6:42.2545 7:8.68822 8:1 
0.01076506344080008 1:0.928259 2:0.879747 3:1.32759 4:27.5797 5:25.1169 6:42.2305 7:2.96398 8:1 
0.007851925645262344 1:0.0738029 2:0.0669532 3:0.113716 4:14.91 5:12.5775 6:25.5606 7:0.328408 
0.005679321333750187 1:0.177834 2:0.170194 3:0.249832 4:26.6706 5:24.172 6:41.1573 7:1.70281 8:1 
0.02368732496283389 1:1.98576 2:1.67817 3:3.39589 4:14.5301 5:12.2695 6:24.8753 7:10.7722 8:1 
0.005646090388680525 1:0.122458 2:0.112625 3:0.184507 4:20.7366 5:18.1596 6:33.7304 7:3.54091 8:1 
0.01023593755628919 1:1.02729 2:0.975961 3:1.46281 4:25.4311 5:22.7849 6:39.9639 7:6.85512 8:1 
0.002092664522832653 1:0.746214 2:0.705681 3:1.07143 4:26.0672 5:23.2959 6:41.1244 7:6.90399 8:1 
0.0157934063758816 1:0.154605 2:0.141888 3:0.233757 4:20.703 5:17.9058 6:34.2875 7:1.22725 8:1 
0.02342946910694949 7:124.74 8:1 
0.0234998623667293 1:0.203373 2:0.191367 3:0.294608 4:18.0248 5:15.557 6:29.9406 7:38.3704 8:1 
0.02358758676798933 1:3.81582 2:3.45928 3:5.88593 4:8.65598 5:7.80074 6:13.4786 7:173.756 8:1 
0.02359076911985925 1:6.65298 2:5.97988 3:10.4026 4:21.0732 5:18.9869 6:32.8253 7:190.334 8:1 
0.004827067707312171 1:0.0752373 2:0.0707436 3:0.109131 4:25.7682 5:22.8638 6:41.1023 7:5.08479 8:1 
0.003927223036594199 1:0.24255 2:0.22243 3:0.367189 4:25.2446 5:22.3479 6:40.4071 7:4.08821 
0.01487384571013366 1:0.0181093 2:0.0202999 3:0.0173569 4:28.7295 5:25.8949 6:44.725 7:1.13346 8:1 
0.01370597369121214 1:0.0764256 2:0.0720501 3:0.110346 4:25.4352 5:22.4252 6:40.9615 7:1.93898 8:1 
0.007683399427106572 1:0.196781 2:0.18812 3:0.27701 4:28.0316 5:25.1812 6:43.8695 7:0.436448 8:1 
0.02368432148749194 1:237.614 2:250 3:272.188 4:594.035 5:625 6:680.471 7:203125 8:1 
0.02359941654421782 1:6.10352e-05 4:950.456 5:1000 6:1088.75 
0.02361857139350815 1:3.05176e-05 3:3.05176e-05 4:594.035 5:625 6:680.471 7:234375 8:1 
1 1:5.84354e-07 2:6.14814e-07 3:6.69381e-07 4:2.21089e-05 5:2.32613e-05 6:2.53259e-05 7:5.25645e-10 8:1 
1 8:1 
1 1:6.46491e-07 2:6.80191e-07 3:7.40562e-07 4:5.60473e-05 5:5.89688e-05 6:6.42025e-05 7:2.2507e-11 8:1 
1 1:1.05637e-06 2:1.11143e-06 3:1.21007e-06 4:4.23049e-05 5:4.45101e-05 6:4.84605e-05 7:1.50987e-11 8:1 
1 1:2.52198e-06 2:2.65344e-06 3:2.88893e-06 4:7.4913e-05 5:7.8818e-05 6:8.58134e-05 7:4.66575e-11 8:1 
1 1:9.01588e-07 2:9.48579e-07 3:1.03277e-06 4:5.85182e-05 5:6.15686e-05 6:6.7033e-05 7:2.94335e-11 8:1 
1 1:3.33468e-07 2:3.50839e-07 3:3.81995e-07 4:9.75949e-05 5:0.000102682 6:0.000111796 7:6.22736e-11 8:1 
1 1:7.82235e-07 2:8.23005e-07 3:8.96056e-07 4:7.89426e-05 5:8.30576e-05 6:9.04293e-05 7:4.33966e-11 8:1 
1 1:4.40668e-07 2:4.63646e-07 3:5.04777e-07 4:0.00012516 5:0.000131684 6:0.000143372 7:1.36323e-10 8:1 
1 1:7.09064e-07 2:7.46026e-07 3:8.12222e-07 4:0.000103359 5:0.000108746 6:0.000118398 7:1.04992e-10 8:1 
1 1:5.75819e-06 2:6.05836e-06 3:6.59604e-06 4:0.00016075 5:0.00016913 6:0.000184141 7:1.5446e-10 8:1 
1 1:7.89369e-07 2:8.305e-07 3:9.04234e-07 4:0.000133725 5:0.000140696 6:0.000153183 7:9.26257e-11 8:1 
1 1:2.69007e-06 2:2.83027e-06 3:3.08151e-06 4:0.000173992 5:0.000183062 6:0.000199309 7:1.68639e-10 8:1 
1 1:4.5935e-06 2:4.83294e-06 3:5.26188e-06 4:1.87193e-05 5:1.9695e-05 6:2.1443e-05 7:3.11025e-10 
1 1:4.52152e-07 2:4.75713e-07 3:5.17937e-07 4:4.31428e-05 5:4.53917e-05 6:4.94204e-05 7:1.67465e-11 8:1 
1 1:3.03014e-06 2:3.18809e-06 3:3.47104e-06 4:1.51507e-06 5:1.59404e-06 6:1.73552e-06 7:8.11892e-11 
1 1:9.63237e-08 2:1.01347e-07 3:1.10338e-07 4:2.97657e-05 5:3.13173e-05 6:3.40968e-05 7:1.27233e-11 8:1 
1 1:1.48724e-06 2:1.56477e-06 3:1.70365e-06 4:6.01382e-05 5:6.3273e-05 6:6.88888e-05 7:7.3736e-11 8:1 
1 1:2.11645e-07 2:2.22679e-07 3:2.42442e-07 4:4.07545e-05 5:4.28789e-05 6:4.66846e-05 7:1.67934e-11 8:1 
1 1:6.42558e-07 2:6.76057e-07 3:7.36065e-07 4:7.88751e-05 5:8.29865e-05 6:9.03519e-05 7:5.06208e-11 8:1 
1 1:1.71255e-06 2:1.80182e-06 3:1.96174e-06 4:5.66638e-05 5:5.96175e-05 6:6.49088e-05 7:2.77566e-11 8:1 
1 1:3.20973e-07 2:3.37705e-07 3:3.67677e-07 4:1.24375e-05 5:1.30858e-05 6:1.42472e-05 7:9.3192e-11 8:1 
1 1:3.84378e-06 2:4.04416e-06 3:4.40309e-06 4:0.000104261 5:0.000109696 6:0.000119432 7:6.55394e-11 8:1 
1 1:2.32322e-06 2:2.44433e-06 3:2.66127e-06 4:7.52471e-05 5:7.91695e-05 6:8.61961e-05 7:4.59244e-11 8:1 
1 1:8.68441e-07 2:9.13711e-07 3:9.94806e-07 4:2.6669e-05 5:2.80591e-05 6:3.05495e-05 7:7.24917e-12 8:1 
1 1:8.55332e-07 2:8.99941e-07 3:9.79788e-07 4:0.000135697 5:0.00014277 6:0.000155442 7:1.60134e-10 8:1 
1 1:1.12476e-06 2:1.18339e-06 3:1.28842e-06 4:0.00010065 5:0.000105896 6:0.000115295 7:5.86042e-11 8:1 
1 1:1.40422e-06 2:1.47741e-06 3:1.60854e-06 4:0.000177409 5:0.000186657 6:0.000203223 7:2.09632e-10 8:1 
1 1:2.66058e-07 2:2.79922e-07 3:3.04768e-07 4:3.71614e-05 5:3.90985e-05 6:4.25687e-05 7:1.48803e-11 8:1 
1 1:1.95186e-06 2:2.05361e-06 3:2.23589e-06 4:0.000130983 5:0.000137811 6:0.000150042 7:3.48041e-10 8:1 
1 1:2.6653e-06 2:2.80423e-06 3:3.05311e-06 4:5.07484e-05 5:5.33937e-05 6:5.81326e-05 7:1.94482e-11 8:1 
1 1:3.87759e-06 2:4.07973e-06 3:4.4418e-06 4:0.000203316 5:0.000213914 6:0.0002329 7:2.33545e-10 8:1 
1 1:2.87433e-06 2:3.02416e-06 3:3.29255e-06 4:0.000168244 5:0.000177014 6:0.000192725 7:1.53044e-10 8:1 
1 1:1.45981e-06 2:1.53589e-06 3:1.67223e-06 4:6.81998e-05 5:7.17548e-05 6:7.81233e-05 7:4.57278e-11 8:1 
1 1:1.48207e-06 2:1.55933e-06 3:1.69768e-06 4:0.000254482 5:0.000267747 6:0.000291511 7:2.99544e-10 8:1 
1 1:2.92582e-06 2:3.07835e-06 3:3.35155e-06 4:9.25153e-05 5:9.73378e-05 6:0.000105977 7:6.18153e-11 8:1 
1 1:6.51463e-06 2:6.85418e-06 3:7.46253e-06 4:0.000319891 5:0.000336566 6:0.000366438 7:5.2139e-10 8:1 
1 1:3.92595e-06 2:4.1306e-06 3:4.49723e-06 4:0.000220448 5:0.000231939 6:0.000252525 7:2.17655e-10 8:1 
1 1:1.09516e-06 2:1.15226e-06 3:1.25449e-06 4:0.000117763 5:0.000123902 6:0.000134899 7:1.15255e-10 8:1 
1 1:2.05783e-06 2:2.16515e-06 3:2.35726e-06 4:0.000392313 5:0.000412763 6:0.000449397 7:1.4731e-09 8:1 
1 1:5.98084e-07 2:6.29283e-07 3:6.85133e-07 4:0.000277178 5:0.000291627 6:0.00031751 7:3.29788e-10 8:1 
1 1:3.20227e-06 2:3.36921e-06 3:3.66822e-06 4:0.000150811 5:0.000158672 6:0.000172755 7:1.31179e-10 8:1 
1 1:7.87273e-07 2:8.28368e-07 3:9.01869e-07 4:0.000346562 5:0.000364627 6:0.000396989 7:4.12593e-10 8:1 
1 1:9.69793e-06 2:1.02034e-05 3:1.1109e-05 4:0.000427712 5:0.000450007 6:0.000489947 7:1.23265e-09 8:1 
1 1:2.52885e-06 2:2.66061e-06 3:2.89676e-06 4:0.00048309 5:0.000508272 6:0.000553384 7:1.17196e-09 8:1 
1 1:1.09015e-05 2:1.14698e-05 3:1.24878e-05 4:0.000521533 5:0.000548719 6:0.00059742 7:1.10722e-09 8:1 
1 1:1.66739e-06 2:1.75435e-06 3:1.90994e-06 4:0.000582966 5:0.000613354 6:0.000667791 7:1.75208e-09 8:1 
1 1:2.2046e-05 2:2.31953e-05 3:2.5254e-05 4:0.000642237 5:0.000675715 6:0.000735687 7:2.44242e-09 8:1 
1 1:5.68185e-06 2:5.97804e-06 3:6.50861e-06 4:0.000699597 5:0.000736064 6:0.000801393 7:3.03609e-09 8:1 
1 1:2.28234e-05 2:2.4013e-05 3:2.61443e-05 4:0.000784017 5:0.000824885 6:0.000898097 7:4.2003e-09 8:1 
1 1:4.77675e-06 2:5.02577e-06 3:5.47178e-06 4:0.000846003 5:0.000890103 6:0.000969103 7:2.94783e-09 8:1 
1 1:5.00394e-06 2:5.26477e-06 3:5.73194e-06 4:0.000925334 5:0.000973569 6:0.00105998 7:4.96024e-09 8:1 
1 1:2.49554e-06 2:2.62557e-06 3:2.85881e-06 4:0.00100831 5:0.00106087 6:0.00115503 7:3.0726e-09 8:1 
1 1:5.77408e-06 2:6.07513e-06 3:6.61414e-06 4:0.00111215 5:0.00117012 6:0.00127397 7:3.2508e-09 8:1 
1 1:1.46516e-05 2:1.54154e-05 3:1.67837e-05 4:0.00120239 5:0.00126507 6:0.00137735 7:4.46514e-09 8:1 
1 1:3.06303e-07 2:3.22259e-07 3:3.50876e-07 4:0.000218839 5:0.000230246 6:0.000250681 7:1.97829e-10 8:1 
1 1:2.12872e-05 2:2.23969e-05 3:2.43846e-05 4:0.00132456 5:0.0013936 6:0.00151729 7:6.48514e-09 8:1 
1 1:5.33264e-06 2:5.61064e-06 3:6.10866e-06 4:0.00141775 5:0.00149165 6:0.00162404 7:7.15603e-09 8:1 
1 1:9.47688e-06 2:9.97083e-06 3:1.08558e-05 4:0.000281338 5:0.000296004 6:0.000322275 7:5.45693e-10 8:1 
1 1:3.96136e-05 2:4.16785e-05 3:4.53777e-05 4:0.00156856 5:0.00165033 6:0.0017968 7:1.19359e-08 8:1 
1 1:2.25208e-05 2:2.36947e-05 3:2.57976e-05 4:0.00164621 5:0.00173202 6:0.00188575 7:1.19542e-08 8:1 
1 1:6.00034e-07 2:6.31335e-07 3:6.87345e-07 4:0.000354997 5:0.000373502 6:0.000406651 7:5.18348e-10 8:1 
1 1:4.58433e-05 2:4.82328e-05 3:5.25138e-05 4:0.00185143 5:0.00194794 6:0.00212083 7:1.29061e-08 8:1 
1 1:4.303e-08 2:4.52856e-08 3:4.92728e-08 4:0.000435201 5:0.000457887 6:0.000498526 7:8.26588e-10 8:1 
1 1:1.09548e-06 2:1.15263e-06 3:1.25491e-06 4:0.000213268 5:0.000224384 6:0.000244299 7:2.73068e-10 8:1 
1 1:8.69302e-06 2:9.14611e-06 3:9.95793e-06 4:0.000539319 5:0.000567432 6:0.000617793 7:1.37223e-09 8:1 
1 1:2.14363e-06 2:2.25537e-06 3:2.45555e-06 4:0.000269125 5:0.000283154 6:0.000308285 7:3.56906e-10 8:1 
1 1:1.94186e-05 2:2.04308e-05 3:2.22442e-05 4:0.00138416 5:0.00145631 6:0.00158556 7:6.56051e-09 8:1 
1 1:1.10134e-05 2:1.15876e-05 3:1.26161e-05 4:0.00065203 5:0.000686018 6:0.000746905 7:1.94384e-09 8:1 
1 1:1.90102e-05 2:2.00012e-05 3:2.17765e-05 4:0.00166787 5:0.00175481 6:0.00191055 7:1.13744e-08 8:1 
1 1:4.83492e-06 2:5.087e-06 3:5.53849e-06 4:0.000336469 5:0.000354008 6:0.000385428 7:3.40059e-10 8:1 
1 1:2.02665e-06 2:2.13226e-06 3:2.32144e-06 4:0.000800418 5:0.000842141 6:0.000916884 7:3.27918e-09 8:1 
1 1:1.03685e-06 2:1.09086e-06 3:1.18767e-06 4:0.0002434 5:0.000256087 6:0.000278816 7:4.09155e-10 8:1 
1 1:9.35572e-07 2:9.8435e-07 3:1.07166e-06 4:0.000417575 5:0.000439342 6:0.000478336 7:9.10913e-10 8:1 
1 1:1.94911e-05 2:2.05069e-05 3:2.23271e-05 4:0.000973276 5:0.00102401 6:0.0011149 7:4.6093e-09 8:1 
1 1:1.59139e-05 2:1.67433e-05 3:1.82296e-05 4:0.00194 5:0.00204112 6:0.00222228 7:2.0603e-08 8:1 
1 1:3.62401e-06 2:3.81292e-06 3:4.15133e-06 4:0.000195698 5:0.000205899 6:0.000224173 7:0.0156121 8:1 
1 1:3.39649e-06 2:3.57357e-06 3:3.89076e-06 4:0.000313465 5:0.000329804 6:0.000359076 7:4.05612e-10 8:1 
1 1:3.67229e-06 2:3.86382e-06 3:4.20675e-06 4:0.000516177 5:0.000543084 6:0.000591285 7:1.23141e-09 8:1 
1 1:2.92785e-08 2:3.10247e-08 3:3.3644e-08 4:0.00115236 5:0.00121243 6:0.00132004 7:1.46404e-08 8:1 
1 1:8.96223e-07 2:9.42979e-07 3:1.02662e-06 4:0.000383984 5:0.000404 6:0.000439856 7:6.87958e-10 8:1 
1 1:1.32715e-05 2:1.39632e-05 3:1.52026e-05 4:0.000634427 5:0.000667497 6:0.00072674 7:2.89669e-09 8:1 
1 1:9.43619e-07 2:9.92848e-07 3:1.08097e-06 4:0.000460814 5:0.000484834 6:0.000527865 7:1.05525e-09 8:1 
1 1:1.54077e-05 2:1.62109e-05 3:1.76497e-05 4:0.000764268 5:0.000804106 6:0.000875474 7:2.07512e-09 8:1 
1 1:1.28772e-05 2:1.35486e-05 3:1.47509e-05 4:0.000573118 5:0.000602993 6:0.000656511 7:1.55716e-09 8:1 
1 1:3.31769e-06 2:3.49051e-06 3:3.80032e-06 4:0.000920176 5:0.000968142 6:0.00105407 7:2.70362e-09 8:1 
1 1:2.24213e-05 2:2.359e-05 3:2.56836e-05 4:0.000696913 5:0.000733241 6:0.000798319 7:1.53568e-09 8:1 
1 1:3.07453e-07 2:3.23576e-07 3:3.52215e-07 4:0.00109818 5:0.00115542 6:0.00125797 7:4.4469e-09 8:1 
1 1:5.25164e-06 2:5.52545e-06 3:6.01585e-06 4:0.000840919 5:0.000884753 6:0.000963278 7:2.98896e-09 8:1 
1 1:3.10678e-06 2:3.26859e-06 3:3.55893e-06 4:0.00133463 5:0.0014042 6:0.00152883 7:6.51682e-09 8:1 
1 1:3.73588e-05 2:3.93064e-05 3:4.27949e-05 4:0.00156532 5:0.00164691 6:0.00179308 7:3.39017e-08 8:1 
1 1:2.96708e-06 2:3.12185e-06 3:3.39898e-06 4:0.00100752 5:0.00106003 6:0.00115412 7:2.76205e-09 8:1 
1 1:1.04757e-05 2:1.10219e-05 3:1.20002e-05 4:0.00195411 5:0.00205597 6:0.00223844 7:1.27951e-08 8:1 
1 1:3.00771e-06 2:3.16463e-06 3:3.44525e-06 4:0.00117404 5:0.00123524 6:0.00134487 7:4.39067e-09 8:1 
1 1:5.67944e-06 2:5.97537e-06 3:6.50552e-06 4:0.00226531 5:0.0023834 6:0.00259493 7:1.82677e-08 8:1 
1 1:2.67201e-05 2:2.81128e-05 3:3.06079e-05 4:0.00143912 5:0.00151414 6:0.00164853 7:7.25484e-09 8:1 
1 1:1.67921e-05 2:1.76672e-05 3:1.92352e-05 4:0.0026493 5:0.0027874 6:0.00303479 7:3.38984e-08 8:1 
1 1:1.82474e-05 2:1.91983e-05 3:2.09025e-05 4:0.00167854 5:0.00176603 6:0.00192278 7:5.18052e-09 8:1 
1 1:8.74524e-06 2:9.20106e-06 3:1.00178e-05 4:0.00184706 5:0.00194334 6:0.00211581 7:1.29046e-08 8:1 
1 1:1.12996e-05 2:1.18888e-05 3:1.29435e-05 4:0.00215288 5:0.0022651 6:0.00246614 7:2.47998e-08 8:1 
1 1:2.15927e-06 2:2.27219e-06 3:2.47394e-06 4:0.00304088 5:0.00319939 6:0.00348335 7:4.60463e-08 8:1 
1 1:4.15297e-05 2:4.36943e-05 3:4.75728e-05 4:0.00254894 5:0.00268181 6:0.00291983 7:4.25465e-08 8:1 
1 1:4.78185e-05 2:5.03112e-05 3:5.47769e-05 4:0.00353202 5:0.00371613 6:0.00404595 7:6.80238e-08 8:1 
1 1:6.25646e-05 2:6.58259e-05 3:7.16688e-05 4:0.00404919 5:0.00426026 6:0.00463837 7:5.88067e-08 8:1 
1 1:3.53289e-05 2:3.71707e-05 3:4.04699e-05 4:0.00301891 5:0.00317628 6:0.00345819 7:3.04896e-08 8:1 
1 1:7.26082e-05 2:7.63931e-05 3:8.31734e-05 4:0.00472058 5:0.00496665 6:0.00540746 7:8.26667e-08 8:1 
1 1:2.60971e-05 2:2.74576e-05 3:2.98945e-05 4:0.00342912 5:0.00360787 6:0.00392808 7:2.90886e-08 8:1 
1 1:9.50976e-05 2:0.000100055 3:0.000108935 4:0.00530105 5:0.00557737 6:0.00607238 7:1.0145e-07 8:1 
1 1:5.6946e-05 2:5.99145e-05 3:6.52315e-05 4:0.00404962 5:0.00426071 6:0.00463887 7:3.12726e-08 8:1 
1 1:2.0266e-05 2:2.13222e-05 3:2.32147e-05 4:0.00228908 5:0.0024084 6:0.00262216 7:2.63305e-08 8:1 
1 1:0.000121658 2:0.000128 3:0.000139361 4:0.00608927 5:0.00640669 6:0.0069753 7:1.6798e-07 8:1 
1 1:0.000118072 2:0.000124227 3:0.000135252 4:0.00469311 5:0.00493775 6:0.005376 7:1.01675e-07 8:1 
1 1:7.14511e-06 2:7.51752e-06 3:8.18446e-06 4:0.00264112 5:0.0027788 6:0.00302543 7:1.54758e-08 8:1 
1 1:0.000162045 2:0.000170492 3:0.000185624 4:0.00685469 5:0.007212 6:0.0078521 7:1.00965e-07 8:1 
1 1:0.000131195 2:0.000138034 3:0.000150286 4:0.00529551 5:0.00557155 6:0.00606605 7:2.71668e-07 8:1 
1 1:9.39863e-05 2:9.88854e-05 3:0.000107662 4:0.00313441 5:0.00329779 6:0.00359049 7:3.91149e-08 8:1 
1 1:0.000109433 2:0.000115138 3:0.000125356 4:0.00780516 5:0.00821202 6:0.00894087 7:3.02567e-07 8:1 
1 1:2.43299e-05 2:2.55969e-05 3:2.78694e-05 4:0.0061403 5:0.00646037 6:0.00703375 7:1.78629e-07 8:1 
1 1:2.20767e-05 2:2.3227e-05 3:2.52887e-05 4:0.00363902 5:0.00382871 6:0.00416852 7:3.10467e-08 8:1 
1 1:3.20394e-05 2:3.37083e-05 3:3.67016e-05 4:0.0089366 5:0.00940243 6:0.0102369 7:3.48221e-07 8:1 
1 1:0.000128821 2:0.000135536 3:0.000147566 4:0.010139 5:0.0106675 6:0.0116143 7:4.70588e-07 8:1 
1 1:0.000191225 2:0.000201193 3:0.00021905 4:0.00707428 5:0.00744304 6:0.00810364 7:2.10464e-07 8:1 
1 1:2.88514e-05 2:3.03555e-05 3:3.30501e-05 4:0.00424218 5:0.00446331 6:0.00485944 7:7.70073e-08 8:1 
1 1:3.01911e-05 2:3.17642e-05 3:3.45828e-05 4:0.00796845 5:0.00838382 6:0.00912791 7:3.27303e-07 8:1 
1 1:0.000193427 2:0.00020351 3:0.000221572 4:0.00485981 5:0.00511314 6:0.00556695 7:1.13281e-07 8:1 
1 1:0.000102439 2:0.000107779 3:0.000117346 4:0.00902359 5:0.00949396 6:0.0103366 7:4.07775e-07 8:1 
1 1:5.90032e-05 2:6.20787e-05 3:6.75884e-05 4:0.0057972 5:0.00609939 6:0.00664073 7:1.12254e-07 8:1 
1 1:0.000205386 2:0.000216093 3:0.000235271 4:0.0104056 5:0.010948 6:0.0119197 7:5.38926e-07 8:1 
1 1:7.34157e-05 2:7.72423e-05 3:8.40982e-05 4:0.00660389 5:0.00694813 6:0.0075648 7:2.59694e-07 8:1 
1 1:0.000169179 2:0.000177998 3:0.000193797 4:0.00981626 5:0.0103279 6:0.0112446 7:4.03671e-07 8:1 
1 1:2.86652e-05 2:3.0159e-05 3:3.28361e-05 4:0.00749966 5:0.00789059 6:0.00859091 7:3.25558e-07 8:1 
1 1:0.000207801 2:0.000218634 3:0.000238039 4:0.0118288 5:0.0124453 6:0.0135499 7:8.06846e-07 8:1 
1 1:0.000402642 2:0.000423632 3:0.000461231 4:0.0111826 5:0.0117655 6:0.0128098 7:6.57295e-07 8:1 
1 1:4.33373e-05 2:4.55965e-05 3:4.96435e-05 4:0.00221506 5:0.00233052 6:0.00253737 7:1.33572e-08 8:1 
1 1:2.87732e-06 2:3.02587e-06 3:3.29409e-06 4:0.0126412 5:0.0133002 6:0.0144806 7:6.494e-07 8:1 
1 1:0.000146252 2:0.000153875 3:0.000167532 4:0.00862197 5:0.0090714 6:0.00987653 7:5.17784e-07 8:1 
1 1:2.25671e-06 2:2.37429e-06 3:2.585e-06 4:0.00259493 5:0.00273019 6:0.00297251 7:2.57079e-08 8:1 
1 1:7.51752e-06 2:7.90902e-06 3:8.61136e-06 4:0.0020025 5:0.00210688 6:0.00229387 7:1.47528e-08 8:1 
1 1:5.40393e-05 2:5.68565e-05 3:6.19025e-05 4:0.0030434 5:0.00320204 6:0.00348624 7:3.63139e-08 8:1 
1 1:9.9407e-07 2:1.04611e-06 3:1.13889e-06 4:0.0023703 5:0.00249386 6:0.0027152 7:8.61255e-08 8:1 
1 1:6.06454e-06 2:6.38096e-06 3:6.94767e-06 4:0.00356484 5:0.00375067 6:0.00408355 7:3.0819e-08 8:1 
1 1:4.77723e-05 2:5.02624e-05 3:5.47235e-05 4:0.00270012 5:0.00284087 6:0.00309301 7:2.05796e-08 8:1 
1 1:3.97963e-05 2:4.18711e-05 3:4.55878e-05 4:0.00413096 5:0.00434629 6:0.00473204 7:6.75076e-08 8:1 
1 1:2.37487e-06 2:2.49897e-06 3:2.72063e-06 4:0.00316653 5:0.00333159 6:0.00362728 7:3.8558e-08 8:1 
1 1:5.28554e-05 2:5.56107e-05 3:6.05464e-05 4:0.004838 5:0.00509019 6:0.00554196 7:8.22016e-08 8:1 
1 1:5.19849e-05 2:5.46947e-05 3:5.95492e-05 4:0.00370651 5:0.00389972 6:0.00424584 7:6.51179e-08 8:1 
1 1:8.35897e-05 2:8.79467e-05 3:9.57521e-05 4:0.00548507 5:0.00577099 6:0.00628318 7:1.38587e-07 8:1 
1 1:0.000182604 2:0.000192122 3:0.000209174 4:0.00440264 5:0.00463213 6:0.00504325 7:7.63145e-08 8:1 
1 1:9.7512e-05 2:0.000102595 3:0.0001117 4:0.00654536 5:0.00688655 6:0.00749776 7:3.11628e-07 8:1 
1 1:0.000128052 2:0.000134726 3:0.000146683 4:0.00494152 5:0.0051991 6:0.00566055 7:6.97674e-08 8:1 
1 1:0.000123217 2:0.000129639 3:0.000141147 4:0.00740056 5:0.00778632 6:0.00847739 7:3.60868e-07 8:1 
1 1:8.02476e-05 2:8.44304e-05 3:9.19243e-05 4:0.00575181 5:0.00605164 6:0.00658874 7:1.38519e-07 8:1 
1 1:6.1118e-06 2:6.42845e-06 3:6.99982e-06 4:0.00838705 5:0.00882424 6:0.00960743 7:2.68453e-07 8:1 
1 1:2.01848e-05 2:2.12374e-05 3:2.31217e-05 4:0.00667229 5:0.0070201 6:0.00764316 7:1.6248e-07 8:1 
1 1:0.000254379 2:0.000267638 3:0.000291392 4:0.00963634 5:0.0101387 6:0.0110385 7:4.40668e-07 8:1 
1 1:2.52838e-05 2:2.66018e-05 3:2.89632e-05 4:0.00755515 5:0.00794898 6:0.00865448 7:2.26285e-07 8:1 
1 1:8.27424e-05 2:8.70568e-05 3:9.4784e-05 4:0.0110795 5:0.011657 6:0.0126916 7:1.11793e-06 8:1 
1 1:3.78108e-05 2:3.97814e-05 3:4.33126e-05 4:0.0113447 5:0.0119361 6:0.0129955 7:6.04962e-07 8:1 
1 1:0.000166191 2:0.000174853 3:0.000190372 4:0.00886817 5:0.00933044 6:0.0101586 7:3.04154e-07 8:1 
1 1:5.95637e-05 2:6.26687e-05 3:6.8231e-05 4:0.0127947 5:0.0134617 6:0.0146564 7:8.05596e-07 8:1 
1 1:0.000221019 2:0.000232541 3:0.000253179 4:0.012863 5:0.0135335 6:0.0147347 7:5.24964e-07 8:1 
1 1:0.000118191 2:0.000124351 3:0.000135388 4:0.0102037 5:0.0107355 6:0.0116884 7:3.93268e-07 8:1 
1 1:5.8542e-05 2:6.15939e-05 3:6.70599e-05 4:0.0144711 5:0.0152254 6:0.0165767 7:1.43168e-06 8:1 
1 1:9.96888e-06 2:1.0489e-05 3:1.14194e-05 4:0.0115481 5:0.0121501 6:0.0132285 7:7.85765e-07 8:1 
1 1:5.6711e-05 2:5.96698e-05 3:6.49625e-05 4:0.0160325 5:0.0168682 6:0.0183653 7:2.08965e-06 8:1 
1 1:0.000605542 2:0.000637107 3:0.000693653 4:0.0135455 5:0.0142515 6:0.0155164 7:1.07424e-06 8:1 
1 1:0.000447738 2:0.000471077 3:0.000512889 4:0.0149899 5:0.0157713 6:0.0171711 7:1.26769e-06 8:1 
1 1:0.000908613 2:0.000955976 3:0.00104082 4:0.0171127 5:0.0180047 6:0.0196027 7:1.33915e-06 8:1 
1 1:0.000159128 2:0.000167422 3:0.000182281 4:0.0189834 5:0.0199729 6:0.0217456 7:2.65496e-06 8:1 
1 1:8.27815e-05 2:8.70991e-05 3:9.48282e-05 4:0.0148539 5:0.0156282 6:0.0170153 7:1.44369e-06 8:1 
1 1:0.000552333 2:0.000581123 3:0.000632697 4:0.0167618 5:0.0176356 6:0.0192008 7:1.36878e-06 8:1 
1 1:8.22656e-05 2:8.65515e-05 3:9.4234e-05 4:0.0219741 5:0.0231196 6:0.0251715 7:2.03728e-06 8:1 
1 1:0.000164144 2:0.0001727 3:0.000188026 4:0.0190596 5:0.0200531 6:0.0218329 7:2.12641e-06 8:1 
1 1:8.09217e-05 2:8.51396e-05 3:9.26955e-05 4:0.0246638 5:0.0259494 6:0.0282525 7:3.61791e-06 8:1 
1 1:0.000136049 2:0.00014314 3:0.000155848 4:0.0215625 5:0.0226865 6:0.0247 7:2.8182e-06 8:1 
1 1:0.000883615 2:0.000929675 3:0.00101219 4:0.0270882 5:0.0285002 6:0.0310298 7:5.41663e-06 8:1 
1 1:0.000785676 2:0.000826631 3:0.000899997 4:0.0242713 5:0.0255365 6:0.027803 7:3.56092e-06 8:1 
1 1:0.000451597 2:0.000475141 3:0.000517307 4:0.026884 5:0.0282853 6:0.0307958 7:5.16049e-06 8:1 
1 1:0.000354579 2:0.000373064 3:0.000406172 4:0.0306444 5:0.0322418 6:0.0351034 7:6.22603e-06 8:1 
1 1:0.00178273 2:0.00187566 3:0.00204214 4:0.0303554 5:0.0319378 6:0.0347724 7:4.56941e-06 8:1 
1 1:0.000633126 2:0.000666132 3:0.000725251 4:0.034575 5:0.0363773 6:0.0396059 7:8.41665e-06 8:1 
1 1:0.000363208 2:0.000382146 3:0.000416063 4:0.0345609 5:0.0363624 6:0.0395897 7:1.13964e-05 8:1 
1 1:0.000385692 2:0.000405796 3:0.000441812 4:0.0383469 5:0.0403458 6:0.0439267 7:1.12364e-05 8:1 
1 1:0.00202198 2:0.00212738 3:0.0023162 4:0.0392341 5:0.0412792 6:0.0449429 7:1.87183e-05 8:1 
1 1:0.000240225 2:0.00025275 3:0.00027518 4:0.0426226 5:0.0448443 6:0.0488245 7:1.66741e-05 8:1 
1 1:0.00137855 2:0.0014504 3:0.00157914 4:0.0466107 5:0.0490404 6:0.0533929 7:1.49911e-05 8:1 
1 1:0.000147726 2:0.000155427 3:0.000169221 4:0.0432563 5:0.0455111 6:0.0495504 7:2.49751e-05 8:1 
1 1:0.000556928 2:0.000585958 3:0.000637965 4:0.0145201 5:0.015277 6:0.0166329 7:8.99502e-07 8:1 
1 1:0.0004097 2:0.000431061 3:0.000469314 4:0.0485557 5:0.0510867 6:0.0556209 7:2.46275e-05 8:1 
1 1:0.000278873 2:0.000293411 3:0.000319452 4:0.0167289 5:0.017601 6:0.0191631 7:1.34014e-06 8:1 
1 1:0.00301636 2:0.00317359 3:0.00345526 4:0.0536202 5:0.0564153 6:0.0614224 7:2.162e-05 8:1 
1 1:0.000360345 2:0.000379126 3:0.000412776 4:0.012912 5:0.013585 6:0.0147907 7:0.182464 8:1 
1 1:0.000634116 2:0.00066717 3:0.000726383 4:0.0187118 5:0.0196872 6:0.0214345 7:2.68884e-06 8:1 
1 1:7.60606e-05 2:8.00239e-05 3:8.71271e-05 4:0.0150085 5:0.0157909 6:0.0171924 7:2.00861e-06 8:1 
1 1:0.000196831 2:0.000207092 3:0.000225473 4:0.0211849 5:0.0222892 6:0.0242674 7:1.59566e-06 8:1 
1 1:0.000320394 2:0.00033709 3:0.000367009 4:0.0173749 5:0.0182805 6:0.019903 7:1.9853e-06 8:1 
1 1:0.000170819 2:0.000179726 3:0.000195675 4:0.0237632 5:0.0250019 6:0.0272209 7:2.42265e-06 8:1 
1 1:0.00094989 2:0.000999404 3:0.00108811 4:0.0270624 5:0.028473 6:0.0310001 7:5.16446e-06 8:1 
1 1:2.02358e-05 2:2.12928e-05 3:2.31806e-05 4:0.0191602 5:0.020159 6:0.0219482 7:1.69086e-06 8:1 
1 1:0.000740692 2:0.000779303 3:0.000848467 4:0.0216975 5:0.0228286 6:0.0248547 7:2.98557e-06 8:1 
1 1:0.000622043 2:0.000654469 3:0.000712555 4:0.0304034 5:0.0319882 6:0.0348273 7:4.40823e-06 8:1 
1 1:0.000167333 2:0.000176063 3:0.000191683 4:0.0347132 5:0.0365227 6:0.0397642 7:1.15322e-05 8:1 
1 1:0.000315328 2:0.000331763 3:0.00036121 4:0.0254112 5:0.0267358 6:0.0291087 7:2.31329e-06 8:1 
1 1:0.000494517 2:0.000520293 3:0.000566473 4:0.038802 5:0.0408246 6:0.044448 7:1.10947e-05 8:1 
1 1:0.000223001 2:0.000234623 3:0.00025545 4:0.0276268 5:0.0290669 6:0.0316467 7:4.08748e-06 8:1 
1 1:0.00175253 2:0.00184388 3:0.00200753 4:0.0435666 5:0.0458376 6:0.0499058 7:2.033e-05 8:1 
1 1:0.000245102 2:0.000257876 3:0.000280762 4:0.0314685 5:0.0331088 6:0.0360474 7:8.06787e-06 8:1 
1 1:0.00119972 2:0.00126226 3:0.00137429 4:0.0493542 5:0.0519268 6:0.0565355 7:3.25496e-05 8:1 
1 1:0.000111109 2:0.000116909 3:0.00012728 4:0.0341519 5:0.0359321 6:0.0391212 7:3.12683e-06 8:1 
1 1:0.00062036 2:0.000652693 3:0.000710623 4:0.0536954 5:0.0564943 6:0.0615084 7:2.19313e-05 8:1 
1 1:0.000312028 2:0.000328292 3:0.000357429 4:0.0162146 5:0.0170599 6:0.018574 7:1.04899e-06 8:1 
1 1:0.000589864 2:0.000620615 3:0.000675691 4:0.0399939 5:0.0420787 6:0.0458133 7:9.95206e-06 8:1 
1 1:0.000183371 2:0.000192929 3:0.000210052 4:0.0182654 5:0.0192175 6:0.0209231 7:2.46001e-06 8:1 
1 1:0.000456667 2:0.000480479 3:0.000523122 4:0.0447782 5:0.0471124 6:0.0512938 7:8.35522e-06 8:1 
1 1:0.0001508 2:0.000158664 3:0.000172746 4:0.0204357 5:0.0215009 6:0.0234092 7:2.35388e-06 8:1 
1 1:0.00203294 2:0.00213891 3:0.00232875 4:0.0490727 5:0.0516307 6:0.0562132 7:1.02286e-05 8:1 
1 1:0.000194954 2:0.000205122 3:0.000223318 4:0.0517234 5:0.0544195 6:0.0592495 7:1.34077e-05 8:1 
1 1:0.000309009 2:0.000325115 3:0.000353971 4:0.0231781 5:0.0243863 6:0.0265506 7:3.07108e-06 8:1 
1 1:0.00144734 2:0.00152279 3:0.00165793 4:0.0580178 5:0.0610421 6:0.0664598 7:2.06689e-05 8:1 
1 1:0.00151069 2:0.00158943 3:0.0017305 4:0.0612644 5:0.064458 6:0.0701789 7:2.93497e-05 8:1 
1 1:0.00130584 2:0.00137391 3:0.00149585 4:0.0259214 5:0.0272726 6:0.0296931 7:3.13959e-06 8:1 
1 1:0.000678755 2:0.000714123 3:0.000777505 4:0.0632638 5:0.0665615 6:0.0724691 7:2.70144e-05 8:1 
1 1:0.00111365 2:0.00117171 3:0.0012757 4:0.0295408 5:0.0310807 6:0.0338392 7:6.77974e-06 8:1 
1 1:0.001258 2:0.00132357 3:0.00144104 4:0.0690816 5:0.0726825 6:0.0791334 7:3.73083e-05 8:1 
1 1:0.00162046 2:0.00170493 3:0.00185626 4:0.0706606 5:0.0743438 6:0.0809422 7:4.05889e-05 8:1 
1 1:0.000703752 2:0.000740431 3:0.000806149 4:0.0792198 5:0.0833493 6:0.0907469 7:5.99636e-05 8:1 
1 1:5.58924e-05 2:5.87981e-05 3:6.40228e-05 4:0.0325538 5:0.0342507 6:0.0372906 7:7.17611e-06 8:1 
1 1:0.00334652 2:0.00352097 3:0.00383347 4:0.0756336 5:0.0795761 6:0.0866388 7:5.88166e-05 8:1 
1 1:0.00311483 2:0.00327718 3:0.00356805 4:0.0876058 5:0.0921724 6:0.100353 7:8.03186e-05 8:1 
1 1:0.000236578 2:0.000248913 3:0.000271004 4:0.0377672 5:0.0397358 6:0.0432626 7:8.20411e-06 8:1 
1 1:0.00250401 2:0.00263453 3:0.00286836 4:0.0846661 5:0.0890794 6:0.0969856 7:7.78907e-05 8:1 
1 1:0.0031008 2:0.00326244 3:0.00355199 4:0.0973583 5:0.102433 6:0.111525 7:8.47943e-05 8:1 
1 1:0.00189101 2:0.00198958 3:0.00216617 4:0.0419954 5:0.0441845 6:0.048106 7:1.26178e-05 8:1 
1 1:0.00473515 2:0.00498196 3:0.00542413 4:0.094692 5:0.099628 6:0.10847 7:9.8177e-05 8:1 
1 1:0.0030932 2:0.00325444 3:0.00354327 4:0.105591 5:0.111095 6:0.120956 7:0.000102194 8:1 
1 1:0.000137649 2:0.000144832 3:0.000157688 4:0.102706 5:0.10806 6:0.117651 7:0.000109955 8:1 
1 1:0.00110498 2:0.00116261 3:0.00126579 4:0.118342 5:0.12451 6:0.135561 7:0.000203395 8:1 
1 1:0.000562042 2:0.000591338 3:0.000643827 4:0.11491 5:0.1209 6:0.13163 7:0.000147631 8:1 
1 1:0.000718243 2:0.000755712 3:0.000822775 4:0.123886 5:0.130344 6:0.141913 7:0.000128987 8:1 
1 1:0.000976764 2:0.00102766 3:0.00111888 4:0.12824 5:0.134925 6:0.1469 7:0.000124934 8:1 
1 1:0.00589453 2:0.0062018 3:0.00675224 4:0.142702 5:0.15014 6:0.163466 7:0.000188657 8:1 
1 1:0.00544036 2:0.00572396 3:0.00623198 4:0.138302 5:0.145511 6:0.158425 7:0.000171401 8:1 
0.02323968820369193 1:6.78992 2:7.14385 3:7.7779 4:14.9457 5:15.7248 6:17.1204 7:225.431 
1 1:0.00317 2:0.00333524 3:0.00363125 4:0.156462 5:0.164618 6:0.179229 7:0.00014793 8:1 
1 1:0.00398264 2:0.00419024 3:0.00456214 4:0.0624319 5:0.0656863 6:0.0715162 7:4.09046e-05 8:1 
0.004058222535668954 1:2.51543 2:2.64655 3:2.88144 4:21.5666 5:22.6908 6:24.7047 7:25.9609 8:1 
1 1:0.000176243 2:0.00018546 3:0.000201903 4:0.16422 5:0.17278 6:0.188115 7:0.000337742 8:1 
1 1:0.00257964 2:0.0027141 3:0.002955 4:0.0691218 5:0.0727248 6:0.0791795 7:3.77215e-05 8:1 
0.02263077584488765 1:4.0684 2:4.28047 3:4.66038 4:7.61861 5:8.01575 6:8.72718 7:118.478 
1 1:0.00140075 2:0.00147377 3:0.00160458 4:0.0763454 5:0.080325 6:0.0874542 7:4.24635e-05 8:1 
1 1:0.0155079 2:0.0163162 3:0.0177644 4:0.207738 5:0.218567 6:0.237965 7:0.00108147 8:1 
1 1:0.00350079 2:0.00368328 3:0.00401019 4:0.0896055 5:0.0942764 6:0.102644 7:6.60814e-05 8:1 
1 1:0.00153884 2:0.00161906 3:0.00176275 4:0.0559294 5:0.0588448 6:0.0640675 7:2.83489e-05 8:1 
1 1:0.00429963 2:0.00452375 3:0.00492525 4:0.097358 5:0.102433 6:0.111524 7:0.000110633 8:1 
1 1:0.00292381 2:0.00307622 3:0.00334925 4:0.0639317 5:0.0672642 6:0.0732342 7:5.13556e-05 8:1 
1 1:0.00256144 2:0.00269495 3:0.00293415 4:0.10587 5:0.111389 6:0.121275 7:0.0001291 8:1 
0.02251460626739615 1:3.31438 2:3.48715 3:3.79665 4:9.20836 5:9.68836 6:10.5482 7:114.71 
1 1:0.000728026 2:0.000765976 3:0.000833951 4:0.0724982 5:0.0762773 6:0.0830472 7:5.5609e-05 8:1 
1 1:0.00375142 2:0.00394696 3:0.00429729 4:0.0814898 5:0.0857375 6:0.0933471 7:6.18879e-05 8:1 
0.01084957123009034 1:2.81613 2:2.96293 3:3.2259 4:26.715 5:28.1076 6:30.6022 7:20.9319 8:1 
1 1:0.000998694 2:0.00105076 3:0.00114402 4:0.0887136 5:0.0933379 6:0.101622 7:7.93198e-05 8:1 
1 1:0.000854716 2:0.000899274 3:0.000979081 4:0.0962531 5:0.10127 6:0.110259 7:4.27911e-05 8:1 
0.009846138239170811 1:1.63059 2:1.71558 3:1.86785 4:29.1273 5:30.6456 6:33.3655 7:16.2333 8:1 
1 1:0.00124442 2:0.00130928 3:0.00142549 4:0.045848 5:0.0482379 6:0.0525193 7:1.44864e-05 8:1 
1 1:0.00176972 2:0.00186196 3:0.00202724 4:0.109831 5:0.115556 6:0.125812 7:0.000110564 8:1 
1 1:0.000766467 2:0.000806417 3:0.000877995 4:0.0508556 5:0.0535065 6:0.0582554 7:1.60261e-05 8:1 
1 1:0.00847375 2:0.00891545 3:0.00970674 4:0.12135 5:0.127676 6:0.139007 7:0.000132764 8:1 
1 1:0.000375308 2:0.000394877 3:0.000429928 4:0.0715317 5:0.0752604 6:0.08194 7:3.92121e-05 8:1 
1 1:0.00352176 2:0.00370534 3:0.0040342 4:0.0580719 5:0.061099 6:0.0665218 7:2.62472e-05 8:1 
1 1:0.00828961 2:0.00872172 3:0.00949579 4:0.136143 5:0.143239 6:0.155952 7:0.000231129 8:1 
1 1:0.00127991 2:0.00134663 3:0.00146616 4:0.0822007 5:0.0864855 6:0.0941615 7:6.45833e-05 8:1 
1 1:0.00556671 2:0.0058569 3:0.00637671 4:0.156374 5:0.164525 6:0.179127 7:0.000254578 8:1 
1 1:0.00421177 2:0.00443131 3:0.0048246 4:0.0647122 5:0.0680855 6:0.0741283 7:7.31302e-05 8:1 
1 1:0.00420092 2:0.00441989 3:0.00481219 4:0.0908977 5:0.0956359 6:0.104124 7:8.81257e-05 8:1 
1 1:0.00105351 2:0.00110842 3:0.00120682 4:0.16943 5:0.178262 6:0.194083 7:0.000364125 8:1 
1 1:0.00925388 2:0.00973627 3:0.0106004 4:0.10067 5:0.105917 6:0.115318 7:8.88541e-05 
1 1:0.00891573 2:0.00938047 3:0.010213 4:0.185399 5:0.195063 6:0.212376 7:0.000299949 8:1 
1 1:0.00338998 2:0.00356668 3:0.00388326 4:0.184925 5:0.194565 6:0.211833 7:0.000431656 8:1 
1 1:0.00343851 2:0.00361773 3:0.00393882 4:0.109081 5:0.114767 6:0.124953 7:0.000170288 
1 1:0.00513429 2:0.00540193 3:0.00588136 4:0.205907 5:0.21664 6:0.235868 7:0.000598072 8:1 
1 1:0.0127778 2:0.0134439 3:0.0146371 4:0.207693 5:0.218519 6:0.237914 7:0.000465981 8:1 
1 1:0.00889189 2:0.0093554 3:0.0101857 4:0.122781 5:0.129181 6:0.140646 7:0.000275311 
1 1:0.00246605 2:0.0025946 3:0.00282488 4:0.221462 5:0.233006 6:0.253686 7:0.000709931 8:1 
1 1:0.00135057 2:0.00142097 3:0.00154707 4:0.141704 5:0.149091 6:0.162323 7:0.000203753 
1 1:0.0111058 2:0.0116847 3:0.0127218 4:0.227674 5:0.239541 6:0.260802 7:0.000724331 8:1 
1 1:0.000236839 2:0.000249162 3:0.000271276 4:0.153336 5:0.161329 6:0.175647 7:0.000294043 
1 1:0.000295445 2:0.000310808 3:0.000338413 4:0.1722 5:0.181176 6:0.197256 7:0.000395309 
0.01723324389436193 1:0.023735 2:0.0249729 3:0.0271912 4:32.0796 5:33.7518 6:36.7474 7:1.93367 
0.009367342737604558 1:0.958001 2:1.00794 3:1.0974 4:31.4465 5:33.0857 6:36.0222 7:5.90215 
0.004691573636686043 1:0.788725 2:0.829838 3:0.903488 4:30.4417 5:32.0285 6:34.8712 7:8.94705 8:1 
0.01589932848398407 1:0.0114412 2:0.0120373 3:0.0131054 4:29.2066 5:30.729 6:33.4564 7:17.1306 8:1 
0.01014087061674995 1:1.55273 2:1.63367 3:1.77867 4:28.1676 5:29.6359 6:32.2662 7:19.114 8:1 
0.02342784669271012 1:1.89586 2:1.99469 3:2.17172 4:7.87518 5:8.28568 6:9.02107 7:147.08 
0.01540498347026706 1:0.843781 2:0.887765 3:0.966558 4:25.6302 5:26.9663 6:29.3596 7:18.3774 8:1 
0.0002064367421894503 1:1.23877 2:1.30335 3:1.41903 4:22.9673 5:24.1645 6:26.3092 7:26.6045 8:1 
0.01198252876676287 1:0.0230742 2:0.0242777 3:0.026432 4:24.784 5:26.076 6:28.3903 7:25.1719 8:1 
0.001848025756426899 1:1.90044 2:1.9995 3:2.17697 4:22.7755 5:23.9627 6:26.0895 7:27.9684 8:1 
0.006783828923710961 1:0.927702 2:0.976057 3:1.06269 4:24.6537 5:25.9389 6:28.241 7:27.0294 8:1 
0.005497718283811039 1:1.84436 2:1.94051 3:2.11273 4:23.9713 5:25.2208 6:27.4593 7:21.8315 8:1 
0.02340389908884244 1:4.52844 2:4.76449 3:5.18736 4:4.91581 5:5.17206 6:5.6311 7:100.076 
1 1:0.00484791 2:0.00510063 3:0.00555333 4:0.187365 5:0.197132 6:0.214628 7:0.000410274 
0.01932733854672941 1:0.212898 2:0.223994 3:0.243876 4:13.6167 5:14.3265 6:15.598 7:156.486 
1 1:0.0174129 2:0.0183205 3:0.0199465 4:0.207628 5:0.21845 6:0.237839 7:0.000499051 8:1 
1 1:0.00541118 2:0.00569326 3:0.00619856 4:0.240514 5:0.253052 6:0.275511 7:0.00025859 
0.00120842922035203 1:2.65451 2:2.79288 3:3.04076 4:5.62635 5:5.91963 6:6.44502 7:11.9342 8:1 
0.009156787153301427 1:2.8834 2:3.0337 3:3.30296 4:6.33964 5:6.6701 6:7.2621 7:9.24744 8:1 
0.002867741874305627 1:0.0864598 2:0.0909667 3:0.0990405 4:3.94171 5:4.14717 6:4.51525 7:17.1223 8:1 
0.01818759739541193 1:0.0135776 2:0.0142858 3:0.0155535 4:3.32471 5:3.49801 6:3.80848 7:25.3868 8:1 
0.01014680771561448 1:2.26625 2:2.38438 3:2.596 4:2.34522 5:2.46747 6:2.68647 7:15.3893 8:1 
0.008386311080165465 1:1.21163 2:1.27479 3:1.38794 4:1.82875 5:1.92408 6:2.09485 7:19.1776 8:1 
0.01750406066781757 1:3.16457 2:3.32952 3:3.62503 4:1.58228 5:1.66476 6:1.81252 7:12.0268 8:1 
0.003967972688980081 1:0.0723017 2:0.076071 3:0.0828221 4:3.81135 5:4.01003 6:4.36593 7:15.3751 8:1 
0.9457572542919036 1:0.111092 2:0.116883 3:0.127257 4:1.01571 5:1.06865 6:1.1635 7:5.98038 8:1 
1 8:1 
0.1480458340391665 1:1.21235 2:1.27554 3:1.38875 4:0.606174 5:0.637772 6:0.694377 7:6.1013 8:1 
1 8:1 
1 8:1 
0.003765002685347931 1:0.96078 2:1.01086 3:1.10058 4:5.71567 5:6.0136 6:6.54734 7:0.642974 8:1 
0.008101939092905186 1:0.217432 2:0.228766 3:0.249071 4:7.55217 5:7.94584 6:8.65107 7:4.57365 8:1 
0.01217087807589245 1:3.0773 2:3.23771 3:3.52507 4:5.343 5:5.62151 6:6.12044 7:12.8296 8:1 
0.007438098492388572 1:1.93879 2:2.03985 3:2.2209 4:5.99293 5:6.30532 6:6.86494 7:14.794 8:1 
0.007151227303648754 1:0.208036 2:0.21888 3:0.238307 4:5.10013 5:5.36598 6:5.84223 7:15.2629 8:1 
0.01659141036203465 1:3.35522 2:3.53012 3:3.84343 4:2.63643 5:2.77386 6:3.02005 7:26.5257 8:1 
0.007525216539579698 1:0.24074 2:0.253288 3:0.275769 4:6.42721 5:6.76224 6:7.36241 7:13.9245 8:1 
0.01193337562737196 1:2.45793 2:2.58605 3:2.81558 4:6.68196 5:7.03026 6:7.65423 7:5.98523 8:1 
1 8:1 
1 8:1 
0.01390121341797002 1:2.19182 2:2.30607 3:2.51075 4:4.58682 5:4.82592 6:5.25424 7:22.2899 8:1 
1 8:1 
1 8:1 
1 8:1 
1 8:1 
1 8:1 
0.007138269006008341 1:2.36918 2:2.49268 3:2.71392 4:1.18459 5:1.24634 6:1.35696 7:13.6578 8:1 
0.001504609624785135 1:0.00143957 2:0.00151491 3:0.00164938 4:2.25514 5:2.3727 6:2.58328 7:16.8953 8:1 
0.1074340949134606 7:10.2122 8:1 
0.01294959061979889 1:0.326195 2:0.343198 3:0.373659 4:5.04484 5:5.30781 6:5.7789 7:20.5037 8:1 
1 8:1 
0.01161091211611758 1:0.0522721 2:0.0549967 3:0.0598781 4:1.21935 5:1.28291 6:1.39678 7:14.9524 8:1 
1 8:1 
0.005543049193315802 1:0.0821693 2:0.0864525 3:0.0941255 4:2.38242 5:2.50661 6:2.72908 7:21.6169 8:1 
1 8:1 
0.00497132265023969 1:1.06527 2:1.1208 3:1.22028 4:4.02114 5:4.23075 6:4.60624 7:23.0249 8:1 
0.002313757872930006 1:3.32431 2:3.4976 3:3.80802 4:2.87496 5:3.02482 6:3.29329 7:20.0645 8:1 
0.0103072085691827 1:1.82345 2:1.9185 3:2.08877 4:4.04612 5:4.25703 6:4.63485 7:11.3831 8:1 
0.003310590074089889 1:0.0617399 2:0.0649586 3:0.0707242 4:5.04008 5:5.3028 6:5.77345 7:12.2918 8:1 
0.0009157274702813467 1:0.200793 2:0.211259 3:0.230009 4:4.33242 5:4.55826 6:4.96282 7:20.7849 8:1 
0.01726479853139438 1:4.104 2:4.31793 3:4.70116 4:3.93014 5:4.135 6:4.502 7:19.3678 8:1 
0.01141592007351939 1:3.17336 2:3.33878 3:3.63511 4:4.15407 5:4.3706 6:4.75851 7:15.6946 8:1 
0.008492804539391123 1:0.0707364 2:0.0744238 3:0.0810291 4:3.32872 5:3.50224 6:3.81308 7:12.9391 8:1 
0.001861854338090621 1:2.51898 2:2.65029 3:2.88551 4:3.86571 5:4.06722 6:4.4282 7:13.8232 8:1 
0.01330022451533339 1:3.04457 2:3.20327 3:3.48757 4:5.29057 5:5.56634 6:6.06038 7:7.69207 8:1 
