svm_type c_svc
kernel_type rbf
gamma 0.125
nr_class 2
total_sv 2274
rho -0.982111
label 1 0
nr_sv 1673 601
SV
0.00599883589217487 1:0.741659 2:0.763956 3:0.770961 4:11.1785 5:11.5226 6:11.681 7:44.1082 8:1 
0.01058008564249818 1:0.045156 2:0.0527837 3:0.0586574 4:11.604 5:11.947 6:12.0718 7:44.9514 8:1 
0.01125425435325189 1:0.114328 2:0.122622 3:0.100133 4:13.7014 5:14.1133 6:14.2778 7:37.6242 8:1 
0.005853242127108385 1:0.0725594 2:0.0806028 3:0.0572544 4:15.1334 5:15.5947 6:15.7779 7:14.1112 8:1 
0.0163740622487489 1:0.69259 2:0.723438 3:0.713772 4:5.70676 5:5.7973 6:5.40361 7:31.7661 8:1 
0.0129871511796476 1:0.800825 2:0.824479 3:0.841111 4:8.70474 5:8.88235 6:8.6083 7:44.5435 8:1 
0.004198469269891478 1:0.286802 2:0.28917 3:0.335465 4:14.9438 5:15.4183 6:15.6923 7:20.6878 8:1 
0.006608080067812129 1:0.290261 2:0.303007 3:0.356957 4:10.846 5:11.083 6:10.8921 7:34.9017 8:1 
1 1:0.00564474 2:0.00721787 3:0.00372798 4:0.147463 5:0.136734 6:0.0720394 7:0.0564945 8:1 
0.008267430449492392 1:0.184638 2:0.189435 3:0.200461 4:12.3377 5:12.6321 6:12.4949 7:19.6558 8:1 
1 1:0.000306207 2:0.000903333 3:0.00034789 4:0.0359572 5:0.0319536 6:0.00981668 7:0.154153 8:1 
0.001538217073163198 1:0.095836 2:0.108859 3:0.102001 4:11.9944 5:12.3631 6:12.6088 7:16.0126 8:1 
0.005051488522227143 1:0.327007 2:0.335244 3:0.369872 4:12.7476 5:13.0755 6:12.8921 7:12.4391 8:1 
0.003239493863571507 1:0.0699853 2:0.071057 3:0.0606743 4:11.4902 5:11.7856 6:11.4961 7:9.01259 8:1 
0.0069107306346326 1:0.0798379 2:0.0923749 3:0.0924145 4:9.17674 5:9.46981 6:9.63429 7:44.989 8:1 
1 1:0.00153593 2:0.00115536 3:0.000248313 4:0.00757413 5:0.00645628 6:0.00125427 7:0.000467909 8:1 
0.002488340479491848 1:0.0183628 2:0.0140879 3:0.025051 4:4.63984 5:4.72093 6:5.04742 7:0.198293 8:1 
0.008184741506347622 1:0.0788807 2:0.0797424 3:0.105335 4:14.9825 5:15.3802 6:15.9198 7:1.22124 8:1 
0.002156806516136167 1:0.121368 2:0.132707 3:0.128461 4:14.0271 5:14.4295 6:15.0438 7:1.46464 8:1 
0.002769495112846343 1:0.0206404 2:0.0206047 3:0.0201677 4:12.675 5:13.0148 6:13.6546 7:21.3376 8:1 
0.001606228327223513 1:0.0243962 2:0.0195068 3:0.0515339 4:13.4139 5:13.7968 6:14.4107 7:6.57518 8:1 
0.002710044536780683 1:0.419177 2:0.449455 3:0.440235 4:13.0133 5:13.3866 6:14.0201 7:15.8122 8:1 
0.00230095107428302 1:0.21257 2:0.220483 3:0.231398 4:10.0767 5:10.3757 6:10.9553 7:3.96616 8:1 
0.00256274267150288 1:0.260228 2:0.268491 3:0.282152 4:9.54967 5:9.80182 6:9.35834 7:6.92439 8:1 
1 1:1.39171e-06 2:1.01883e-06 3:1.49337e-06 4:1.08597e-06 5:7.06411e-07 6:1.97704e-06 7:2.50785e-11 8:1 
1 1:3.37277e-05 2:2.84712e-05 3:1.063e-05 4:1.6918e-05 5:1.42646e-05 6:5.31986e-06 7:2.55312e-08 8:1 
0.00258957501607276 1:0.0263062 2:0.034563 3:0.0267882 4:9.25496 5:9.50144 6:9.07991 7:3.19668 8:1 
1 1:0.00462578 2:0.00405283 3:0.00195428 4:0.00318394 5:0.00278495 6:0.00120279 7:0.000237627 8:1 
1 1:0.000549873 2:0.00100191 3:0.00132589 4:0.0310762 5:0.0271373 6:0.00798026 7:0.00573856 8:1 
1 1:0.00457755 2:0.00470566 3:0.00134238 4:0.0733426 5:0.0627913 6:0.0168403 7:0.0109916 8:1 
1 1:0.00178371 2:0.00234346 3:0.00140134 4:0.113084 5:0.0961168 6:0.0235266 7:0.0132759 8:1 
0.004374621406296026 1:0.0928221 2:0.0995914 3:0.143115 4:4.26003 5:4.3429 6:4.05502 7:6.56562 8:1 
0.001836709494147685 1:0.0144186 2:0.0151235 3:0.0265063 4:5.10411 5:5.2858 6:5.63627 7:15.0205 8:1 
0.003427583321785968 1:0.208963 2:0.226496 3:0.201816 4:14.8642 5:15.3545 6:15.6189 7:5.25992 8:1 
0.004548359465882472 1:0.0210539 2:0.0274484 3:0.0225216 4:7.41747 5:7.58152 6:7.36717 7:2.89507 8:1 
0.004401782337810108 1:0.15756 2:0.165929 3:0.178829 4:7.9728 5:8.1703 6:8.58268 7:8.35258 8:1 
0.008308394842305512 1:0.0655919 2:0.0701267 3:0.0755799 4:7.22821 5:7.48234 6:7.82754 7:18.4798 8:1 
0.007390596540047315 1:0.0647455 2:0.0697045 3:0.0781858 4:9.75775 5:10.1208 6:10.4223 7:16.4852 8:1 
0.003731212231596348 1:0.0206209 2:0.0304269 3:0.0446573 4:13.0358 5:13.4369 6:13.7889 7:4.25837 8:1 
0.001600427993680623 1:0.147007 2:0.149911 3:0.123919 4:13.3984 5:13.7946 6:14.3012 7:9.26872 8:1 
0.01102403803748988 1:0.0389543 2:0.0436471 3:0.0508349 4:8.58481 5:8.78115 6:9.47564 7:0.41128 8:1 
0.001112629578122026 1:0.0782504 2:0.0746886 3:0.0925797 4:14.2431 5:14.7567 6:15.0388 7:7.33067 8:1 
0.005698951317643801 1:0.676807 2:0.695524 3:0.687911 4:11.4316 5:11.7245 6:12.297 7:6.18788 8:1 
0.002006282310985263 1:0.00107336 2:0.00269133 3:0.00769275 4:8.46654 5:8.67087 6:9.41083 7:11.5182 8:1 
0.00205687617632988 1:0.0468994 2:0.0556881 3:0.0246483 4:15.5394 5:16.0683 6:16.3695 7:7.30287 8:1 
0.002752347637195174 1:0.591536 2:0.626485 3:0.657968 4:13.5435 5:13.8821 6:15.0305 7:23.3556 8:1 
0.00164285001321702 1:0.0262496 2:0.0296578 3:0.0305601 4:12.1386 5:12.4561 6:13.0892 7:5.28546 8:1 
0.005672933340322922 1:0.234535 2:0.241667 3:0.275119 4:15.8419 5:16.2596 6:17.5543 7:33.6166 8:1 
0.007149697754181703 1:0.116465 2:0.120427 3:0.134263 4:11.3223 5:11.6674 6:12.7763 7:29.0525 8:1 
0.01616801607812846 1:0.287704 2:0.294655 3:0.300654 4:13.8422 5:14.285 6:15.7762 7:71.1156 8:1 
0.0150786733965258 1:0.19668 2:0.203203 3:0.233954 4:14.0863 5:14.5207 6:15.9434 7:51.3371 8:1 
0.004188002862898407 1:0.0809861 2:0.0857807 3:0.024708 4:16.1754 5:16.6125 6:17.9712 7:43.2488 8:1 
0.01531142714520412 1:1.07187 2:1.11495 3:1.21587 4:17.5005 5:18.0725 6:19.852 7:95.9854 8:1 
0.008696238354219843 1:0.121393 2:0.124766 3:0.140158 4:14.2232 5:14.6408 6:15.4995 7:26.8994 8:1 
0.009946843253371085 1:0.239672 2:0.259388 3:0.296591 4:17.7656 5:18.3379 6:20.0728 7:83.0986 8:1 
0.01127765871365801 1:0.775288 2:0.81544 3:0.853047 4:15.029 5:15.4394 6:16.6956 7:38.0296 8:1 
0.01252814179724038 1:0.154546 2:0.166445 3:0.187115 4:20.8821 5:21.5589 6:23.4903 7:74.8912 8:1 
0.004162526790743692 1:0.595675 2:0.623646 3:0.669201 4:14.74 5:15.1893 6:16.1069 7:36.1574 8:1 
0.006546363128887733 1:0.39045 2:0.402368 3:0.463028 4:14.2795 5:14.6666 6:15.9224 7:42.9827 8:1 
0.006395103981595664 1:1.13543 2:1.17656 3:1.23948 4:16.3821 5:16.8573 6:18.2953 7:82.3198 8:1 
0.003667234807822106 1:1.09613 2:1.13155 3:1.18489 4:19.7639 5:20.414 6:22.0982 7:99.3206 8:1 
0.0008288318971976238 1:0.829117 2:0.869058 3:0.946568 4:14.9285 5:15.4279 6:16.5037 7:44.5833 8:1 
0.01418979612515736 1:1.90755 2:1.97131 3:2.22527 4:21.8437 5:22.5768 6:24.4634 7:99.6133 8:1 
0.01345513483136968 1:0.0968995 2:0.0928558 3:0.120895 4:17.5018 5:18.0266 6:19.5225 7:121.141 8:1 
0.003200721407292413 1:0.0113077 2:0.0133034 3:0.0228145 4:9.64383 5:9.85284 6:9.69024 7:5.79537 8:1 
0.003076891169980812 1:0.201445 2:0.207088 3:0.212557 4:20.2484 5:20.9054 6:22.7649 7:87.9843 8:1 
0.01163600092069134 1:0.351649 2:0.340375 3:0.400208 4:17.678 5:18.2925 6:19.691 7:79.9436 8:1 
0.007033925559419888 1:0.350144 2:0.355564 3:0.418967 4:19.5079 5:20.1349 6:21.8075 7:116.725 8:1 
0.003452456319736704 1:0.0631446 2:0.0697469 3:0.0485287 4:8.47595 5:8.67316 6:9.10745 7:10.2373 8:1 
0.012971374499437 1:0.0587437 2:0.060755 3:0.0474638 4:11.1895 5:11.5237 6:12.4346 7:39.0246 8:1 
0.01034594657686783 1:0.201568 2:0.206921 3:0.236199 4:18.7122 5:19.2819 6:20.9275 7:111.316 8:1 
0.006443118826489739 1:0.0188929 2:0.0153432 3:0.040459 4:15.3762 5:15.7975 6:17.0665 7:42.2441 8:1 
0.01131107899333783 1:0.218927 2:0.230582 3:0.248268 4:15.2379 5:15.6985 6:16.9979 7:67.349 8:1 
0.01041626840444596 1:0.158973 2:0.173244 3:0.156073 4:14.6032 5:15.0304 6:15.6798 7:31.3072 8:1 
0.008326728462359434 1:0.322624 2:0.336157 3:0.371512 4:18.4436 5:18.9729 6:20.5723 7:50.6923 8:1 
0.0012961818535423 1:0.274439 2:0.283714 3:0.288325 4:15.6468 5:16.0756 6:17.1529 7:30.1768 8:1 
0.01245554488986428 1:0.20144 2:0.200059 3:0.227897 4:19.1654 5:19.7509 6:21.4318 7:72.3184 8:1 
0.005996796044090005 1:0.353765 2:0.36261 3:0.451171 4:18.5997 5:19.1355 6:20.5062 7:32.3173 8:1 
0.005508701539392538 1:0.489378 2:0.5081 3:0.470832 4:10.3134 5:10.52 6:10.4346 7:11.0725 8:1 
0.01303747484817408 1:0.114356 2:0.117639 3:0.14825 4:16.2971 5:16.7779 6:17.6091 7:50.6168 8:1 
0.01076170697764389 1:0.488173 2:0.502872 3:0.571953 4:21.6343 5:22.2802 6:24.2224 7:40.602 8:1 
0.002141065627557226 1:0.354894 2:0.372515 3:0.388725 4:21.8699 5:22.5387 6:24.5081 7:66.6475 8:1 
0.01269140450715839 1:0.370268 2:0.391832 3:0.39165 4:16.8372 5:17.3339 6:18.2433 7:61.2375 8:1 
0.01162486343697601 1:0.680706 2:0.708007 3:0.769029 4:22.0756 5:22.7411 6:24.7149 7:69.1314 8:1 
0.009544646270857715 1:0.345518 2:0.36331 3:0.377972 4:16.2653 5:16.7561 6:17.6264 7:68.914 8:1 
0.006159617106122255 1:0.996398 2:1.02872 3:1.15538 4:22.1682 5:22.7826 6:24.5384 7:46.5365 8:1 
0.00253862832629892 1:0.441998 2:0.456704 3:0.54601 4:20.2791 5:20.8771 6:22.6356 7:102.065 8:1 
0.00671259822309317 1:0.694025 2:0.715296 3:0.787642 4:18.4231 5:18.9648 6:20.4468 7:106.526 8:1 
0.007385573088426915 1:0.695528 2:0.715212 3:0.755189 4:10.0997 5:10.3295 6:10.4876 7:25.0021 8:1 
0.003937026875823056 1:0.18492 2:0.182311 3:0.234046 4:19.5638 5:20.088 6:21.5352 7:89.8107 8:1 
0.006804832980814036 1:0.287213 2:0.295039 3:0.318044 4:18.1512 5:18.7553 6:19.9446 7:106.438 8:1 
0.006841239671814541 1:1.05407 2:1.08486 3:1.18817 4:9.94559 5:10.1723 6:10.3211 7:26.7364 8:1 
0.01088704510382782 1:0.0987848 2:0.0995175 3:0.143429 4:16.995 5:17.4466 6:18.5174 7:110.036 8:1 
0.0101974503475159 1:0.186315 2:0.195702 3:0.178193 4:9.36627 5:9.58397 6:9.7074 7:29.9266 8:1 
0.005384660147548077 1:0.302891 2:0.311171 3:0.308829 4:19.9579 5:20.628 6:22.021 7:144.076 8:1 
0.008870253817886142 1:1.17634 2:1.21712 3:1.33297 4:17.3515 5:17.8617 6:19.1992 7:118.581 8:1 
0.008593181665254364 1:0.2584 2:0.277583 3:0.334724 4:16.128 5:16.565 6:17.7148 7:107.3 8:1 
0.004686593579882755 1:0.290075 2:0.291958 3:0.311256 4:19.7106 5:20.3468 6:21.8126 7:142.549 8:1 
0.01025522777063542 1:0.642392 2:0.666632 3:0.779556 4:13.1843 5:13.5533 6:14.3632 7:97.61 8:1 
0.005388584380862526 1:0.396951 2:0.415405 3:0.471643 4:14.7377 5:15.1439 6:15.9166 7:106.81 8:1 
0.005721908477969624 1:0.325052 2:0.342482 3:0.340312 4:20.3162 5:20.9671 6:22.5002 7:149.584 8:1 
0.006919033104563503 1:0.00366175 2:0.0119509 3:0.00872481 4:18.9709 5:19.5305 6:21.0968 7:129.711 8:1 
0.008208566376184081 1:0.509536 2:0.52142 3:0.571855 4:22.0947 5:22.8195 6:24.8064 7:63.3916 8:1 
0.01028911559721372 1:0.142353 2:0.151051 3:0.181453 4:19.6357 5:20.1994 6:21.8517 7:127.414 8:1 
0.01728589823864241 1:0.428227 2:0.441596 3:0.468747 4:13.3291 5:13.724 6:14.5551 7:91.7766 8:1 
0.01032074153366591 1:0.109036 2:0.0994991 3:0.125129 4:19.3392 5:19.9322 6:21.4576 7:133.495 8:1 
0.007988988113165119 1:0.0248624 2:0.0255482 3:0.0352756 4:21.3432 5:22.0567 6:23.8782 7:88.2877 8:1 
0.009936138385138859 1:0.224365 2:0.234789 3:0.255929 4:14.0635 5:14.4954 6:15.4099 7:104.893 8:1 
0.004292996468023076 1:0.243894 2:0.25011 3:0.284983 4:19.0968 5:19.6386 6:21.2111 7:119.203 8:1 
0.005062511605408437 1:1.46127 2:1.53032 3:1.65155 4:21.3197 5:22.0142 6:23.8595 7:124.428 8:1 
0.009898126624705184 1:1.37846 2:1.42456 3:1.53265 4:20.7456 5:21.4561 6:23.2139 7:106.994 8:1 
0.01492997181264411 1:0.984065 2:1.00781 3:1.10231 4:18.2799 5:18.8345 6:20.4369 7:137.31 8:1 
0.007054444108906771 1:0.00142717 2:0.000752449 3:0.00237274 4:20.5987 5:21.3029 6:22.9664 7:109.998 8:1 
0.006763208847725233 1:0.94674 2:0.995497 3:1.1108 4:20.8866 5:21.6061 6:23.1577 7:141.879 8:1 
0.01290782697753538 1:0.0334775 2:0.0200788 3:0.00406814 4:21.7873 5:22.466 6:24.399 7:146.157 8:1 
0.003519359414953816 1:0.0259265 2:0.0175917 3:0.0356354 4:19.7093 5:20.3068 6:22.0969 7:117.821 
0.003042809977910979 1:0.288173 2:0.303087 3:0.34546 4:20.6431 5:21.269 6:23.1051 7:140.365 8:1 
0.003882691173261235 1:0.52038 2:0.550103 3:0.652988 4:21.2473 5:21.9083 6:23.7952 7:148.751 8:1 
0.01181399449522524 1:2.06278 2:2.14458 3:2.37795 4:20.771 5:21.4133 6:23.3107 7:154.416 8:1 
0.00265599757603243 1:0.478594 2:0.483954 3:0.56914 4:21.104 5:21.7334 6:23.632 7:137.219 8:1 
0.002996893430518464 1:0.958732 2:0.992595 3:1.08275 4:21.0732 5:21.726 6:23.4001 7:134.343 8:1 
0.01036316399118494 1:0.119438 2:0.114374 3:0.193804 4:21.9895 5:22.7372 6:24.404 7:169.382 8:1 
0.009345324090437649 1:0.695721 2:0.724732 3:0.770383 4:21.3885 5:22.0388 6:23.9779 7:134.85 8:1 
0.01105238205426223 1:1.30712 2:1.35281 3:1.45074 4:21.7904 5:22.5084 6:24.1493 7:151.896 8:1 
0.005683496039394109 1:0.380738 2:0.38194 3:0.400413 4:20.414 5:21.038 6:23.0108 7:130.683 8:1 
0.004993633551065879 1:0.0228997 2:0.0143304 3:0.0860281 4:20.3768 5:20.9945 6:22.7957 7:118.664 8:1 
0.0016064833761223 1:0.798745 2:0.834861 3:0.973207 4:20.7042 5:21.326 6:23.2329 7:124.027 
0.01749256361646673 1:0.848466 2:0.887157 3:0.965679 4:21.6156 5:22.3447 6:23.9843 7:164.519 8:1 
0.007935623955901416 1:0.499073 2:0.540665 3:0.549262 4:20.4345 5:21.078 6:22.5488 7:92.8959 8:1 
0.008255237608236437 1:1.26632 2:1.32216 3:1.46747 4:20.5535 5:21.1958 6:22.954 7:102.919 8:1 
0.01104510934476603 1:0.428065 2:0.447009 3:0.457987 4:20.962 5:21.6672 6:23.2512 7:169.781 8:1 
0.008552315703656277 1:0.173099 2:0.175794 3:0.172794 4:21.3157 5:21.9691 6:23.7303 7:154.783 8:1 
0.009787926345018506 1:1.17073 2:1.21242 3:1.36356 4:23.6123 5:24.3683 6:26.1682 7:78.1485 8:1 
0.00493058464892031 1:0.288142 2:0.30725 3:0.349551 4:21.2107 5:21.8597 6:23.4862 7:123.977 8:1 
0.01134195264679078 1:0.343096 2:0.351199 3:0.38785 4:19.9842 5:20.6669 6:22.0917 7:155.599 8:1 
0.01398379465105892 1:1.96593 2:2.03445 3:2.11721 4:22.579 5:23.3087 6:25.0486 7:50.3924 8:1 
0.01819152069011992 1:1.50006 2:1.52548 3:1.22718 4:30.8109 5:31.663 6:34.7301 7:684.939 
0.009160530539904121 1:1.66877 2:1.7378 3:1.86209 4:20.6352 5:21.3244 6:22.8261 7:145.506 8:1 
0.008261694624165995 1:1.15623 2:1.21059 3:1.32684 4:25.6221 5:26.43 6:28.5437 7:68.0581 8:1 
0.008974317468987632 1:0.847351 2:0.874112 3:0.991923 4:24.1193 5:24.9011 6:26.7516 7:72.1 8:1 
0.006302020724088413 1:0.121362 2:0.124564 3:0.141148 4:8.98678 5:9.20298 6:9.35233 7:34.8177 8:1 
0.004931940762099956 1:0.0712732 2:0.0861769 3:0.0659616 4:23.6814 5:24.4144 6:26.2146 7:61.2117 8:1 
0.009099715111357062 1:0.255447 2:0.271916 3:0.263227 4:14.3127 5:14.7184 6:15.4691 7:124.607 8:1 
0.01793088958781197 1:0.548858 2:0.56449 3:0.614973 4:9.66596 5:9.92616 6:10.2175 7:56.3968 8:1 
0.01027586114470191 1:0.194454 2:0.210254 3:0.24099 4:11.4196 5:11.7628 6:12.3174 7:98.0777 8:1 
0.004194131083030647 1:0.4399 2:0.469074 3:0.541408 4:15.5619 5:16.0085 6:17.0977 7:102.488 8:1 
0.01586987043887268 1:0.169457 2:0.195488 3:0.23578 4:18.4577 5:18.9916 6:20.31 7:151.161 8:1 
0.01668007119555869 1:0.081582 2:0.0848855 3:0.057568 4:14.3864 5:14.8353 6:15.7031 7:159.385 8:1 
0.011201184616124 1:0.128607 2:0.148598 3:0.141303 4:15.8433 5:16.2628 6:17.3894 7:102.576 8:1 
0.01052768631775657 1:0.41402 2:0.445212 3:0.425575 4:20.5341 5:21.1562 6:22.8383 7:111.938 
0.009519363839421414 1:0.570547 2:0.589786 3:0.649281 4:21.4045 5:21.996 6:23.6082 7:138.939 8:1 
0.004969918258559081 1:0.166777 2:0.155557 3:0.173349 4:13.822 5:14.1594 6:15.0578 7:109.747 8:1 
0.014734259900613 1:0.196927 2:0.195439 3:0.224911 4:12.4094 5:12.6868 6:13.4494 7:101.905 8:1 
0.004181678012326126 1:0.144682 2:0.169063 3:0.164653 4:21.2593 5:21.8248 6:23.3927 7:128.304 8:1 
0.005287700564349737 1:0.557176 2:0.581509 3:0.625361 4:21.7413 5:22.4201 6:24.2085 7:76.4856 
0.007876912845597772 1:1.18883 2:1.22157 3:1.36272 4:19.918 5:20.4205 6:21.796 7:147.901 8:1 
0.009718575963055153 1:0.64 2:0.670614 3:0.747973 4:25.0994 5:25.8789 6:28.0828 7:77.1596 
0.008371344757090449 1:0.147053 2:0.152544 3:0.146345 4:17.6814 5:18.1569 6:19.5458 7:115.075 8:1 
0.01340387967164891 1:0.00159168 2:0.032128 3:0.0116805 4:12.5009 5:12.7842 6:13.5216 7:109.546 8:1 
0.0108042215467033 1:0.258313 2:0.260194 3:0.289765 4:16.095 5:16.4856 6:17.4614 7:145.925 8:1 
0.006098599347113349 1:0.384179 2:0.401874 3:0.42043 4:22.4361 5:23.139 6:24.9269 7:63.5672 
0.00422038915466986 1:0.437455 2:0.458429 3:0.509201 4:14.2221 5:14.5806 6:15.6051 7:96.5247 8:1 
0.01643468605978166 1:1.26644 2:1.30789 3:1.41956 4:14.9715 5:15.3419 6:16.3575 7:142.046 8:1 
0.0117027977895835 1:0.523204 2:0.52874 3:0.584852 4:15.7132 5:16.1157 6:17.2722 7:114.774 8:1 
0.01279711871738455 1:0.941707 2:0.970139 3:1.08809 4:14.9549 5:15.3547 6:16.5091 7:121.827 8:1 
0.01315735219707914 1:0.951738 2:0.988895 3:1.04866 4:13.9151 5:14.2693 6:15.0203 7:112.478 8:1 
0.002511776705698491 1:0.544266 2:0.573652 3:0.624487 4:22.4592 5:23.1444 6:24.9267 7:55.7775 
0.01204494031069692 1:0.245944 2:0.264653 3:0.351635 4:17.22 5:17.6823 6:18.9678 7:142.492 8:1 
0.0167564429521817 1:0.372444 2:0.390104 3:0.419329 4:15.0144 5:15.4166 6:16.356 7:133.544 8:1 
0.01433418209530996 1:0.136369 2:0.145677 3:0.156911 4:17.1345 5:17.6008 6:19.0237 7:132.276 8:1 
0.01818709847015221 1:7.98321 2:8.28936 3:8.67481 4:61.2845 5:63.04 6:70.6072 7:15214.2 
0.01099453914213561 1:1.36429 2:1.41161 3:1.56894 4:20.2582 5:20.8222 6:22.4945 7:122.806 8:1 
0.01154917011482609 1:0.475362 2:0.483612 3:0.520579 4:16.8224 5:17.285 6:18.5165 7:158.356 8:1 
0.007107232635215063 1:0.0134984 2:0.0246314 3:0.00914562 4:23.225 5:23.9429 6:25.8427 7:48.8781 
0.006747241524607756 1:0.136429 2:0.123929 3:0.107971 4:21.8446 5:22.4377 6:24.2492 7:78.2195 8:1 
0.007017084017969149 1:0.032463 2:0.037207 3:0.0298994 4:20.1269 5:20.6746 6:22.4268 7:105.98 8:1 
0.009979903815884927 1:0.071183 2:0.0678675 3:0.0857407 4:20.6887 5:21.2396 6:23.0156 7:67.5243 8:1 
0.004560351774056477 1:0.0307022 2:0.0297389 3:0.0435704 4:23.2708 5:23.9804 6:26.001 7:46.7616 
0.009457194429877998 1:0.0532118 2:0.0558195 3:0.0972413 4:21.8688 5:22.4544 6:24.2267 7:54.2889 8:1 
0.005926922881138112 1:0.28101 2:0.301798 3:0.306581 4:21.1708 5:21.7349 6:23.5035 7:42.4594 8:1 
0.01247296110199686 1:0.267602 2:0.276576 3:0.29773 4:19.5248 5:20.0101 6:21.4205 7:55.5437 8:1 
0.01838963768070356 1:40.8288 2:42.2446 3:49.5277 4:115.918 5:119.799 6:139.212 7:58882.2 
0.012342648493089 1:0.0979428 2:0.0971365 3:0.0669727 4:18.8772 5:19.4313 6:21.0273 7:99.7958 
0.007751825496262577 1:0.18424 2:0.190305 3:0.196232 4:17.2135 5:17.6432 6:18.7109 7:28.8245 8:1 
0.01513749483493165 1:0.930551 2:0.963306 3:1.06637 4:22.5716 5:23.3305 6:25.0035 7:128.52 8:1 
0.01137412587698017 1:0.250073 2:0.251147 3:0.210191 4:24.3781 5:25.17 6:27.0321 7:51.5918 8:1 
0.007859602346305162 1:0.217773 2:0.231671 3:0.238138 4:18.3864 5:18.9559 6:20.3947 7:140.658 8:1 
0.007747137777198649 1:0.459016 2:0.487628 3:0.567913 4:17.6938 5:18.153 6:19.3434 7:22.2229 8:1 
0.002534016767792487 1:0.0874189 2:0.0773383 3:0.0735452 4:20.8895 5:21.5517 6:23.2028 7:135.444 8:1 
0.01337126129675958 1:0.461608 2:0.472319 3:0.608228 4:25.0548 5:25.8249 6:28.349 7:106.006 
0.01225343818683761 1:1.37221 2:1.41838 3:1.55117 4:23.5568 5:24.3321 6:26.0889 7:94.1332 8:1 
0.00115676608771037 1:0.104441 2:0.11407 3:0.106196 4:19.4639 5:19.9838 6:21.3882 7:50.6771 8:1 
0.007651344192525078 1:0.137384 2:0.126069 3:0.1492 4:24.5332 5:25.3337 6:27.201 7:62.0512 8:1 
0.00885094160932981 1:0.7873 2:0.82399 3:0.923253 4:22.2962 5:22.987 6:24.7643 7:117.794 8:1 
0.01208435245149941 1:0.150094 2:0.167281 3:0.225155 4:23.912 5:24.7129 6:26.5613 7:55.6548 8:1 
0.008697844762044661 1:0.219264 2:0.223482 3:0.24673 4:24.0057 5:24.7445 6:26.65 7:66.9126 8:1 
0.001192093440503306 1:0.250199 2:0.272377 3:0.271897 4:22.9856 5:23.7259 6:25.39 7:53.0264 8:1 
0.002074116888987469 1:0.141579 2:0.147171 3:0.174747 4:26.6203 5:27.432 6:29.7322 7:76.7059 8:1 
0.01137127271262528 1:0.289225 2:0.293154 3:0.317526 4:22.3484 5:23 6:24.6953 7:58.4738 8:1 
0.01287641560504466 1:0.0110139 2:0.0178624 3:0.000885129 4:20.5932 5:21.1633 6:22.6737 7:45.9887 8:1 
0.005394159681840593 1:0.471238 2:0.500515 3:0.56013 4:22.2697 5:22.9828 6:24.5646 7:43.7303 8:1 
0.006510212686052607 1:0.776866 2:0.807904 3:0.923565 4:24.9226 5:25.6509 6:27.9951 7:63.3944 8:1 
0.006512510418838213 1:0.601037 2:0.625328 3:0.657634 4:26.9223 5:27.8067 6:30.0775 7:76.5079 8:1 
0.001880481108667946 1:0.593202 2:0.619851 3:0.65603 4:25.7254 5:26.5087 6:28.8981 7:85.2711 8:1 
0.009175994937890231 1:0.201375 2:0.218477 3:0.236859 4:26.2104 5:27.0855 6:29.3619 7:82.1944 8:1 
0.001076224559999136 1:0.172662 2:0.175275 3:0.186727 4:19.3935 5:19.9292 6:21.3263 7:27.6168 8:1 
0.00237698619822585 1:0.202015 2:0.20142 3:0.195936 4:22.9358 5:23.68 6:25.3747 7:57.9408 
0.004091873418464176 1:0.112938 2:0.117422 3:0.130486 4:25.1827 5:25.9677 6:28.3455 7:85.4227 8:1 
0.006035864021015913 1:0.286321 2:0.299923 3:0.334355 4:21.4347 5:22.0469 6:24.1083 7:117.36 
0.007157515142751068 1:0.574921 2:0.593445 3:0.668127 4:20.6052 5:21.203 6:22.781 7:51.9824 8:1 
0.007607143529560909 1:0.847798 2:0.886338 3:1.00304 4:24.7544 5:25.5705 6:27.9506 7:99.1038 8:1 
0.01069268698456977 1:0.358524 2:0.377095 3:0.41237 4:25.8585 5:26.6297 6:29.1729 7:109.012 8:1 
0.007966361213753962 1:0.225489 2:0.236401 3:0.260636 4:25.6069 5:26.4725 6:28.7102 7:88.126 
0.006890012111028798 1:0.627238 2:0.640327 3:0.692745 4:25.3701 5:26.2038 6:28.6611 7:116.076 8:1 
0.0133350313187191 1:0.484748 2:0.512491 3:0.563166 4:27.6207 5:28.4656 6:31.2174 7:125.558 8:1 
0.01234362029704957 1:0.099611 2:0.103634 3:0.11006 4:26.2489 5:27.0908 6:29.2396 7:70.1425 
0.01788924768372069 1:76.9841 2:79.6818 3:94.2284 4:343.475 5:355.125 6:418.076 7:161406 
0.01189698744375996 1:0.615699 2:0.650031 3:0.655872 4:30.4694 5:31.4132 6:34.5463 7:97.1706 8:1 
0.01475639257514165 1:0.415947 2:0.436092 3:0.43348 4:33.2524 5:34.2805 6:37.7206 7:51.8756 8:1 
0.01216695021344855 1:0.113731 2:0.118727 3:0.182588 4:34.4606 5:35.5215 6:39.0221 7:17.8187 8:1 
0.01793782423412477 1:24.9525 2:25.6274 3:30.7805 4:373.944 5:386.45 6:450.912 7:178740 
0.01789538559999349 1:0.399421 2:0.431255 3:0.500388 4:21.3768 5:22.0155 6:23.6581 7:181.903 
0.003567791760739509 1:0.0890291 2:0.0951233 3:0.121893 4:34.0342 5:35.0429 6:38.4455 7:11.1744 8:1 
0.01281636367178995 1:0.387244 2:0.410091 3:0.462269 4:24.5787 5:25.3288 6:27.9089 7:101.629 
0.01828792639467897 1:1.86451 2:1.91817 3:2.12553 4:41.9648 5:43.3172 6:47.367 7:9673.68 
0.01808663356474155 1:2.29471 2:2.36701 3:2.51747 4:20.7589 5:21.4486 6:22.8705 7:201.751 
0.004800246241804016 1:0.488849 2:0.511667 3:0.526109 4:30.9032 5:31.914 6:34.878 7:97.8625 
0.007474946139593359 1:0.33186 2:0.335546 3:0.422982 4:32.4138 5:33.3617 6:36.6174 7:10.1941 8:1 
0.01169822206119336 1:1.0052 2:1.02935 3:1.13672 4:33.4919 5:34.6467 6:37.7685 7:56.3325 
0.003828999876072946 1:0.437742 2:0.44396 3:0.450803 4:25.5969 5:26.3747 6:29.0927 7:115.746 
0.009446098981471585 1:0.746369 2:0.785052 3:0.824295 4:29.9652 5:30.845 6:33.7004 7:27.8359 8:1 
0.01832131706178886 1:43.9323 2:45.4586 3:53.4321 4:88.8428 5:91.6546 6:104.538 7:35818.4 
0.002949379348286844 1:0.0984573 2:0.1003 3:0.109331 4:27.6412 5:28.4508 6:31.0154 7:33.4374 8:1 
0.01008334791732024 1:1.1275 2:1.15369 3:1.31051 4:26.0659 5:26.9143 6:29.3974 7:83.3211 
0.01307384875116829 1:0.304711 2:0.32247 3:0.31908 4:34.3215 5:35.412 6:38.6878 7:63.7037 
0.01768292147312195 1:0.0953541 2:0.0973338 3:0.0793412 4:28.3485 5:29.211 6:32.2184 7:101.097 
0.005076817960046727 1:0.131565 2:0.140866 3:0.15529 4:26.0539 5:26.8549 6:29.2658 7:23.1866 8:1 
0.01103024424633625 1:0.777937 2:0.805462 3:0.866808 4:27.7821 5:28.6753 6:31.3538 7:110.752 
0.01488222347749812 1:0.454989 2:0.465384 3:0.537662 4:35.5419 5:36.6396 6:39.9956 7:23.5039 
0.01291010222006689 1:0.194659 2:0.199668 3:0.231559 4:23.7064 5:24.3695 6:26.795 7:116.719 
0.0006252265485346409 1:0.131612 2:0.135482 3:0.176763 4:20.5245 5:21.0165 6:22.5801 7:67.3896 8:1 
0.009213294953889617 1:0.846709 2:0.873943 3:0.985686 4:17.7192 5:18.1135 6:19.318 7:54.9356 8:1 
0.002417989383698256 1:0.0286012 2:0.0204585 3:0.0432336 4:30.5409 5:31.3044 6:34.2952 7:9.92496 
0.01282784892348032 1:0.126345 2:0.140116 3:0.114119 4:34.6335 5:35.6791 6:38.9306 7:13.8303 
0.009218758210815067 1:0.610153 2:0.630742 3:0.659973 4:31.7818 5:32.7316 6:35.7126 7:38.7217 
0.01480169571473494 1:0.336253 2:0.348872 3:0.374624 4:18.8054 5:19.3405 6:20.5808 7:66.4478 8:1 
0.009867785804911322 1:0.083467 2:0.0931764 3:0.146478 4:15.0971 5:15.4349 6:16.2895 7:23.2086 8:1 
0.006401069751060346 1:0.468995 2:0.483089 3:0.555435 4:21.7554 5:22.3613 6:23.9981 7:86.0202 8:1 
0.003700353527530342 1:0.245638 2:0.25562 3:0.264854 4:30.276 5:31.0375 6:33.9299 7:8.31013 
0.01832406452471191 1:0.307059 2:0.311527 3:0.319673 4:24.7385 5:25.4655 6:27.7335 7:192.428 
0.008932640921332079 1:0.0239984 2:0.00873399 3:0.074712 4:33.2259 5:34.1737 6:37.2184 7:6.52064 
0.009604448825971557 1:0.534729 2:0.52916 3:0.609115 4:23.9709 5:24.6106 6:26.6099 7:87.894 8:1 
0.01155992258307104 1:0.251871 2:0.265887 3:0.289421 4:18.3002 5:18.8246 6:20.0532 7:61.3729 8:1 
0.008536659170304002 1:0.464915 2:0.488012 3:0.533813 4:24.2244 5:24.8652 6:27.0025 7:92.4971 8:1 
0.004461794312625555 1:0.233863 2:0.24341 3:0.283724 4:28.3784 5:29.1171 6:31.8957 7:13.9342 
0.008773476031675373 1:0.557574 2:0.567609 3:0.626993 4:21.4204 5:22.0338 6:23.6734 7:81.3527 8:1 
0.01182278993446484 1:0.326469 2:0.363679 3:0.383868 4:24.0325 5:24.6385 6:26.7131 7:83.0339 8:1 
0.003455640663298105 1:0.256499 2:0.260162 3:0.217617 4:31.9509 5:32.8207 6:35.742 7:15.1787 
0.005390509949866229 1:0.321321 2:0.322906 3:0.328531 4:23.8989 5:24.5738 6:26.5012 7:79.4698 8:1 
0.001720193754316029 1:0.325698 2:0.329368 3:0.319876 4:26.2764 5:26.9729 6:29.5446 7:16.6134 
0.01832230606364355 1:7.55728 2:7.84727 3:9.13783 4:41.1149 5:42.3828 6:47.6095 7:13530.3 
0.008995483749977318 1:0.100114 2:0.0990652 3:0.113992 4:25.5581 5:26.2731 6:28.3478 7:73.9985 8:1 
0.00177146317246876 1:0.757215 2:0.78655 3:0.87216 4:24.0676 5:24.682 6:26.8508 7:65.1119 8:1 
0.01827655726278021 1:20.9676 2:21.6135 3:25.7736 4:170.005 5:175.48 6:204.617 7:131394 
0.01283411861999323 1:0.194101 2:0.193581 3:0.227904 4:30.1027 5:30.9129 6:33.6918 7:21.7868 
0.00190850963115356 1:0.543555 2:0.573177 3:0.597619 4:23.9862 5:24.6464 6:26.9608 7:7.32832 
0.01299222274995515 1:0.0137072 2:0.00367057 3:0.0189323 4:22.9173 5:23.4756 6:25.5643 7:106.179 8:1 
0.005775767977447447 1:0.305424 2:0.313066 3:0.34651 4:23.7863 5:24.3979 6:26.6296 7:71.3463 8:1 
0.01055657014842482 1:0.0482678 2:0.0472354 3:0.0253953 4:22.1891 5:22.798 6:24.5991 7:102.909 8:1 
0.002516623736615657 1:0.58609 2:0.608035 3:0.659238 4:22.9064 5:23.5406 6:25.6852 7:6.98755 
0.01262547968303684 1:0.553855 2:0.567118 3:0.633521 4:20.8151 5:21.3358 6:23.2725 7:96.5708 8:1 
0.009771690791970052 1:0.142994 2:0.143431 3:0.181712 4:19.1192 5:19.6316 6:21.1338 7:92.6187 8:1 
0.009403464948363558 1:0.150996 2:0.149463 3:0.152074 4:28.3251 5:29.1046 6:31.7613 7:25.9028 
0.005459078416253297 1:0.681239 2:0.697243 3:0.764315 4:22.5214 5:23.094 6:25.2763 7:86.4615 8:1 
0.01280533173510195 1:0.993325 2:1.04584 3:1.19753 4:19.2503 5:19.7197 6:21.4563 7:85.6704 8:1 
0.00694260815869935 1:0.0395436 2:0.0403461 3:0.0538023 4:20.2393 5:20.7829 6:22.7266 7:18.3152 
0.010976222605727 1:0.141519 2:0.155344 3:0.191903 4:26.0735 5:26.8351 6:29.3768 7:65.8014 8:1 
0.01386204011077902 1:0.743298 2:0.759975 3:0.794558 4:22.8262 5:23.4317 6:25.3593 7:122.322 8:1 
0.01770732977650602 1:1.46846 2:1.52427 3:1.59436 4:29.7713 5:30.7195 6:33.5925 7:119.43 8:1 
0.01198597597948237 1:0.0470042 2:0.0505164 3:0.0770267 4:24.8298 5:25.4901 6:27.8852 7:96.9399 8:1 
0.003703240869260797 1:0.214151 2:0.220074 3:0.229508 4:25.7289 5:26.4732 6:28.9607 7:88.7596 8:1 
0.01165043190503661 1:0.0720785 2:0.0736667 3:0.086108 4:27.7057 5:28.4484 6:31.0785 7:74.8261 8:1 
0.01280709768820437 1:0.0289956 2:0.0358176 3:0.0566179 4:26.7495 5:27.4608 6:29.709 7:114.56 8:1 
0.01453524922589605 1:0.453336 2:0.475752 3:0.552136 4:26.2142 5:26.964 6:29.485 7:92.0888 8:1 
0.01615053399062499 1:0.185911 2:0.182702 3:0.181688 4:32.7828 5:33.8358 6:37.0486 7:98.7846 
0.003749339788218182 1:0.432649 2:0.449092 3:0.435305 4:35.4535 5:36.6451 6:39.9564 7:19.4721 
0.008538241518851408 1:0.194147 2:0.209436 3:0.235734 4:30.8258 5:31.642 6:34.5533 7:43.8378 8:1 
0.009649661875114925 1:0.403228 2:0.420255 3:0.464799 4:27.6481 5:28.4566 6:31.0873 7:108.648 8:1 
0.006671597858915745 1:0.303796 2:0.315195 3:0.34411 4:30.1383 5:30.887 6:33.9014 7:5.13644 8:1 
0.003570285071470058 1:0.589528 2:0.617451 3:0.648023 4:32.5691 5:33.4104 6:36.5275 7:14.6103 8:1 
0.01733409644656475 1:0.332636 2:0.34064 3:0.350401 4:29.9057 5:30.7764 6:33.6469 7:92.1844 8:1 
0.01761259947707772 1:0.0239778 2:0.033746 3:0.0619941 4:35.8641 5:37.0222 6:40.5208 7:44.2499 
0.007320027157915453 1:0.0646319 2:0.0601513 3:0.0973825 4:28.8098 5:29.5203 6:32.3037 7:8.12125 8:1 
0.01373469277361034 1:0.0359304 2:0.0271397 3:0.0143483 4:36.1866 5:37.3061 6:40.7281 7:10.3595 8:1 
0.01320029967547248 1:0.842838 2:0.87208 3:0.964475 4:26.7082 5:27.5067 6:29.8913 7:123.697 
0.01283954116823971 1:0.152877 2:0.166233 3:0.223085 4:31.9375 5:32.8255 6:35.9192 7:59.4179 8:1 
0.01633935351337301 1:0.0558016 2:0.0503886 3:0.0373285 4:32.8458 5:33.75 6:36.9628 7:21.6983 8:1 
0.009070424134536341 1:0.0120406 2:0.0146441 3:0.0138605 4:34.7012 5:35.7484 6:38.9775 7:8.96845 8:1 
0.01290651609401804 1:0.338533 2:0.339468 3:0.358877 4:36.714 5:37.8672 6:41.3641 7:20.3373 
0.0009644568388442688 1:0.38559 2:0.405319 3:0.397247 4:32.8596 5:33.7275 6:36.9988 7:5.65544 8:1 
0.001831654066625554 1:0.0382805 2:0.0297077 3:0.0643175 4:31.5151 5:32.4297 6:35.4026 7:7.70893 8:1 
0.004083337024058764 1:0.320056 2:0.346621 3:0.352486 4:25.3373 5:26.1264 6:28.4627 7:10.3836 
0.00171762059135434 1:0.0904926 2:0.0999928 3:0.0789653 4:25.7914 5:26.6149 6:28.9411 7:12.2416 
0.01038476367371911 1:0.354303 2:0.359509 3:0.386411 4:25.8441 5:26.6503 6:28.9049 7:29.514 
0.01137592594826461 1:1.58324 2:1.61771 3:1.72394 4:19.663 5:20.2255 6:21.9335 7:90.0215 
0.01042589187785201 1:0.100371 2:0.11433 3:0.12785 4:25.2122 5:25.9983 6:28.3215 7:42.6448 8:1 
0.01141658997038059 1:0.0475335 2:0.0383481 3:0.0566018 4:30.4862 5:31.3467 6:34.3039 7:1.43189 8:1 
0.005391886592096779 1:0.209779 2:0.219312 3:0.231899 4:25.7898 5:26.6115 6:28.8959 7:17.7161 
0.002653432872311068 1:0.370281 2:0.387921 3:0.399508 4:21.4266 5:22.0563 6:24.0603 7:6.94312 8:1 
0.004657141076735011 1:0.205084 2:0.209943 3:0.2373 4:26.587 5:27.4444 6:29.7931 7:13.9451 
0.01050418330172983 1:0.221419 2:0.249308 3:0.214773 4:24.3421 5:25.1025 6:27.1814 7:4.81823 
0.001612864442549427 1:0.35838 2:0.377039 3:0.378175 4:20.3351 5:20.9303 6:22.8219 7:7.06556 8:1 
0.01788924768372063 1:2.23955 2:2.36614 3:2.5946 4:37.2431 5:38.1983 6:43.429 7:1196.89 
0.0007961444626685688 1:0.482149 2:0.491811 3:0.498389 4:20.1361 5:20.7442 6:22.5347 7:9.50894 8:1 
0.00459026018367645 1:0.0650073 2:0.0753049 3:0.0686566 4:21.7487 5:22.4146 6:24.2206 7:9.00528 
0.004015044013954849 1:0.447994 2:0.45418 3:0.536355 4:19.1785 5:19.71 6:21.6873 7:9.73198 
0.005531845007559249 1:0.301218 2:0.306738 3:0.298039 4:18.6866 5:19.2218 6:21.012 7:6.82848 8:1 
0.005396643847686642 1:0.0861714 2:0.0832232 3:0.0949059 4:26.8171 5:27.6772 6:29.9698 7:9.26415 
0.01827862510444117 1:7.38354 2:7.64647 3:8.49034 4:24.0282 5:24.7752 6:26.884 7:1198.86 
0.009712998549079699 1:0.874701 2:0.902339 3:0.925322 4:17.6443 5:18.1782 6:19.554 7:57.0322 
0.00723487326872968 1:0.0294136 2:0.0288839 3:0.0283474 4:18.3159 5:18.851 6:20.6654 7:3.89863 
0.01241759575789968 1:0.352692 2:0.352092 3:0.356907 4:7.42254 5:7.56676 6:7.71793 7:22.026 
0.003063970304276187 1:0.397578 2:0.383648 3:0.417355 4:19.4032 5:19.9444 6:21.789 7:12.6887 
0.01549522256704983 1:1.60817 2:1.65461 3:1.80144 4:13.5988 5:14.0032 6:14.8997 7:45.8886 
0.01144779659447767 1:0.371769 2:0.395474 3:0.43743 4:18.993 5:19.5462 6:21.4561 7:2.16241 
0.001721896956232982 1:0.240033 2:0.247908 3:0.239441 4:21.4105 5:22.0531 6:24.0616 7:10.2513 
0.01795706360822358 1:2.48524 2:2.60014 3:3.26025 4:60.8361 5:62.9031 6:71.4151 7:18995.1 
0.01715599777633375 1:0.486801 2:0.502778 3:0.569074 4:30.2252 5:31.0065 6:33.4955 7:76.8608 8:1 
0.007252640994325724 1:0.199668 2:0.206657 3:0.18541 4:31.9066 5:32.7241 6:35.3376 7:38.4298 8:1 
0.01016374616174111 1:0.236599 2:0.22908 3:0.232109 4:32.5204 5:33.3421 6:36.0666 7:16.3732 8:1 
0.001363740516084718 1:0.05716 2:0.0660903 3:0.0721209 4:29.0415 5:29.837 6:32.4042 7:2.19682 8:1 
0.005754940326537577 1:0.250095 2:0.264141 3:0.259857 4:32.0702 5:32.8877 6:35.6184 7:12.2359 8:1 
0.001626524981239973 1:0.104959 2:0.103098 3:0.108326 4:28.3679 5:29.1419 6:31.6538 7:3.39633 8:1 
0.003502803307452567 1:0.157874 2:0.162061 3:0.190643 4:30.9682 5:31.7771 6:34.4718 7:8.49542 8:1 
0.005647080486000877 1:0.0415546 2:0.0298314 3:0.037724 4:29.3266 5:30.1968 6:32.5945 7:4.82856 
0.002650364553817903 1:0.00297666 2:0.014729 3:0.0202627 4:27.4003 5:28.1338 6:30.5319 7:6.35429 8:1 
0.00130535466572751 1:0.0426371 2:0.0445443 3:0.0383539 4:31.5197 5:32.2832 6:35.3449 7:3.35104 8:1 
0.003031054548830658 1:0.24746 2:0.243608 3:0.254333 4:27.9275 5:28.5939 6:31.0218 7:14.237 8:1 
0.00435329793026929 1:0.137134 2:0.136975 3:0.16765 4:29.5243 5:30.3268 6:32.914 7:1.54146 8:1 
1 1:8.20204e-18 2:8.4572e-18 3:8.50059e-18 4:4.10109e-18 5:4.22867e-18 6:4.25037e-18 7:2.27093e-33 
0.002533858253015546 1:0.232344 2:0.251045 3:0.2684 4:26.7935 5:27.4254 6:29.8353 7:5.56132 8:1 
0.001661486413307322 1:0.277011 2:0.298392 3:0.287273 4:23.2065 5:23.847 6:26.179 7:8.66826 8:1 
0.003103651102801919 1:0.215435 2:0.221247 3:0.23739 4:27.2336 5:27.8907 6:30.4778 7:9.87142 8:1 
0.01810280366758765 1:27.6796 2:28.4966 3:32.678 4:187.213 5:193.216 6:221.679 7:77442 
0.004684493221320271 1:0.00157988 2:0.00618708 3:0.00694489 4:24.7781 5:25.3698 6:27.5422 7:19.2079 8:1 
0.0009661062732857276 1:0.193945 2:0.195961 3:0.203027 4:27.8658 5:28.5773 6:31.207 7:3.54326 8:1 
0.003721138479878017 1:0.143003 2:0.149548 3:0.179494 4:26.8096 5:27.4983 6:30.0062 7:2.2641 8:1 
0.005735341316045472 1:0.0904139 2:0.0840316 3:0.0804777 4:28.8291 5:29.6408 6:32.2848 7:12.0677 8:1 
0.0009995962831129141 1:0.153795 2:0.164733 3:0.225824 4:25.4285 5:26.0272 6:28.0333 7:11.4815 8:1 
0.002282713042528932 1:0.129728 2:0.131859 3:0.123832 4:26.5531 5:27.2592 6:29.5875 7:17.6272 8:1 
0.005936269966693543 1:0.275933 2:0.280303 3:0.275283 4:26.0698 5:26.7324 6:29.1616 7:4.0134 8:1 
0.006268103823073992 1:0.0986106 2:0.103266 3:0.123278 4:22.9935 5:23.6008 6:25.4809 7:5.64891 8:1 
0.002155913348066645 1:0.516952 2:0.555116 3:0.591846 4:23.9757 5:24.585 6:26.5631 7:16.309 8:1 
0.004582699169984041 1:0.138073 2:0.149273 3:0.186741 4:25.4912 5:26.1333 6:28.4807 7:7.13878 8:1 
0.004805497835282453 1:0.128907 2:0.13262 3:0.12245 4:22.5763 5:23.1352 6:25.1469 7:33.8971 8:1 
0.001898008394018583 1:0.648835 2:0.670681 3:0.731159 4:21.762 5:22.2877 6:24.1667 7:27.2187 
0.01483525554369691 1:1.43491 2:1.46656 3:1.59593 4:18.0578 5:18.4991 6:20.0092 7:73.3693 
0.006014236295501661 1:1.0214 2:1.05296 3:1.14918 4:16.8872 5:17.3082 6:18.6415 7:115.792 
0.001952289347484874 1:0.0535294 2:0.0433886 3:0.0503579 4:27.885 5:28.7087 6:30.8723 7:7.66199 
0.01786400732582116 1:0.0981877 2:0.107233 3:0.127831 4:9.8186 5:10.0476 6:10.8676 7:126.821 
0.3926890267032735 1:0.0951434 2:0.0972885 3:0.0945892 4:0.305189 5:0.310824 6:0.319922 7:10.4723 
0.01688172296432427 1:0.349032 2:0.352868 3:0.392385 4:9.54566 5:9.74007 6:10.3875 7:117.639 8:1 
0.6619860283477719 1:0.405516 2:0.422164 3:0.471757 4:0.598961 5:0.617934 6:0.66876 7:31.3782 
0.01810707216011681 1:0.527186 2:0.550538 3:0.607301 4:18.8275 5:19.4162 6:21.0866 7:210.173 
0.009792226017468653 1:0.239632 2:0.243882 3:0.281807 4:23.4947 5:24.18 6:25.9359 7:36.7848 
0.01785454239828876 1:22.5156 2:23.3107 3:26.8951 4:309.018 5:319.197 6:367.462 7:164463 
0.006743362883204258 1:0.485601 2:0.505303 3:0.550126 4:20.998 5:21.6375 6:23.3155 7:49.7025 
0.01578629531215675 1:0.451487 2:0.458037 3:0.474269 4:15.3266 5:15.8242 6:17.1761 7:78.8444 
0.005177780936979348 1:0.132439 2:0.139804 3:0.110212 4:20.1768 5:20.7989 6:22.4022 7:22.1675 8:1 
0.01068726128132215 1:0.287985 2:0.299167 3:0.326596 4:17.1006 5:17.6575 6:19.1626 7:34.5178 
0.01738506209967938 1:0.0851209 2:0.0913544 3:0.102446 4:6.46643 5:6.64183 6:7.30735 7:55.4709 8:1 
0.00324627147840499 1:0.0646861 2:0.0723233 3:0.0696301 4:20.6007 5:21.2274 6:22.8081 7:8.14416 
0.006694716450524427 1:0.130659 2:0.12749 3:0.137317 4:30.1653 5:31.0919 6:33.6827 7:11.9501 
0.003091876928579145 1:0.406088 2:0.41838 3:0.423287 4:22.2375 5:22.9013 6:24.903 7:15.6707 
0.007310529415955275 1:0.131861 2:0.15413 3:0.162229 4:23.3054 5:23.9874 6:26.0197 7:18.0502 
0.007742191576451228 1:0.203762 2:0.215892 3:0.224261 4:21.7731 5:22.429 6:24.0832 7:13.2526 
0.006830263335981544 1:0.0524775 2:0.0347455 3:0.0525525 4:24.1775 5:24.8763 6:26.7164 7:13.0208 
0.001510343043509858 1:0.27609 2:0.282675 3:0.311022 4:25.9113 5:26.6728 6:29.0764 7:10.5162 8:1 
0.002505308058304195 1:0.532653 2:0.555203 3:0.587317 4:27.0833 5:27.8704 6:30.3179 7:7.12858 8:1 
0.01667303953018993 1:1.07286 2:1.13557 3:1.18273 4:9.74599 5:10.0033 6:10.441 7:88.2545 
0.006472570977219287 1:0.594936 2:0.614741 3:0.669201 4:14.13 5:14.5492 6:15.423 7:124.321 
0.0009022262078334952 1:0.131028 2:0.120933 3:0.136414 4:23.1308 5:23.8362 6:25.5934 7:10.7173 
0.009203961614542941 1:0.820654 2:0.845994 3:0.931462 4:22.0739 5:22.6658 6:24.6584 7:37.1703 
0.01786314310380027 1:27.0622 2:28.0087 3:32.5061 4:77.3249 5:79.861 6:90.7629 7:27149.1 
0.007151634609575128 1:0.493047 2:0.505691 3:0.564024 4:16.8789 5:17.3686 6:18.764 7:19.8586 
0.01572673795534545 1:2.42847 2:2.51062 3:2.68537 4:19.7001 5:20.2235 6:21.6691 7:130.812 
0.01345583066127787 1:1.59058 2:1.61334 3:1.78075 4:9.12972 5:9.28352 6:10.2769 7:139.074 
0.002366631756468729 1:0.0631585 2:0.0727199 3:0.0600276 4:20.0209 5:20.6155 6:22.5453 7:4.21291 8:1 
0.01090068999121269 1:0.535064 2:0.546256 3:0.575095 4:20.1399 5:20.7474 6:22.319 7:80.9675 
0.01261700528197215 1:0.167475 2:0.207083 3:0.229456 4:21.2311 5:21.8583 6:23.8651 7:3.68827 
0.007136823661989156 1:0.343621 2:0.354979 3:0.394285 4:11.9815 5:12.3534 6:13.4376 7:15.7825 
0.01791292815648465 1:0.400556 2:0.412336 3:0.457839 4:8.1062 5:8.30502 6:8.65736 7:204.42 
0.01792068711712008 1:6.72605 2:6.93318 3:7.70463 4:9.41921 5:9.71535 6:10.5867 7:3175.89 
0.01797513749596513 1:44.6475 2:46.0711 3:54.1128 4:149.288 5:153.891 6:179.108 7:59563 
0.01800088321547449 1:0.210397 2:0.218121 3:0.248052 4:11.9661 5:12.3272 6:13.4156 7:2140.95 8:1 
0.003591889345871195 1:0.473945 2:0.492258 3:0.581148 4:21.8456 5:22.4715 6:24.7932 7:9.83342 8:1 
0.003491677209905653 1:0.0944319 2:0.0955533 3:0.123087 4:19.369 5:19.8809 6:22.0069 7:7.1681 8:1 
0.01809933893519833 1:0.396552 2:0.388959 3:0.345286 4:15.9922 5:16.2965 6:17.3963 7:170.611 
0.01803690555210796 1:10.6612 2:11.0418 3:13.1058 4:10.4695 5:10.8172 6:12.5368 7:1795.95 
0.01057260598295524 1:0.00592113 2:0.0155127 3:0.0419691 4:27.4495 5:28.208 6:30.4747 7:1.30905 8:1 
0.007082538296219398 1:0.118449 2:0.119522 3:0.127975 4:18.584 5:19.0892 6:21.1251 7:30.0374 8:1 
0.0009834289657630042 1:0.453064 2:0.46913 3:0.557669 4:25.9335 5:26.6097 6:28.5558 7:9.03434 8:1 
0.01766489633008822 1:9.96478 2:10.295 3:11.4061 4:13.0985 5:13.5294 6:14.8202 7:3557.37 
0.007539455981143139 1:0.165252 2:0.184406 3:0.168217 4:22.5834 5:23.1664 6:24.6961 7:23.8479 
0.0007729697321719029 1:0.327595 2:0.36122 3:0.362747 4:23.8473 5:24.4063 6:26.1356 7:13.4246 8:1 
0.003483776051324676 1:0.0457811 2:0.0554183 3:0.0429456 4:18.112 5:18.5063 6:20.253 7:19.3916 8:1 
0.007246880098633397 1:0.278013 2:0.276634 3:0.262388 4:21.347 5:21.831 6:23.321 7:29.0949 
0.006188611793995664 1:0.686206 2:0.697697 3:0.748865 4:8.30056 5:8.41523 6:8.73243 7:35.7421 
0.01372080450609797 1:0.0869572 2:0.106234 3:0.12501 4:15.3796 5:15.7109 6:16.7015 7:96.9869 
0.01055752020883477 1:0.59635 2:0.605196 3:0.668544 4:25.3162 5:25.9095 6:27.8465 7:48.3927 8:1 
0.01772175015369287 1:1.17668 2:1.16296 3:1.05786 4:26.3463 5:27.1909 6:31.4926 7:15065.2 
0.01672022864591046 1:1.53801 2:1.59923 3:1.7507 4:7.44548 5:7.59517 6:7.93417 7:87.6924 8:1 
0.01765081519725459 1:28.1179 2:29.1062 3:34.0888 4:108.629 5:112.276 6:130.438 7:52180.8 
0.01793605470753717 1:0.134467 2:0.100916 3:0.114472 4:121.223 5:125.356 6:145.799 7:57785.6 
0.0133558906541216 1:0.507115 2:0.504923 3:0.542388 4:16.6773 5:17.0328 6:18.1277 7:45.9244 
0.01790497945420394 1:4.01779 2:4.16194 3:4.891 4:14.2691 5:14.6645 6:16.2498 7:15943.4 
0.01764733802341478 1:0.365162 2:0.497208 3:1.15849 4:322.106 5:333.431 6:387.988 7:71573.2 
0.01767286690119879 1:18.4976 2:19.1151 3:22.4355 4:77.8985 5:80.4932 6:94.3679 7:75770.9 
0.005261885418025327 1:0.783728 2:0.814636 3:0.811353 4:6.40078 5:6.54041 6:6.41631 7:16.2251 
0.01527516135939649 1:1.70673 2:1.76623 3:1.89077 4:8.66652 5:8.88241 6:9.20411 7:96.7696 
0.004133852240423249 1:0.191253 2:0.197352 3:0.186113 4:4.30939 5:4.42589 6:4.97693 7:5.72737 
0.01752389577487967 1:0.459991 2:0.491877 3:0.513822 4:18.343 5:18.7786 6:19.83 7:390.305 
0.0127381360509195 1:0.0883837 2:0.0874417 3:0.133662 4:10.9206 5:11.145 6:11.8644 7:195.246 
0.0175524393303309 1:10.3538 2:10.7499 3:12.5412 4:191.75 5:198.081 6:232.253 7:101463 
0.01756631721341628 1:38.6217 2:39.8375 3:46.5524 4:73.011 5:75.3357 6:86.8599 7:43761.8 
0.01820668795596636 1:3.56135 2:3.66014 3:4.17305 4:4.2804 5:4.39088 6:4.77685 7:183.172 
0.00889755414561394 1:0.524402 2:0.530361 3:0.559458 4:12.6473 5:12.9908 6:13.8678 7:24.7083 
0.01759542529048497 1:43.5061 2:44.9326 3:53.1109 4:294.801 5:304.167 6:354.532 7:155384 
1 
0.01753957873674195 1:8.23499 2:8.47952 3:9.78941 4:46.4885 5:47.9448 6:54.7798 7:4333.81 
0.01755994943772593 1:8.41405 2:8.63831 3:10.4672 4:354.648 5:366.373 6:431.807 7:183224 
0.01094452371254102 1:1.42542 2:1.46518 3:1.58722 4:15.0215 5:15.4181 6:16.5909 7:12.1154 
0.0153598835297471 1:0.914148 2:0.930926 3:0.951144 4:5.18782 5:5.28326 6:5.21355 7:41.059 
0.009770316020656755 1:1.0648 2:1.09193 3:1.1266 4:19.0202 5:19.534 6:20.9121 7:49.4219 
0.01758286905576228 1:4.12634 2:4.27875 3:4.9824 4:20.8977 5:21.3752 6:23.0617 7:1281.89 
0.002087710711676849 1:0.756224 2:0.766808 3:0.899628 4:20.2705 5:20.7985 6:22.486 7:108.021 
0.008294877456315186 1:0.158111 2:0.147099 3:0.139329 4:16.3687 5:16.7008 6:18.2372 7:16.6806 
0.004475362467043609 1:0.193362 2:0.196393 3:0.218832 4:10.3541 5:10.6614 6:11.639 7:26.2268 
0.006892906334131571 1:0.0654885 2:0.0680692 3:0.0627857 4:3.89151 5:4.01694 6:4.05887 7:17.189 
0.009117630098658958 1:0.436392 2:0.453344 3:0.482948 4:8.87836 5:9.02419 6:9.94395 7:21.1736 8:1 
0.6347328812985287 1:1.00477e-06 2:1.02911e-06 3:9.89899e-07 4:5.02387e-07 5:5.14553e-07 6:4.9495e-07 7:5.73643 
0.01781963862910485 1:0.30519 2:0.31155 3:0.328921 4:7.18682 5:7.38388 6:7.96729 7:65.9819 
0.01748103268737733 1:0.331365 2:0.338326 3:0.35066 4:11.5302 5:11.8519 6:12.6459 7:83.4231 
0.01746242185459018 1:2.42595 2:2.49444 3:2.81554 4:14.5212 5:14.9591 6:16.4215 7:955.003 
0.01528402582098114 1:1.11153 2:1.14842 3:1.25599 4:14.9548 5:15.3222 6:16.8586 7:84.0158 8:1 
0.002681729012472714 1:0.101027 2:0.102381 3:0.108975 4:16.2965 5:16.761 6:17.8311 7:1.56359 8:1 
0.01757774493094616 1:0.021999 2:0.0230619 3:0.021104 4:0.8029 5:0.762668 6:0.788946 7:263.406 8:1 
0.009349486701194287 1:0.0654411 2:0.0667711 3:0.0658131 4:16.3088 5:16.7771 6:17.8571 7:1.89996 8:1 
0.009362463049372296 1:0.504047 2:0.518015 3:0.54703 4:10.5161 5:10.8007 6:11.6516 7:34.2048 
0.01757820699348994 1:64.6406 2:66.867 3:78.8524 4:353.417 5:365.405 6:425.826 7:159880 
0.005269010771223106 1:0.203391 2:0.204166 3:0.225394 4:9.58003 5:9.83945 6:10.7163 7:30.2144 
0.2618404875185434 1:0.117263 2:0.121062 3:0.125912 4:0.581695 5:0.595283 6:0.65821 7:6.75761 
1 1:0.113746 2:0.11777 3:0.120944 4:0.0568732 5:0.0588851 6:0.0604725 7:0.440364 
0.009266964438562906 1:0.0194352 2:0.0182418 3:0.0157419 4:12.2352 5:12.5579 6:13.6761 7:41.7382 8:1 
0.01758606679122338 1:0.863942 2:0.884601 3:0.84771 4:21.9461 5:22.6008 6:25.0479 7:6489.73 
1 1:3.74802e-24 2:3.78172e-24 3:3.52897e-24 4:1.87412e-24 5:1.89098e-24 6:1.7646e-24 7:3.50325e-46 
0.01818284506176071 1:15.1049 2:15.4553 3:18.6637 4:455.126 5:470.732 6:551.555 7:133268 
1 1:3.0247e-34 2:3.12408e-34 3:3.45368e-34 4:1.52273e-34 5:1.57288e-34 6:1.73857e-34 7:0.0482126 
0.0179882365166748 1:0.251351 2:0.265278 3:0.264026 4:1.41642 5:1.41242 6:1.48515 7:2072.23 
0.01798835253310938 1:2.12315 2:2.19096 3:2.24358 4:24.3177 5:25.0142 6:27.354 7:28324.7 
0.01776272124440287 1:54.6441 2:56.3254 3:65.8776 4:358.117 5:369.654 6:434.587 7:222042 
0.01779087647532279 1:12.822 2:13.117 3:15.5436 4:587.888 5:607.496 6:707.89 7:45779.2 
0.01781916014247675 1:1.95798 2:1.95891 3:2.3013 4:352.099 5:364.175 6:421.615 7:104415 
0.005102303362073261 1:0.0514086 2:0.0563073 3:0.0606672 4:13.1953 5:13.5404 6:14.735 7:1.97046 8:1 
0.01789031614625514 1:32.3524 2:33.3416 3:39.0368 4:32.2546 5:33.237 6:38.8342 7:32641.1 
0.01772146101741223 1:5.945 2:6.08682 3:6.62223 4:161.135 5:166.226 6:187.927 7:56122.9 
0.01773726153112093 1:5.38564 2:5.44724 3:6.54767 4:586.954 5:606.588 6:708.383 7:123993 
0.008365247329141901 1:0.00465627 2:0.0054715 3:0.0192453 4:3.94947 5:4.04242 6:4.40768 7:25.0832 
0.02487363784691221 1:0.542382 2:0.543895 3:0.473697 4:2.1981 5:2.26397 6:2.37086 7:68.0741 
0.0179322934560775 1:2.5995 2:2.6653 3:2.78948 4:36.1668 5:37.0135 6:39.4478 7:768.096 
0.01792929205157195 1:0.357193 2:0.370624 3:0.388805 4:3.5694 5:3.60637 6:3.99662 7:1508.29 
0.01791239856639881 1:3.89249 2:4.06851 3:4.94545 4:17.3063 5:17.7224 6:19.3724 7:1097.99 
0.3826060024418984 1:0.0939383 2:0.0950009 3:0.0722362 4:0.693602 5:0.702117 6:0.719684 7:14.0897 
0.00427408182085272 1:0.646629 2:0.677601 3:0.727137 4:13.8071 5:14.1216 6:15.2913 7:5.15844 8:1 
0.01819456018447801 1:0.503574 2:0.516778 3:0.580389 4:6.22855 5:6.41862 6:7.45435 7:524.948 
0.004949958000191657 1:0.267248 2:0.27004 3:0.304915 4:6.69193 5:6.8038 6:7.59094 7:6.54825 
1 1:0.00584949 2:0.0045048 3:0.0112305 4:0.0615415 5:0.0627153 6:0.0682805 7:1.07415 
0.01816401299805687 1:1.77948 2:1.82168 3:2.3524 4:15.6378 5:16.0477 6:17.1308 7:416.986 
0.01808719585135415 1:27.2425 2:28.1222 3:32.3757 4:33.0226 5:33.9523 6:38.4956 7:6753.44 
0.01812278862408523 1:59.3303 2:61.3948 3:71.1284 4:118.744 5:122.82 6:142.173 7:57643.2 
0.005419058538897448 1:0.356506 2:0.368409 3:0.387563 4:15.6457 5:16.0092 6:17.302 7:4.92036 8:1 
0.001582910117323977 1:0.064626 2:0.071248 3:0.0849093 4:4.53376 5:4.57552 6:4.71088 7:3.08261 8:1 
0.01792423015038669 1:6.58846 2:6.79492 3:7.8421 4:26.0122 5:26.8345 6:30.6202 7:821.595 
0.01794671532265052 1:1.14981 2:1.19672 3:1.26265 4:9.69046 5:9.85131 6:10.7032 7:321.463 
0.005898439043305281 1:0.593691 2:0.597018 3:0.611852 4:4.57394 5:4.63646 6:4.85131 7:44.6524 
0.01795615931482597 1:0.760984 2:0.762419 3:0.734638 4:30.7928 5:31.6499 6:36.0956 7:23225.5 
0.01798553681526638 1:21.4801 2:22.1989 3:24.406 4:65.1273 5:67.1985 6:74.4178 7:29151.6 
0.0008424321531573301 1:0.0536622 2:0.052531 3:0.0608839 4:10.9193 5:11.1571 6:11.8342 7:4.23032 8:1 
0.01780187613857109 1:8.64444 2:8.95603 3:10.3907 4:14.381 5:14.8949 6:17.3592 7:9163.62 
0.01803702899360049 1:5.35743 2:5.48427 3:6.34783 4:18.8423 5:19.4118 6:22.4634 7:3647.71 
0.01792203332600367 1:19.4093 2:20.1324 3:23.5214 4:76.8031 5:79.5092 6:92.3625 7:37298.6 
1 1:0.0229518 2:0.0233582 3:0.0231529 4:0.0114759 5:0.0116791 6:0.0115765 7:0.017323 
0.01784318328931822 1:79.8547 2:82.4338 3:96.9109 4:441.25 5:454.925 6:533.041 7:228907 
0.01785444977290723 1:7.0307 2:7.40685 3:9.28144 4:157.922 5:163.365 6:192.83 7:32085.8 
0.01780339522295565 1:3.07157 2:3.17453 3:3.66758 4:15.7162 5:16.157 6:17.5005 7:1082.77 
0.01772374175333091 1:23.2917 2:24.1173 3:28.8498 4:442.043 5:456.916 6:540.356 7:130220 
0.01773577530935516 1:31.2342 2:32.2632 3:38.3326 4:422.355 5:435.439 6:510.601 7:205892 
0.01101928027460066 1:0.0578936 2:0.0330331 3:0.0909341 4:5.16249 5:5.22303 6:5.56957 7:71.7764 
0.01067539928234612 1:0.0814458 2:0.102387 3:0.167693 4:7.27257 5:7.42831 6:7.8355 7:35.9565 
0.01774629347063528 1:42.5244 2:43.8138 3:51.0419 4:263.925 5:272.651 6:321.601 7:102207 
0.01763242676048149 1:48.5486 2:50.186 3:58.1475 4:354.45 5:366.457 6:424.544 7:96291.4 
0.01763987130087458 1:2.01729 2:2.08755 3:2.39154 4:19.1111 5:19.6123 6:21.9047 7:3314.54 
0.01745012158816867 1:0.44964 2:0.44498 3:0.576733 4:19.845 5:20.4593 6:23.0354 7:15912 
0.01741956422754831 1:25.9258 2:26.7514 3:31.3742 4:276.444 5:285.903 6:328.708 7:61005.4 
0.01788946915691675 1:11.2375 2:11.6179 3:13.9964 4:45.8212 5:47.2698 6:54.9236 7:12405.9 
0.01789300841081926 1:0.0226768 2:0.0174488 3:0.060185 4:3.12698 5:3.19163 6:3.15077 7:7590.7 
0.01023058027971957 1:0.830394 2:0.848469 3:0.845797 4:4.87737 5:4.98854 6:4.98532 7:35.9841 
0.01794520058049337 1:47.6494 2:49.3311 3:57.1037 4:81.9178 5:84.5854 6:95.2414 7:28096 
0.006039608117669848 1:0.105329 2:0.111545 3:0.0541043 4:5.07583 5:5.25218 6:4.90639 7:9.0966 
0.01265101167905076 1:1.62927 2:1.69552 3:1.93175 4:16.7915 5:17.1689 6:17.2264 7:158.038 
1 1:3.33908e-25 2:3.43271e-25 3:3.29235e-25 4:1.67002e-25 5:1.71685e-25 6:1.64667e-25 
0.01180683528961818 1:0.698767 2:0.730794 3:0.7846 4:9.69498 5:9.9072 6:10.8431 7:98.9001 
1 1:0.0132846 2:0.0134724 3:0.0121901 4:0.00664228 5:0.0067362 6:0.00609504 7:0.0057628 
0.003070556207283137 1:0.0156963 2:0.0213152 3:0.0232582 4:10.9261 5:11.1845 6:12.2884 7:7.92079 
0.0007228983965847932 1:0.296037 2:0.302315 3:0.342645 4:4.26402 5:4.32175 6:4.84974 7:12.5164 
0.00793208792078344 1:0.139189 2:0.143006 3:0.139319 4:11.3979 5:11.6624 6:12.8297 7:1.46249 8:1 
0.01792846689956651 1:32.7187 2:33.8725 3:40.2469 4:127.84 5:132.116 6:155.142 7:61415.3 
0.0179313230277714 1:49.2278 2:50.9165 3:60.7302 4:339.023 5:350.398 6:412.696 7:201601 
0.003291789509707654 1:0.54849 2:0.552142 3:0.588587 4:11.9126 5:12.1586 6:13.1361 7:28.2268 
0.01793077253092951 1:0.258817 2:0.27129 3:0.320212 4:5.80958 5:5.94004 6:6.35881 7:4686.97 
0.0008451737636787093 1:0.777311 2:0.799157 3:0.824726 4:9.97312 5:10.1057 6:11.0806 7:6.86494 8:1 
0.01808587017769347 1:3.91713 2:4.07122 3:4.47149 4:14.7205 5:15.1475 6:16.4893 7:1364.42 
0.01318724445462779 1:0.0999794 2:0.0760535 3:0.022566 4:11.1082 5:11.3511 6:11.9842 7:146.798 
1 1:2.84903e-26 2:2.94096e-26 3:3.12961e-26 4:1.42451e-26 5:1.47048e-26 6:1.5648e-26 7:0.69072 
1 1:1.97092e-28 2:2.02889e-28 3:2.02965e-28 4:9.85461e-29 5:1.01444e-28 6:1.01482e-28 
0.01807678341968671 1:41.0243 2:42.5798 3:51.4013 4:89.655 5:92.7366 6:108.452 7:45947.4 
1 1:1.01115e-29 2:1.05311e-29 3:1.08301e-29 4:5.05574e-30 5:5.26557e-30 6:5.41507e-30 7:0.752143 
0.01807680620396662 1:4.26443 2:4.43391 3:5.05071 4:18.3683 5:18.9593 6:21.0808 7:5203.51 
0.01805296090471542 1:16.8036 2:17.3802 3:20.5194 4:10.6298 5:10.8715 6:12.6666 7:9598.6 
0.01806590761747223 1:63.0151 2:65.0768 3:76.9371 4:139.974 5:144.67 6:170.123 7:119758 
0.01804868910188734 1:23.7882 2:24.6044 3:28.8683 4:72.0621 5:74.4471 6:86.3727 7:19028.4 
0.01807181951590164 1:0.0575679 2:0.059791 3:0.0665137 4:4.69872 5:4.79589 6:5.06777 7:94.7293 
0.0182055689914733 1:4.97215 2:5.15913 3:6.11578 4:3.54928 5:3.66834 6:4.27278 7:903.999 
0.01793217905060451 1:11.0248 2:11.4078 3:13.3675 4:167.307 5:173.01 6:204.874 7:101025 
0.001485849108665953 1:0.579613 2:0.602283 3:0.62825 4:13.54 5:13.7516 6:15.0259 7:8.38889 8:1 
0.01753129417907279 1:3.39321 2:3.53538 3:3.8716 4:34.238 5:35.3273 6:39.8233 7:10921.5 
0.0177596961833496 1:9.02468 2:9.29836 3:10.8318 4:131.536 5:136.048 6:158.743 7:38879.6 
0.01780382543751563 1:33.4702 2:34.7211 3:40.7271 4:84.8879 5:87.8169 6:102.571 7:36715.2 
0.01605626523743203 1:1.12076 2:1.15744 3:1.23573 4:3.18062 5:3.23479 6:3.56751 7:63.0982 
0.01161149686058808 1:0.343029 2:0.350281 3:0.373135 4:3.67303 5:3.74134 6:4.05686 7:27.7665 
0.003125282914429262 1:0.208268 2:0.214197 3:0.242021 4:8.08293 5:8.107 6:9.23121 7:5.94823 
0.0168137152717272 1:3.15455 2:3.2152 3:3.24651 4:15.7284 5:16.0936 6:17.157 7:110.227 
0.01818436704268278 1:0.708898 2:0.746425 3:1.38181 4:22.9769 5:23.702 6:27.0475 7:1563.34 
0.01831975031070016 1:2.99859 2:3.11797 3:3.78185 4:13.6231 5:14.0662 6:15.8883 7:2356.96 
0.003814408216607622 1:0.254031 2:0.264135 3:0.285559 4:12.0516 5:12.2921 6:13.3929 7:1.82927 
0.000820382024298516 1:0.112108 2:0.114144 3:0.112775 4:11.5463 5:11.7682 6:12.8386 7:3.30782 
1 1:0.0431948 2:0.0433504 3:0.04619 4:0.0261316 5:0.0260132 6:0.0278267 7:0.014296 8:1 
0.01832137172235027 1:1.32945 2:1.37531 3:1.62063 4:2.47102 5:2.55438 6:2.9383 7:2626.99 
0.001534860926390769 1:0.169937 2:0.172002 3:0.163968 4:10.2749 5:10.503 6:11.8126 7:1.64378 8:1 
0.01823782606817476 1:10.3992 2:10.7822 3:12.5514 4:30.4218 5:31.4903 6:36.4685 7:8733.62 
0.003176567111971897 1:0.313518 2:0.316687 3:0.343354 4:6.76532 5:6.78329 6:7.75713 7:15.2021 
0.01828653270121022 1:1.27212 2:1.33624 3:1.53281 4:10.4161 5:10.748 6:12.3786 7:746.719 
0.0006041817739610643 1:0.00797731 2:0.0054583 3:0.00345141 4:12.2788 5:12.3937 6:13.744 7:6.74403 8:1 
0.01824588132240995 1:17.4813 2:18.0753 3:20.865 4:109.719 5:113.409 6:131.944 7:47960 
0.0181032424904643 1:1.43563 2:1.47524 3:1.59485 4:4.09221 5:4.20737 6:4.59543 7:168.53 
0.004784646507403401 1:0.215441 2:0.227052 3:0.226923 4:9.59139 5:9.79942 6:11.0716 7:2.36235 
0.01802936899051688 1:0.0478211 2:0.0504296 3:0.045088 4:0.571288 5:0.579765 6:0.666306 7:9078.47 
0.3055278746022972 1:1.00968 2:1.0372 3:1.08459 4:1.09006 5:1.11148 6:1.18691 7:22.2453 
0.0007212397370723988 1:0.837799 2:0.862429 3:0.884713 4:11.6856 5:11.7505 6:13.1595 7:8.05539 8:1 
0.01787148160320762 1:47.3975 2:48.9666 3:57.5805 4:102.999 5:106.372 6:125.135 7:60775.7 
0.002519214485020778 1:0.049428 2:0.0486174 3:0.0401304 4:14.1071 5:14.1899 6:15.4444 7:13.7985 8:1 
0.001634846727186812 1:0.945947 2:0.964061 3:1.00393 4:14.4398 5:14.5321 6:15.8098 7:13.9557 8:1 
0.006471047432667478 1:0.0692791 2:0.0761954 3:0.0706708 4:14.4626 5:14.5533 6:15.8574 7:17.4344 8:1 
1 7:1.46498 
0.004305802569130161 1:0.553548 2:0.56663 3:0.59307 4:9.54003 5:9.59947 6:10.7534 7:7.88899 
0.005281842037441789 1:0.0573359 2:0.0593275 3:0.0333054 4:15.5496 5:15.6806 6:17.2936 7:7.88596 
0.01743582883833517 1:47.308 2:48.9775 3:56.5068 4:136.653 5:141.287 6:163.487 7:57307.9 
0.01808393389570295 1:5.83067 2:6.05755 3:6.99239 4:65.117 5:67.339 6:78.4625 7:12819 
0.01806797991377929 1:26.3199 2:27.2252 3:31.8366 4:107.971 5:111.664 6:129.509 7:17188.3 
0.01773967485323669 1:3.83129 2:3.97225 3:4.59002 4:9.05893 5:9.30693 6:10.3381 7:707.353 
0.01767878734084599 1:1.87923 2:1.94302 3:2.20388 4:15.2038 5:15.5624 6:17.9105 7:4783.78 
0.007006340225081564 1:0.0144986 2:0.0113506 3:0.000488639 4:16.4073 5:16.547 6:18.255 7:11.839 8:1 
0.001557791715369764 1:0.0278434 2:0.0341234 3:0.0294867 4:7.4218 5:7.49521 6:8.63229 7:5.66473 8:1 
0.004617223669786326 1:0.751354 2:0.771828 3:0.815046 4:12.746 5:12.8121 6:14.4723 7:7.95502 8:1 
0.00842902173152019 1:1.06216 2:1.08557 3:1.11075 4:17.3616 5:17.4777 6:19.2139 7:14.6648 8:1 
0.01261991646494792 1:1.74025 2:1.77854 3:1.87731 4:14.2473 5:14.3702 6:15.9801 7:18.4699 8:1 
1 1:0.0526355 2:0.0529199 3:0.0592508 4:0.0575067 5:0.0576598 6:0.0657534 7:0.0366864 8:1 
0.003709809153031418 1:1.03689 2:1.04284 3:1.05074 4:19.5159 5:19.6401 6:21.3868 7:14.1921 8:1 
1 1:0.00451539 2:0.00456233 3:0.00514898 4:0.00225769 5:0.00228116 6:0.00257449 7:0.000660866 8:1 
0.002957546935658526 1:0.00465202 2:0.00786245 3:0.00175297 4:19.275 5:19.3937 6:21.2608 7:17.0822 8:1 
0.008651589822686614 1:0.997693 2:1.03389 3:1.13942 4:19.7606 5:19.9063 6:21.8711 7:26.5556 8:1 
1 1:3.39744e-11 2:3.6862e-11 3:4.68149e-11 4:1.2627e-10 5:1.29461e-10 6:1.50987e-10 7:4.83712e-19 8:1 
1 1:0.0410411 2:0.0406593 3:0.0466497 4:0.0205205 5:0.0203297 6:0.0233248 7:0.0524885 8:1 
0.003649407807428428 1:0.798585 2:0.820569 3:0.828195 4:15.9047 5:16.0432 6:17.8354 7:43.0693 8:1 
0.0007204434914535041 1:0.044124 2:0.0432166 3:0.0595272 4:17.7112 5:17.8749 6:19.8583 7:13.658 8:1 
0.004155236047330288 1:0.0268033 2:0.0296237 3:0.0530027 4:18.1111 5:18.2918 6:20.2974 7:17.3412 8:1 
0.01126825339156076 1:1.83959 2:1.90485 3:1.91993 4:20.3213 5:20.5088 6:22.4989 7:17.288 8:1 
0.002954871205936601 1:0.802317 2:0.827536 3:0.834318 4:18.811 5:19.0038 6:21.0687 7:20.7773 8:1 
0.0009900384163079028 1:0.00368881 2:0.0055666 3:0.0230784 4:19.1039 5:19.2902 6:21.1321 7:21.5163 8:1 
0.00518169138916558 1:0.0485446 2:0.0359764 3:0.0563043 4:19.9135 5:20.1354 6:22.2993 7:14.3416 8:1 
0.009582420271183075 1:0.320552 2:0.32057 3:0.389066 4:17.9493 5:18.1234 6:19.7999 7:25.4699 8:1 
0.000980624879073907 1:0.134339 2:0.134085 3:0.0950269 4:18.5202 5:18.6159 6:20.6392 7:22.7497 8:1 
0.002083627701674146 1:0.185141 2:0.190164 3:0.200751 4:7.40189 5:7.56429 6:8.42495 7:12.6558 8:1 
0.008063277267369287 1:0.00108933 2:0.00320005 3:0.042601 4:15.9217 5:16.0607 6:17.6369 7:27.913 8:1 
0.004886242229524509 1:0.161743 2:0.167413 3:0.129112 4:19.6338 5:19.8459 6:22.0783 7:10.7813 8:1 
0.000702025535320205 1:0.177711 2:0.187176 3:0.132254 4:18.6304 5:18.7317 6:20.7037 7:16.0202 8:1 
0.002098247570651156 1:0.981525 2:1.01021 3:1.03732 4:12.3525 5:12.4642 6:13.8458 7:20.8561 8:1 
0.00102835541238816 1:0.427666 2:0.434912 3:0.452051 4:7.06784 5:7.18615 6:8.11736 7:19.5556 8:1 
0.006050409505874771 1:0.338555 2:0.339221 3:0.367898 4:8.00528 5:8.1332 6:9.2405 7:13.3781 8:1 
0.0006710876600528604 1:0.300692 2:0.303141 3:0.306369 4:23.2118 5:23.4157 6:25.8272 7:28.3678 8:1 
0.003100170497386886 1:0.0737143 2:0.0797595 3:0.0501587 4:13.2761 5:13.5829 6:15.2028 7:10.5241 8:1 
0.002557957175410297 1:0.155959 2:0.161797 3:0.163558 4:4.56553 5:4.59065 6:5.32422 7:4.54195 8:1 
0.00449882041791181 1:0.118708 2:0.112829 3:0.118174 4:14.6325 5:14.9755 6:16.7203 7:9.46905 8:1 
0.00379426769289859 1:0.635923 2:0.64912 3:0.730001 4:10.4051 5:10.5544 6:12.0891 7:21.9542 8:1 
0.001886531614800959 1:0.668227 2:0.677221 3:0.706766 4:15.3171 5:15.5539 6:17.1814 7:20.0298 8:1 
0.007465156706192976 1:1.03085 2:1.05932 3:1.14823 4:10.4359 5:10.5894 6:12.1224 7:19.856 8:1 
0.00227222104517208 1:0.0527916 2:0.0521209 3:0.121189 4:20.6146 5:20.8031 6:23.1393 7:25.0113 8:1 
0.009122244957123094 1:0.559098 2:0.569611 3:0.56692 4:16.8602 5:17.2647 6:19.1605 7:7.78995 8:1 
0.002761571521148387 1:0.956833 2:0.968634 3:0.98955 4:20.5515 5:20.7483 6:23.0615 7:20.9334 8:1 
0.002277754284348845 1:0.221458 2:0.229776 3:0.333199 4:19.464 5:19.6586 6:21.9103 7:23.6995 8:1 
0.004852121940980253 1:1.26681 2:1.31981 3:1.34773 4:22.5553 5:22.7406 6:25.2521 7:32.5864 8:1 
0.001938171502660899 1:0.0535119 2:0.0716722 3:0.0832903 4:19.8154 5:20.0195 6:22.3419 7:21.1003 8:1 
0.00298518311947266 1:0.0992261 2:0.117984 3:0.239723 4:20.0135 5:20.2469 6:22.6154 7:28.6792 8:1 
0.001195146686351234 1:0.138773 2:0.142434 3:0.193482 4:15.5938 5:15.8395 6:17.7354 7:15.8487 8:1 
0.008706506646716017 1:0.630321 2:0.646102 3:0.582497 4:20.2555 5:20.51 6:22.8457 7:33.8441 8:1 
0.002890144629763764 1:0.355099 2:0.354319 3:0.362155 4:22.6055 5:22.7994 6:25.4922 7:20.3574 8:1 
0.006451520138847227 1:1.58341 2:1.64657 3:1.71651 4:22.5556 5:22.757 6:25.4969 7:24.9399 8:1 
0.002507037026057239 1:0.0123728 2:0.0171337 3:0.0160862 4:8.39254 5:8.47134 6:9.97721 7:4.10689 8:1 
0.003257279240637371 1:0.966541 2:1.00072 3:1.01472 4:22.4245 5:22.6143 6:25.3763 7:21.4098 8:1 
0.001249187530604157 1:1.00996 2:1.06655 3:1.16191 4:22.3354 5:22.5495 6:25.5131 7:27.6269 8:1 
0.004822439670387061 1:0.857043 2:0.884353 3:0.89724 4:12.3873 5:12.5876 6:14.2617 7:11.7404 8:1 
0.004661986236358718 1:0.33752 2:0.348401 3:0.384383 4:21.4903 5:21.6615 6:24.4423 7:19.5036 8:1 
0.004444079790282107 1:0.816064 2:0.835877 3:0.832319 4:17.7182 5:18.1276 6:19.9317 7:9.90493 8:1 
0.004908904610384284 1:1.22885 2:1.26431 3:1.29682 4:10.465 5:10.6785 6:12.1119 7:16.6016 8:1 
0.002742162718974402 1:0.00253075 2:0.00240475 3:0.00872785 4:9.6016 5:9.717 6:11.3549 7:9.77464 8:1 
0.00153762319923071 1:0.155117 2:0.166818 3:0.170772 4:17.3909 5:17.7786 6:19.5191 7:11.4734 8:1 
0.001549143464189959 1:0.680606 2:0.692719 3:0.779057 4:9.47768 5:9.6346 6:11.1269 7:12.689 8:1 
0.003340471276852135 1:0.00182819 2:0.00557399 3:0.00369298 4:18.2215 5:18.6187 6:20.3102 7:12.0876 8:1 
0.001029519723200968 1:0.0558122 2:0.0575262 3:0.072549 4:18.2769 5:18.6728 6:20.3712 7:13.8029 8:1 
0.002591265499649442 1:0.171859 2:0.173007 3:0.20524 4:22.7296 5:23.2558 6:25.6258 7:12.8823 8:1 
0.005632346118591196 1:0.702144 2:0.722371 3:0.723832 4:23.5789 5:24.1355 6:26.5333 7:10.5342 8:1 
0.00970610226221719 1:0.525355 2:0.529268 3:0.541569 4:24.7332 5:25.1128 6:27.928 7:33.257 8:1 
0.009330170516107017 1:1.84637 2:1.87291 3:1.91911 4:24.2437 5:24.6343 6:27.4989 7:20.8396 8:1 
0.01253871939402568 1:0.345224 2:0.359398 3:0.397756 4:25.7642 5:26.1628 6:29.0966 7:39.1103 8:1 
0.001752425376381862 1:0.0850594 2:0.0793492 3:0.0769569 4:24.1633 5:24.7269 6:27.1195 7:9.32621 8:1 
0.004869422598415955 1:0.0533979 2:0.0325032 3:0.0368266 4:22.1927 5:22.4115 6:25.4895 7:31.5246 8:1 
0.003053201358993229 1:0.676823 2:0.685027 3:0.753971 4:26.6397 5:27.0635 6:30.0553 7:44.0897 8:1 
0.00931735121389104 1:0.136564 2:0.139178 3:0.0987809 4:26.7629 5:27.1989 6:30.2307 7:46.5873 8:1 
0.005592469224763748 1:0.582809 2:0.595016 3:0.686829 4:8.30846 5:8.44873 6:9.84259 7:15.9368 8:1 
0.004988197958056557 1:0.260782 2:0.262643 3:0.151362 4:23.3354 5:23.6105 6:26.8357 7:26.6677 8:1 
0.00516565651134338 1:0.702304 2:0.748037 3:0.926034 4:27.4099 5:27.8722 6:31.0412 7:45.8326 8:1 
0.001329142406900241 1:0.297062 2:0.303584 3:0.205968 4:24.4186 5:24.8452 6:27.8966 7:15.4994 8:1 
0.005245491510334644 1:0.647562 2:0.681609 3:0.754625 4:22.5947 5:22.8608 6:26.0515 7:30.1084 8:1 
0.00297842014184825 1:0.346234 2:0.342155 3:0.346595 4:28.1065 5:28.5889 6:31.8141 7:44.4713 8:1 
0.001824198300573905 1:1.41335 2:1.44971 3:1.51363 4:23.6735 5:23.9824 6:27.2888 7:35.6396 8:1 
0.01374287367236476 1:2.4778 2:2.54972 3:2.82347 4:23.7089 5:24.0096 6:27.3798 7:34.2272 8:1 
0.0009367008070184091 1:1.09661 2:1.12445 3:1.14389 4:23.8834 5:24.2906 6:27.3685 7:18.8741 8:1 
0.004718587946371013 1:0.455565 2:0.461393 3:0.497187 4:27.6366 5:28.1135 6:31.3239 7:42.3058 8:1 
0.005722257452777404 1:0.325472 2:0.319167 3:0.34102 4:24.0474 5:24.3797 6:27.7879 7:28.6637 8:1 
0.00541455008017395 1:0.206002 2:0.238468 3:0.268416 4:27.5156 5:28.0141 6:31.3236 7:30.0779 8:1 
0.002631635288398814 1:0.146247 2:0.14037 3:0.168155 4:23.7423 5:24.1574 6:27.26 7:16.6896 8:1 
0.004075066892864799 1:0.0475214 2:0.0391979 3:0.0200059 4:9.95002 5:10.1638 6:11.6892 7:13.34 8:1 
0.0003856880878003678 1:0.615573 2:0.635194 3:0.650176 4:27.4563 5:27.7731 6:31.3108 7:40.2085 8:1 
0.007280470709973452 1:1.15622 2:1.19322 3:1.22377 4:24.5438 5:24.8969 6:28.342 7:26.6666 8:1 
0.003956649444539073 1:1.02365 2:1.04619 3:1.11114 4:10.4492 5:10.6717 6:12.2342 7:14.7651 8:1 
0.009143443695586846 1:1.48627 2:1.55024 3:1.63377 4:27.9034 5:28.276 6:31.9515 7:31.7826 8:1 
0.004260900405384556 1:0.900848 2:0.920272 3:1.03376 4:28.2988 5:28.8125 6:32.1725 7:28.6139 8:1 
0.004511386064653917 1:0.522815 2:0.531345 3:0.550723 4:11.7368 5:11.9991 6:13.683 7:22.8643 8:1 
0.0009384710491584787 1:0.189117 2:0.20657 3:0.252607 4:27.9446 5:28.4636 6:31.8667 7:30.9358 8:1 
0.00796635780145899 1:1.13739 2:1.17564 3:1.34695 4:26.498 5:26.9286 6:30.5617 7:35.8334 8:1 
0.004149170020407792 1:0.126314 2:0.131603 3:0.142716 4:12.2056 5:12.4868 6:14.2206 7:29.7065 8:1 
0.0175826204049907 1:1.18731 2:1.21985 3:1.13277 4:28.8429 5:29.2471 6:33.0924 7:50.7811 8:1 
0.001251003583619625 1:0.313333 2:0.328465 3:0.320433 4:24.8328 5:25.4067 6:27.81 7:8.99134 8:1 
0.001954560255717675 1:0.0022127 2:0.00401253 3:0.000861466 4:10.7058 5:10.8807 6:12.8172 7:9.92871 8:1 
0.003514517031095322 1:0.0142636 2:0.0102021 3:0.00608146 4:11.8329 5:11.9932 6:13.7505 7:11.2997 8:1 
0.009941115596968919 1:1.1554 2:1.17831 3:1.29598 4:13.0916 5:13.3764 6:15.2056 7:29.7957 8:1 
0.001374652466194094 1:0.469668 2:0.480845 3:0.581014 4:14.585 5:14.9171 6:16.8069 7:20.7833 8:1 
0.001767856731037742 1:0.0959535 2:0.0957395 3:0.11287 4:25.4171 5:25.9909 6:28.2126 7:14.3361 8:1 
0.005029228778461963 1:0.843866 2:0.882435 3:0.912215 4:16.5433 5:16.9184 6:18.9143 7:32.9699 8:1 
0.003656891207591482 1:0.622329 2:0.641291 3:0.674884 4:25.2166 5:25.7723 6:27.9412 7:14.66 8:1 
0.005421736501623919 1:0.226705 2:0.231568 3:0.244683 4:26.14 5:26.5673 6:30.316 7:32.346 8:1 
0.003179384666622393 1:0.201881 2:0.211803 3:0.210409 4:28.567 5:29.1256 6:32.6683 7:36.1741 8:1 
0.004607977420293626 1:1.1203 2:1.14752 3:1.24556 4:19.9788 5:20.4232 6:22.7136 7:32.6711 8:1 
0.001375918059000345 1:0.144201 2:0.129861 3:0.193278 4:26.8738 5:27.3233 6:31.0223 7:35.7431 8:1 
0.004089350040333365 1:0.0605567 2:0.0593678 3:0.0542517 4:21.3429 5:21.7422 6:24.7476 7:26.6771 8:1 
0.002886058662962765 1:1.449 2:1.50489 3:1.68193 4:27.4229 5:27.8939 6:31.6161 7:35.3828 8:1 
0.01159064247481967 1:1.64452 2:1.71411 3:1.84553 4:27.9607 5:28.5065 6:32.064 7:39.4678 8:1 
0.007329833544141118 1:0.0417316 2:0.0204501 3:0.0586418 4:29.144 5:29.569 6:33.5166 7:43.8012 8:1 
0.003060975953747 1:0.0796659 2:0.0887661 3:0.0408843 4:28.7703 5:29.334 6:32.9685 7:41.5043 8:1 
0.002731160549413025 1:0.202024 2:0.205158 3:0.305002 4:27.7812 5:28.3352 6:32.0164 7:39.7528 8:1 
0.002530445838624323 1:0.222998 2:0.228598 3:0.27746 4:29.3766 5:29.8916 6:33.8239 7:38.0507 8:1 
0.005037606180270496 1:1.13216 2:1.16588 3:1.23133 4:20.9083 5:21.3272 6:24.2824 7:23.9928 8:1 
0.01251089625935401 1:0.491774 2:0.493201 3:0.47082 4:29.352 5:29.7942 6:33.9121 7:34.1422 8:1 
0.002455005078759692 1:0.952424 2:0.959807 3:0.956555 4:25.3994 5:25.9836 6:28.7129 7:24.2522 8:1 
0.01753421442281333 1:2.65459 2:2.73973 3:2.93412 4:29.9813 5:30.4516 6:34.6812 7:60.8828 8:1 
0.003418554258194265 1:0.0549445 2:0.066542 3:0.111453 4:20.1834 5:20.5977 6:23.551 7:31.9175 8:1 
0.00265311606622276 1:0.26482 2:0.261292 3:0.211821 4:31.0638 5:31.6477 6:35.7671 7:39.7018 8:1 
0.006998594815205481 1:0.160538 2:0.176966 3:0.218549 4:29.615 5:30.0701 6:34.2725 7:39.1676 8:1 
0.008898597484058635 1:0.914816 2:0.922493 3:0.881028 4:29.9855 5:30.5326 6:34.5393 7:26.102 8:1 
0.003668779534623535 1:0.187701 2:0.197108 3:0.22349 4:26.7777 5:27.387 6:30.2257 7:13.952 8:1 
0.003139236456842305 1:0.114431 2:0.106101 3:0.106174 4:27.3544 5:27.9043 6:31.5655 7:35.2863 8:1 
0.007061127077613361 1:1.11819 2:1.13978 3:1.12764 4:21.2045 5:21.6466 6:24.5889 7:15.3957 8:1 
0.008259875272209189 1:1.14804 2:1.21975 3:1.44202 4:32.2654 5:32.8903 6:37.1366 7:44.3492 8:1 
0.01069506018876078 1:1.24166 2:1.29986 3:1.63959 4:30.5664 5:31.0718 6:35.4859 7:45.7667 8:1 
0.003969922718385932 1:0.487767 2:0.494578 3:0.488212 4:27.2636 5:27.8855 6:30.7878 7:18.5553 8:1 
2.503449188252013e-05 1:0.550811 2:0.564335 3:0.653867 4:27.5583 5:28.1176 6:31.8427 7:25.9958 8:1 
0.008245768573739097 1:0.686279 2:0.707958 3:0.807863 4:31.5154 5:32.0636 6:36.5592 7:56.9549 8:1 
0.009781435727131711 1:1.25124 2:1.29226 3:1.44173 4:27.229 5:27.7891 6:31.5434 7:21.2759 8:1 
0.01170518420014316 1:0.242776 2:0.25771 3:0.295996 4:31.8247 5:32.3757 6:36.9013 7:64.2514 8:1 
0.008434808367323873 1:0.621925 2:0.629119 3:0.624474 4:26.7653 5:27.3154 6:31.0955 7:25.3148 8:1 
0.01027558877593757 1:0.322105 2:0.339358 3:0.523027 4:32.6304 5:33.2808 6:37.6105 7:47.4173 8:1 
0.008883653610412656 1:1.3443 2:1.42421 3:1.63748 4:32.3118 5:32.8817 6:37.5269 7:54.452 8:1 
0.002137938170677811 1:0.342958 2:0.335407 3:0.30139 4:32.7317 5:33.3817 6:37.6367 7:44.5532 8:1 
0.009315184811634292 1:1.44332 2:1.52003 3:1.77442 4:32.2942 5:32.8732 6:37.5901 7:64.0193 8:1 
0.004423205424801832 1:0.0807862 2:0.0853615 3:0.141583 4:32.8679 5:33.526 6:37.8165 7:45.4277 8:1 
0.01636777359119218 1:1.65486 2:1.6947 3:1.83426 4:33.841 5:34.4777 6:39.3081 7:67.8161 8:1 
0.0159041836261179 1:0.0497766 2:0.0452373 3:0.0886717 4:36.3201 5:36.9081 6:41.512 7:63.6609 8:1 
0.01778829972653162 1:0.284981 2:0.289391 3:0.0921441 4:8.23627 5:8.36383 6:2.66636 7:58.9778 
0.01823652523519609 1:0.000123978 3:0.000173569 4:475.228 5:500 6:544.377 7:154688 8:1 
0.0130222991927445 1:0.0793594 2:0.0806162 3:0.0263177 4:6.86872 5:6.97528 6:2.22742 7:6.00993 
0.01760883874430608 1:11.8807 2:12.5 3:13.6094 4:124.747 5:131.25 6:142.899 7:87773.4 8:1 
0.01779290963596181 1:0.104241 2:0.102526 3:0.0409338 4:6.28625 5:6.42138 6:2.882 7:187.573 
0.01425940858285546 1:0.171765 2:0.177068 3:0.114863 4:14.6888 5:14.9617 6:5.77425 7:18.5934 
0.001021275531855048 1:0.00520498 2:0.00528595 3:0.00169338 4:5.78585 5:5.87528 6:1.86876 7:1.81304 
1 1:0.0464351 2:0.0471525 3:0.0149925 4:0.183874 5:0.186715 6:0.0593676 7:0.298974 
0.01754160011151912 1:23.7614 2:25 3:27.2186 4:594.035 5:625 6:680.471 7:112187 8:1 
0.01122798689223853 1:0.239982 2:0.24363 3:0.0761115 4:11.0307 5:11.2041 6:3.62741 7:6.56342 
0.01761219969911293 1:3.1316 2:3.19606 3:1.37169 4:18.4297 5:18.7784 6:7.38332 7:779.153 
0.01771357543001345 1:0.0220641 2:0.0237696 3:0.0376724 4:16.6896 5:17.0402 6:7.46888 7:126.463 
0.01194113050010875 1:0.123842 2:0.125575 3:0.0359395 4:1.91759 5:1.95121 6:0.708596 7:64.9477 
0.0107494019162226 1:0.00170767 2:0.00174987 3:0.000949502 4:14.8931 5:15.1238 6:4.8228 7:0.528074 
0.004050659257634537 1:0.259039 2:0.263038 3:0.0835765 4:13.5561 5:13.7659 6:4.38611 7:4.7647 
0.01689340335096112 1:0.0304046 2:0.0314225 3:0.022067 4:9.91108 5:10.0743 6:3.42572 7:18.9224 
0.01759534207048596 1:0.153265 2:0.159402 3:0.134001 4:19.6018 5:20.061 6:9.83524 7:28.0789 
0.01766336911881056 1:0.300413 2:0.304949 3:0.0946323 4:11.2106 5:11.3864 6:3.67758 7:144.031 
0.06689935352866724 1:0.0188645 2:0.0191674 3:0.00630134 4:11.4004 5:11.5774 6:3.69965 7:1.00739 
0.01445136386775664 1:0.188873 2:0.194114 3:0.113195 4:14.9973 5:15.3008 6:6.45324 7:9.50439 
0.01763468118075762 1:0.132472 2:0.134652 3:0.0458828 4:34.9924 5:35.5583 6:11.8642 7:38.5977 
0.001938549111990018 1:0.0554124 2:0.0562558 3:0.0176428 4:9.42733 5:9.57387 6:3.06368 7:1.22307 
0.01796006502795089 1:0.108378 2:0.109854 3:0.0306177 4:13.3312 5:13.5704 6:5.05085 7:85.2737 
0.01791143248507165 1:0.124573 2:0.128608 3:0.0875195 4:38.813 5:39.6777 6:18.4766 7:233.867 
0.01812333016393253 1:0.0786892 2:0.0806179 3:0.0414963 4:26.0355 5:26.6811 6:13.8645 7:89.4984 
0.01815387824396814 1:0.34379 2:0.353961 3:0.220145 4:70.4395 5:72.0734 6:34.9796 7:20.7982 
0.01791426672956237 1:0.83798 2:0.852103 3:0.296901 4:12.8525 5:13.086 6:4.93475 7:235.13 
0.0165942102980976 1:0.397576 2:0.412643 3:0.328419 4:65.6425 5:67.2738 6:35.0369 7:18.5467 
0.01775413928268388 1:3.57304 2:3.65764 3:1.81294 4:33.4434 5:34.4719 6:22.2774 7:3630.02 
0.01770711371312689 1:0.0413768 2:0.042011 3:0.0134348 4:33.9261 5:34.7294 6:17.2149 7:45.1044 
0.01709444307616453 1:0.0230401 2:0.0270519 3:0.0893328 4:63.091 5:64.7382 6:35.4531 7:15.7141 
0.01649981281018548 1:0.0199356 2:0.0218568 3:0.0425818 4:60.7157 5:62.3623 6:35.497 7:10.0467 
0.01744327810853674 1:0.0351796 2:0.0379679 3:0.0616877 4:57.3403 5:58.9297 6:34.292 7:9.39142 
0.01386165967037528 1:0.0842834 2:0.0850105 3:0.0143321 4:53.188 5:54.6728 6:32.0441 7:8.15233 
0.01774864371124552 1:0.329687 2:0.337749 3:0.173035 4:28.0084 5:28.7693 6:16.4032 7:991.895 
0.01805158139768259 1:0.0227222 2:0.0203466 3:0.0537034 4:48.7094 5:50.0643 6:29.2366 7:6.16473 
0.009044449718236326 1:0.115916 2:0.119799 3:0.0843979 4:29.6758 5:30.3913 6:15.3451 7:4.18305 
0.01131736168245057 1:0.332168 2:0.344154 3:0.261051 4:44.4106 5:45.6334 6:26.3762 7:5.67844 
0.01405600559700526 1:0.0638667 2:0.066635 3:0.0605087 4:23.2739 5:23.7902 6:11.0297 7:4.76751 
0.01795676456168144 1:0.00225681 2:0.00229232 3:0.000728983 4:3.07295 5:3.12042 6:0.992169 7:138.317 
0.01778818514270047 1:0.0814083 2:0.0838485 3:0.0525792 4:40.522 5:41.6181 6:23.6269 7:4.06141 8:1 
0.004302167299049975 1:0.121488 2:0.123962 3:0.052615 4:15.904 5:16.1977 6:6.21125 7:5.47369 
0.00548964110257555 1:0.00717115 2:0.00728086 3:0.00232191 4:6.23938 5:6.3358 6:2.01511 7:0.0744246 
0.01818516064516307 1:0.0984316 2:0.101492 3:0.0661716 4:54.9497 5:56.435 6:32.014 7:1062.07 
0.007571876725372462 1:0.0986288 2:0.10342 3:0.105122 4:34.3144 5:35.205 6:19.1637 7:2.70314 
0.005741117484147002 1:0.219485 2:0.222981 3:0.073219 4:6.87535 5:6.98245 6:2.23949 7:3.74412 
0.01772450525122859 1:0.086359 2:0.0904157 3:0.0889233 4:37.1656 5:38.1521 6:21.2459 7:42.5978 
0.0181318137029895 1:0.890635 2:0.922735 3:0.6991 4:116.509 5:120.847 6:94.5277 7:229.573 
0.005734305239957635 1:0.0138085 2:0.0142574 3:0.00964308 4:32.1569 5:32.9811 6:17.7257 7:2.43692 
0.01797832529392679 1:0.42589 2:0.44004 3:0.307446 4:110.258 5:114.42 6:90.7365 7:54.0322 
0.001374786719012193 1:0.0400445 2:0.0408657 3:0.0175025 4:12.0865 5:12.2846 6:4.15609 7:3.17437 8:1 
0.2720360911337819 1:0.00964397 2:0.00975609 3:0.00235625 4:11.2326 5:11.413 6:3.78163 7:0.25917 
0.003203249767750292 1:0.00261268 2:0.00265124 3:0.000845522 4:6.62928 5:6.73173 6:2.14115 7:0.0388302 8:1 
0.01807885393936615 1:0.877604 2:0.910844 3:0.725138 4:102.667 5:106.546 6:84.5606 7:47.7385 
0.002829207212183882 1:0.0127672 2:0.0133913 3:0.0135463 4:28.2895 5:28.9936 6:15.1235 7:1.7286 
0.002353225778374268 1:0.000313938 2:0.0003196 3:0.000101447 4:6.2747 5:6.37167 6:2.02637 7:0.0351389 8:1 
0.0180354209066782 1:0.793276 2:0.819816 3:0.576317 4:93.2254 5:96.7355 6:76.5231 7:30.3398 
0.01068716830090429 1:0.0589493 2:0.0598979 3:0.0198381 4:10.877 5:11.0467 6:3.54881 7:0.14307 
0.01766355512672646 1:0.0226312 2:0.0229502 3:0.00644541 4:79.0873 5:82.0208 6:63.9247 7:46.7368 
0.2422715576511048 1:0.0108432 2:0.0110334 3:0.00403231 4:11.7651 5:11.9501 6:3.87125 7:0.024124 
0.005807244826329994 1:0.0216284 2:0.0227875 3:0.0255522 4:25.0134 5:25.6183 6:12.9738 7:1.19936 
0.102384849287969 1:0.00254226 2:0.00258338 3:0.000931799 4:11.9605 5:12.1491 6:3.94629 7:0.00769061 
0.01786163149265874 1:0.54134 2:0.563552 3:0.485756 4:63.7832 5:66.0742 6:49.8776 7:111.776 8:1 
0.08188227354481256 1:0.00169724 2:0.00172704 3:0.000624001 4:11.8235 5:12.0097 6:3.89592 7:0.00601441 
0.0177531885884103 1:0.0207026 2:0.0186458 3:0.0469062 4:42.682 5:44.0516 6:29.7083 7:146.693 
0.01833710521933951 1:0.716118 2:0.743153 3:0.589487 4:43.5707 5:44.9848 6:30.6861 7:78.6464 
0.01776030776040571 1:2.68038 2:2.75098 3:1.52016 4:45.9061 5:47.0711 6:25.0441 7:1847.24 
0.01359262938697891 1:0.159959 2:0.165621 3:0.123291 4:17.0259 5:17.3831 6:7.60797 7:6.77921 
0.01764956685426106 1:1.48317 2:1.54019 3:1.24388 4:15.5881 5:16.1613 6:12.4872 7:965.555 
0.01745842150657634 1:0.0691504 2:0.0695953 3:0.00852513 4:80.2012 5:82.5661 6:51.1444 7:12.8396 
0.01789472442007012 1:0.46666 2:0.48518 3:0.40428 4:38.317 5:39.5683 6:27.1595 7:47.7832 
0.0152855043100929 1:0.012099 2:0.0130454 3:0.020984 4:15.7039 5:16.0096 6:6.48557 7:15.1591 
0.01792423710360658 1:0.0491376 2:0.0488048 3:0.00838447 4:68.449 5:70.5582 6:45.6884 7:10.8048 
0.01795761928269851 1:0.0772173 2:0.0798895 3:0.058115 4:27.5776 5:28.3779 6:17.2984 7:13.6788 
0.01735351011336606 1:0.0373909 2:0.0400014 3:0.0576043 4:59.6823 5:61.5174 6:39.7477 7:7.31417 
0.007527206851835389 1:0.163709 2:0.169295 3:0.121433 4:14.2675 5:14.5219 6:5.36744 7:5.34674 
0.01430737661327769 1:0.0871336 2:0.0891962 3:0.0442824 4:51.2014 5:52.7567 6:33.6736 7:7.90235 
0.4319141147473319 1:4.8995e-05 2:5.14388e-05 3:1.0252e-05 4:14.0901 5:14.3185 6:4.79104 7:2.66572e-05 
0.01103716374910146 1:0.0781534 2:0.081028 3:0.0626227 4:19.9358 5:20.4187 6:10.3594 7:3.54983 
0.01209148055154885 1:0.0308349 2:0.0307343 3:0.00317538 4:43.4073 5:44.6974 6:27.9096 7:6.67358 
0.005605393051250572 1:0.000211775 2:0.000219703 3:7.39098e-05 4:11.061 5:11.2341 6:3.62114 7:0.00788229 8:1 
0.00361447710365681 1:0.0388492 2:0.0402288 3:0.0300569 4:16.2918 5:16.6274 6:7.1412 7:1.20498 
0.01802104792650111 1:0.0267134 2:0.0286214 3:0.0421863 4:36.3107 5:37.3659 6:22.8079 7:68.7179 
0.005399456804712947 1:0.000320911 2:0.000322223 3:0.000112176 4:10.6872 5:10.8541 6:3.49001 7:0.00769163 8:1 
0.006168858192429273 1:0.000359297 2:0.000368297 3:0.000155866 4:14.0853 5:14.3136 6:4.78769 7:0.000109874 8:1 
0.003550609982134122 1:0.00311357 2:0.00257355 3:0.00548542 4:10.1431 5:8.38912 6:17.8449 7:0.0377694 8:1 
0.01221356485328322 1:0.14168 2:0.11343 3:0.277861 4:5.72798 5:4.84367 6:9.26622 7:10.2144 
0.01067440858532948 1:0.1465 2:0.151945 3:0.11876 4:32.5838 5:33.5055 6:19.9013 7:2.26799 
0.01621754679546122 1:0.00039053 2:0.000397623 3:0.00013344 4:9.54109 5:9.68931 6:3.09878 7:0.0124511 8:1 
0.01162368567946302 1:0.00974333 2:0.0101457 3:0.00884199 4:28.9904 5:29.7827 6:17.0843 7:2.01303 8:1 
0.008979630848608786 1:0.0430715 2:0.0445001 3:0.0309246 4:25.6615 5:26.3348 6:14.4933 7:1.6508 8:1 
0.002129258078396156 1:0.000933826 2:0.00095439 3:0.000386834 4:13.6207 5:13.8399 6:4.59446 7:0.00151228 
0.01044854671192173 1:0.0640814 2:0.0658664 3:0.0385126 4:22.7305 5:23.2981 6:12.1921 7:1.26605 8:1 
0.01798434180893477 1:0.850923 2:0.711292 3:1.47653 4:3.65122 5:3.03394 6:6.3851 7:99.8643 
0.01801776881289097 1:2.68633 2:2.8003 3:2.49255 4:33.7031 5:34.8323 6:24.5296 7:865.854 
0.004935379705850174 1:0.0469894 2:0.0479766 3:0.0210997 4:18.3872 5:18.7959 6:8.73112 7:2.42406 
0.01568901517803118 1:0.00220591 2:0.00224423 3:0.000793725 4:12.4944 5:12.6923 6:4.14241 7:15.7203 
0.003724088760680921 1:0.0218809 2:0.0222093 3:0.0068281 4:16.1212 5:16.4582 6:7.17658 7:1.27893 8:1 
0.001459469637180401 1:0.00702173 2:0.00725013 3:0.00496539 4:15.2692 5:15.573 6:6.45165 7:0.877747 8:1 
0.0005482784758980906 1:0.0173613 2:0.0178471 3:0.0105055 4:14.4857 5:14.7601 6:5.81173 7:0.536481 8:1 
0.007629572494451755 1:0.00322431 2:0.00266695 3:0.00567305 4:10.2047 5:8.44011 6:17.9529 7:0.0370254 
0.004686477815316763 1:4.1008e-05 2:4.00543e-05 3:1.29938e-05 4:7.91898 5:8.04152 6:2.56119 7:0.0115093 8:1 
0.01814565460142958 1:0.223293 2:0.468477 3:1.78779 4:45.5504 5:40.149 6:62.559 7:55.9174 
0.01821733047694513 1:0.130246 2:0.127269 3:0.0701125 4:46.0476 5:46.9132 6:18.3263 7:6.6446 
0.01750271341792092 1:0.0741606 2:0.0754404 3:0.0271069 4:38.9527 5:39.7831 6:17.7043 7:2.59222 
0.01408445342316927 1:0.0831935 2:0.0864356 3:0.070664 4:35.2568 5:36.0259 6:16.4153 7:1.96919 
0.00114581936091641 1:0.0037314 2:0.00378764 3:0.00120737 4:6.37678 5:6.47534 6:2.05954 7:0.0309824 
0.002086667073455434 1:0.0254378 2:0.0210469 3:0.0447345 4:8.97812 5:7.42615 6:15.7936 7:0.0876795 8:1 
0.01160366143036048 1:0.105284 2:0.108858 3:0.0775086 4:31.1459 5:31.8286 6:14.5742 7:2.12937 
0.006761220015668441 1:0.0692452 2:0.0572754 3:0.121813 4:7.6306 5:6.31205 6:13.4218 7:1.44158 8:1 
0.003713592816583269 1:0.00096333 2:0.00097847 3:0.000337511 4:10.6914 5:10.8584 6:3.4947 7:0.00727449 
0.01155381127146817 1:0.0581044 2:0.0598648 3:0.0379514 4:27.2613 5:27.8539 6:12.648 7:1.68792 
0.5807749512694915 1:0.000197351 2:0.000201285 3:7.9602e-05 4:13.9313 5:14.1566 6:4.72477 7:0.000268848 
0.002900244625598636 1:0.0229039 2:0.0234088 3:0.0110083 4:23.5479 5:24.0516 6:10.7398 7:2.15221 
0.0102716574849841 1:0.0515215 2:0.0528167 3:0.0277977 4:20.9587 5:21.3999 6:9.39836 7:0.853112 
0.00811365244274509 1:0.00449038 2:0.00458008 3:0.001836 4:12.4016 5:12.5996 6:4.14721 7:7.4509 
0.003524525629900028 1:0.00127381 2:0.0013001 3:0.000514686 4:13.7588 5:13.9808 6:4.65509 7:0.000595257 
0.004524254687260637 1:0.0106763 2:0.0108324 3:0.00326967 4:19.2667 5:19.6613 6:8.39414 7:0.784483 8:1 
0.03000094143120202 1:0.996841 2:0.849264 3:1.6861 4:0.49842 5:0.424632 6:0.843048 7:77.9825 8:1 
0.008667865516311383 1:0.00898838 2:0.00901973 3:0.000454426 4:17.6987 5:18.0504 6:7.46957 7:0.600639 8:1 
0.01741118339671643 1:0.473124 2:0.417006 3:0.762267 4:61.6184 5:52.8097 6:103.369 7:32.2836 8:1 
0.01764193694192479 1:0.268715 2:0.26049 3:0.368394 4:65.7183 5:56.7811 6:108.998 7:32.7317 8:1 
0.01813611471199111 1:0.580736 2:0.550111 3:0.831305 4:55.0883 5:47.108 6:92.7004 7:20.8656 8:1 
0.01816346415119818 1:0.953985 2:0.908519 3:1.35234 4:69.8874 5:60.8853 6:114.544 7:35.0871 8:1 
0.01812783006196084 1:0.0215382 2:0.0219812 3:0.00961578 4:14.9543 5:15.2319 6:5.87325 7:136.337 
0.0177848033557842 1:0.418835 2:0.371301 3:0.66894 4:58.9498 5:50.8248 6:98.0677 7:20.5662 8:1 
0.01752523899372938 1:1.26059 2:1.20073 3:1.78643 4:73.2973 5:64.3031 6:118.913 7:31.2138 
0.01812292206347438 1:0.153814 2:0.145655 3:0.22032 4:62.4585 5:54.2578 6:102.792 7:20.4228 8:1 
0.0148972121413854 1:0.303047 2:0.280599 3:0.451436 4:76.4927 5:67.518 6:122.975 7:25.2269 8:1 
0.01767363778873116 1:0.668006 2:0.616549 3:1.00056 4:65.8566 5:57.6241 6:107.254 7:18.0939 8:1 
0.0168126487945699 1:1.08585 2:1.02565 3:1.56243 4:79.046 5:70.1691 6:125.996 7:22.6452 8:1 
0.0179078779728708 1:0.288932 2:0.298249 3:0.346666 4:69.6632 5:61.4047 6:112.227 7:19.454 8:1 
0.01692659066282592 1:0.100743 2:0.0895762 3:0.160133 4:81.4048 5:72.6382 6:128.732 7:30.4566 8:1 
0.01427089722773939 1:0.392696 2:0.348711 3:0.625704 4:83.6045 5:74.9668 6:131.213 7:19.4109 8:1 
0.00562048074730942 1:0.232746 2:0.225008 3:0.320868 4:84.7178 5:76.2768 6:132.11 7:18.1594 8:1 
0.9774811036609257 1:0.000700593 2:0.000711501 3:0.000239477 4:10.4345 5:10.5973 6:3.40539 7:0.00744754 8:1 
0.002132435592044284 1:0.00472987 2:0.00481063 3:0.00162968 4:10.1768 5:10.3354 6:3.31654 7:0.00744009 8:1 
0.02751933134849571 1:0.00210017 2:0.00213909 3:0.000795007 4:12.162 5:12.3544 6:4.02835 7:0.00345755 
1 1:4.25577e-05 2:4.3273e-05 3:1.3873e-05 4:11.3957 5:11.5747 6:3.74516 7:0.00413379 
0.9140570648446265 1:0.000397027 2:0.000409603 3:0.000158787 4:13.2667 5:13.4795 6:4.4581 7:0.000810881 
0.01377858915758234 1:0.126777 2:0.123945 3:0.170863 4:86.5278 5:78.2367 6:134.032 7:17.949 8:1 
0.04033048181287928 1:0.000771284 2:0.000784993 3:0.000306427 4:13.169 5:13.38 6:4.42069 7:0.00140405 
0.008544052640164335 1:0.325165 2:0.302763 3:0.479923 4:86.6608 5:78.589 6:133.606 7:14.4445 
0.01018881609726202 1:0.272576 2:0.259644 3:0.386189 4:87.7686 5:79.8846 6:134.52 7:13.862 8:1 
0.001963341491179826 1:0.210321 2:0.197989 3:0.304359 4:87.9307 5:80.2678 6:134.125 7:11.4392 8:1 
0.009825126652054454 1:0.000483036 2:0.00661564 3:0.0200081 4:88.2984 5:80.8324 6:134.062 7:10.0319 8:1 
0.0175757157448358 1:0.180467 2:0.144716 3:0.32992 4:72.5293 5:64.2944 6:115.853 7:20.3813 8:1 
0.05754479127247547 1:0.00826991 2:0.00840062 3:0.00278495 4:10.8474 5:11.017 6:3.5461 7:0.630796 
0.01569484402465943 1:0.0528989 2:0.070776 3:0.0193286 4:75.4441 5:67.2788 6:119.417 7:25.5558 8:1 
0.01099686679222864 1:0.199693 2:0.198745 3:0.259733 4:88.0134 5:80.9711 6:132.539 7:7.81896 
0.01731747442085624 1:0.338364 2:0.317784 3:0.49173 4:77.4503 5:69.4189 6:121.635 7:19.3197 8:1 
0.01665470954759279 1:0.0409174 2:0.0406647 3:0.0534058 4:79.9133 5:71.9954 6:124.497 7:17.5565 
0.002970392650762155 1:0.288795 2:0.276268 3:0.405961 4:87.2483 5:80.6103 6:130.451 7:7.4783 8:1 
0.01629181531602608 1:0.367139 2:0.345486 3:0.531745 4:81.4301 5:73.6706 6:126.018 7:27.1139 8:1 
0.01530436618580272 1:0.405852 2:0.390583 3:0.564172 4:83.1724 5:75.5671 6:127.841 7:16.2648 
0.002343527942298914 1:0.0949426 2:0.0981221 3:0.113611 4:85.645 5:79.3967 6:127.324 7:6.96303 8:1 
0.0122565880026679 1:0.397946 2:0.396509 3:0.516363 4:84.4031 5:76.9705 6:128.955 7:13.0953 8:1 
0.005405966634621556 1:0.077199 2:0.0736818 3:0.10901 4:84.5124 5:78.4576 6:125.338 7:5.42836 8:1 
0.009145471893988377 1:0.538736 2:0.525578 3:0.729556 4:85.3059 5:78.0584 6:129.613 7:10.4638 8:1 
0.005486468375727081 1:0.320571 2:0.322145 3:0.408524 4:83.6848 5:77.7956 6:123.821 7:4.89526 8:1 
0.5548022564668396 1:0.000557214 2:0.000460476 3:0.000980377 4:3.50513 5:2.89869 6:6.16742 7:0.000364582 8:1 
0.6372488054311152 1:0.000732765 2:0.000605628 3:0.00128788 4:3.56348 5:2.94695 6:6.27008 7:0.000276955 8:1 
0.01085539336250918 1:0.262571 2:0.256499 3:0.354758 4:86.9444 5:80.4534 6:129.659 7:11.1151 8:1 
0.05926473949720056 1:0.000461563 2:0.000381172 3:0.000810713 4:3.62169 5:2.99509 6:6.37249 7:0.000282814 8:1 
0.1151566918729042 1:0.0017518 2:0.00144942 3:0.00308269 4:3.58445 5:2.96429 6:6.30698 7:0.00027277 8:1 
0.4371066308477165 1:0.000398099 2:0.000328943 3:0.000698328 4:3.53268 5:2.92148 6:6.2159 7:0.000503233 8:1 
0.01408200948927762 1:0.0715027 2:0.0660667 3:0.1069 4:73.1167 5:66.5764 6:111.988 7:9.28455 8:1 
0.04135662995772137 1:0.00138634 2:0.00141102 3:0.000489667 4:10.7876 5:10.9562 6:3.52738 7:0.00749734 
0.1427472405924109 1:0.000810564 2:0.000824273 3:0.000288039 4:10.9455 5:11.1168 6:3.58505 7:0.00662096 
0.003418908256350331 1:0.00794458 2:0.00807381 3:0.00266486 4:9.41756 5:9.56376 6:3.05646 7:0.0578068 8:1 
0.006957453357643506 1:0.107369 2:0.105187 3:0.144204 4:82.5909 5:76.8792 6:121.928 7:5.69619 
0.003382510737685918 1:0.263974 2:0.251016 3:0.37519 4:81.5459 5:75.9974 6:120.137 7:5.05639 8:1 
0.006020874083323413 1:0.160903 2:0.153894 3:0.226256 4:87.0435 5:80.927 6:128.765 7:7.78819 8:1 
0.00686355617001172 1:0.0929866 2:0.0985537 3:0.104546 4:80.3688 5:74.9757 6:118.197 7:5.57687 8:1 
0.01226956391386247 1:0.209198 2:0.208005 3:0.272538 4:86.5629 5:80.6306 6:127.644 7:4.88506 8:1 
0.005512738413903503 1:0.0244918 2:0.0198479 3:0.0442457 4:78.9562 5:73.7218 6:115.946 7:4.90069 8:1 
0.006334269511912342 1:0.539225 2:0.518758 3:0.750165 4:74.244 5:67.8469 6:113.049 7:8.03291 8:1 
0.004742764172737454 1:0.124123 2:0.124839 3:0.157834 4:75.0737 5:68.8316 6:113.695 7:8.26267 
0.006090737602580609 1:0.0604668 2:0.0667243 3:0.0608191 4:75.7083 5:69.6192 6:114.095 7:6.92278 
0.01042172233511296 1:0.193165 2:0.200819 3:0.227859 4:85.2444 5:79.8168 6:124.57 7:7.37062 
0.005398599806293634 1:0.120716 2:0.117275 3:0.164795 4:75.2447 5:70.4096 6:110.077 7:4.46235 8:1 
0.0006044959256670114 1:0.243513 2:0.226059 3:0.361176 4:76.5132 5:70.5645 6:114.748 7:7.01151 8:1 
0.001473746623357664 1:0.016078 2:0.0125003 3:0.0304923 4:84.3611 5:79.0929 6:122.998 7:5.90584 
0.007362789353433985 1:0.0348759 2:0.0403728 3:0.0299277 4:73.8722 5:69.1584 6:107.979 7:3.9874 
0.004695442508980525 1:0.336769 2:0.328721 3:0.455579 4:83.7175 5:78.6023 6:121.752 7:6.04263 8:1 
0.0053295012738418 1:0.00908518 2:0.00523329 3:0.0221586 4:72.5521 5:67.9511 6:105.972 7:3.66332 8:1 
0.005437283700303519 1:0.13973 2:0.137829 3:0.185078 4:82.6243 5:77.6549 6:119.946 7:5.57724 8:1 
0.006170862039743414 1:0.317712 2:0.298765 3:0.460793 4:77.0554 5:71.4186 6:114.595 7:7.62026 8:1 
0.005931847408973331 1:0.342649 2:0.285056 3:0.614102 4:4.01634 5:3.36041 6:6.88646 7:2.65687 
0.002457993180795576 1:0.14341 2:0.142263 3:0.187768 4:81.9138 5:77.0811 6:118.659 7:4.77369 8:1 
0.01443526454531935 1:0.0727415 2:0.0672221 3:0.108648 4:71.2136 5:66.7212 6:103.952 7:6.55465 8:1 
0.006445649233427795 1:0.077013 2:0.0768213 3:0.0996871 4:80.9617 5:76.2564 6:117.085 7:4.60071 8:1 
0.002711876973650227 1:0.356792 2:0.341452 3:0.501283 4:77.5699 5:72.2294 6:114.45 7:7.0673 8:1 
0.004000847446978983 1:0.13539 2:0.13755 3:0.168434 4:79.887 5:75.3096 6:115.352 7:4.2987 8:1 
0.009331567196829593 1:0.180026 2:0.17453 3:0.246779 4:69.795 5:65.4077 6:101.839 7:3.55671 8:1 
0.007937839512169828 1:0.048615 2:0.0494456 3:0.060379 4:78.7636 5:74.3062 6:113.579 7:4.14755 8:1 
0.01780387553532709 1:0.120074 2:0.116073 3:0.165566 4:67.2787 5:63.0421 6:98.1876 7:7.46084 8:1 
0.003704327354299979 1:0.0789027 2:0.0790782 3:0.1012 4:77.5304 5:73.1818 6:111.694 7:3.79049 8:1 
0.004160811097745442 1:0.518529 2:0.508787 3:0.694295 4:77.172 5:72.2505 6:112.795 7:4.52995 
0.01744032288675734 1:0.176323 2:0.172007 3:0.238745 4:64.2742 5:60.2024 6:93.8694 7:11.0336 8:1 
0.007302580031710381 1:0.0721622 2:0.0729227 3:0.0908899 4:76.881 5:72.0925 6:112.058 7:6.98431 8:1 
0.02166566265410946 1:0.000175029 2:0.000142589 3:0.000305474 4:4.68028 5:3.87065 6:8.23482 7:0.000383349 8:1 
0.010726803267888 1:0.00149351 2:0.00123519 3:0.00262821 4:4.75422 5:3.93181 6:8.36488 7:0.000392636 8:1 
0.008311427594359155 1:0.000341296 2:0.000281185 3:0.000598133 4:4.90229 5:4.05429 6:8.62535 7:0.000417704 
0.002864092089283074 1:0.000792503 2:0.000654191 3:0.0013932 4:4.74564 5:3.92471 6:8.34979 7:0.000394513 8:1 
0.03691654098391133 1:0.00136471 2:0.00112875 3:0.00239968 4:4.74313 5:3.92263 6:8.34537 7:0.000407147 8:1 
0.0252633014279291 1:0.000960708 2:0.000795349 3:0.00169039 4:4.80239 5:3.97165 6:8.44961 7:0.00034405 8:1 
0.01366062908792631 1:1.71065e-05 2:1.29044e-05 3:2.69413e-05 4:4.74489 5:3.92408 6:8.34846 7:17.6663 8:1 
0.01790719243422995 1:0.222477 2:0.214961 3:0.306946 4:60.5003 5:56.6106 6:88.5129 7:11.7136 8:1 
0.007931070585578216 1:0.250751 2:0.238272 3:0.356889 4:76.4827 5:72.2406 6:110.054 7:3.53911 8:1 
0.01815452358364605 1:0.241499 2:0.230819 3:0.340089 4:56.643 5:52.9341 6:83.0528 7:12.7387 8:1 
0.004593005742422329 1:0.0215683 2:0.0196009 3:0.033103 4:75.2678 5:71.1243 6:108.221 7:3.49034 8:1 
0.004138785005612541 1:0.178096 2:0.168689 3:0.254998 4:74.1263 5:70.0746 6:106.501 7:3.1955 
0.01770032974302499 1:0.17524 2:0.164594 3:0.254741 4:53.2413 5:49.6952 6:78.2287 7:14.0346 
0.004235359625001852 1:0.194341 2:0.186496 3:0.271646 4:72.9509 5:68.9847 6:104.754 7:3.30046 
0.01812361913782828 1:0.247277 2:0.2469 3:0.319415 4:49.7095 5:46.3274 6:73.2338 7:15.8833 8:1 
0.01134735081825959 1:0.00719523 2:0.0204744 3:0.0269518 4:45.4401 5:42.2993 6:67.0782 7:18.4905 8:1 
0.007116832706644899 1:0.0370822 2:0.0370293 3:0.0478816 4:71.7499 5:67.8637 6:102.989 7:2.65448 
0.001265329404562258 1:0.0808587 2:0.0860395 3:0.0900655 4:73.809 5:69.699 6:106.251 7:3.17831 8:1 
0.01354910724786451 1:0.199869 2:0.189839 3:0.284716 4:40.423 5:37.5558 6:59.8713 7:14.3603 8:1 
0.003624398984669486 1:0.094882 2:0.0881443 3:0.140543 4:70.6888 5:66.8763 6:101.422 7:2.56582 
0.01356973601597911 1:0.236346 2:0.237565 3:0.301008 4:35.9716 5:33.3283 6:53.5289 7:13.2709 8:1 
0.008876992942796202 1:0.0135512 2:0.0134592 3:0.0177321 4:69.2683 5:65.5315 6:99.3864 7:1.81545 
0.001545500294942919 1:0.0736742 2:0.0677452 3:0.111043 4:72.0481 5:68.1306 6:103.459 7:3.01628 8:1 
0.01176998257605982 1:0.2705 2:0.257446 3:0.383912 4:31.6756 5:29.2485 6:47.4074 7:14.0459 8:1 
0.01248541939376696 1:0.354913 2:0.345551 3:0.482554 4:64.8464 5:60.5953 6:95.095 7:3.63278 8:1 
0.01812854047711898 1:0.0716324 2:0.0660752 3:0.107414 4:28.4217 5:26.1585 6:42.7706 7:62.5104 8:1 
0.00418574256702545 1:0.0404286 2:0.0344419 3:0.0683031 4:66.7936 5:63.1861 6:95.8472 7:1.52534 
0.008898461877416552 1:0.0311371 2:0.0358255 3:0.0273185 4:24.9565 5:22.8682 6:37.8312 7:7.57492 8:1 
0.001217763335315769 1:0.0498724 2:0.0456114 3:0.0758452 4:69.7473 5:66.0655 6:99.8533 7:2.33086 8:1 
0.008544832061875157 1:0.490389 2:0.466126 3:0.697628 4:22.5094 5:20.5445 6:34.3439 7:5.44128 
0.0110820712462406 1:0.176099 2:0.174626 3:0.230765 4:67.9469 5:64.4023 6:97.1607 7:1.76426 8:1 
0.009689767519509031 1:0.0109942 2:0.0047617 3:0.0311639 4:20.0581 5:18.2087 6:30.8723 7:5.9195 
0.01297052490425132 1:0.204253 2:0.197417 3:0.28165 4:17.8824 5:16.149 6:27.7542 7:7.16943 8:1 
0.01054385008804647 1:0.185572 2:0.177803 3:0.260131 4:60.3523 5:57.0407 6:86.7459 7:2.68662 8:1 
0.008978810800661314 1:0.170257 2:0.15757 3:0.253844 4:16.0993 5:14.4502 6:25.2282 7:7.50601 8:1 
0.01459922875478431 1:0.161838 2:0.156924 3:0.22171 4:56.6607 5:53.5177 6:81.5324 7:4.62151 8:1 
0.008834306786077582 1:0.0973881 2:0.0918499 3:0.140514 4:14.7108 5:13.1347 6:23.2411 7:5.38169 8:1 
0.01614097610639192 1:0.116298 2:0.114673 3:0.154121 4:53.1791 5:50.1823 6:76.6503 7:6.5046 8:1 
0.006770489887514521 1:0.0624585 2:0.0666275 3:0.0690079 4:66.0551 5:62.629 6:94.4015 7:1.41537 
0.007764083055934956 1:0.0462341 2:0.0440047 3:0.0656199 4:63.3288 5:59.5893 6:91.7455 7:2.95968 8:1 
0.004394589617420689 1:0.0173769 2:0.0175664 3:0.0218544 4:13.5391 5:12.0156 6:21.5888 7:3.48832 8:1 
0.008909787715306244 1:0.256644 2:0.244388 3:0.363853 4:49.6544 5:46.7981 6:71.7286 7:4.15712 8:1 
0.005894519751204631 1:0.135019 2:0.133162 3:0.179009 4:65.0875 5:61.7116 6:93.0184 7:1.23052 8:1 
0.002052882415771839 1:0.167542 2:0.161006 3:0.233484 4:64.238 5:60.9077 6:91.8003 7:1.20044 8:1 
0.01136041148956781 1:0.179914 2:0.175994 3:0.242366 4:46.0296 5:43.3145 6:66.6761 7:20.2454 8:1 
0.003785924555240683 1:0.136619 2:0.12835 3:0.198465 4:12.5895 5:11.1102 6:20.2458 7:3.45063 8:1 
0.003897539412922812 1:0.0765083 2:0.0757678 3:0.100513 4:62.113 5:58.5752 6:89.6303 7:1.95517 8:1 
0.007113086578642865 1:0.0352647 2:0.032577 3:0.052773 4:63.2458 5:59.9623 6:90.3949 7:1.06738 8:1 
0.001331819511389705 1:0.00217295 2:0.00333881 3:0.000349998 4:62.2207 5:58.9791 6:88.9607 7:0.978035 8:1 
0.01697359653874814 1:0.137606 2:0.134701 3:0.185164 4:42.7898 5:40.1951 6:62.1757 7:13.2631 8:1 
0.007882628265493142 1:0.0110481 2:0.012728 3:0.00961971 4:61.2928 5:58.0882 6:87.665 7:0.789462 8:1 
0.01763138539212367 1:0.0279741 2:0.0252869 3:0.0433559 4:60.4949 5:57.1273 6:87.082 7:154.593 
0.01547939611172489 1:0.24793 2:0.240829 3:0.338597 4:39.8042 5:37.3122 6:58.0515 7:17.527 8:1 
0.00583330593848437 1:7.72476e-05 2:0.00046277 3:0.000893116 4:59.4708 5:56.3323 6:85.1386 7:0.86408 8:1 
0.01716286860480093 1:0.059207 2:0.0538042 3:0.090956 4:36.9078 5:34.5131 6:54.0562 7:18.218 8:1 
0.001825088183560041 1:0.103473 2:0.0980772 3:0.147951 4:10.0165 5:8.64915 6:16.6273 7:1.65958 
0.004652060343157711 1:0.0343924 2:0.0332105 3:0.0474944 4:58.46 5:55.3544 6:83.7474 7:0.793811 8:1 
0.01192768643686309 1:0.28542 2:0.269462 3:0.411076 4:33.9933 5:31.6964 6:50.0364 7:12.509 8:1 
0.01509334042507182 1:0.113315 2:0.10657 3:0.164297 4:9.57547 5:8.22628 6:16.0098 7:5.34149 8:1 
0.0111875826175481 1:0.0248327 2:0.0216889 3:0.0405653 4:31.537 5:29.3144 6:46.6711 7:8.14159 8:1 
0.004989608923273325 1:0.101492 2:0.0996027 3:0.135826 4:55.202 5:52.2216 6:79.2105 7:2.081 8:1 
0.007477269954769872 1:0.0849555 2:0.0820069 3:0.11746 4:58.0876 5:54.9002 6:83.4908 7:1.00528 
0.00422607462032687 1:0.566775 2:0.542244 3:0.79672 4:29.448 5:27.2895 6:43.8063 7:6.77426 8:1 
0.002097577869380226 1:0.0903745 2:0.0886765 3:0.120993 4:57.4228 5:54.2713 6:82.5373 7:0.887106 8:1 
0.01208283301279817 1:0.239958 2:0.23175 3:0.331369 4:27.3673 5:25.2714 6:40.9565 7:7.29779 8:1 
0.006017705335218282 1:0.0353203 2:0.0359106 3:0.0438728 4:53.0888 5:50.1862 6:76.2774 7:2.92893 8:1 
0.001110524740927654 1:0.00023073 2:0.000190735 3:0.0004071 4:7.06163 5:5.84092 6:12.4223 7:0.000564286 8:1 
0.0002296900948899655 1:0.000481665 2:0.00039804 3:0.000848055 4:6.94036 5:5.74055 6:12.2092 7:0.000524813 8:1 
0.002013712656942002 1:0.000315368 2:0.000259757 3:0.000551999 4:7.18536 5:5.94333 6:12.6398 7:0.00053118 8:1 
0.004353330540586686 1:0.000202566 2:0.000168145 3:0.000358284 4:7.42618 5:6.14268 6:13.063 7:0.000567487 
0.00341935635432022 1:0.165499 2:0.151934 3:0.250107 4:10.68 5:9.21241 6:17.755 7:3.74477 8:1 
0.004952720838620028 1:0.0528407 2:0.0500237 3:0.0756972 4:24.0837 5:22.0774 6:36.4838 7:5.0271 8:1 
0.006465279093185945 1:0.0926812 2:0.0855179 3:0.138877 4:11.6844 5:10.127 6:19.2931 7:3.41538 8:1 
0.003801900478614826 1:0.021481 2:0.0233426 3:0.0225811 4:22.7301 5:20.7617 6:34.6374 7:5.53658 
0.002437311338876777 1:0.00455469 2:0.00495112 3:0.00477922 4:14.2585 5:12.4344 6:23.3349 7:2.31077 8:1 
0.00991994249553535 1:0.0730896 2:0.0691712 3:0.104877 4:51.1149 5:48.2832 6:73.5425 7:3.74567 
0.001011727799260231 1:0.0140667 2:0.011964 3:0.0238539 4:11.5584 5:9.80071 6:19.6773 7:0.49032 
0.008610357546441695 1:0.0007658 2:0.00365043 3:0.00690699 4:56.1651 5:53.0814 6:80.7329 7:0.824105 8:1 
0.005516781597285835 1:0.0275035 2:0.0296255 3:0.0296347 4:21.4445 5:19.5074 6:32.8967 7:4.85694 8:1 
0.004559666045535499 1:0.0070641 2:0.00651741 3:0.0105824 4:48.894 5:46.1384 6:70.475 7:3.04371 
0.01767783958384006 1:0.0855136 2:0.0862978 3:0.107985 4:20.3531 5:18.4455 6:31.4111 7:13.1505 
0.01121827162825709 1:0.00388169 2:0.00403929 3:0.00455904 4:46.8194 5:44.131 6:67.6202 7:3.80703 8:1 
0.005016826644436857 1:0.144797 2:0.139367 3:0.201254 4:54.9025 5:51.874 6:78.9564 7:0.538593 8:1 
0.01127724757092147 1:0.0967412 2:0.0922158 3:0.136871 4:44.5782 5:41.9594 6:64.5444 7:3.51867 8:1 
0.01330092030684626 1:0.267251 2:0.257218 3:0.371474 4:42.7704 5:40.2033 6:62.0756 7:6.01502 8:1 
0.009165788877768422 1:0.0410595 2:0.039392 3:0.0574088 4:53.5989 5:50.62 6:77.1421 7:0.578006 8:1 
0.002175242580619041 1:0.0671578 2:0.0641677 3:0.0946306 4:13.4255 5:11.693 6:22.0126 7:2.54539 
0.009124910949529386 1:0.128222 2:0.106079 3:0.225497 4:3.41512 5:2.82495 6:6.00712 7:9.99467 8:1 
0.0111875338379308 1:0.129605 2:0.127588 3:0.172402 4:40.9313 5:38.4154 6:59.5681 7:6.32954 8:1 
0.002979093826722266 1:0.0880624 2:0.0780522 3:0.140708 4:18.9764 5:17.0408 6:29.7147 7:5.58543 8:1 
0.01156636866377642 1:0.126406 2:0.122567 3:0.173225 4:38.9906 5:36.526 6:56.9292 7:7.71194 8:1 
0.004468029882051381 1:0.0353301 2:0.0336969 3:0.0499673 4:52.2913 5:49.3551 6:75.342 7:0.518981 8:1 
0.0131754266670196 1:0.211678 2:0.202314 3:0.298087 4:37.3444 5:34.9216 6:54.6951 7:9.27866 
0.005889731580862959 1:0.145495 2:0.134143 3:0.218295 4:19.1514 5:17.1905 6:30.009 7:3.80175 8:1 
0.01130292852629142 1:0.00442004 2:0.00485659 3:0.00453424 4:51.0347 5:48.1307 6:73.6363 7:0.469776 8:1 
0.008763367289341684 1:0.104546 2:0.0993819 3:0.148698 4:35.6524 5:33.2721 6:52.4005 7:9.63735 8:1 
0.008692949313863664 1:0.0729427 2:0.0721655 3:0.0960503 4:34.0167 5:31.6731 6:50.1942 7:9.45047 8:1 
0.006414716924216024 1:0.0138977 2:0.0148244 3:0.0153928 4:49.0778 5:46.2385 6:70.9397 7:1.19539 8:1 
0.005814719228504163 1:0.167229 2:0.164456 3:0.222895 4:32.6287 5:30.3143 6:48.3273 7:8.31407 8:1 
0.007146624845684124 1:0.06461 2:0.062922 3:0.0877857 4:47.876 5:45.0774 6:69.2814 7:1.29796 8:1 
0.005131659883419834 1:0.011694 2:0.00978065 3:0.0202799 4:8.48227 5:7.01938 6:14.9122 7:0.0910182 
0.001660533923911689 1:0.0721639 2:0.0687189 3:0.102348 4:31.0549 5:28.7767 6:46.202 7:13.9843 8:1 
0.002489022384215667 1:0.000568569 2:0.000455797 3:0.00103676 4:9.13159 5:7.55907 6:16.0473 7:0.0929591 8:1 
0.001224293055683445 1:0.0653822 2:0.0589619 3:0.101693 4:15.8232 5:13.7812 6:25.9442 7:0.939863 
0.003824265251932463 1:0.0952592 2:0.0865877 3:0.146305 4:16.2406 5:14.1245 6:26.684 7:1.4088 8:1 
0.001309273185363492 1:0.216203 2:0.210553 3:0.293809 4:28.5174 5:26.2894 6:42.7976 7:4.61996 8:1 
0.005240420765779076 1:0.0955159 2:0.086045 3:0.14882 4:13.8989 5:11.7967 6:23.6307 7:0.747338 8:1 
0.003266073303281158 1:0.395981 2:0.370433 3:0.579569 4:20.2865 5:18.0169 6:32.3126 7:2.8597 8:1 
0.004852287029980596 1:0.223932 2:0.216222 3:0.309355 4:26.6495 5:24.4456 6:40.3266 7:3.33775 8:1 
0.004252679295294826 1:0.121051 2:0.116043 3:0.16952 4:46.6216 5:43.8641 6:67.5539 7:1.4658 8:1 
0.003828747955008038 1:0.150323 2:0.144958 3:0.208171 4:41.4955 5:38.8851 6:60.5521 7:3.14227 8:1 
0.01793303905024252 1:1.45862 2:1.36635 3:2.1299 4:7.29291 5:6.84077 6:10.624 7:288.716 8:1 
0.001528993127642486 1:0.0968502 2:0.0944338 3:0.131292 4:40.2442 5:37.664 6:58.8584 7:2.79059 8:1 
0.01777485651899624 1:0.617929 2:0.578728 3:0.902626 4:27.0049 5:25.3202 6:39.3685 7:449.051 8:1 
0.006264533651284052 1:0.142588 2:0.137872 3:0.196461 4:38.9235 5:36.3758 6:57.0688 7:4.77892 8:1 
0.01770840937659729 1:1.41631 2:1.32589 3:2.07035 4:43.5626 5:40.8308 6:63.545 7:68.8762 8:1 
0.004988909777111583 1:0.339746 2:0.326274 3:0.474221 4:24.828 5:22.5292 6:38.2399 7:3.33818 8:1 
0.01151584266142486 1:0.0785879 2:0.0681167 3:0.129761 4:12.1017 5:10.0837 6:21.087 7:0.291551 8:1 
0.006708461945131699 1:0.0300283 2:0.0287807 3:0.0420513 4:45.2771 5:42.4218 6:66.0893 7:0.338034 8:1 
0.01151135965687461 1:0.244598 2:0.205238 3:0.422307 4:3.78054 5:3.14822 6:6.59265 7:22.5176 8:1 
0.007076748087842749 1:0.0879605 2:0.0844638 3:0.122819 4:44.472 5:41.6323 6:65.0104 7:0.291215 
0.005751311833692936 1:0.224841 2:0.206765 3:0.338823 4:16.705 5:14.4956 6:27.5363 7:1.12869 8:1 
0.002007491717059611 1:0.182508 2:0.176443 3:0.251555 4:36.5396 5:34.0448 6:53.8554 7:3.70923 8:1 
0.003828064313786099 1:0.0261769 2:0.024596 3:0.0380075 4:43.5244 5:40.7065 6:63.7305 7:0.658374 8:1 
