svm_type c_svc
kernel_type rbf
gamma 0.125
nr_class 2
total_sv 2496
rho -0.983648
label 1 0
nr_sv 1878 618
SV
0.01559300042991252 1:0.0392523 2:0.0414214 3:0.156976 4:10.8585 5:11.0941 6:10.7694 7:57.7539 8:1 
0.01451363742091594 1:2.89992 2:3.02543 3:3.04108 4:12.1261 5:12.4774 6:12.6973 7:43.3513 8:1 
0.01542928364560131 1:4.20243 2:4.35564 3:4.46643 4:11.2476 5:11.5784 6:11.6416 7:48.4745 8:1 
0.003861211636282669 1:0.869765 2:0.910577 3:1.01912 4:14.1754 5:14.6133 6:14.8103 7:37.8716 8:1 
0.004780171089170413 1:1.99902 2:2.05658 3:2.16818 4:3.61485 5:3.66272 6:3.17788 7:12.3132 8:1 
0.001165273329292025 1:1.6529 2:1.7257 3:1.63496 4:13.8774 5:14.2828 6:14.4901 7:13.0282 8:1 
0.0104516477423404 1:2.35049 2:2.42403 3:2.55855 4:5.10164 5:5.15454 6:4.7995 7:29.0189 8:1 
0.002410394350850942 1:1.56553 2:1.63812 3:1.58387 4:14.316 5:14.7265 6:14.9848 7:14.7223 8:1 
0.0105022909634947 1:1.48116 2:1.56203 3:1.38871 4:8.64436 5:8.80446 6:8.55668 7:55.5924 8:1 
0.008233967395390916 1:1.7202 2:1.80462 3:1.81723 4:15.5855 5:16.0854 6:16.3215 7:24.039 8:1 
0.01194140471882821 1:0.794049 2:0.817724 3:0.891432 4:10.6948 5:10.9084 6:10.6832 7:45.1468 8:1 
1 1:0.0120302 2:0.0171129 3:0.0119117 4:0.1231 5:0.114189 6:0.0604708 7:0.043337 8:1 
0.006537514606146508 1:0.038415 2:0.0539789 3:0.0431323 4:15.0469 5:15.5289 6:15.8224 7:9.51247 8:1 
0.00992108887313491 1:1.79918 2:1.84385 3:1.8996 4:12.9117 5:13.2355 6:13.0562 7:28.1484 8:1 
1 1:0.00393721 2:0.00316645 3:0.00161072 4:0.0234363 5:0.018824 6:0.00382896 7:0.0632311 8:1 
0.006304453459029063 1:0.0086503 2:0.0187178 3:0.0808873 4:12.3387 5:12.6703 6:12.4069 7:14.4074 8:1 
0.001760426850581753 1:1.12323 2:1.16919 3:1.07227 4:12.2854 5:12.6087 6:12.2888 7:7.7412 8:1 
0.009710756220889405 1:1.85886 2:1.95965 3:1.94623 4:9.29256 5:9.59441 6:9.77543 7:53.401 8:1 
1 1:0.011234 2:0.0100957 3:0.00237738 4:0.00845208 5:0.00747425 6:0.0015714 7:0.000159219 8:1 
0.003356861411077272 1:1.02933 2:1.08075 3:1.11334 4:3.62563 5:3.67589 6:4.01301 7:6.39616 8:1 
0.008663715962607855 1:0.122875 2:0.13841 3:0.100992 4:13.6443 5:14.0269 6:14.6924 7:16.6462 8:1 
0.006938339641244219 1:0.0188055 2:0.0261273 3:0.0571942 4:11.1006 5:11.4069 6:11.9648 7:1.36654 8:1 
0.005966839124599554 1:0.109038 2:0.111334 3:0.0977762 4:5.27913 5:5.38096 6:5.78262 7:0.019392 8:1 
0.006585093554980765 1:0.00989103 2:0.00501013 3:0.107131 4:10.6492 5:10.9436 6:10.5383 7:11.8365 8:1 
0.00732546015577934 1:2.5236 2:2.61569 3:2.64303 4:9.56982 5:9.82119 6:9.36833 7:7.66967 8:1 
1 1:4.98369e-08 2:2.09862e-08 3:2.15851e-07 4:2.49185e-08 5:1.04931e-08 6:1.07925e-07 7:1.04585e-15 8:1 
1 1:0.00027025 2:0.000228 3:8.50531e-05 4:0.000135125 5:0.000114 6:4.25265e-05 7:1.92881e-07 8:1 
0.004461450389654932 1:0.195012 2:0.184994 3:0.218492 4:9.12136 5:9.40018 6:9.5892 7:4.81998 8:1 
1 1:0.00280178 2:0.00250643 3:0.000510833 4:0.00140089 5:0.00125322 6:0.000255417 7:2.35583e-05 8:1 
1 1:0.0235691 2:0.0217401 3:0.00550472 4:0.0626234 5:0.0546648 6:0.0179564 7:0.0109996 8:1 
1 1:0.0438479 2:0.0421932 3:0.0146586 4:0.0739584 5:0.0624296 6:0.0135809 7:0.00973821 8:1 
0.006293618622826864 1:0.0416262 2:0.0560374 3:0.0392203 4:8.13131 5:8.34204 6:8.1122 7:0.610185 8:1 
1 1:0.0149279 2:0.00876081 3:0.00960808 4:0.116609 5:0.101902 6:0.0234305 7:0.0145841 8:1 
0.006119350097154112 1:0.00762248 2:0.0453596 3:0.0155857 4:7.24194 5:7.39982 6:7.19905 7:4.52919 8:1 
0.006282930645363445 1:2.39712 2:2.49426 3:2.46048 4:5.51857 5:5.72975 6:6.0486 7:17.8105 8:1 
0.01146258411703701 1:1.49647 2:1.58886 3:1.46492 4:6.87329 5:7.11365 6:7.41055 7:29.1403 8:1 
0.003054200231657428 1:0.0757651 2:0.0869279 3:0.00604057 4:8.84066 5:9.05834 6:9.73978 7:0.282857 8:1 
0.001653573885853388 1:0.40549 2:0.442677 3:0.389683 4:9.61577 5:9.98183 6:10.2644 7:17.2403 8:1 
0.004863411811832594 1:0.031642 2:0.0253668 3:0.108851 4:13.1775 5:13.6014 6:13.9048 7:5.02997 8:1 
0.001537026469842591 1:0.775121 2:0.745371 3:0.805753 4:8.78676 5:8.97263 6:9.66702 7:0.364498 8:1 
0.004525302868788298 1:0.0664287 2:0.0580673 3:0.0446568 4:11.8645 5:12.2941 6:12.5723 7:9.36006 8:1 
0.004801811752326857 1:0.179802 2:0.207088 3:0.100643 4:14.0381 5:14.5447 6:14.8383 7:7.52226 8:1 
0.007168142282724507 1:1.60093 2:1.67049 3:1.76503 4:8.23012 5:8.4389 6:9.18306 7:13.5546 8:1 
0.004671388164615384 1:0.05024 2:0.057806 3:0.0666924 4:15.8225 5:16.3828 6:16.6254 7:4.3501 8:1 
0.004635530397975859 1:1.77301 2:1.88436 3:1.87148 4:15.775 5:16.321 6:16.6039 7:15.5441 8:1 
0.002602015467614125 1:2.48215 2:2.61481 3:2.9301 4:10.9448 5:11.2641 6:12.4268 7:18.9227 8:1 
0.01100274251099714 1:1.38462 2:1.44822 3:1.74364 4:16.1877 5:16.6066 6:17.9109 7:29.7826 8:1 
0.003426042718245537 1:0.423344 2:0.426816 3:0.447659 4:12.3511 5:12.7297 6:13.9371 7:39.3116 8:1 
0.0159798157662512 1:4.29769 2:4.46323 3:4.87235 4:13.2066 5:13.6245 6:15.0533 7:61.5225 8:1 
0.01359633642652834 1:2.62026 2:2.76346 3:3.04878 4:15.0948 5:15.5788 6:17.0758 7:59.7797 8:1 
0.009819483228186654 1:1.7252 2:1.84176 3:2.19776 4:16.5742 5:17.034 6:18.3536 7:40.0326 8:1 
0.009309002439538368 1:1.21737 2:1.23171 3:1.3149 4:18.2101 5:18.8187 6:20.7064 7:127.721 8:1 
0.003821542340876717 1:1.46897 2:1.5814 3:1.61974 4:14.6001 5:15.0314 6:15.9526 7:27.4214 8:1 
0.01325068493965142 1:1.29594 2:1.33447 3:1.31636 4:17.7203 5:18.2873 6:19.9877 7:92.9428 8:1 
0.01241755321500609 1:3.0462 2:3.17495 3:3.30312 4:14.9839 5:15.3779 6:16.5472 7:42.014 8:1 
0.0119639007136495 1:2.91138 2:3.03783 3:3.42672 4:20.3804 5:21.0151 6:22.8736 7:79.8647 8:1 
0.01360553941588744 1:0.083456 2:0.0925479 3:0.124908 4:14.91 5:15.3683 6:16.2047 7:48.426 8:1 
0.01304443163197927 1:0.137121 2:0.13659 3:0.258708 4:13.7996 5:14.1686 6:15.5156 7:58.0733 8:1 
0.01167676555208332 1:1.17287 2:1.21347 3:1.33894 4:17.2973 5:17.7853 6:19.426 7:88.5429 8:1 
0.008123781617135128 1:0.11084 2:0.138056 3:0.12873 4:21.1462 5:21.8443 6:23.6515 7:39.2033 8:1 
0.007717251806184409 1:3.09333 2:3.20212 3:3.60748 4:19.8796 5:20.5011 6:22.4792 7:91.9987 8:1 
0.00724629288872336 1:1.3469 2:1.3242 3:1.46877 4:14.5156 5:14.9766 6:15.9418 7:42.4021 8:1 
0.01095209822087301 1:0.154245 2:0.130894 3:0.0528231 4:23.6622 5:24.5019 6:26.6648 7:97.8334 8:1 
0.01327102811113912 1:3.72039 2:3.84706 3:4.29236 4:17.1303 5:17.6189 6:19.1558 7:115.58 8:1 
0.008109337329071042 1:3.01691 2:3.15648 3:3.30813 4:20.301 5:20.9537 6:22.8456 7:106.804 8:1 
0.01392293543586337 1:1.50049 2:1.6242 3:1.99368 4:18.3622 5:19.0808 6:20.535 7:74.182 8:1 
0.01274376149489959 1:3.8364 2:3.98481 3:4.42897 4:19.2646 5:19.8842 6:21.4522 7:108.987 8:1 
0.001344991807847704 1:1.46651 2:1.50294 3:1.63858 4:10.166 5:10.4245 6:11.075 7:19.103 8:1 
0.01374774705406817 1:2.73601 2:2.78225 3:3.02477 4:15.4626 5:15.9131 6:17.2769 7:109.29 8:1 
0.002423592273253115 1:0.273264 2:0.254391 3:0.380628 4:9.75126 5:9.95708 6:9.78171 7:7.51689 8:1 
0.0039117108664879 1:2.33825 2:2.43575 3:2.7565 4:10.7751 5:11.0976 6:11.9588 7:52.9936 8:1 
0.003324296362375827 1:2.33013 2:2.43478 3:2.75083 4:12.7997 5:13.149 6:14.0889 7:21.3243 8:1 
0.007627086603208044 1:0.521367 2:0.522497 3:0.670516 4:14.6772 5:15.076 6:16.2788 7:40.4097 8:1 
0.006928941592317163 1:1.07791 2:1.09993 3:1.30897 4:14.4938 5:14.9157 6:16.1379 7:59.6343 8:1 
0.01372111068087439 1:2.79739 2:2.89532 3:2.95064 4:14.9242 5:15.3594 6:16.0787 7:34.1291 8:1 
0.01196995579854849 1:1.97625 2:2.03277 3:2.2386 4:17.7504 5:18.2464 6:19.7895 7:43.6373 8:1 
0.001298184724589202 1:0.692245 2:0.68748 3:0.796237 4:18.9296 5:19.509 6:21.123 7:76.1588 8:1 
0.007779236255729793 1:0.254374 2:0.258482 3:0.286125 4:15.1966 5:15.6117 6:16.6818 7:36.2458 8:1 
0.007205703518104519 1:0.0106516 2:0.0118361 3:0.0668163 4:17.9224 5:18.4333 6:19.7104 7:36.4831 8:1 
0.001768024230431875 1:0.672868 2:0.64482 3:0.793238 4:9.88565 5:10.0743 6:9.96843 7:14.4906 8:1 
0.0106386753130141 1:2.55693 2:2.63825 3:2.80762 4:17.1209 5:17.6177 6:18.5422 7:48.444 8:1 
0.01297737541932883 1:3.27969 2:3.43191 3:3.77569 4:21.6301 5:22.3044 6:24.239 7:74.1096 8:1 
0.008193314001855148 1:3.56317 2:3.68604 3:4.19908 4:23.2376 5:23.9267 6:26.036 7:27.0309 8:1 
0.001733168349200332 1:1.87784 2:1.97073 3:2.14143 4:17.1882 5:17.6911 6:18.6319 7:41.6941 8:1 
0.00719428042181295 1:2.43056 2:2.54102 3:2.88277 4:21.821 5:22.482 6:24.4192 7:60.8339 8:1 
0.008439199533165687 1:2.26866 2:2.35468 3:2.55779 4:16.8074 5:17.3109 6:18.2465 7:34.8612 8:1 
0.009816808332006325 1:0.651311 2:0.714923 3:0.796106 4:20.6115 5:21.2294 6:23.0448 7:93.072 8:1 
0.01057110636950657 1:2.43271 2:2.50362 3:2.76116 4:21.284 5:21.8498 6:23.4851 7:35.7228 8:1 
0.003209980078026634 1:1.35739 2:1.41545 3:1.4789 4:21.454 5:22.0559 6:23.8764 7:82.8095 8:1 
0.01626000303915026 1:6.36003 2:6.61939 3:7.23532 4:18.0801 5:18.6716 6:19.7667 7:80.8168 8:1 
0.005154892707154731 1:1.68077 2:1.72516 3:1.90166 4:18.2598 5:18.8087 6:20.258 7:89.1802 8:1 
0.01053855751193394 1:1.60698 2:1.66535 3:1.79177 4:9.78998 5:10.0146 6:10.1187 7:34.3384 8:1 
0.008863696104227551 1:2.0814 2:2.15185 3:2.41661 4:19.9346 5:20.4738 6:21.9512 7:62.5119 8:1 
0.005773918871840145 1:0.24827 2:0.251222 3:0.245992 4:19.9118 5:20.5964 6:21.8998 7:100.008 8:1 
0.009214987052979351 1:0.235962 2:0.260475 3:0.241824 4:10.7563 5:10.9966 6:11.2049 7:27.5149 8:1 
0.005488779491105039 1:1.35828 2:1.43725 3:1.63185 4:18.9665 5:19.5174 6:20.9779 7:106.992 8:1 
0.01221098432528045 1:0.246184 2:0.252236 3:0.187399 4:16.759 5:17.2045 6:18.2897 7:127.713 8:1 
0.007874749460240332 1:0.996275 2:1.03655 3:1.03297 4:8.79105 5:8.98674 6:9.0836 7:24.0534 8:1 
0.01582641761934128 1:4.28265 2:4.41194 3:4.89866 4:16.7475 5:17.2312 6:18.5136 7:92.9701 8:1 
0.01020584075365818 1:2.78092 2:2.89997 3:3.30972 4:15.7194 5:16.1364 6:17.2042 7:120.628 8:1 
0.009830663850188 1:1.61246 2:1.70915 3:1.87198 4:17.8742 5:18.4281 6:19.7043 7:109.472 8:1 
0.004496798026453086 1:0.979887 2:1.01309 3:1.02696 4:12.0746 5:12.3923 6:13.0104 7:109.16 8:1 
0.009667919147614902 1:3.82857 2:3.98532 3:4.29457 4:16.1904 5:16.6531 6:17.5734 7:118.925 8:1 
0.01237665666308735 1:3.26959 2:3.36938 3:3.79663 4:18.8415 5:19.3779 6:20.9025 7:144.891 8:1 
0.0136377388377123 1:2.38388 2:2.44349 3:2.75896 4:19.7499 5:20.3967 6:21.8671 7:125.956 8:1 
0.01221209577988969 1:1.4544 2:1.54162 3:1.68826 4:20.6355 5:21.2983 6:22.9339 7:154.45 8:1 
0.002346668420455 1:2.21652 2:2.37723 3:2.62259 4:23.018 5:23.7859 6:25.9133 7:52.092 8:1 
0.004800009105305925 1:0.84641 2:0.888998 3:0.9204 4:20.185 5:20.7759 6:22.4563 7:76.4172 8:1 
0.01440068474958306 1:2.47924 2:2.53379 3:2.8076 4:12.7987 5:13.1807 6:14.0202 7:88.0712 8:1 
0.00956499936834293 1:0.25837 2:0.297277 3:0.174342 4:21.5602 5:22.2608 6:24.1697 7:97.4444 8:1 
0.007382689934754549 1:0.355403 2:0.352384 3:0.525279 4:19.8284 5:20.435 6:22.0885 7:146.899 8:1 
0.005964039284791996 1:3.6801 2:3.81133 3:4.11723 4:21.6459 5:22.3671 6:24.2629 7:83.0316 8:1 
0.005195658134635929 1:2.82873 2:2.88122 3:3.01426 4:14.244 5:14.6815 6:15.5664 7:129.292 8:1 
0.006770495510114327 1:0.94584 2:0.986173 3:1.1545 4:19.9575 5:20.5177 6:22.2028 7:144.279 8:1 
0.01584139693323076 1:4.9123 2:5.03979 3:5.61075 4:22.8363 5:23.5789 6:25.5687 7:134.582 8:1 
0.009780944275982473 1:0.489685 2:0.423803 3:0.502095 4:18.7512 5:19.3162 6:20.7132 7:100.251 8:1 
0.008352856653317586 1:0.935809 2:0.936501 3:1.08348 4:19.4906 5:20.1336 6:21.647 7:64.4769 8:1 
0.01138085306038711 1:0.287186 2:0.32859 3:0.435674 4:16.1359 5:16.6275 6:18.1192 7:105.366 8:1 
0.01179060436957838 1:2.43066 2:2.51374 3:2.73058 4:23.54 5:24.3109 6:26.354 7:106.742 8:1 
0.01347453538867033 1:0.993384 2:1.02698 3:1.25189 4:19.9824 5:20.6801 6:22.0547 7:160.606 8:1 
0.01484587656695174 1:5.14957 2:5.40641 3:5.92703 4:20.8484 5:21.492 6:23.3127 7:122.125 8:1 
0.01389018761275612 1:2.32336 2:2.39025 3:2.59391 4:21.4214 5:22.088 6:23.9367 7:138.335 8:1 
0.005406737333162799 1:2.56986 2:2.65254 3:2.86536 4:19.5427 5:20.1318 6:21.8946 7:143.469 8:1 
0.01313347461582621 1:0.259568 2:0.264349 3:0.331427 4:21.2616 5:21.9232 6:23.8473 7:126.204 8:1 
0.01615706221932028 1:5.00998 2:5.19141 3:5.64687 4:20.0264 5:20.6286 6:22.3864 7:168.833 8:1 
0.004854417884026072 1:0.782637 2:0.858887 3:0.898541 4:19.9431 5:20.5624 6:22.2282 7:92.5621 8:1 
0.01417992822548186 1:1.70589 2:1.75187 3:1.91743 4:21.1044 5:21.8432 6:23.3186 7:132.437 8:1 
0.008705208932148675 1:2.42799 2:2.49375 3:2.71658 4:22.2151 5:22.933 6:25.0419 7:186.241 8:1 
0.01045284237108535 1:4.57229 2:4.79882 3:5.25729 4:22.7892 5:23.4614 6:25.5549 7:153.579 8:1 
0.01516013350438128 1:8.19107 2:8.52091 3:9.27084 4:23.4155 5:24.1739 6:26.097 7:144.667 8:1 
0.01589299207675343 1:4.80568 2:5.01265 3:5.56069 4:18.5195 5:19.0515 6:20.9095 7:137.741 8:1 
0.01191003934519735 1:0.598296 2:0.610406 3:0.566257 4:21.5416 5:22.2783 6:23.8404 7:152.519 8:1 
0.01479052935548691 1:5.91649 2:6.13135 3:6.95793 4:22.5761 5:23.2898 6:25.3833 7:146.048 8:1 
0.01158256674710656 1:0.224973 2:0.23161 3:0.248669 4:21.881 5:22.6156 6:24.3076 7:171.152 8:1 
0.004210308659269208 1:1.40018 2:1.50846 3:1.43788 4:20.4473 5:21.0695 6:22.6536 7:84.7905 8:1 
0.01480325562757545 1:0.777672 2:0.849877 3:0.82184 4:24.8056 5:25.624 6:27.9544 7:193.444 8:1 
0.01324203719130002 1:2.35823 2:2.48082 3:2.77313 4:20.6967 5:21.3238 6:22.8785 7:102.727 8:1 
0.009055306542109504 1:2.80464 2:2.92051 3:3.06456 4:19.9046 5:20.5005 6:22.3579 7:116.457 8:1 
0.01090634961708004 1:4.60006 2:4.77971 3:5.24053 4:21.6438 5:22.3087 6:24.0374 7:154.398 8:1 
0.002719900400876775 1:1.80522 2:1.90625 3:1.98636 4:20.0289 5:20.6075 6:22.3879 7:113.619 
0.01546930640470733 1:3.74128 2:3.90433 3:4.22718 4:21.9296 5:22.6771 6:24.3352 7:159.48 8:1 
0.005568598889839414 1:2.65735 2:2.73839 3:2.98024 4:21.3112 5:21.9686 6:23.7783 7:86.1827 8:1 
0.0133656942955907 1:0.587204 2:0.628036 3:0.743426 4:20.3551 5:21.0283 6:22.6311 7:173.266 8:1 
0.01465524508096783 1:2.52653 2:2.58344 3:2.73059 4:23.475 5:24.2413 6:26.2849 7:192.047 8:1 
0.01635073461570913 1:5.25675 2:5.49429 3:6.13491 4:21.6353 5:22.3359 6:23.9243 7:98.8107 8:1 
0.008728082374325222 1:1.3368 2:1.3164 3:1.51032 4:22.0772 5:22.7728 6:24.5727 7:76.7735 8:1 
0.01191017875767936 1:3.21634 2:3.29556 3:3.2272 4:21.5875 5:22.2558 6:23.9319 7:142.329 8:1 
0.01424732522022448 1:0.828324 2:0.893642 3:1.12939 4:20.4415 5:21.145 6:22.5849 7:168.544 8:1 
0.01130291974806519 1:2.2972 2:2.37044 3:2.37366 4:21.0965 5:21.7756 6:23.4592 7:41.3927 8:1 
0.01591707554711574 1:3.91193 2:3.99291 3:3.92076 4:29.1135 5:29.8832 6:32.4662 7:531.705 
0.007473217416571365 1:0.995586 2:0.978032 3:1.05386 4:22.9529 5:23.6686 6:25.4463 7:45.1816 8:1 
0.01223449860035603 1:2.94336 2:3.07239 3:3.44638 4:18.0127 5:18.6233 6:19.897 7:149.235 8:1 
0.01310941825283468 1:3.11644 2:3.18385 3:3.30457 4:21.9123 5:22.5892 6:24.2136 7:117.531 8:1 
0.007891208609357936 1:0.424275 2:0.37651 3:0.222846 4:21.7099 5:22.3922 6:24.0235 7:33.2448 8:1 
0.01076758252567132 1:0.895032 2:0.877776 3:1.11138 4:27.733 5:28.6375 6:30.9842 7:70.7155 8:1 
0.01033578637822707 1:0.221489 2:0.240581 3:0.310654 4:8.33749 5:8.52194 6:8.60953 7:26.5391 8:1 
0.01102953791793417 1:2.21806 2:2.30563 3:2.58531 4:23.2885 5:23.9923 6:25.8508 7:58.211 8:1 
0.01121837961427735 1:2.24877 2:2.32876 3:2.59272 4:19.7664 5:20.3504 6:22.0371 7:86.3219 
0.01276248988897216 1:0.363046 2:0.372141 3:0.417611 4:14.0101 5:14.4041 6:15.0929 7:126.946 8:1 
0.01481677453600816 1:2.51229 2:2.65114 3:2.95634 4:9.10094 5:9.34296 6:9.61452 7:63.0403 8:1 
0.01550726585285472 1:0.14798 2:0.160815 3:0.240916 4:15.3505 5:15.8164 6:16.8891 7:114.121 8:1 
0.01455097235690254 1:1.50323 2:1.57713 3:1.76416 4:17.2221 5:17.7409 6:18.7575 7:167.681 8:1 
0.01475412607669857 1:0.189359 2:0.209819 3:0.11935 4:10.7412 5:11.0663 6:11.5326 7:108.541 8:1 
0.01273518591155443 1:2.40141 2:2.45826 3:2.67832 4:14.5609 5:14.9672 6:15.9554 7:75.0671 8:1 
0.008270421389400975 1:0.37617 2:0.382708 3:0.377202 4:18.6559 5:19.1895 6:20.5625 7:131.426 8:1 
0.01637581098832341 1:3.67392 2:3.84005 3:4.16566 4:14.5501 5:15.0044 6:15.8577 7:178.803 8:1 
0.009426263428387323 1:0.0556645 2:0.0368829 3:0.0309782 4:15.3828 5:15.7661 6:16.8091 7:119.882 8:1 
0.01557170666026575 1:0.602946 2:0.647653 3:0.914964 4:20.0578 5:20.644 6:22.2459 7:120.139 
0.01060154035853489 1:0.899055 2:0.925424 3:1.09113 4:20.4467 5:21.0144 6:22.4281 7:106.915 8:1 
0.01032581797874318 1:2.33144 2:2.37544 3:2.73997 4:13.9831 5:14.3246 6:15.2633 7:133.289 8:1 
0.01560765313889498 1:0.0863132 2:0.0331178 3:0.00909805 4:11.9369 5:12.1823 6:12.8918 7:68.3717 8:1 
0.007917304547166326 1:0.425649 2:0.440001 3:0.662237 4:20.6644 5:21.2148 6:22.7028 7:128.921 8:1 
0.005234051164250131 1:0.947963 2:1.00875 3:0.995512 4:22.5289 5:23.2454 6:25.0153 7:54.5208 
0.01352494461733391 1:3.48546 2:3.62875 3:3.96075 4:19.7571 5:20.284 6:21.611 7:163.331 8:1 
0.009929768808912351 1:0.419287 2:0.476417 3:0.515778 4:25.5993 5:26.4042 6:28.6787 7:77.1058 
0.009008046821094184 1:0.501253 2:0.527676 3:0.601359 4:17.5835 5:18.0647 6:19.4113 7:104.295 8:1 
0.01041849062202688 1:2.29442 2:2.43232 3:2.55059 4:12.3362 5:12.6598 6:13.2866 7:132.992 8:1 
0.01187789281395996 1:2.42422 2:2.54126 3:2.97971 4:18.6656 5:19.1194 6:20.5206 7:160.468 8:1 
0.00816159121895238 1:1.41057 2:1.48358 3:1.68787 4:23.0495 5:23.764 6:25.5798 7:64.8452 
0.01629915359434192 1:0.471594 2:0.506407 3:0.604986 4:13.7487 5:14.1008 6:15.0724 7:93.5995 8:1 
0.01647448111404137 1:0.315663 2:0.375225 3:0.400425 4:15.6946 5:16.1265 6:17.3158 7:145.878 8:1 
0.01592642092821617 1:0.239332 2:0.252314 3:0.280149 4:15.0335 5:15.3985 6:16.4601 7:100.693 8:1 
0.008664958787991395 1:0.30446 2:0.324968 3:0.319439 4:15.2588 5:15.6598 6:16.8349 7:123.271 8:1 
0.01315280531173507 1:1.24336 2:1.20568 3:1.20251 4:13.3608 5:13.6915 6:14.4252 7:109.468 8:1 
0.01010385924434382 1:1.75664 2:1.81351 3:2.19037 4:22.4834 5:23.1632 6:24.9476 7:50.0489 
0.01003348247533521 1:2.17145 2:2.3402 3:2.71074 4:15.7363 5:16.1228 6:17.175 7:128.516 8:1 
0.007394587647861162 1:1.40777 2:1.4085 3:1.50028 4:15.5762 5:15.9917 6:16.9824 7:124.539 8:1 
0.01101648805951344 1:0.779897 2:0.808958 3:0.822768 4:16.517 5:16.9764 6:18.3145 7:118.436 8:1 
0.01636798682071761 1:4.44183 2:4.55534 3:4.36841 4:27.1497 5:27.8563 6:30.5559 7:876.443 
0.009478717474952594 1:1.09673 2:1.17177 3:1.25551 4:20.6945 5:21.2608 6:23.0278 7:147.543 8:1 
0.0136480525815233 1:1.52118 2:1.56639 3:1.61078 4:17.1016 5:17.5792 6:18.8242 7:150.391 8:1 
0.01531691777963184 1:5.16276 2:5.38485 3:5.84263 4:23.3378 5:24.0538 6:25.9616 7:62.0048 
0.003394750066352759 1:0.409944 2:0.45971 3:0.446726 4:19.3579 5:19.8756 6:21.4678 7:101.804 8:1 
0.01132070012349384 1:1.4272 2:1.42949 3:1.5828 4:20.3875 5:20.9153 6:22.6927 7:70.5299 8:1 
0.01354384133462757 1:0.315182 2:0.307553 3:0.149963 4:20.6549 5:21.2181 6:22.9912 7:140.754 8:1 
0.00662265914851129 1:0.442786 2:0.442387 3:0.414258 4:23.2461 5:23.9178 6:26.0472 7:46.3354 
0.01208531122894636 1:3.24492 2:3.35785 3:3.84309 4:22.8149 5:23.4279 6:25.3518 7:53.6569 8:1 
0.01249428485092602 1:2.80515 2:2.85745 3:3.22765 4:21.2056 5:21.762 6:23.5566 7:112.831 8:1 
0.009380726731898914 1:0.306725 2:0.295444 3:0.326756 4:21.3223 5:21.8709 6:23.7801 7:55.9727 8:1 
0.01343016234290495 1:2.21079 2:2.27455 3:2.47925 4:18.2926 5:18.7628 6:19.9767 7:54.6942 8:1 
0.01635551500630023 1:117.538 2:121.554 3:144.155 4:88.2092 5:91.1041 6:106.143 7:42870.8 
0.01014073553404415 1:3.16521 2:3.21214 3:3.64109 4:23.5918 5:24.1852 6:26.2007 7:86.8713 8:1 
0.01104569165779544 1:3.81532 2:3.94358 3:4.28476 4:20.7097 5:21.3272 6:23.1473 7:91.8143 
0.006146739600437486 1:0.165879 2:0.125465 3:0.179552 4:17.0144 5:17.4469 6:18.4881 7:34.6374 8:1 
0.01022970267199123 1:0.308092 2:0.297096 3:0.304816 4:17.4447 5:17.9841 6:19.3262 7:135.789 8:1 
0.001434178435464006 1:0.558349 2:0.562562 3:0.524453 4:18.5592 5:19.0395 6:20.2957 7:24.3461 8:1 
0.01133707340517148 1:2.76781 2:2.88134 3:2.96258 4:23.8038 5:24.6146 6:26.3655 7:99.6632 8:1 
0.007053565038483382 1:0.604642 2:0.636442 3:0.554668 4:24.5715 5:25.3471 6:27.153 7:54.0563 8:1 
0.004991044144933629 1:0.421094 2:0.432313 3:0.384857 4:19.3082 5:19.9285 6:21.458 7:132.263 8:1 
0.01533472460875464 1:4.52254 2:4.70269 3:5.07617 4:20.6445 5:21.3037 6:22.9444 7:130.547 8:1 
0.01031168605675369 1:2.08296 2:2.09076 3:2.43023 4:18.5532 5:19.0472 6:20.4084 7:33.9399 8:1 
0.01082266371142365 1:0.82712 2:0.87179 3:0.930567 4:24.8715 5:25.6338 6:28.237 7:116.585 
0.0114639821047009 1:4.47048 2:4.71853 3:5.14487 4:21.1748 5:21.8495 6:23.3505 7:83.9983 8:1 
0.001957098102578159 1:0.186673 2:0.226591 3:0.0726585 4:24.1593 5:24.9066 6:26.7481 7:82.826 8:1 
0.01555164331670347 1:0.0641422 2:0.0813818 3:0.220174 4:23.5113 5:24.2479 6:26.1766 7:137.243 8:1 
0.01107638783580981 1:0.226387 2:0.187157 3:0.176616 4:24.8781 5:25.6055 6:27.5962 7:65.3597 8:1 
0.01534307120724865 1:3.77316 2:3.93069 3:4.39029 4:23.2378 5:24.0187 6:25.7816 7:44.898 8:1 
0.007725708684393848 1:0.392714 2:0.430888 3:0.628019 4:22.8672 5:23.5085 6:25.3897 7:84.3697 8:1 
0.008443163552261901 1:0.240117 2:0.222857 3:0.374509 4:22.5897 5:23.3273 6:24.9261 7:60.3373 8:1 
0.008965220393202897 1:0.0950174 2:0.0732193 3:0.0684452 4:25.0561 5:25.8233 6:27.801 7:52.402 8:1 
0.002698735357904861 1:0.39991 2:0.439399 3:0.506831 4:26.0169 5:26.8002 6:29.0759 7:74.4178 8:1 
0.00474503511829872 1:3.09342 2:3.17926 3:3.52146 4:22.744 5:23.4096 6:25.3045 7:61.8256 8:1 
0.01391783634739119 1:0.177276 2:0.196058 3:0.184072 4:21.9151 5:22.5633 6:24.24 7:69.4071 8:1 
0.0144824979472376 1:2.15254 2:2.22114 3:2.40301 4:28.838 5:29.7903 6:32.2839 7:79.7462 8:1 
0.008413687088074072 1:1.2195 2:1.22592 3:1.48337 4:25.6207 5:26.3934 6:28.753 7:66.7711 8:1 
0.003556920689325014 1:0.365093 2:0.443815 3:0.407005 4:26.2381 5:26.987 6:29.4499 7:52.0294 8:1 
0.01068240004738347 1:2.81305 2:2.95542 3:3.18034 4:23.9507 5:24.6448 6:26.8857 7:64.0726 8:1 
0.002162646686194532 1:3.17498 2:3.2538 3:3.60155 4:26.7204 5:27.5376 6:29.9714 7:80.4509 8:1 
0.01155578806921199 1:3.97566 2:4.15286 3:4.6236 4:26.2281 5:27.1199 6:29.3686 7:102.233 8:1 
0.005776405601444768 1:0.378568 2:0.386488 3:0.488243 4:20.1738 5:20.7343 6:22.2049 7:18.832 8:1 
0.002543030004970359 1:1.36484 2:1.38384 3:1.34574 4:24.0444 5:24.8135 6:26.5859 7:64.0221 
0.01540623304843486 1:0.511012 2:0.517538 3:0.400091 4:25.525 5:26.2516 6:28.7322 7:59.3105 8:1 
0.01163243376626388 1:0.245848 2:0.262544 3:0.222036 4:25.4204 5:26.2202 6:28.6428 7:84.0135 8:1 
0.01007585366779299 1:2.37774 2:2.47539 3:2.45426 4:22.8306 5:23.4971 6:25.7789 7:186.118 
0.003051900926267226 1:1.27223 2:1.26801 3:1.35509 4:19.6229 5:20.1964 6:21.6418 7:55.0617 8:1 
0.01579395303375491 1:3.03811 2:3.12327 3:3.33868 4:26.5663 5:27.4434 6:29.7849 7:110.817 8:1 
0.01243677439372054 1:1.90743 2:1.93912 3:2.06401 4:24.6658 5:25.4904 6:27.8474 7:113.807 8:1 
0.01363782474515052 1:1.35597 2:1.43164 3:1.42613 4:24.5264 5:25.2471 6:27.6391 7:119.855 8:1 
0.01051786912970248 1:1.92021 2:1.98139 3:1.94453 4:24.7922 5:25.6321 6:27.8232 7:86.9754 
0.01013925233084648 1:2.94159 2:3.02158 3:3.35007 4:25.6576 5:26.5003 6:28.4982 7:75.1968 
0.009829489003369791 1:4.36208 2:4.58074 3:4.94988 4:24.8798 5:25.6857 6:28.0861 7:102.783 8:1 
0.009163544392786844 1:2.46699 2:2.60211 3:2.86361 4:28.1604 5:29.0508 6:31.7865 7:116.316 8:1 
0.01642194020887811 1:182.341 2:189.006 3:224.633 4:464.217 5:480.214 6:566.363 7:198718 
0.005998404813504188 1:0.737864 2:0.815004 3:0.93904 4:26.9707 5:27.8273 6:29.9808 7:71.5189 
0.01590698300182736 1:3.16253 2:3.24125 3:3.68748 4:30.0991 5:31.018 6:34.1803 7:85.8102 8:1 
0.01624841069182414 1:2.62617 2:2.71462 3:2.94856 4:34.8806 5:35.9598 6:39.562 7:18.6754 8:1 
0.01221135621565284 1:4.04287 2:4.14155 3:4.42946 4:26.4045 5:27.2427 6:29.4755 7:79.5832 
0.01635938888185939 1:327.452 2:338.341 3:398.211 4:282.933 5:292.29 6:340.251 7:160743 
0.004374385234444632 1:1.73529 2:1.83491 3:2.09442 4:33.641 5:34.707 6:38.109 7:26.7268 8:1 
0.01448419528530331 1:0.425017 2:0.433121 3:0.739507 4:23.8859 5:24.6054 6:26.4453 7:204.062 
0.007423322240839914 1:2.96556 2:3.08799 3:3.30663 4:24.2289 5:24.991 6:27.5535 7:96.4445 
0.007720006435986859 1:0.417524 2:0.433678 3:0.447893 4:33.7357 5:34.7336 6:38.1662 7:12.3997 8:1 
0.01567582299874576 1:2.65459 2:2.69717 3:2.60087 4:17.9896 5:18.5909 6:19.8518 7:201.396 
0.0163378636604794 1:51.6119 2:53.3159 3:59.1356 4:52.3908 5:54.0736 6:59.3971 7:24852.6 
0.01143947949476282 1:1.48716 2:1.56278 3:1.78506 4:32.06 5:33.127 6:36.1879 7:71.0457 
0.01591026716793492 1:9.60158 2:9.84691 3:9.82377 4:30.4023 5:31.1826 6:33.0854 7:120.457 
0.007952913460925925 1:0.629748 2:0.657671 3:0.841181 4:32.2432 5:33.1803 6:36.4493 7:16.1531 8:1 
0.01350220841289711 1:1.5393 2:1.69332 3:2.04659 4:32.3283 5:33.4672 6:36.5032 7:59.1411 
0.01429767688254631 1:3.54343 2:3.65814 3:3.93888 4:24.6759 5:25.4043 6:27.9529 7:140.78 
0.009751656857686197 1:1.6691 2:1.68117 3:1.76002 4:30.9815 5:31.9218 6:34.8607 7:18.5197 8:1 
0.00611118714534923 1:1.71053 2:1.76892 3:1.92116 4:28.1992 5:29.0264 6:31.6813 7:35.7875 8:1 
0.008434716283187959 1:1.59872 2:1.66641 3:1.71353 4:24.6656 5:25.4817 6:27.811 7:77.9618 
0.01408707377552409 1:2.21985 2:2.2738 3:2.43774 4:34.0102 5:35.1062 6:38.293 7:70.1949 
0.004632295797156944 1:2.96955 2:3.08511 3:3.31911 4:27.9712 5:28.8182 6:31.8041 7:116.756 
0.0145103056095549 1:1.58207 2:1.65398 3:1.93749 4:27.7816 5:28.6452 6:31.3344 7:120.189 
0.01159863693629204 1:1.29845 2:1.31519 3:1.47676 4:35.844 5:36.9512 6:40.3359 7:26.9922 
0.01413097372863903 1:1.18488 2:1.27686 3:1.38454 4:22.7184 5:23.3272 6:25.678 7:143.378 
0.005292816853018214 1:0.0326214 2:0.0179825 3:0.0139713 4:20.3638 5:20.8199 6:22.3048 7:58.6504 8:1 
0.002435985065127268 1:1.87447 2:1.89322 3:2.0413 4:17.4232 5:17.8757 6:18.97 7:45.9459 8:1 
0.01006323373016308 1:1.64619 2:1.71039 3:1.99648 4:33.6195 5:34.619 6:37.8241 7:25.6792 
0.01260486847306846 1:1.71119 2:1.84362 3:2.32307 4:31.9132 5:32.8408 6:35.8538 7:36.8474 
0.005441734478762925 1:0.688456 2:0.681076 3:0.785738 4:19.9916 5:20.5519 6:21.941 7:80.961 8:1 
0.01098212047237601 1:1.47353 2:1.55879 3:1.76105 4:23.2484 5:23.9087 6:25.783 7:94.1769 8:1 
0.006281026077891961 1:0.332838 2:0.418979 3:0.533342 4:29.9274 5:30.6739 6:33.5288 7:12.4028 
0.01441946612198112 1:3.74288 2:3.83022 3:4.20349 4:25.8483 5:26.5984 6:28.9738 7:137.209 
0.004551318231314042 1:0.849725 2:0.873163 3:0.932112 4:33.1735 5:34.1104 6:37.2353 7:7.16306 
0.009605569644251299 1:1.85238 2:1.94867 3:1.94532 4:22.7781 5:23.4074 6:25.2304 7:90.643 8:1 
0.01155775474138093 1:0.272463 2:0.31131 3:0.481806 4:18.6414 5:19.1628 6:20.4371 7:57.6169 8:1 
0.01637179722858356 1:2.97094 2:3.06511 3:3.48559 4:24.7539 5:25.3834 6:27.5985 7:177.724 8:1 
0.009433119851463445 1:2.105 2:2.10672 3:2.47868 4:24.9754 5:25.6418 6:27.8602 7:82.5074 8:1 
0.008785848341867519 1:1.7831 2:1.81243 3:1.94102 4:31.8065 5:32.6761 6:35.6098 7:13.1792 
0.01432841746675506 1:1.76185 2:1.82104 3:1.98795 4:25.7464 5:26.3726 6:28.722 7:91.1702 8:1 
0.008856504444858717 1:0.40705 2:0.432615 3:0.449474 4:23.1947 5:23.8482 6:25.7352 7:82.0506 8:1 
0.00231890875786943 1:2.16652 2:2.21654 3:2.4394 4:26.2579 5:26.9433 6:29.5348 7:11.6601 
0.01665774500788819 1:0.0930882 2:0.110027 3:0.0387783 4:26.3738 5:27.1088 6:29.7027 7:4882.96 
0.01112597072942934 1:3.54747 2:3.65536 3:3.98326 4:24.1682 5:24.7791 6:26.9544 7:73.2428 8:1 
0.01142000320136322 1:0.55076 2:0.55413 3:0.510287 4:25.3951 5:26.1148 6:28.1295 7:73.1624 8:1 
0.01667674221508825 1:124.311 2:128.285 3:150.389 4:197.797 5:204.254 6:238.123 7:144668 
0.002641932207312759 1:1.44326 2:1.42501 3:1.60363 4:22.8252 5:23.3703 6:25.4518 7:55.5927 8:1 
0.01223377854170532 1:0.403459 2:0.429789 3:0.458614 4:29.682 5:30.471 6:33.2755 7:25.0209 
0.007939867481009454 1:0.132746 2:0.111685 3:0.0466042 4:24.9226 5:25.6072 6:27.9835 7:15.5042 
0.01326794640679441 1:3.74685 2:3.95324 3:4.40093 4:24.7393 5:25.4278 6:27.4991 7:93.7855 8:1 
0.003312908174725238 1:1.89966 2:1.98287 3:2.26842 4:22.1247 5:22.6404 6:24.5957 7:106.956 8:1 
0.01304035882107705 1:4.65512 2:4.80517 3:5.33225 4:24.1391 5:24.745 6:26.9425 7:76.3857 8:1 
0.007517287357585957 1:1.56236 2:1.6003 3:2.01024 4:22.6892 5:23.3041 6:25.141 7:105.435 8:1 
0.007000220070196974 1:0.155088 2:0.196152 3:0.226569 4:24.1728 5:24.9189 6:27.0885 7:7.39517 
0.006843923329635123 1:0.0989084 2:0.0767317 3:0.198907 4:21.6713 5:22.2015 6:24.3074 7:61.7951 8:1 
0.007267435968590539 1:0.930099 2:0.976531 3:1.16096 4:22.7136 5:23.3177 6:25.4643 7:3.75801 
0.01020615942493819 1:0.0938663 2:0.0990772 3:0.0219336 4:20.3438 5:20.8715 6:22.7682 7:82.7502 8:1 
0.01105134869614305 1:1.55142 2:1.59674 3:1.75642 4:19.2453 5:19.7593 6:21.3439 7:113.926 8:1 
0.009494439733702783 1:0.188105 2:0.193661 3:0.218949 4:27.8427 5:28.6172 6:31.1723 7:23.1027 
0.009961782537827424 1:0.16543 2:0.20614 3:0.278376 4:22.1242 5:22.664 6:24.7446 7:100.311 8:1 
0.0003534963146460731 1:0.937849 2:0.992529 3:1.01314 4:21.3347 5:21.912 6:23.8769 7:8.53822 
0.0114949371359895 1:0.80594 2:0.834296 3:0.865372 4:18.507 5:18.9242 6:20.632 7:78.3519 8:1 
0.01470619252204725 1:5.54666 2:5.70899 3:6.4301 4:19.1857 5:19.6829 6:21.402 7:125.129 8:1 
0.001319841358941802 1:1.66948 2:1.73069 3:2.01774 4:19.6093 5:20.1202 6:22.0082 7:13.3869 
0.006122671375479712 1:1.15758 2:1.1348 3:1.2509 4:21.5884 5:22.1408 6:24.1758 7:74.9911 8:1 
0.001277651362748933 1:3.66848 2:3.77332 3:4.15899 4:26.6583 5:27.426 6:30.0439 7:79.7985 8:1 
0.004695058545640783 1:2.37077 2:2.42638 3:2.53223 4:25.208 5:25.8881 6:28.3945 7:99.289 8:1 
0.01562798282859346 1:2.72254 2:2.8354 3:3.21401 4:23.6893 5:24.3155 6:26.2799 7:147.467 8:1 
0.01596590729989561 1:2.47891 2:2.58525 3:2.861 4:31.9667 5:33.0315 6:36.0311 7:150.134 8:1 
0.01287006551394798 1:1.19378 2:1.20981 3:1.30124 4:25.8792 5:26.6113 6:29.0916 7:97.7013 8:1 
0.01015525313962334 1:1.81667 2:1.86347 3:2.03178 4:27.0017 5:27.7264 6:30.2664 7:82.0299 8:1 
0.01237425513212725 1:3.47749 2:3.54591 3:3.99787 4:26.539 5:27.2266 6:29.4674 7:117.017 8:1 
0.0160831341403711 1:0.678205 2:0.72213 3:0.870777 4:33.0251 5:34.0992 6:37.3261 7:94.6522 
0.01154328062212306 1:1.80759 2:1.92234 3:2.04653 4:34.9346 5:36.1061 6:39.3223 7:29.423 8:1 
0.0108554117856009 1:2.85199 2:2.9786 3:3.20529 4:32.153 5:33.0159 6:36.0366 7:31.7505 8:1 
0.003514878894009236 1:0.0344439 2:0.0556107 3:0.229765 4:30.6383 5:31.442 6:34.3901 7:4.73371 8:1 
0.008561026701619139 1:0.72616 2:0.711461 3:0.802713 4:32.3701 5:33.2122 6:36.2661 7:22.3569 8:1 
0.01591150441546801 1:0.670749 2:0.639003 3:0.732788 4:29.3333 5:30.1965 6:33.0358 7:98.1979 8:1 
0.01627731666389998 1:1.41806 2:1.45712 3:1.48415 4:37.5848 5:38.817 6:42.4544 7:33.1393 
0.007344566430034605 1:0.182003 2:0.176809 3:0.187386 4:28.9769 5:29.6977 6:32.5124 7:8.91442 8:1 
0.01539298514988308 1:2.86606 2:2.91994 3:3.28579 4:29.0543 5:29.9116 6:32.5372 7:73.6761 
0.009943237582774433 1:0.140093 2:0.16568 3:0.328955 4:36.7139 5:37.857 6:41.3443 7:9.98128 8:1 
0.01156913351112715 1:1.25097 2:1.31791 3:1.39422 4:31.7336 5:32.6266 6:35.6441 7:67.6149 8:1 
0.002633474638788743 1:0.878286 2:0.916555 3:0.854113 4:33.3274 5:34.2484 6:37.5319 7:10.5943 8:1 
0.005665476300872105 1:0.201496 2:0.146816 3:0.174364 4:35.0201 5:36.0827 6:39.3405 7:10.5928 8:1 
0.0141151117486129 1:0.106215 2:0.145947 3:0.133219 4:37.4688 5:38.641 6:42.2296 7:13.2162 
0.006095732106155138 1:0.0230579 2:0.0312881 3:0.143442 4:32.6338 5:33.5807 6:36.6152 7:8.30177 8:1 
0.009369635719971736 1:0.120562 2:0.118759 3:0.191463 4:33.427 5:34.3389 6:37.7251 7:4.78993 8:1 
0.01188968229309218 1:1.65742 2:1.75806 3:1.77798 4:35.1898 5:36.3629 6:39.6617 7:9.46208 
0.002718871570213839 1:0.0593452 2:0.0881138 3:0.0538578 4:31.3492 5:32.2554 6:35.1864 7:7.23778 8:1 
0.008206510742532345 1:0.379832 2:0.403553 3:0.230885 4:26.3503 5:27.1345 6:29.4613 7:33.6061 
0.002813816247195183 1:1.92221 2:1.99085 3:2.20144 4:24.261 5:24.9915 6:27.3018 7:12.2055 
0.007122723438735373 1:0.677489 2:0.716312 3:0.702573 4:25.9988 5:26.8293 6:29.1685 7:34.821 
0.007412905988457397 1:1.5318 2:1.61827 3:1.83123 4:25.3358 5:26.1529 6:28.3393 7:40.9202 
0.01569835654114446 1:0.173621 2:0.174167 3:0.17808 4:24.779 5:25.5397 6:27.948 7:132.126 8:1 
0.01136472942393529 1:0.330353 2:0.359223 3:0.556936 4:30.5428 5:31.4148 6:34.3582 7:1.18543 8:1 
0.005523563992003603 1:1.18657 2:1.21194 3:1.45333 4:26.1609 5:27.0173 6:29.312 7:20.113 
0.005258998811152979 1:1.39078 2:1.46829 3:1.49156 4:25.0168 5:25.7843 6:27.9652 7:5.48726 
0.003305359891425885 1:0.33344 2:0.340903 3:0.363905 4:22.0253 5:22.6658 6:24.7926 7:6.68108 8:1 
0.003236768420949211 1:1.97928 2:2.05405 3:2.2039 4:27.4368 5:28.3197 6:30.7541 7:25.8637 
0.003937546076341961 1:0.0799971 2:0.111534 3:0.135079 4:20.7592 5:21.375 6:23.2565 7:4.4942 8:1 
0.01668368748729898 1:14.1741 2:14.8874 3:17.3363 4:32.5067 5:33.161 6:37.6437 7:638.463 
0.003353005489041276 1:0.639087 2:0.679922 3:0.783718 4:26.7478 5:27.5983 6:29.8794 7:8.45507 
0.001121278699465816 1:0.387942 2:0.393589 3:0.401274 4:20.0981 5:20.6943 6:22.4285 7:12.2176 8:1 
0.006329797184950033 1:0.0628071 2:0.0253439 3:0.150161 4:19.8854 5:20.4455 6:22.2301 7:15.3359 8:1 
0.007496818417608241 1:0.122206 2:0.0769157 3:0.285416 4:21.1889 5:21.8408 6:23.6002 7:9.38919 
0.006812812330929641 1:0.235339 2:0.283751 3:0.281075 4:19.3763 5:19.9525 6:21.722 7:7.83003 8:1 
0.000916553689637526 1:1.65197 2:1.72327 3:1.75296 4:18.9267 5:19.4637 6:21.2298 7:6.60888 8:1 
0.01081507719243207 1:2.2427 2:2.2981 3:2.29664 4:20.0468 5:20.6359 6:22.3733 7:6.20182 
0.002794977563945278 1:0.479254 2:0.484344 3:0.519543 4:27.7352 5:28.6327 6:31.0353 7:4.72382 
0.01669855653069235 1:0.581882 2:0.635332 3:0.733849 4:21.7093 5:22.3987 6:24.1832 7:3229.16 
0.01280523977013143 1:1.93184 2:2.0047 3:2.01193 4:19.0868 5:19.6492 6:21.0188 7:67.2191 
0.001990540805061725 1:1.66171 2:1.72003 3:1.75294 4:19.3751 5:19.9478 6:21.948 7:4.56584 
0.00319826315095136 1:0.112321 2:0.0963497 3:0.197765 4:18.3399 5:18.8871 6:20.7322 7:3.95689 
0.009352640653173538 1:0.0956469 2:0.131426 3:0.143574 4:16.7233 5:17.1849 6:18.8961 7:21.7096 8:1 
0.005769972021409457 1:2.01449 2:2.0405 3:2.02877 4:8.14564 5:8.31177 6:8.41573 7:20.1155 
0.006230106132451781 1:0.179104 2:0.170507 3:0.16732 4:20.0264 5:20.5768 6:22.546 7:23.8656 
0.01056111461065606 1:0.663834 2:0.630842 3:0.688671 4:11.9838 5:12.3404 6:13.0287 7:40.8262 
0.008051539990698501 1:0.341826 2:0.372569 3:0.376708 4:19.1379 5:19.6856 6:21.618 7:2.01504 
0.004932786667689754 1:1.04869 2:1.10261 3:1.1286 4:22.6719 5:23.3616 6:25.3969 7:14.4517 
0.01671306353142388 1:59.3901 2:61.589 3:72.1329 4:55.7684 5:57.6296 6:64.9589 7:12719.4 
0.008771395728929621 1:0.934731 2:0.983351 3:0.93409 4:31.3529 5:32.1586 6:34.7997 7:60.3485 8:1 
0.01217145398482222 1:0.139452 2:0.137512 3:0.0551968 4:31.7697 5:32.5717 6:35.2087 7:37.2385 8:1 
0.004422236592221951 1:1.17892 2:1.27424 3:1.36745 4:32.9744 5:33.8099 6:36.5675 7:15.0385 8:1 
0.003571716921204948 1:0.450519 2:0.450434 3:0.366407 4:28.7688 5:29.5542 6:32.1096 7:2.80648 8:1 
0.005350057332559718 1:0.130251 2:0.145283 3:0.282438 4:32.1745 5:32.9759 6:35.6708 7:12.1643 8:1 
0.008036847801609591 1:1.46978 2:1.52967 3:1.821 4:30.3943 5:31.1365 6:34.0443 7:7.12376 8:1 
0.003700804260612367 1:0.332978 2:0.300181 3:0.300423 4:30.9927 5:31.7845 6:34.432 7:11.0191 8:1 
0.002503062785806675 1:0.352648 2:0.374882 3:0.584057 4:27.4522 5:28.1811 6:30.5067 7:5.92057 8:1 
0.001705013116472365 1:0.692419 2:0.719524 3:0.88217 4:27.5313 5:28.1944 6:30.6353 7:16.2949 8:1 
1 
0.004576233625453379 1:0.0523539 2:0.0348434 3:0.0284939 4:26.2776 5:26.9689 6:29.1681 7:4.06072 8:1 
0.0008829410974451335 1:1.39663 2:1.40651 3:1.5207 4:22.463 5:23.0711 6:25.4069 7:7.44974 8:1 
0.005434087496230908 1:0.401074 2:0.435269 3:0.361278 4:26.5274 5:27.2432 6:29.472 7:2.2744 8:1 
0.002966905755592808 1:0.451717 2:0.519524 3:0.392578 4:25.7387 5:26.3551 6:28.7103 7:7.01154 8:1 
0.01671119785178837 1:13.8717 2:14.6184 3:19.2947 4:211.021 5:217.735 6:248.848 7:122624 
0.002019351427372792 1:0.850757 2:0.863524 3:0.968195 4:28.5785 5:29.3112 6:32.0173 7:4.20276 8:1 
0.001502904118827521 1:1.45692 2:1.4941 3:1.71405 4:25.4445 5:26.0414 6:28.114 7:16.5295 8:1 
0.003612940757407764 1:0.0795097 2:0.148436 3:0.121783 4:22.3713 5:22.9565 6:24.8179 7:4.36817 8:1 
0.004910859999648748 1:0.927991 2:1.01356 3:1.15506 4:24.2421 5:24.8731 6:26.8626 7:18.4005 8:1 
0.001458225224383769 1:1.52968 2:1.6442 3:1.8173 4:25.5889 5:26.2088 6:28.4679 7:6.01063 8:1 
0.001298771799125631 1:2.10841 2:2.16489 3:2.26483 4:23.212 5:23.7803 6:25.8846 7:23.5609 8:1 
0.001461743513673786 1:0.630998 2:0.656831 3:0.702308 4:21.7377 5:22.2615 6:24.1429 7:24.8076 8:1 
0.0038721789592987 1:2.25368 2:2.32321 3:2.52599 4:14.5538 5:14.9112 6:16.0058 7:130.704 
0.01623497317061737 1:4.85101 2:5.00893 3:5.41097 4:17.0253 5:17.4393 6:18.8472 7:68.9535 
0.004183392414765571 1:0.806939 2:0.801615 3:0.902131 4:28.3748 5:29.2184 6:31.4378 7:8.48909 
0.01470245450894297 1:3.86774 2:3.99479 3:4.40803 4:9.77864 5:10.004 6:10.817 7:151.964 8:1 
1 
0.01647553975540356 1:3.14165 2:3.21705 3:3.49538 4:8.66294 5:8.82834 6:9.37824 7:140.557 8:1 
0.008191474103986065 1:0.0131111 2:0.00769997 3:0.11076 4:27.3268 5:28.1029 6:30.1236 7:11.9251 
0.01595725676059423 7:90.72 
0.01635917062887449 1:3.89028 2:4.03637 3:4.38023 4:16.4469 5:16.9652 6:18.436 7:254.456 
0.01016281606017888 1:0.178267 2:0.114872 3:0.0482178 4:23.6696 5:24.3427 6:26.0706 7:29.5144 
0.01618612881757869 1:154.65 2:159.714 3:183.612 4:264.575 5:273.381 6:314.646 7:163412 
0.002849408844081943 1:1.35554 2:1.3868 3:1.5612 4:22.7653 5:23.4455 6:25.221 7:32.0143 
0.01618215788187946 1:2.07532 2:2.14819 3:2.38761 4:14.6867 5:15.1582 6:16.4983 7:68.1331 
0.00404142541951436 1:0.752308 2:0.816044 3:0.829231 4:29.4382 5:30.349 6:32.9455 7:4.65222 
0.00503626236097374 1:0.596638 2:0.650834 3:0.768738 4:19.9322 5:20.5332 6:22.1497 7:59.9637 8:1 
0.01488804595164855 1:3.20382 2:3.26792 3:3.41907 4:6.68474 5:6.87244 6:7.54288 7:56.2831 8:1 
0.002185600400885826 1:0.954729 2:1.00539 3:1.01814 4:30.3007 5:31.2543 6:33.8656 7:3.28903 
0.001387738683479012 1:0.0770521 2:0.151754 3:0.0510941 4:30.1128 5:31.041 6:33.7255 7:4.04738 
0.00237208311542989 1:0.943897 2:0.990644 3:1.02575 4:21.9938 5:22.652 6:24.6449 7:21.1885 
0.00314539962802785 1:0.252309 2:0.286195 3:0.418436 4:22.3372 5:22.9632 6:24.9503 7:21.2831 
0.002235050753276526 1:0.475117 2:0.509318 3:0.531528 4:21.6635 5:22.2922 6:24.0469 7:15.6354 
0.006184470344389067 1:0.127244 2:0.12544 3:0.0537014 4:23.2271 5:23.9312 6:26.1886 7:10.6574 8:1 
0.01145096671388484 1:0.138165 2:0.122061 3:0.0135403 4:23.6918 5:24.3742 6:26.1339 7:39.9056 
0.001006392225646413 1:0.513829 2:0.537692 3:0.635145 4:26.3501 5:27.1457 6:29.581 7:9.82061 8:1 
0.0166902999657022 1:2.94541 2:2.99676 3:3.22824 4:10.6657 5:10.9598 6:11.5711 7:123.218 
0.004692239978556726 1:0.130706 2:0.136709 3:0.276488 4:24.8306 5:25.4877 6:27.7416 7:11.4842 
0.01107272705086071 1:2.03768 2:2.11442 3:2.35256 4:12.6346 5:13.0082 6:13.8189 7:129.515 
0.006668881653534946 1:0.532585 2:0.567832 3:0.676761 4:20.2604 5:20.8096 6:22.5716 7:51.5612 
0.001389648099238694 1:0.358923 2:0.345901 3:0.431498 4:21.5875 5:22.2233 6:23.7459 7:6.38691 
0.01616472383399781 1:0.659208 2:0.761728 3:1.93647 4:36.6349 5:37.7342 6:41.9817 7:2698.16 
0.003597369881549684 1:0.458722 2:0.439976 3:0.427919 4:16.2173 5:16.6877 6:18.0252 7:35.3579 
0.005563739996056235 1:0.257252 2:0.259368 3:0.271599 4:13.4722 5:13.9034 6:15.1201 7:12.8351 8:1 
0.01462409907283657 1:1.67738 2:1.80736 3:1.91128 4:22.0588 5:22.6932 6:24.3373 7:203.448 
0.01569857663931962 1:1.13436 2:1.09249 3:1.3113 4:7.80211 5:7.87168 6:8.77135 7:67.1564 
0.001034071414265314 1:0.943115 2:0.989766 3:0.96331 4:19.7513 5:20.3383 6:22.2376 7:2.68052 8:1 
0.009764391197932376 1:3.02279 2:3.05989 3:3.26662 4:17.3347 5:17.8472 6:19.3036 7:111.449 
0.004961468713726015 1:0.698395 2:0.711626 3:0.74855 4:12.3721 5:12.7637 6:13.9765 7:1.52429 8:1 
0.001449124285673988 1:0.233961 2:0.250528 3:0.282279 4:21.6059 5:22.2631 6:24.2702 7:3.45164 
0.006076682491759133 1:0.278249 2:0.304801 3:0.352966 4:20.5271 5:21.0826 6:23.0393 7:2.5535 
0.00625061418708846 1:2.02672 2:2.08776 3:2.27817 4:11.9172 5:12.2836 6:13.3981 7:18.9426 
0.0159371239834481 1:0.710019 2:0.724241 3:0.681464 4:10.3858 5:10.6385 6:11.036 7:185.411 
0.01606066322863592 1:185.455 2:191.407 3:225.051 4:189.453 5:195.361 6:228.107 7:90675.6 
0.01597292713843718 1:0.88415 2:0.94135 3:0.994116 4:4.22658 5:4.34302 6:4.79163 7:13724 
0.01603631986216847 1:0.315147 2:0.324914 3:0.335026 4:11.8844 5:12.2392 6:13.3107 7:17083.3 8:1 
0.01595336423694976 1:8.86439 2:9.13662 3:9.50475 4:17.3104 5:17.6567 6:18.7117 7:236.813 
0.0161254955279771 1:22.2489 2:23.0743 3:28.1278 4:39.0916 5:40.4761 6:47.7447 7:8049.06 
0.01121223795406987 1:0.281038 2:0.337656 3:0.388685 4:27.6421 5:28.4207 6:30.668 7:0.651569 8:1 
0.005381403525196288 1:1.40709 2:1.4351 3:1.63501 4:26.9368 5:27.6507 6:29.7356 7:5.21614 8:1 
0.01516302685954983 1:1.46402 2:1.52508 3:1.87261 4:7.27663 5:7.51814 6:8.21935 7:80.3095 
0.005027699346803693 1:0.322307 2:0.344888 3:0.341792 4:17.9276 5:18.4203 6:20.4207 7:23.3374 8:1 
0.003382836305831169 1:0.0037632 2:0.000230789 3:0.0224476 4:24.7433 5:25.3715 6:27.0962 7:11.6811 8:1 
0.01024812415568278 1:0.0105867 2:0.0001688 3:0.0377121 4:19.4869 5:20.0115 6:22.159 7:30.8831 8:1 
0.0005634585177828888 1:0.707603 2:0.678299 3:0.717536 4:16.5192 5:16.8369 6:18.3515 7:17.6733 
0.005251663274904022 1:0.16259 2:0.137783 3:0.131199 4:22.8717 5:23.4802 6:25.0342 7:19.3443 8:1 
0.009381114623436423 1:0.00532818 2:0.0608273 3:0.0109472 4:19.1711 5:19.6833 6:21.6322 7:37.0443 8:1 
0.003025740093618759 1:0.213778 2:0.172941 3:0.327614 4:20.1321 5:20.6088 6:22.6722 7:24.8489 8:1 
0.003192027389270375 1:1.317 2:1.29917 3:1.50947 4:22.6565 5:23.2055 6:24.823 7:10.2441 8:1 
0.01210203832133579 1:1.17585 2:1.18054 3:1.06752 4:10.3655 5:10.5292 6:10.9885 7:48.0521 
0.01251189184029294 1:3.43822 2:3.58067 3:3.98995 4:14.9822 5:15.2612 6:16.2076 7:77.2748 
0.01606878971761178 1:0.794393 2:0.784653 3:0.648053 4:25.6647 5:26.2813 6:28.2371 7:158.847 8:1 
0.01619784114294659 1:1.07211 2:1.18448 3:1.74425 4:8.97566 5:9.20798 6:10.0703 7:216.221 
0.01606521969081776 1:1.64387 2:1.68698 3:1.99366 4:6.33749 5:6.47639 6:6.7377 7:93.3728 8:1 
0.001261191412092549 1:1.34941 2:1.38567 3:1.45806 4:3.77685 5:3.86373 6:4.21131 7:5.17676 
0.01394333069506076 1:3.11539 2:3.21166 3:3.53887 4:3.93144 5:4.00605 6:4.35115 7:63.5482 8:1 
0.01630410516138803 1:1.75984 2:1.69081 3:2.36619 4:196.33 5:203.142 6:237.857 7:55931.1 
0.01623539188668688 1:164.811 2:170.605 3:199.731 4:92.7676 5:95.8983 6:111.436 7:51022.3 
0.01042578693018276 1:0.120832 2:0.133763 3:0.14716 4:16.7964 5:17.1615 6:18.1863 7:48.3781 
0.01628039384772989 1:2.32233 2:2.40516 3:2.47285 4:8.2324 5:8.41399 6:9.0015 7:61578.4 
0.01629157138655962 1:112.579 2:116.764 3:135.238 4:336.583 5:348.631 6:406.689 7:88306.2 
0.002664167987080586 1:0.0787926 2:0.0804524 3:0.0181322 4:10.1763 5:10.4146 6:10.9233 7:6.25996 8:1 
0.01642334026585117 1:5.04858 2:5.17489 3:6.19541 4:7.2475 5:7.39496 6:7.88095 7:87.832 
0.01295132715560653 1:0.651023 2:0.646972 3:0.72043 4:8.77507 5:8.96621 6:9.31705 7:37.1799 
0.01620401037999225 1:7.48218 2:7.64691 3:8.04726 4:19.0841 5:19.5465 6:20.6587 7:389.484 
0.01624763710123278 1:0.46928 2:0.491141 3:0.433718 4:11.6168 5:11.8629 6:12.571 7:307.061 
0.01629376767967505 1:210.763 2:218.312 3:259.122 4:264.491 5:273.277 6:320.278 7:112621 
0.0006877799127834039 1:1.29097 2:1.30346 3:1.40631 4:2.37901 5:2.39776 6:2.56048 7:7.1998 
0.01621323266246882 1:36.7861 2:38.0344 3:43.5286 4:117.334 5:121.054 6:140.022 7:75867.6 
0.001046288731953664 1:3.14219 2:3.18924 3:3.41708 4:2.31944 5:2.36904 6:2.54299 7:21.3427 
0.0009651549806044747 1:0.569364 2:0.588264 3:0.544628 4:13.0336 5:13.3961 6:14.3189 7:28.3387 
0.002898623509012378 1:0.259669 2:0.260466 3:0.28481 4:2.39581 5:2.44667 6:2.45731 7:18.4375 
0.01629894734235299 1:223.847 2:231.028 3:271.395 4:200.231 5:206.456 6:240.016 7:165643 
1 
0.01631772256584524 1:7.52697 2:7.65116 3:8.87164 4:47.1472 5:48.6663 6:55.7071 7:3743.24 
0.0163239241632599 1:104.408 2:107.895 3:126.516 4:278.529 5:287.757 6:338.771 7:183765 
0.006181212646763135 1:0.516398 2:0.545205 3:0.497108 4:13.871 5:14.2339 6:15.2933 7:22.4847 
0.01578245603183359 1:2.77451 2:2.82476 3:2.78195 4:4.50995 5:4.58757 6:4.51612 7:40.7246 
0.004612483367119835 1:1.87275 2:1.91835 3:1.65907 4:20.905 5:21.4602 6:22.8525 7:78.08 
0.01631720920002072 1:18.2859 2:18.8281 3:20.492 4:32.9041 5:33.7945 6:37.268 7:3087.94 
0.003046632613550593 1:1.72273e-33 2:1.78184e-33 3:1.90929e-33 4:8.61366e-34 5:8.90919e-34 6:9.54644e-34 7:12.0567 
0.01571218242100941 1:6.51167 2:6.66694 3:7.28458 4:19.9236 5:20.4629 6:21.9004 7:90.1057 
0.008833932817980143 1:0.02244 2:0.0773773 3:0.0532951 4:15.9781 5:16.2872 6:17.7646 7:15.8403 
0.002500910691063285 1:1.1774 2:1.21116 3:1.36577 4:9.79624 5:10.0829 6:11.0164 7:25.5297 
0.006441006780809091 1:0.392725 2:0.367064 3:0.385339 4:15.1174 5:15.4697 6:16.9243 7:24.0563 8:1 
0.0100404393411658 1:2.95955 2:3.04726 3:3.2949 4:9.41541 5:9.57302 6:10.5442 7:17.8708 8:1 
0.009301187023402688 7:18.2314 
0.01455379886382246 1:1.90592 2:1.94892 3:2.11305 4:6.81935 5:7.00002 6:7.56961 7:61.2723 
0.01167763964639166 1:2.14753 2:2.18639 3:2.37703 4:11.3763 5:11.6989 6:12.5211 7:53.0359 
0.01635943185270122 1:25.7166 2:26.6801 3:30.8791 4:21.0512 5:21.702 6:24.241 7:2474.12 
0.01537446138894399 1:0.775694 2:0.851073 3:1.05062 4:15.6109 5:15.9936 6:17.6664 7:79.2827 8:1 
0.006913757541847179 1:0.0316234 2:0.0357132 3:0.0783091 4:12.5954 5:12.9233 6:13.6355 7:29.5494 8:1 
0.005392410405503305 1:0.74146 2:0.781917 3:0.854879 4:16.2108 5:16.6611 6:17.7215 7:1.163 8:1 
0.002864509499002147 1:0.131926 2:0.121366 3:0.131026 4:16.3597 5:16.8204 6:17.9126 7:1.54155 8:1 
0.01629816064061068 1:0.0197077 2:0.0175582 3:0.0214038 4:0.775076 5:0.733396 6:0.759813 7:1056.78 8:1 
0.002401319959640042 1:0.0979614 2:0.0963125 3:0.133423 4:16.6289 5:17.1152 6:18.2038 7:2.11254 8:1 
0.01470074481078554 1:2.69092 2:2.76899 3:2.89655 4:10.8765 5:11.1633 6:12.0209 7:85.8023 
0.0163474961761072 1:42.8726 2:44.4928 3:52.4757 4:240.202 5:248.144 6:286.557 7:114396 
0.002596679385167444 1:1.5236 2:1.56336 3:1.6737 4:10.4871 5:10.7685 6:11.7267 7:28.221 
0.0163170309057819 1:0.0875325 2:0.0865321 3:0.118857 4:12.2975 5:12.6223 6:13.7616 7:174.897 8:1 
0.01627184904789214 1:28.8243 2:29.8339 3:33.5196 4:24.8281 5:25.6316 6:28.7132 7:17661 
1 
0.01636001104285301 1:51.2151 2:52.416 3:61.5746 4:426.243 5:440.892 6:516.222 7:105830 
1 1:6.33518e-39 2:6.56004e-39 3:7.26713e-39 4:3.16759e-39 5:3.28002e-39 6:3.63357e-39 
0.01636186732788852 1:0.186913 2:0.18042 3:0.189315 4:1.13388 5:1.1127 6:1.18288 7:16517.9 
0.01636037111326233 1:0.846195 2:0.775361 3:0.588545 4:25.2956 5:26.0555 6:28.5063 7:111324 
0.0163181332360266 1:85.4938 2:88.774 3:105.901 4:287.701 5:297.173 6:349.978 7:214824 
0.01627055311609804 1:49.2897 2:50.8526 3:62.4534 4:389.735 5:402.824 6:469.133 7:128464 
0.01613284237199769 1:104.391 2:106.824 3:128.271 4:591.898 5:611.587 6:712.582 7:90327.7 
1 1:7.60065e-06 2:7.86119e-06 3:7.85294e-06 4:3.80032e-06 5:3.9306e-06 6:3.92647e-06 7:2.31744e-10 
0.01624577264863347 1:28.5591 2:29.569 3:31.0402 4:176.53 5:181.975 6:205.99 7:66375.3 
0.01622628200803106 1:20.5009 2:21.0582 3:24.9763 4:587.295 5:606.952 6:708.919 7:128089 
0.005184988858182213 1:0.187383 2:0.195117 3:0.205577 4:3.91098 5:4.00448 6:4.36944 7:24.6086 
0.01635681676136302 1:5.28462 2:5.43363 3:5.63824 4:3.00513 5:3.08974 6:3.16523 7:77.8436 
0.01631856793322345 1:18.0532 2:18.8157 3:21.3864 4:31.8157 5:32.5665 6:34.6643 7:673.146 
0.003857703695166014 1:0.230718 2:0.2095 3:0.336163 4:2.65979 5:2.70298 6:2.94479 7:11.8058 
0.0111881617906468 1:0.304409 2:0.297277 3:0.384663 4:3.31092 5:3.34568 6:3.7188 7:107.212 
0.01490875267916247 1:3.26184 2:3.43817 3:4.06875 4:16.4174 5:16.8011 6:18.1829 7:165.902 
1 7:0.17097 
0.005318900191139663 1:1.64665 2:1.72196 3:1.82221 4:13.962 5:14.2895 6:15.4723 7:4.33999 8:1 
0.01635810788301378 1:14.9576 2:15.4316 3:17.9711 4:7.4788 5:7.71579 6:8.98556 7:1010.87 
0.00117808035403382 1:0.10809 2:0.126375 3:0.127341 4:15.2701 5:15.6401 6:16.9356 7:4.9784 8:1 
0.00208933678857407 1:0.219498 2:0.212357 3:0.0190011 4:3.36379 5:3.43825 6:3.53018 7:18.2616 
0.01021307545840014 1:2.50618 2:2.59374 3:2.77261 4:15.3459 5:15.6884 6:16.9283 7:6.72739 8:1 
0.01634239015469335 1:8.16453 2:8.45054 3:9.75926 4:14.8953 5:15.259 6:16.5912 7:386.719 
0.001249556898381946 1:1.56158 2:1.62073 3:1.64088 4:6.5718 5:6.63877 6:7.39527 7:2.80084 8:1 
0.01636781495754019 1:37.5827 2:38.841 3:46.3242 4:31.8409 5:32.7577 6:36.7632 7:7061.09 
0.01636999497149078 1:6.26616 2:6.43885 3:7.28175 4:157.545 5:162.908 6:188.752 7:73914.1 
0.003744739796263059 1:1.49882 2:1.53526 3:1.67034 4:15.6421 5:16.0021 6:17.2997 7:3.84088 8:1 
0.01636998202019524 1:11.5363 2:11.8506 3:12.5409 4:21.981 5:22.6395 6:25.3625 7:663.926 
0.01628040857650609 1:0.172895 2:0.191618 3:0.220059 4:8.30763 5:8.41879 6:9.24878 7:1621.37 
0.01637440645815791 1:0.164148 2:0.208775 3:0.318789 4:5.96402 5:6.06523 6:6.33756 7:166.951 
0.01624837824508002 1:0.000856876 2:0.0105987 3:0.0264096 4:9.70529 5:9.86623 6:10.6795 7:134.062 
0.01638750582215465 1:26.3951 2:27.2565 3:30.6166 4:86.9965 5:89.7597 6:99.0724 7:43575.7 
0.005354391521467902 1:0.0233455 2:0.0252981 3:0.0146055 4:13.1769 5:13.4939 6:14.4117 7:2.36199 8:1 
1 7:1.68859 
0.01187249597974271 1:0.403865 2:0.426527 3:0.448586 4:12.5085 5:12.8032 6:13.6313 7:32.7139 8:1 
0.01639104949975062 1:1.02575 2:1.0706 3:1.43957 4:1.99227 5:2.0172 6:2.28902 7:5978.99 
0.01623920923935823 1:72.6427 2:75.3887 3:88.5484 4:43.2742 5:44.8146 6:51.9512 7:4477.83 
1 1:0.183614 2:0.186866 3:0.185224 4:0.0918071 5:0.0934328 6:0.0926118 7:0.130945 
0.01638960852413868 1:135.065 2:139.373 3:161.719 4:353.732 5:364.656 6:426.761 7:200668 
0.01639024431333641 1:8.15197 2:8.22684 3:12.3148 4:159.124 5:164.644 6:194.805 7:35006.1 
0.01637304152382518 1:12.9011 2:13.2414 3:14.0041 4:11.2667 5:11.5513 6:11.9625 7:366.638 
0.01636912666344581 1:19.0285 2:19.5936 3:23.439 4:357.006 5:368.748 6:435.362 7:92621.7 
0.01616808281163146 1:89.5084 2:92.4148 3:109.256 4:301.411 5:310.752 6:363.264 7:107277 
0.01297966847815873 1:6.22809 2:6.3606 3:6.76849 4:4.85477 5:4.9282 6:5.18781 7:70.5909 
0.009627301242615257 1:3.03727 2:3.16669 3:3.1918 4:6.08122 5:6.15897 6:6.55848 7:30.0328 
0.01645409666121989 1:87.7108 2:90.4048 3:107.083 4:228.409 5:235.941 6:278.906 7:65002.7 
0.01644611964787768 1:50.9946 2:52.209 3:63.3026 4:396.898 5:410.291 6:477.033 7:82023.7 
0.01601308341806708 1:3.91468 2:4.09384 3:4.68598 4:8.07309 5:8.23051 6:8.82342 7:77.8248 
0.01655656720804982 1:4.88583 2:5.04452 3:5.25507 4:6.42387 5:6.60133 6:6.76269 7:44473.7 
0.0165652414696989 1:87.6597 2:90.6652 3:104.038 4:236.848 5:244.893 6:281.056 7:62308.7 
0.01606494618170506 1:5.77246 2:5.93622 3:7.03699 4:10.3192 5:10.5925 6:11.4288 7:179.636 
0.01310406828981542 1:2.85556 2:2.97329 3:2.76542 4:3.57822 5:3.65213 6:3.58025 7:60.3281 
0.01731379559139695 1:1.49643 2:1.57836 3:1.51213 4:3.96065 5:4.05015 6:4.08694 7:71.2846 
0.002795430391331868 1:0.321156 2:0.350483 3:0.16618 4:4.56604 5:4.63765 6:4.6572 7:13.7134 
0.007401475365000986 1:0.514201 2:0.546755 3:0.62435 4:5.97266 5:6.16622 6:5.9934 7:18.0917 
0.01657341624802927 1:21.0886 2:21.8378 3:24.775 4:127.359 5:131.552 6:149.938 7:41605.5 
0.002445182081159135 1:1.42558 2:1.47536 3:1.52641 4:5.33631 5:5.52013 6:5.1686 7:12.3107 
0.00164449829314639 1:0.154552 2:0.1618 3:0.110537 4:1.32023 5:1.36153 6:1.3424 7:13.0286 
0.01599340015157974 1:0.303395 2:0.426063 3:2.03817 4:19.3417 5:19.7903 6:20.1827 7:472.604 
1 
0.006504798340310056 7:19.9047 
0.01375816950777431 1:1.83316 2:1.85478 3:1.86372 4:12.7977 5:13.1221 6:14.456 7:155.77 
1 
0.004730790160854802 1:1.49669 2:1.52227 3:1.6737 4:10.6487 5:10.8997 6:11.985 7:5.04754 
0.01657877686935011 1:73.2663 2:75.7213 3:89.8942 4:155.886 5:161.167 6:189.628 7:69099.3 
0.01657980309413903 1:11.2903 2:11.6511 3:14.0503 4:381.497 5:394.341 6:463.61 7:237832 
0.003368703274467366 1:0.21505 2:0.256613 3:0.392976 4:11.0529 5:11.2645 6:12.2547 7:14.8574 
0.01623829634995744 1:2.11143 2:2.16369 3:2.58547 4:7.14643 5:7.31007 6:7.76931 7:179.595 
0.004736953555484661 1:0.307767 2:0.32177 3:0.352913 4:3.39738 5:3.4119 6:3.89807 7:7.80501 
0.0166259035152595 1:7.86728 2:8.1251 3:8.66232 4:10.2603 5:10.5116 6:11.0934 7:620.082 
0.004521865808640542 1:1.2887 2:1.35314 3:1.40645 4:11.1444 5:11.3011 6:12.3608 7:1.99228 8:1 
0.01482665972040181 1:5.46789 2:5.69605 3:5.96504 4:10.8977 5:11.1291 6:11.8189 7:149.49 
0.008743080580551161 1:0.285325 2:0.301223 3:0.333756 4:14.7905 5:15.1657 6:16.2522 7:0.888312 8:1 
1 
0.01663323879238254 1:19.112 2:19.7939 3:22.8222 4:37.2826 5:38.5442 6:44.226 7:3901.63 
0.01651012266679369 1:4.22701 2:4.35925 3:4.42763 4:7.14384 5:7.33153 6:7.46427 7:4965.23 
0.9068421884710843 7:5.7334 
0.01669953439124167 1:134.67 2:139.281 3:164.41 4:69.4933 5:71.7506 6:84.5404 7:72549.2 
0.007924525448944286 1:0.423246 2:0.440025 3:0.472129 4:9.75147 5:9.9509 6:11.0134 7:20.9561 8:1 
0.01674322883100776 1:100.782 2:104.303 3:122.253 4:143.245 5:148.136 6:173.78 7:100479 
0.01674439949108708 1:18.1964 2:18.777 3:21.7223 4:58.4337 5:60.3046 6:69.5822 7:17377.5 
0.01623185865899462 1:0.546997 2:0.546014 3:0.598525 4:4.7144 5:4.81614 6:5.05212 7:101.402 
0.002791007409430051 1:2.33954 2:2.38426 3:2.48353 4:4.71595 5:4.81946 6:4.91717 7:19.2471 
0.0003584578780636463 1:1.63099 2:1.66337 3:1.86559 4:2.63018 5:2.68689 6:3.0225 7:11.1676 
0.01675466229076494 1:109.538 2:113.505 3:133.996 4:312.98 5:323.718 6:383.381 7:150055 
0.001058863873629357 1:0.0741673 2:0.0700119 3:0.0931754 4:5.58645 5:5.65767 6:6.39599 7:5.39837 
0.01676750232384944 1:17.2337 2:17.8966 3:20.0586 4:23.7306 5:24.4679 6:26.0534 7:450.863 
0.01564234663288951 1:0.51675 2:0.518552 3:0.561192 4:9.8162 5:10.0227 6:11.1979 7:72.8392 8:1 
0.001842362178330586 1:1.14653 2:1.14828 3:1.26512 4:7.65646 5:7.67259 6:8.74417 7:7.89428 
0.01676921160878037 1:29.0305 2:29.9737 3:35.6258 4:130.749 5:135.151 6:157.465 7:63382.7 
0.001967978706006933 1:0.0979233 2:0.0990887 3:0.0805759 4:12.8993 5:13.0481 6:14.3737 7:9.04393 8:1 
0.01634963587528809 1:73.8882 2:76.4496 3:89.5953 4:41.8673 5:43.2322 6:50.2828 7:19434.5 
0.006829696462200129 1:2.76853 2:2.87071 3:2.94904 4:13.3849 5:13.5553 6:14.8887 7:8.2365 8:1 
0.01537406391402361 1:0.710631 2:0.721175 3:0.816852 4:1.39937 5:1.41229 6:1.59054 7:27.1187 
0.0005806115734272033 1:0.57352 2:0.564729 3:0.698776 4:7.99128 5:8.00763 6:9.0973 7:9.35964 
0.0009601239971485568 1:1.27118 2:1.31871 3:1.31476 4:10.9695 5:11.0288 6:12.1884 7:17.648 8:1 
0.01582523479044357 1:4.81165 2:4.92967 3:5.30628 4:16.819 5:17.2035 6:18.2193 7:129.696 
0.005918481040576756 1:2.20734 2:2.2865 3:2.38819 4:12.9358 5:13.0256 6:14.2712 7:11.1681 8:1 
0.01640561757258457 1:5.38399 2:5.70415 3:6.74419 4:35.1061 5:36.1933 6:41.9564 7:1616.46 
0.01553882602488015 1:1.87373 2:1.91516 3:2.19849 4:5.20632 5:5.3371 6:5.72889 7:51.0975 
1 1:3.93366e-34 2:4.06193e-34 3:4.97419e-34 4:1.96683e-34 5:2.03097e-34 6:2.4871e-34 8:1 
0.01595655946726843 1:0.00201589 2:0.00208461 3:0.00245075 4:0.00100794 5:0.0010423 6:0.00122538 7:1375.52 
0.01597210638548535 1:13.72 2:14.2139 3:16.5285 4:7.23084 5:7.47329 6:8.75508 7:794.793 
0.004632838862768027 1:0.0971715 2:0.105046 3:0.130315 4:5.59391 5:5.59189 6:6.45875 7:14.6817 
0.01598168452136944 1:2.7957 2:2.92046 3:3.74678 4:25.906 5:26.7045 6:30.7323 7:2464.6 
0.0159625383025872 1:131.416 2:136.097 3:159.549 4:112.391 5:116.073 6:135.161 7:43101.4 
0.02894806941638421 1:1.25354 2:1.23609 3:1.55406 4:2.48002 5:2.49137 6:2.81408 7:36.3636 
0.01080293363146826 1:3.33993 2:3.44904 3:3.33487 4:3.94245 5:4.03346 6:4.2952 7:33.774 
0.002662836213652486 1:0.144417 2:0.176461 3:0.171852 4:9.01952 5:9.21261 6:10.4516 7:0.913096 
0.01596337259536368 1:0.282849 2:0.292462 3:0.349282 4:0.303055 5:0.30628 6:0.376673 7:72614.5 
0.00277775859580382 1:0.151519 2:0.152555 3:0.0896239 4:11.7631 5:11.8478 6:13.2119 7:6.18562 8:1 
0.01271622486627422 1:5.70435 2:5.86619 3:6.58992 4:3.31683 5:3.41227 6:3.76412 7:68.8678 
0.002483275776180904 1:1.09759 2:1.14869 3:1.24807 4:12.3695 5:12.4448 6:13.6674 7:39.7905 8:1 
0.006608377527232812 1:2.45299 2:2.52488 3:2.62066 4:1.46644 5:1.50027 6:1.60819 7:25.2715 
0.0159651666650879 1:83.2514 2:85.8165 3:101.067 4:122.094 5:126.125 6:148.598 7:71824 
0.009356329827468673 1:2.93713 2:3.01815 3:3.13489 4:15.156 5:15.2578 6:16.5417 7:13.4084 8:1 
0.005092422699711321 1:0.630828 2:0.646314 3:0.711657 4:14.6623 5:14.7612 6:16.0025 7:20.1905 8:1 
0.004722043365387729 1:2.71632 2:2.80801 3:2.77979 4:9.66755 5:9.73489 6:10.8686 7:8.70188 8:1 
0.001896897503670351 1:0.285629 2:0.282522 3:0.305131 4:15.8991 5:16.0053 6:17.414 7:12.9011 8:1 
0.003683062763278017 1:0.0127239 2:0.00928974 3:0.0558186 4:9.78267 5:9.84056 6:10.9948 7:8.91 8:1 
0.004759760327452511 1:2.28948 2:2.38139 3:2.5641 4:15.5353 5:15.6275 6:17.1158 7:18.8731 8:1 
0.006138469582544492 1:0.0416303 2:0.0750532 3:0.0373402 4:16.5743 5:16.7309 6:18.337 7:11.3353 
0.00158555944702112 1:0.29247 2:0.289517 3:0.355385 4:9.54463 5:9.60839 6:10.8412 7:12.2171 
0.00121544736352075 1:0.475807 2:0.49667 3:0.493457 4:16.2034 5:16.3073 6:17.8675 7:8.64905 
0.003589227178050799 1:0.0207338 2:0.0137386 3:0.0151324 4:5.89061 5:5.9393 6:6.74122 7:6.53071 8:1 
0.01596543365730563 1:137.788 2:142.506 3:164.711 4:169.242 5:175.049 6:203.108 7:52975.5 
0.01593116908843073 1:2.99828 2:3.08591 3:4.14695 4:84.4378 5:87.3561 6:101.667 7:16794.8 
0.005676487160814926 1:1.52239 2:1.59232 3:1.67903 4:9.39152 5:9.51543 6:10.5005 7:2.2901 8:1 
0.008280048263113425 1:1.84056 2:1.91863 3:2.06047 4:4.79352 5:4.91273 6:5.49529 7:3.849 8:1 
0.01593200291966279 1:40.9766 2:42.5112 3:49.3919 4:127.488 5:131.936 6:153.512 7:20035 
0.015964662706768 1:11.8082 2:12.2161 3:14.0447 4:11.9063 5:12.2154 6:13.772 7:714.261 
0.01599312229892197 1:73.0324 2:75.6462 3:87.1817 4:44.6012 5:46.0105 6:52.8024 7:22076.8 
0.003096781058293982 1:0.245255 2:0.228136 3:0.220556 4:16.204 5:16.356 6:18.0651 7:6.21556 8:1 
0.001913236964543263 1:0.520992 2:0.50878 3:0.449748 4:15.1366 5:15.2374 6:16.9689 7:12.337 8:1 
0.005293649206463072 1:1.99755 2:2.0766 3:2.13118 4:12.6283 5:12.6913 6:14.3401 7:5.50166 8:1 
0.006660739974241769 1:0.0687847 2:0.0558679 3:0.00332165 4:7.59546 5:7.76932 6:8.67711 7:8.75257 8:1 
0.001373577623839879 1:3.0765 2:3.17447 3:3.27629 4:13.5775 5:13.6019 6:15.1423 7:15.5518 8:1 
0.009147090179022703 1:3.27091 2:3.35997 3:3.51358 4:13.9983 5:14.1089 6:15.5516 7:17.9718 8:1 
0.004397114086314657 1:0.375373 2:0.378103 3:0.435926 4:16.1406 5:16.2224 6:17.7727 7:18.0784 8:1 
0.003461986580882518 1:0.443974 2:0.452538 3:0.556141 4:11.4871 5:11.5618 6:12.8746 7:16.6707 8:1 
0.01112615118299171 1:3.19111 2:3.25528 3:3.59112 4:13.1853 5:13.3113 6:14.7261 7:24.4088 8:1 
0.009492054680017126 1:2.61418 2:2.67395 3:2.67728 4:17.3872 5:17.5199 6:19.2455 7:20.6811 8:1 
0.001733400278206269 1:0.291662 2:0.313321 3:0.298608 4:19.9024 5:20.0769 6:21.9131 7:11.1008 8:1 
0.002135895783429596 1:0.00324821 2:0.0172787 3:0.0464287 4:9.92641 5:10.0647 6:11.2082 7:0.817549 8:1 
0.006924571305778606 1:3.36981 2:3.45425 3:3.52046 4:12.5148 5:12.6088 6:14.11 7:14.8071 8:1 
0.001522491155422786 1:1.52003 2:1.59743 3:1.66014 4:19.5029 5:19.633 6:21.3245 7:16.2441 8:1 
1 1:0.00634383 2:0.00592368 3:0.00988579 4:0.0499289 5:0.050019 6:0.0561285 7:0.0131547 8:1 
0.01299823770173786 1:3.80846 2:3.97661 3:4.35763 4:18.5922 5:18.7241 6:20.5902 7:24.1928 8:1 
0.003523102804761673 1:0.128899 2:0.139472 3:0.0812492 4:21.1581 5:21.3738 6:23.2948 7:14.4619 8:1 
0.004657757002189118 1:0.434705 2:0.473922 3:0.495816 4:18.0722 5:18.1562 6:19.9233 7:17.645 8:1 
1 1:1.70362e-11 2:1.75612e-11 3:2.09591e-11 4:8.51812e-12 5:8.78058e-12 6:1.04795e-11 7:1.5968e-20 8:1 
0.01121675104403919 1:2.59285 2:2.70389 3:3.29012 4:20.6062 5:20.7893 6:22.8919 7:53.4276 8:1 
1 1:1.46051e-25 2:1.5039e-25 3:1.84999e-25 4:8.06874e-26 5:8.30871e-26 6:1.02131e-25 8:1 
0.001994285505128274 1:0.0271466 2:0.0231781 3:0.0439885 4:6.58389 5:6.74211 6:7.53537 7:10.665 8:1 
0.003746553403765888 1:1.53522 2:1.56639 3:1.72068 4:5.52034 5:5.62072 6:6.37393 7:1.41914 8:1 
1 1:1.20507e-21 2:1.2285e-21 3:1.32906e-21 4:6.02537e-22 5:6.14249e-22 6:6.6453e-22 7:5.65809e-42 8:1 
0.001064689591811718 1:0.0693321 2:0.0754313 3:0.119649 4:4.71495 5:4.82747 6:5.42818 7:11.57 8:1 
0.004147395079696026 1:1.5798 2:1.62222 3:1.70914 4:7.86664 5:8.00751 6:8.98959 7:3.72789 8:1 
0.001765304470758928 1:0.00953817 2:0.00147676 3:0.00954151 4:7.82681 5:7.95905 6:8.93749 7:4.51232 8:1 
0.0125123442732808 1:2.96416 2:2.99876 3:3.25012 4:2.14044 5:2.14551 6:2.42751 7:7.88549 8:1 
0.01611712604216781 1:2.13729 2:2.16538 3:2.15725 4:15.5825 5:15.7125 6:17.5156 7:197.887 8:1 
0.005504484087275552 1:2.381 2:2.4337 3:2.38245 4:11.2624 5:11.5223 6:12.9596 7:7.80432 8:1 
0.008058240696111132 1:0.389807 2:0.410913 3:0.39405 4:18.3494 5:18.5229 6:20.5556 7:27.0843 8:1 
0.006312393720626393 1:3.22525 2:3.2646 3:3.32608 4:19.6057 5:19.8188 6:21.9162 7:28.3366 8:1 
0.002316351662677296 1:2.08784 2:2.07623 3:2.03064 4:20.2787 5:20.4674 6:22.3405 7:24.1623 8:1 
0.009038982410207209 1:0.0235494 2:0.0215879 3:0.0495182 4:1.44016 5:1.45125 6:1.78351 7:21.5717 8:1 
0.008335867066339066 1:2.1665 2:2.22443 3:2.3703 4:19.5477 5:19.7713 6:21.8639 7:10.6038 8:1 
0.0007968023470467674 1:1.29311 2:1.32653 3:1.30951 4:18.1943 5:18.364 6:20.1123 7:21.9272 8:1 
0.003013004795092422 1:2.64499 2:2.6759 3:2.76533 4:20.2964 5:20.5211 6:22.6751 7:13.8263 8:1 
0.01594031291923581 1:5.59326 2:5.71685 3:5.85531 4:17.4344 5:17.5993 6:19.2392 7:44.3687 8:1 
0.00397325496654395 1:0.132526 2:0.14051 3:0.042829 4:12.3514 5:12.6268 6:14.0679 7:19.3063 8:1 
0.003212896542048427 1:1.20813 2:1.23568 3:1.27684 4:7.78124 5:7.95345 6:8.8327 7:16.8379 8:1 
0.007285581751206234 1:0.874287 2:0.855247 3:0.758153 4:14.9285 5:15.0338 6:16.6073 7:28.0524 8:1 
0.0003459739704937308 1:1.46806 2:1.49222 3:1.62962 4:3.24559 5:3.30883 6:3.66041 7:16.7574 8:1 
0.0009954603307014698 1:0.0315976 2:0.0506001 3:0.0343256 4:11.7002 5:11.9586 6:13.396 7:13.1235 8:1 
0.008794905513686502 1:0.347816 2:0.367348 3:0.262018 4:13.2711 5:13.3592 6:14.5795 7:36.2859 8:1 
0.001432787272127701 1:1.26606 2:1.29441 3:1.31019 4:8.41889 5:8.6051 6:9.69083 7:9.66868 8:1 
0.009637608082982529 1:2.68321 2:2.75845 3:2.89175 4:17.3141 5:17.4001 6:19.3674 7:14.16 8:1 
0.0005583967822900011 1:1.79926 2:1.82208 3:1.80965 4:19.262 5:19.4761 6:21.6979 7:8.82577 8:1 
0.004795918209451231 1:3.15543 2:3.20574 3:3.51684 4:11.7473 5:11.8536 6:13.1281 7:15.8907 8:1 
0.006737245185294156 1:2.42151 2:2.45302 3:2.63537 4:7.50368 5:7.62973 6:8.61557 7:19.8705 8:1 
0.007710002805611545 1:2.67513 2:2.77247 3:2.79573 4:20.5004 5:20.6522 6:22.9684 7:22.5522 8:1 
0.001977219180575836 1:0.218258 2:0.22312 3:0.318066 4:19.6403 5:19.7972 6:22.0126 7:11.8677 8:1 
0.0009289605383424899 1:1.92785 2:1.97664 3:2.04177 4:9.8297 5:9.94392 6:11.2144 7:5.79628 8:1 
0.002731016456028799 1:0.0346489 2:0.0318413 3:0.0526557 4:10.8862 5:11.1346 6:12.5344 7:4.57568 8:1 
0.0009346930159660174 1:0.0940528 2:0.0898402 3:0.119735 4:4.48708 5:4.50649 6:5.28058 7:8.77832 8:1 
0.001063856057334543 1:2.25259 2:2.3016 3:2.32249 4:8.39336 5:8.47043 6:9.54523 7:7.60026 8:1 
0.00731180808427668 1:0.934693 2:0.956011 3:1.13884 4:9.92366 5:10.0515 6:11.5207 7:35.8748 8:1 
0.006608015066930588 1:0.117406 2:0.138711 3:0.243042 4:11.8581 5:12.0292 6:13.7758 7:20.8312 8:1 
0.004857152346096569 1:0.306106 2:0.300416 3:0.377683 4:17.8365 5:18.2618 6:20.132 7:14.9532 8:1 
0.005731563215131172 1:0.573668 2:0.648433 3:0.488722 4:20.7622 5:20.924 6:23.2535 7:28.2268 8:1 
0.009219902539516378 1:0.0965819 2:0.0941291 3:0.0407066 4:12.3583 5:12.553 6:14.2559 7:25.8339 8:1 
0.008100442787908335 1:3.96786 2:4.05414 3:4.21577 4:21.0311 5:21.2237 6:23.5531 7:19.6788 8:1 
0.005947259109740699 1:0.798682 2:0.790949 3:0.839563 4:10.9553 5:11.1288 6:12.692 7:23.5257 8:1 
0.002862085233362374 1:1.48219 2:1.43469 3:1.23416 4:21.0735 5:21.2978 6:23.7501 7:10.2778 8:1 
0.006113308355228959 1:0.754547 2:0.750955 3:0.414213 4:19.9728 5:20.3186 6:22.5249 7:51.8755 8:1 
0.004395560414150845 1:1.07199 2:1.08376 3:1.16824 4:20.1325 5:20.4558 6:22.4851 7:33.4167 8:1 
0.001166768374785234 1:1.75424 2:1.78903 3:1.72962 4:9.79378 5:9.93854 6:11.297 7:15.1276 8:1 
0.004567320842792552 1:1.41836 2:1.44543 3:1.4353 4:17.7982 5:18.0524 6:20.1401 7:25.7836 8:1 
0.006816380380347146 1:2.95358 2:3.10563 3:3.77049 4:21.5807 5:21.7214 6:24.1385 7:30.4995 8:1 
0.007105118414174402 1:1.76251 2:1.81072 3:1.90861 4:18.2829 5:18.4415 6:20.6061 7:29.9614 8:1 
0.001234037145345257 1:1.55124 2:1.62881 3:1.63188 4:20.9009 5:21.2097 6:23.3829 7:30.7917 8:1 
0.009342824866224451 1:2.98419 2:3.12723 3:3.4117 4:22.5778 5:22.7813 6:25.2811 7:39.3253 8:1 
0.002868638839743132 1:0.344141 2:0.31571 3:0.21443 4:20.3175 5:20.5678 6:23.0106 7:21.1398 8:1 
0.002620923479489755 1:2.01866 2:2.0426 3:2.29342 4:9.85814 5:10.0247 6:11.3716 7:13.978 8:1 
0.0005634692747526638 1:0.533738 2:0.549755 3:0.474927 4:23.4621 5:23.6539 6:26.128 7:21.3062 8:1 
0.005834306218645216 1:1.67621 2:1.70937 3:1.88371 4:15.9539 5:16.2121 6:18.1654 7:10.6386 8:1 
0.003629345632066035 1:0.7399 2:0.801823 3:0.60465 4:22.1475 5:22.4972 6:24.8803 7:12.5771 8:1 
0.001109934789294276 1:0.0603867 2:0.0349131 3:0.00632095 4:21.1221 5:21.4315 6:23.7408 7:16.0211 8:1 
0.003365601442207433 1:1.67893 2:1.68973 3:1.73997 4:20.8259 5:21.1062 6:23.4011 7:63.5772 8:1 
0.009815329823135184 1:0.119271 2:0.0809231 3:0.133286 4:23.1595 5:23.3904 6:26.1049 7:25.6395 8:1 
0.007457120735615003 1:3.6461 2:3.69337 3:4.09802 4:20.5656 5:20.8716 6:23.2327 7:29.371 8:1 
0.004072229559626525 1:2.6637 2:2.76479 3:3.3907 4:24.078 5:24.4225 6:27.0681 7:19.6035 8:1 
0.009645103717532185 1:2.09657 2:2.14327 3:2.47779 4:24.2753 5:24.5384 6:27.4016 7:31.0425 8:1 
0.004556574526847191 1:0.537047 2:0.569184 3:0.597552 4:20.7517 5:21.05 6:23.5374 7:37.4939 8:1 
0.004176761726637224 1:2.07635 2:2.15771 3:2.57607 4:21.2104 5:21.383 6:24.3546 7:19.4639 8:1 
0.002743945582014097 1:0.469851 2:0.543721 3:0.632028 4:23.7407 5:23.9722 6:26.7437 7:20.9012 8:1 
0.001866937587289248 1:0.45175 2:0.473886 3:0.490166 4:23.9819 5:24.3676 6:27.0905 7:16.3868 8:1 
0.00382333800579826 1:2.87178 2:2.9762 3:3.10862 4:20.5692 5:20.6873 6:23.3954 7:16.1885 8:1 
0.008055519327068661 1:0.9207 2:0.925304 3:0.843769 4:24.3663 5:24.7595 6:27.4637 7:45.972 8:1 
0.002403724641971792 1:0.287537 2:0.297059 3:0.303597 4:7.67872 5:7.72092 6:8.98695 7:13.2458 8:1 
0.001480147820725586 1:1.68945 2:1.78528 3:2.3753 4:21.6455 5:21.8224 6:24.6315 7:34.3488 8:1 
0.00364647721542014 1:0.272177 2:0.294773 3:0.163358 4:21.2276 5:21.3899 6:24.271 7:22.3512 8:1 
0.00680342876342447 1:2.68606 2:2.72277 3:2.81253 4:11.8065 5:12.001 6:13.6437 7:23.3538 8:1 
0.001188521817522104 1:2.60806 2:2.66687 3:2.67014 4:12.2158 5:12.4254 6:13.5956 7:8.30836 8:1 
0.004279689315050267 1:0.137077 2:0.139238 3:0.220619 4:16.5484 5:16.948 6:18.8118 7:8.48957 8:1 
0.002343286674738242 1:0.21473 2:0.217871 3:0.265678 4:18.9068 5:19.3345 6:21.1556 7:6.35131 8:1 
0.001396030374973656 1:1.73288 2:1.76326 3:1.75938 4:8.98702 5:9.06657 6:10.6209 7:5.12972 8:1 
0.006593183187150934 1:1.03413 2:1.06902 3:1.07751 4:17.3668 5:17.7714 6:19.6127 7:6.82081 8:1 
0.005503708128139793 1:0.874029 2:0.90347 3:0.872689 4:17.9159 5:18.3211 6:20.1441 7:3.59592 8:1 
0.004233060583827742 1:1.79265 2:1.83831 3:1.88145 4:17.7014 5:18.0893 6:19.8264 7:11.2351 8:1 
0.002086724617493136 1:0.998405 2:1.02037 3:1.08085 4:9.15031 5:9.29838 6:10.7852 7:22.2993 8:1 
0.007078458163682902 1:0.177655 2:0.189875 3:0.160607 4:18.1938 5:18.5935 6:20.3333 7:12.2842 8:1 
0.005099565496177487 1:0.409503 2:0.435311 3:0.442783 4:22.0923 5:22.6279 6:24.9675 7:17.2419 8:1 
0.01171986163892969 1:5.32706 2:5.4392 3:5.78002 4:25.0701 5:25.4935 6:28.3686 7:35.6828 8:1 
0.005879772440972435 1:0.127265 2:0.141976 3:0.200356 4:18.7894 5:19.1929 6:20.9364 7:19.5993 8:1 
0.005647498345511587 1:2.73374 2:2.80685 3:3.01942 4:18.1473 5:18.5679 6:20.6387 7:27.0908 8:1 
0.01196087119963688 1:3.23719 2:3.32235 3:3.49509 4:22.9729 5:23.3598 6:26.0815 7:11.7451 8:1 
0.002879842196538968 1:2.01493 2:2.07959 3:2.08535 4:17.5378 5:17.8977 6:19.5429 7:18.006 8:1 
0.01119245739031471 1:5.44054 2:5.59683 3:5.91114 4:24.6725 5:25.0699 6:27.8633 7:38.212 8:1 
0.0009926665048920064 1:2.28462 2:2.34168 3:2.56723 4:8.20955 5:8.35801 6:9.70247 7:20.19 8:1 
0.008682680507386686 1:3.63769 2:3.74576 3:3.93112 4:23.206 5:23.571 6:26.4256 7:22.5937 8:1 
0.001103607131121342 1:0.070673 2:0.092124 3:0.0585356 4:24.6133 5:25.1656 6:27.5507 7:13.9997 8:1 
0.004828522074171683 1:1.60128 2:1.68577 3:1.74707 4:21.0925 5:21.2724 6:24.1083 7:26.6778 8:1 
0.008098199308367887 1:1.81823 2:1.89532 3:2.0757 4:25.9682 5:26.3508 6:29.2481 7:48.1856 8:1 
0.01020394068383231 1:0.0554445 2:0.0441227 3:0.0893445 4:8.50378 5:8.63716 6:10.1251 7:17.5859 8:1 
0.004560098290847473 1:0.690802 2:0.673636 3:0.695777 4:23.782 5:24.3304 6:26.7064 7:4.50915 8:1 
0.01020604881733023 1:4.51402 2:4.65629 3:4.81411 4:21.9062 5:22.0916 6:25.0906 7:17.6235 8:1 
0.0112645106114968 1:2.46831 2:2.55912 3:2.53219 4:23.4509 5:23.8287 6:26.805 7:7.44298 8:1 
0.00612433342886077 1:2.49038 2:2.4936 3:2.44832 4:26.1357 5:26.5799 6:29.6144 7:45.3785 8:1 
0.004177514122231163 1:0.281279 2:0.284095 3:0.169372 4:8.33656 5:8.48825 6:9.95804 7:12.6208 8:1 
0.005871595199187106 1:0.555555 2:0.582402 3:0.692777 4:23.0378 5:23.2461 6:26.282 7:32.4435 8:1 
0.001569333107784494 1:1.16507 2:1.2071 3:1.53353 4:22.2072 5:22.4311 6:25.5276 7:22.049 8:1 
0.006149626622998976 1:2.323 2:2.40068 3:2.34394 4:26.3048 5:26.7159 6:29.8358 7:24.0622 8:1 
0.003932723311088699 1:0.633254 2:0.665534 3:0.553972 4:21.5254 5:21.7298 6:24.7698 7:30.1799 8:1 
0.01160264274043188 1:3.35871 2:3.41609 3:3.5111 4:27.1831 5:27.6106 6:30.7212 7:39.7627 8:1 
0.006260611440862762 1:2.90547 2:3.00429 3:2.79822 4:24.0207 5:24.3196 6:27.6203 7:14.8885 8:1 
0.01015718175695795 1:0.942856 2:1.00501 3:0.881857 4:27.2573 5:27.7202 6:30.8294 7:49.8749 8:1 
0.006907554663493487 1:3.43194 2:3.4488 3:3.55671 4:23.0941 5:23.3826 6:26.5374 7:29.7926 8:1 
0.0004757192702443613 1:3.62316 2:3.69662 3:3.64833 4:22.8867 5:23.2614 6:26.3452 7:25.7084 8:1 
0.006874315176005803 1:2.5072 2:2.56053 3:2.7383 4:29.2165 5:29.7212 6:32.9396 7:29.1369 8:1 
0.006301795825245093 1:1.09136 2:1.08812 3:1.55437 4:29.5907 5:30.011 6:33.4386 7:35.309 8:1 
0.004963355398765053 1:2.70292 2:2.71902 3:2.95722 4:23.8825 5:24.213 6:27.8291 7:24.467 8:1 
0.002323330381098887 1:0.581616 2:0.494778 3:0.20348 4:27.9595 5:28.2675 6:31.6105 7:29.3272 8:1 
0.01205607007494769 1:1.30416 2:1.35345 3:2.06223 4:26.3825 5:26.7976 6:30.587 7:55.4407 8:1 
0.001483126353447717 1:0.398968 2:0.397551 3:0.383675 4:23.7807 5:24.2064 6:27.3183 7:13.7631 8:1 
0.01076989949102154 1:4.45623 2:4.62032 3:4.96117 4:28.1066 5:28.4372 6:32.0888 7:44.176 8:1 
0.005492934065084666 1:1.42422 2:1.50516 3:1.59696 4:24.3767 5:24.7357 6:28.233 7:27.0783 8:1 
0.003493561467310136 1:2.28019 2:2.39096 3:2.71672 4:27.8017 5:28.3159 6:31.6158 7:41.5157 8:1 
0.01085117048759815 1:0.483015 2:0.549183 3:0.833267 4:28.9837 5:29.4379 6:33.4618 7:52.992 8:1 
0.009461062593403291 1:3.81012 2:3.90863 3:4.00034 4:29.0169 5:29.5365 6:32.968 7:45.2932 8:1 
0.01245072381258187 1:2.47251 2:2.51764 3:2.5678 4:9.57195 5:9.68921 6:11.4044 7:27.7519 8:1 
0.006289680296262616 1:1.97633 2:2.08198 3:2.01983 4:25.4386 5:25.9254 6:29.1845 7:41.2328 8:1 
0.01467119691731916 1:2.9829 2:3.18425 3:3.41061 4:30.3443 5:30.7918 6:34.9258 7:66.6924 8:1 
0.0009792196602568719 1:1.53989 2:1.58157 3:1.8062 4:11.7131 5:11.9808 6:13.7505 7:12.7185 8:1 
0.006415165997978176 1:0.154431 2:0.116686 3:0.234435 4:27.603 5:28.1557 6:31.7329 7:36.1433 8:1 
0.01618412047238238 1:5.60684 2:5.81204 3:6.02509 4:26.417 5:26.8952 6:30.7809 7:54.111 8:1 
0.008714167788495951 1:3.3173 2:3.4599 3:3.01906 4:28.6988 5:29.1022 6:33.0952 7:34.3836 8:1 
0.007424341968832011 1:3.75826 2:3.86321 3:4.0555 4:23.3538 5:23.7783 6:26.8978 7:16.596 8:1 
0.004585637412233652 1:1.08707 2:1.12038 3:1.17249 4:27.2642 5:27.7127 6:31.3138 7:30.3606 8:1 
0.001256758216250209 1:0.00135803 2:0.0419111 3:0.337182 4:28.0375 5:28.3455 6:31.8709 7:33.1453 8:1 
0.002689636353725793 1:0.358715 2:0.355919 3:0.323002 4:12.8825 5:13.0551 6:14.3708 7:11.1061 8:1 
0.015747019638368 1:4.49035 2:4.58017 3:4.47513 4:30.3088 5:30.781 6:34.6857 7:53.7313 8:1 
0.00170724785082319 1:0.0218291 2:0.00904751 3:0.00800657 4:11.0643 5:11.1908 6:12.7217 7:7.51304 8:1 
0.008270855556511912 1:2.24815 2:2.29701 3:2.28657 4:10.0651 5:10.2119 6:12.0839 7:11.7425 8:1 
0.002319433950035653 1:0.289056 2:0.277546 3:0.210555 4:10.3848 5:10.5594 6:12.4747 7:10.0376 8:1 
0.003375882043424512 1:2.45842 2:2.52865 3:2.5784 4:14.3222 5:14.5215 6:15.995 7:9.7255 8:1 
0.002047427723289713 1:1.96723 2:1.98572 3:1.93009 4:11.6929 5:11.8438 6:13.6006 7:14.6405 8:1 
0.007604759639812975 1:0.0421314 2:0.0884752 3:0.170645 4:25.237 5:25.8323 6:28.1385 7:22.3035 8:1 
0.001929509793786973 1:0.0741749 2:0.0727835 3:0.0884876 4:13.8905 5:14.1035 6:15.947 7:8.66832 8:1 
0.0006563864842490386 1:1.78204 2:1.82884 3:1.8101 4:24.3906 5:24.9408 6:27.2362 7:10.0341 8:1 
0.0007815922489585061 1:1.85781 2:1.86583 3:1.89113 4:25.6382 5:26.2121 6:28.4512 7:22.0262 8:1 
0.01481186704632564 1:4.76983 2:4.86137 3:5.37911 4:10.9417 5:11.1747 6:12.7957 7:19.2689 8:1 
0.004991668584859775 1:2.52789 2:2.595 3:2.61656 4:18.9094 5:19.2571 6:20.8593 7:19.099 8:1 
0.005085212410780004 1:2.23155 2:2.30701 3:2.63844 4:14.3879 5:14.6954 6:16.5938 7:20.5702 8:1 
0.00309308806497649 1:1.85796 2:1.90068 3:1.84042 4:25.4 5:25.9692 6:28.1558 7:11.0999 8:1 
0.00860492516940577 1:3.15931 2:3.23299 3:3.28924 4:19.3489 5:19.6938 6:21.2905 7:14.1751 8:1 
0.007725776279267167 1:3.29566 2:3.36258 3:3.41618 4:25.243 5:25.8022 6:28.0096 7:19.0927 8:1 
0.008572037734575374 1:1.42464 2:1.49018 3:1.64366 4:17.7366 5:18.1814 6:20.2946 7:48.4454 8:1 
0.001035843826003887 1:0.461322 2:0.435983 3:0.305319 4:25.6098 5:26.0601 6:29.3176 7:22.8571 8:1 
0.008823004373762379 1:2.27845 2:2.32013 3:2.37343 4:22.8864 5:23.31 6:26.3737 7:36.8597 8:1 
0.01216343316864915 1:0.297633 2:0.290075 3:0.562082 4:26.5029 5:26.9747 6:30.8452 7:38.9884 8:1 
0.01394013804967315 1:0.112652 2:0.158 3:0.201916 4:29.4627 5:30.0815 6:33.8012 7:46.7015 8:1 
0.003270409006417529 1:3.08039 2:3.18764 3:3.22167 4:22.0227 5:22.4396 6:25.5041 7:23.9785 8:1 
0.01616295253262334 1:5.90842 2:6.20824 3:7.4575 4:28.9328 5:29.4651 6:33.5695 7:59.3782 8:1 
0.004246264724205483 1:1.62163 2:1.66992 3:1.74288 4:29.1709 5:29.7424 6:33.2614 7:30.0769 8:1 
0.002178271276087303 1:2.50115 2:2.60907 3:3.10012 4:27.5742 5:28.0432 6:31.8018 7:23.4363 8:1 
0.0008778059983289288 1:0.798637 2:0.800138 3:0.615994 4:28.3794 5:28.7552 6:32.5017 7:25.5903 8:1 
0.01020024064808156 1:0.229113 2:0.220612 3:0.134323 4:28.934 5:29.5192 6:33.1319 7:32.8303 8:1 
0.00445249468819324 1:1.20147 2:1.20985 3:1.04653 4:28.0629 5:28.5162 6:32.1721 7:13.6677 8:1 
0.004405384945113063 1:0.761827 2:0.769802 3:1.08832 4:23.0062 5:23.4415 6:26.4501 7:38.8183 8:1 
0.004678392521005437 1:2.29837 2:2.38602 3:2.3418 4:28.6125 5:29.0444 6:32.8252 7:42.6368 8:1 
0.01212938207133585 1:0.747789 2:0.71817 3:0.727278 4:30.2198 5:30.8165 6:34.4859 7:54.8729 8:1 
0.008300331433706704 1:1.68865 2:1.79983 3:2.22133 4:26.8814 5:27.3423 6:31.1173 7:45.3892 8:1 
0.003654610999649734 1:2.39413 2:2.48701 3:2.54025 4:19.2161 5:19.5863 6:22.5088 7:18.8041 8:1 
0.007326208473132463 1:1.41294 2:1.42254 3:1.39939 4:29.5862 5:29.9649 6:33.742 7:42.7385 8:1 
0.009910083614780019 1:4.95602 2:5.08738 3:5.34782 4:28.6184 5:29.1776 6:32.7907 7:34.1136 8:1 
0.0122236587775221 1:3.23727 2:3.38897 3:3.45761 4:26.504 5:26.8996 6:30.7728 7:27.6013 8:1 
0.0008370585382848688 1:1.04709 2:1.05521 3:1.11391 4:20.1064 5:20.5003 6:23.4368 7:14.5459 8:1 
0.005670145888111058 1:2.47439 2:2.53516 3:3.02498 4:27.0096 5:27.3766 6:31.318 7:16.8225 8:1 
0.004621043673455782 1:0.175426 2:0.174486 3:0.209622 4:26.8297 5:27.4363 6:30.231 7:27.0301 8:1 
0.01114602327413203 1:4.92136 2:5.16713 3:5.51579 4:29.5675 5:30.1194 6:34.1591 7:31.7857 8:1 
0.01408586960869063 1:2.40387 2:2.58789 3:2.85343 4:27.0168 5:27.3737 6:31.2715 7:67.0975 8:1 
0.009278378124627404 1:1.89769 2:1.93715 3:1.77978 4:31.3053 5:31.8774 6:35.9635 7:31.0634 8:1 
0.007104957957245993 1:2.27291 2:2.44703 3:2.65585 4:28.6961 5:29.0852 6:32.9274 7:24.7242 8:1 
0.006186852321082617 1:0.145599 2:0.187694 3:0.0717831 4:27.6865 5:28.2215 6:31.9163 7:17.4309 8:1 
0.01051129212012405 1:3.03323 2:3.06975 3:3.0012 4:29.1531 5:29.6478 6:33.4917 7:20.3181 8:1 
0.01074910844471394 1:0.752305 2:0.761357 3:0.783199 4:30.008 5:30.5056 6:34.879 7:40.3578 8:1 
0.009013846232257547 1:2.22362 2:2.27363 3:2.14536 4:26.6964 5:27.3054 6:30.0885 7:9.60832 8:1 
0.010554267479158 1:2.50944 2:2.56413 3:2.63461 4:26.0234 5:26.5234 6:30.1261 7:52.5607 8:1 
0.01228952141818968 1:0.181927 2:0.240231 3:0.0178509 4:31.3899 5:31.9856 6:36.1671 7:44.301 8:1 
0.004964128980364688 1:3.35626 2:3.47393 3:3.71144 4:29.113 5:29.5067 6:33.5203 7:30.9907 8:1 
0.007593020803969652 1:0.0258856 2:0.017148 3:0.124337 4:26.0422 5:26.6462 6:29.4583 7:17.7882 8:1 
0.002637587958568277 1:2.08468 2:2.16839 3:2.20491 4:26.8051 5:27.3516 6:30.9545 7:14.6007 8:1 
0.006959245728923168 1:0.708447 2:0.738136 3:1.11092 4:21.5458 5:21.9982 6:25.1307 7:51.4278 8:1 
0.0137982859088932 1:5.01861 2:5.22674 3:6.23886 4:32.8896 5:33.4634 6:38.0836 7:73.7853 8:1 
0.0008560517956794423 1:2.09722 2:2.15724 3:2.71592 4:28.1665 5:28.7564 6:32.7694 7:26.0342 8:1 
0.001667982963049985 1:0.353424 2:0.366048 3:0.482236 4:27.8469 5:28.489 6:31.3259 7:29.9584 8:1 
0.0007269215783457902 1:0.623991 2:0.596795 3:0.323402 4:21.1799 5:21.6511 6:24.7261 7:24.301 8:1 
0.01372013845147119 1:3.83369 2:3.90079 3:4.51522 4:31.5821 5:32.1219 6:36.4244 7:75.1974 8:1 
0.00543603375031226 1:3.26811 2:3.37867 3:3.39665 4:26.6082 5:27.1648 6:30.8835 7:18.6578 8:1 
0.01643322521631241 1:6.91035 2:7.0748 3:7.57347 4:33.256 5:33.9152 6:38.2604 7:85.5797 8:1 
0.01367622326822981 1:0.413498 2:0.373966 3:0.266457 4:20.1754 5:20.6007 6:23.6953 7:43.5399 8:1 
0.01479590778663514 1:0.944571 2:1.00935 3:1.16634 4:32.1805 5:32.7523 6:37.196 7:47.9696 8:1 
0.01620430572282083 1:7.33382 2:7.6616 3:8.69404 4:35.9185 5:36.6964 6:41.334 7:47.6654 8:1 
0.004922365020706532 1:2.48374 2:2.52317 3:2.70243 4:21.3104 5:21.7534 6:24.9336 7:16.4434 8:1 
0.01426271093652302 1:0.114203 2:0.214095 3:0.187626 4:30.2549 5:30.7105 6:34.954 7:62.8433 8:1 
0.008044478046943066 1:1.25988 2:1.32472 3:1.50573 4:31.9256 5:32.5354 6:36.7425 7:21.8953 8:1 
0.01611533793778175 1:4.77422 2:4.93743 3:5.54531 4:35.8346 5:36.4898 6:41.1282 7:50.6834 8:1 
0.01671991629956338 1:0.0550575 2:0.0313892 3:0.781631 4:36.643 5:37.2449 6:42.0187 7:112.858 8:1 
0.0156819980424755 1:2.28768 2:2.32291 3:0.736008 4:8.60717 5:8.74051 6:2.78707 7:51.2579 
0.01672512708769142 1:95.0456 2:100 3:108.875 4:522.751 5:550 6:598.815 7:157500 8:1 
0.004104780378864932 1:0.805608 2:0.818386 3:0.267536 4:6.30484 5:6.40258 6:2.04309 7:5.55914 
0.01679795610591206 4:95.0456 5:100 6:108.875 7:70000 8:1 
0.01640690974185344 1:0.377505 2:0.386447 3:0.191645 4:8.24755 5:8.42343 6:3.74966 7:229.282 
0.007231124923473465 1:0.0861659 2:0.0859842 3:0.00611472 4:14.7645 5:15.0388 6:5.80158 7:13.1846 
0.007969960523633506 1:0.215337 2:0.218675 3:0.0697709 4:5.78748 5:5.87693 6:1.86935 7:6.96097 
1 1:0.0659475 2:0.0669664 3:0.0212925 4:0.0529242 5:0.0537419 6:0.0170877 7:0.0291863 
0.0167981937745233 1:95.0456 2:100 3:108.875 4:617.796 5:650 6:707.69 7:117500 8:1 
0.009709145745607384 1:0.458802 2:0.465184 3:0.132262 4:11.1718 5:11.3472 6:3.66918 7:5.29645 
0.01590231692965283 1:0.272474 2:0.253859 3:0.423907 4:13.823 5:14.0782 6:5.39614 7:756.782 
0.01592401581758951 1:3.26396 2:3.32581 3:1.30998 4:16.0879 5:16.4261 6:7.20488 7:128.13 
0.005323140579707674 1:0.23617 2:0.239847 3:0.0769448 4:15.0222 5:15.2546 6:4.85816 7:0.923588 
0.01094865021339481 1:0.124621 2:0.128889 3:0.092768 4:3.46128 5:3.52316 6:1.306 7:106.695 
0.009410265891587222 1:0.533865 2:0.542103 3:0.172154 4:13.8612 5:14.0758 6:4.48502 7:4.8303 
0.009542724513285541 1:0.333546 2:0.338979 3:0.113949 4:9.16404 5:9.31303 6:3.12477 7:4.61435 
0.01644674397122631 1:1.24517 2:1.28974 3:0.970438 4:19.595 5:20.0553 6:9.8607 7:30.085 
0.01639421394866419 1:4.0289 2:4.09059 3:1.28836 4:12.8543 5:13.056 6:4.22096 7:180.048 
0.01341305608258442 1:0.075758 2:0.0770597 3:0.0274174 4:15.6628 5:15.9865 6:6.88954 7:16.6964 
0.01596509743185071 1:1.28567 2:1.30381 3:0.376585 4:33.7048 5:34.2509 6:11.4528 7:89.5554 
0.01612867549774355 1:0.429623 2:0.44147 3:0.255555 4:13.6279 5:13.8741 6:5.20001 7:324.671 
0.004408795432629509 1:0.0125041 2:0.0133004 3:0.0175886 4:12.1995 5:12.4069 6:4.36298 7:2.23269 
0.01613341167397636 1:0.0537853 2:0.0575676 3:0.0836 4:38.1415 5:38.981 6:17.9278 7:195.68 
0.01618092615829791 1:0.218762 2:0.236427 3:0.390995 4:25.3589 5:25.9796 6:13.3223 7:102.127 
0.01636769854895659 1:0.543839 2:0.566929 3:0.505152 4:69.9467 5:71.553 6:34.3719 7:30.5226 
0.01623934217408962 1:3.60651 2:3.66225 3:1.16497 4:12.8991 5:13.1355 6:4.99743 7:272.678 
0.01635690564251391 1:0.427452 2:0.445007 3:0.383835 4:65.4426 5:67.0665 6:34.8754 7:22.8739 
0.01630267102779431 1:0.932045 2:0.991592 3:1.31357 4:36.134 5:37.2595 6:24.3881 7:1786 
0.01599343401621989 1:0.176287 2:0.178438 3:0.0441675 4:33.9113 5:34.7159 6:17.2462 7:172.976 
0.0140051701245274 1:0.0307446 2:0.0319519 3:0.0261288 4:63.209 5:64.8552 6:35.4269 7:13.3662 
0.01348277069829046 1:0.0252686 2:0.0247993 3:0.0112247 4:60.775 5:62.4269 6:35.6131 7:13.1634 8:1 
0.0008284829632951296 1:0.771634 2:0.787769 3:0.343632 4:13.5624 5:13.7882 6:4.74344 7:1.38409 
0.01576150867127551 1:0.766819 2:0.793371 3:0.577421 4:57.379 5:58.97 6:34.3289 7:9.1392 
0.01523620339528825 1:1.08215 2:1.12767 3:0.995447 4:53.1357 5:54.6214 6:32.0651 7:8.89885 
0.01611979399614893 1:11.6359 2:11.9772 3:7.37958 4:27.813 5:28.578 6:16.5008 7:591.442 
0.01622727983675498 1:0.291451 2:0.301659 3:0.22211 4:48.468 5:49.8117 6:28.9914 7:7.09296 
0.01434363608814543 1:0.0990858 2:0.0941467 3:0.113145 4:29.6775 5:30.3915 6:15.3104 7:6.83694 
0.01585701141084944 1:0.387938 2:0.399685 3:0.254185 4:44.7129 5:45.9498 6:26.6862 7:3.14062 
0.01632032081495899 1:0.766961 2:0.790923 3:0.519403 4:23.1889 5:23.7027 6:10.9741 7:11.7381 
0.01632091076877651 1:0.0127249 2:0.0129212 3:0.00410882 4:3.07106 5:3.11851 6:0.991561 7:1017.28 
0.008618418168793348 1:0.109246 2:0.113463 3:0.0919771 4:15.9456 5:16.2397 6:6.21874 7:10.1091 
0.01621587552343451 1:0.290499 2:0.305752 3:0.335333 4:40.6907 5:41.7931 6:23.7641 7:4.05285 8:1 
0.0009834369173772196 1:0.121109 2:0.123244 3:0.0450579 4:9.58577 5:9.7402 6:3.23679 7:2.30311 8:1 
0.01635114742976029 1:5.387 2:5.58353 3:4.28057 4:57.097 5:58.6663 6:33.8475 7:1675.32 
0.006749158770494318 1:0.358702 2:0.373272 3:0.318201 4:34.2099 5:35.0946 6:19.0348 7:2.22854 
0.0163570397437971 1:0.390404 2:0.403837 3:0.292026 4:36.9257 5:37.9036 6:21.0599 7:148.629 
0.01620230138283246 1:0.634251 2:0.641842 3:0.155239 4:113.731 5:117.966 6:92.2958 7:135.428 
0.005803287661947303 1:0.330626 2:0.342247 3:0.252808 4:32.0863 5:32.9099 6:17.7148 7:2.5251 
0.01634749533119045 1:4.18768 2:4.38673 3:4.36544 4:110.872 5:115.049 6:91.0671 7:61.5164 
0.01069205074445451 1:0.0722866 2:0.0737362 3:0.0308049 4:11.8945 5:12.0886 6:4.07127 7:12.1515 8:1 
0.0163561235115402 1:0.426254 2:0.42939 3:0.0603333 4:102.66 5:106.544 6:84.6995 7:90.8625 
0.006990203459826332 1:0.215446 2:0.221277 3:0.125773 4:28.4074 5:29.1151 6:15.2019 7:1.85339 
0.002725755340456746 1:0.0104575 2:0.0106192 3:0.00338268 4:6.26192 5:6.35869 6:2.02224 7:0.0423687 8:1 
0.005849078457525525 1:0.0197318 2:0.0200379 3:0.00637752 4:5.91288 5:6.00424 6:1.90936 7:3.58827 
0.01632397264295343 1:0.0948372 2:0.0972252 3:0.0515785 4:93.5061 5:97.0239 6:76.6885 7:23.9229 
0.01635547780380958 1:3.00935 2:3.13508 3:2.74887 4:79.1317 5:82.0629 6:63.8744 7:43.8892 
0.004914460118479569 1:0.116074 2:0.120677 3:0.100537 4:25.1939 5:25.8039 6:13.0854 7:1.50126 
0.01635476587375539 1:0.700985 2:0.740181 3:0.862555 4:64.4184 5:66.7353 6:50.443 7:108.191 8:1 
0.002832761960580297 1:0.00608492 2:0.00618982 3:0.00223827 4:11.8211 5:12.0073 6:3.89506 7:0.0135072 
0.003308729357441949 1:0.105896 2:0.109515 3:0.0787258 4:22.7116 5:23.2475 6:11.4814 7:1.07108 
1 1:0.00218868 2:0.00222826 3:0.000796795 4:11.6233 5:11.806 6:3.82271 7:0.0128034 8:1 
0.0163481036479598 1:4.09313 2:4.29956 3:4.53318 4:42.188 5:43.5295 6:29.0897 7:146.006 
0.01636798682071772 1:0.792561 2:0.823069 3:0.665426 4:44.4352 5:45.8797 6:31.3493 7:60.2404 
0.01636039570173947 1:1.24662 2:1.29951 3:1.15672 4:41.512 5:42.5421 6:22.1215 7:1813.73 
0.01185141065449861 1:0.200908 2:0.204417 3:0.0739644 4:16.7415 5:17.088 6:7.37641 7:7.60473 
0.01636421363352347 1:4.37029 2:4.51708 3:3.18892 4:12.4667 5:12.9003 6:9.43212 7:506.106 
0.01636313362524855 1:0.4231 2:0.430557 3:0.157072 4:80.2717 5:82.634 6:51.087 7:12.3291 8:1 
0.01633618479035259 1:2.1367 2:2.22347 3:1.89584 4:37.4854 5:38.7028 6:26.4198 7:88.0738 
0.005540230466084128 1:0.766342 2:0.790981 3:0.534509 4:15.6421 5:15.9444 6:6.41044 7:14.174 
0.0163610549677517 1:0.0151787 2:0.00613785 3:0.203257 4:68.7367 5:70.8558 6:45.9047 7:16.6654 
0.0164276159127141 1:0.205687 2:0.215555 3:0.216461 4:27.5901 5:28.3903 6:17.2947 7:10.9222 
0.01588445264027921 1:0.994978 2:1.03598 3:0.896069 4:59.734 5:61.5717 6:39.8046 7:7.31961 
0.007978924839020372 1:0.628951 2:0.650045 3:0.458252 4:14.6187 5:14.8842 6:5.6089 7:6.96402 
0.01591157114883662 1:0.780382 2:0.808899 3:0.621174 4:51.0975 5:52.6471 6:33.5483 7:5.18572 
0.01315912741326358 1:0.290129 2:0.300938 3:0.235486 4:19.9911 5:20.4757 6:10.3958 7:4.85707 
0.01610035049915876 1:0.545187 2:0.56386 3:0.406009 4:43.7775 5:45.0792 6:28.1616 7:11.0621 
0.005162578646177085 1:0.470206 2:0.48629 3:0.349608 4:16.0807 5:16.4089 6:6.97884 7:0.655065 8:1 
0.01678102379910096 1:0.869263 2:0.904623 3:0.772392 4:36.244 5:37.2999 6:22.8255 7:265.14 
0.001279297494761468 1:0.0785055 2:0.0814633 3:0.0644841 4:14.4669 5:14.728 6:5.51268 7:0.328674 
0.005587317047160591 1:0.00162125 2:0.0016551 3:0.000743389 4:14.085 5:14.3133 6:4.78759 7:0.000344687 8:1 
0.0005837042816497491 1:0.0126786 2:0.0105004 3:0.0222692 4:10.1621 5:8.40477 6:17.8781 7:0.0406917 8:1 
0.01129064735819635 1:0.937668 2:0.745298 3:1.87982 4:5.81874 5:4.92037 6:9.41338 7:9.7304 
0.01051015513382177 1:0.365904 2:0.378206 3:0.267377 4:32.6624 5:33.5872 6:19.9713 7:3.33719 
0.009114270381257927 1:0.186421 2:0.193516 3:0.154739 4:28.9425 5:29.7321 6:17.0254 7:3.00965 8:1 
0.008497080160237423 1:0.29611 2:0.306356 3:0.222837 4:25.7897 5:26.4666 6:14.5711 7:2.32089 8:1 
0.003033280465729301 1:0.0145106 2:0.0147395 3:0.00481617 4:8.78126 5:8.91739 6:2.84559 7:0.0141565 
0.006207285649238179 1:0.308542 2:0.318965 3:0.226455 4:22.9107 5:23.4842 6:12.3209 7:2.22139 8:1 
0.01678362821614693 1:10.5117 2:8.73489 3:18.3815 4:5.25584 5:4.36744 6:9.19076 7:133.991 
0.01679076656844369 1:19.9514 2:20.8231 3:19.0791 4:37.7537 5:39.0702 6:28.6367 7:1339.33 
0.006333711585411239 1:0.0437851 2:0.0473776 3:0.0794954 4:18.4935 5:18.9042 6:8.77228 7:3.11065 
0.0164521512670693 1:0.0263162 2:0.0267963 3:0.0101302 4:12.4931 5:12.6909 6:4.14198 7:90.0761 
0.003653735309570583 1:0.0613651 2:0.0635824 3:0.04827 4:16.2009 5:16.5401 6:7.22378 7:1.50056 8:1 
0.0006802772770246879 1:0.214983 2:0.22105 3:0.131007 4:15.2064 5:15.5079 6:6.40101 7:0.513712 8:1 
0.007897070725422896 1:0.013104 2:0.0108299 3:0.0230742 4:10.24 5:8.46931 6:18.015 7:0.0348349 
0.001038386419714321 1:0.00690317 2:0.00701189 3:0.00226951 4:8.19058 5:8.31739 6:2.65034 7:0.0325897 
0.003487071731395508 1:0.0092926 2:0.00943756 3:0.00304556 4:7.9167 5:8.0392 6:2.56044 7:0.0260345 8:1 
0.01682131510500101 1:2.27912 2:2.02849 3:2.98732 4:45.6442 5:40.3365 6:61.8454 7:59.2249 
1 8:1 
0.003100112671365063 1:0.0132771 2:0.013485 3:0.00433946 4:7.63918 5:7.75735 6:2.46968 7:2.20346 8:1 
0.01645277158453068 1:0.799803 2:0.807217 3:0.147261 4:46.1747 5:47.04 6:18.3163 7:10.2322 
0.00859752556974634 1:0.0295844 2:0.0300975 3:0.0108161 4:12.7878 5:13.0001 6:4.46136 7:10.5725 8:1 
0.01621576731792346 1:0.199921 2:0.202797 3:0.0598269 4:39.2881 5:40.1264 6:17.8715 7:5.35317 
0.01366594062043232 1:0.0379429 2:0.042326 3:0.0972624 4:35.2977 5:36.0651 6:16.3756 7:2.47568 8:1 
0.006486283393277881 1:0.0248349 2:0.0252199 3:0.00804102 4:6.37382 5:6.47232 6:2.05857 7:0.0631565 
0.01229664557969834 1:0.298764 2:0.304001 3:0.11038 4:31.2285 5:31.914 6:14.6364 7:2.27862 8:1 
0.01550904929091374 1:0.0115421 2:0.00957155 3:0.0202384 4:7.63069 5:6.31214 6:13.422 7:6.246 8:1 
0.009856491869374652 1:0.356185 2:0.363871 3:0.164028 4:26.9329 5:27.5166 6:12.4547 7:3.15121 
0.008224697598239145 1:0.333107 2:0.341783 3:0.186746 4:23.4104 5:23.9108 6:10.6704 7:2.49498 
0.01029711002768835 1:0.0117474 2:0.0135183 3:0.0393829 4:20.9218 5:21.3634 6:9.40925 7:0.856322 8:1 
0.01635300636417891 1:0.0122318 2:0.0124574 3:0.00477934 4:12.4111 5:12.6092 6:4.15101 7:29.8219 
0.005489227113333916 1:0.0160513 2:0.0178385 3:0.0396233 4:19.2066 5:19.6 6:8.36721 7:0.736309 8:1 
1 8:1 
0.005990386306611659 1:0.115726 2:0.118821 3:0.0667286 4:17.6384 5:17.9884 6:7.43256 7:1.01943 8:1 
0.01633829347230265 1:0.523317 2:0.504332 3:0.725655 4:61.7712 5:52.9385 6:103.631 7:41.5822 8:1 
0.01269267786867934 1:0.153395 2:0.178282 3:0.129646 4:65.1366 5:56.2247 6:108.18 7:21.9457 8:1 
0.01598360288827783 1:0.292862 2:0.308033 3:0.335754 4:55.7487 5:47.6901 6:93.7647 7:21.4512 8:1 
0.01635253037199935 1:1.95151 2:1.84081 3:2.8148 4:69.0089 5:60.0453 6:113.307 7:26.629 8:1 
0.01598180531415927 1:0.0565801 2:0.0587368 3:0.0470209 4:15.0736 5:15.354 6:5.93386 7:587.899 8:1 
0.01565483964396436 1:0.988535 2:0.873169 3:1.58755 4:58.1373 5:50.0789 6:96.8398 7:18.3123 8:1 
0.01637959376197451 1:1.17206 2:1.12831 3:1.62852 4:76.1704 5:67.0185 6:123.043 7:59.6871 
0.0163603313382033 1:2.77498 2:2.60968 3:4.02409 4:62.6806 5:54.4579 6:103.138 7:31.3479 8:1 
0.01621009850701743 1:0.32251 2:0.324562 3:0.40966 4:75.8818 5:66.9283 6:122.13 7:27.0554 8:1 
0.01197096883522242 1:1.10777 2:1.04328 3:1.60233 4:65.0751 5:56.8631 6:106.193 7:22.594 8:1 
0.01590983063558618 1:1.88704 2:1.82008 3:2.61251 4:78.6944 5:69.8194 6:125.538 7:21.8652 8:1 
0.01594276123226462 1:0.361912 2:0.382826 3:0.408997 4:70.8962 5:62.5971 6:113.926 7:12.7847 8:1 
0.01509969941003897 1:1.03258 2:0.94772 3:1.56107 4:81.9104 5:73.0904 6:129.529 7:48.7849 8:1 
0.01373055297032888 1:0.552063 2:0.533916 3:0.760391 4:83.5606 5:74.9347 6:131.124 7:16.0071 8:1 
0.008191203991320208 1:0.460648 2:0.431046 3:0.673897 4:83.8328 5:75.4224 6:130.887 7:12.3674 8:1 
0.001459326342032108 1:0.016839 2:0.0171289 3:0.00609052 4:11.3954 5:11.5744 6:3.74505 7:0.00691183 
0.01558150392440039 1:2.82201 2:2.72623 3:3.89506 4:87.2743 5:78.9588 6:135.06 7:18.2902 8:1 
0.01125646184609841 1:0.0547829 2:0.0374489 3:0.117828 4:86.4233 5:78.343 6:133.323 7:7.19147 
0.01415539778688818 1:0.131035 2:0.0819817 3:0.302513 4:87.4414 5:79.5511 6:134.115 7:17.2146 8:1 
0.007628431459162392 1:0.268402 2:0.26582 3:0.352692 4:88.1458 5:80.4908 6:134.381 7:5.38113 8:1 
0.01306488880261439 1:0.0712395 2:0.0775833 3:0.0744019 4:89.2013 5:81.7029 6:135.313 7:8.59603 8:1 
0.01611666794538863 1:1.54113 2:1.58632 3:1.86118 4:72.5631 5:64.296 6:115.985 7:31.649 8:1 
0.01593473937012732 1:2.01506 2:1.91255 3:2.87433 4:75.9021 5:67.719 6:120.055 7:37.2374 8:1 
0.008345777316463576 1:1.05033 2:1.03176 3:1.40318 4:88.2172 5:81.1915 6:132.756 7:8.03158 
0.01608034645348461 1:2.85965 2:2.69121 3:4.14171 4:77.8389 5:69.7825 6:122.203 7:15.1376 8:1 
0.007416372880541896 1:0.512417 2:0.495441 3:0.706131 4:87.6219 5:80.7786 6:131.492 7:5.10195 8:1 
0.01630168011102864 1:0.192131 2:0.199417 3:0.227524 4:79.6389 5:71.7246 6:124.134 7:9.03411 
0.01534743335342137 1:1.38121 2:1.29792 3:2.00567 4:81.2382 5:73.4866 6:125.75 7:51.2469 8:1 
0.007805328119248355 1:0.902916 2:0.751816 3:1.57476 4:84.3251 5:76.6833 6:129.425 7:13.5092 
0.00277313977424071 1:0.256016 2:0.254948 3:0.332577 4:85.7662 5:79.52 6:127.474 7:6.99528 8:1 
0.01042265478458082 1:0.613533 2:0.64325 3:0.708965 4:84.0182 5:76.5824 6:128.468 7:9.85823 8:1 
0.007938233837442098 1:0.5476 2:0.508171 3:0.812691 4:84.8191 5:78.7581 6:125.75 7:3.76156 8:1 
0.01369868743712566 1:2.4919 2:2.41765 3:3.41126 4:85.0993 5:77.856 6:129.335 7:10.4067 8:1 
0.006685158711894506 1:0.126579 2:0.114227 3:0.196667 4:83.314 5:77.4067 6:123.392 7:3.95862 8:1 
0.005272141435369586 1:0.161469 2:0.155876 3:0.223183 4:85.9788 5:78.9118 6:129.987 7:7.78283 8:1 
0.01353706240047392 1:1.23885 2:1.27046 3:1.50899 4:87.1081 5:80.2236 6:130.943 7:17.5458 8:1 
0.003021925350794232 1:1.08266 2:1.06771 3:1.43488 4:86.4732 5:79.9874 6:129.038 7:8.00132 8:1 
0.001982063662883547 1:0.324604 2:0.315662 3:0.442398 4:87.0554 5:80.7811 6:129.211 7:5.99345 8:1 
0.01289218020935651 1:0.00319862 2:0.00325108 3:0.00112402 4:10.3266 5:10.4876 6:3.36827 7:0.0139175 8:1 
0.01315548885088789 1:0.0236359 2:0.00628662 3:0.112068 4:72.9847 5:66.4544 6:111.791 7:7.34995 8:1 
0.001230852424769724 1:0.345705 2:0.247253 3:0.902887 4:4.21721 5:3.50697 6:7.27283 7:0.226749 
0.009627702109618226 1:0.299473 2:0.282887 3:0.430866 4:82.2574 5:76.555 6:121.473 7:6.1236 
0.009627699016224678 1:0.386406 2:0.395119 3:0.473808 4:80.9082 5:75.3736 6:119.278 7:2.24062 8:1 
0.000752405350081975 1:2.67029e-05 2:2.19345e-05 3:4.64916e-05 4:4.34583 5:3.59401 6:7.64646 7:0.000449152 8:1 
0.01487626210527088 1:0.148964 2:0.140713 3:0.214348 4:87.1668 5:81.0301 6:128.979 7:11.9803 8:1 
0.0127986183706934 1:0.0930367 2:0.0912552 3:0.124649 4:79.9883 5:74.5815 6:117.745 7:7.75145 8:1 
0.01269786914835056 1:0.299728 2:0.2855 3:0.424786 4:86.6327 5:80.6858 6:127.774 7:2.41646 8:1 
0.003547787587551088 1:0.0612297 2:0.0573273 3:0.0894852 4:78.943 5:73.7093 6:115.927 7:4.10292 8:1 
0.009614765405646698 1:0.673084 2:0.657265 3:0.90987 4:74.1958 5:67.7933 6:113.002 7:9.65129 8:1 
0.008133630183536253 1:1.00252 2:0.997547 3:1.30443 4:86.3646 5:80.6195 6:126.878 7:6.93171 8:1 
0.002205225817641497 1:0.0131721 2:0.00600433 3:0.0365295 4:77.8159 5:72.7163 6:114.11 7:5.94302 8:1 
0.003621748187577555 1:0.336658 2:0.375679 3:0.32708 4:75.0735 5:68.8489 6:113.647 7:8.45142 8:1 
0.002023480702430802 1:0.147141 2:0.131973 3:0.230804 4:85.8892 5:80.3003 6:125.84 7:4.96306 8:1 
0.005039261759896825 1:0.461651 2:0.474319 3:0.559902 4:76.7802 5:71.7988 6:112.454 7:8.13476 8:1 
0.01114646632891621 1:1.96846 2:1.89087 3:2.7464 4:75.1388 5:69.0756 6:113.291 7:6.27897 
0.01626222353481754 1:0.652359 2:0.681595 3:0.760296 4:85.0947 5:79.6982 6:124.292 7:12.9753 
0.00332889541817244 1:0.293667 2:0.265377 3:0.455322 4:75.039 5:70.2038 6:109.813 7:4.13897 8:1 
0.001016575646610951 1:2.06844 2:2.00027 3:2.84936 4:75.8748 5:69.9329 6:113.907 7:6.24882 8:1 
0.009976199718435441 1:0.624748 2:0.619099 3:0.819904 4:84.2761 5:79.0213 6:122.851 7:6.1169 
0.002906708869427263 1:0.302429 2:0.278229 3:0.455425 4:74.3272 5:69.6105 6:108.573 7:3.8227 
0.001476098156754764 1:0.231888 2:0.230995 3:0.301064 4:83.4736 5:78.3766 6:121.388 7:4.49837 8:1 
0.006174365577042151 1:0.681065 2:0.631767 3:1.01143 4:76.5741 5:70.8038 6:114.34 7:4.99827 8:1 
0.007114480414944987 1:0.216412 2:0.238743 3:0.217735 4:72.7417 5:68.1485 6:106.195 7:3.59041 8:1 
0.008255256371216484 1:0.403076 2:0.401524 3:0.523243 4:82.3985 5:77.4198 6:119.681 7:2.66383 8:1 
0.007114761078703825 1:0.159723 2:0.13403 3:0.330318 4:4.27324 5:3.55934 6:7.41625 7:2.80098 
0.01630288840573552 1:0.201607 2:0.200077 3:0.263783 4:71.3378 5:66.8458 6:104.111 7:12.6839 8:1 
0.01032024023963326 1:0.42765 2:0.410011 3:0.598759 4:77.1511 5:71.6673 6:114.302 7:10.0136 8:1 
0.008447369384988202 1:0.881821 2:0.82534 3:1.28955 4:81.0711 5:76.3678 6:117.22 7:5.00968 8:1 
0.007347780982097306 1:0.0477638 2:0.0617027 3:0.0234985 4:79.7212 5:75.158 6:115.1 7:3.25313 8:1 
0.009193613109550358 1:0.28487 2:0.305172 3:0.31147 4:69.7443 5:65.3466 6:101.802 7:3.85462 8:1 
0.01268501103500211 1:2.35873 2:2.22521 3:3.40142 4:77.7548 5:72.5616 6:114.286 7:5.80362 8:1 
0.003811360766465281 1:0.000258684 2:0.000213861 3:0.000455141 4:4.27092 5:3.53206 6:7.51469 7:0.000412615 8:1 
0.006374942611385692 1:0.0977745 2:0.0879402 3:0.15271 4:79.0748 5:74.6198 6:113.973 7:5.32816 8:1 
0.002355691215975863 1:0.926132 2:0.876236 3:1.32857 4:77.1618 5:72.1082 6:113.142 7:9.24159 8:1 
0.01582041107572851 1:0.35165 2:0.341751 3:0.479794 4:67.4993 5:63.2475 6:98.5132 7:8.50145 8:1 
0.005665804539042363 1:1.1167 2:1.10028 3:1.48275 4:77.0902 5:72.1615 6:112.709 7:3.42484 
0.01594555269176751 1:0.47699 2:0.451017 3:0.685028 4:64.3507 5:60.2825 6:93.9581 7:16.5269 8:1 
0.01572473397262615 1:0.342236 2:0.328133 3:0.479103 4:76.4962 5:71.7024 6:111.576 7:14.7441 8:1 
0.002010329278992208 1:0.303169 2:0.267731 3:0.487045 4:76.8303 5:72.1645 6:111.658 7:5.8092 8:1 
0.003164374889602159 1:0.00286674 2:0.00237155 3:0.00504255 4:4.90214 5:4.05416 6:8.62508 7:0.000480326 
0.007910754537933093 1:0.125912 2:0.127876 3:0.0410802 4:3.50098 5:3.55523 6:1.13392 7:8.35025 
0.01631210299330776 1:0.00103617 2:0.000857115 3:0.00182152 4:4.74749 5:3.92624 6:8.35304 7:81.1924 8:1 
0.01562274924034823 1:0.183861 2:0.159403 3:0.303448 4:60.3635 5:56.4832 6:88.3114 7:8.63203 8:1 
0.009602762606864212 1:0.019989 2:0.0133972 3:0.116825 4:76.8201 5:72.5663 6:110.521 7:2.92089 8:1 
0.01592169627633155 1:0.19076 2:0.207199 3:0.200771 4:56.3647 5:52.6668 6:82.6649 7:13.0305 8:1 
0.0008069134729855043 1:0.143288 2:0.144165 3:0.182083 4:76.1226 5:71.5792 6:110.413 7:2.26347 8:1 
0.00349961828142707 1:0.256924 2:0.27581 3:0.279362 4:74.0042 5:69.9411 6:106.375 7:2.91111 
0.01219590263552595 1:0.762108 2:0.704998 3:1.13711 4:53.3074 5:49.7705 6:78.2888 7:10.7602 
0.007931639849026883 1:1.27757 2:1.23556 3:1.75968 4:75.4677 5:71.0505 6:109.225 7:3.38725 8:1 
0.01372365278259491 1:0.0701218 2:0.0742264 3:0.0790939 4:72.8947 5:68.936 6:104.661 7:6.62612 
0.01683762214328322 1:0.152853 2:0.156633 3:0.18652 4:49.2407 5:45.8862 6:72.5548 7:25.1544 8:1 
0.007063468621673952 1:0.101994 2:0.0923958 3:0.15752 4:74.2889 5:70.0735 6:107.157 7:2.06245 8:1 
0.0162146538463307 1:1.22873 2:1.14151 3:1.82009 4:45.3379 5:42.2113 6:66.9075 7:21.0136 8:1 
0.00562251073699034 1:0.101192 2:0.112061 3:0.100689 4:71.6728 5:67.7821 6:102.902 7:3.20923 
0.01142152422192055 1:0.699497 2:0.666298 3:0.991299 4:40.8077 5:37.9074 6:60.4569 7:13.0546 8:1 
0.01286728371950154 1:1.73495 2:1.70147 3:2.32536 4:35.8235 5:33.1843 6:53.3269 7:12.6167 8:1 
0.004257602922111905 1:0.407307 2:0.389488 3:0.573048 4:69.2018 5:65.4811 6:99.2568 7:2.49891 
0.01578476928320294 1:0.156821 2:0.158378 3:0.197681 4:31.3417 5:28.9309 6:46.933 7:13.9038 8:1 
0.01002342525246254 1:0.912975 2:0.919739 3:1.15715 4:65.2901 5:61.0264 6:95.7006 7:3.81739 8:1 
0.005263561662996343 1:0.236969 2:0.260191 3:0.241814 4:67.7922 5:64.1235 6:97.2999 7:2.88766 8:1 
0.003769522856826972 1:0.0553284 2:0.0379372 3:0.118679 4:71.6411 5:67.8048 6:102.713 7:3.1723 8:1 
0.01613266408338199 1:0.350922 2:0.315095 3:0.549589 4:28.7616 5:26.4839 6:43.2478 7:227.832 8:1 
0.001897505992967008 1:0.0466423 2:0.00292587 3:0.179298 4:64.6324 5:60.492 6:94.5177 7:2.13079 8:1 
