svm_type c_svc
kernel_type rbf
gamma 0.125
nr_class 2
total_sv 1436
rho -0.97986
label 1 0
nr_sv 1110 326
SV
0.0194707707522922 1:1.32218 2:1.37512 3:1.28219 4:10.8389 5:11.0733 6:10.6909 7:67.09 8:1 
0.00126144585677913 1:0.333459 2:0.359562 3:0.291648 4:4.6554 5:4.76953 6:4.75201 7:10.8274 8:1 
1 1:0.0804743 2:0.0710447 3:0.00962505 4:0.302561 5:0.288505 6:0.154801 7:0.10955 8:1 
0.001328178102492306 1:0.96257 2:1.01028 3:0.967478 4:13.5447 5:13.929 6:14.6698 7:21.8625 8:1 
0.0009066990216019917 1:1.07734 2:1.16833 3:1.15666 4:12.1856 5:12.5447 6:13.0581 7:17.9028 8:1 
0.006259276960975391 1:0.0560727 2:0.0695143 3:0.00167894 4:5.23223 5:5.33681 6:5.70329 7:0.0090541 8:1 
0.006810957477063877 1:0.0792131 2:0.0842199 3:0.0535674 4:5.68741 5:5.82052 6:5.56828 7:3.7747 8:1 
0.01083625196154709 1:2.84652 2:2.96878 3:3.03886 4:15.2609 5:15.7168 6:16.063 7:7.2103 8:1 
0.003521955471918798 1:0.295889 2:0.291969 3:0.423778 4:7.74464 5:7.91835 6:7.70648 7:3.27534 8:1 
0.01086826277886699 1:2.04191 2:2.08609 3:2.39905 4:8.62718 5:8.83047 6:9.33245 7:15.381 8:1 
0.01894343229547464 1:1.00924 2:1.09441 3:0.897991 4:6.12506 5:6.31922 6:6.67809 7:35.8622 8:1 
0.004223068552935604 1:0.390894 2:0.419878 3:0.282024 4:9.41303 5:9.7605 6:10.0696 7:14.8674 8:1 
0.0006680251295195818 1:0.400049 2:0.386477 3:0.300544 4:13.1934 5:13.6141 6:13.8504 7:4.01057 8:1 
0.002846637787979273 1:0.259495 2:0.236057 3:0.308946 4:9.17432 5:9.34532 6:10.0699 7:0.233826 8:1 
0.002662104785013109 1:1.77451 2:1.85069 3:1.75277 4:11.8977 5:12.3231 6:12.5947 7:8.9845 8:1 
0.01085834825315787 1:0.19446 2:0.185381 3:0.117103 4:14.128 5:14.6482 6:14.8886 7:5.9448 8:1 
0.007409277782750023 1:1.16537 2:1.22453 3:1.14032 4:16.0405 5:16.6146 6:16.8667 7:1.91022 8:1 
0.006162549265197615 1:0.102455 2:0.118546 3:0.172954 4:15.122 5:15.6548 6:15.8831 7:1.11047 8:1 
0.001537156684311776 1:0.0203915 2:0.0536585 3:0.177432 4:7.42966 5:7.60365 6:8.30055 7:9.17751 8:1 
0.01612644853893639 1:0.227568 2:0.273108 3:0.214678 4:16.6615 5:17.2632 6:17.5397 7:18.5927 8:1 
0.01430886529463127 1:0.136889 2:0.164814 3:0.000880241 4:12.4216 5:12.6881 6:13.8255 7:30.3893 8:1 
0.02036100391082085 1:3.58649 2:3.77446 3:4.09053 4:15.3555 5:15.8561 6:17.4895 7:91.0745 8:1 
0.01374935731759632 1:1.90065 2:1.94042 3:1.92271 4:15.7116 5:16.1131 6:17.2547 7:25.014 8:1 
0.01879055012753341 1:5.20909 2:5.41954 3:5.79898 4:17.6015 5:18.2028 6:20.0489 7:130.349 8:1 
0.01350450176565125 1:1.9352 2:2.01934 3:2.23843 4:16.507 5:16.9653 6:18.1988 7:38.8285 8:1 
0.0163858356774304 1:2.85218 2:3.03956 3:3.20459 4:13.7311 5:14.1003 6:15.3863 7:70.3253 8:1 
0.01437128239191038 1:0.0692062 2:0.00842857 3:0.259716 4:17.8837 5:18.392 6:20.0955 7:72.4187 8:1 
0.01576858751316884 1:1.18784 2:1.27441 3:1.30357 4:18.3329 5:18.9 6:20.6755 7:82.3146 8:1 
0.007665229489186152 1:1.04223 2:1.0449 3:1.14168 4:8.52411 5:8.70297 6:8.57041 7:0.86549 8:1 
0.01089989377091997 1:2.12997 2:2.22959 3:2.40029 4:15.2701 5:15.6954 6:17.0096 7:129.676 8:1 
0.005431271141821186 1:0.30983 2:0.332928 3:0.32155 4:9.16663 5:9.35771 6:9.19743 7:5.3397 8:1 
0.01812813735013913 1:4.58572 2:4.80952 3:5.32497 4:18.7925 5:19.3755 6:21.1916 7:101.459 8:1 
0.01822937892622489 1:0.0324583 2:0.0396891 3:0.115355 4:14.0946 5:14.5219 6:15.7645 7:133.224 8:1 
0.004226670253618109 1:1.50247 2:1.60311 3:1.52053 4:9.61463 5:9.82988 6:9.59139 7:9.76887 8:1 
0.005156165606338329 1:3.4025 2:3.51552 3:3.89568 4:13.9648 5:14.3664 6:15.4643 7:21.615 8:1 
0.006573985849381911 1:1.76378 2:1.79976 3:1.72209 4:11.6672 5:11.9036 6:11.8114 7:12.5113 8:1 
0.01501525243264029 1:4.27676 2:4.41799 3:4.90822 4:14.9379 5:15.3372 6:16.6141 7:45.8557 8:1 
0.01133819576309359 1:0.998629 2:1.03265 3:1.28047 4:16.7623 5:17.23 6:18.6702 7:26.6091 8:1 
0.005232373056958341 1:0.61301 2:0.618823 3:0.53148 4:11.5062 5:11.7606 6:11.7157 7:9.40091 8:1 
0.009489636836595129 1:0.0758524 2:0.136627 3:0.067852 4:10.2221 5:10.3967 6:10.365 7:13.8568 8:1 
0.002384096617176498 1:1.07005 2:1.14385 3:1.31434 4:15.8425 5:16.2986 6:17.1384 7:15.3124 8:1 
0.01470415608371894 1:0.466335 2:0.407009 3:0.229939 4:20.1898 5:20.7828 6:22.5777 7:36.5568 8:1 
0.0152327742227758 1:0.651083 2:0.680706 3:0.911465 4:21.456 5:22.0836 6:23.9365 7:29.3362 8:1 
0.0006067723060639296 1:1.26028 2:1.32452 3:1.49875 4:16.2493 5:16.7058 6:17.5612 7:25.0352 8:1 
0.0009810875314722497 1:1.34259 2:1.35678 3:1.38297 4:9.65716 5:9.86392 6:9.90846 7:7.77773 8:1 
0.02005531108237196 1:4.15005 2:4.34729 3:4.60977 4:17.9417 5:18.4883 6:19.5254 7:49.5439 8:1 
0.01639922305294028 1:1.75403 2:1.79545 3:1.87459 4:22.1327 5:22.7636 6:24.6158 7:86.2501 8:1 
0.01943381902566194 1:6.34219 2:6.58411 3:7.04464 4:21.2601 5:21.9813 6:23.3844 7:112.316 8:1 
0.01591856550408273 1:2.75361 2:2.81486 3:3.07995 4:8.98649 5:9.18192 6:9.2228 7:40.0709 8:1 
0.00510600022660429 1:1.49775 2:1.49333 3:1.65396 4:20.0359 5:20.722 6:22.0228 7:104.793 8:1 
0.01436133264421396 1:0.619682 2:0.538055 3:0.697092 4:21.0785 5:21.6332 6:23.314 7:105.557 8:1 
0.01538821820824261 1:3.46722 2:3.58256 3:3.81911 4:10.8743 5:11.1269 6:11.3259 7:27.208 8:1 
0.01345148868160145 1:0.863319 2:0.904643 3:1.03409 4:8.29291 5:8.46847 6:8.56711 7:29.0778 8:1 
0.01982071920322331 1:2.15438 2:2.20057 3:2.43806 4:21.5293 5:22.2618 6:23.7929 7:169.198 8:1 
0.01747519926461832 1:0.153492 2:0.12863 3:0.116102 4:17.1099 5:17.5864 6:18.859 7:131.223 8:1 
0.02000224400386308 1:0.0233917 2:0.0151997 3:0.0156746 4:17.068 5:17.5736 6:18.7683 7:88.5213 8:1 
0.0129897556576436 1:1.81115 2:1.81852 3:2.05916 4:11.5847 5:11.8858 6:12.4969 7:111.747 8:1 
0.01543061025747311 1:1.47516 2:1.54175 3:1.63257 4:18.5579 5:19.1749 6:20.4876 7:104.165 8:1 
0.01414955533203371 1:9.08085 2:9.40989 3:10.2706 4:21.3627 5:22.0691 6:23.7781 7:165.631 8:1 
0.0196502993655111 1:0.538097 2:0.575367 3:0.774564 4:14.0383 5:14.4476 6:15.424 7:83.7034 8:1 
0.01773695976113796 1:0.0911388 2:0.113503 3:0.168852 4:21.431 5:22.1122 6:24.0826 7:82.4603 8:1 
0.01986893507581362 1:0.360025 2:0.351164 3:0.360216 4:19.6507 5:20.2588 6:21.8258 7:161.379 8:1 
0.01856173576132425 1:0.109325 2:0.140837 3:0.213329 4:12.8296 5:13.2409 6:14.0593 7:129.228 8:1 
0.01517226337294702 1:0.610065 2:0.659176 3:0.871548 4:25.2924 5:26.0988 6:28.374 7:123.082 8:1 
0.01404299571956197 1:2.44652 2:2.58818 3:2.8757 4:18.996 5:19.5281 6:20.9643 7:100.027 8:1 
0.01341980635637485 1:1.40768 2:1.43073 3:1.46333 4:16.2795 5:16.7918 6:18.3371 7:81.2438 8:1 
0.01996314466373476 1:2.20804 2:2.25662 3:2.3028 4:24.7554 5:25.5678 6:27.7193 7:94.4516 8:1 
0.02016918988237681 1:12.7943 2:13.2919 3:14.4794 4:23.4232 5:24.1952 6:26.2763 7:111.314 8:1 
0.01721487609275907 1:10.5558 2:10.8916 3:12.2877 4:18.2578 5:18.8055 6:20.4619 7:136.686 8:1 
0.02003433037968494 1:2.33343 2:2.4352 3:2.9079 4:22.5314 5:23.2243 6:25.2098 7:181.722 8:1 
0.01985830972952261 1:4.27906 2:4.38927 3:5.23101 4:25.0753 5:25.8608 6:28.1835 7:164.426 8:1 
0.01576135133545321 1:2.47772 2:2.60218 3:2.50441 4:25.5344 5:26.3554 6:28.8623 7:122.777 8:1 
0.02058886429070709 1:5.28758 2:5.50073 3:5.98361 4:19.3438 5:19.9188 6:21.4172 7:158.34 8:1 
0.01424479959491293 1:10.1946 2:10.5385 3:11.5684 4:20.9315 5:21.5606 6:23.3811 7:166.669 
0.01972042101588306 1:2.44713 2:2.60118 3:2.90558 4:22.2117 5:22.9496 6:24.9196 7:163.031 8:1 
0.01989286347880226 1:1.61074 2:1.66043 3:1.69339 4:19.9793 5:20.608 6:22.3183 7:137.073 8:1 
0.01998103018729097 1:8.80507 2:8.91864 3:10.0577 4:27.1575 5:27.8868 6:30.5058 7:497.407 
0.01478622975462005 1:0.814137 2:0.935627 3:1.19418 4:20.3541 5:20.9973 6:22.5613 7:97.4161 8:1 
0.01628590997935325 1:3.02335 2:3.18799 3:3.55171 4:22.2472 5:22.9606 6:24.7768 7:45.8639 8:1 
0.01508987072770096 1:2.61578 2:2.68484 3:2.88614 4:8.44823 5:8.64223 6:8.76486 7:44.1695 8:1 
0.01976426230052403 1:3.57606 2:3.63549 3:3.75963 4:20.8908 5:21.5148 6:23.3335 7:89.5191 
0.01165261483105618 1:0.176992 2:0.176276 3:0.198949 4:7.84479 5:8.0174 6:8.13635 7:39.2627 8:1 
0.01248566928453038 1:2.27719 2:2.33919 3:2.56388 4:15.4244 5:15.8968 6:17.0095 7:125.394 8:1 
0.01452239783633485 1:1.08459 2:1.1083 3:0.993203 4:10.8359 5:11.1712 6:11.5922 7:113.305 8:1 
0.01844447657133498 1:2.66043 2:2.77474 3:3.13425 4:13.3602 5:13.7381 6:14.6163 7:76.0364 8:1 
0.0199942001688832 1:1.55532 2:1.54423 3:1.73724 4:16.387 5:16.9244 6:17.9405 7:195.652 8:1 
0.007656242208923802 1:1.08239 2:1.02681 3:1.31052 4:15.4106 5:15.7846 6:16.7936 7:127.964 8:1 
0.01321782187078568 1:1.25595 2:1.32434 3:1.42425 4:19.7563 5:20.3202 6:21.7884 7:72.8469 
0.01845833726463192 1:4.7072 2:4.81621 3:5.44043 4:15.1488 5:15.5123 6:16.6333 7:132.919 8:1 
0.01674387416560612 1:2.37219 2:2.47733 3:2.60232 4:11.9801 5:12.1988 6:12.8963 7:72.3173 8:1 
0.009884038278468843 1:1.86658 2:1.90804 3:2.13906 4:23.0029 5:23.7497 6:25.513 7:26.2081 
0.02008738150926281 1:6.30846 2:6.55862 3:7.1445 4:13.4834 5:13.876 6:14.5618 7:147.273 8:1 
0.01693385315424545 1:2.57342 2:2.59892 3:2.94207 4:23.7548 5:24.5058 6:26.4238 7:70.3784 
0.01987051879886537 1:6.88734 2:7.08447 3:7.74449 4:15.8525 5:16.3141 6:17.516 7:137.938 8:1 
0.01588023757052559 1:0.291695 2:0.319702 3:0.466461 4:21.6051 5:22.2565 6:23.8525 7:44.5057 
0.02007130983698319 1:3.79212 2:3.8275 3:4.51441 4:14.6506 5:14.9527 6:15.8196 7:112.778 8:1 
0.01991868826955384 1:1.72171 2:1.71989 3:1.78367 4:20.1462 5:20.6749 6:22.4 7:152.096 8:1 
0.01882788426839399 1:2.86535 2:3.00732 3:3.19883 4:25.9191 5:26.7462 6:28.8829 7:77.6176 
0.01931714109578858 1:5.99471 2:6.20578 3:7.15928 4:20.5687 5:21.0884 6:22.7471 7:107.343 8:1 
0.01870804645582136 1:0.97064 2:0.963188 3:1.24647 4:23.4674 5:24.139 6:26.2544 7:53.0788 
0.01017720288479898 1:1.42919 2:1.5643 3:1.84752 4:24.4373 5:25.1068 6:27.2734 7:47.3039 8:1 
0.01266585240612357 1:0.311674 2:0.3498 3:0.312954 4:19.398 5:19.9 6:21.2163 7:100.415 8:1 
0.01803404632098366 1:3.62789 2:3.69954 3:4.43221 4:22.6174 5:23.299 6:25.2897 7:82.3344 
0.01246569753669121 1:2.70283 2:2.74772 3:3.18841 4:16.9315 5:17.3842 6:18.3984 7:36.9409 8:1 
0.01601357477003126 1:0.614723 2:0.599583 3:0.645521 4:17.2906 5:17.8356 6:19.1738 7:127.237 8:1 
0.01545550443545018 1:1.62888 2:1.66251 3:1.73223 4:24.8738 5:25.6654 6:27.4304 7:66.692 8:1 
0.02015804415116162 1:9.89984 2:10.3265 3:11.2321 4:19.5187 5:20.1447 6:21.6504 7:157.671 8:1 
0.01950264363356141 1:1.73187 2:1.81318 3:2.09514 4:18.3832 5:18.9523 6:20.4064 7:142.26 8:1 
0.01088184486739148 1:3.11661 2:3.24928 3:3.59373 4:24.7125 5:25.5071 6:27.5176 7:60.853 8:1 
0.01891445675636599 1:1.06201 2:1.08953 3:1.20797 4:23.5434 5:24.2886 6:26.2867 7:119.039 8:1 
0.01389864050904277 1:4.21843 2:4.42967 3:4.81069 4:25.1243 5:25.984 6:27.9767 7:58.6009 8:1 
0.01733630363699485 1:0.0276451 2:0.0420341 3:0.0495834 4:25.9259 5:26.8038 6:28.8269 7:49.4542 8:1 
0.01982021937332177 1:7.38446 2:7.59708 3:8.63191 4:25.1036 5:25.8599 6:27.8352 7:50.9516 8:1 
0.01159896490515526 1:1.45881 2:1.55235 3:1.60196 4:21.1973 5:21.8199 6:23.5438 7:67.0985 8:1 
0.007086209865821261 1:1.37745 2:1.47432 3:1.47541 4:21.8265 5:22.4653 6:24.148 7:74.3092 8:1 
0.02018188976633921 1:2.89761 2:3.01269 3:3.22135 4:29.9143 5:30.9008 6:33.4854 7:87.7243 8:1 
0.01972888670329735 1:0.274059 2:0.296455 3:0.19622 4:26.0556 5:26.7651 6:29.2464 7:55.6977 8:1 
0.007984322400804305 1:1.80418 2:1.87805 3:1.86337 4:21.3353 5:21.8961 6:23.5465 7:72.1856 8:1 
0.0176731285882679 1:0.404869 2:0.395031 3:0.290909 4:25.3572 5:26.1225 6:28.4758 7:70.0764 8:1 
0.01924701895028796 1:0.702511 2:0.745312 3:0.804874 4:26.7514 5:27.6529 6:30.0152 7:91.2851 8:1 
0.01631026040906181 1:3.38025 2:3.48798 3:3.7681 4:24.2403 5:25.0435 6:27.0568 7:112.937 8:1 
0.008212361776939167 1:2.81207 2:2.93266 3:3.22431 4:25.2695 5:25.9928 6:28.5322 7:59.6203 8:1 
0.01993966466987529 1:4.23948 2:4.39141 3:4.93416 4:21.6418 5:22.2595 6:24.5518 7:237.067 
0.01899691956068124 1:4.20874 2:4.32153 3:4.8815 4:18.9868 5:19.5624 6:20.9643 7:65.7036 8:1 
0.01169470299290132 1:2.30893 2:2.35652 3:2.67528 4:24.1831 5:24.8993 6:27.288 7:80.5629 8:1 
0.01587912581152751 1:1.85595 2:1.91254 3:1.77956 4:28.0854 5:29.005 6:31.4542 7:117.622 8:1 
0.01882597771354133 1:3.83368 2:3.96015 3:4.47707 4:23.8484 5:24.5313 6:26.9261 7:117.77 8:1 
0.0154675696016396 1:0.759287 2:0.896408 3:0.687868 4:23.8321 5:24.6414 6:26.851 7:79.8316 8:1 
0.01678365910064894 1:1.36382 2:1.47647 3:1.37345 4:26.9269 5:27.7498 6:30.3547 7:131.561 8:1 
0.0199924543461103 1:186.835 2:193.414 3:229.711 4:555.387 5:574.717 6:678.68 7:231170 
0.01852916156055368 1:1.08603 2:1.09449 3:1.12988 4:31.6804 5:32.6387 6:36.024 7:56.5717 8:1 
0.01574251155340689 1:1.07033 2:1.12891 3:1.01127 4:36.1937 5:37.3171 6:41.0363 7:12.1085 8:1 
0.0200388543605039 1:3.67264 2:3.86829 3:6.29468 4:446.659 5:461.46 6:539.356 7:198633 
0.009784994935626954 1:1.49827 2:1.58143 3:1.73205 4:34.5086 5:35.6245 6:39.1562 7:7.61844 8:1 
0.008591882599906731 1:1.59491 2:1.66219 3:1.73898 4:33.5269 5:34.5167 6:37.9422 7:9.3979 8:1 
0.02006292473661747 1:1.52409 2:1.59521 3:1.52776 4:19.3169 5:19.9395 6:21.1523 7:212.183 
0.01978062577167772 1:1.2424 2:1.25826 3:1.2862 4:33.0979 5:34.3139 6:37.5265 7:48.419 
0.01984013315289185 1:0.417791 2:0.446859 3:0.294113 4:30.1469 5:31.0812 6:33.9807 7:25.0613 8:1 
0.01404755435722006 1:1.6987 2:1.85736 3:1.72669 4:29.0544 5:29.9109 6:32.6419 7:38.0014 8:1 
0.01130106209079058 1:0.229748 2:0.244196 3:0.484341 4:25.1953 5:25.9858 6:28.4246 7:26.3186 8:1 
0.01466238442338536 1:0.40118 2:0.353466 3:0.589886 4:18.3605 5:18.8223 6:19.9907 7:75.8048 8:1 
0.01557784257685724 1:2.29462 2:2.34364 3:2.59638 4:20.3358 5:20.8925 6:22.3339 7:83.7961 8:1 
0.01755533691773067 1:1.36779 2:1.36822 3:1.7351 4:22.5117 5:23.1293 6:24.9025 7:99.0034 8:1 
0.01473438867436255 1:0.764286 2:0.808001 3:0.946972 4:30.0938 5:30.8834 6:33.7955 7:16.1356 
0.01804239595091173 1:1.29363 2:1.34154 3:1.29677 4:23.7043 5:24.3817 6:26.2031 7:111.51 8:1 
0.01367590724790863 1:2.74961 2:2.86058 3:2.90482 4:28.6419 5:29.3922 6:32.1962 7:17.7159 
0.01988229739140485 1:7.38529 2:7.51892 3:8.34464 4:26.0279 5:26.6952 6:29.0996 7:75.0854 8:1 
0.01934609841277651 1:5.3568 2:5.64587 3:6.08388 4:24.8654 5:25.462 6:27.728 7:109.397 8:1 
0.01423955961007124 1:0.155199 2:0.0573444 3:0.206701 4:27.3411 5:28.0515 6:30.7545 7:12.5073 
0.009663565642619446 1:1.94301 2:2.03055 3:2.05999 4:24.989 5:25.6631 6:28.0068 7:14.7765 
0.001176640585008595 1:1.26912 2:1.35021 3:1.49479 4:23.4349 5:24.0844 6:26.389 7:9.74291 
0.01080320630234844 1:0.582294 2:0.629118 3:0.878231 4:21.1748 5:21.649 6:23.4615 7:102.259 8:1 
0.0198448890779882 1:6.81533 2:7.0291 3:7.88626 4:20.3908 5:20.9211 6:22.7572 7:92.3208 8:1 
0.01154054161466864 1:2.94765 2:3.02828 3:3.26223 4:21.8036 5:22.4082 6:24.3834 7:8.94936 
0.01972815914959214 1:4.51428 2:4.62626 3:5.0282 4:18.104 5:18.5071 6:20.1993 7:94.8452 8:1 
0.01680647911865366 1:2.53196 2:2.61009 3:2.79279 4:16.4123 5:16.8284 6:18.187 7:122.484 8:1 
0.01187552703346356 1:0.152184 2:0.052803 3:0.0604439 4:20.444 5:20.9855 6:23.0171 7:11.3738 
0.01960303181107531 1:5.9852 2:6.2264 3:6.95495 4:24.824 5:25.5394 6:27.9644 7:80.526 8:1 
0.02011197019063151 1:3.22446 2:3.3406 3:3.67849 4:25.0505 5:25.7332 6:27.8869 7:151.733 8:1 
0.01729115012503724 1:2.45031 2:2.49682 3:2.63872 4:26.4761 5:27.2163 6:29.7422 7:111.005 8:1 
0.01560171398802239 1:1.10196 2:1.10638 3:1.23654 4:28.2778 5:28.9996 6:31.4663 7:112.97 8:1 
0.01959210518290085 1:0.424532 2:0.439766 3:0.370781 4:24.7982 5:25.521 6:27.9314 7:87.0752 8:1 
0.0184080048596626 1:0.480312 2:0.572857 3:0.373325 4:35.8384 5:37.0673 6:40.3455 7:16.4278 8:1 
0.00481453144149134 1:1.40358 2:1.43531 3:1.33165 4:30.621 5:31.4142 6:34.2752 7:5.93051 8:1 
0.01696897657193747 1:1.15337 2:1.21 3:1.28693 4:28.636 5:29.4676 6:32.2072 7:129.642 8:1 
0.01476587347610275 1:0.232607 2:0.22814 3:0.262787 4:28.9979 5:29.877 6:32.6694 7:116.317 8:1 
0.002599201128740472 1:0.508751 2:0.541965 3:0.719193 4:29.0679 5:29.7861 6:32.6061 7:4.95837 8:1 
0.01908016067673084 1:1.4354 2:1.49395 3:1.53138 4:31.1081 5:31.9677 6:34.947 7:75.2253 8:1 
0.0005413372792711368 1:0.764843 2:0.842159 3:1.01483 4:33.7666 5:34.7067 6:37.9589 7:9.44489 8:1 
0.01123545691458513 1:0.0870781 2:0.0529633 3:0.230621 4:33.4873 5:34.3983 6:37.8209 7:6.201 8:1 
0.01616839213212815 1:0.0793839 2:0.0962753 3:0.0799866 4:36.0186 5:37.2419 6:40.5507 7:8.62632 
0.01209863045481852 1:0.0591755 2:0.105556 3:0.116737 4:31.7446 5:32.5181 6:35.7877 7:10.5974 8:1 
0.01381947649925802 1:3.71313 2:3.91576 3:3.94381 4:25.2221 5:25.9869 6:28.4025 7:12.5393 
0.001717256607933284 1:1.72747 2:1.85636 3:1.89976 4:26.3375 5:27.1875 6:29.5198 7:20.9685 
0.01984582240511285 1:12.2634 2:12.5918 3:13.3268 4:20.9815 5:21.6068 6:23.2713 7:69.1992 
0.01997830240450523 1:5.64182 2:5.92053 3:6.43764 4:24.6922 5:25.4526 6:27.8589 7:174.214 8:1 
0.001507480062817804 1:1.31062 2:1.29329 3:1.51936 4:25.7122 5:26.5184 6:28.711 7:5.95211 
0.008857457631850042 1:0.261013 2:0.29372 3:0.390022 4:25.5285 5:26.3516 6:28.4671 7:3.21464 
0.00458758146797655 1:1.34014 2:1.39013 3:1.659 4:22.1025 5:22.7091 6:24.4908 7:5.61436 
0.02008598768850856 1:24.1698 2:25.13 3:30.769 4:39.5938 5:40.6047 6:46.3119 7:952.425 
0.005913865123797856 1:1.62146 2:1.69945 3:1.69026 4:18.1825 5:18.6972 6:20.517 7:11.5882 
0.008950706504334622 1:1.87241 2:1.94064 3:1.69095 4:18.9255 5:19.4868 6:21.225 7:5.09007 
0.01926088362015449 1:3.83461 2:3.99445 3:4.57322 4:18.1209 5:18.6469 6:20.0128 7:41.1116 
0.009934729279708177 1:1.83412 2:1.89457 3:2.09754 4:18.5443 5:19.0878 6:21.0715 7:2.46377 
0.007051449491878722 1:0.708698 2:0.734108 3:0.763386 4:19.6326 5:20.196 6:22.1598 7:6.50427 
0.01013581474169845 1:1.53296 2:1.58846 3:1.55042 4:7.1384 5:7.29152 6:7.40135 7:22.8066 
0.01088850032850247 1:1.74873 2:1.84879 3:2.13053 4:20.116 5:20.662 6:22.6297 7:33.6813 
0.0186407646586633 1:2.60984 2:2.6609 3:3.1991 4:12.3158 5:12.6559 6:13.373 7:47.0378 
0.018853790030262 1:2.2561 2:2.25368 3:2.45341 4:30.8855 5:31.6669 6:34.3327 7:70.7249 8:1 
0.01866861992601987 1:3.39037 2:3.57414 3:3.81855 4:31.7 5:32.503 6:35.1811 7:55.7116 8:1 
0.01681376404138529 1:0.142448 2:0.14225 3:0.149384 4:33.5639 5:34.4471 6:37.2512 7:13.122 8:1 
0.004268498202409265 1:0.24375 2:0.215492 3:0.32185 4:28.994 5:29.7794 6:32.2928 7:2.05448 8:1 
0.001354876836938024 1:0.674747 2:0.608894 3:0.545254 4:32.2397 5:33.0486 6:35.812 7:11.4951 8:1 
0.005528354343336931 1:0.381969 2:0.420883 3:0.399298 4:28.0975 5:28.8411 6:31.1733 7:4.89627 8:1 
0.009121256660881857 1:0.281492 2:0.273943 3:0.258835 4:31.1592 5:31.9346 6:34.5822 7:7.56335 8:1 
0.004878037563174497 1:0.048521 2:0.0692978 3:0.0898666 4:29.5894 5:30.4608 6:32.9008 7:3.48151 
0.004070745641437876 1:0.0425148 2:0.0632439 3:0.262333 4:27.2759 5:27.9937 6:30.2147 7:3.84051 8:1 
0.007944103034908348 1:1.47344 2:1.58632 3:1.62383 4:30.2211 5:31.0191 6:33.6305 7:4.19644 8:1 
1 
0.00799838187486486 1:1.94666 2:2.00956 3:2.18477 4:26.3268 5:27.0256 6:29.2913 7:2.90342 8:1 
0.002943949945932828 1:0.53507 2:0.509945 3:0.71014 4:26.4515 5:27.0893 6:29.5215 7:8.93764 8:1 
0.001817150417901357 1:1.51223 2:1.58104 3:1.87772 4:26.3537 5:27.0309 6:29.3766 7:1.98332 8:1 
0.01097505651043634 1:2.27925 2:2.41426 3:2.63657 4:22.1578 5:22.6979 6:24.7522 7:37.1852 8:1 
0.01769069240952015 1:5.80928 2:5.97215 3:6.36134 4:19.4508 5:19.9437 6:21.5527 7:28.8713 
0.01123345359836718 1:0.284063 2:0.368893 3:0.423311 4:28.7783 5:29.6193 6:31.8888 7:8.96295 
0.02018476563044518 1:4.78214 2:4.91177 3:5.34737 4:7.84476 5:8.00664 6:8.61295 7:160.099 8:1 
0.009861486133414208 1:1.62099 2:1.66725 3:1.89624 4:27.3334 5:28.099 6:30.0682 7:15.5364 
0.02007581249151341 1:14.9124 2:15.3467 3:16.7063 4:14.5017 5:14.947 6:16.2458 7:283.332 
0.01326148200719829 1:0.180954 2:0.0137482 3:0.17218 4:23.7587 5:24.4001 6:26.0947 7:30.5093 
0.01268990712334371 1:0.369526 2:0.34264 3:0.459 4:23.4431 5:24.1389 6:26.0016 7:40.1892 
0.01460352808736504 1:1.80987 2:1.90954 3:1.96149 4:19.6339 5:20.2078 6:21.7653 7:66.3936 8:1 
0.009205073210298908 1:0.42577 2:0.440416 3:0.364006 4:30.7781 5:31.757 6:34.3747 7:2.4277 
0.003363571437626261 1:0.450104 2:0.454914 3:0.257927 4:19.7031 5:20.2948 6:21.8908 7:2.31068 
0.0007659184079605911 1:0.48115 2:0.512802 3:0.581684 4:14.7687 5:15.2504 6:16.6422 7:0.785256 8:1 
0.004588424688718055 1:2.0125 2:2.1346 3:2.20369 4:21.426 5:22.0376 6:23.7811 7:15.625 
0.008942095402458113 1:0.244404 2:0.213745 3:0.354218 4:22.1077 5:22.7902 6:25.0747 7:9.47729 8:1 
0.003648019362837651 1:0.154463 2:0.151085 3:0.103445 4:28.2739 5:29.1143 6:31.6245 7:9.61091 8:1 
0.008426839737163854 1:0.272955 2:0.286549 3:0.233837 4:26.6533 5:27.4045 6:29.7577 7:7.79712 8:1 
0.00337431476556299 1:0.691023 2:0.695656 3:0.641115 4:24.7652 5:25.4193 6:27.6034 7:6.41373 
0.006908277831714545 1:0.505491 2:0.512974 3:0.707605 4:23.4823 5:24.204 6:26.0123 7:7.92396 
0.01461199999436851 1:5.734 2:5.91279 3:6.40721 4:19.9942 5:20.5257 6:22.2332 7:23.9493 
0.01538484389903261 1:0.6206 2:0.647953 3:0.687428 4:13.3436 5:13.7737 6:14.9843 7:24.1453 8:1 
0.02011302350160965 1:10.5091 2:10.9732 3:11.427 4:22.8975 5:23.5969 6:25.2929 7:327.513 
0.007553973864465491 1:0.382925 2:0.394675 3:0.409981 4:2.83493 5:2.91523 6:3.16702 7:8.57645 
0.00876755090923367 1:0.692444 2:0.786795 3:0.749973 4:19.2797 5:19.8434 6:21.7559 7:1.46761 8:1 
0.01369745923663296 1:3.93576 2:4.08362 3:4.2592 4:15.8233 5:16.3173 6:17.6702 7:129.111 
0.009037520655980624 1:0.325024 2:0.311161 3:0.342482 4:21.7229 5:22.3884 6:24.4114 7:3.47084 
0.005945802775819242 1:0.900717 2:1.00032 3:1.28979 4:20.388 5:20.9302 6:22.8629 7:1.60362 
0.02012283491832989 1:9.89959 2:10.0254 3:10.8504 4:10.7408 5:11.0006 6:11.3768 7:203.947 
0.02012405341170559 1:6.71421 2:6.94844 3:7.49215 4:4.66866 5:4.8137 6:5.28869 7:9630.48 
0.002774106998583178 1:0.280103 2:0.278728 3:0.278232 4:11.7268 5:12.0768 6:13.1432 7:0.738734 8:1 
0.02011702578506669 1:52.1737 2:54.0266 3:64.7568 4:50.216 5:52.0133 6:61.8086 7:10598.8 
0.01336653442206502 1:0.47789 2:0.509399 3:0.254917 4:27.7827 5:28.5895 6:30.8624 7:0.643561 8:1 
0.007658248666198797 1:1.7972 2:1.88599 3:2.16179 4:27.6404 5:28.3682 6:30.5531 7:2.87864 8:1 
0.01357717590118128 1:0.279754 2:0.265728 3:0.349638 4:6.54462 5:6.7556 6:7.28305 7:40.2818 
0.005095221955779491 1:1.76144 2:1.85491 3:2.33767 4:24.7452 5:25.3714 6:27.085 7:11.9081 8:1 
0.002499707905916138 1:1.67118 2:1.74923 3:1.89816 4:22.9529 5:23.5491 6:25.0998 7:21.8865 8:1 
0.0199942001415781 1:11.4965 2:11.7917 3:12.1801 4:8.4396 5:8.61574 6:9.19813 7:101.383 
0.01998055455751557 1:0.874481 2:0.919805 3:0.963392 4:5.48913 5:5.61188 6:6.12058 7:88.7117 8:1 
0.02015484363580056 1:14.1107 2:14.6703 3:17.0408 4:195.45 5:202.297 6:236.674 7:36232.6 
0.01902691042775944 1:3.54202 2:3.64458 3:3.86259 4:10.3619 5:10.5958 6:11.5703 7:62.2783 
1 1:0.043783 2:0.0468408 3:0.0407242 4:0.2604 5:0.23751 6:0.21561 7:0.0146791 8:1 
0.2627367232120335 1:0.0129393 2:0.0174274 3:0.027571 4:0.282663 5:0.253501 6:0.232901 7:0.00871959 8:1 
0.01979194284661417 1:5.08346 2:5.2566 3:5.52745 4:16.736 5:17.0946 6:18.1127 7:55.0631 
0.01997588092088853 1:0.596361 2:0.614273 3:0.792692 4:7.07124 5:7.21141 6:7.76508 7:195.325 
0.02016142584452746 1:5.15363 2:5.2818 3:5.54581 4:280.293 5:290.249 6:339.07 7:132245 
0.003880761879246835 1:3.64857 2:3.76212 3:3.74834 4:10.7886 5:10.9882 6:12.0044 7:9.06357 
0.01930306969722084 1:4.11676 2:4.1818 3:3.90731 4:9.77179 5:9.98241 6:10.9787 7:110.091 
0.006553285263009545 1:1.93115 2:1.97452 3:2.05413 4:6.18848 5:6.30436 6:6.20532 7:20.4798 
0.01747796858888463 1:4.55334 2:4.60183 3:5.00646 4:8.44955 5:8.64273 6:8.95684 7:45.4766 
0.02024105715687147 1:9.20901 2:9.52053 3:9.62249 4:22.8252 5:23.37 6:24.6823 7:471.502 
0.02016065675535222 1:12.3118 2:12.7336 3:13.2933 4:11.8515 5:12.1084 6:12.7878 7:379.567 
0.007497945599673372 1:2.39451 2:2.40885 3:2.52126 4:3.0245 5:3.04949 6:3.26363 7:10.3486 
0.01065672327874734 1:1.49669 2:1.54884 3:1.6689 4:0.748343 5:0.77442 6:0.834452 7:20.8607 
0.01593211776834749 1:3.88277 2:3.98594 3:4.05813 4:13.3183 5:13.6902 6:14.5912 7:28.4206 
0.005086952450809035 1:2.27525 2:2.37631 3:2.3938 4:14.722 5:15.1112 6:16.2834 7:5.36099 8:1 
1 
0.009725302945939318 1:2.19644 2:2.24035 3:2.39392 4:13.6128 5:13.9613 6:15.0448 7:21.8983 
0.01238530631082934 1:0.199444 2:0.187502 3:0.147543 4:15.9731 5:16.4112 6:17.7125 7:4.3861 8:1 
0.01988750834689634 1:10.844 2:11.1937 3:11.9689 4:19.9687 5:20.501 6:22.023 7:61.5964 
0.01575335955190699 1:2.08285 2:2.10443 3:1.93813 4:16.6677 5:17.1294 6:18.2581 7:78.188 
1 
0.01938942570268604 1:4.09425 2:4.2147 3:4.53676 4:5.86639 5:6.02556 6:6.51308 7:65.5262 
0.004954356429890712 1:1.57634 2:1.61907 3:1.68342 4:14.8331 5:15.22 6:16.439 7:2.31978 8:1 
0.01256921112653804 1:2.42497 2:2.50343 3:2.55542 4:8.19293 5:8.36198 6:8.80147 7:63.8255 
0.01746245920990319 1:1.45166 2:1.5484 3:1.36545 4:15.223 5:15.5681 6:17.1411 7:72.2452 8:1 
0.003277717949199158 1:1.27355 2:1.33537 3:1.48331 4:2.61256 5:2.60206 6:2.76757 7:14.8114 
1 7:9.33182e-10 
0.193483295434081 1:1.81994 2:1.88432 3:1.93512 4:0.909969 5:0.942159 6:0.967558 7:6.21365 
0.02015357997538936 1:4.12998 2:4.2545 3:4.88526 4:10.4159 5:10.7146 6:11.9534 7:28231 
1 
1 1:1.26704e-38 2:1.31201e-38 3:1.45343e-38 4:6.33518e-39 5:6.56004e-39 6:7.26713e-39 
0.02015796296095523 1:0.253483 2:0.232215 3:0.204773 4:1.22733 5:1.20291 6:1.27754 7:33016.3 
0.0006316119702466372 1:0.445996 2:0.428675 3:0.432468 4:14.9667 5:15.3752 6:16.6649 7:6.30428 8:1 
0.02015212881978085 1:2.12798 2:2.34272 3:2.75466 4:25.7187 5:26.4432 6:28.8006 7:153338 
0.02019019486595974 1:3.22638 2:3.96991 3:4.7887 4:539.702 5:558.175 6:648.446 7:107022 
0.02017067352513491 1:139.889 2:144.168 3:172.509 4:190.81 5:196.76 6:221.51 7:58700.6 
0.02018031388978986 1:8.95331 2:9.35706 3:10.3597 4:577.044 5:596.423 6:696.431 7:140258 
0.006454980215337813 1:1.18203 2:1.20841 3:1.33633 4:12.5582 5:12.8776 6:14.0512 7:1.63657 8:1 
0.002053937170305047 1:0.176323 2:0.204908 3:0.0754995 4:13.2603 5:13.6037 6:14.7953 7:2.83305 8:1 
0.02006242348874258 1:0.0423851 2:0.114117 3:0.0309944 4:22.7891 5:23.1586 6:23.9711 7:147.386 
1 
0.02018971083110338 7:311.868 
0.005036311318912299 1:1.60202 2:1.64639 3:1.76284 4:5.71982 5:5.81452 6:6.48266 7:13.4886 
0.02013637704615989 1:4.24557 2:4.42525 3:5.12521 4:154.412 5:159.689 6:185.111 7:70645.5 
0.02001262583775032 1:19.9324 2:20.6927 3:24.1637 4:16.2128 5:16.7142 6:19.092 7:483.698 
0.00738505237725906 1:3.04424 2:3.11088 3:3.36504 4:8.22118 5:8.32298 6:9.13875 7:64.5526 
0.002719320330926929 1:0.18609 2:0.173821 3:0.221659 4:7.40707 5:7.47235 6:8.30291 7:4.20602 8:1 
0.009885672081028807 1:2.58613 2:2.66096 3:2.76979 4:8.00257 5:8.08362 6:8.91709 7:8.78531 8:1 
0.0200242159090433 1:0.518924 2:0.538857 3:0.739392 4:9.70571 5:9.87153 6:10.6663 7:120.571 
0.004922929627495401 1:0.261391 2:0.26005 3:0.268568 4:14.6608 5:15.0274 6:16.0248 7:0.785556 8:1 
0.01213523334129313 1:0.57796 2:0.60077 3:0.588137 4:12.3066 5:12.5899 6:13.407 7:41.0971 8:1 
0.02011776459214848 1:5.81059 2:6.00121 3:6.30825 4:6.95282 5:7.12026 6:7.67699 7:53.7364 
0.01994802820598118 1:396.302 2:408.503 3:480.149 4:286.199 5:294.97 6:345.902 7:157244 
0.02005191117032146 1:80.3439 2:82.8326 3:97.7265 4:346.166 5:356.959 6:417.892 7:168372 
0.02014795324130668 1:11.0447 2:11.2418 3:12.0577 4:7.96881 5:8.1085 6:8.57205 7:119.197 
0.01996298339182095 1:140.375 2:145.134 3:166.801 4:422.395 5:436.396 6:508.684 7:101793 
0.02060309456572441 1:9.56674 2:9.885 3:10.5093 4:10.0304 5:10.2774 6:11.1664 7:126.178 
0.02034930282400821 1:267.644 2:277.465 3:321.896 4:193.018 5:199.56 6:229.037 7:63269.2 
0.02063977937446521 1:0.484381 2:0.513586 3:0.391249 4:2.15044 5:2.16548 6:2.19753 7:94.6956 
0.02016700648039821 1:1.18297 2:1.31033 3:0.77066 4:116.815 5:120.633 6:137.55 7:36355.5 
0.01659210551972268 1:10.5468 2:10.7053 3:10.1225 4:19.19 5:19.5773 6:19.1636 7:138.687 
0.01654889688708155 7:30.0992 
0.02018592632473659 1:7.28796 2:7.53041 3:8.23085 4:13.7143 5:14.0495 6:15.3878 7:97.2822 
0.001351014061757194 1:2.57628 2:2.62775 3:2.8989 4:9.90038 5:10.1386 6:11.1481 7:8.08839 
0.006456475294220025 1:0.0652287 2:0.0701213 3:0.0811796 4:3.42927 5:3.47099 6:3.90221 7:12.1541 
0.007728874029608701 1:0.0219779 2:0.0310788 3:0.0270681 4:6.26867 5:6.32769 6:7.12404 7:12.49 8:1 
0.02010491474228149 1:87.4037 2:90.1962 3:106.42 4:119.252 5:123.306 6:144.681 7:16183.8 
0.008711066826323294 1:0.00599861 2:0.00160408 3:0.0232964 4:10.9242 5:11.1681 6:12.3167 7:0.504834 8:1 
0.02015757986870026 1:227.933 2:235.531 3:277.5 4:375.852 5:388.515 6:456.585 7:234344 
0.01290366967946179 1:0.469828 2:0.472157 3:0.739713 4:10.9454 5:11.1361 6:12.0582 7:19.2771 
0.008889431863444184 1:2.00924 2:2.0505 3:2.39687 4:4.24886 5:4.33706 6:4.75412 7:26.7703 
0.02016678126730675 1:15.8742 2:16.2377 3:17.5789 4:8.20214 5:8.39191 6:9.06204 7:181.308 
0.002312128295822558 1:2.65386 2:2.75711 3:2.83268 4:11.0992 5:11.2653 6:12.2894 7:4.38243 8:1 
0.001517427904305546 1:0.605485 2:0.630689 3:0.568566 4:12.2313 5:12.4223 6:13.6025 7:6.63742 8:1 
0.0009224280044426157 1:1.67899 2:1.72272 3:1.76429 4:10.5 5:10.6246 6:11.6575 7:1.87735 8:1 
0.01112267016628728 1:0.211154 2:0.192731 3:0.209902 4:13.8482 5:14.0765 6:15.2731 7:16.7239 8:1 
0.001332992594434637 1:1.31842 2:1.37614 3:1.31174 4:13.6414 5:13.8491 6:15.0809 7:3.56773 8:1 
0.002203284574007219 1:2.82893 2:2.87911 3:3.00248 4:2.66839 5:2.6983 6:2.96013 7:13.6728 
0.0201536668079792 1:268.431 2:277.652 3:327.784 4:136.828 5:141.391 6:166.745 7:135399 
0.01064735446934073 1:0.279722 2:0.313323 3:0.296712 4:9.96309 5:10.1709 6:11.2495 7:28.4236 8:1 
0.01130809859120874 1:0.454406 2:0.438874 3:0.405519 4:5.7237 5:5.77757 6:6.45074 7:17.1361 
0.002221936573074401 1:0.0617881 2:0.0722656 3:0.108579 4:6.51529 5:6.60111 6:7.47813 7:6.85393 8:1 
0.0201521288197809 1:202.808 2:209.769 3:249.117 4:258.211 5:266.965 6:316.382 7:149406 
0.02011702578506658 1:4.06113 2:4.16879 3:4.28691 4:32.3474 5:33.4162 6:36.0827 7:413.23 
0.01997387641693638 1:33.0725 2:34.1871 3:41.1597 4:116.234 5:120.164 6:139.652 7:71613.1 
0.000961186988214513 1:0.114246 2:0.161888 3:0.0666656 4:12.8887 5:13.0632 6:14.3857 7:3.45772 8:1 
0.02000471814717353 1:135.714 2:140.643 3:166.147 4:78.8114 5:81.457 6:95.0804 7:35923.4 
0.02015213740735211 1:0.250463 2:0.258965 3:0.285866 4:1.04405 5:1.05171 6:1.18212 7:44.3425 
0.008733565668599397 1:3.12458 2:3.19837 3:3.28737 4:14.7772 5:14.894 6:16.0762 7:12.9874 8:1 
0.02005445214943408 1:13.0063 2:13.3943 3:13.786 4:19.2248 5:19.6683 6:20.8724 7:192.962 
0.02018885450649527 1:11.4503 2:11.5845 3:12.1598 4:32.4141 5:33.3412 6:38.5843 7:1365.54 
0.01142799599307115 1:3.85545 2:3.96684 3:4.01436 4:4.26945 5:4.37952 6:4.62964 7:26.2801 
0.00633689821647051 1:3.89097 2:3.95294 3:4.07644 4:14.7573 5:14.8538 6:16.044 7:21.209 8:1 
1 1:7.85434e-34 2:8.11042e-34 3:9.93212e-34 4:3.93366e-34 5:4.06193e-34 6:4.97419e-34 8:1 
0.02015332696962946 1:6.55345e-38 2:6.76868e-38 3:8.01569e-38 4:3.27673e-38 5:3.38434e-38 6:4.00784e-38 7:2751.05 
0.02048280477225239 1:28.1817 2:29.1605 3:34.0386 4:14.0908 5:14.5803 6:17.0193 7:1488.09 
0.02047057380627754 1:39.5988 2:40.8883 3:47.3308 4:24.5082 5:25.2443 6:28.8589 7:3311.23 
0.0204125112385265 1:55.5391 2:56.7457 3:66.2036 4:46.6826 5:48.0249 6:55.3863 7:4474.4 
0.0007579133598836359 1:1.41576 2:1.50214 3:1.84392 4:2.27248 5:2.30894 6:2.62776 7:16.3863 
0.004290584807431119 1:2.89592 2:2.96089 3:2.94207 4:12.3627 5:12.4547 6:13.7669 7:9.99428 8:1 
0.02038883317298051 1:0.407288 2:0.426166 3:0.49157 4:0.444479 5:0.452511 6:0.551314 7:145229 
0.005507348155605917 1:0.165853 2:0.204413 3:0.216501 4:11.4992 5:11.5555 6:12.9755 7:6.48469 8:1 
0.009318695235613961 1:2.20881 2:2.25072 3:2.43783 4:13.6037 5:13.6741 6:14.9647 7:15.7662 8:1 
0.000402039268631529 1:0.214452 2:0.212006 3:0.178022 4:11.0257 5:11.1389 6:12.2585 7:7.94455 8:1 
0.01200510380060887 1:0.0457716 2:0.0634146 3:0.0992947 4:14.437 5:14.5373 6:15.8831 7:19.9837 8:1 
0.006582928761409368 1:2.61357 2:2.67008 3:2.73945 4:15.7563 5:15.864 6:17.2614 7:18.7737 8:1 
0.005700228358946624 1:3.78464 2:3.86059 3:3.88765 4:14.6769 5:14.7511 6:16.1958 7:17.7543 8:1 
0.01409758734593182 1:4.88733 2:5.01957 3:5.12025 4:13.0442 5:13.0772 6:14.398 7:25.3291 8:1 
0.005807967371680935 1:3.0312 2:3.11022 3:3.21096 4:9.3984 5:9.46363 6:10.6636 7:11.8169 
0.01233326830853181 1:2.76418 2:2.8229 3:2.71897 4:16.4413 5:16.5556 6:18.1142 7:12.6568 
0.003868937138417081 1:1.20435 2:1.25413 3:1.27332 4:9.79093 5:9.93306 6:11.0282 7:0.868509 8:1 
0.003678689129142756 1:0.340553 2:0.351759 3:0.295621 4:12.2222 5:12.3082 6:13.6701 7:10.234 8:1 
0.00342883850412169 1:0.413176 2:0.40936 3:0.370045 4:14.2745 5:14.3276 6:15.8732 7:8.72923 8:1 
0.006999147168748669 1:0.555657 2:0.596074 3:0.646753 4:7.62985 5:7.79725 6:8.67877 7:11.4041 8:1 
0.009313522199346343 1:1.12 2:1.15154 3:1.14399 4:16.3283 5:16.4115 6:17.9907 7:14.7717 8:1 
0.002591857589961548 1:1.60853 2:1.6009 3:1.45794 4:16.1348 5:16.2421 6:17.862 7:9.56332 8:1 
0.01002544124969374 1:0.319443 2:0.330244 3:0.319851 4:16.8979 5:16.9982 6:18.7239 7:8.54506 8:1 
0.01616712470600452 1:0.401203 2:0.441578 3:0.524981 4:18.6943 5:18.8569 6:20.5842 7:25.9302 8:1 
0.003067891205183582 1:0.88126 2:0.8538 3:0.735579 4:19.7566 5:19.9203 6:21.7638 7:9.41753 8:1 
0.008927738780542401 1:3.33486 2:3.34026 3:3.72295 4:21.646 5:21.846 6:23.868 7:24.4878 8:1 
0.0139682672790655 1:3.11166 2:3.20387 3:3.32537 4:18.777 5:18.9696 6:20.7688 7:9.36205 8:1 
0.005074274352819539 1:1.51342 2:1.61552 3:1.73683 4:19.9707 5:20.1653 6:22.0926 7:13.9784 8:1 
0.003192064306721835 1:0.01089 2:0.0350876 3:0.0950718 4:9.59852 5:9.71361 6:10.8998 7:0.937353 8:1 
0.03360310242343914 1:0.270455 2:0.266902 3:0.274686 4:2.70133 5:2.72321 6:2.99905 7:6.39395 8:1 
0.0007445289744829608 1:0.177632 2:0.179413 3:0.0823002 4:6.81967 5:6.99209 6:7.87186 7:6.41647 8:1 
0.004962503188823571 1:0.0750732 2:0.0681896 3:0.0183897 4:8.9117 5:9.14453 6:10.2521 7:7.11486 8:1 
0.002307439231661952 1:1.54476 2:1.56152 3:1.5439 4:11.4938 5:11.7766 6:13.1142 7:19.656 8:1 
0.009928570063122644 1:3.02823 2:3.09552 3:3.1666 4:10.0719 5:10.3054 6:11.7684 7:4.62879 8:1 
0.009043902064545752 1:3.98376 2:4.09293 3:4.19285 4:10.8829 5:11.1287 6:12.5401 7:10.6395 8:1 
0.01638834061626611 1:0.370274 2:0.349434 3:0.507837 4:19.745 5:19.9224 6:21.8418 7:17.8323 8:1 
0.006682822026871416 1:1.97974 2:2.00198 3:2.23338 4:21.0928 5:21.2717 6:23.2385 7:11.1439 8:1 
0.01688103745135072 1:0.585197 2:0.605272 3:0.807631 4:1.42838 5:1.44046 6:1.75875 7:31.9796 8:1 
0.0196585455039336 1:6.70973 2:6.84805 3:7.26204 4:17.5477 5:17.7008 6:19.4575 7:22.3645 8:1 
0.01182166848294841 1:2.93457 2:3.01924 3:3.41856 4:14.6378 5:14.7409 6:16.3115 7:45.9876 8:1 
0.01447216143078254 1:0.402636 2:0.404128 3:0.424875 4:13.0972 5:13.1755 6:14.4485 7:43.9478 8:1 
0.01214592572008744 1:0.149862 2:0.131034 3:0.405081 4:6.02404 5:6.11503 6:6.9007 7:24.9796 8:1 
0.006754204642929647 1:2.70046 2:2.71945 3:2.99979 4:10.1696 5:10.2507 6:11.3696 7:15.5652 8:1 
0.01523779885132204 1:3.20567 2:3.26079 3:3.41702 4:8.71443 5:8.85624 6:9.93326 7:20.3946 8:1 
0.01005373442644475 1:1.94414 2:1.96919 3:2.15809 4:9.08638 5:9.18604 6:10.3984 7:29.3645 8:1 
0.01628067264071908 1:1.22899 2:1.22045 3:1.31293 4:14.0817 5:14.2765 6:15.6924 7:30.4081 8:1 
0.009890713956745869 1:0.0804672 2:0.145678 3:0.0676336 4:14.1953 5:14.4217 6:15.7866 7:12.1604 8:1 
0.003355882274447053 1:4.25024 2:4.36638 3:4.66144 4:22.4697 5:22.6594 6:24.9273 7:24.7365 8:1 
0.01495505103701045 1:5.95571 2:6.15018 3:6.97106 4:21.6887 5:21.9122 6:24.5321 7:32.4534 8:1 
0.001960638957867198 1:1.60187 2:1.69724 3:2.08519 4:22.9004 5:23.1828 6:26.0583 7:10.441 8:1 
0.004695045495668352 1:1.91223 2:1.97529 3:2.09718 4:11.8731 5:12.1426 6:13.5593 7:5.7847 8:1 
0.002872276232480246 1:1.6027 2:1.61755 3:1.61636 4:4.44006 5:4.46157 6:5.22072 7:14.3917 8:1 
0.00194768056282002 1:1.04432 2:1.08741 3:1.25348 4:10.5646 5:10.7368 6:12.3382 7:16.5653 8:1 
0.01491893277993244 1:1.07897 2:1.05761 3:1.36049 4:10.391 5:10.5295 6:12.0902 7:38.1749 8:1 
0.005842208746811055 1:1.56789 2:1.651 3:1.85843 4:11.9168 5:12.0986 6:13.8973 7:17.5686 8:1 
0.004316316421447082 1:0.334816 2:0.324776 3:0.207144 4:10.1839 5:10.3704 6:11.4846 7:5.49842 8:1 
0.002038246049820138 1:0.932866 2:0.951516 3:0.988974 4:12.4066 5:12.6001 6:14.2762 7:43.529 8:1 
0.01357131316652288 1:0.202616 2:0.178993 3:0.284798 4:9.99668 5:10.1555 6:11.7019 7:31.459 8:1 
0.01215972365257043 1:3.44096 2:3.48976 3:3.90172 4:18.8062 5:19.1422 6:20.9861 7:13.0697 8:1 
0.01263687758355614 1:3.38812 2:3.45769 3:3.6784 4:11.3546 5:11.5243 6:13.1117 7:24.238 8:1 
0.006544875225444613 1:3.12343 2:3.20859 3:3.28463 4:20.3501 5:20.6941 6:22.732 7:33.343 8:1 
0.007374057338170528 1:0.355209 2:0.314873 3:0.381878 4:20.6685 5:20.9977 6:23.0692 7:24.7487 8:1 
0.009310876111233268 1:2.91818 2:3.02081 3:3.17075 4:10.6709 5:10.8331 6:12.1618 7:17.9356 8:1 
0.005027496665769865 1:0.950834 2:0.994505 3:1.14096 4:21.8723 5:22.2084 6:24.4522 7:19.0482 8:1 
0.008437446974112214 1:3.87963 2:4.0622 3:4.7904 4:23.0574 5:23.2742 6:26.0237 7:28.607 8:1 
0.009510124215695555 1:2.12725 2:2.2066 3:2.17417 4:9.99974 5:10.1923 6:11.5902 7:20.9838 8:1 
0.01453231228284829 1:5.55905 2:5.67872 3:6.10218 4:20.1252 5:20.3953 6:22.567 7:33.8265 8:1 
0.01465281929582781 1:2.86829 2:2.90435 3:2.64073 4:24.0699 5:24.345 6:26.987 7:49.4347 8:1 
0.01938163614693799 1:3.59791 2:3.6813 3:3.78095 4:21.5555 5:21.8871 6:24.1692 7:54.9226 8:1 
0.01152850179350328 1:0.117842 2:0.0572662 3:0.155577 4:23.7289 5:23.9287 6:26.3655 7:38.1641 8:1 
0.0030026337467244 1:1.58705 2:1.62524 3:1.85674 4:21.7776 5:22.0963 6:24.578 7:14.3748 8:1 
0.01004692840267946 1:4.99544 2:5.09578 3:5.53336 4:21.0919 5:21.414 6:23.744 7:22.0171 8:1 
0.002679625616770339 1:5.2648 2:5.51986 3:5.75518 4:24.0654 5:24.2669 6:27.0063 7:40.2562 8:1 
0.01561910619138029 1:3.2704 2:3.40031 3:3.91222 4:23.0998 5:23.35 6:26.1716 7:40.891 8:1 
0.009469758267004354 1:1.45701 2:1.46903 3:1.52436 4:22.3887 5:22.7182 6:25.2817 7:35.6783 8:1 
0.004724582905377084 1:0.622898 2:0.686022 3:0.846268 4:23.227 5:23.4668 6:26.1627 7:28.5444 8:1 
0.01965218095721278 1:6.2143 2:6.37039 3:6.88068 4:20.4832 5:20.7655 6:23.2386 7:56.6888 8:1 
0.002217257971318966 1:0.458372 2:0.486782 3:1.2737 4:22.2486 5:22.4619 6:25.6426 7:19.511 8:1 
0.004658077548064132 1:0.672176 2:0.661577 3:0.584116 4:23.9757 5:24.2441 6:27.0597 7:16.4526 8:1 
0.008588700947721762 1:0.154549 2:0.121525 3:0.0250168 4:23.756 5:24.1307 6:26.8454 7:11.9613 8:1 
0.001227917568454094 1:3.34826 2:3.41127 3:3.43995 4:19.1334 5:19.1992 6:21.8411 7:11.7492 8:1 
0.01594923991122682 1:0.256766 2:0.2411 3:0.223482 4:7.82249 5:7.86945 6:9.13875 7:18.1271 8:1 
0.01992042784105915 1:6.99508 2:7.22677 3:8.14602 4:22.4902 5:22.715 6:25.8192 7:45.4806 8:1 
0.00458954060928778 1:0.944733 2:0.947216 3:0.89863 4:21.3637 5:21.5373 6:24.3527 7:15.4587 8:1 
0.007466652090007249 1:1.95615 2:1.99983 3:1.97769 4:8.48068 5:8.54157 6:9.87813 7:4.64335 8:1 
0.01029969477992114 1:3.76853 2:3.84901 3:3.85647 4:9.39259 5:9.4875 6:10.9506 7:7.91617 8:1 
0.005880010696349571 1:3.27997 2:3.32372 3:3.4014 4:9.50369 5:9.61505 6:11.263 7:12.5727 8:1 
0.006534398604816435 1:1.8883 2:1.93856 3:2.13117 4:10.7881 5:11.0135 6:12.5379 7:2.51163 8:1 
0.002441577000024636 1:0.139931 2:0.136446 3:0.0806293 4:8.76544 5:8.87846 6:10.559 7:2.59235 8:1 
0.01036916348402206 1:0.0183992 2:0.0434942 3:0.0765915 4:11.9655 5:12.1575 6:13.3801 7:14.5561 8:1 
0.003297929179502567 1:0.288824 2:0.274875 3:0.328189 4:12.7014 5:12.9858 6:14.5139 7:1.44631 8:1 
0.006298364432841683 1:0.596823 2:0.591669 3:0.52025 4:17.3376 5:17.7451 6:19.6756 7:10.272 8:1 
0.004646830746478349 1:2.39845 2:2.46829 3:2.67004 4:13.6926 5:14.0308 6:15.7544 7:10.6789 8:1 
0.004907462918269914 1:0.0948706 2:0.0884466 3:0.0626278 4:11.6677 5:11.8183 6:13.0998 7:3.71771 8:1 
0.003213691076397319 1:1.20395 2:1.25041 3:1.42184 4:18.839 5:19.273 6:21.3878 7:11.9816 8:1 
0.01505376805423753 1:3.3744 2:3.43877 3:3.51997 4:21.8876 5:22.4103 6:24.7461 7:17.2483 8:1 
0.01246024836471757 1:5.52161 2:5.69971 3:6.19997 4:22.4066 5:22.7739 6:25.4786 7:23.389 8:1 
0.01274014708165028 1:2.15962 2:2.23465 3:2.22847 4:19.5142 5:19.9714 6:22.1484 7:37.1898 8:1 
0.004448419212653487 1:0.129036 2:0.147655 3:0.107935 4:22.9235 5:23.471 6:25.9328 7:4.43882 8:1 
0.006029016149517855 1:2.2405 2:2.27521 3:2.3904 4:21.3872 5:21.6981 6:24.46 7:26.5859 8:1 
0.003364042204753476 1:0.315502 2:0.367346 3:0.245291 4:24.578 5:25.1195 6:27.5214 7:11.0421 8:1 
0.01152471414823869 1:2.43083 2:2.47701 3:2.48784 4:25.1708 5:25.5909 6:28.6281 7:22.2534 8:1 
0.01338282449837708 1:0.427074 2:0.474977 3:0.54738 4:23.4366 5:23.9935 6:26.3585 7:1.98866 8:1 
0.002232424078204787 1:1.61764 2:1.79742 3:2.36791 4:20.3849 5:20.5858 6:23.8404 7:8.71646 8:1 
0.01656047242214898 1:5.47336 2:5.57464 3:5.51838 4:24.1394 5:24.5277 6:27.3691 7:20.3545 8:1 
0.01424415707060581 1:5.42222 2:5.59141 3:5.73894 4:23.3155 5:23.5373 6:26.6283 7:39.354 8:1 
0.01175948580324449 1:2.64843 2:2.65117 3:2.1436 4:22.7897 5:23.0347 6:26.2944 7:20.5839 8:1 
0.006248681097840632 1:0.777939 2:0.796139 3:0.570053 4:24.1276 5:24.5637 6:27.6511 7:15.5309 8:1 
0.005975517361677505 1:0.891649 2:0.949577 3:1.4686 4:22.568 5:22.8174 6:26.2212 7:14.1633 8:1 
0.01223146259044378 1:3.58815 2:3.66138 3:3.77862 4:21.3781 5:21.6582 6:24.759 7:32.8288 8:1 
0.007976477275350724 1:0.371164 2:0.40028 3:0.357832 4:21.0751 5:21.413 6:24.5211 7:22.9161 8:1 
0.00522992924893316 1:3.45534 2:3.72933 3:4.47968 4:22.531 5:22.8535 6:26.3505 7:29.2482 8:1 
0.01842154985512669 1:9.76847 2:10.1108 3:11.8687 4:27.0345 5:27.4744 6:31.6181 7:57.0117 8:1 
0.01257038299346236 1:3.38995 2:3.48448 3:3.50516 4:23.5812 5:24.0077 6:27.1265 7:10.5651 8:1 
0.0186292919513996 1:5.88929 2:6.07481 3:6.82722 4:25.0888 5:25.4883 6:29.0315 7:42.4107 8:1 
0.007739840074475209 1:0.10397 2:0.0874634 3:0.0554008 4:24.9269 5:25.3375 6:28.4884 7:9.07975 8:1 
0.01255612194891548 1:2.38079 2:2.40446 3:2.4452 4:10.8082 5:10.948 6:12.6883 7:40.5513 8:1 
0.008903637256911585 1:3.72447 2:3.81039 3:3.63872 4:26.4268 5:26.9664 6:30.1944 7:17.239 8:1 
0.01726844472645069 1:3.56051 2:3.71522 3:3.84033 4:29.2204 5:29.8012 6:33.7934 7:36.4489 8:1 
0.003952059758703793 1:0.182636 2:0.180938 3:0.130867 4:10.0968 5:10.2185 6:11.9371 7:8.23979 8:1 
0.01085933079068413 1:2.72571 2:2.80923 3:2.56671 4:21.4747 5:21.8467 6:24.8701 7:6.09611 8:1 
0.008070677589124923 1:3.39532 2:3.50322 3:3.54538 4:26.7207 5:27.1525 6:30.7275 7:19.6964 8:1 
0.005214766745270175 1:0.296842 2:0.307371 3:0.292194 4:13.391 5:13.5621 6:14.8734 7:9.52896 8:1 
0.005626324172128788 1:3.64734 2:3.70932 3:3.63112 4:12.7031 5:12.8772 6:14.2093 7:13.7966 8:1 
0.002148699284194 1:2.16584 2:2.22154 3:2.24102 4:10.51 5:10.67 6:12.4981 7:8.87822 8:1 
0.005056876160448376 1:0.120947 2:0.106602 3:0.161158 4:24.6287 5:25.1956 6:27.5063 7:4.85679 8:1 
0.001417426474183858 1:0.787334 2:0.760239 3:0.752749 4:10.4932 5:10.6564 6:12.5199 7:13.1523 8:1 
0.00690762978932602 1:0.513219 2:0.518757 3:0.521493 4:8.941 5:9.06338 6:10.9407 7:11.0309 8:1 
0.0172438627264872 1:5.36 2:5.50437 3:5.51487 4:13.4471 5:13.6289 6:15.0506 7:18.9881 8:1 
0.008034820461710303 1:3.87955 2:3.96165 3:3.97154 4:12.6722 5:12.8338 6:14.282 7:12.5866 8:1 
0.01567483477807718 1:5.28884 2:5.37851 3:5.59285 4:25.4519 5:26.0369 6:28.4415 7:16.8022 8:1 
0.006931628876170992 1:2.5467 2:2.57779 3:2.6227 4:25.2686 5:25.8529 6:28.1716 7:7.38929 8:1 
0.004035055214742032 1:2.17914 2:2.22288 3:2.11494 4:14.8612 5:15.0633 6:16.5513 7:9.64072 8:1 
0.01471609078962166 1:3.13929 2:3.2392 3:3.19607 4:25.2581 5:25.8765 6:28.2239 7:32.4334 8:1 
0.01183868514604163 1:3.19803 2:3.25171 3:3.16649 4:13.2373 5:13.3902 6:14.8829 7:6.41713 8:1 
0.004524329252292741 1:0.931649 2:0.973766 3:1.00953 4:12.2883 5:12.4922 6:14.5369 7:12.2573 8:1 
0.01300491569637426 1:3.79242 2:3.88222 3:3.9229 4:16.2046 5:16.4169 6:17.9265 7:18.7845 8:1 
0.003485757625526668 1:0.581919 2:0.568943 3:0.606695 4:15.8793 5:16.1136 6:17.683 7:12.457 8:1 
0.004988715571512758 1:2.61816 2:2.68219 3:2.6063 4:26.5671 5:27.1451 6:29.3968 7:22.0587 8:1 
0.002395266550528365 1:1.58746 2:1.64136 3:1.6089 4:25.483 5:26.041 6:28.2361 7:5.8478 8:1 
0.005395872733871937 1:0.0593481 2:0.0964546 3:0.0513897 4:15.8866 5:16.0984 6:17.7137 7:10.2305 8:1 
0.01511076166134397 1:3.45835 2:3.59344 3:3.76522 4:26.329 5:26.9196 6:29.0761 7:7.92135 8:1 
0.01618252710011919 1:0.113543 2:0.146643 3:0.159868 4:26.8908 5:27.4835 6:29.7177 7:21.8142 8:1 
0.01808142746850059 1:7.8244 2:7.99757 3:8.97698 4:26.6517 5:27.1197 6:31.1262 7:55.9891 8:1 
0.004403549377603725 1:1.66002 2:1.64798 3:1.50617 4:20.4825 5:20.8458 6:23.8932 7:4.02639 8:1 
0.0201448149381066 1:7.00176 2:7.14811 3:8.20718 4:31.887 5:32.5692 6:37.2983 7:72.421 8:1 
0.01242487162157306 1:2.69101 2:2.79914 3:3.06359 4:19.2729 5:19.6204 6:22.6085 7:16.3546 8:1 
0.01726798220403197 1:0.577866 2:0.606985 3:0.558022 4:28.8248 5:29.3477 6:33.3519 7:35.152 8:1 
0.005583305098543823 1:1.29219 2:1.27461 3:1.04617 4:28.6636 5:29.1212 6:32.6953 7:16.3286 8:1 
0.01406508770207582 1:0.695477 2:0.685013 3:0.748312 4:22.6252 5:23.0566 6:25.9059 7:67.3245 8:1 
0.01731114696202416 1:1.70545 2:1.7819 3:1.43137 4:26.0371 5:26.4424 6:30.0066 7:45.8691 8:1 
0.01222091938456221 1:4.2466 2:4.35503 3:4.46656 4:20.4132 5:20.8298 6:23.7789 7:27.1437 8:1 
0.008704156550303307 1:1.45435 2:1.49011 3:1.31025 4:24.8853 5:25.2051 6:29.044 7:26.4836 8:1 
0.001358874305253071 1:1.73795 2:1.76653 3:2.0678 4:19.5828 5:19.9727 6:22.8798 7:17.3814 8:1 
0.01852140477450325 1:1.6225 2:1.66508 3:2.19011 4:27.1068 5:27.5358 6:31.4012 7:28.3445 8:1 
0.01486532438936922 1:1.50494 2:1.50864 3:1.80873 4:20.3813 5:20.7596 6:23.7337 7:46.201 8:1 
0.01073281320970356 1:4.09347 2:4.11383 3:4.069 4:32.2542 5:32.846 6:36.8534 7:31.6559 8:1 
0.01777693832183198 1:3.09398 2:3.14579 3:3.60719 4:30.6697 5:31.1827 6:34.9923 7:13.2 8:1 
0.006646047648853022 1:0.437021 2:0.431915 3:0.368204 4:20.2132 5:20.6165 6:23.508 7:8.10445 8:1 
0.02010608743986585 1:1.50905 2:1.50174 3:1.04476 4:31.4809 5:32.1058 6:36.1761 7:63.4725 8:1 
0.01118437379287625 1:1.00384 2:1.14116 3:2.02299 4:21.9001 5:22.3673 6:25.6861 7:73.4369 8:1 
0.01988769999020835 1:1.11377 2:1.05329 3:0.9161 4:29.8008 5:30.3778 6:34.4737 7:48.387 8:1 
0.01989870099905651 1:7.05732 2:7.18141 3:7.23358 4:20.3821 5:20.7877 6:23.8285 7:74.7155 8:1 
0.0201981385509763 1:7.55237 2:7.73305 3:9.21941 4:39.5854 5:40.5272 6:45.681 7:61.1831 8:1 
0.01012213517927427 1:0.332212 2:0.329412 3:0.262894 4:22.5523 5:23.015 6:26.2849 7:17.9287 8:1 
0.01146164637820214 1:3.3373 2:3.43392 3:4.13957 4:32.5556 5:33.1977 6:37.4953 7:31.7323 8:1 
0.02008309818968551 1:6.43476 2:6.6074 3:7.82142 4:36.6154 5:37.2606 6:42.4095 7:192.141 8:1 
0.02011744216670008 1:4.32962 2:4.39651 3:1.39792 4:9.75101 5:9.90197 6:3.15508 7:39.4999 
0.02018951419679255 1:190.091 2:200 3:217.751 4:95.0456 5:100 6:108.875 7:70000 8:1 
0.02018342836717685 1:4.45016 2:4.5695 3:2.57132 4:8.4363 5:8.61665 6:3.84548 7:243.62 
0.0081388356790143 1:1.35149 2:1.38557 3:0.732342 4:14.8076 5:15.0818 6:5.79853 7:12.5146 
0.01635055631119803 1:0.268771 2:0.272923 3:0.0867734 4:5.89514 5:5.98626 6:1.90423 7:9.28581 
1 1:0.0399009 2:0.0405174 3:0.0128828 4:0.0199504 5:0.0202587 6:0.00644141 7:0.0028729 
0.0106643718252451 1:0.0774584 2:0.0787234 3:0.0265405 4:6.13273 5:6.22801 6:1.99181 7:0.0775954 
0.008405762924256146 1:0.656483 2:0.66863 3:0.25693 4:10.9424 5:11.1146 6:3.60304 7:4.02942 
0.0201879629360448 1:18.0246 2:18.3633 3:7.17089 4:13.9592 5:14.2051 6:5.18418 7:1432.42 
0.02040370925891444 1:4.57936 2:4.65889 3:1.6754 4:14.4559 5:14.7632 6:6.54989 7:120.241 
0.01034447106068452 1:0.10556 2:0.107233 3:0.0350084 4:14.9041 5:15.1347 6:4.81969 7:0.32066 
0.006494724461054091 1:0.554222 2:0.562872 3:0.180857 4:12.9449 5:13.1457 6:4.19747 7:0.925206 
0.004330043955787963 1:0.570945 2:0.579816 3:0.185488 4:9.45667 5:9.60367 6:3.07346 7:1.47362 
0.01998442937025285 1:0.353455 2:0.345192 3:0.193714 4:69.6748 5:71.2695 6:34.1193 7:20.9457 
0.01992641840626874 1:1.96848 2:2.0387 3:1.5282 4:65.2289 5:66.844 6:34.6835 7:24.3479 
0.01771638224604433 1:2.69825 2:2.80574 3:2.34724 4:63.2244 5:64.8711 6:35.44 7:16.2294 
0.01733678238857222 1:2.21952 2:2.30495 3:1.86374 4:60.7624 5:62.4145 6:35.6188 7:15.0394 8:1 
0.01976187776867733 1:1.48211 2:1.51731 3:0.754322 4:56.9956 5:58.5733 6:34.0402 7:8.65345 
0.01836739886039359 1:1.17196 2:1.21866 3:1.01963 4:53.6768 5:55.1852 6:32.5628 7:11.0174 
0.01996363548860008 1:0.515816 2:0.537582 3:0.476007 4:48.6137 5:49.9625 6:29.1024 7:4.4169 
0.02004116487654489 1:1.1654 2:1.2148 3:1.08035 4:44.5189 5:45.75 6:26.5591 7:2.02315 
0.02049717459740114 1:0.192158 2:0.208572 3:0.363605 4:40.5454 5:41.6403 6:23.5965 7:2.98896 8:1 
0.01206139105261977 1:0.0854836 2:0.0946274 3:0.203117 4:34.0305 5:34.908 6:18.8757 7:1.33565 
0.01442730897398192 1:2.07852 2:2.11083 3:0.67545 4:6.56023 5:6.66169 6:2.12044 7:4.22817 
0.02017477131974027 1:0.276031 2:0.282413 3:0.136408 4:36.7305 5:37.7017 6:20.9139 7:222.356 
0.01137571386085373 1:0.66811 2:0.692802 3:0.53801 4:32.2516 5:33.081 6:17.8412 7:2.67988 
0.006308329788356382 1:0.208536 2:0.218063 3:0.208693 4:29.9801 5:30.7391 6:16.3129 7:2.86294 8:1 
0.01107865319083115 1:0.637857 2:0.65329 3:0.331011 4:28.2997 5:29.0045 6:15.139 7:1.71883 
0.003053420422798492 1:0.0179338 2:0.0182114 3:0.00580263 4:6.26715 5:6.364 6:2.02393 7:0.0545569 8:1 
0.007953860233851246 1:0.102422 2:0.104006 3:0.0331124 4:5.90301 5:5.99422 6:1.90617 7:4.83155 
0.005477823286238742 1:0.237385 2:0.24576 3:0.182295 4:27.0494 5:27.7171 6:14.3345 7:2.22052 8:1 
0.01102487726525972 1:0.525589 2:0.549059 3:0.514011 4:25.1359 5:25.7435 6:13.0351 7:1.04503 
0.0090732062262712 1:0.0116768 2:0.00918388 3:0.0562191 4:22.6587 5:23.1927 6:11.442 7:1.28612 
0.009365285726451567 1:0.70602 2:0.727541 3:0.465993 4:20.4529 5:20.9194 6:9.97839 7:3.17499 8:1 
0.02016958584953427 1:0.30864 2:0.267612 3:0.927437 4:42.1353 5:43.1919 6:22.6998 7:1811.77 
0.01450508143704776 1:0.21171 2:0.220633 3:0.195144 4:16.8419 5:17.1902 6:7.41339 7:7.81168 
0.02016260161790701 1:11.0378 2:11.5254 3:10.6769 4:10.2815 5:10.6418 6:7.83766 7:472.579 
0.01965815893741668 1:1.57832 2:1.65698 3:1.72722 4:80.4832 5:82.8493 6:51.1656 7:10.829 8:1 
0.01359791091380673 1:1.04331 2:1.08421 3:0.892772 4:16.0253 5:16.3399 6:6.67769 7:12.6885 
0.02018638361102792 1:0.503426 2:0.536659 3:0.733471 4:68.7291 5:70.8527 6:46.0063 7:25.5794 
0.02003003885346299 1:1.49156 2:1.53874 3:1.02325 4:60.2315 5:62.0897 6:40.2526 7:5.82592 
0.01461232294766586 1:0.45363 2:0.468274 3:0.317739 4:14.9332 5:15.2092 6:5.83802 7:8.18007 
0.01893361224664529 1:0.158054 2:0.144684 3:0.303604 4:51.4877 5:53.0516 6:33.8589 7:8.05474 
0.0199620940493353 1:1.08014 2:1.12533 3:0.988024 4:44.0501 5:45.3612 6:28.3646 7:14.4114 
0.0203266616502904 1:0.288422 2:0.292973 3:0.095192 4:36.6787 5:37.7522 6:23.2117 7:357.826 
0.01276699788736069 1:0.0731168 2:0.068418 3:0.0679617 4:5.3499 5:4.54772 6:8.47347 7:9.95116 
0.01024496767382621 1:0.165302 2:0.178577 3:0.29384 4:32.8453 5:33.7763 6:20.1049 7:2.39956 8:1 
0.01288723523931862 1:0.628981 2:0.648994 3:0.434063 4:29.0357 5:29.8289 6:17.1027 7:3.9799 8:1 
0.002072935988008562 1:0.00130272 2:0.00132751 3:0.000540257 4:13.7186 5:13.9397 6:4.63486 7:0.00287978 8:1 
0.008121482040479085 1:0.134796 2:0.135525 3:0.0131073 4:25.6417 5:26.3134 6:14.4597 7:2.03313 8:1 
0.01098776561654487 1:0.148155 2:0.1528 3:0.100708 4:23.065 5:23.6437 6:12.4341 7:2.75115 8:1 
0.02015317428898183 1:6.45078 2:6.71456 3:5.76385 4:27.7779 5:28.6587 6:19.0972 7:735.282 
0.01241310054616404 1:0.163471 2:0.167595 3:0.0887117 4:20.2437 5:20.7213 6:10.2336 7:0.980475 8:1 
0.0005790068945963464 1:0.0920792 2:0.093708 3:0.034359 4:11.8686 5:12.0553 6:3.90654 7:1.50609 
0.0145207533060206 1:0.261372 2:0.271944 3:0.230915 4:18.4716 5:18.8805 6:8.73253 7:4.25466 
0.02016600755886033 1:0.00430202 2:0.00438118 3:0.00164557 4:12.4799 5:12.6775 6:4.13692 7:178.574 
0.01578177342250327 1:0.172447 2:0.179098 3:0.145102 4:16.1702 5:16.5083 6:7.19964 7:1.32168 8:1 
0.00138887086163762 1:0.187047 2:0.192936 3:0.127662 4:14.4745 5:14.7486 6:5.80388 7:0.304713 8:1 
0.008991581081744644 1:0.00192738 2:0.00162888 3:0.00330544 4:10.2465 5:8.47473 6:18.0265 7:0.0501969 
0.001462598529126016 1:0.126612 2:0.130104 3:0.0753407 4:13.2468 5:13.4779 6:4.87065 7:0.0660058 8:1 
0.01892360465516028 1:0.092288 2:0.094512 3:0.0477123 4:12.8025 5:13.0152 6:4.46677 7:14.156 8:1 
0.01838588753327679 1:0.0758719 2:0.0626087 3:0.133874 4:7.63646 5:6.31692 6:13.4321 7:8.36005 8:1 
0.02022941573169934 1:0.00565338 2:0.00575733 3:0.0021925 4:12.4172 5:12.6154 6:4.1534 7:39.7877 
0.02000151384404414 1:0.711899 2:0.584564 3:1.26395 4:55.6023 5:47.536 6:93.5968 7:29.22 8:1 
0.01923744665432658 1:1.42688 2:1.31227 3:2.14995 4:58.6316 5:50.5155 6:97.6336 7:28.1621 8:1 
0.01922912482857791 1:1.50713 2:1.38568 3:2.2719 4:61.2931 5:53.153 6:101.126 7:28.3616 8:1 
0.02018872276032713 1:0.405853 2:0.535572 3:0.168839 4:65.629 5:57.3847 6:106.994 7:24.1628 8:1 
0.0197698916024963 1:2.2674 2:2.13848 3:3.27126 4:70.7153 5:62.4057 6:113.721 7:13.6391 8:1 
0.01143660572833499 1:0.0431185 2:0.0438013 3:0.014292 4:8.57598 5:8.70889 6:2.77827 7:0.0406261 8:1 
0.003462826932703484 1:0.0536861 2:0.0545192 3:0.0174038 4:6.57758 5:6.67925 6:2.1246 7:3.30764 
0.005676784047222992 1:0.00779152 2:0.00792599 3:0.00282764 4:10.2185 5:10.3782 6:3.34068 7:0.0289491 
0.01393350486125006 1:0.00867462 2:0.00882626 3:0.00320578 4:10.3257 5:10.4873 6:3.38061 7:5.72531 
0.01969781496496709 1:1.03487 2:0.951332 3:1.56035 4:71.7925 5:63.5028 6:115.054 7:18.7455 8:1 
0.02016649654509889 1:1.11439 2:1.0826 3:1.52164 4:76.9096 5:68.6752 6:121.492 7:56.2457 8:1 
0.02008308064312953 1:1.65475 2:1.59417 3:2.29605 4:79.2687 5:71.1281 6:124.274 7:14.3626 8:1 
0.02015184053143833 1:1.11664 2:1.0403 3:1.64609 4:79.735 5:71.8243 6:124.248 7:4.98184 
0.02008646557282456 1:1.68148 2:1.62777 3:2.31171 4:81.9288 5:74.1355 6:126.752 7:64.3561 8:1 
0.02011359735142149 1:0.439758 2:0.452332 3:0.531967 4:83.8737 5:76.3074 6:128.638 7:15.6386 8:1 
0.01857914953200462 1:1.22531 2:1.19014 3:1.67373 4:83.7115 5:76.2608 6:128.113 7:6.71767 8:1 
0.01454848843190681 1:2.42105 2:2.36662 3:3.26601 4:86.3452 5:79.0648 6:131.041 7:6.7823 8:1 
0.0051333774686802 1:0.853027 2:0.778625 3:1.30135 4:85.8981 5:78.8339 6:129.875 7:7.25957 8:1 
0.01885372503366178 1:1.48363 2:1.38587 3:2.17709 4:87.7275 5:80.8588 6:131.698 7:13.7636 8:1 
0.01397609034674152 1:0.558228 2:0.533859 3:0.785278 4:87.8494 5:81.1355 6:131.432 7:7.49353 8:1 
0.01281407501451032 1:0.814545 2:0.853249 3:0.943222 4:87.0146 5:80.5212 6:129.756 7:10.4203 8:1 
0.01179104089023753 1:1.47619 2:1.45023 3:1.97165 4:86.8931 5:80.6233 6:128.99 7:3.29202 8:1 
0.00949982635416945 1:0.0141973 2:0.0144501 3:0.0053122 4:11.8066 5:11.9927 6:3.89449 7:0.00597523 8:1 
0.0158880627786363 1:0.18541 2:0.252838 3:0.054863 4:86.7826 5:80.8286 6:127.986 7:1.94726 8:1 
0.01168223065922547 1:1.87835 2:1.86866 3:2.44513 4:86.8659 5:81.1183 6:127.53 7:7.16093 8:1 
0.01161100819573813 1:0.467758 2:0.378357 3:0.846161 4:85.8156 5:80.2343 6:125.725 7:6.10898 8:1 
0.02016125415412034 1:1.35899 2:1.32776 3:1.83515 4:85.4208 5:80.039 6:124.672 7:21.8154 
0.01644589963109659 1:0.932861 2:0.938286 3:1.18642 4:84.5884 5:79.3309 6:123.261 7:7.48413 
0.01492673361069998 1:0.177094 2:0.243179 3:0.0477905 4:83.3576 5:78.2611 6:121.237 7:3.43601 8:1 
0.003221449665807286 1:0.625763 2:0.577095 3:0.938499 4:82.1969 5:77.219 6:119.419 7:3.31836 8:1 
0.01334001484964194 1:1.12084 2:0.926695 3:1.98489 4:4.3531 5:3.62635 6:7.58141 7:4.13136 
0.01107290639540964 1:0.222496 2:0.238579 3:0.242661 4:81.9298 5:77.113 6:118.636 7:3.54157 8:1 
0.01554324849668193 1:0.239609 2:0.219009 3:0.364662 4:80.6301 5:75.9551 6:116.576 7:6.45956 8:1 
0.004214541525482373 1:0.162605 2:0.183678 3:0.151886 4:79.7451 5:75.1888 6:115.112 7:4.46248 8:1 
0.01075039445163529 1:0.254784 2:0.253685 3:0.331085 4:79.0259 5:74.5759 6:113.896 7:4.52367 8:1 
0.009859490367514562 1:0.00150728 2:0.00124621 3:0.00265026 4:4.16159 5:3.44162 6:7.32234 7:0.00281709 8:1 
0.008527827969929931 1:0.477837 2:0.48307 3:0.60099 4:77.8035 5:73.4677 6:112.011 7:3.39823 8:1 
0.003085235153293881 1:0.00383759 2:0.00317454 3:0.00675011 4:4.81113 5:3.97888 6:8.46499 7:0.000536494 
0.02012267259524353 1:0.0108366 2:0.00896358 3:0.019062 4:4.74801 5:3.92667 6:8.35395 7:122.684 8:1 
0.01148932042107185 1:0.202301 2:0.213501 3:0.229927 4:76.8101 5:72.573 6:110.462 7:3.53197 8:1 
0.01330538017752216 1:0.878067 2:0.880295 3:1.12457 4:75.2055 5:71.0648 6:108.133 7:4.32319 8:1 
0.01628225491775673 1:0.922035 2:0.950104 3:1.11074 4:74.1327 5:70.079 6:106.514 7:1.87192 
0.0196741828377085 1:0.0833435 2:0.0224304 3:0.273468 4:72.8596 5:68.8988 6:104.622 7:9.82958 
0.0151094861965911 1:1.06977 2:1.05949 3:1.40557 4:71.6222 5:67.7261 6:102.852 7:2.46159 
0.01066113041924838 1:0.179123 2:0.173889 3:0.244926 4:70.6317 5:66.8074 6:101.381 7:0.964681 
0.01275275025007427 1:0.700218 2:0.681 3:0.954063 4:69.4054 5:65.6758 6:99.5433 7:2.00925 
0.01234902901783907 1:0.617912 2:0.58139 3:0.895271 4:65.7465 5:61.4863 6:96.2792 7:4.04584 8:1 
0.01074170799766611 1:0.732574 2:0.721096 3:0.974655 4:67.6737 5:63.9934 6:97.179 7:2.41977 8:1 
0.00633784223908505 1:0.0577927 2:0.0814819 3:0.00979614 4:64.6091 5:60.4905 6:94.4281 7:1.44422 8:1 
0.01027024699079643 1:0.329079 2:0.294891 3:0.516998 4:66.6774 5:63.0655 6:95.7097 7:1.24372 
0.006963108642845734 1:0.0381699 2:0.0686569 3:0.0339966 4:64.4386 5:60.9394 6:92.5196 7:1.65792 8:1 
0.001243376969567001 1:0.137455 2:0.111473 3:0.247856 4:63.7588 5:59.8602 6:92.733 7:2.92467 8:1 
0.007796861726016389 1:1.33146 2:1.26893 3:1.88506 4:62.9211 5:59.4863 6:90.3897 7:1.82213 8:1 
0.00967229568567568 1:1.65092 2:1.60168 3:2.26015 4:64.8383 5:60.9974 6:93.9658 7:1.82968 8:1 
0.007735062971877607 1:0.00158978 2:0.00131559 3:0.00279617 4:6.00565 5:4.96707 6:10.5659 7:0.000349027 
0.007423848457418503 1:0.00480747 2:0.00397778 3:0.00845337 4:5.85423 5:4.84179 6:10.2996 7:1.67234 8:1 
0.005478653808301986 1:0.387032 2:0.333107 3:0.645454 4:60.8288 5:57.5004 6:87.4053 7:1.87245 8:1 
0.01944323967515005 1:0.588806 2:0.53056 3:0.917053 4:55.5193 5:52.4345 6:79.904 7:8.32079 8:1 
0.0193203602335702 1:1.05381 2:1.03842 3:1.39894 4:52.9892 5:50.0011 6:76.3823 7:9.33406 8:1 
0.008267243094153442 1:1.0986 2:1.06199 3:1.51452 4:63.8827 5:60.1138 6:92.5393 7:3.73602 8:1 
0.01940208250110426 1:0.707825 2:0.697887 3:0.93856 4:49.1028 5:46.2601 6:70.9813 7:6.21899 8:1 
0.001461374813353622 1:0.343608 2:0.306908 3:0.542546 4:6.90161 5:5.71974 6:12.1103 7:0.16604 8:1 
0.005785670954907076 1:0.877689 2:0.846371 3:1.21559 4:62.7862 5:59.1626 6:90.7309 7:0.927381 8:1 
0.0201779967829715 1:1.45655 2:1.3699 3:2.1119 4:45.3784 5:42.6986 6:65.7412 7:68.5396 8:1 
0.008555065856569753 1:0.0911789 2:0.0801163 3:0.14756 4:61.6187 5:58.1499 6:88.8053 7:1.3634 8:1 
0.01956818687230205 1:2.60318 2:2.50455 3:3.62107 4:41.9734 5:39.4113 6:61.0356 7:19.5371 8:1 
0.004621565864402252 1:0.438019 2:0.442013 3:0.553146 4:60.7371 5:57.3266 6:87.5112 7:0.519227 8:1 
0.0196874740146778 1:1.10998 2:1.03859 3:1.62401 4:60.5937 5:57.2271 6:87.2066 7:820.184 
0.01971964867884962 1:0.552696 2:0.526413 3:0.783394 4:40.6055 5:38.0849 6:59.1611 7:16.6972 8:1 
0.01996039182302989 1:0.136108 2:0.129139 3:0.194286 4:37.8341 5:35.3909 6:55.3815 7:25.0351 8:1 
0.002585748256150482 1:0.397915 2:0.370708 3:0.586571 4:60.104 5:56.788 6:86.4383 7:0.476905 8:1 
0.02015967480274439 1:2.93209 2:2.82775 3:4.06014 4:33.7368 5:31.4546 6:49.6662 7:16.7305 8:1 
0.006680640803600124 1:0.072731 2:0.0730209 3:0.092865 4:59.3384 5:56.0546 6:85.3642 7:0.702057 8:1 
0.007364310566164304 1:0.434185 2:0.405209 3:0.6381 4:58.6892 5:55.4577 6:84.3858 7:1.56124 8:1 
0.008838470909687146 1:0.177601 2:0.183548 3:0.212494 4:57.9081 5:54.7266 6:83.2438 7:0.559462 
0.01124944006895739 1:0.573608 2:0.5096 3:0.913185 4:29.8305 5:27.6571 6:44.3395 7:11.5661 8:1 
0.004565443640604922 1:0.320379 2:0.310013 3:0.440834 4:26.3026 5:24.2449 6:39.4812 7:7.1809 8:1 
0.004909012860400318 1:0.439007 2:0.436619 3:0.571793 4:57.0606 5:53.9364 6:81.9961 7:1.04906 8:1 
0.01157411154644863 1:0.268955 2:0.243036 3:0.417011 4:24.9329 5:22.9292 6:37.57 7:4.37731 8:1 
0.004483115194302849 1:0.306599 2:0.266613 3:0.503856 4:7.8827 5:6.57636 6:13.7131 7:0.339196 8:1 
0.003798486519618671 1:0.00714397 2:0.00591278 3:0.0125551 4:7.26936 5:6.01287 6:12.7874 7:0.000761302 8:1 
0.008837745183305261 1:0.595222 2:0.530568 3:0.942785 4:9.81431 5:8.27395 6:16.8387 7:1.52057 8:1 
0.0007992066969398733 1:0.00931263 2:0.00770903 3:0.016366 4:7.34066 5:6.07188 6:12.9127 7:0.000328769 8:1 
0.002079655752529497 1:0.00455189 2:0.00376749 3:0.00799656 4:7.43617 5:6.15094 6:13.0806 7:0.000591453 8:1 
0.01041198676351851 1:0.45607 2:0.448538 3:0.607815 4:24.1357 5:22.133 6:36.5409 7:7.1124 8:1 
0.0139122230971308 1:0.0509987 2:0.0233383 3:0.141106 4:22.7521 5:20.7925 6:34.642 7:8.04653 
0.008075546330058735 1:0.944962 2:0.850801 3:1.47362 4:11.5921 5:9.83001 6:19.7324 7:0.54885 
0.00827852355269517 1:0.0220032 2:0.0309639 3:0.00392914 4:56.2387 5:53.1537 6:80.8309 7:0.591309 8:1 
0.007966919539596443 1:0.730484 2:0.687685 3:1.05736 4:21.3296 5:19.3995 6:32.7297 7:8.46335 8:1 
0.007825258131409378 1:0.327255 2:0.327904 3:0.419609 4:55.4973 5:52.4405 6:79.7992 7:1.12158 8:1 
0.0201330752495934 1:0.0967026 2:0.096611 3:0.124771 4:20.3042 5:18.4037 6:31.3288 7:48.8055 8:1 
0.009953087917994281 1:1.18397 2:1.11454 3:1.71393 4:18.8318 5:16.9603 6:29.3533 7:5.41997 8:1 
0.008911268507583281 1:0.0699921 2:0.0679741 3:0.0956116 4:54.0684 5:51.0692 6:77.8021 7:0.467844 8:1 
0.007933677554918306 1:0.773552 2:0.728836 3:1.11802 4:53.6492 5:50.6683 6:77.2124 7:0.527571 8:1 
0.01122409746040355 1:0.110916 2:0.0940971 3:0.188694 4:18.5865 5:16.6885 6:29.1098 7:6.50051 8:1 
0.003774118995340571 1:0.581919 2:0.554071 3:0.825275 4:19.4466 5:17.4709 6:30.4291 7:8.2442 8:1 
0.007919961759630945 1:0.360714 2:0.347919 3:0.499367 4:52.438 5:49.5054 6:75.5213 7:1.02439 8:1 
0.01337485889968944 1:0.355925 2:0.330399 3:0.527924 4:19.4014 5:17.431 6:30.3566 7:1.80929 8:1 
0.002913021582320016 1:0.0149498 2:0.0100784 3:0.0325317 4:51.8032 5:48.8767 6:74.687 7:0.597558 8:1 
0.009479999910238072 1:0.206272 2:0.210228 3:0.254829 4:51.0974 5:48.1852 6:73.7393 7:0.217409 8:1 
0.007234743893458662 1:0.292953 2:0.285599 3:0.397263 4:50.047 5:47.1771 6:72.2715 7:1.30845 8:1 
0.005310591696950516 1:0.295574 2:0.27597 3:0.434074 4:49.3512 5:46.4987 6:71.328 7:0.90192 8:1 
0.0134624329114845 1:0.114647 2:0.100563 3:0.18605 4:48.1373 5:45.3254 6:69.6543 7:0.947038 8:1 
0.007612102148359021 1:0.00243282 2:0.00193024 3:0.00449467 4:8.50353 5:7.03716 6:14.949 7:0.0720331 
0.003455836095390796 1:0.328944 2:0.299504 3:0.503868 4:11.6106 5:9.83459 6:19.7944 7:0.227528 8:1 
0.009892207341685123 1:0.688957 2:0.629909 3:1.0482 4:12.236 5:10.3902 6:20.7901 7:2.26309 8:1 
0.01367102900082427 1:0.700176 2:0.659933 3:1.01134 4:20.2646 5:18.1814 6:31.7757 7:10.1606 8:1 
0.003144800226651922 1:0.00994873 2:0.00809669 3:0.0178642 4:9.25405 5:7.6608 6:16.2615 7:0.0654228 8:1 
0.008084855169544103 1:0.27887 2:0.264273 3:0.398911 4:21.0215 5:18.8438 6:33.008 7:4.25871 8:1 
0.0007008425749585093 1:0.0248537 2:0.0275831 3:0.024559 4:13.239 5:11.2492 6:22.4745 7:1.28455 8:1 
0.01873729403242054 1:2.3532 2:1.94796 3:4.13538 4:8.40186 5:6.95576 6:14.7629 7:3.64065 8:1 
0.002824648622518355 1:0.023838 2:0.039217 3:0.0112553 4:19.3393 5:17.1838 6:30.7816 7:5.33217 8:1 
0.005274061772785048 1:0.62753 2:0.554132 3:1.00824 4:13.5623 5:11.5177 6:23.0402 7:0.455042 8:1 
0.001377030735167285 1:1.29859 2:1.23262 3:1.85208 4:20.2924 5:18.0505 6:32.2443 7:4.17597 8:1 
0.00238087164257172 1:0.0286293 2:0.0326462 3:0.0259075 4:12.9557 5:10.9488 6:22.156 7:0.900033 8:1 
0.01174884109904356 1:0.0518112 2:0.0483627 3:0.0761185 4:46.2851 5:43.5449 6:67.0733 7:2.10893 8:1 
0.01481261444092316 1:0.111168 2:0.101425 3:0.169716 4:45.358 5:42.6408 6:65.8172 7:0.475805 
0.01115750057839437 1:0.87051 2:0.83007 3:1.23123 4:43.0099 5:40.372 6:62.5769 7:2.81686 8:1 
0.007406638958501614 1:0.126904 2:0.122189 3:0.176266 4:42.6918 5:40.0488 6:62.1815 7:2.98056 8:1 
0.01217315156457249 1:0.654442 2:0.624054 3:0.925583 4:41.3154 5:38.7183 6:60.2838 7:4.08426 8:1 
0.01753353699247745 1:1.00808 2:0.976799 3:1.38339 4:40.0506 5:37.4737 6:58.5999 7:1.43777 8:1 
0.005759974382844519 1:0.0533991 2:0.0540323 3:0.0670338 4:13.6138 5:11.5312 6:23.2101 7:0.727075 8:1 
0.01845833914442438 1:0.602341 2:0.583225 3:0.82774 4:39.4061 5:36.8352 6:57.7537 7:8.87591 8:1 
0.003028909259030932 1:0.279588 2:0.258057 3:0.418737 4:14.3958 5:12.2259 6:24.455 7:1.50578 8:1 
0.0136749540152585 1:0.245167 2:0.238472 3:0.333946 4:37.5806 5:35.0713 6:55.2352 7:6.7814 8:1 
0.01272591545282973 1:0.495354 2:0.471737 3:0.702282 4:36.0007 5:33.5357 6:53.0799 7:8.66106 8:1 
0.008712724082593595 1:0.62994 2:0.600876 3:0.890411 4:35.7721 5:33.285 6:52.8461 7:6.25207 8:1 
0.01438896374940212 1:0.467354 2:0.458324 3:0.626427 4:34.1354 5:31.6901 6:50.6243 7:4.00616 8:1 
0.01197503722324528 1:0.922729 2:0.894697 3:1.26463 4:32.9254 5:30.5065 6:48.9944 7:5.22187 
0.005413191093017857 1:0.337502 2:0.312208 3:0.503586 4:32.0096 5:29.6053 6:47.7751 7:7.02123 8:1 
0.005272820204864908 1:1.58735 2:1.48551 3:2.32173 4:20.4235 5:18.039 6:32.8022 7:2.98747 8:1 
0.00517677252368709 1:0.718543 2:0.6427 3:1.1321 4:15.1718 5:12.8345 6:25.9108 7:0.688363 8:1 
0.01209337629572044 1:0.0369244 2:0.0319481 3:0.061142 4:31.3313 5:28.9178 6:46.9272 7:7.75674 8:1 
0.01553123914405851 1:2.27087 2:2.16567 3:3.21104 4:29.8761 5:27.5028 6:44.9434 7:8.79987 8:1 
0.01152945319483031 1:1.09849 2:1.06035 3:1.51849 4:30.0324 5:27.6304 6:45.2231 7:5.86059 8:1 
0.003594150084573398 1:0.832516 2:0.790203 3:1.18741 4:27.9897 5:25.6378 6:42.4558 7:5.11095 8:1 
0.0114376206137541 1:0.409496 2:0.396208 3:0.563526 4:28.5955 5:26.1945 6:43.3699 7:11.5043 8:1 
0.003073030775014174 1:0.970085 2:0.936117 3:1.3418 4:28.6719 5:26.2432 6:43.5437 7:6.56301 8:1 
0.01044317387227839 1:0.910246 2:0.873842 3:1.27139 4:27.6016 5:25.1637 6:42.1907 7:8.50327 8:1 
0.00652390813551929 1:1.00681 2:0.965088 3:1.41025 4:28.0438 5:25.5568 6:42.8943 7:3.59093 8:1 
0.00870421199984513 1:1.45612 2:1.3599 3:2.13743 4:20.9653 5:18.434 6:33.9002 7:1.62429 8:1 
0.002475470498929736 1:0.217655 2:0.208865 3:0.304245 4:14.8731 5:12.544 6:25.5038 7:0.340901 
0.01078598543745851 1:1.30285 2:1.25643 3:1.80424 4:26.5816 5:24.0869 6:41.0324 7:1.10568 8:1 
0.01200910946103829 1:0.182747 2:0.169147 3:0.272411 4:15.523 5:13.1086 6:26.5733 7:0.288201 8:1 
0.00676111979606646 1:0.317591 2:0.297092 3:0.464844 4:20.9628 5:18.3889 6:34.0132 7:1.1148 8:1 
0.00465549353024027 1:1.31497 2:1.25594 3:1.85426 4:26.8156 5:24.2883 6:41.4227 7:4.91431 8:1 
0.0007733077439886493 1:0.121376 2:0.10799 3:0.192802 4:25.461 5:22.9347 6:39.6756 7:2.26294 8:1 
0.002381582904140089 1:1.19108 2:1.13296 3:1.69226 4:25.3002 5:22.7237 6:39.6055 7:2.61954 8:1 
0.01172461755328373 1:0.180382 2:0.171776 3:0.255737 4:25.6941 5:22.9431 6:40.5887 7:7.92493 8:1 
0.005105962950623212 1:0.0410824 2:0.0410156 3:0.0530777 4:20.3038 5:17.524 6:33.7261 7:1.79246 8:1 
0.02010701784535862 7:174.168 8:1 
0.02015359042439396 1:5.55918 2:4.81892 3:9.17735 4:18.1265 5:15.6527 6:30.0879 7:40.2414 8:1 
0.02000935133108867 1:6.82372 2:6.1432 3:10.6427 4:10.5639 5:9.53037 6:16.4216 7:185.027 8:1 
0.02015729854777271 1:7.08122 2:6.38929 3:11.0054 4:24.3997 5:21.9768 6:38.0266 7:188.707 8:1 
0.005718347629947478 1:0.0767746 2:0.0709343 3:0.114773 4:26.2287 5:23.3363 6:41.6625 7:4.65238 8:1 
0.004901531294884874 1:0.3787 2:0.356173 3:0.549084 4:25.1233 5:22.2367 6:40.2235 7:2.55377 
0.002075430745239843 1:0.724642 2:0.682945 3:1.04681 4:25.0267 5:22.0772 6:40.2705 7:4.39705 8:1 
0.009485631133803261 1:0.187632 2:0.182526 3:0.255539 4:28.7205 5:25.8848 6:44.7163 7:0.994265 8:1 
0.01015543898430086 1:0.145859 2:0.141853 3:0.198746 4:28.2504 5:25.4149 6:44.1105 7:0.127926 8:1 
0.006336588676928007 1:0.667496 2:0.630783 3:0.959644 4:25.397 5:22.3892 6:40.9064 7:1.40145 8:1 
0.01975048610629659 4:475.228 5:500 6:544.377 7:250000 8:1 
0.01983605987270826 4:950.456 5:1000 6:1088.75 
0.01983800667547952 1:237.614 2:250 3:272.189 4:594.035 5:625 6:680.471 7:234375 8:1 
1 1:6.39047e-08 2:6.72317e-08 3:7.32034e-08 4:2.24011e-05 5:2.35687e-05 6:2.56606e-05 7:5.29203e-10 8:1 
1 8:1 
1 1:7.66202e-07 2:8.06143e-07 3:8.77699e-07 4:5.63705e-05 5:5.93089e-05 6:6.45728e-05 7:2.15184e-11 8:1 
1 1:1.22037e-06 2:1.28399e-06 3:1.39794e-06 4:4.17767e-05 5:4.39544e-05 6:4.78555e-05 7:1.41189e-11 8:1 
1 1:1.20373e-06 2:1.26646e-06 3:1.37887e-06 4:7.6174e-05 5:8.01447e-05 6:8.72578e-05 7:4.42255e-11 8:1 
1 1:2.88815e-06 2:3.0387e-06 3:3.3084e-06 4:5.80674e-05 5:6.10943e-05 6:6.65167e-05 7:2.29907e-11 8:1 
1 1:4.31573e-07 2:4.54063e-07 3:4.94358e-07 4:9.77617e-05 5:0.000102858 6:0.000111987 7:6.21486e-11 8:1 
1 1:1.59656e-07 2:1.67973e-07 3:1.82874e-07 4:7.85514e-05 5:8.26461e-05 6:8.99812e-05 7:2.52098e-11 8:1 
1 1:3.52915e-06 2:3.71311e-06 3:4.04267e-06 4:0.00012494 5:0.000131453 6:0.000143119 7:1.68785e-10 8:1 
1 1:3.7843e-06 2:3.98156e-06 3:4.33493e-06 4:0.000103713 5:0.000109119 6:0.000118804 7:1.1461e-10 8:1 
1 1:3.13434e-07 2:3.29776e-07 3:3.59069e-07 4:0.000157871 5:0.0001661 6:0.000180842 7:1.33287e-10 8:1 
1 1:1.50059e-07 2:1.57903e-07 3:1.71902e-07 4:0.000133331 5:0.000140281 6:0.000152731 7:9.85287e-11 8:1 
1 1:3.42983e-06 2:3.6086e-06 3:3.92887e-06 4:0.000175337 5:0.000184477 6:0.00020085 7:1.85682e-10 8:1 
1 1:4.96617e-07 2:5.22503e-07 3:5.68878e-07 4:1.64225e-05 5:1.72786e-05 6:1.88121e-05 7:3.13633e-10 8:1 
1 1:1.76242e-06 2:1.8543e-06 3:2.01888e-06 4:4.33689e-05 5:4.56295e-05 6:4.96793e-05 7:1.3624e-11 8:1 
1 7:8.61492e-11 
1 1:1.50216e-06 2:1.58046e-06 3:1.72074e-06 4:2.97175e-05 5:3.12666e-05 6:3.40416e-05 7:1.45026e-11 8:1 
1 1:1.17539e-07 2:1.23662e-07 3:1.34642e-07 4:6.08818e-05 5:6.40554e-05 6:6.97406e-05 7:8.6842e-11 8:1 
1 1:1.42021e-06 2:1.49424e-06 3:1.62686e-06 4:4.08603e-05 5:4.29902e-05 6:4.68058e-05 7:1.44426e-11 8:1 
1 1:1.16738e-06 2:1.22823e-06 3:1.33723e-06 4:7.91963e-05 5:8.33246e-05 6:9.072e-05 7:3.74058e-11 8:1 
1 1:2.68206e-07 2:2.82183e-07 3:3.07227e-07 4:5.58075e-05 5:5.87166e-05 6:6.39279e-05 7:3.14772e-11 8:1 
1 1:5.34442e-06 2:5.62301e-06 3:6.12207e-06 4:1.25979e-05 5:1.32546e-05 6:1.4431e-05 7:7.1181e-11 8:1 
1 1:4.65188e-07 2:4.89446e-07 3:5.32884e-07 4:0.000102339 5:0.000107674 6:0.00011723 7:4.52171e-11 8:1 
1 1:2.9715e-08 2:3.12721e-08 3:3.40442e-08 4:7.40855e-05 5:7.79473e-05 6:8.48655e-05 7:4.15923e-11 8:1 
1 1:5.50017e-07 2:5.78686e-07 3:6.30049e-07 4:2.62348e-05 5:2.76023e-05 6:3.00521e-05 7:4.02487e-12 8:1 
1 1:3.78917e-06 2:3.98669e-06 3:4.34053e-06 4:0.000136124 5:0.00014322 6:0.000155931 7:1.89305e-10 8:1 
1 1:4.98819e-06 2:5.2482e-06 3:5.71401e-06 4:0.000100087 5:0.000105305 6:0.000114651 7:5.43895e-11 8:1 
1 1:1.79007e-06 2:1.88339e-06 3:2.05054e-06 4:3.70284e-05 5:3.89586e-05 6:4.24163e-05 7:1.38332e-11 8:1 
1 1:6.10127e-06 2:6.41932e-06 3:6.98908e-06 4:0.000178111 5:0.000187395 6:0.000204027 7:2.58542e-10 8:1 
1 1:6.61371e-06 2:6.95846e-06 3:7.57605e-06 4:0.000131959 5:0.000138838 6:0.00015116 7:5.20362e-10 8:1 
1 1:5.76645e-07 2:6.06706e-07 3:6.60544e-07 4:4.94157e-05 5:5.19916e-05 6:5.6606e-05 7:1.72433e-11 8:1 
1 1:7.21804e-06 2:7.59427e-06 3:8.2683e-06 4:0.000201377 5:0.000211874 6:0.000230679 7:1.73162e-10 8:1 
1 1:2.42362e-07 2:2.54993e-07 3:2.77636e-07 4:0.000169681 5:0.000178526 6:0.000194371 7:1.52221e-10 8:1 
1 1:1.20994e-06 2:1.27301e-06 3:1.38598e-06 4:6.74699e-05 5:7.09869e-05 6:7.72872e-05 7:5.41021e-11 8:1 
1 1:5.51488e-07 2:5.80272e-07 3:6.31786e-07 4:0.000255223 5:0.000268527 6:0.00029236 7:2.28793e-10 8:1 
1 1:1.36394e-06 2:1.43504e-06 3:1.5624e-06 4:9.39782e-05 5:9.8877e-05 6:0.000107653 7:7.85776e-11 8:1 
1 1:5.63968e-06 2:5.93363e-06 3:6.46026e-06 4:0.000316634 5:0.000333139 6:0.000362706 7:5.59246e-10 8:1 
1 1:1.56011e-07 2:1.64146e-07 3:1.78727e-07 4:0.000218485 5:0.000229874 6:0.000250276 7:1.95691e-10 8:1 
1 1:8.62638e-07 2:9.07618e-07 3:9.88162e-07 4:0.000117216 5:0.000123326 6:0.000134271 7:1.49643e-10 8:1 
1 1:2.2315e-05 2:2.34782e-05 3:2.5562e-05 4:0.000393342 5:0.000413846 6:0.000450576 7:1.6822e-09 8:1 
1 1:2.03023e-06 2:2.13605e-06 3:2.32563e-06 4:0.000276879 5:0.000291312 6:0.000317167 7:3.17524e-10 8:1 
1 1:4.97719e-06 2:5.23661e-06 3:5.7014e-06 4:0.00014921 5:0.000156988 6:0.000170921 7:1.70116e-10 8:1 
1 1:3.43358e-06 2:3.61257e-06 3:3.93321e-06 4:0.000346168 5:0.000364213 6:0.000396538 7:3.15757e-10 8:1 
1 1:9.6476e-06 2:1.01505e-05 3:1.10513e-05 4:0.000422863 5:0.000444905 6:0.000484392 7:1.063e-09 8:1 
1 1:1.3266e-05 2:1.39575e-05 3:1.51963e-05 4:0.000484355 5:0.000509603 6:0.000554832 7:1.81956e-09 8:1 
1 1:1.07057e-05 2:1.12639e-05 3:1.22635e-05 4:0.000526984 5:0.000554454 6:0.000603664 7:1.08361e-09 8:1 
1 1:3.32593e-05 2:3.49931e-05 3:3.80988e-05 4:0.000583799 5:0.000614231 6:0.000668746 7:1.73264e-09 8:1 
1 1:1.44778e-05 2:1.52325e-05 3:1.65844e-05 4:0.000653261 5:0.000687313 6:0.000748314 7:2.84956e-09 8:1 
1 1:2.83347e-05 2:2.98118e-05 3:3.24576e-05 4:0.000702438 5:0.000739053 6:0.000804647 7:3.39768e-09 8:1 
1 1:1.32407e-05 2:1.39309e-05 3:1.51673e-05 4:0.000795429 5:0.000836892 6:0.000911169 7:6.50031e-09 8:1 
1 1:2.44274e-06 2:2.5701e-06 3:2.79822e-06 4:0.000848392 5:0.000892616 6:0.000971839 7:2.57835e-09 8:1 
1 1:6.00272e-06 2:6.31553e-06 3:6.87619e-06 4:0.000922832 5:0.000970936 6:0.00105711 7:5.48273e-09 8:1 
1 1:4.26722e-05 2:4.48966e-05 3:4.88814e-05 4:0.00100706 5:0.00105956 6:0.0011536 7:2.8507e-09 8:1 
1 1:3.71621e-06 2:3.90992e-06 3:4.25708e-06 4:0.00111503 5:0.00117316 6:0.00127728 7:3.63986e-09 8:1 
1 1:2.15545e-05 2:2.26784e-05 3:2.46913e-05 4:0.00119507 5:0.00125736 6:0.00136896 7:3.80629e-09 8:1 
1 1:2.6474e-06 2:2.7854e-06 3:3.03262e-06 4:0.000218686 5:0.000230085 6:0.000250506 7:2.5194e-10 8:1 
1 1:1.26358e-05 2:1.32946e-05 3:1.44746e-05 4:0.0013352 5:0.0014048 6:0.00152948 7:4.87735e-09 8:1 
1 1:5.51913e-05 2:5.80682e-05 3:6.32221e-05 4:0.00141508 5:0.00148884 6:0.00162099 7:3.40513e-09 8:1 
1 1:1.49499e-05 2:1.57292e-05 3:1.71252e-05 4:0.000286077 5:0.000300989 6:0.000327703 7:7.23957e-10 8:1 
1 1:5.71783e-05 2:6.01588e-05 3:6.54982e-05 4:0.00158837 5:0.00167117 6:0.00181949 7:5.16909e-09 8:1 
1 1:2.51228e-05 2:2.64322e-05 3:2.87782e-05 4:0.00163495 5:0.00172018 6:0.00187285 7:1.51085e-08 8:1 
1 1:7.94436e-06 2:8.35853e-06 3:9.1003e-06 4:0.000354697 5:0.000373186 6:0.000406308 7:6.44908e-10 8:1 
1 1:1.20697e-05 2:1.26988e-05 3:1.38259e-05 4:0.00182851 5:0.00192382 6:0.00209457 7:1.94859e-08 8:1 
1 1:2.05499e-05 2:2.16211e-05 3:2.35401e-05 4:0.000435223 5:0.000457909 6:0.000498551 7:7.77896e-10 8:1 
1 1:8.33257e-06 2:8.76692e-06 3:9.54504e-06 4:0.00021272 5:0.000223808 6:0.000243672 7:2.48016e-10 8:1 
1 1:1.36192e-05 2:1.43291e-05 3:1.56008e-05 4:0.000543665 5:0.000572005 6:0.000622772 7:1.36223e-09 8:1 
1 1:2.31966e-06 2:2.44059e-06 3:2.65718e-06 4:0.000270197 5:0.000284282 6:0.000309513 7:3.08081e-10 8:1 
1 1:4.60659e-05 2:4.84672e-05 3:5.27687e-05 4:0.00137445 5:0.00144609 6:0.00157444 7:7.40593e-09 8:1 
1 1:2.28468e-05 2:2.40377e-05 3:2.61711e-05 4:0.000657537 5:0.000691812 6:0.000753213 7:1.7676e-09 8:1 
1 1:5.24083e-05 2:5.51404e-05 3:6.00341e-05 4:0.00165836 5:0.0017448 6:0.00189966 7:1.11353e-08 8:1 
1 1:9.04969e-06 2:9.52138e-06 3:1.03665e-05 4:0.000334052 5:0.000351465 6:0.000382659 7:2.72737e-10 8:1 
1 1:4.676e-06 2:4.91971e-06 3:5.35639e-06 4:0.000801431 5:0.000843207 6:0.000918045 7:3.34659e-09 8:1 
1 1:2.14631e-06 2:2.2582e-06 3:2.45858e-06 4:0.000243918 5:0.000256633 6:0.00027941 7:3.98519e-10 8:1 
1 1:2.70503e-06 2:2.84606e-06 3:3.09863e-06 4:0.000417108 5:0.00043885 6:0.0004778 7:1.01533e-09 8:1 
1 1:3.70161e-05 2:3.89456e-05 3:4.2402e-05 4:0.00194795 5:0.0020495 6:0.0022314 7:1.4902e-08 8:1 
1 1:8.66025e-06 2:9.11159e-06 3:9.92045e-06 4:0.000983022 5:0.00103426 6:0.00112606 7:5.55586e-09 8:1 
1 1:6.06399e-06 2:6.38008e-06 3:6.94636e-06 4:0.000193886 5:0.000203993 6:0.000222098 7:0.0312241 8:1 
1 1:5.60758e-06 2:5.89987e-06 3:6.42354e-06 4:0.000315163 5:0.000331591 6:0.000361021 7:4.18511e-10 8:1 
1 1:2.37348e-05 2:2.4972e-05 3:2.71884e-05 4:0.000514341 5:0.000541152 6:0.000589181 7:1.56813e-09 8:1 
1 1:6.47526e-05 2:6.8128e-05 3:7.41745e-05 4:0.00115238 5:0.00121245 6:0.00132006 7:1.70377e-08 8:1 
1 1:1.18138e-06 2:1.24294e-06 3:1.35324e-06 4:0.000383536 5:0.000403528 6:0.000439343 7:7.1964e-10 8:1 
1 1:2.2495e-05 2:2.36677e-05 3:2.57683e-05 4:0.000641062 5:0.000674479 6:0.000734342 7:3.55124e-09 8:1 
1 1:8.28135e-06 2:8.71305e-06 3:9.48634e-06 4:0.000460342 5:0.000484338 6:0.000527325 7:1.49473e-09 8:1 
1 1:2.3935e-05 2:2.51827e-05 3:2.74178e-05 4:0.000771971 5:0.000812212 6:0.000884299 7:2.08304e-09 8:1 
1 1:1.21554e-05 2:1.2789e-05 3:1.39242e-05 4:0.000579557 5:0.000609767 6:0.000663886 7:8.43381e-10 8:1 
1 1:1.72589e-05 2:1.81585e-05 3:1.97702e-05 4:0.000918518 5:0.000966397 6:0.00105217 7:1.68352e-09 8:1 
1 1:1.6402e-05 2:1.7257e-05 3:1.87886e-05 4:0.000708124 5:0.000745036 6:0.000811161 7:9.63646e-10 8:1 
1 1:6.15395e-06 2:6.4749e-06 3:7.04953e-06 4:0.00109833 5:0.00115558 6:0.00125815 7:3.58431e-09 8:1 
1 1:2.22966e-05 2:2.34588e-05 3:2.55409e-05 4:0.000843544 5:0.000887516 6:0.000966286 7:4.11473e-09 8:1 
1 1:7.55186e-06 2:7.94558e-06 3:8.65082e-06 4:0.00133619 5:0.00140584 6:0.00153061 7:5.04246e-09 8:1 
1 1:5.73823e-05 2:6.03735e-05 3:6.57317e-05 4:0.001584 5:0.00166656 6:0.00181448 7:4.10048e-08 8:1 
1 1:1.67598e-05 2:1.76335e-05 3:1.91983e-05 4:0.00100603 5:0.00105847 6:0.00115242 7:3.0959e-09 8:1 
1 1:1.31603e-05 2:1.38467e-05 3:1.50751e-05 4:0.00195935 5:0.00206148 6:0.00224444 7:1.21034e-08 8:1 
1 1:3.30075e-05 2:3.47279e-05 3:3.78102e-05 4:0.00117254 5:0.00123366 6:0.00134315 7:4.87298e-09 8:1 
1 1:9.03718e-05 2:9.50829e-05 3:0.000103522 4:0.00226815 5:0.00238638 6:0.00259818 7:1.23897e-08 8:1 
1 1:2.35498e-05 2:2.47774e-05 3:2.69766e-05 4:0.00145248 5:0.0015282 6:0.00166383 7:8.86567e-09 8:1 
1 1:0.000132695 2:0.000139611 3:0.000152003 4:0.0026409 5:0.00277856 6:0.00302517 7:4.08553e-08 8:1 
1 1:6.32745e-05 2:6.65728e-05 3:7.24816e-05 4:0.00168766 5:0.00177563 6:0.00193323 7:6.69917e-09 8:1 
1 1:9.58075e-05 2:0.000100802 3:0.000109748 4:0.00184268 5:0.00193874 6:0.00211081 7:1.53253e-08 8:1 
1 1:2.43073e-05 2:2.55746e-05 3:2.78447e-05 4:0.00214723 5:0.00225915 6:0.00245966 7:1.87421e-08 8:1 
1 1:9.48249e-05 2:9.97675e-05 3:0.000108622 4:0.0030398 5:0.00319826 6:0.00348212 7:5.13941e-08 8:1 
1 1:0.000166647 2:0.000175334 3:0.000190895 4:0.00252818 5:0.00265996 6:0.00289605 7:4.43124e-08 8:1 
1 1:3.08668e-05 2:3.24757e-05 3:3.53581e-05 4:0.00350811 5:0.00369097 6:0.00401856 7:4.85272e-08 8:1 
1 1:8.95276e-05 2:9.4194e-05 3:0.000102554 4:0.00401791 5:0.00422734 6:0.00460254 7:8.38937e-08 8:1 
1 1:7.79612e-05 2:8.20253e-05 3:8.9305e-05 4:0.00303658 5:0.00319487 6:0.00347842 7:2.11673e-08 8:1 
1 1:5.53913e-05 2:5.82784e-05 3:6.34515e-05 4:0.00475689 5:0.00500485 6:0.00544905 7:1.0058e-07 8:1 
1 1:6.09411e-05 2:6.41176e-05 3:6.98082e-05 4:0.00344217 5:0.0036216 6:0.00394303 7:3.73169e-08 8:1 
1 1:0.000103638 2:0.000109041 3:0.000118719 4:0.0052535 5:0.00552734 6:0.00601792 7:9.82518e-08 8:1 
1 1:0.000204728 2:0.0002154 3:0.000234518 4:0.00402115 5:0.00423076 6:0.00460625 7:4.12921e-08 8:1 
1 1:2.67108e-05 2:2.81031e-05 3:3.05974e-05 4:0.00229921 5:0.00241906 6:0.00263376 7:1.70492e-08 8:1 
1 1:0.000255284 2:0.000268592 3:0.00029243 4:0.0061501 5:0.00647068 6:0.00704498 7:2.35293e-07 8:1 
1 1:0.000148781 2:0.000156537 3:0.00017043 4:0.00475215 5:0.00499986 6:0.00544362 7:1.17711e-07 8:1 
1 1:7.00564e-05 2:7.37079e-05 3:8.02502e-05 4:0.0026447 5:0.00278256 6:0.00302952 7:1.78257e-08 8:1 
1 1:8.61697e-05 2:9.06615e-05 3:9.87081e-05 4:0.00693571 5:0.00729725 6:0.00794491 7:1.13866e-07 8:1 
1 1:0.000148587 2:0.000156333 3:0.000170208 4:0.00522992 5:0.00550253 6:0.0059909 7:2.49275e-07 8:1 
1 1:9.64385e-06 2:1.01461e-05 3:1.10466e-05 4:0.00308741 5:0.00324835 6:0.00353665 7:4.64963e-08 8:1 
1 1:0.000126257 2:0.000132838 3:0.000144628 4:0.00775045 5:0.00815445 6:0.00887819 7:3.17764e-07 8:1 
1 1:0.000384176 2:0.000404202 3:0.000440077 4:0.00612813 5:0.00644757 6:0.00701982 7:1.69015e-07 8:1 
1 1:7.32478e-05 2:7.7066e-05 3:8.39056e-05 4:0.00362798 5:0.00381709 6:0.00415588 7:2.72398e-08 8:1 
1 1:9.91039e-05 2:0.000104271 3:0.000113524 4:0.00895262 5:0.00941929 6:0.0102553 7:2.83081e-07 8:1 
1 1:0.00025361 2:0.00026683 3:0.000290512 4:0.0102034 5:0.0107353 6:0.0116881 7:5.35954e-07 8:1 
1 1:0.000131855 2:0.000138728 3:0.000151041 4:0.00697867 5:0.00734244 6:0.00799411 7:8.87576e-08 8:1 
1 1:0.00015539 2:0.00016349 3:0.000178 4:0.00422775 5:0.00444813 6:0.00484292 7:4.97709e-08 8:1 
1 1:0.00014474 2:0.000152285 3:0.0001658 4:0.00795335 5:0.00836793 6:0.00911062 7:3.5028e-07 8:1 
1 1:1.16047e-05 2:1.22101e-05 3:1.32932e-05 4:0.0047631 5:0.00501138 6:0.00545616 7:8.52086e-08 8:1 
1 1:9.74387e-05 2:0.000102518 3:0.000111617 4:0.00897237 5:0.00944007 6:0.0102779 7:4.28898e-07 8:1 
1 1:0.000113978 2:0.000119918 3:0.000130561 4:0.0058267 5:0.00613043 6:0.00667453 7:6.41658e-08 8:1 
1 1:0.000270565 2:0.00028467 3:0.000309935 4:0.0105083 5:0.0110561 6:0.0120373 7:3.91201e-07 8:1 
1 1:0.000416813 2:0.000438541 3:0.000477463 4:0.00656718 5:0.00690951 6:0.00752275 7:3.38849e-07 8:1 
1 1:0.000404188 2:0.000425258 3:0.000463 4:0.00973167 5:0.0102389 6:0.0111477 7:2.68632e-07 8:1 
1 1:0.000205353 2:0.000216058 3:0.000235233 4:0.00748533 5:0.00787551 6:0.00857449 7:5.12996e-07 8:1 
1 1:0.00029529 2:0.000310684 3:0.000338254 4:0.0117249 5:0.012336 6:0.0134309 7:7.49196e-07 8:1 
1 1:9.90517e-05 2:0.000104215 3:0.000113464 4:0.0109813 5:0.0115537 6:0.0125791 7:8.51028e-07 8:1 
1 1:2.5077e-05 2:2.63846e-05 3:2.87262e-05 4:0.00223673 5:0.00235332 6:0.00256219 7:1.22567e-08 8:1 
1 1:0.000770784 2:0.000810962 3:0.000882937 4:0.0126426 5:0.0133017 6:0.0144822 7:5.48006e-07 8:1 
1 1:6.62729e-06 2:6.97374e-06 3:7.59214e-06 4:0.00854884 5:0.00899446 6:0.00979276 7:6.53907e-07 8:1 
1 1:0.000130692 2:0.000137504 3:0.000149708 4:0.00259606 5:0.00273138 6:0.0029738 7:3.13274e-08 8:1 
1 1:1.73345e-05 2:1.82381e-05 3:1.9857e-05 4:0.00200626 5:0.00211083 6:0.00229818 7:1.72324e-08 8:1 
1 1:4.58541e-05 2:4.82444e-05 3:5.25261e-05 4:0.00301638 5:0.00317361 6:0.00345528 7:3.34663e-08 8:1 
1 1:8.0779e-05 2:8.49897e-05 3:9.25332e-05 4:0.0023708 5:0.00249438 6:0.00271577 7:1.05284e-07 8:1 
1 1:1.93035e-05 2:2.03098e-05 3:2.21124e-05 4:0.00356181 5:0.00374748 6:0.00408008 7:3.21912e-08 8:1 
1 1:4.47936e-05 2:4.71284e-05 3:5.1311e-05 4:0.00267623 5:0.00281574 6:0.00306564 7:2.69695e-08 8:1 
1 1:0.000251704 2:0.000264825 3:0.000288329 4:0.00411106 5:0.00432535 6:0.00470925 7:7.78354e-08 8:1 
1 1:9.10894e-05 2:9.58373e-05 3:0.000104344 4:0.00316534 5:0.00333034 6:0.00362592 7:4.94825e-08 8:1 
1 1:0.000106246 2:0.000111785 3:0.000121706 4:0.00481157 5:0.00506238 6:0.00551169 7:5.56494e-08 8:1 
1 1:9.32363e-05 2:9.80971e-05 3:0.000106803 4:0.00368052 5:0.00387237 6:0.00421606 7:1.98181e-08 8:1 
1 1:0.000179001 2:0.00018833 3:0.000205046 4:0.00544327 5:0.00572701 6:0.00623531 7:1.16812e-07 8:1 
1 1:1.79182e-05 2:1.88523e-05 3:2.05254e-05 4:0.00431134 5:0.00453607 6:0.00493867 7:2.51499e-08 8:1 
1 1:0.000390335 2:0.000410681 3:0.000447131 4:0.00649661 5:0.00683525 6:0.00744191 7:3.28531e-07 8:1 
1 1:5.15291e-05 2:5.42155e-05 3:5.90272e-05 4:0.00500555 5:0.00526647 6:0.00573389 7:4.38624e-08 8:1 
1 1:3.88999e-05 2:4.09279e-05 3:4.45601e-05 4:0.00746216 5:0.00785114 6:0.00854796 7:2.07424e-07 8:1 
1 1:0.000125912 2:0.000132476 3:0.000144234 4:0.00579194 5:0.00609385 6:0.00663471 7:8.93511e-08 8:1 
1 1:0.000587852 2:0.000618494 3:0.000673387 4:0.00839011 5:0.00882746 6:0.00961093 7:2.62514e-07 8:1 
1 1:0.00045355 2:0.000477193 3:0.000519545 4:0.00668239 5:0.00703072 6:0.00765472 7:2.0086e-07 8:1 
1 1:0.000227183 2:0.000239026 3:0.000260239 4:0.00976353 5:0.0102725 6:0.0111842 7:3.79106e-07 8:1 
1 1:0.000155231 2:0.000163321 3:0.000177817 4:0.00754251 5:0.00793568 6:0.00864 7:2.1352e-07 8:1 
1 1:0.000792542 2:0.000833855 3:0.000907863 4:0.0111209 5:0.0117005 6:0.012739 7:1.40066e-06 8:1 
1 1:0.000342058 2:0.000359887 3:0.000391831 4:0.0113258 5:0.0119162 6:0.0129738 7:3.69751e-07 8:1 
1 1:6.83973e-05 2:7.19633e-05 3:7.83512e-05 4:0.00895127 5:0.00941787 6:0.0102537 7:1.01832e-07 8:1 
1 1:0.000860531 2:0.000905387 3:0.000985744 4:0.0127649 5:0.0134303 6:0.0146223 7:7.36515e-07 8:1 
1 1:4.34378e-05 2:4.57009e-05 3:4.97578e-05 4:0.0129735 5:0.0136498 6:0.0148613 7:5.4092e-07 8:1 
1 1:0.000124514 2:0.000131004 3:0.000142631 4:0.0101446 5:0.0106734 6:0.0116207 7:2.77825e-07 8:1 
1 1:0.000387 2:0.000407172 3:0.000443308 4:0.0145004 5:0.0152562 6:0.0166103 7:2.3667e-06 8:1 
1 1:0.000400299 2:0.000421165 3:0.000458545 4:0.0115531 5:0.0121554 6:0.0132342 7:8.94516e-07 8:1 
1 1:0.00111499 2:0.00117311 3:0.00127723 4:0.0160041 5:0.0168384 6:0.0183329 7:3.38466e-06 8:1 
1 1:0.000436554 2:0.000459308 3:0.000500075 4:0.0132427 5:0.013933 6:0.0151696 7:5.80166e-07 8:1 
1 1:0.000162682 2:0.000171164 3:0.000186354 4:0.0152138 5:0.0160068 6:0.0174275 7:1.54573e-06 8:1 
1 1:0.000234898 2:0.000247145 3:0.00026908 4:0.017567 5:0.0184827 6:0.0201231 7:1.19484e-06 8:1 
1 1:9.9469e-05 2:0.000104651 3:0.00011394 4:0.0189038 5:0.0198892 6:0.0216545 7:2.97819e-06 8:1 
1 1:0.000696687 2:0.000733003 3:0.00079806 4:0.0148953 5:0.0156718 6:0.0170627 7:1.42746e-06 8:1 
1 1:5.35082e-05 2:5.63003e-05 3:6.12941e-05 4:0.017038 5:0.0179261 6:0.0195171 7:9.41697e-07 8:1 
1 1:0.000549477 2:0.000578117 3:0.000629427 4:0.0220153 5:0.0231629 6:0.0252187 7:2.23061e-06 8:1 
1 1:0.00101673 2:0.00106973 3:0.00116467 4:0.0189776 5:0.0199668 6:0.0217389 7:2.60151e-06 8:1 
1 1:0.00028917 2:0.000304244 3:0.000331247 4:0.0246233 5:0.0259068 6:0.0282062 7:4.38498e-06 8:1 
1 1:0.000384543 2:0.000404583 3:0.000440493 4:0.0214945 5:0.0226149 6:0.0246221 7:2.35567e-06 8:1 
1 1:0.00128825 2:0.0013554 3:0.0014757 4:0.0266464 5:0.0280354 6:0.0305237 7:4.4933e-06 8:1 
1 1:0.000462944 2:0.000487074 3:0.000530303 4:0.0238785 5:0.0251232 6:0.027353 7:2.42577e-06 8:1 
1 1:0.00180166 2:0.00189558 3:0.00206381 4:0.0271098 5:0.0285229 6:0.0310544 7:5.17528e-06 8:1 
1 1:0.000114001 2:0.000119943 3:0.000130594 4:0.0308217 5:0.0324283 6:0.0353065 7:1.04807e-05 8:1 
1 1:0.000312686 2:0.00032899 3:0.000358187 4:0.0294641 5:0.0309999 6:0.0337513 7:1.62558e-06 8:1 
1 1:0.0023492 2:0.00247166 3:0.00269103 4:0.0342584 5:0.0360442 6:0.0392433 7:6.93708e-06 8:1 
1 1:0.00104381 2:0.00109823 3:0.0011957 4:0.0343793 5:0.0361713 6:0.0393817 7:1.02504e-05 8:1 
1 1:0.00137538 2:0.00144707 3:0.00157551 4:0.0381541 5:0.0401429 6:0.0437058 7:1.50524e-05 8:1 
1 1:0.000725735 2:0.000763569 3:0.00083134 4:0.0402451 5:0.0423429 6:0.046101 7:2.00814e-05 8:1 
1 1:0.000538304 2:0.000566363 3:0.000616632 4:0.0427427 5:0.0449707 6:0.0489621 7:1.92681e-05 8:1 
1 1:0.00143635 2:0.00151122 3:0.00164534 4:0.0459214 5:0.0483152 6:0.0526033 7:1.35493e-05 8:1 
1 1:0.00191107 2:0.00201068 3:0.00218914 4:0.0433301 5:0.0455888 6:0.049635 7:1.9095e-05 8:1 
1 1:0.000368786 2:0.000388009 3:0.000422448 4:0.0147985 5:0.0155699 6:0.0169518 7:6.65512e-07 8:1 
1 1:0.00095842 2:0.00100839 3:0.00109788 4:0.0483508 5:0.0508712 6:0.0553862 7:1.89884e-05 8:1 
1 1:0.000605181 2:0.000636727 3:0.000693237 4:0.0168684 5:0.0177477 6:0.0193228 7:1.43616e-06 8:1 
1 1:5.19045e-05 2:5.46202e-05 3:5.94668e-05 4:0.0521121 5:0.0548285 6:0.0596947 7:1.95305e-05 8:1 
1 1:0.000245103 2:0.000257878 3:0.000280765 4:0.0127318 5:0.0133955 6:0.0145844 7:0.243348 8:1 
1 1:0.000911457 2:0.000958968 3:0.00104408 4:0.0183947 5:0.0193536 6:0.0210713 7:1.85641e-06 8:1 
1 1:0.000298684 2:0.000314252 3:0.000342146 4:0.0149705 5:0.0157509 6:0.0171488 7:1.74823e-06 8:1 
1 1:0.000252523 2:0.000265686 3:0.000289265 4:0.0212833 5:0.0223927 6:0.0243802 7:1.33323e-06 8:1 
1 1:0.000126451 2:0.000133041 3:0.000144849 4:0.017535 5:0.0184491 6:0.0200865 7:1.7575e-06 8:1 
1 1:0.000156369 2:0.000164522 3:0.000179123 4:0.0236778 5:0.024912 6:0.0271231 7:2.29263e-06 8:1 
1 1:0.000254789 2:0.000268072 3:0.000291865 4:0.0275373 5:0.0289727 6:0.0315442 7:4.56972e-06 8:1 
1 1:0.00173985 2:0.00183054 3:0.00199301 4:0.0191501 5:0.0201483 6:0.0219366 7:2.16918e-06 8:1 
1 1:0.000161003 2:0.000169393 3:0.00018443 4:0.0213272 5:0.0224389 6:0.0244305 7:3.93133e-06 8:1 
1 1:0.00177542 2:0.00186797 3:0.00203376 4:0.0300924 5:0.031661 6:0.0344711 7:3.35322e-06 8:1 
1 1:0.000249796 2:0.000262816 3:0.000286143 4:0.0347969 5:0.0366107 6:0.0398601 7:1.43903e-05 8:1 
1 1:0.000196295 2:0.000206526 3:0.000224859 4:0.0255689 5:0.0269017 6:0.0292893 7:2.34286e-06 8:1 
1 1:0.00244463 2:0.00257205 3:0.00280033 4:0.0385548 5:0.0405645 6:0.0441647 7:7.60534e-06 8:1 
1 1:0.00140274 2:0.00147586 3:0.00160685 4:0.0275153 5:0.0289496 6:0.031519 7:2.90667e-06 8:1 
1 1:0.000898749 2:0.00094559 3:0.00102952 4:0.0444428 5:0.0467595 6:0.0509096 7:1.55817e-05 8:1 
1 1:0.00231756 2:0.00243837 3:0.00265479 4:0.031591 5:0.0332378 6:0.0361877 7:7.26035e-06 8:1 
1 1:0.000228919 2:0.000240847 3:0.000262216 4:0.049954 5:0.052558 6:0.0572227 7:4.62282e-05 8:1 
1 1:7.62753e-05 2:8.02539e-05 3:8.73767e-05 4:0.0342075 5:0.0359906 6:0.0391849 7:4.62487e-06 8:1 
1 1:0.00246363 2:0.00259205 3:0.00282211 4:0.0533852 5:0.056168 6:0.0611531 7:2.84525e-05 8:1 
1 1:6.09104e-05 2:6.40843e-05 3:6.97691e-05 4:0.0163707 5:0.017224 6:0.0187527 7:1.70169e-06 8:1 
1 1:0.00162046 2:0.00170493 3:0.00185625 4:0.0402889 5:0.042389 6:0.0461512 7:1.29124e-05 8:1 
1 1:0.001025 2:0.00107843 3:0.00117415 4:0.0183571 5:0.019314 6:0.0210282 7:2.1307e-06 8:1 
1 1:0.00216254 2:0.00227527 3:0.00247721 4:0.0450066 5:0.0473526 6:0.0515553 7:6.65647e-06 8:1 
1 1:0.00141656 2:0.0014904 3:0.00162268 4:0.0203603 5:0.0214216 6:0.0233229 7:2.11999e-06 8:1 
1 1:0.0018743 2:0.001972 3:0.00214702 4:0.0500892 5:0.0527002 6:0.0573775 7:9.32875e-06 8:1 
1 1:0.00236106 2:0.00248414 3:0.00270462 4:0.0518209 5:0.0545221 6:0.0593612 7:1.39472e-05 8:1 
1 1:0.00166869 2:0.00175567 3:0.0019115 4:0.0233326 5:0.0245488 6:0.0267276 7:3.61997e-06 8:1 
1 1:0.00133571 2:0.00140533 3:0.00153007 4:0.0572941 5:0.0602807 6:0.0656308 7:2.21861e-05 8:1 
1 1:0.000390757 2:0.000411123 3:0.000447616 4:0.0605091 5:0.0636632 6:0.0693136 7:1.09366e-05 8:1 
1 1:0.000748392 2:0.000787403 3:0.000857288 4:0.0252685 5:0.0265856 6:0.0289452 7:2.27913e-06 8:1 
1 1:0.00257038 2:0.00270437 3:0.00294438 4:0.0629244 5:0.0662044 6:0.0720803 7:2.83337e-05 8:1 
1 1:0.000568718 2:0.000598365 3:0.000651468 4:0.028984 5:0.0304948 6:0.0332014 7:6.4541e-06 8:1 
1 1:0.00346535 2:0.00364597 3:0.00396957 4:0.0684526 5:0.0720208 6:0.0784129 7:3.08764e-05 8:1 
1 1:0.0010095 2:0.00106212 3:0.00115639 4:0.0714708 5:0.0751963 6:0.0818703 7:4.34524e-05 8:1 
1 1:0.00373739 2:0.00393221 3:0.00428122 4:0.078868 5:0.0829791 6:0.0903438 7:7.23557e-05 8:1 
1 1:0.00249482 2:0.00262487 3:0.00285784 4:0.0325258 5:0.0342213 6:0.0372585 7:6.5488e-06 8:1 
1 1:0.00348213 2:0.00366364 3:0.0039888 4:0.0773069 5:0.0813366 6:0.0885555 7:4.39657e-05 8:1 
1 1:0.000477754 2:0.000502661 3:0.000547275 4:0.0891633 5:0.093811 6:0.102137 7:7.61821e-05 8:1 
1 1:0.00102513 2:0.00107856 3:0.00117429 4:0.0376489 5:0.0396114 6:0.0431271 7:8.04687e-06 8:1 
1 1:0.00663689 2:0.00698285 3:0.00760259 4:0.0859181 5:0.0903967 6:0.0984198 7:0.000109838 8:1 
1 1:0.00564235 2:0.00593647 3:0.00646338 4:0.0958079 5:0.100802 6:0.109749 7:8.10555e-05 8:1 
1 1:0.000680439 2:0.000715908 3:0.000779446 4:0.0429409 5:0.0451793 6:0.0491891 7:4.92848e-06 8:1 
1 1:0.00359067 2:0.00377783 3:0.00411314 4:0.0970596 5:0.102119 6:0.111182 7:0.000132134 8:1 
1 1:0.00321675 2:0.00338442 3:0.00368481 4:0.107138 5:0.112723 6:0.122727 7:5.40553e-05 8:1 
1 1:0.00368048 2:0.00387233 3:0.00421601 4:0.102775 5:0.108132 6:0.117729 7:8.60074e-05 8:1 
1 1:0.00306878 2:0.00322876 3:0.00351532 4:0.117789 5:0.123929 6:0.134928 7:0.000199589 8:1 
1 1:0.010044 2:0.0105675 3:0.0115055 4:0.114629 5:0.120604 6:0.131308 7:0.000103707 8:1 
1 1:0.00574069 2:0.00603992 3:0.00657599 4:0.123527 5:0.129966 6:0.141501 7:0.00014751 8:1 
1 1:0.00476305 2:0.00501132 3:0.0054561 4:0.128729 5:0.135439 6:0.14746 7:0.000119031 8:1 
1 1:0.00184654 2:0.00194278 3:0.00211522 4:0.139754 5:0.147039 6:0.16009 7:0.000128043 8:1 
1 1:0.00236262 2:0.0024858 3:0.00270641 4:0.135581 5:0.142649 6:0.155309 7:7.48951e-05 8:1 
0.02015545052839013 1:2.33984 2:2.4618 3:2.6803 4:18.3407 5:19.2967 6:21.0094 7:226.582 
1 1:0.00537658 2:0.00565684 3:0.00615892 4:0.158047 5:0.166286 6:0.181044 7:0.000141694 8:1 
1 1:0.00341319 2:0.00359111 3:0.00390983 4:0.0604406 5:0.0635911 6:0.0692351 7:3.61774e-05 8:1 
0.005585634230796952 1:0.388111 2:0.408344 3:0.44459 4:20.3089 5:21.3675 6:23.264 7:23.5073 8:1 
1 1:0.00474931 2:0.0049969 3:0.00544037 4:0.164132 5:0.172687 6:0.188014 7:0.000394562 8:1 
1 1:0.00275786 2:0.00290162 3:0.00315915 4:0.0704116 5:0.0740819 6:0.080657 7:2.32616e-05 8:1 
0.01993333233242295 1:0.78206 2:0.822825 3:0.895853 4:5.58442 5:5.87551 6:6.39699 7:60.2815 
1 1:0.00231021 2:0.00243062 3:0.00264635 4:0.075645 5:0.0795881 6:0.0866519 7:3.63672e-05 8:1 
1 1:0.00337981 2:0.00355598 3:0.00387156 4:0.199984 5:0.210408 6:0.229083 7:0.00117977 8:1 
1 1:0.00117382 2:0.00123501 3:0.00134463 4:0.0913559 5:0.096118 6:0.104649 7:6.49879e-05 8:1 
1 1:0.00372994 2:0.00392437 3:0.00427268 4:0.0566988 5:0.0596543 6:0.0649489 7:3.4425e-05 8:1 
1 1:0.00675646 2:0.00710865 3:0.00773958 4:0.0995078 5:0.104695 6:0.113987 7:0.000106249 8:1 
1 1:0.00201425 2:0.00211924 3:0.00230733 4:0.0624698 5:0.0657261 6:0.0715596 7:3.39835e-05 8:1 
1 1:0.00262429 2:0.0027611 3:0.00300615 4:0.104589 5:0.110041 6:0.119808 7:9.49244e-05 8:1 
0.02061487473147783 1:7.29817 2:7.6786 3:8.36011 4:7.55117 5:7.94479 6:8.64992 7:113.166 
1 1:0.0015927 2:0.00167572 3:0.00182444 4:0.0721342 5:0.0758943 6:0.0826302 7:7.02884e-05 8:1 
1 1:0.00237042 2:0.00249398 3:0.00271534 4:0.0833655 5:0.087711 6:0.0954957 7:5.43703e-05 8:1 
0.01528102993777336 1:3.23146 2:3.39991 3:3.70166 4:28.1231 5:29.589 6:32.2152 7:23.8285 8:1 
1 1:0.00127196 2:0.00133826 3:0.00145704 4:0.0882142 5:0.0928125 6:0.10105 7:6.38427e-05 8:1 
1 1:0.0050507 2:0.00531399 3:0.00578563 4:0.0966804 5:0.10172 6:0.110748 7:3.86861e-05 8:1 
0.002024104025399376 1:0.792589 2:0.833908 3:0.907919 4:28.312 5:29.7878 6:32.4316 7:13.6075 8:1 
0.003815975817000136 1:0.0170212 2:0.01791 3:0.0194969 4:32.4592 5:34.1512 6:37.1823 7:3.94169 8:1 
1 1:0.000373255 2:0.000392713 3:0.00042757 4:0.0452258 5:0.0475833 6:0.0518065 7:1.53974e-05 8:1 
1 1:0.00535828 2:0.0056376 3:0.00613795 4:0.108946 5:0.114625 6:0.124798 7:0.00011702 8:1 
0.003638060460364634 1:0.0906239 2:0.0953445 3:0.103809 4:31.2161 5:32.8433 6:35.7583 7:5.55234 8:1 
1 1:0.000916652 2:0.000964433 3:0.00105003 4:0.0504724 5:0.0531033 6:0.0578164 7:1.62229e-05 8:1 
1 1:0.0018608 2:0.0019578 3:0.00213158 4:0.125587 5:0.132133 6:0.143861 7:0.000113026 8:1 
1 1:0.00149919 2:0.00157734 3:0.00171733 4:0.071344 5:0.0750629 6:0.0817251 7:3.26771e-05 8:1 
0.01673781414215487 1:2.80793 2:2.9543 3:3.21651 4:32.0788 5:33.7509 6:36.7465 7:6.81967 8:1 
1 1:0.000805292 2:0.000847273 3:0.000922464 4:0.0598328 5:0.0629517 6:0.0685389 7:1.65892e-05 8:1 
1 1:0.00336035 2:0.00353551 3:0.0038493 4:0.131998 5:0.138878 6:0.151204 7:0.000186616 8:1 
1 1:0.0010137 2:0.00106654 3:0.0011612 4:0.0828407 5:0.0871589 6:0.0948946 7:5.35421e-05 8:1 
1 1:0.00393344 2:0.00413847 3:0.00450577 4:0.159157 5:0.167453 6:0.182315 7:0.000261625 8:1 
1 1:0.000877406 2:0.000923142 3:0.00100508 4:0.0626064 5:0.0658698 6:0.071716 7:6.44841e-05 8:1 
1 1:0.00431664 2:0.00454167 3:0.00494476 4:0.0929982 5:0.0978459 6:0.10653 7:9.87645e-05 8:1 
1 1:0.00363556 2:0.0038251 3:0.00416456 4:0.168903 5:0.177707 6:0.19348 7:0.000277975 8:1 
1 1:0.00182343 2:0.00191848 3:0.00208876 4:0.0960427 5:0.101049 6:0.110018 7:3.94783e-05 
1 1:0.010997 2:0.0115702 3:0.0125971 4:0.189857 5:0.199753 6:0.217482 7:0.000355822 8:1 
1 1:0.00232139 2:0.00244239 3:0.0026592 4:0.18662 5:0.196348 6:0.213775 7:0.000331736 8:1 
1 1:0.00672735 2:0.00707802 3:0.00770624 4:0.107362 5:0.112958 6:0.122984 7:0.000181868 
1 1:0.014678 2:0.0154431 3:0.0168137 4:0.20334 5:0.213939 6:0.232927 7:0.000526938 8:1 
1 1:0.0132726 2:0.0139644 3:0.0152039 4:0.201304 5:0.211797 6:0.230595 7:0.000442804 8:1 
1 1:0.000577286 2:0.000607386 3:0.000661299 4:0.118335 5:0.124503 6:0.135553 7:0.000266382 
1 1:0.0135103 2:0.0142146 3:0.0154762 4:0.222695 5:0.234303 6:0.255099 7:0.000834561 8:1 
1 1:0.0025703 2:0.00270428 3:0.00294429 4:0.142379 5:0.149801 6:0.163096 7:0.000189482 
1 1:0.00162859 2:0.0017135 3:0.0018656 4:0.233226 5:0.245384 6:0.267163 7:0.000427044 8:1 
1 1:0.0117137 2:0.0123243 3:0.0134181 4:0.153217 5:0.161204 6:0.175512 7:0.000186797 
1 1:0.0161746 2:0.0170177 3:0.0185281 4:0.172052 5:0.181021 6:0.197087 7:0.000543181 
0.01326467837248971 1:0.512215 2:0.538914 3:0.586746 4:32.0915 5:33.7643 6:36.761 7:2.55233 
0.001970515050637334 1:0.860445 2:0.905293 3:0.985645 4:31.9255 5:33.5897 6:36.5709 7:6.55069 
0.01136564314953531 1:1.18065 2:1.24219 3:1.35244 4:29.2009 5:30.723 6:33.4498 7:12.4069 8:1 
0.00537041973203907 1:3.2424 2:3.41142 3:3.7142 4:27.3912 5:28.819 6:31.3768 7:22.564 8:1 
0.01296866016499996 1:1.76142 2:1.85323 3:2.01772 4:6.92725 5:7.28834 6:7.93521 7:152.671 
0.01100989410167834 1:1.03932 2:1.0935 3:1.19055 4:26.0521 5:27.4101 6:29.8429 7:18.4282 8:1 
0.01912843946080086 1:6.59103 2:6.9346 3:7.55008 4:23.5867 5:24.8162 6:27.0187 7:27.8254 8:1 
0.01859953466572206 1:5.2307 2:5.50336 3:5.99181 4:24.7956 5:26.0881 6:28.4035 7:34.6827 8:1 
0.009694122337376963 1:3.52616 2:3.70997 3:4.03924 4:23.7257 5:24.9624 6:27.1779 7:30.6623 8:1 
0.01640824431964089 1:0.197628 2:0.207932 3:0.226385 4:25.1176 5:26.4269 6:28.7724 7:31.4605 8:1 
0.01214511954035516 1:0.708195 2:0.745108 3:0.811241 4:23.0491 5:24.2506 6:26.4029 7:23.1686 8:1 
0.01295920858114455 1:1.42018 2:1.49421 3:1.62683 4:7.18003 5:7.5543 6:8.22478 7:154.767 
1 1:0.00996831 2:0.0104879 3:0.0114187 4:0.184941 5:0.194581 6:0.211851 7:0.000419721 
0.02000248976877445 1:6.85679 2:7.2142 3:7.8545 4:13.7231 5:14.4385 6:15.7199 7:153.765 
1 1:0.00302184 2:0.00317936 3:0.00346152 4:0.216334 5:0.227611 6:0.247812 7:0.00037214 8:1 
1 1:0.00442904 2:0.00465989 3:0.00507349 4:0.24322 5:0.255898 6:0.27861 7:0.000239714 
0.002267461829665382 1:0.0534625 2:0.0562496 3:0.0612416 4:4.90708 5:5.16287 6:5.6211 7:6.53652 8:1 
0.00179848030092124 1:0.0517006 2:0.0543957 3:0.0592237 4:4.95096 5:5.20903 6:5.67135 7:7.03842 8:1 
0.006092586335259992 1:0.0108509 2:0.0114164 3:0.0124297 4:6.9536 5:7.31607 6:7.9654 7:7.44325 8:1 
0.005823955749703458 1:1.8109 2:1.9053 3:2.0744 4:6.09331 5:6.41093 6:6.97993 7:9.4892 8:1 
0.002675545973799565 1:0.0873585 2:0.0919113 3:0.10007 4:7.78134 5:8.18695 6:8.91358 7:0.544035 8:1 
0.002354209109069486 1:0.0807879 2:0.0849991 3:0.0925426 4:3.98494 5:4.19266 6:4.56477 7:17.2783 8:1 
0.008432384160532257 1:3.55451 2:3.7398 3:4.07172 4:5.07665 5:5.34128 6:5.81534 7:18.4247 8:1 
0.008520951143294143 1:2.49383 2:2.62382 3:2.8567 4:3.3315 5:3.50516 6:3.81625 7:27.4766 8:1 
0.002622011130727742 1:3.63951 2:3.82923 3:4.16909 4:3.85306 5:4.05391 6:4.41371 7:16.5757 8:1 
0.006471017599079551 1:2.25196 2:2.36934 3:2.57963 4:3.12946 5:3.29259 6:3.58482 7:18.0942 8:1 
0.01810555184161455 1:0.00313425 2:0.00329757 3:0.00359058 4:2.43457 5:2.56147 6:2.78881 7:25.9539 8:1 
1 8:1 
0.006360703830919877 1:0.021528 2:0.0226502 3:0.0246606 4:3.8475 5:4.04806 6:4.40734 7:15.8425 8:1 
0.001058445861045797 1:2.20102 2:2.31575 3:2.52128 4:1.10051 5:1.15787 6:1.26064 7:13.2649 8:1 
1 8:1 
