svm_type c_svc
kernel_type rbf
gamma 0.125
nr_class 2
total_sv 2607
rho -0.988439
label 1 0
nr_sv 1974 633
SV
0.01133956759270353 1:1.32218 2:1.37512 3:1.28219 4:10.8389 5:11.0733 6:10.6909 7:67.09 8:1 
0.00263078139941136 1:2.29502 2:2.32647 3:2.573 4:13.576 5:13.9902 6:14.2179 7:45.3107 8:1 
0.005247935038339313 1:0.879862 2:0.869416 3:0.932722 4:9.14642 5:9.40054 6:9.40843 7:40.2595 8:1 
0.0099494843787164 1:6.35108 2:6.59623 3:6.82532 4:14.6103 5:15.0686 6:15.3199 7:41.6379 8:1 
0.000705189139759358 1:0.0328388 2:0.0275912 3:0.0146856 4:5.03434 5:5.15976 6:5.08667 7:5.96808 8:1 
0.0007021123599054565 1:3.008 2:3.10241 3:3.2623 4:13.3772 5:13.7438 6:13.9621 7:13.2324 8:1 
0.006106931211614453 1:5.57135 2:5.77658 3:5.75967 4:14.7039 5:15.1457 6:15.3076 7:18.2424 8:1 
0.01110704073626567 1:3.88525 2:3.99112 3:4.10617 4:6.27689 5:6.36656 6:6.07877 7:49.9087 8:1 
0.002085965317805411 1:2.80846 2:2.86496 3:3.18007 4:15.0988 5:15.5456 6:15.7768 7:10.2788 8:1 
0.007892513748190833 1:0.689045 2:0.742429 3:0.69501 4:7.90378 5:8.02344 6:7.86232 7:48.1979 8:1 
0.00655360123302089 1:2.35424 2:2.41728 3:2.53762 4:14.7254 5:15.1831 6:15.4129 7:25.238 8:1 
0.0104650215475463 1:5.36391 2:5.59292 3:5.76523 4:11.0918 5:11.3173 6:11.1289 7:61.0702 8:1 
1 1:0.144926 2:0.142006 3:0.108564 4:0.117084 5:0.105632 6:0.0664267 7:0.0470931 8:1 
0.002643605018654238 1:0.420355 2:0.406591 3:0.491351 4:15.0662 5:15.5559 6:15.8008 7:7.96814 8:1 
0.009054921114833303 1:2.20253 2:2.31411 3:2.37205 4:13.8113 5:14.1574 6:14.006 7:36.084 8:1 
1 1:0.0309289 2:0.0282899 3:0.00870417 4:0.0214676 5:0.0172408 6:0.00463432 7:0.121807 8:1 
0.004618367469581826 1:0.0708981 2:0.116812 3:0.0446434 4:12.7545 5:13.1619 6:13.4299 7:20.9051 8:1 
0.002716574521809166 1:0.179803 2:0.169546 3:0.228137 4:12.343 5:12.6797 6:12.3665 7:19.7703 8:1 
0.003588914864732128 1:0.223991 2:0.251899 3:0.224988 4:12.847 5:13.1933 6:12.825 7:3.14966 8:1 
0.00740206335011051 1:1.20945 2:1.28617 3:1.29354 4:8.36313 5:8.61459 6:8.80232 7:50.397 8:1 
1 1:0.00959765 2:0.00937638 3:0.000862202 4:0.0140691 5:0.0125221 6:0.00276009 7:0.000262061 8:1 
0.003788995375872628 1:0.0555453 2:0.0493226 3:0.0312343 4:5.24538 5:5.35633 6:5.71523 7:0.0155805 8:1 
0.001619585732105294 1:1.96513 2:1.98927 3:2.16325 4:10.6442 5:10.9411 6:10.5919 7:9.36097 8:1 
0.002603144049147355 1:0.688787 2:0.73467 3:0.744802 4:10.3676 5:10.6563 6:10.1858 7:7.65323 8:1 
1 8:1 
1 8:1 
0.005042287139642276 1:0.0190763 2:0.0276041 3:0.0200672 4:9.21887 5:9.49268 6:9.69845 7:5.66255 8:1 
1 8:1 
0.004787827087622796 1:1.71344 2:1.80037 3:1.72951 4:9.24383 5:9.47755 6:9.1329 7:2.05626 8:1 
1 1:0.092536 2:0.0796118 3:0.0268111 4:0.0508388 5:0.0437948 6:0.015204 7:0.012033 8:1 
1 1:0.104646 2:0.0966734 3:0.0307943 4:0.0958823 5:0.0835262 6:0.0209102 7:0.0131557 8:1 
1 1:0.0632271 2:0.0657121 3:0.0387596 4:0.109146 5:0.097522 6:0.0282345 7:0.0179195 8:1 
0.005602955143005913 1:0.0566225 2:0.0528288 3:0.136478 4:8.32994 5:8.54534 6:8.34609 7:0.330698 8:1 
0.0005808565907016172 1:0.540852 2:0.578964 3:0.581092 4:7.23813 5:7.37714 6:7.19126 7:5.7374 8:1 
0.002973246074562341 1:2.84652 2:2.96878 3:3.03886 4:15.2609 5:15.7168 6:16.063 7:7.2103 8:1 
0.001129737392400198 1:0.295889 2:0.291969 3:0.423778 4:7.74464 5:7.91835 6:7.70648 7:3.27534 8:1 
0.00124471678672576 1:2.04191 2:2.08609 3:2.39905 4:8.62718 5:8.83047 6:9.33245 7:15.381 8:1 
0.01091719854228298 1:1.00924 2:1.09441 3:0.897991 4:6.12506 5:6.31922 6:6.67809 7:35.8622 8:1 
0.001730596891689917 1:2.14619 2:2.25542 3:2.42066 4:13.6695 5:14.0502 6:14.5692 7:5.5146 8:1 
0.003079540950005233 1:1.77451 2:1.85069 3:1.75277 4:11.8977 5:12.3231 6:12.5947 7:8.9845 8:1 
0.003575864059953564 1:0.19446 2:0.185381 3:0.117103 4:14.128 5:14.6482 6:14.8886 7:5.9448 8:1 
0.000164751125940785 1:0.249804 2:0.241341 3:0.392699 4:8.7153 5:8.90966 6:9.64249 7:0.160312 8:1 
0.001385650356740764 1:1.91235 2:1.98068 3:2.18566 4:7.85089 5:8.08897 6:8.84475 7:5.98271 8:1 
0.006781265884983678 1:0.227568 2:0.273108 3:0.214678 4:16.6615 5:17.2632 6:17.5397 7:18.5927 8:1 
0.007272657428090301 1:0.136889 2:0.164814 3:0.000880241 4:12.4216 5:12.6881 6:13.8255 7:30.3893 8:1 
0.007303072869150818 1:1.25984 2:1.33235 3:1.49086 4:12.1394 5:12.5163 6:13.7133 7:34.0796 8:1 
0.004920144738850599 1:2.57719 2:2.62944 3:2.79122 4:11.4162 5:11.6817 6:12.3183 7:3.58987 8:1 
0.006637408576484895 1:3.58649 2:3.77446 3:4.09053 4:15.3555 5:15.8561 6:17.4895 7:91.0745 8:1 
0.01096047383696226 1:0.530638 2:0.545582 3:0.671991 4:16.4049 5:16.9606 6:18.6002 7:66.2169 8:1 
0.0013117133659441 1:1.90065 2:1.94042 3:1.92271 4:15.7116 5:16.1131 6:17.2547 7:25.014 8:1 
0.01074503327043919 1:5.20909 2:5.41954 3:5.79898 4:17.6015 5:18.2028 6:20.0489 7:130.349 8:1 
0.007207835920316071 1:2.38275 2:2.42704 3:2.48239 4:18.3683 5:18.9545 6:20.6459 7:105.686 8:1 
0.004137310605725752 1:1.9352 2:2.01934 3:2.23843 4:16.507 5:16.9653 6:18.1988 7:38.8285 8:1 
0.005912566025554823 1:2.92572 2:3.01394 3:3.57192 4:21.8361 5:22.534 6:24.5869 7:98.4926 8:1 
0.01133288675999489 1:2.55143 2:2.65032 3:2.65728 4:14.9517 5:15.4145 6:16.2672 7:53.6353 8:1 
0.007833927425889637 1:2.85218 2:3.03956 3:3.20459 4:13.7311 5:14.1003 6:15.3863 7:70.3253 8:1 
0.008460162258384387 1:0.0692062 2:0.00842857 3:0.259716 4:17.8837 5:18.392 6:20.0955 7:72.4187 8:1 
0.01127821951448177 1:5.12151 2:5.4313 3:5.71964 4:14.7042 5:15.0997 6:16.0464 7:35.8644 8:1 
0.002496826630258306 1:2.94852 2:3.02878 3:3.59583 4:21.0908 5:21.7753 6:23.5871 7:35.4666 8:1 
0.007965288769791528 1:1.18784 2:1.27441 3:1.30357 4:18.3329 5:18.9 6:20.6755 7:82.3146 8:1 
0.004977752766724408 1:1.54642 2:1.426 3:1.49412 4:13.8422 5:14.3145 6:15.2074 7:43.6121 8:1 
0.005670906226162256 1:2.12997 2:2.22959 3:2.40029 4:15.2701 5:15.6954 6:17.0096 7:129.676 8:1 
0.005986395036240821 1:4.58572 2:4.80952 3:5.32497 4:18.7925 5:19.3755 6:21.1916 7:101.459 8:1 
0.01100775831082645 1:0.839264 2:1.19072 3:1.52153 4:19.1124 5:19.8929 6:21.5319 7:55.3707 8:1 
0.01046876814590952 1:2.70163 2:2.85968 3:3.08973 4:17.3464 5:17.8918 6:19.2377 7:109.582 8:1 
0.01058432567952028 1:0.0324583 2:0.0396891 3:0.115355 4:14.0946 5:14.5219 6:15.7645 7:133.224 8:1 
0.001019561613731401 1:0.185728 2:0.193818 3:0.252498 4:7.61597 5:7.79076 6:8.14406 7:7.12307 8:1 
0.007346303716895541 1:2.45431 2:2.56007 3:2.74798 4:9.60598 5:9.87975 6:10.5805 7:56.8397 8:1 
0.01142498585161197 1:5.11675 2:5.29323 3:5.8449 4:16.629 5:17.1412 6:18.6275 7:86.3862 8:1 
0.001997284371225956 1:3.4025 2:3.51552 3:3.89568 4:13.9648 5:14.3664 6:15.4643 7:21.615 8:1 
0.003396458141245498 1:1.76378 2:1.79976 3:1.72209 4:11.6672 5:11.9036 6:11.8114 7:12.5113 8:1 
0.01097118931437668 1:6.5287 2:6.77336 3:7.28781 4:21.9813 5:22.6771 6:24.541 7:87.4385 8:1 
0.006739401796542122 1:1.8173 2:1.89431 3:1.83397 4:12.0111 5:12.3336 6:13.0122 7:28.1213 8:1 
0.009701128685267013 1:4.27676 2:4.41799 3:4.90822 4:14.9379 5:15.3372 6:16.6141 7:45.8557 8:1 
0.008598684645961086 1:0.668109 2:0.698093 3:0.76655 4:15.0327 5:15.4657 6:16.7923 7:75.5159 8:1 
0.00607580775034721 1:0.998629 2:1.03265 3:1.28047 4:16.7623 5:17.23 6:18.6702 7:26.6091 8:1 
0.008767973784958803 1:2.55585 2:2.73921 3:3.00728 4:19.2757 5:19.8527 6:21.5211 7:76.7423 8:1 
0.009036231667058248 1:1.97156 2:2.05971 3:2.31034 4:15.3238 5:15.741 6:16.8249 7:46.6899 8:1 
0.008173671283501605 1:1.39773 2:1.40334 3:1.59554 4:17.9278 5:18.4274 6:19.7438 7:39.8216 8:1 
0.005705224351954899 1:0.0758524 2:0.136627 3:0.067852 4:10.2221 5:10.3967 6:10.365 7:13.8568 8:1 
0.001341598973038944 1:1.07005 2:1.14385 3:1.31434 4:15.8425 5:16.2986 6:17.1384 7:15.3124 8:1 
0.007353182082033209 1:0.466335 2:0.407009 3:0.229939 4:20.1898 5:20.7828 6:22.5777 7:36.5568 8:1 
0.003931468061472065 1:0.651083 2:0.680706 3:0.911465 4:21.456 5:22.0836 6:23.9365 7:29.3362 8:1 
0.001456729968629253 1:0.603743 2:0.650124 3:0.736298 4:21.4244 5:22.0456 6:23.6446 7:21.2678 8:1 
0.009262464715639624 1:3.79789 2:3.9124 3:4.30273 4:20.6057 5:21.2115 6:22.9778 7:63.8688 8:1 
0.00565847788552282 1:1.79962 2:1.92586 3:2.18834 4:22.7816 5:23.4192 6:25.1701 7:42.6684 8:1 
0.01015496283883643 1:4.15005 2:4.34729 3:4.60977 4:17.9417 5:18.4883 6:19.5254 7:49.5439 8:1 
0.00554376024877477 1:0.407446 2:0.420866 3:0.362778 4:20.2859 5:20.872 6:22.6467 7:74.493 8:1 
0.00228307695835052 1:2.00955 2:2.0727 3:2.28586 4:9.8637 5:10.0981 6:10.3112 7:14.9843 8:1 
0.009332440438565959 1:4.32485 2:4.45998 3:4.89405 4:20.0677 5:20.598 6:22.1045 7:47.6903 8:1 
0.005798474692414944 1:1.75403 2:1.79545 3:1.87459 4:22.1327 5:22.7636 6:24.6158 7:86.2501 8:1 
0.0111516680823861 1:6.34219 2:6.58411 3:7.04464 4:21.2601 5:21.9813 6:23.3844 7:112.316 8:1 
0.00770079032660132 1:1.11747 2:1.14735 3:1.27975 4:17.4194 5:17.9462 6:19.3071 7:48.6634 8:1 
0.008297362886750925 1:2.75361 2:2.81486 3:3.07995 4:8.98649 5:9.18192 6:9.2228 7:40.0709 8:1 
0.008953759603972895 1:0.22999 2:0.29287 3:0.262346 4:20.9753 5:21.5497 6:23.1595 7:41.6127 8:1 
0.002292334926046413 1:1.49775 2:1.49333 3:1.65396 4:20.0359 5:20.722 6:22.0228 7:104.793 8:1 
0.008156325418221033 1:0.619682 2:0.538055 3:0.697092 4:21.0785 5:21.6332 6:23.314 7:105.557 8:1 
0.006536703463145777 1:3.46722 2:3.58256 3:3.81911 4:10.8743 5:11.1269 6:11.3259 7:27.208 8:1 
0.005478868748496013 1:2.4563 2:2.50449 3:2.59955 4:19.6457 5:20.236 6:21.7938 7:95.6097 8:1 
0.006695917466487622 1:1.67788 2:1.7073 3:1.95359 4:16.8821 5:17.3306 6:18.3834 7:142.689 8:1 
0.004588275609931858 1:0.863319 2:0.904643 3:1.03409 4:8.29291 5:8.46847 6:8.56711 7:29.0778 8:1 
0.01141470537315609 1:2.15438 2:2.20057 3:2.43806 4:21.5293 5:22.2618 6:23.7929 7:169.198 8:1 
0.004498594623039654 1:0.624559 2:0.666565 3:0.719007 4:14.6062 5:15.0253 6:16.0643 7:83.9237 8:1 
0.009603033115514581 1:0.153492 2:0.12863 3:0.116102 4:17.1099 5:17.5864 6:18.859 7:131.223 8:1 
0.01183903785400664 1:0.0233917 2:0.0151997 3:0.0156746 4:17.068 5:17.5736 6:18.7683 7:88.5213 8:1 
0.007048679031639693 1:1.81115 2:1.81852 3:2.05916 4:11.5847 5:11.8858 6:12.4969 7:111.747 8:1 
0.009482847931406383 1:0.0906982 2:0.0605164 3:0.109003 4:18.1047 5:18.6457 6:19.7207 7:106.237 8:1 
0.0114272518630984 1:5.58396 2:5.77636 3:6.38579 4:20.4762 5:21.0626 6:22.8009 7:171.487 8:1 
0.00297660685386808 1:1.47516 2:1.54175 3:1.63257 4:18.5579 5:19.1749 6:20.4876 7:104.165 8:1 
0.007624895228333482 1:9.08085 2:9.40989 3:10.2706 4:21.3627 5:22.0691 6:23.7781 7:165.631 8:1 
0.009242561269207149 1:4.56058 2:4.80538 3:5.04151 4:24.1263 5:24.9745 6:27.2246 7:55.78 8:1 
0.007287027682488001 1:0.538097 2:0.575367 3:0.774564 4:14.0383 5:14.4476 6:15.424 7:83.7034 8:1 
0.008684083585705271 1:0.0911388 2:0.113503 3:0.168852 4:21.431 5:22.1122 6:24.0826 7:82.4603 8:1 
0.0102884817037599 1:0.360025 2:0.351164 3:0.360216 4:19.6507 5:20.2588 6:21.8258 7:161.379 8:1 
0.0007703392293113009 1:2.20314 2:2.24289 3:2.75329 4:19.8059 5:20.4614 6:22.2043 7:99.8137 8:1 
0.008320917103570979 1:0.109325 2:0.140837 3:0.213329 4:12.8296 5:13.2409 6:14.0593 7:129.228 8:1 
0.009778230978085389 1:2.6405 2:2.73132 3:3.09284 4:19.4846 5:20.0247 6:21.6256 7:160.743 8:1 
0.008764452515448617 1:0.610065 2:0.659176 3:0.871548 4:25.2924 5:26.0988 6:28.374 7:123.082 8:1 
0.007713515202155519 1:2.44652 2:2.58818 3:2.8757 4:18.996 5:19.5281 6:20.9643 7:100.027 8:1 
0.006319825496065347 1:0.0523891 2:0.0441132 3:0.228544 4:19.0227 5:19.6654 6:21.1052 7:64.9369 8:1 
0.008048679629787392 1:1.40768 2:1.43073 3:1.46333 4:16.2795 5:16.7918 6:18.3371 7:81.2438 8:1 
0.002441024412053683 1:2.20804 2:2.25662 3:2.3028 4:24.7554 5:25.5678 6:27.7193 7:94.4516 8:1 
0.00809859785179895 1:1.90783 2:1.99609 3:2.3044 4:21.8046 5:22.4987 6:24.3988 7:92.5597 8:1 
0.01188247737083786 1:3.55294 2:3.69708 3:4.0944 4:19.4857 5:20.1666 6:21.4288 7:176.089 8:1 
0.01194609490033993 1:12.7943 2:13.2919 3:14.4794 4:23.4232 5:24.1952 6:26.2763 7:111.314 8:1 
0.009462255391137708 1:5.08547 2:5.2201 3:5.68916 4:22.5831 5:23.2831 6:25.2336 7:136.867 8:1 
0.009575174842864648 1:10.5558 2:10.8916 3:12.2877 4:18.2578 5:18.8055 6:20.4619 7:136.686 8:1 
0.006950038389669344 1:0.566847 2:0.609955 3:0.597317 4:21.3914 5:22.0554 6:24.013 7:102.683 8:1 
0.01158081661728277 1:2.33343 2:2.4352 3:2.9079 4:22.5314 5:23.2243 6:25.2098 7:181.722 8:1 
0.008078645004368832 1:4.96115 2:5.11131 3:5.44419 4:20.3344 5:20.9918 6:22.6775 7:74.9891 8:1 
0.007340280402167221 1:0.318256 2:0.364384 3:0.568474 4:21.9573 5:22.7191 6:24.2773 7:156.753 8:1 
0.01135987050077208 1:3.63838 2:3.74342 3:4.17594 4:23.4291 5:24.1799 6:26.4002 7:217.979 8:1 
0.01033794704500668 1:4.27906 2:4.38927 3:5.23101 4:25.0753 5:25.8608 6:28.1835 7:164.426 8:1 
0.01008230008433744 1:0.400761 2:0.318205 3:0.116009 4:27.511 5:28.4344 6:30.7324 7:134.493 8:1 
0.01090194918188331 1:5.24719 2:5.40136 3:6.01706 4:16.1167 5:16.5452 6:18.1291 7:109.489 8:1 
0.009641292770585674 1:5.14519 2:5.37116 3:5.46938 4:21.2425 5:21.9731 6:23.5573 7:134.116 8:1 
0.008486330377995788 1:2.47772 2:2.60218 3:2.50441 4:25.5344 5:26.3554 6:28.8623 7:122.777 8:1 
0.01116509823658601 1:8.61361 2:8.99131 3:9.62481 4:21.9935 5:22.7314 6:24.4319 7:117.346 8:1 
0.004198565156936618 1:2.98032 2:2.98582 3:3.13772 4:21.1474 5:21.8237 6:23.3725 7:85.8442 8:1 
0.01064137100316648 1:1.93531 2:2.00786 3:2.18223 4:25.1945 5:26.0489 6:28.3653 7:219.109 8:1 
0.007316923199966574 1:1.40892 2:1.37776 3:1.93641 4:19.5176 5:20.0834 6:21.4919 7:86.2488 8:1 
0.01048195669208701 1:3.79821 2:4.01492 3:4.43327 4:21.307 5:21.9607 6:23.8902 7:119.836 8:1 
0.01124971936721669 1:5.28758 2:5.50073 3:5.98361 4:19.3438 5:19.9188 6:21.4172 7:158.34 8:1 
0.007990012616370558 1:10.1946 2:10.5385 3:11.5684 4:20.9315 5:21.5606 6:23.3811 7:166.669 
0.006883293135374113 1:1.59238 2:1.74107 3:1.83702 4:20.059 5:20.7249 6:22.2216 7:127.951 8:1 
0.006695767598864995 1:0.197617 2:0.174726 3:0.016325 4:22.6399 5:23.3378 6:25.2684 7:77.203 8:1 
0.01132704366137805 1:2.50792 2:2.52561 3:2.89587 4:20.6487 5:21.3423 6:23.0028 7:195.762 8:1 
0.01101880243502396 1:2.44713 2:2.60118 3:2.90558 4:22.2117 5:22.9496 6:24.9196 7:163.031 8:1 
0.003860446692936892 1:2.92739 2:2.97633 3:3.40569 4:19.007 5:19.5888 6:20.8568 7:95.0967 8:1 
0.003806368765478262 1:2.09062 2:2.20622 3:2.33742 4:22.7456 5:23.431 6:25.3279 7:67.7646 8:1 
0.009931509025166908 1:1.61074 2:1.66043 3:1.69339 4:19.9793 5:20.608 6:22.3183 7:137.073 8:1 
0.007497574036461119 1:0.794706 2:0.769001 3:0.902174 4:20.0273 5:20.6982 6:22.0202 7:129.535 8:1 
0.00489537158671808 1:0.752462 2:0.836025 3:0.701422 4:19.9479 5:20.5904 6:22.2723 7:33.408 8:1 
0.01157467058110639 1:8.80507 2:8.91864 3:10.0577 4:27.1575 5:27.8868 6:30.5058 7:497.407 
0.0009890722159040521 1:2.01656 2:2.09283 3:2.32355 4:23.4507 5:24.1576 6:25.9733 7:51.0231 8:1 
0.009557426609920453 1:2.05006 2:2.15271 3:2.51311 4:16.541 5:17.0871 6:18.1738 7:170.643 8:1 
0.006459151010130268 1:0.814137 2:0.935627 3:1.19418 4:20.3541 5:20.9973 6:22.5613 7:97.4161 8:1 
0.01130117998792804 1:0.524656 2:0.575357 3:0.605055 4:28.1805 5:29.0763 6:31.5398 7:65.2718 8:1 
0.007816717871994935 1:3.02335 2:3.18799 3:3.55171 4:22.2472 5:22.9606 6:24.7768 7:45.8639 8:1 
0.004475281005684784 1:2.61578 2:2.68484 3:2.88614 4:8.44823 5:8.64223 6:8.76486 7:44.1695 8:1 
0.006471295188497921 1:1.14613 2:1.2574 3:1.30198 4:24.3975 5:25.1451 6:27.1435 7:89.1329 8:1 
0.00992025895882398 1:3.57606 2:3.63549 3:3.75963 4:20.8908 5:21.5148 6:23.3335 7:89.5191 
0.005411953241948111 1:1.28297 2:1.42051 3:1.49161 4:24.2494 5:24.9732 6:27.0852 7:33.8082 8:1 
0.01111383869112314 1:2.10889 2:2.22866 3:2.23065 4:14.1917 5:14.5902 6:15.3017 7:143.036 8:1 
0.004879701200701192 1:0.176992 2:0.176276 3:0.198949 4:7.84479 5:8.0174 6:8.13635 7:39.2627 8:1 
0.006795744269798032 1:2.27719 2:2.33919 3:2.56388 4:15.4244 5:15.8968 6:17.0095 7:125.394 8:1 
0.009642354432606777 1:2.61587 2:2.72232 3:2.93353 4:16.4705 5:16.9523 6:17.8755 7:167.171 8:1 
0.008341013309617729 1:1.08459 2:1.1083 3:0.993203 4:10.8359 5:11.1712 6:11.5922 7:113.305 8:1 
0.01009040572279696 1:2.66043 2:2.77474 3:3.13425 4:13.3602 5:13.7381 6:14.6163 7:76.0364 8:1 
0.009184760028856452 1:3.26901 2:3.41154 3:3.82069 4:18.844 5:19.3809 6:20.7511 7:136.407 8:1 
0.01158012099541761 1:1.55532 2:1.54423 3:1.73724 4:16.387 5:16.9244 6:17.9405 7:195.652 8:1 
0.004487917678003384 1:1.08239 2:1.02681 3:1.31052 4:15.4106 5:15.7846 6:16.7936 7:127.964 8:1 
0.002911589005910042 1:1.25595 2:1.32434 3:1.42425 4:19.7563 5:20.3202 6:21.7884 7:72.8469 
0.007964019616448881 1:4.7072 2:4.81621 3:5.44043 4:15.1488 5:15.5123 6:16.6333 7:132.919 8:1 
0.009337185443686502 1:2.37219 2:2.47733 3:2.60232 4:11.9801 5:12.1988 6:12.8963 7:72.3173 8:1 
0.004886044318138405 1:1.11131 2:1.24665 3:1.43756 4:20.8772 5:21.4348 6:23.0339 7:149.41 8:1 
0.005191596810676824 1:1.86658 2:1.90804 3:2.13906 4:23.0029 5:23.7497 6:25.513 7:26.2081 
0.01108318277627418 1:4.37996 2:4.57244 3:5.00026 4:21.4998 5:22.0984 6:23.5913 7:141.296 8:1 
0.007694657006452519 1:0.770069 2:0.830645 3:0.835415 4:25.3897 5:26.166 6:28.4208 7:110.72 
0.01127563441157903 1:4.14644 2:4.32552 3:4.84729 4:17.8341 5:18.3285 6:19.712 7:116.264 8:1 
0.01138801206986284 1:6.30846 2:6.55862 3:7.1445 4:13.4834 5:13.876 6:14.5618 7:147.273 8:1 
0.01152286088947668 1:0.437363 2:0.434908 3:0.558395 4:19.8777 5:20.39 6:22.0104 7:189.048 8:1 
0.005292466596133971 1:2.57342 2:2.59892 3:2.94207 4:23.7548 5:24.5058 6:26.4238 7:70.3784 
0.01143187022218184 1:0.247827 2:0.305332 3:0.370567 4:13.9845 5:14.354 6:15.3749 7:106.388 8:1 
0.01038343182192605 1:6.88734 2:7.08447 3:7.74449 4:15.8525 5:16.3141 6:17.516 7:137.938 8:1 
0.01061443880026047 1:0.394406 2:0.457022 3:0.476475 4:14.9139 5:15.2723 6:16.32 7:101.911 8:1 
0.01149268363228506 1:4.08152 2:4.2237 3:4.82737 4:15.4111 5:15.8223 6:16.9946 7:149.908 8:1 
0.004163381039497593 1:1.51792 2:1.54308 3:1.87114 4:13.9824 5:14.2944 6:15.0265 7:71.3144 8:1 
0.005989539504152819 1:0.291695 2:0.319702 3:0.466461 4:21.6051 5:22.2565 6:23.8525 7:44.5057 
0.01097136561250611 1:3.79212 2:3.8275 3:4.51441 4:14.6506 5:14.9527 6:15.8196 7:112.778 8:1 
0.008761062891392113 1:6.24479 2:6.47045 3:7.33851 4:14.8723 5:15.2875 6:16.2322 7:131.595 8:1 
0.005311464022915499 1:1.06787 2:1.01449 3:1.94433 4:24.9288 5:25.5786 6:28.3717 7:92.7174 
0.01044675691727442 1:0.652903 2:0.690151 3:0.771662 4:16.127 5:16.5719 6:17.9031 7:139.214 8:1 
0.007847330805078455 1:1.72171 2:1.71989 3:1.78367 4:20.1462 5:20.6749 6:22.4 7:152.096 8:1 
0.01155506091450176 1:5.81041 2:6.01468 3:6.7378 4:17.8621 5:18.3624 6:19.6296 7:183.898 8:1 
0.0007855297539245279 1:2.86535 2:3.00732 3:3.19883 4:25.9191 5:26.7462 6:28.8829 7:77.6176 
0.01109451764237185 1:5.99471 2:6.20578 3:7.15928 4:20.5687 5:21.0884 6:22.7471 7:107.343 8:1 
0.008268361901588585 1:1.87804 2:1.94408 3:2.17858 4:21.1011 5:21.63 6:23.4841 7:79.7081 8:1 
0.007756155575396174 1:2.69044 2:2.76354 3:3.1267 4:20.4973 5:21.0643 6:22.9162 7:149.266 8:1 
0.0006195495259462835 1:0.97064 2:0.963188 3:1.24647 4:23.4674 5:24.139 6:26.2544 7:53.0788 
0.00626379783222582 1:1.42919 2:1.5643 3:1.84752 4:24.4373 5:25.1068 6:27.2734 7:47.3039 8:1 
0.01052764951705243 1:1.96884 2:2.04761 3:2.29049 4:19.803 5:20.3333 6:21.9428 7:114.911 8:1 
0.007179037518945348 1:6.94067 2:7.15331 3:7.93268 4:21.4757 5:22.0186 6:23.9435 7:66.238 8:1 
0.008530292722837396 1:0.311674 2:0.3498 3:0.312954 4:19.398 5:19.9 6:21.2163 7:100.415 8:1 
0.0115638971116962 1:142.138 2:147.095 3:175.552 4:146.978 5:151.881 6:178.221 7:78260.6 
0.006539829474516867 1:2.51167 2:2.56866 3:2.89515 4:25.1744 5:25.7913 6:28.0212 7:93.8813 8:1 
0.007052202097486304 1:3.62789 2:3.69954 3:4.43221 4:22.6174 5:23.299 6:25.2897 7:82.3344 
0.004508336669460883 1:0.449589 2:0.510353 3:0.476833 4:20.4245 5:20.9731 6:22.6024 7:29.2289 8:1 
0.003319468426907501 1:2.70283 2:2.74772 3:3.18841 4:16.9315 5:17.3842 6:18.3984 7:36.9409 8:1 
0.008666944448237845 1:0.614723 2:0.599583 3:0.645521 4:17.2906 5:17.8356 6:19.1738 7:127.237 8:1 
0.00550123017641202 1:0.242441 2:0.213751 3:0.219006 4:25.1877 5:26.0553 6:27.8468 7:88.2158 8:1 
0.01166720906824381 1:9.89984 2:10.3265 3:11.2321 4:19.5187 5:20.1447 6:21.6504 7:157.671 8:1 
0.006544578791136291 1:1.73187 2:1.81318 3:2.09514 4:18.3832 5:18.9523 6:20.4064 7:142.26 8:1 
0.008118632423032008 1:0.270132 2:0.385525 3:0.600262 4:19.5947 5:20.0926 6:21.6235 7:50.514 8:1 
0.01033081330800129 1:6.13789 2:6.51572 3:7.03617 4:25.285 5:26.0697 6:28.7023 7:117.835 
0.001788702752580973 1:1.72832 2:1.79249 3:1.97028 4:18.9395 5:19.4903 6:20.7781 7:84.3872 8:1 
0.006560915645950682 1:3.11661 2:3.24928 3:3.59373 4:24.7125 5:25.5071 6:27.5176 7:60.853 8:1 
0.005453627098842429 1:0.920126 2:0.873327 3:0.794886 4:19.9385 5:20.4523 6:21.8893 7:64.2504 8:1 
0.006010104549999673 1:0.444338 2:0.403553 3:0.223068 4:24.2527 5:25.0199 6:26.7844 7:65.099 8:1 
0.009647690750823501 1:1.06201 2:1.08953 3:1.20797 4:23.5434 5:24.2886 6:26.2867 7:119.039 8:1 
0.00593955196060398 1:0.10033 2:0.0764275 3:0.0440884 4:24.7649 5:25.5119 6:27.5079 7:61.1317 8:1 
0.006429710135394224 1:4.21843 2:4.42967 3:4.81069 4:25.1243 5:25.984 6:27.9767 7:58.6009 8:1 
0.004579137557774615 1:2.24311 2:2.37659 3:2.6578 4:23.0635 5:23.7239 6:25.7038 7:83.8653 8:1 
0.01003181890557945 1:0.0276451 2:0.0420341 3:0.0495834 4:25.9259 5:26.8038 6:28.8269 7:49.4542 8:1 
0.007064188152985595 1:0.907511 2:0.972067 3:0.929228 4:22.4696 5:23.2159 6:24.7389 7:52.133 8:1 
0.01097192977892 1:7.38446 2:7.59708 3:8.63191 4:25.1036 5:25.8599 6:27.8352 7:50.9516 8:1 
0.003073507956031313 1:1.94253 2:2.0209 3:2.30155 4:25.8169 5:26.5805 6:28.8225 7:74.2439 8:1 
0.004954356997760867 1:1.45881 2:1.55235 3:1.60196 4:21.1973 5:21.8199 6:23.5438 7:67.0985 8:1 
0.01068154160661283 1:2.89761 2:3.01269 3:3.22135 4:29.9143 5:30.9008 6:33.4854 7:87.7243 8:1 
0.00665918247036032 1:1.03704 2:1.14441 3:1.03436 4:25.011 5:25.7804 6:28.0113 7:37.8097 8:1 
0.009142347195600913 1:0.274059 2:0.296455 3:0.19622 4:26.0556 5:26.7651 6:29.2464 7:55.6977 8:1 
0.002438067265384425 1:1.80418 2:1.87805 3:1.86337 4:21.3353 5:21.8961 6:23.5465 7:72.1856 8:1 
0.00899513650263728 1:0.404869 2:0.395031 3:0.290909 4:25.3572 5:26.1225 6:28.4758 7:70.0764 8:1 
0.006999777400329732 1:0.702511 2:0.745312 3:0.804874 4:26.7514 5:27.6529 6:30.0152 7:91.2851 8:1 
0.008292983886277583 1:1.65619 2:1.83759 3:2.02238 4:25.1329 5:25.9107 6:28.1706 7:65.1849 8:1 
0.007908490439701377 1:3.38025 2:3.48798 3:3.7681 4:24.2403 5:25.0435 6:27.0568 7:112.937 8:1 
0.003739143934681499 1:1.5463 2:1.64079 3:1.66137 4:24.7268 5:25.5054 6:27.2588 7:59.9247 
0.001764385235615507 1:2.81207 2:2.93266 3:3.22431 4:25.2695 5:25.9928 6:28.5322 7:59.6203 8:1 
0.009442502104918425 1:3.73629 2:3.91686 3:4.45872 4:25.2974 5:26.089 6:28.5317 7:84.0768 8:1 
0.0112701799844126 1:4.23948 2:4.39141 3:4.93416 4:21.6418 5:22.2595 6:24.5518 7:237.067 
0.009359471742829866 1:4.20874 2:4.32153 3:4.8815 4:18.9868 5:19.5624 6:20.9643 7:65.7036 8:1 
0.006465089337375839 1:2.30893 2:2.35652 3:2.67528 4:24.1831 5:24.8993 6:27.288 7:80.5629 8:1 
0.006529027490514481 1:1.85595 2:1.91254 3:1.77956 4:28.0854 5:29.005 6:31.4542 7:117.622 8:1 
0.0104922719549779 1:4.13998 2:4.25504 3:4.58331 4:23.7121 5:24.5208 6:26.8154 7:98.5509 8:1 
0.007971857102663167 1:3.83368 2:3.96015 3:4.47707 4:23.8484 5:24.5313 6:26.9261 7:117.77 8:1 
0.007206621249260286 1:0.759287 2:0.896408 3:0.687868 4:23.8321 5:24.6414 6:26.851 7:79.8316 8:1 
0.005513693409369907 1:0.395897 2:0.445316 3:0.595533 4:24.1868 5:24.9895 6:26.8231 7:57.4658 
0.00574058440628774 1:2.95169 2:3.0116 3:3.20746 4:22.6988 5:23.3954 6:25.6111 7:73.0304 8:1 
0.007585166603803166 1:1.36382 2:1.47647 3:1.37345 4:26.9269 5:27.7498 6:30.3547 7:131.561 8:1 
0.01156379986425821 1:186.835 2:193.414 3:229.711 4:555.387 5:574.717 6:678.68 7:231170 
0.007211075206440389 1:2.73644 2:2.82917 3:3.36392 4:26.6018 5:27.4198 6:29.5113 7:78.5057 
0.01075834662364017 1:1.08603 2:1.09449 3:1.12988 4:31.6804 5:32.6387 6:36.024 7:56.5717 8:1 
0.003566363841877018 1:1.07033 2:1.12891 3:1.01127 4:36.1937 5:37.3171 6:41.0363 7:12.1085 8:1 
0.001411499369236402 1:1.35409 2:1.43047 3:1.73728 4:24.3831 5:25.1719 6:27.2608 7:69.9485 
0.01157304056940106 1:3.67264 2:3.86829 3:6.29468 4:446.659 5:461.46 6:539.356 7:198633 
0.006342724024186175 1:1.49827 2:1.58143 3:1.73205 4:34.5086 5:35.6245 6:39.1562 7:7.61844 8:1 
0.01183456872115463 1:9.50737 2:9.65192 3:9.89228 4:23.6734 5:24.3889 6:26.0755 7:161.587 
0.008284774466691402 1:3.35234 2:3.48101 3:3.58492 4:25.7117 5:26.535 6:29.2068 7:75.1019 
0.003117085256743762 1:1.59491 2:1.66219 3:1.73898 4:33.5269 5:34.5167 6:37.9422 7:9.3979 8:1 
0.01157943631803882 1:1.52409 2:1.59521 3:1.52776 4:19.3169 5:19.9395 6:21.1523 7:212.183 
0.01157508371789678 1:0.939886 2:0.991611 3:0.899773 4:26.5848 5:27.4157 6:29.8293 7:11740.4 
0.006428362270431698 1:2.71565 2:2.85386 3:2.96875 4:31.3164 5:32.3456 6:35.2954 7:75.9505 
0.007664450730105965 1:4.38029 2:4.44512 3:4.57288 4:25.6015 5:26.2592 6:28.1735 7:115.876 
0.0111970381325357 1:1.2424 2:1.25826 3:1.2862 4:33.0979 5:34.3139 6:37.5265 7:48.419 
0.01157006797511073 1:11.4732 2:11.8337 3:12.6439 4:22.9042 5:23.5752 6:25.9834 7:126.329 
0.007260729896695664 1:0.417791 2:0.446859 3:0.294113 4:30.1469 5:31.0812 6:33.9807 7:25.0613 8:1 
0.001070363202740732 1:1.6987 2:1.85736 3:1.72669 4:29.0544 5:29.9109 6:32.6419 7:38.0014 8:1 
0.003166598878488281 1:2.14363 2:2.17996 3:2.42139 4:23.8662 5:24.6485 6:26.9542 7:68.5582 
0.009331466672907164 1:1.58878 2:1.6889 3:1.95645 4:32.9003 5:33.9693 6:37.0742 7:76.859 
0.01006591424410502 1:5.32421 2:5.48667 3:5.70892 4:26.4865 5:27.2756 6:30.1446 7:162.428 
0.00227120635316741 1:0.229748 2:0.244196 3:0.484341 4:25.1953 5:25.9858 6:28.4246 7:26.3186 8:1 
0.01023379348610706 1:2.31191 2:2.45758 3:2.61366 4:26.9905 5:27.8182 6:30.3657 7:126.5 
0.003292952709167621 1:1.72564 2:1.81345 3:1.90104 4:36.4932 5:37.6088 6:41.0743 7:14.3206 
0.00755889997406186 1:1.04366 2:0.98559 3:0.70541 4:22.126 5:22.6888 6:24.9857 7:158.623 
0.004730186166390515 1:0.868427 2:0.888042 3:1.06849 4:20.3475 5:20.8109 6:22.2978 7:70.3853 8:1 
0.007117837436977414 1:0.40118 2:0.353466 3:0.589886 4:18.3605 5:18.8223 6:19.9907 7:75.8048 8:1 
0.008283411904418784 1:4.1645 2:4.2966 3:4.61754 4:19.3668 5:19.8039 6:21.2033 7:38.1899 8:1 
0.003452404676791556 1:0.18079 2:0.180729 3:0.248951 4:31.2527 5:32.0373 6:35.2796 7:5.29904 
0.01051528077059383 1:0.523857 2:0.555958 3:0.708912 4:32.7964 5:33.7638 6:36.8258 7:43.3151 
0.004561811770534991 1:2.29462 2:2.34364 3:2.59638 4:20.3358 5:20.8925 6:22.3339 7:83.7961 8:1 
0.001160344353888954 1:1.37924 2:1.43054 3:1.75726 4:15.9255 5:16.2992 6:17.1967 7:37.2678 8:1 
0.007646087249184141 1:1.36779 2:1.36822 3:1.7351 4:22.5117 5:23.1293 6:24.9025 7:99.0034 8:1 
0.001920939899860807 1:0.621333 2:0.627022 3:1.01535 4:13.7909 5:14.1116 6:14.8365 7:1.19243 8:1 
0.007479457740955597 1:0.764286 2:0.808001 3:0.946972 4:30.0938 5:30.8834 6:33.7955 7:16.1356 
0.008431429662062036 1:5.92633 2:6.0706 3:6.52021 4:27.7198 5:28.5135 6:31.0755 7:54.2385 
0.006745573222859735 1:2.03485 2:2.05497 3:2.22816 4:32.7486 5:33.6738 6:36.7692 7:11.884 
0.007682471976337701 1:1.29363 2:1.34154 3:1.29677 4:23.7043 5:24.3817 6:26.2031 7:111.51 8:1 
0.003970658201987276 1:0.32785 2:0.295956 3:0.360435 4:18.5051 5:19.0071 6:20.1962 7:49.2341 8:1 
0.01098101656922118 1:1.0099 2:0.956514 3:1.0484 4:26.2394 5:26.916 6:29.3413 7:223.782 8:1 
0.003289340412935646 1:2.74961 2:2.86058 3:2.90482 4:28.6419 5:29.3922 6:32.1962 7:17.7159 
0.008005349473286696 1:2.45659 2:2.58509 3:2.77463 4:19.5095 5:20.0754 6:21.5934 7:70.3017 8:1 
0.01113211866998592 1:7.38529 2:7.51892 3:8.34464 4:26.0279 5:26.6952 6:29.0996 7:75.0854 8:1 
0.002906730822058218 1:0.0556259 2:0.158928 3:0.416775 4:32.698 5:33.5823 6:36.5803 7:9.90026 
0.01081695311614222 1:5.3568 2:5.64587 3:6.08388 4:24.8654 5:25.462 6:27.728 7:109.397 8:1 
0.001073363074932344 1:0.611048 2:0.74794 3:0.912937 4:22.9912 5:23.6319 6:25.5105 7:83.9244 8:1 
0.01157869493683705 1:0.114891 2:0.131435 3:0.101513 4:26.3272 5:27.0538 6:29.6833 7:9739.31 
0.005849164043797372 1:0.535427 2:0.52252 3:0.596228 4:25.942 5:26.6068 6:28.946 7:60.7456 8:1 
0.007961803016026947 1:0.83205 2:0.909922 3:0.982985 4:25.6705 5:26.3919 6:28.3846 7:74.3224 8:1 
0.01160509745535587 1:221.485 2:229.026 3:269.805 4:135.642 5:140.112 6:162.928 7:91575.3 
0.003212296112065679 1:1.3455 2:1.4 3:1.45617 4:23.5468 5:24.0828 6:26.2536 7:51.6234 8:1 
0.001979188604152656 1:0.723791 2:0.755871 3:0.851822 4:29.4803 5:30.2561 6:33.0462 7:24.7602 
0.007098938295592097 1:4.1227 2:4.21265 3:4.47521 4:26.6128 5:27.4045 6:29.6996 7:80.9782 8:1 
0.003379284779020275 1:0.149044 2:0.230829 3:0.058548 4:26.4667 5:27.1476 6:29.6086 7:91.416 8:1 
0.008497062154039895 1:1.89209 2:1.9429 3:2.17449 4:21.908 5:22.504 6:24.1358 7:117.308 8:1 
0.006565676192398134 1:3.16615 2:3.38198 3:3.46865 4:21.7208 5:22.2399 6:24.2079 7:75.3991 8:1 
0.0113027118295973 1:6.81533 2:7.0291 3:7.88626 4:20.3908 5:20.9211 6:22.7572 7:92.3208 8:1 
0.004471317923385276 1:4.84925 2:4.9786 3:5.35844 4:20.021 5:20.5576 6:22.2221 7:100.517 8:1 
0.005612263571325703 1:0.117126 2:0.0345421 3:0.154623 4:27.7486 5:28.5204 6:31.0628 7:13.8589 
0.009998939512278815 1:2.93332 2:3.01147 3:3.09665 4:22.0415 5:22.5609 6:24.6055 7:109.821 8:1 
0.004555537300123591 1:2.94765 2:3.02828 3:3.26223 4:21.8036 5:22.4082 6:24.3834 7:8.94936 
0.01017625436417591 1:4.51428 2:4.62626 3:5.0282 4:18.104 5:18.5071 6:20.1993 7:94.8452 8:1 
0.009945701685571099 1:2.53196 2:2.61009 3:2.79279 4:16.4123 5:16.8284 6:18.187 7:122.484 8:1 
0.00655784311945232 1:0.152184 2:0.052803 3:0.0604439 4:20.444 5:20.9855 6:23.0171 7:11.3738 
0.004984940021139028 1:2.00191 2:1.97403 3:1.89565 4:22.1671 5:22.7082 6:24.8012 7:94.8586 8:1 
0.01063603900967396 1:5.9852 2:6.2264 3:6.95495 4:24.824 5:25.5394 6:27.9644 7:80.526 8:1 
0.01026465676625726 1:2.09798 2:2.1488 3:2.35776 4:24.0226 5:24.6749 6:27.1283 7:107.064 8:1 
0.01157122233314806 1:3.22446 2:3.3406 3:3.67849 4:25.0505 5:25.7332 6:27.8869 7:151.733 8:1 
0.01158710573836141 1:1.17475 2:1.26068 3:1.21415 4:33.2062 5:34.3241 6:37.4616 7:148.61 8:1 
0.008530970655803397 1:2.45031 2:2.49682 3:2.63872 4:26.4761 5:27.2163 6:29.7422 7:111.005 8:1 
0.0105916689538198 1:3.3936 2:3.45537 3:4.13007 4:27.9101 5:28.6581 6:31.2823 7:59.4691 8:1 
0.008574376892388269 1:1.10196 2:1.10638 3:1.23654 4:28.2778 5:28.9996 6:31.4663 7:112.97 8:1 
0.01111142104008617 1:0.421246 2:0.438042 3:0.385056 4:32.686 5:33.7382 6:36.8908 7:94.4746 
0.008940134519560425 1:0.480312 2:0.572857 3:0.373325 4:35.8384 5:37.0673 6:40.3455 7:16.4278 8:1 
0.00791604909139247 1:0.599339 2:0.584995 3:0.704609 4:33.579 5:34.5052 6:37.6392 7:14.1827 8:1 
0.009354359830423143 1:1.15337 2:1.21 3:1.28693 4:28.636 5:29.4676 6:32.2072 7:129.642 8:1 
0.01118408113739527 1:5.15294 2:5.35898 3:5.67076 4:32.007 5:32.8564 6:35.8648 7:38.6666 8:1 
0.008722980734584752 1:0.232607 2:0.22814 3:0.262787 4:28.9979 5:29.877 6:32.6694 7:116.317 8:1 
0.00459227630995096 1:1.24252 2:1.24299 3:1.37901 4:36.8757 5:38.0884 6:41.7123 7:10.2568 
0.01206103224989963 1:9.23375 2:9.53085 3:10.5052 4:27.6212 5:28.4517 6:30.8943 7:120.767 
0.002341843286955518 1:0.225445 2:0.296242 3:0.486423 4:36.784 5:37.9399 6:41.5088 7:9.8996 8:1 
0.007557415370891073 1:1.4354 2:1.49395 3:1.53138 4:31.1081 5:31.9677 6:34.947 7:75.2253 8:1 
0.006346294979011576 1:1.38288 2:1.37005 3:1.32949 4:37.4157 5:38.568 6:42.163 7:14.236 
0.008276750723769433 1:3.50038 2:3.66 3:4.17231 4:30.1286 5:31.001 6:33.6934 7:19.9775 
0.006828060291013904 1:0.0870781 2:0.0529633 3:0.230621 4:33.4873 5:34.3983 6:37.8209 7:6.201 8:1 
0.006997933292807377 1:0.0793839 2:0.0962753 3:0.0799866 4:36.0186 5:37.2419 6:40.5507 7:8.62632 
0.005769965651544992 1:0.0591755 2:0.105556 3:0.116737 4:31.7446 5:32.5181 6:35.7877 7:10.5974 8:1 
0.0007307332128083067 1:0.543663 2:0.538494 3:0.722889 4:31.3789 5:32.2995 6:35.2133 7:9.04542 8:1 
0.005986115473990803 1:0.826403 2:0.897346 3:1.13681 4:26.1604 5:26.9328 6:29.3458 7:44.8199 
0.005324927285075016 1:3.71313 2:3.91576 3:3.94381 4:25.2221 5:25.9869 6:28.4025 7:12.5393 
0.001289190216680466 1:1.72747 2:1.85636 3:1.89976 4:26.3375 5:27.1875 6:29.5198 7:20.9685 
0.003150615509994794 1:0.671314 2:0.688389 3:0.834274 4:30.6053 5:31.463 6:34.4872 7:1.33426 8:1 
0.01048281420221636 1:5.07672 2:5.29628 3:5.74228 4:26.1017 5:26.962 6:29.2549 7:50.2047 
0.01153793460368518 1:12.2634 2:12.5918 3:13.3268 4:20.9815 5:21.6068 6:23.2713 7:69.1992 
0.01155152921016145 1:5.64182 2:5.92053 3:6.43764 4:24.6922 5:25.4526 6:27.8589 7:174.214 8:1 
0.004943645772721095 1:0.0378685 2:0.0144558 3:0.05196 4:30.3776 5:31.2352 6:34.0798 7:1.43068 8:1 
0.003679316616301387 1:0.475267 2:0.483376 3:0.367228 4:26.7542 5:27.6233 6:30.0387 7:10.6704 
0.0007630902696395996 1:1.31062 2:1.29329 3:1.51936 4:25.7122 5:26.5184 6:28.711 7:5.95211 
0.007762920408767133 1:1.35296 2:1.34373 3:1.34506 4:28.4264 5:29.3467 6:31.856 7:42.6193 
0.00529857136824037 1:0.261013 2:0.29372 3:0.390022 4:25.5285 5:26.3516 6:28.4671 7:3.21464 
0.01156906912912586 1:24.1698 2:25.13 3:30.769 4:39.5938 5:40.6047 6:46.3119 7:952.425 
0.009353241167586217 1:4.50892 2:4.65953 3:4.87241 4:27.0673 5:27.9382 6:30.2713 7:10.3395 
0.001220939287809361 1:1.30156 2:1.35719 3:1.47367 4:19.9168 5:20.4582 6:22.3052 7:12.6291 8:1 
0.00139673191642059 1:0.53702 2:0.412722 3:0.494011 4:19.4939 5:20.0943 6:21.8626 7:4.59209 8:1 
0.004279655617329459 1:1.62146 2:1.69945 3:1.69026 4:18.1825 5:18.6972 6:20.517 7:11.5882 
0.00107110326495351 1:1.87241 2:1.94064 3:1.69095 4:18.9255 5:19.4868 6:21.225 7:5.09007 
0.005952875515881369 1:1.84465 2:1.99224 3:2.10917 4:27.9748 5:28.8749 6:31.2951 7:3.41824 
0.007804099379081328 1:3.83461 2:3.99445 3:4.57322 4:18.1209 5:18.6469 6:20.0128 7:41.1116 
0.004126990146834486 1:1.83412 2:1.89457 3:2.09754 4:18.5443 5:19.0878 6:21.0715 7:2.46377 
0.003376579386351734 1:0.434931 2:0.361446 3:0.588024 4:18.2838 5:18.839 6:20.6333 7:2.84459 
0.0007333398827498172 1:0.708698 2:0.734108 3:0.763386 4:19.6326 5:20.196 6:22.1598 7:6.50427 
0.005803642782498786 1:1.53296 2:1.58846 3:1.55042 4:7.1384 5:7.29152 6:7.40135 7:22.8066 
0.005102372909825625 1:2.19549 2:2.28247 3:2.27369 4:20.6336 5:21.273 6:23.2582 7:4.46474 
0.01001277172487765 1:2.60984 2:2.6609 3:3.1991 4:12.3158 5:12.6559 6:13.373 7:47.0378 
0.002618623811294241 1:1.03501 2:1.09889 3:1.036 4:23.1962 5:23.9129 6:25.9612 7:14.5158 
0.01157294832568551 1:105.438 2:109.28 3:129.183 4:85.4634 5:88.4241 6:101.025 7:23509.9 
0.01088857619379235 1:2.2561 2:2.25368 3:2.45341 4:30.8855 5:31.6669 6:34.3327 7:70.7249 8:1 
0.008586144840217302 1:3.39037 2:3.57414 3:3.81855 4:31.7 5:32.503 6:35.1811 7:55.7116 8:1 
0.001993247689939026 1:0.142448 2:0.14225 3:0.149384 4:33.5639 5:34.4471 6:37.2512 7:13.122 8:1 
0.0005865968670091602 1:0.24375 2:0.215492 3:0.32185 4:28.994 5:29.7794 6:32.2928 7:2.05448 8:1 
0.003784876070966336 1:0.381969 2:0.420883 3:0.399298 4:28.0975 5:28.8411 6:31.1733 7:4.89627 8:1 
0.00305723484305079 1:0.517305 2:0.574032 3:0.645782 4:29.6595 5:30.3717 6:33.1338 7:7.44298 8:1 
0.003024147238119228 1:0.281492 2:0.273943 3:0.258835 4:31.1592 5:31.9346 6:34.5822 7:7.56335 8:1 
0.003252996153891706 1:0.048521 2:0.0692978 3:0.0898666 4:29.5894 5:30.4608 6:32.9008 7:3.48151 
0.001214956584140109 1:0.0425148 2:0.0632439 3:0.262333 4:27.2759 5:27.9937 6:30.2147 7:3.84051 8:1 
0.001381502070376353 1:1.51376 2:1.56894 3:1.69564 4:28.2361 5:28.8561 6:31.2913 7:19.1217 8:1 
0.004214915489461013 1:1.47344 2:1.58632 3:1.62383 4:30.2211 5:31.0191 6:33.6305 7:4.19644 8:1 
0.0007287822021889477 1:0.674671 2:0.70558 3:0.515968 4:31.4897 5:32.2379 6:35.4001 7:1.90039 8:1 
1 
0.002564649763762425 1:1.13393 2:1.13833 3:1.47634 4:26.896 5:27.5432 6:29.908 7:6.62886 8:1 
0.0009888023657505518 1:0.77169 2:0.771177 3:0.883999 4:23.1613 5:23.7743 6:26.1673 7:5.90544 8:1 
0.004732274181415252 1:1.94666 2:2.00956 3:2.18477 4:26.3268 5:27.0256 6:29.2913 7:2.90342 8:1 
0.01157401471117198 1:144.613 2:150.006 3:181.456 4:217.957 5:225.044 6:258.496 7:161822 
0.002425888897186738 1:1.00831 2:1.01053 3:1.33111 4:30.2421 5:31.1072 6:33.8514 7:12.9705 8:1 
0.005908713693385643 1:0.0933552 2:0.0595379 3:0.0311737 4:24.7161 5:25.2943 6:27.257 7:24.7152 8:1 
0.002908290563692892 1:0.0722809 2:0.0426483 3:0.155039 4:25.3939 5:26.0079 6:28.3099 7:7.81011 8:1 
0.003926830689636562 1:0.711233 2:0.754667 3:0.806627 4:24.7061 5:25.3799 6:27.4401 7:18.9304 8:1 
0.002145037938477812 1:1.51223 2:1.58104 3:1.87772 4:26.3537 5:27.0309 6:29.3766 7:1.98332 8:1 
0.005394596667144454 1:2.27925 2:2.41426 3:2.63657 4:22.1578 5:22.6979 6:24.7522 7:37.1852 8:1 
3.137189987693109e-05 1:1.06824 2:1.17135 3:1.22334 4:22.0532 5:22.5899 6:24.4941 7:28.0273 8:1 
0.01138951941361721 1:0.651442 2:0.734845 3:0.913386 4:13.427 5:13.7496 6:14.7428 7:155.084 
0.01002660525511329 1:5.80928 2:5.97215 3:6.36134 4:19.4508 5:19.9437 6:21.5527 7:28.8713 
0.002462262707982246 1:0.284063 2:0.368893 3:0.423311 4:28.7783 5:29.6193 6:31.8888 7:8.96295 
0.01167490796346021 1:4.78214 2:4.91177 3:5.34737 4:7.84476 5:8.00664 6:8.61295 7:160.099 8:1 
1 
0.01154247157634618 1:4.54971 2:4.6442 3:5.01187 4:10.2338 5:10.4369 6:11.1259 7:151.654 8:1 
0.002952923376948255 1:1.62099 2:1.66725 3:1.89624 4:27.3334 5:28.099 6:30.0682 7:15.5364 
0.0110203499286497 7:92.0278 
0.01158650546718282 1:14.9124 2:15.3467 3:16.7063 4:14.5017 5:14.947 6:16.2458 7:283.332 
0.008091656808531467 1:0.180954 2:0.0137482 3:0.17218 4:23.7587 5:24.4001 6:26.0947 7:30.5093 
0.0115903369316 1:199.307 2:206.002 3:237.892 4:341.9 5:353.238 6:406.452 7:207062 
0.00663502531359558 1:0.369526 2:0.34264 3:0.459 4:23.4431 5:24.1389 6:26.0016 7:40.1892 
0.007501998222564421 1:2.52958 2:2.60537 3:2.69364 4:15.7243 5:16.2323 6:17.6921 7:33.1248 
0.00361540441680405 1:1.80987 2:1.90954 3:1.96149 4:19.6339 5:20.2078 6:21.7653 7:66.3936 8:1 
0.008872317494828474 1:3.69175 2:3.78442 3:3.92057 4:8.28665 5:8.5064 6:9.25241 7:60.4252 8:1 
0.005235881207104164 1:0.135353 2:0.152987 3:0.0171013 4:21.5219 5:22.1566 6:24.132 7:25.4672 
0.004394401962586318 1:2.57911 2:2.68583 3:3.10585 4:22.4634 5:23.1063 6:25.1595 7:21.5624 
0.002801796015068005 1:2.0125 2:2.1346 3:2.20369 4:21.426 5:22.0376 6:23.7811 7:15.625 
0.003757359307246482 1:2.06155 2:2.13554 3:2.14076 4:24.9358 5:25.6785 6:27.62 7:15.0275 
0.002142394764983922 1:0.244404 2:0.213745 3:0.354218 4:22.1077 5:22.7902 6:25.0747 7:9.47729 8:1 
0.006788959337579629 1:0.890207 2:0.962696 3:1.0405 4:23.6228 5:24.3132 6:26.1271 7:55.0509 
0.003847157120737632 1:0.154463 2:0.151085 3:0.103445 4:28.2739 5:29.1143 6:31.6245 7:9.61091 8:1 
0.002528156172678175 1:0.272955 2:0.286549 3:0.233837 4:26.6533 5:27.4045 6:29.7577 7:7.79712 8:1 
0.01135838159577607 1:0.00731087 2:0.0320301 3:0.427626 4:9.19299 5:9.46141 6:9.95699 7:82.2146 
0.00113424731417594 1:0.691023 2:0.695656 3:0.641115 4:24.7652 5:25.4193 6:27.6034 7:6.41373 
0.009945725467324695 1:6.84371 2:7.08407 3:7.43026 4:13.6535 5:14.0654 6:14.9952 7:136.924 
0.004462625506182637 1:0.505491 2:0.512974 3:0.707605 4:23.4823 5:24.204 6:26.0123 7:7.92396 
0.00826577860658978 1:5.734 2:5.91279 3:6.40721 4:19.9942 5:20.5257 6:22.2332 7:23.9493 
0.01159310099389921 1:24.4815 2:25.3216 3:29.8032 4:36.3053 5:37.3534 6:41.0134 7:996.255 
0.005303756177076586 1:0.0561612 2:0.0585659 3:0.0601299 4:2.11538 5:2.16731 6:2.5779 7:32.3537 8:1 
0.007276062447131053 1:1.00603 2:1.09697 3:1.21694 4:15.988 5:16.4677 6:17.8113 7:35.9154 
0.007120999711579878 1:0.6206 2:0.647953 3:0.687428 4:13.3436 5:13.7737 6:14.9843 7:24.1453 8:1 
0.01159632598075905 1:10.5091 2:10.9732 3:11.427 4:22.8975 5:23.5969 6:25.2929 7:327.513 
0.008168797978544584 1:2.68428 2:2.80501 3:3.05506 4:8.36929 5:8.41792 6:9.427 7:55.4654 
0.003845401760283489 1:0.692444 2:0.786795 3:0.749973 4:19.2797 5:19.8434 6:21.7559 7:1.46761 8:1 
0.00825624130990313 1:3.93576 2:4.08362 3:4.2592 4:15.8233 5:16.3173 6:17.6702 7:129.111 
0.003243894055105594 1:0.325024 2:0.311161 3:0.342482 4:21.7229 5:22.3884 6:24.4114 7:3.47084 
0.005828178920978618 1:0.900717 2:1.00032 3:1.28979 4:20.388 5:20.9302 6:22.8629 7:1.60362 
0.01146580545171293 1:9.89959 2:10.0254 3:10.8504 4:10.7408 5:11.0006 6:11.3768 7:203.947 
0.0116049081871808 1:352.518 2:363.602 3:428.954 4:282.181 5:291.065 6:340.633 7:140293 
0.01137314192687727 1:6.71421 2:6.94844 3:7.49215 4:4.66866 5:4.8137 6:5.28869 7:9630.48 
0.002633993791185897 1:0.280103 2:0.278728 3:0.278232 4:11.7268 5:12.0768 6:13.1432 7:0.738734 8:1 
0.005243870459810882 1:3.54083 2:3.57544 3:3.58572 4:23.2067 5:23.8576 6:26.2728 7:9.09403 8:1 
0.004178642558045953 1:0.279692 2:0.27107 3:0.254259 4:21.3127 5:21.9105 6:24.1992 7:5.65886 8:1 
0.01139312125320235 1:12.0354 2:12.4222 3:13.4078 4:21.7426 5:22.225 6:23.464 7:301.558 
0.01141937974202306 1:52.1737 2:54.0266 3:64.7568 4:50.216 5:52.0133 6:61.8086 7:10598.8 
0.008231890528600995 1:0.47789 2:0.509399 3:0.254917 4:27.7827 5:28.5895 6:30.8624 7:0.643561 8:1 
0.003199845596058904 1:2.80763 2:2.85746 3:2.92392 4:18.3884 5:18.8985 6:20.8776 7:14.4748 8:1 
0.006535418544675833 1:0.279754 2:0.265728 3:0.349638 4:6.54462 5:6.7556 6:7.28305 7:40.2818 
0.003147521655709695 1:1.28574 2:1.2896 3:1.28573 4:17.14 5:17.4628 6:19.0558 7:21.7775 
0.003466441265264903 1:1.76144 2:1.85491 3:2.33767 4:24.7452 5:25.3714 6:27.085 7:11.9081 8:1 
0.00528678964337518 1:1.6712 2:1.72249 3:1.79589 4:19.4816 5:20.0116 6:22.1779 7:31.4373 8:1 
0.002788752107023692 1:1.27257 2:1.3075 3:1.36511 4:16.1654 5:16.4978 6:17.9927 7:15.6037 
0.001115421480658074 1:1.67118 2:1.74923 3:1.89816 4:22.9529 5:23.5491 6:25.0998 7:21.8865 8:1 
0.001421096495684753 1:1.89744 2:2.04412 3:2.23046 4:19.1685 5:19.6529 6:21.6268 7:34.5575 8:1 
0.003654716563375571 1:1.2979 2:1.37358 3:1.5899 4:20.239 5:20.6953 6:22.8361 7:26.5723 8:1 
0.001828876293965294 1:0.86607 2:0.850626 3:0.246 4:23.1956 5:23.7069 6:25.3993 7:9.2552 8:1 
0.001571589866447473 1:2.19099 2:2.2952 3:2.66056 4:17.2405 5:17.5792 6:19.2417 7:16.0157 8:1 
0.01102658485468971 1:2.4689 2:2.50619 3:3.10041 4:10.9534 5:11.1195 6:11.5223 7:52.1526 
0.01197132694036001 1:0.529449 2:0.504002 3:0.40934 4:16.7013 5:17.0515 6:18.2026 7:59.4167 
0.01129052438085737 1:0.778704 2:0.658092 3:0.383249 4:26.0619 5:26.6737 6:28.5612 7:229.144 8:1 
0.01156047946516203 1:11.4965 2:11.7917 3:12.1801 4:8.4396 5:8.61574 6:9.19813 7:101.383 
0.01134506271486768 1:0.517918 2:0.574172 3:0.638186 4:7.15943 5:7.31988 6:7.73453 7:78.0497 8:1 
0.003922538677227834 1:3.34268 2:3.43469 3:3.84364 4:5.34078 5:5.44014 6:5.54208 7:24.4572 8:1 
0.01130691043294918 1:0.874481 2:0.919805 3:0.963392 4:5.48913 5:5.61188 6:6.12058 7:88.7117 8:1 
0.01142602639137436 1:14.1107 2:14.6703 3:17.0408 4:195.45 5:202.297 6:236.674 7:36232.6 
0.008222932104601906 1:3.54202 2:3.64458 3:3.86259 4:10.3619 5:10.5958 6:11.5703 7:62.2783 
0.01135916176180929 1:5.08346 2:5.2566 3:5.52745 4:16.736 5:17.0946 6:18.1127 7:55.0631 
0.01134301291604861 1:0.596361 2:0.614273 3:0.792692 4:7.07124 5:7.21141 6:7.76508 7:195.325 
0.005457770783872682 1:0.271337 2:0.269032 3:0.307641 4:7.88899 5:8.06975 6:8.35068 7:11.2057 8:1 
0.01129626335195716 1:5.15363 2:5.2818 3:5.54581 4:280.293 5:290.249 6:339.07 7:132245 
0.002598817391158581 1:3.64857 2:3.76212 3:3.74834 4:10.7886 5:10.9882 6:12.0044 7:9.06357 
0.01141903551124385 1:4.11676 2:4.1818 3:3.90731 4:9.77179 5:9.98241 6:10.9787 7:110.091 
0.00302036825452631 1:1.93115 2:1.97452 3:2.05413 4:6.18848 5:6.30436 6:6.20532 7:20.4798 
0.01054680837500516 1:4.55334 2:4.60183 3:5.00646 4:8.44955 5:8.64273 6:8.95684 7:45.4766 
0.01130007512839887 1:9.20901 2:9.52053 3:9.62249 4:22.8252 5:23.37 6:24.6823 7:471.502 
0.01155117675250328 1:12.3118 2:12.7336 3:13.2933 4:11.8515 5:12.1084 6:12.7878 7:379.567 
0.01155781511878951 1:247.64 2:256.144 3:301.045 4:159.11 5:164.12 6:190.717 7:91254.6 
0.01150682221876609 1:220.22 2:227.322 3:267.025 4:135.727 5:140.071 6:161.787 7:95868.7 
0.0043288355912387 1:1.49669 2:1.54884 3:1.6689 4:0.748343 5:0.77442 6:0.834452 7:20.8607 
0.008750486282001368 1:3.88277 2:3.98594 3:4.05813 4:13.3183 5:13.6902 6:14.5912 7:28.4206 
0.01155299890638012 1:147.736 2:152.489 3:177.329 4:88.3071 5:90.9423 6:104.319 7:124782 
1 
0.0115837713126945 1:49.1189 2:50.6092 3:59.3572 4:50.9106 5:52.4919 6:60.1429 7:4531.78 
0.01171889702562001 1:263.375 2:272.214 3:319.834 4:330.733 5:341.705 6:402.029 7:188844 
0.005419153601032299 1:2.19644 2:2.24035 3:2.39392 4:13.6128 5:13.9613 6:15.0448 7:21.8983 
0.007834878636271419 1:1.28115 2:1.29902 3:1.19152 4:3.1227 5:3.17519 6:3.12514 7:32.7923 
0.01166629274995146 1:10.844 2:11.1937 3:11.9689 4:19.9687 5:20.501 6:22.023 7:61.5964 
0.01156113734008868 1:28.5263 2:29.529 3:34.8877 4:23.7612 5:24.3805 6:27.0219 7:1819.91 
0.009052390560072732 1:9.96463e-40 2:1.03318e-39 3:1.14052e-39 4:4.98232e-40 5:5.16589e-40 6:5.70258e-40 7:24.1134 
0.00843482580624777 1:2.08285 2:2.10443 3:1.93813 4:16.6677 5:17.1294 6:18.2581 7:78.188 
0.003754204809276746 1:0.842211 2:0.825111 3:0.758808 4:15.9669 5:16.2486 6:17.7379 7:22.6697 8:1 
0.00651079129665558 1:0.261696 2:0.304033 3:0.264517 4:9.20754 5:9.47731 6:10.3335 7:31.0633 
0.002315147306159971 1:3.03064 2:3.05676 3:3.09765 4:15.3138 5:15.6532 6:17.117 7:15.2728 8:1 
1 
0.01108053592238766 1:4.09425 2:4.2147 3:4.53676 4:5.86639 5:6.02556 6:6.51308 7:65.5262 
0.0104025049683665 1:6.65563 2:6.89985 3:7.57899 4:12.45 5:12.792 6:13.7096 7:40.1274 
0.006840746509336471 1:2.42497 2:2.50343 3:2.55542 4:8.19293 5:8.36198 6:8.80147 7:63.8255 
0.007132071029604725 1:1.45166 2:1.5484 3:1.36545 4:15.223 5:15.5681 6:17.1411 7:72.2452 8:1 
0.00849974881329215 1:0.456985 2:0.487183 3:0.633432 4:12.6112 5:12.9412 6:13.6747 7:39.978 8:1 
0.006741990899131109 1:2.27673 2:2.38215 3:2.33269 4:15.3137 5:15.7189 6:16.7614 7:3.03479 8:1 
0.01155547398479956 1:0.0315472 2:0.0305047 3:0.00741613 4:0.78493 5:0.742175 6:0.770515 7:2113.54 8:1 
0.006719931191139595 1:0.312 2:0.308954 3:0.415535 4:16.5799 5:17.067 6:18.1371 7:1.41928 8:1 
0.01096767148560085 1:4.76638 2:4.87281 3:4.8675 4:12.222 5:12.5478 6:13.4692 7:139.022 
0.006714994512120931 1:0.0900841 2:0.116259 3:0.130404 4:14.3901 5:14.7948 6:15.7736 7:0.993017 8:1 
0.0115541050222025 1:111.873 2:115.492 3:141.01 4:218.766 5:225.898 6:260.319 7:116930 
0.007448741703237751 1:0.437751 2:0.455056 3:0.447387 4:9.72528 5:9.98684 6:10.8899 7:35.2275 
1 7:9.33182e-10 
0.01130679948670277 1:0.36979 2:0.383843 3:0.426935 4:12.2537 5:12.5791 6:13.7021 7:120.988 8:1 
0.01159586990474526 1:4.12998 2:4.2545 3:4.88526 4:10.4159 5:10.7146 6:11.9534 7:28231 
1 
0.01155299010322397 1:238.573 2:246.338 3:290.638 4:451.851 5:467.1 6:547.01 7:126254 
1 1:1.26704e-38 2:1.31201e-38 3:1.45343e-38 4:6.33518e-39 5:6.56004e-39 6:7.26713e-39 
0.01157588613585608 1:0.253483 2:0.232215 3:0.204773 4:1.22733 5:1.20291 6:1.27754 7:33016.3 
0.01126466444833962 1:2.12798 2:2.34272 3:2.75466 4:25.7187 5:26.4432 6:28.8006 7:153338 
0.01126543134346325 1:80.3061 2:82.2924 3:94.7136 4:244.954 5:252.786 6:297.028 7:148558 
0.01126969577074133 1:110.472 2:114.321 3:133.366 4:414.38 5:428.25 6:500.359 7:157252 
0.01127074902132441 1:3.22638 2:3.96991 3:4.7887 4:539.702 5:558.175 6:648.446 7:107022 
1 1:1.52013e-05 2:1.57224e-05 3:1.57059e-05 4:7.60065e-06 5:7.86119e-06 6:7.85294e-06 7:4.32588e-10 
0.01129918336397262 1:139.889 2:144.168 3:172.509 4:190.81 5:196.76 6:221.51 7:58700.6 
0.0113000090204044 1:8.95331 2:9.35706 3:10.3597 4:577.044 5:596.423 6:696.431 7:140258 
0.001876239650421424 1:1.18203 2:1.20841 3:1.33633 4:12.5582 5:12.8776 6:14.0512 7:1.63657 8:1 
0.003188255539255946 1:2.10029 2:2.13507 3:2.32106 4:3.81729 5:3.90692 6:4.26665 7:21.5752 
0.002159975194008638 1:0.156569 2:0.15829 3:0.115799 4:10.0528 5:10.2849 6:11.3125 7:2.61713 8:1 
0.01078924309068006 1:0.0423851 2:0.114117 3:0.0309944 4:22.7891 5:23.1586 6:23.9711 7:147.386 
0.01125841216685003 1:0.207404 2:0.2029 3:0.0836387 4:3.46312 5:3.49431 6:3.91114 7:202.374 
0.007079676560096924 1:3.561 2:3.71278 3:4.50303 4:14.7865 5:15.082 6:16.1485 7:90.7345 
1 
0.00126066292669601 1:0.0222816 2:0.0226841 3:0.0141878 4:14.0231 5:14.3402 6:15.5108 7:3.32846 8:1 
0.01130818424380819 7:311.868 
0.00324923256356859 1:1.60202 2:1.64639 3:1.76284 4:5.71982 5:5.81452 6:6.48266 7:13.4886 
1 7:1.10174 
0.002225668088526471 1:0.406179 2:0.384951 3:0.359816 4:15.3241 5:15.7033 6:16.9993 7:4.89669 8:1 
0.003325490286515576 1:2.14388 2:2.17153 3:1.85509 4:3.47354 5:3.54443 6:3.53968 7:19.5137 
0.0117398830318407 1:19.4713 2:20.0283 3:23.3766 4:18.9776 5:19.4842 6:21.4709 7:627.954 
0.008772339411846509 1:1.93997 2:1.98191 3:1.60079 4:13.0496 5:13.3372 6:13.6011 7:130.154 
0.01157174240088449 1:4.24557 2:4.42525 3:5.12521 4:154.412 5:159.689 6:185.111 7:70645.5 
0.01159134724658412 1:19.9324 2:20.6927 3:24.1637 4:16.2128 5:16.7142 6:19.092 7:483.698 
0.00373879510972519 1:3.04424 2:3.11088 3:3.36504 4:8.22118 5:8.32298 6:9.13875 7:64.5526 
0.003864868315475002 1:0.915595 2:0.966619 3:1.44117 4:6.04609 5:6.16962 6:6.49695 7:117.18 
0.005360031957472918 1:2.58613 2:2.66096 3:2.76979 4:8.00257 5:8.08362 6:8.91709 7:8.78531 8:1 
0.01088361374477648 1:0.518924 2:0.538857 3:0.739392 4:9.70571 5:9.87153 6:10.6663 7:120.571 
0.01156104326011448 1:97.793 2:101.34 3:113.087 4:73.7989 5:76.1314 6:83.7641 7:24557 
0.9641289059379241 7:2.14651 
0.01155913006297915 1:0.339167 2:0.35319 3:0.439058 4:1.47939 5:1.4819 6:1.56924 7:6545.18 
0.01013534128083049 1:5.81059 2:6.00121 3:6.30825 4:6.95282 5:7.12026 6:7.67699 7:53.7364 
1 
0.01155848495278256 1:396.302 2:408.503 3:480.149 4:286.199 5:294.97 6:345.902 7:157244 
0.01155610567380944 1:6.41524 2:6.50098 3:7.10771 4:163.2 5:168.758 6:200.963 7:32132.2 
0.01039822261060019 1:5.91757 2:6.02014 3:5.9778 4:4.81616 5:4.93057 6:4.96048 7:54.598 
0.01155236585749919 1:281.698 2:291.515 3:346.657 4:366.52 5:378.545 6:447.081 7:78974.9 
0.0115544285034358 1:80.3439 2:82.8326 3:97.7265 4:346.166 5:356.959 6:417.892 7:168372 
0.01167896237442212 1:11.0447 2:11.2418 3:12.0577 4:7.96881 5:8.1085 6:8.57205 7:119.197 
0.007357320946371517 1:1.78288 2:1.83742 3:1.65123 4:7.59986 5:7.74231 6:8.15438 7:44.0573 
0.01203196904971304 1:126.833 2:130.868 3:153.58 4:184.553 5:190.738 6:225.365 7:57250.3 
0.01201417573450964 1:140.375 2:145.134 3:166.801 4:422.395 5:436.396 6:508.684 7:101793 
0.01154926178094046 1:9.56674 2:9.885 3:10.5093 4:10.0304 5:10.2774 6:11.1664 7:126.178 
0.01199839473211317 1:267.644 2:277.465 3:321.896 4:193.018 5:199.56 6:229.037 7:63269.2 
0.01195982733594182 1:10.6026 2:10.8936 3:11.4746 4:7.433 5:7.62438 6:7.91028 7:202.137 
0.01092830434875929 1:0.484381 2:0.513586 3:0.391249 4:2.15044 5:2.16548 6:2.19753 7:94.6956 
0.01114417656535327 1:3.02481 2:3.13575 3:2.89194 4:4.70886 5:4.83933 6:4.84301 7:115.031 
0.002574793571223366 1:0.137179 2:0.145086 3:0.12087 4:3.66922 5:3.65688 6:4.10327 7:22.5803 8:1 
0.01194553486954936 1:1.18297 2:1.31033 3:0.77066 4:116.815 5:120.633 6:137.55 7:36355.5 
0.001769997452405306 1:3.14814 2:3.26187 3:3.25513 4:6.0491 5:6.25781 6:5.93181 7:14.2079 
0.003805488311758365 1:2.79501 2:2.88485 3:2.79534 4:1.3975 5:1.44242 6:1.39767 7:14.5641 
0.0005541418612696192 1:1.93808 2:2.01049 3:1.87813 4:3.83255 5:3.9647 6:3.66953 7:6.6434 
0.009666697627967916 1:10.5468 2:10.7053 3:10.1225 4:19.19 5:19.5773 6:19.1636 7:138.687 
1 
0.01000565296650296 7:30.0992 
0.01155513769162303 1:7.28796 2:7.53041 3:8.23085 4:13.7143 5:14.0495 6:15.3878 7:97.2822 
1 
0.0006402428336719224 1:2.57628 2:2.62775 3:2.8989 4:9.90038 5:10.1386 6:11.1481 7:8.08839 
0.005678638410172132 1:0.0652287 2:0.0701213 3:0.0811796 4:3.42927 5:3.47099 6:3.90221 7:12.1541 
0.001006537204090593 1:0.0219779 2:0.0310788 3:0.0270681 4:6.26867 5:6.32769 6:7.12404 7:12.49 8:1 
0.006663540514466271 1:2.94231 2:2.9909 3:3.36812 4:2.75889 5:2.79118 6:3.14751 7:8.6986 
0.01193740636151669 1:87.4037 2:90.1962 3:106.42 4:119.252 5:123.306 6:144.681 7:16183.8 
0.003558162890614158 1:0.00599861 2:0.00160408 3:0.0232964 4:10.9242 5:11.1681 6:12.3167 7:0.504834 8:1 
0.0005926130191366008 1:0.2321 2:0.244853 3:0.304547 4:3.85783 5:3.89129 6:4.45175 7:8.89205 
0.0119211131405586 1:227.933 2:235.531 3:277.5 4:375.852 5:388.515 6:456.585 7:234344 
0.006276615513499617 1:0.469828 2:0.472157 3:0.739713 4:10.9454 5:11.1361 6:12.0582 7:19.2771 
0.005214346974947104 1:2.00924 2:2.0505 3:2.39687 4:4.24886 5:4.33706 6:4.75412 7:26.7703 
0.01189134011063286 1:15.8742 2:16.2377 3:17.5789 4:8.20214 5:8.39191 6:9.06204 7:181.308 
0.001449946081424699 1:1.52059 2:1.57269 3:1.67455 4:12.5803 5:12.8135 6:14.0473 7:3.73952 8:1 
0.01188502853847861 1:8.42752 2:8.82641 3:8.45505 4:14.194 5:14.5742 6:15.4246 7:778.049 
0.001067658074632732 1:1.59451 2:1.65937 3:1.70728 4:11.7454 5:11.9313 6:13.128 7:2.22609 8:1 
0.0006718736189398333 1:1.67899 2:1.72272 3:1.76429 4:10.5 5:10.6246 6:11.6575 7:1.87735 8:1 
0.005206401622333089 1:0.211154 2:0.192731 3:0.209902 4:13.8482 5:14.0765 6:15.2731 7:16.7239 8:1 
0.01173011547438857 1:5.04234 2:5.17373 3:5.05355 4:13.6316 5:13.9771 6:14.8015 7:210.267 
0.002020146245697685 1:0.0379505 2:0.0237608 3:0.0113239 4:9.24655 5:9.3162 6:10.1985 7:12.1628 8:1 
0.00105094295912598 1:1.75892 2:1.82213 3:1.90025 4:7.65636 5:7.6907 6:8.53012 7:10.8086 8:1 
0.9284902907923231 1:1.28045e-33 2:1.32816e-33 3:1.37391e-33 4:6.40226e-34 5:6.6408e-34 6:6.86954e-34 7:6.77989 
1 
0.01184813748579511 1:93.4861 2:96.6977 3:111.045 4:46.8386 5:48.4412 6:55.637 7:6872.25 
0.01183577179968032 1:2.18872 2:2.27986 3:2.6598 4:5.03033 5:5.15191 6:5.25046 7:9836.98 
0.01181866388847347 1:268.431 2:277.652 3:327.784 4:136.828 5:141.391 6:166.745 7:135399 
0.01181024125213848 1:384.103 2:397.368 3:466.183 4:193.636 5:200.288 6:234.906 7:131030 
0.0008914851052662653 1:0.0276282 2:0.0245662 3:0.00500059 4:3.97431 5:3.96577 6:4.41327 7:5.79483 8:1 
0.01178919583071414 1:77.6891 2:80.4632 3:93.9532 4:49.3355 5:50.9161 6:58.721 7:10889.3 
0.01142197573883352 1:7.4368 2:7.61079 3:8.1532 4:4.9879 5:5.08915 6:5.35138 7:109.404 
0.004137516464589015 1:0.454406 2:0.438874 3:0.405519 4:5.7237 5:5.77757 6:6.45074 7:17.1361 
0.002583323957364026 1:0.0617881 2:0.0722656 3:0.108579 4:6.51529 5:6.60111 6:7.47813 7:6.85393 8:1 
0.001510413573153887 1:0.0392714 2:0.0438795 3:0.048686 4:10.2635 5:10.4811 6:11.6901 7:0.620501 8:1 
0.01175476199216607 1:202.808 2:209.769 3:249.117 4:258.211 5:266.965 6:316.382 7:149406 
0.01173773544300999 1:4.06113 2:4.16879 3:4.28691 4:32.3474 5:33.4162 6:36.0827 7:413.23 
0.008696667026692336 1:0.0766029 2:0.0946875 3:0.0495529 4:10.0746 5:10.282 6:11.4785 7:27.3725 8:1 
0.006477825544058887 1:4.07552 2:4.14992 3:4.33565 4:9.85771 5:9.90383 6:10.9043 7:12.1758 8:1 
0.01173793915827265 1:33.0725 2:34.1871 3:41.1597 4:116.234 5:120.164 6:139.652 7:71613.1 
0.01169437695841247 1:135.714 2:140.643 3:166.147 4:78.8114 5:81.457 6:95.0804 7:35923.4 
0.002019886708666065 1:0.295952 2:0.304834 3:0.26295 4:12.72 5:12.8485 6:14.1953 7:14.8292 8:1 
0.3314544434036135 1:0.250463 2:0.258965 3:0.285866 4:1.04405 5:1.05171 6:1.18212 7:44.3425 
0.0008279565587802074 1:1.73726 2:1.7514 3:1.80481 4:13.237 5:13.3832 6:14.8267 7:9.22777 8:1 
0.003784723158807513 1:3.12458 2:3.19837 3:3.28737 4:14.7772 5:14.894 6:16.0762 7:12.9874 8:1 
0.01156702476810673 1:13.0063 2:13.3943 3:13.786 4:19.2248 5:19.6683 6:20.8724 7:192.962 
0.00120729054880694 1:1.67454 2:1.75271 3:1.7957 4:7.74089 5:7.73509 6:8.91479 7:2.15096 8:1 
0.01156098397174404 1:11.4503 2:11.5845 3:12.1598 4:32.4141 5:33.3412 6:38.5843 7:1365.54 
0.002646262611843779 1:3.85545 2:3.96684 3:4.01436 4:4.26945 5:4.37952 6:4.62964 7:26.2801 
0.0009398283237008588 1:1.15022 2:1.22842 3:1.33253 4:10.312 5:10.5468 6:11.837 7:1.05627 8:1 
1 1:7.85434e-34 2:8.11042e-34 3:9.93212e-34 4:3.93366e-34 5:4.06193e-34 6:4.97419e-34 8:1 
0.01154046168566625 1:6.55345e-38 2:6.76868e-38 3:8.01569e-38 4:3.27673e-38 5:3.38434e-38 6:4.00784e-38 7:2751.05 
0.01153269732559065 1:28.1817 2:29.1605 3:34.0386 4:14.0908 5:14.5803 6:17.0193 7:1488.09 
0.01152644307462569 1:39.5988 2:40.8883 3:47.3308 4:24.5082 5:25.2443 6:28.8589 7:3311.23 
0.011520851903637 1:55.5391 2:56.7457 3:66.2036 4:46.6826 5:48.0249 6:55.3863 7:4474.4 
0.01140080778218516 1:3.7065 2:3.74665 3:4.0741 4:1.85325 5:1.87332 6:2.03705 7:56.0137 
0.001314126868526921 1:1.41576 2:1.50214 3:1.84392 4:2.27248 5:2.30894 6:2.62776 7:16.3863 
0.001917617531402966 1:2.89592 2:2.96089 3:2.94207 4:12.3627 5:12.4547 6:13.7669 7:9.99428 8:1 
0.003031651239111588 1:0.445831 2:0.453743 3:0.571527 4:9.09173 5:9.30084 6:10.5375 7:0.440765 
0.01151935471615917 1:0.407288 2:0.426166 3:0.49157 4:0.444479 5:0.452511 6:0.551314 7:145229 
0.007261444702884421 1:0.659781 2:0.663355 3:1.13274 4:6.16901 5:6.34537 6:7.05908 7:116.746 
0.007246911524101817 1:5.11009 2:5.23492 3:5.21124 4:13.1893 5:13.2792 6:14.6044 7:17.2566 8:1 
0.01138193663570836 1:321.247 2:331.864 3:391.06 4:163.72 5:169.033 6:199.132 7:94618.3 
0.002213224802699422 1:2.20881 2:2.25072 3:2.43783 4:13.6037 5:13.6741 6:14.9647 7:15.7662 8:1 
0.005839205422425719 1:0.0457716 2:0.0634146 3:0.0992947 4:14.437 5:14.5373 6:15.8831 7:19.9837 8:1 
0.00150376700824604 1:1.9937 2:2.08293 3:2.09344 4:15.1474 5:15.2289 6:16.7102 7:9.95054 8:1 
0.002097337571576223 1:1.68543 2:1.75632 3:1.7588 4:13.7668 5:13.8428 6:15.1312 7:16.996 8:1 
0.001516967577626427 1:3.78464 2:3.86059 3:3.88765 4:14.6769 5:14.7511 6:16.1958 7:17.7543 8:1 
0.001206420836763455 1:2.19646 2:2.29998 3:2.35883 4:16.5951 5:16.7684 6:18.3557 7:11.6689 
0.007508447237657923 1:4.88733 2:5.01957 3:5.12025 4:13.0442 5:13.0772 6:14.398 7:25.3291 8:1 
0.00110207320661566 1:3.0312 2:3.11022 3:3.21096 4:9.3984 5:9.46363 6:10.6636 7:11.8169 
0.004801264044512702 1:0.0960007 2:0.143585 3:0.153784 4:16.0557 5:16.1592 6:17.6909 7:9.07177 8:1 
0.003374264539714344 1:2.76418 2:2.8229 3:2.71897 4:16.4413 5:16.5556 6:18.1142 7:12.6568 
0.01132961756135953 1:154.4 2:159.798 3:183.537 4:238.136 5:246.301 6:285.463 7:76118.7 
0.01132681265425278 1:146.883 2:152.324 3:177.842 4:82.9387 5:85.8132 6:99.594 7:18834.7 
0.00288193365611616 1:0.232332 2:0.218815 3:0.163726 4:11.0142 5:11.1782 6:12.3226 7:6.28118 8:1 
0.003933445637583913 1:0.00669718 2:0.0124578 3:0.0345144 4:5.11436 5:5.15445 6:5.76105 7:4.03316 8:1 
0.01132310811737086 1:52.8705 2:54.8975 3:64.3371 4:147.977 5:153.191 6:178.208 7:21715.4 
0.01155417385029245 1:6.70491 2:6.83384 3:7.5432 4:6.00222 5:6.10737 6:6.74966 7:103.205 
0.0109429034028472 1:4.99866 2:5.18553 3:5.50124 4:8.08496 5:8.18743 6:9.21157 7:29.7529 
0.002810205394828773 1:0.0851364 2:0.0399303 3:0.0111446 4:16.8907 5:17.0489 6:18.7286 7:3.62736 8:1 
0.001713845252646421 1:1.7531 2:1.81536 3:1.84687 4:16.0814 5:16.242 6:17.9548 7:2.0033 8:1 
0.001229344748168107 1:0.984123 2:1.02103 3:1.08184 4:18.0722 5:18.2527 6:20.0422 7:26.6045 8:1 
0.003277252107956985 1:2.38379 2:2.41337 3:2.61712 4:14.8761 5:14.983 6:16.744 7:18.5326 8:1 
0.005737993724757195 1:4.62135 2:4.75567 3:5.07174 4:15.6338 5:15.7889 6:17.3084 7:21.384 8:1 
0.001143817854197245 1:0.319443 2:0.330244 3:0.319851 4:16.8979 5:16.9982 6:18.7239 7:8.54506 8:1 
0.004392990232441397 1:2.52289 2:2.55441 3:2.59879 4:11.5898 5:11.6837 6:12.9305 7:23.72 8:1 
0.005859130137001624 1:0.401203 2:0.441578 3:0.524981 4:18.6943 5:18.8569 6:20.5842 7:25.9302 8:1 
0.002083835586449101 1:1.83705 2:1.93495 3:2.06311 4:20.2629 5:20.4318 6:22.1546 7:18.7465 8:1 
1 1:0.0935139 2:0.0941142 3:0.102371 4:0.0467569 5:0.0470571 6:0.0511856 7:0.00664312 8:1 
0.003661265063275429 1:3.33486 2:3.34026 3:3.72295 4:21.646 5:21.846 6:23.868 7:24.4878 8:1 
0.005178587722608365 1:2.0532 2:2.20725 3:2.94618 4:20.4965 5:20.7125 6:22.769 7:21.8517 8:1 
0.004546790527837147 1:3.8005 2:3.87149 3:3.94734 4:21.0936 5:21.304 6:23.2542 7:14.4602 8:1 
1 1:3.40725e-11 2:3.51223e-11 3:4.19182e-11 4:1.70362e-11 5:1.75612e-11 6:2.09591e-11 7:9.25183e-22 8:1 
0.0006068194471476329 1:0.416473 2:0.441914 3:0.43461 4:19.7261 5:19.8482 6:21.7235 7:6.39893 8:1 
0.01079970937864649 1:5.33547 2:5.51789 3:6.52666 4:21.9026 5:22.1413 6:24.537 7:80.6173 8:1 
0.005181759413844086 1:2.40597 2:2.45011 3:2.66462 4:4.39292 5:4.46006 6:5.06758 7:6.31378 8:1 
1 1:8.40008e-27 2:8.66039e-27 3:1.05696e-26 4:7.66198e-27 5:7.89198e-27 6:9.63135e-27 8:1 
1 1:1.60185e-27 2:1.65073e-27 3:2.02798e-27 4:8.00924e-28 5:8.25367e-28 6:1.01399e-27 8:1 
0.002800903348413476 1:0.037775 2:0.0206738 3:0.0525227 4:7.03294 5:7.16032 6:8.08057 7:3.57581 8:1 
1 1:1.03843e-10 2:1.05849e-10 3:1.15703e-10 4:5.19216e-11 5:5.29246e-11 6:5.78516e-11 7:8.40303e-21 8:1 
0.003470613955105339 1:2.40729 2:2.48052 3:2.57761 4:8.65654 5:8.81862 6:9.84416 7:4.76135 8:1 
0.01126616691947613 1:1.07765 2:1.12013 3:1.06077 4:16.6511 5:16.7952 6:18.5942 7:343.069 8:1 
0.005171648431454477 1:3.02823 2:3.09552 3:3.1666 4:10.0719 5:10.3054 6:11.7684 7:4.62879 8:1 
0.003816245051086971 1:3.98376 2:4.09293 3:4.19285 4:10.8829 5:11.1287 6:12.5401 7:10.6395 8:1 
0.001271121960718358 1:1.97974 2:2.00198 3:2.23338 4:21.0928 5:21.2717 6:23.2385 7:11.1439 8:1 
0.008744855187825862 1:4.2884 2:4.41705 3:4.55745 4:21.2183 5:21.4511 6:23.5793 7:42.2705 8:1 
0.003128587728554049 1:0.585197 2:0.605272 3:0.807631 4:1.42838 5:1.44046 6:1.75875 7:31.9796 8:1 
0.003819684160220064 1:2.50761 2:2.55983 3:2.57209 4:20.631 5:20.8835 6:23.0491 7:9.33282 8:1 
0.006224683754283575 1:3.68996 2:3.7658 3:3.73993 4:7.12547 5:7.27655 6:7.97371 7:14.4228 8:1 
0.01091990911148066 1:6.70973 2:6.84805 3:7.26204 4:17.5477 5:17.7008 6:19.4575 7:22.3645 8:1 
0.009868825089154475 1:6.56766 2:6.79537 3:6.93833 4:18.8736 5:18.9675 6:20.963 7:43.9379 8:1 
0.001145993295091489 1:1.77919 2:1.80566 3:1.56425 4:12.4177 5:12.6971 6:14.0894 7:14.0332 8:1 
0.001590107562075116 1:0.281547 2:0.298911 3:0.416399 4:7.17718 5:7.33561 6:8.19428 7:14.8556 8:1 
0.001960330530290433 1:3.04494 2:3.17049 3:3.38529 4:15.3656 5:15.4614 6:16.9863 7:20.3889 8:1 
0.005915875322849437 1:0.402636 2:0.404128 3:0.424875 4:13.0972 5:13.1755 6:14.4485 7:43.9478 8:1 
0.003260748383464074 1:0.305195 2:0.340895 3:0.439503 4:17.3619 5:17.4494 6:19.3498 7:14.3274 8:1 
0.002648962387961973 1:0.674738 2:0.670929 3:0.456161 4:21.8641 5:22.0514 6:24.1935 7:11.5613 8:1 
0.002402501858569866 1:2.36663 2:2.42103 3:2.47174 4:9.05192 5:9.2523 6:10.3459 7:11.2843 8:1 
0.001552259184534383 1:3.04863 2:3.17163 3:2.94398 4:18.3624 5:18.565 6:20.7931 7:8.73484 8:1 
0.004738582384083965 1:0.470842 2:0.524685 3:0.404221 4:18.7269 5:18.8585 6:20.9081 7:6.90107 8:1 
0.0002587713232483049 1:1.34477 2:1.31056 3:1.29483 4:21.0627 5:21.3255 6:23.5547 7:16.1251 8:1 
0.002014645540108218 1:0.149862 2:0.131034 3:0.405081 4:6.02404 5:6.11503 6:6.9007 7:24.9796 8:1 
0.005547986282657173 1:3.82618 2:3.91378 3:3.91393 4:22.1663 5:22.3515 6:24.4819 7:14.8947 8:1 
0.002138330736579757 1:0.546755 2:0.50629 3:0.674677 4:20.1738 5:20.4222 6:22.6002 7:16.1368 8:1 
0.002296304898587828 1:2.70046 2:2.71945 3:2.99979 4:10.1696 5:10.2507 6:11.3696 7:15.5652 8:1 
0.005774955460585787 1:3.20567 2:3.26079 3:3.41702 4:8.71443 5:8.85624 6:9.93326 7:20.3946 8:1 
0.005502127956254821 1:6.90434 2:7.14589 3:8.32595 4:21.3234 5:21.5063 6:24.1262 7:67.4816 8:1 
0.004598878994726541 1:1.94414 2:1.96919 3:2.15809 4:9.08638 5:9.18604 6:10.3984 7:29.3645 8:1 
0.003423251565722216 1:0.17318 2:0.202221 3:0.228176 4:21.8379 5:22.0384 6:24.3663 7:22.9217 8:1 
0.008567610505672174 1:1.22899 2:1.22045 3:1.31293 4:14.0817 5:14.2765 6:15.6924 7:30.4081 8:1 
0.005399468408920249 1:0.0804672 2:0.145678 3:0.0676336 4:14.1953 5:14.4217 6:15.7866 7:12.1604 8:1 
0.0009515828978038469 1:0.163367 2:0.131199 3:0.0427771 4:8.91534 5:9.01439 6:10.3536 7:4.87525 8:1 
0.008861592613614466 1:5.95571 2:6.15018 3:6.97106 4:21.6887 5:21.9122 6:24.5321 7:32.4534 8:1 
0.001155442918141569 1:1.60187 2:1.69724 3:2.08519 4:22.9004 5:23.1828 6:26.0583 7:10.441 8:1 
0.003240901083462536 1:3.37048 2:3.38669 3:3.2418 4:14.0955 5:14.4266 6:16.097 7:9.40025 8:1 
0.0005670532810454084 1:1.55848 2:1.57466 3:1.46704 4:14.9702 5:15.3485 6:17.1179 7:7.43864 8:1 
0.0009294796680057258 1:1.04432 2:1.08741 3:1.25348 4:10.5646 5:10.7368 6:12.3382 7:16.5653 8:1 
0.0007809662127005179 1:3.16507 2:3.23836 3:3.202 4:16.3371 5:16.742 6:18.5521 7:12.7088 8:1 
0.005337082564955631 1:1.07897 2:1.05761 3:1.36049 4:10.391 5:10.5295 6:12.0902 7:38.1749 8:1 
0.005657871244719059 1:0.0785484 2:0.0753593 3:0.010994 4:16.1878 5:16.5495 6:18.364 7:13.1932 8:1 
0.00482746908208564 1:2.52011 2:2.59217 3:2.52734 4:18.538 5:18.7475 6:20.9725 7:23.2594 8:1 
0.003269589748935209 1:1.56789 2:1.651 3:1.85843 4:11.9168 5:12.0986 6:13.8973 7:17.5686 8:1 
0.005015455104292355 1:4.66472 2:4.75881 3:4.86617 4:17.9896 5:18.412 6:20.3209 7:18.3398 8:1 
0.006687910878293114 1:3.45433 2:3.54894 3:3.362 4:16.2543 5:16.6273 6:18.4323 7:7.82679 8:1 
0.009404424513607068 1:7.12464 2:7.32781 3:7.59549 4:21.049 5:21.2482 6:23.4979 7:42.18 8:1 
0.001356803666016396 1:0.932866 2:0.951516 3:0.988974 4:12.4066 5:12.6001 6:14.2762 7:43.529 8:1 
0.0008841368826763563 1:0.202616 2:0.178993 3:0.284798 4:9.99668 5:10.1555 6:11.7019 7:31.459 8:1 
0.007758381095185759 1:5.32721 2:5.39589 3:5.9136 4:19.0472 5:19.1967 6:21.4453 7:16.785 8:1 
0.001628190710065369 1:1.20744 2:1.22998 3:1.34235 4:16.244 5:16.6401 6:18.5457 7:18.3726 8:1 
0.007071184647474295 1:0.22304 2:0.226109 3:0.0280342 4:19.584 5:19.8493 6:21.9345 7:19.7196 8:1 
0.003208361668256928 1:3.38812 2:3.45769 3:3.6784 4:11.3546 5:11.5243 6:13.1117 7:24.238 8:1 
0.0008487028083018347 1:1.68063 2:1.85903 3:2.49594 4:20.3324 5:20.5805 6:23.133 7:11.183 8:1 
0.003606420359832081 1:3.12343 2:3.20859 3:3.28463 4:20.3501 5:20.6941 6:22.732 7:33.343 8:1 
0.001189251470690338 1:1.17158 2:1.19411 3:1.06893 4:19.9621 5:20.1113 6:22.4348 7:29.2928 8:1 
0.005618728275945857 1:2.91818 2:3.02081 3:3.17075 4:10.6709 5:10.8331 6:12.1618 7:17.9356 8:1 
0.007733483934532492 1:3.85104 2:3.92693 3:4.03798 4:18.5074 5:18.7751 6:20.8577 7:44.2042 8:1 
0.005484541794828157 1:3.87963 2:4.0622 3:4.7904 4:23.0574 5:23.2742 6:26.0237 7:28.607 8:1 
0.006118392989916566 1:2.40456 2:2.44567 3:2.77408 4:17.4016 5:17.5361 6:19.6518 7:34.6192 8:1 
0.004304321730977783 1:2.12725 2:2.2066 3:2.17417 4:9.99974 5:10.1923 6:11.5902 7:20.9838 8:1 
0.008008836372796306 1:5.55905 2:5.67872 3:6.10218 4:20.1252 5:20.3953 6:22.567 7:33.8265 8:1 
0.007454664723174261 1:2.86829 2:2.90435 3:2.64073 4:24.0699 5:24.345 6:26.987 7:49.4347 8:1 
0.01071168865689093 1:3.59791 2:3.6813 3:3.78095 4:21.5555 5:21.8871 6:24.1692 7:54.9226 8:1 
0.004563283400245921 1:0.117842 2:0.0572662 3:0.155577 4:23.7289 5:23.9287 6:26.3655 7:38.1641 8:1 
6.242786364090433e-05 1:1.02633 2:1.06261 3:1.32948 4:21.0943 5:21.3353 6:23.6229 7:20.7082 8:1 
0.005688014542200206 1:4.99544 2:5.09578 3:5.53336 4:21.0919 5:21.414 6:23.744 7:22.0171 8:1 
0.002011686021579391 1:5.2648 2:5.51986 3:5.75518 4:24.0654 5:24.2669 6:27.0063 7:40.2562 8:1 
0.003800981159175485 1:4.70584 2:4.75595 3:5.15931 4:19.9864 5:20.2613 6:22.5311 7:101.872 8:1 
0.006789047016729073 1:3.2704 2:3.40031 3:3.91222 4:23.0998 5:23.35 6:26.1716 7:40.891 8:1 
0.001571997732576387 1:0.477906 2:0.492628 3:0.467254 4:13.5339 5:13.7511 6:15.6055 7:6.31863 8:1 
0.004605152391767786 1:1.45701 2:1.46903 3:1.52436 4:22.3887 5:22.7182 6:25.2817 7:35.6783 8:1 
0.002575646146553645 1:4.88792 2:4.9544 3:4.99979 4:22.7461 5:23.0401 6:25.3727 7:20.4884 8:1 
0.003024280332760933 1:0.622898 2:0.686022 3:0.846268 4:23.227 5:23.4668 6:26.1627 7:28.5444 8:1 
0.01129495728485874 1:6.2143 2:6.37039 3:6.88068 4:20.4832 5:20.7655 6:23.2386 7:56.6888 8:1 
0.004295851586295035 1:0.112644 2:0.136419 3:0.042592 4:12.1377 5:12.3127 6:13.929 7:7.38865 8:1 
0.004235395307987947 1:3.69385 2:3.73837 3:3.85138 4:24.9132 5:25.2669 6:27.8642 7:15.313 8:1 
0.002533198527202982 1:0.458372 2:0.486782 3:1.2737 4:22.2486 5:22.4619 6:25.6426 7:19.511 8:1 
0.004260848681922058 1:0.154549 2:0.121525 3:0.0250168 4:23.756 5:24.1307 6:26.8454 7:11.9613 8:1 
0.001715234404307392 1:3.34826 2:3.41127 3:3.43995 4:19.1334 5:19.1992 6:21.8411 7:11.7492 8:1 
0.00835553707738413 1:0.325703 2:0.267944 3:0.0110321 4:23.906 5:24.2969 6:27.0418 7:85.4726 8:1 
0.006665452422997088 1:0.256766 2:0.2411 3:0.223482 4:7.82249 5:7.86945 6:9.13875 7:18.1271 8:1 
0.01065273425022789 1:6.99508 2:7.22677 3:8.14602 4:22.4902 5:22.715 6:25.8192 7:45.4806 8:1 
0.001670843688445001 1:2.01955 2:2.09459 3:2.0426 4:13.7748 5:14.0117 6:15.7039 7:12.5451 8:1 
0.00223345797707659 1:0.944733 2:0.947216 3:0.89863 4:21.3637 5:21.5373 6:24.3527 7:15.4587 8:1 
0.006364994804046836 1:3.52398 2:3.55104 3:3.73075 4:22.8965 5:23.2344 6:25.8659 7:18.4326 8:1 
0.006299888622351308 1:3.7654 2:3.81008 3:3.86475 4:9.59587 5:9.68166 6:10.7917 7:22.5163 8:1 
0.005360714828327562 1:3.76853 2:3.84901 3:3.85647 4:9.39259 5:9.4875 6:10.9506 7:7.91617 8:1 
0.003124869598907731 1:0.536152 2:0.554459 3:0.618774 4:16.4799 5:16.8784 6:18.7015 7:5.78688 8:1 
0.000698538570492942 1:2.42162 2:2.48325 3:2.42189 4:16.8497 5:17.2369 6:19.0739 7:11.0304 8:1 
0.002692222752610645 1:0.46376 2:0.497789 3:0.677779 4:10.89 5:11.0451 6:12.3041 7:10.4218 8:1 
0.005776345347583769 1:2.42784 2:2.5001 3:2.57018 4:17.4944 5:17.9151 6:19.7462 7:4.78805 8:1 
0.002158990119519222 1:0.0183992 2:0.0434942 3:0.0765915 4:11.9655 5:12.1575 6:13.3801 7:14.5561 8:1 
0.0006018573895129053 1:2.37823 2:2.40009 3:2.38889 4:11.2122 5:11.3564 6:13.0274 7:12.1296 8:1 
0.004716546314239794 1:3.55708 2:3.68234 3:3.71457 4:18.5977 5:19.0084 6:20.7672 7:10.1723 8:1 
0.007226223978391083 1:3.10693 2:3.18864 3:3.3749 4:8.65111 5:8.78819 6:10.2448 7:27.0008 8:1 
0.004138782048924483 1:0.596823 2:0.591669 3:0.52025 4:17.3376 5:17.7451 6:19.6756 7:10.272 8:1 
0.0009719444618461193 1:0.0948706 2:0.0884466 3:0.0626278 4:11.6677 5:11.8183 6:13.0998 7:3.71771 8:1 
0.00617471421498883 1:5.52161 2:5.69971 3:6.19997 4:22.4066 5:22.7739 6:25.4786 7:23.389 8:1 
0.0058016302659879 1:0.373373 2:0.397749 3:0.338991 4:18.853 5:19.2639 6:21.0366 7:16.4878 8:1 
0.005368942656130749 1:2.15962 2:2.23465 3:2.22847 4:19.5142 5:19.9714 6:22.1484 7:37.1898 8:1 
0.002286889408320626 1:0.129036 2:0.147655 3:0.107935 4:22.9235 5:23.471 6:25.9328 7:4.43882 8:1 
0.008133963198496148 1:0.324781 2:0.348528 3:0.462762 4:7.06724 5:7.18717 6:8.41885 7:26.6973 8:1 
0.002192281139747065 1:2.2405 2:2.27521 3:2.3904 4:21.3872 5:21.6981 6:24.46 7:26.5859 8:1 
0.0008529624714538051 1:0.315502 2:0.367346 3:0.245291 4:24.578 5:25.1195 6:27.5214 7:11.0421 8:1 
0.002236701477772355 1:0.972536 2:1.016 3:0.904367 4:26.8773 5:27.2985 6:30.2859 7:44.6405 8:1 
0.005592279248607501 1:2.43083 2:2.47701 3:2.48784 4:25.1708 5:25.5909 6:28.6281 7:22.2534 8:1 
0.008509265821137407 1:0.427074 2:0.474977 3:0.54738 4:23.4366 5:23.9935 6:26.3585 7:1.98866 8:1 
0.003092475969926789 1:1.66362 2:1.66888 3:1.8581 4:27.3809 5:27.8267 6:30.8385 7:35.4539 8:1 
0.005213679606948143 1:2.59053 2:2.69111 3:2.89494 4:8.19592 5:8.34621 6:9.87336 7:16.784 8:1 
0.007494420404936336 1:5.47336 2:5.57464 3:5.51838 4:24.1394 5:24.5277 6:27.3691 7:20.3545 8:1 
0.007798495867264051 1:5.42222 2:5.59141 3:5.73894 4:23.3155 5:23.5373 6:26.6283 7:39.354 8:1 
0.005580989680129276 1:3.24174 2:3.32262 3:3.18363 4:28.637 5:29.0816 6:32.2214 7:15.2552 8:1 
0.002045439309145138 1:2.64843 2:2.65117 3:2.1436 4:22.7897 5:23.0347 6:26.2944 7:20.5839 8:1 
0.005593219504295322 1:1.98058 2:1.96849 3:2.22906 4:27.4663 5:27.9163 6:31.0078 7:36.8491 8:1 
0.003590890861745153 1:0.891649 2:0.949577 3:1.4686 4:22.568 5:22.8174 6:26.2212 7:14.1633 8:1 
0.00324618019674866 1:0.201007 2:0.219026 3:0.333433 4:9.10866 5:9.29287 6:10.9611 7:9.26257 8:1 
0.007517043262076718 1:5.58278 2:5.694 3:6.03761 4:26.7859 5:27.2177 6:30.3884 7:35.1074 8:1 
0.006632388691551361 1:3.58815 2:3.66138 3:3.77862 4:21.3781 5:21.6582 6:24.759 7:32.8288 8:1 
0.006317588161113163 1:1.28563 2:1.36698 3:1.45788 4:29.0451 5:29.467 6:32.6614 7:30.3464 8:1 
0.002048875146513529 1:3.45534 2:3.72933 3:4.47968 4:22.531 5:22.8535 6:26.3505 7:29.2482 8:1 
0.0009194965855614341 1:0.957775 2:0.94354 3:1.00454 4:8.60288 5:8.762 6:10.1406 7:12.8198 8:1 
0.00866296672950204 1:8.46702 2:8.84977 3:9.27568 4:27.6687 5:28.0201 6:31.5088 7:44.4219 8:1 
0.01048625030895012 1:9.76847 2:10.1108 3:11.8687 4:27.0345 5:27.4744 6:31.6181 7:57.0117 8:1 
0.004978026344837794 1:4.46179 2:4.57267 3:4.77147 4:27.8846 5:28.3564 6:31.429 7:20.3585 8:1 
0.003481619086642198 1:3.38995 2:3.48448 3:3.50516 4:23.5812 5:24.0077 6:27.1265 7:10.5651 8:1 
0.001871014368421575 1:0.624362 2:0.672274 3:0.95651 4:10.2541 5:10.4633 6:11.9907 7:15.2255 8:1 
0.006736297674728942 1:0.283323 2:0.425524 3:1.49515 4:30.3347 5:30.7473 6:34.5694 7:35.8323 8:1 
0.01009508229318032 1:5.88929 2:6.07481 3:6.82722 4:25.0888 5:25.4883 6:29.0315 7:42.4107 8:1 
0.009791275367382359 1:2.60921 2:2.7998 3:3.22083 4:28.9418 5:29.5114 6:32.9741 7:49.8152 8:1 
0.003338808587159513 1:0.10397 2:0.0874634 3:0.0554008 4:24.9269 5:25.3375 6:28.4884 7:9.07975 8:1 
0.01066660162398797 1:5.72239 2:6.11001 3:7.7518 4:28.7421 5:29.1633 6:33.0452 7:45.8998 8:1 
0.0115187385072959 1:5.61419 2:5.7893 3:5.84165 4:27.1118 5:27.5822 6:30.9678 7:65.9534 8:1 
0.008203561639977285 1:2.38079 2:2.40446 3:2.4452 4:10.8082 5:10.948 6:12.6883 7:40.5513 8:1 
0.004372352503697663 1:3.72447 2:3.81039 3:3.63872 4:26.4268 5:26.9664 6:30.1944 7:17.239 8:1 
0.002697404936968787 1:0.71821 2:0.884457 3:1.35815 4:31.8357 5:32.384 6:36.6311 7:65.8804 8:1 
0.005262239956895287 1:5.80092 2:6.00081 3:6.59476 4:27.6803 5:28.214 6:31.6157 7:26.0042 8:1 
0.007216450145348758 1:3.56051 2:3.71522 3:3.84033 4:29.2204 5:29.8012 6:33.7934 7:36.4489 8:1 
0.008604297415284991 1:4.0168 2:4.21345 3:4.82663 4:27.0401 5:27.3722 6:31.5857 7:54.8725 8:1 
0.006037906312268582 1:2.72571 2:2.80923 3:2.56671 4:21.4747 5:21.8467 6:24.8701 7:6.09611 8:1 
0.003523658590141041 1:3.39532 2:3.50322 3:3.54538 4:26.7207 5:27.1525 6:30.7275 7:19.6964 8:1 
0.002212742033668749 1:0.296842 2:0.307371 3:0.292194 4:13.391 5:13.5621 6:14.8734 7:9.52896 8:1 
0.009827115751799065 1:1.37615 2:1.52985 3:1.45899 4:28.0368 5:28.3665 6:32.0395 7:54.0608 8:1 
0.004240142726521264 1:0.175445 2:0.150943 3:0.0643768 4:10.3408 5:10.5889 6:12.1238 7:33.3591 8:1 
0.003231277576095052 1:3.64734 2:3.70932 3:3.63112 4:12.7031 5:12.8772 6:14.2093 7:13.7966 8:1 
0.007866267449528971 1:8.40588 2:8.77117 3:10.0691 4:28.0637 5:28.491 6:32.4482 7:41.3707 8:1 
0.005777818988305404 1:4.0414 2:4.13654 3:4.2104 4:16.7177 5:17.0627 6:18.6703 7:15.2337 8:1 
0.002556243605449654 1:0.120947 2:0.106602 3:0.161158 4:24.6287 5:25.1956 6:27.5063 7:4.85679 8:1 
0.007157356008022429 1:3.07966 2:3.17804 3:3.27213 4:16.8477 5:17.1753 6:18.8054 7:24.4644 8:1 
0.002129090960017288 1:2.38467 2:2.44206 3:2.47122 4:18.8358 5:19.2168 6:20.8552 7:8.76679 8:1 
0.003083288034713358 1:0.211309 2:0.207076 3:0.14393 4:11.5711 5:11.7137 6:13.3641 7:13.3124 8:1 
0.00189439703114636 1:1.0783 2:1.14163 3:1.25364 4:10.5705 5:10.723 6:12.6534 7:7.20883 8:1 
0.002746760510247356 1:2.8636 2:2.91042 3:2.96176 4:18.4576 5:18.8185 6:20.4111 7:19.4737 8:1 
0.00399765148913761 1:3.87955 2:3.96165 3:3.97154 4:12.6722 5:12.8338 6:14.282 7:12.5866 8:1 
0.008370791013606412 1:5.28884 2:5.37851 3:5.59285 4:25.4519 5:26.0369 6:28.4415 7:16.8022 8:1 
0.001321094079168694 1:2.66588 2:2.74671 3:2.74559 4:17.6251 5:17.9662 6:19.6201 7:6.98368 8:1 
0.005178861523419856 1:2.5467 2:2.57779 3:2.6227 4:25.2686 5:25.8529 6:28.1716 7:7.38929 8:1 
0.002896285135071988 1:2.10029 2:2.14809 3:2.18289 4:18.1064 5:18.4382 6:20.0558 7:18.1291 8:1 
0.004688049930339278 1:3.13929 2:3.2392 3:3.19607 4:25.2581 5:25.8765 6:28.2239 7:32.4334 8:1 
0.001060354455374039 1:0.34938 2:0.325686 3:0.35165 4:17.9782 5:18.3092 6:19.878 7:6.0764 8:1 
0.006648281177339233 1:3.19803 2:3.25171 3:3.16649 4:13.2373 5:13.3902 6:14.8829 7:6.41713 8:1 
0.004371039101364527 1:3.79242 2:3.88222 3:3.9229 4:16.2046 5:16.4169 6:17.9265 7:18.7845 8:1 
0.007871913987234502 1:5.11051 2:5.22886 3:5.25652 4:18.6593 5:18.9932 6:20.5887 7:12.9413 8:1 
0.003333127166775642 1:2.61816 2:2.68219 3:2.6063 4:26.5671 5:27.1451 6:29.3968 7:22.0587 8:1 
0.0006500306231648192 1:2.70594 2:2.8164 3:2.82494 4:17.6454 5:17.9596 6:19.551 7:24.7169 8:1 
0.002977350445452177 1:0.0358915 2:0.0245409 3:0.00462818 4:12.906 5:13.1048 6:14.9902 7:10.868 8:1 
0.006875598989422332 1:5.08095 2:5.23098 3:5.36688 4:13.2721 5:13.5419 6:15.2745 7:21.5501 8:1 
0.005673534872505603 1:3.45835 2:3.59344 3:3.76522 4:26.329 5:26.9196 6:29.0761 7:7.92135 8:1 
0.007814106792887679 1:0.113543 2:0.146643 3:0.159868 4:26.8908 5:27.4835 6:29.7177 7:21.8142 8:1 
0.005088695469559312 1:0.244684 2:0.248777 3:0.0437717 4:17.0243 5:17.4363 6:19.4728 7:23.3142 8:1 
0.002180641003035085 1:0.876312 2:0.898943 3:1.20229 4:19.6406 5:20.0743 6:22.4138 7:13.833 8:1 
0.009674104825469163 1:7.8244 2:7.99757 3:8.97698 4:26.6517 5:27.1197 6:31.1262 7:55.9891 8:1 
0.003056067963200595 1:1.46883 2:1.39613 3:1.10844 4:29.4064 5:30.0025 6:33.7003 7:43.4156 8:1 
0.001983659816753212 1:2.33152 2:2.38411 3:2.53605 4:18.7815 5:19.1809 6:21.362 7:21.2509 8:1 
0.01206176206903087 1:7.00176 2:7.14811 3:8.20718 4:31.887 5:32.5692 6:37.2983 7:72.421 8:1 
0.006056946463234458 1:1.92854 2:2.02057 3:1.84929 4:29.9817 5:30.5773 6:34.1329 7:38.733 8:1 
0.004538798516690035 1:2.69101 2:2.79914 3:3.06359 4:19.2729 5:19.6204 6:22.6085 7:16.3546 8:1 
0.006814145050421852 1:3.75505 2:3.90735 3:4.08306 4:23.5417 5:24.1349 6:26.6393 7:24.6674 8:1 
0.006366533920176654 1:0.577866 2:0.606985 3:0.558022 4:28.8248 5:29.3477 6:33.3519 7:35.152 8:1 
0.004669541504518107 1:2.13382 2:2.21137 3:2.03852 4:27.9801 5:28.3552 6:32.1937 7:23.7354 8:1 
0.007960353555299171 1:0.00954819 2:0.0312119 3:0.131592 4:29.0486 5:29.6295 6:33.1991 7:45.9975 8:1 
0.006496589583971557 1:0.695477 2:0.685013 3:0.748312 4:22.6252 5:23.0566 6:25.9059 7:67.3245 8:1 
0.007931700299775933 1:3.00947 2:3.19222 3:4.20025 4:29.7617 5:30.2374 6:33.9961 7:55.0288 8:1 
0.005603875736216735 1:2.07692 2:2.17641 3:2.07654 4:29.8459 5:30.4574 6:34.1223 7:26.2519 8:1 
0.004348799353005195 1:1.70545 2:1.7819 3:1.43137 4:26.0371 5:26.4424 6:30.0066 7:45.8691 8:1 
0.007548856279695815 1:4.2466 2:4.35503 3:4.46656 4:20.4132 5:20.8298 6:23.7789 7:27.1437 8:1 
0.001263084750653096 1:0.474293 2:0.585329 3:1.00862 4:30.2927 5:30.6762 6:34.4417 7:42.4609 8:1 
0.00101368130468632 1:0.663834 2:0.659359 3:0.697029 4:26.1404 5:26.6339 6:30.1168 7:12.6607 8:1 
0.007869087020569909 1:5.45384 2:5.54549 3:5.66727 4:26.0542 5:26.652 6:29.3531 7:29.5814 8:1 
0.006504897952747501 1:1.45435 2:1.49011 3:1.31025 4:24.8853 5:25.2051 6:29.044 7:26.4836 8:1 
0.005424413228272085 1:0.568562 2:0.559113 3:0.0716095 4:28.2468 5:28.6441 6:32.8305 7:18.0928 8:1 
0.002079181541286648 1:1.03758 2:1.04278 3:0.887426 4:26.9174 5:27.5235 6:30.3358 7:27.8442 8:1 
0.003303714860528959 1:1.6225 2:1.66508 3:2.19011 4:27.1068 5:27.5358 6:31.4012 7:28.3445 8:1 
0.009248544364868031 1:6.47729 2:6.73087 3:7.71472 4:28.2303 5:28.8232 6:32.8727 7:41.0204 8:1 
0.008089454305861334 1:2.84502 2:3.0146 3:3.05267 4:28.2187 5:28.6676 6:32.6982 7:115.608 8:1 
0.007787554986012879 1:1.50494 2:1.50864 3:1.80873 4:20.3813 5:20.7596 6:23.7337 7:46.201 8:1 
0.006196479159421822 1:4.09347 2:4.11383 3:4.069 4:32.2542 5:32.846 6:36.8534 7:31.6559 8:1 
0.005332592188397045 1:1.29579 2:1.24348 3:1.16136 4:27.5597 5:27.8616 6:31.5995 7:31.1573 8:1 
0.001971295885914466 1:2.43839 2:2.49449 3:2.58432 4:27.7593 5:28.3153 6:31.9522 7:14.8374 8:1 
0.009368031676590413 1:3.09398 2:3.14579 3:3.60719 4:30.6697 5:31.1827 6:34.9923 7:13.2 8:1 
0.002508325370300934 1:1.14788 2:1.01077 3:0.657768 4:30.3842 5:30.8862 6:35.2706 7:42.0772 8:1 
0.01204241685726631 1:8.65032 2:8.82137 3:8.98131 4:24.7687 5:25.2413 6:28.8088 7:63.5074 8:1 
0.004630862897825438 1:0.437021 2:0.431915 3:0.368204 4:20.2132 5:20.6165 6:23.508 7:8.10445 8:1 
0.008801199866829293 1:1.50905 2:1.50174 3:1.04476 4:31.4809 5:32.1058 6:36.1761 7:63.4725 8:1 
0.007045909384873986 1:0.405367 2:0.441797 3:0.246357 4:30.7911 5:31.2437 6:35.376 7:40.2801 8:1 
0.003565191802102297 1:2.54267 2:2.59159 3:2.68644 4:25.7627 5:26.2674 6:29.852 7:13.0545 8:1 
0.005721689173161426 1:1.00384 2:1.14116 3:2.02299 4:21.9001 5:22.3673 6:25.6861 7:73.4369 8:1 
0.01156185394376935 1:3.64146 2:3.87085 3:5.56705 4:35.399 5:36.0768 6:41.2031 7:57.7302 8:1 
0.007629314955612532 1:0.456139 2:0.453873 3:0.464573 4:29.2151 5:29.835 6:34.1274 7:20.6674 8:1 
0.004088472553008227 1:1.05838 2:1.07194 3:1.36065 4:27.6702 5:28.306 6:31.0848 7:26.4867 8:1 
0.002265764189313456 1:2.08683 2:2.10242 3:2.4145 4:21.4919 5:21.9495 6:24.8878 7:17.5241 8:1 
0.01156287029953618 1:2.65897 2:2.69872 3:3.6461 4:33.499 5:34.0723 6:38.682 7:114.514 8:1 
0.004823559926021808 1:0.157232 2:0.177147 3:0.0602226 4:24.9742 5:25.4755 6:29.1851 7:17.8327 8:1 
0.008259017134070946 1:1.11377 2:1.05329 3:0.9161 4:29.8008 5:30.3778 6:34.4737 7:48.387 8:1 
0.009844592446294544 1:7.05732 2:7.18141 3:7.23358 4:20.3821 5:20.7877 6:23.8285 7:74.7155 8:1 
0.007855562008732745 1:1.27889 2:1.25023 3:1.77882 4:32.6528 5:33.257 6:37.7791 7:66.1496 8:1 
0.01181440104822762 1:7.55237 2:7.73305 3:9.21941 4:39.5854 5:40.5272 6:45.681 7:61.1831 8:1 
0.006483366845630292 1:0.332212 2:0.329412 3:0.262894 4:22.5523 5:23.015 6:26.2849 7:17.9287 8:1 
0.01081837306012074 1:2.71229 2:2.66588 3:3.15556 4:30.1978 5:30.6035 6:34.8602 7:83.4874 8:1 
0.006282508907790882 1:3.3373 2:3.43392 3:4.13957 4:32.5556 5:33.1977 6:37.4953 7:31.7323 8:1 
0.01196627471279316 1:0.807594 2:0.935863 3:1.66545 4:38.2217 5:38.9585 6:43.9009 7:29.7986 8:1 
0.01162998131199039 1:6.43476 2:6.6074 3:7.82142 4:36.6154 5:37.2606 6:42.4095 7:192.141 8:1 
0.01122406393273923 1:4.32962 2:4.39651 3:1.39792 4:9.75101 5:9.90197 6:3.15508 7:39.4999 
0.01161146747783715 1:190.091 2:200 3:217.751 4:475.228 5:500 6:544.377 7:190000 8:1 
0.01161747348274306 1:190.091 2:200 3:217.751 4:95.0456 5:100 6:108.875 7:70000 8:1 
0.01109313756635033 1:4.45016 2:4.5695 3:2.57132 4:8.4363 5:8.61665 6:3.84548 7:243.62 
0.004971901702746917 1:1.35149 2:1.38557 3:0.732342 4:14.8076 5:15.0818 6:5.79853 7:12.5146 
0.00877507252117231 1:0.268771 2:0.272923 3:0.0867734 4:5.89514 5:5.98626 6:1.90423 7:9.28581 
1 1:0.0399009 2:0.0405174 3:0.0128828 4:0.0199504 5:0.0202587 6:0.00644141 7:0.0028729 
0.01163750096520022 4:570.274 5:600 6:653.252 7:160000 8:1 
0.002445290570197267 1:0.656483 2:0.66863 3:0.25693 4:10.9424 5:11.1146 6:3.60304 7:4.02942 
0.01164667916000839 1:18.0246 2:18.3633 3:7.17089 4:13.9592 5:14.2051 6:5.18418 7:1432.42 
0.01156821036845923 1:4.57936 2:4.65889 3:1.6754 4:14.4559 5:14.7632 6:6.54989 7:120.241 
0.005125175187167264 1:0.10556 2:0.107233 3:0.0350084 4:14.9041 5:15.1347 6:4.81969 7:0.32066 
0.01158709777775307 1:6.79793 2:6.91742 3:2.51924 4:3.39897 5:3.45871 6:1.25962 7:123.287 
0.007852864835679485 1:0.20815 2:0.211373 3:0.0673881 4:14.1281 5:14.3468 6:4.57109 7:4.11166 
0.01156045535346828 1:2.73085 2:2.8314 3:2.19074 4:20.2175 5:20.7001 6:10.3459 7:30.525 
0.01151194512463699 1:1.31746 2:1.33597 3:0.384001 4:14.8687 5:15.1013 6:4.86514 7:212.447 
0.01132626208222143 1:1.34067 2:1.37775 3:0.799982 4:15.7007 5:16.025 6:6.90324 7:21.2997 
0.01156489233598418 1:0.192806 2:0.192772 3:0.00533772 4:33.0619 5:33.599 6:11.2645 7:110.485 
0.001964476489632491 1:0.570945 2:0.579816 3:0.185488 4:9.45667 5:9.60367 6:3.07346 7:1.47362 
0.01144880614798399 1:0.678697 2:0.696032 3:0.372708 4:13.8427 5:14.0948 6:5.32779 7:401.214 
0.01130149174953848 1:4.73546 2:4.87223 3:2.95564 4:38.1684 5:39.0098 6:17.9696 7:255.982 
0.001085681133108862 1:0.184278 2:0.188288 3:0.0855646 4:12.5363 5:12.7483 6:4.45839 7:3.1871 
0.01156289490520168 1:2.26722 2:2.35625 3:1.94334 4:25.2495 5:25.8614 6:13.1268 7:118.663 
0.01154534988910501 1:0.353455 2:0.345192 3:0.193714 4:69.6748 5:71.2695 6:34.1193 7:20.9457 
0.01156104326011442 1:7.35355 2:7.50066 3:3.12545 4:11.0959 5:11.3044 6:4.41494 7:300.138 
0.01151064298960129 1:1.96848 2:2.0387 3:1.5282 4:65.2289 5:66.844 6:34.6835 7:24.3479 
0.01155306080275531 1:4.32288 2:4.57569 3:5.56796 4:36.6001 5:37.7553 6:25.0448 7:1435.93 
0.005530004370713359 1:1.37553 2:1.40378 3:0.601068 4:12.8306 5:13.0435 6:4.46974 7:1.27782 8:1 
0.01155074308214177 1:0.160267 2:0.153309 3:0.160006 4:33.9994 5:34.8052 6:17.2683 7:231.45 
0.01003218488819826 1:2.69825 2:2.80574 3:2.34724 4:63.2244 5:64.8711 6:35.44 7:16.2294 
0.0100674891980041 1:2.21952 2:2.30495 3:1.86374 4:60.7624 5:62.4145 6:35.6188 7:15.0394 8:1 
0.01130859213401252 1:1.48211 2:1.51731 3:0.754322 4:56.9956 5:58.5733 6:34.0402 7:8.65345 
0.01064384991775863 1:1.17196 2:1.21866 3:1.01963 4:53.6768 5:55.1852 6:32.5628 7:11.0174 
0.01154233858878756 1:0.524117 2:0.538174 3:0.302795 4:33.631 5:34.5666 6:20.1906 7:606.836 
0.01150912545020122 1:0.515816 2:0.537582 3:0.476007 4:48.6137 5:49.9625 6:29.1024 7:4.4169 
0.009978713238446735 1:1.03303 2:1.06253 3:0.637337 4:29.7271 5:30.4385 6:15.2538 7:6.89657 
0.01145719825208225 1:1.1654 2:1.2148 3:1.08035 4:44.5189 5:45.75 6:26.5591 7:2.02315 
0.01135465074407248 1:0.412123 2:0.420351 3:0.174759 4:22.8055 5:23.3072 6:10.7144 7:17.186 
0.01153221885601159 1:0.00523996 2:0.00532126 3:0.00169224 4:3.0647 5:3.11205 6:0.989506 7:107.785 8:1 
0.00413179612134394 1:0.23936 2:0.243372 3:0.0843239 4:16.0003 5:16.2964 6:6.26473 7:12.2397 
0.01153620882631919 1:0.192158 2:0.208572 3:0.363605 4:40.5454 5:41.6403 6:23.5965 7:2.98896 8:1 
0.001985684838815861 1:0.0400734 2:0.0413275 3:0.0272191 4:9.52522 5:9.67857 6:3.21426 7:2.99126 8:1 
0.01154324202014639 1:22.3348 2:23.2239 3:19.4154 4:59.7905 5:61.458 6:35.9878 7:1606.3 
0.005353313494180809 1:0.0854836 2:0.0946274 3:0.203117 4:34.0305 5:34.908 6:18.8757 7:1.33565 
0.007587056243022361 1:2.07852 2:2.11083 3:0.67545 4:6.56023 5:6.66169 6:2.12044 7:4.22817 
0.01155163284156024 1:0.276031 2:0.282413 3:0.136408 4:36.7305 5:37.7017 6:20.9139 7:222.356 
0.005059521388574776 1:0.279085 2:0.283914 3:0.10169 4:5.83566 5:5.92731 6:1.91756 7:4.99102 
0.0112694965751306 1:0.836372 2:0.807274 3:0.672462 4:113.414 5:117.645 6:92.2182 7:121.338 
0.004313770483043322 1:0.66811 2:0.692802 3:0.53801 4:32.2516 5:33.081 6:17.8412 7:2.67988 
0.01128027714657504 1:2.54546 2:2.65652 3:2.43066 4:108.778 5:112.855 6:88.8844 7:48.4106 
0.01017381518343607 1:0.0292816 2:0.0302525 3:0.0210824 4:11.8584 5:12.0517 6:4.05587 7:17.8613 8:1 
0.01132146268545542 1:3.45482 2:3.62376 3:3.70772 4:102.447 5:106.33 6:84.6693 7:100.713 
0.007144299184214751 1:0.637857 2:0.65329 3:0.331011 4:28.2997 5:29.0045 6:15.139 7:1.71883 
0.003627241418227789 1:0.0179338 2:0.0182114 3:0.00580263 4:6.26715 5:6.364 6:2.02393 7:0.0545569 8:1 
0.0005527813669645941 1:0.237385 2:0.24576 3:0.182295 4:27.0494 5:27.7171 6:14.3345 7:2.22052 8:1 
0.0113294739494737 1:0.121468 2:0.130394 3:0.197411 4:93.5535 5:97.0725 6:76.7143 7:23.2774 
0.01173839034998669 1:6.18278 2:6.45026 3:5.85328 4:80.6363 5:83.6305 6:65.2488 7:41.5504 
0.005096864606844875 1:0.525589 2:0.549059 3:0.514011 4:25.1359 5:25.7435 6:13.0351 7:1.04503 
0.0115628950707527 1:1.97819 2:2.06181 3:1.82894 4:64.7689 5:67.1054 6:50.8742 7:137.438 8:1 
0.003326199779517831 1:0.0116768 2:0.00918388 3:0.0562191 4:22.6587 5:23.1927 6:11.442 7:1.28612 
0.01155889049179165 1:0.0711555 2:0.0664444 3:0.107269 4:44.2346 5:45.6793 6:31.3562 7:198.355 
0.001356062112111888 1:0.70602 2:0.727541 3:0.465993 4:20.4529 5:20.9194 6:9.97839 7:3.17499 8:1 
0.011555730052833 1:1.31159 2:1.37893 3:1.47925 4:44.8315 5:46.2913 6:31.6821 7:64.5025 
0.01155722249431135 1:0.30864 2:0.267612 3:0.927437 4:42.1353 5:43.1919 6:22.6998 7:1811.77 
0.008320685088732759 1:0.21171 2:0.220633 3:0.195144 4:16.8419 5:17.1902 6:7.41339 7:7.81168 
0.01200339334862227 1:11.0378 2:11.5254 3:10.6769 4:10.2815 5:10.6418 6:7.83766 7:472.579 
0.01123043631316728 1:1.57832 2:1.65698 3:1.72722 4:80.4832 5:82.8493 6:51.1656 7:10.829 8:1 
0.01158006327100224 1:0.813034 2:0.840935 3:0.606668 4:36.417 5:37.5911 6:25.4718 7:127.434 
0.004721704236942252 1:1.04331 2:1.08421 3:0.892772 4:16.0253 5:16.3399 6:6.67769 7:12.6885 
0.01136018437541816 1:0.503426 2:0.536659 3:0.733471 4:68.7291 5:70.8527 6:46.0063 7:25.5794 
0.01157204370664139 1:0.0216866 2:0.024292 3:0.057991 4:27.693 5:28.4981 6:17.4029 7:18.5172 
0.01155218464343899 1:1.49156 2:1.53874 3:1.02325 4:60.2315 5:62.0897 6:40.2526 7:5.82592 
0.007549891982567719 1:0.45363 2:0.468274 3:0.317739 4:14.9332 5:15.2092 6:5.83802 7:8.18007 
0.01111743693180824 1:0.158054 2:0.144684 3:0.303604 4:51.4877 5:53.0516 6:33.8589 7:8.05474 
0.008555177708395013 1:0.886574 2:0.922977 3:0.795546 4:19.8461 5:20.3253 6:10.2781 7:5.72478 
0.01181683994772553 1:1.08014 2:1.12533 3:0.988024 4:44.0501 5:45.3612 6:28.3646 7:14.4114 
0.01157737490641858 1:0.288422 2:0.292973 3:0.095192 4:36.6787 5:37.7522 6:23.2117 7:357.826 
0.007721240488823111 1:0.0731168 2:0.068418 3:0.0679617 4:5.3499 5:4.54772 6:8.47347 7:9.95116 
0.006901692629711242 1:0.165302 2:0.178577 3:0.29384 4:32.8453 5:33.7763 6:20.1049 7:2.39956 8:1 
0.00614524755102891 1:0.628981 2:0.648994 3:0.434063 4:29.0357 5:29.8289 6:17.1027 7:3.9799 8:1 
0.0006915886929060311 1:0.0116558 2:0.0118418 3:0.00387931 4:8.99832 5:9.13789 6:2.91755 7:0.0193543 8:1 
0.00448476123740672 1:0.134796 2:0.135525 3:0.0131073 4:25.6417 5:26.3134 6:14.4597 7:2.03313 8:1 
0.004869995035936262 1:0.148155 2:0.1528 3:0.100708 4:23.065 5:23.6437 6:12.4341 7:2.75115 8:1 
1 
0.01120063651834818 1:6.45078 2:6.71456 3:5.76385 4:27.7779 5:28.6587 6:19.0972 7:735.282 
0.003282334476823008 1:0.163471 2:0.167595 3:0.0887117 4:20.2437 5:20.7213 6:10.2336 7:0.980475 8:1 
0.005707871060058878 1:0.261372 2:0.271944 3:0.230915 4:18.4716 5:18.8805 6:8.73253 7:4.25466 
0.01117981865297973 1:0.00430202 2:0.00438118 3:0.00164557 4:12.4799 5:12.6775 6:4.13692 7:178.574 
0.002149342277467325 1:0.241794 2:0.247966 3:0.132789 4:15.0989 5:15.3973 6:6.3355 7:0.326891 8:1 
0.004876349854581465 1:0.00785542 2:0.00798798 3:0.00273752 4:12.3505 5:12.5464 6:4.10195 7:0.00693106 8:1 
0.004129552815946395 1:0.00192738 2:0.00162888 3:0.00330544 4:10.2465 5:8.47473 6:18.0265 7:0.0501969 
0.01110085528213139 1:1.04538 2:0.910515 3:1.45857 4:44.5046 5:39.3222 6:60.3517 7:59.2182 
1 8:1 
0.003170904449477868 1:0.0541372 2:0.0549822 3:0.0176783 4:7.63254 5:7.7506 6:2.46751 7:2.93163 8:1 
0.0115529056267844 1:0.742939 2:0.767509 3:0.533539 4:46.5746 5:47.4436 6:18.3899 7:6.88688 
0.00927600652925047 1:0.092288 2:0.094512 3:0.0477123 4:12.8025 5:13.0152 6:4.46677 7:14.156 8:1 
0.01148562640490445 1:0.257355 2:0.261208 3:0.0803776 4:39.3881 5:40.2278 6:17.9014 7:8.16896 8:1 
0.009721418962425392 1:0.243839 2:0.250256 3:0.138002 4:35.2788 5:36.0439 6:16.327 7:2.74141 8:1 
0.001388112143860643 1:0.0178761 2:0.0181522 3:0.00578809 4:6.38623 5:6.48493 6:2.0626 7:0.0856221 
0.008978135948006088 1:0.496267 2:0.503784 3:0.156734 4:31.3779 5:32.066 6:14.6916 7:3.2702 8:1 
0.01036624464654183 1:0.0758719 2:0.0626087 3:0.133874 4:7.63646 5:6.31692 6:13.4321 7:8.36005 8:1 
0.001770757673027756 1:0.000225067 2:0.000228882 3:0.00010252 4:10.669 5:10.8357 6:3.48687 7:0.0167744 
0.00788358422644931 1:0.0674572 2:0.0689354 3:0.0315619 4:26.7548 5:27.3347 6:12.3727 7:3.71583 
0.005796949991539346 1:0.790508 2:0.812536 3:0.475322 4:23.2438 5:23.7399 6:10.577 7:3.162 
0.004431304035922583 1:0.0452538 2:0.0513783 3:0.136257 4:20.9159 5:21.3566 6:9.38956 7:0.980212 8:1 
0.01152933310420928 1:0.00565338 2:0.00575733 3:0.0021925 4:12.4172 5:12.6154 6:4.1534 7:39.7877 
0.004632123091117324 1:0.0238781 2:0.0225658 3:0.0300064 4:19.1986 5:19.591 6:8.3474 7:0.81738 8:1 
1 8:1 
0.004045086564156383 1:0.403717 2:0.412882 3:0.196014 4:17.5805 5:17.929 6:7.39919 7:1.45728 8:1 
0.01116608832969718 1:2.31788 2:2.19928 3:3.30815 4:62.0329 5:53.1907 6:103.994 7:61.2478 8:1 
0.0109926491658176 1:2.26873 2:2.08146 3:3.43213 4:65.0599 5:56.1356 6:108.115 7:21.066 8:1 
0.00535728762836748 1:0.344728 2:0.353983 3:0.199453 4:16.3109 5:16.6245 6:6.64771 7:1.11152 8:1 
0.0009045327502060774 1:0.173024 2:0.14313 3:0.304327 4:3.92228 5:3.24382 6:6.90101 7:2.77099 
0.01113377100545421 1:0.711899 2:0.584564 3:1.26395 4:55.6023 5:47.536 6:93.5968 7:29.22 8:1 
0.01123204733509792 1:3.72952 2:3.49004 3:5.45555 4:69.9846 5:60.9657 6:114.715 7:30.6082 8:1 
0.01115794657159647 1:0.297351 2:0.305149 3:0.167894 4:15.0453 5:15.3247 6:5.91035 7:772.616 8:1 
0.01106541848180631 1:1.42688 2:1.31227 3:2.14995 4:58.6316 5:50.5155 6:97.6336 7:28.1621 8:1 
0.01044217689923571 1:2.554 2:2.36349 3:3.8083 4:76.7564 5:67.5827 6:123.857 7:56.7992 
0.01114270575488352 1:1.50713 2:1.38568 3:2.2719 4:61.2931 5:53.153 6:101.126 7:28.3616 8:1 
0.01082830385677624 1:2.45462 2:2.37801 3:3.36969 4:75.7206 5:66.766 6:121.925 7:23.7947 8:1 
0.01123942285529633 1:0.405853 2:0.535572 3:0.168839 4:65.629 5:57.3847 6:106.994 7:24.1628 8:1 
0.01084163668863736 1:2.11906 2:2.02254 3:2.99189 4:77.7509 5:68.9094 6:124.231 7:20.4347 8:1 
0.01140588675515797 1:2.2674 2:2.13848 3:3.27126 4:70.7153 5:62.4057 6:113.721 7:13.6391 8:1 
0.01188452973145315 1:1.5965 2:1.55715 3:2.16315 4:82.4267 5:73.5643 6:130.309 7:29.9946 8:1 
0.0113538885609028 1:2.99115 2:2.91166 3:4.06842 4:83.2846 5:74.6677 6:130.744 7:18.6451 8:1 
0.01069558912699542 1:1.78656 2:1.67317 3:2.60973 4:84.0632 5:75.6379 6:131.224 7:13.4042 8:1 
0.00404758590765758 1:0.30854 2:0.185612 3:1.07301 4:2.61406 5:2.19654 6:4.33456 7:6.53275 
0.003774407229053311 1:0.0224171 2:0.0227842 3:0.00771332 4:10.1778 5:10.3364 6:3.31689 7:0.018596 8:1 
0.0008213561965523328 1:0.00222874 2:0.00227165 3:0.000866413 4:13.5476 5:13.7656 6:4.56997 7:0.001603 
0.005222819723692599 1:0.0203371 2:0.0206547 3:0.00665283 4:7.73075 5:7.85036 6:2.49987 7:0.0370824 
0.01070047616578524 1:0.523506 2:0.4879 3:0.771225 4:88.6853 5:80.3219 6:137.007 7:16.5202 8:1 
0.008683741093823943 1:0.00867462 2:0.00882626 3:0.00320578 4:10.3257 5:10.4873 6:3.38061 7:5.72531 
0.00880686435269179 1:0.556969 2:0.534187 3:0.779358 4:86.396 5:78.3243 6:133.264 7:6.10996 
0.007715759073667564 1:0.129364 2:0.0797653 3:0.301895 4:87.5069 5:79.5921 6:134.267 7:13.8767 8:1 
0.008644372511070222 1:0.412651 2:0.423096 3:0.502869 4:89.2369 5:81.7417 6:135.35 7:4.9314 8:1 
0.01116726223019504 1:1.03487 2:0.951332 3:1.56035 4:71.7925 5:63.5028 6:115.054 7:18.7455 8:1 
0.007727976166198374 1:1.27546 2:1.31206 3:1.54259 4:88.9203 5:81.6351 6:134.37 7:11.9529 8:1 
0.01031504421420348 1:1.11439 2:1.0826 3:1.52164 4:76.9096 5:68.6752 6:121.492 7:56.2457 8:1 
0.005450783504745982 1:1.26958 2:1.22303 3:1.76175 4:88.7424 5:81.7074 6:133.458 7:4.07134 
0.01149915836216114 1:1.65475 2:1.59417 3:2.29605 4:79.2687 5:71.1281 6:124.274 7:14.3626 8:1 
0.005206833128013955 1:0.347893 2:0.350182 3:0.441742 4:87.8781 5:81.0264 6:131.845 7:3.5861 8:1 
0.01124146948510635 1:1.11664 2:1.0403 3:1.64609 4:79.735 5:71.8243 6:124.248 7:4.98184 
0.005455736924028595 1:1.25972 2:1.20762 3:1.76424 4:86.451 5:79.8494 6:129.326 7:1.90078 8:1 
0.0118176719366454 1:1.68148 2:1.62777 3:2.31171 4:81.9288 5:74.1355 6:126.752 7:64.3561 8:1 
0.01056411409375773 1:0.439758 2:0.452332 3:0.531967 4:83.8737 5:76.3074 6:128.638 7:15.6386 8:1 
0.008164709834308947 1:3.20004 2:3.1089 3:4.36911 4:87.0836 5:80.6495 6:129.683 7:8.29449 8:1 
0.00194542212649539 1:0.53904 2:0.510002 3:0.773323 4:85.8942 5:79.6475 6:127.641 7:6.71437 8:1 
0.009804848132203892 1:1.22531 2:1.19014 3:1.67373 4:83.7115 5:76.2608 6:128.113 7:6.71767 8:1 
0.01051552996241581 1:2.23637 2:2.15541 3:3.10051 4:84.5453 5:78.5041 6:125.343 7:2.61656 8:1 
0.005785856066907458 1:2.42105 2:2.36662 3:3.26601 4:86.3452 5:79.0648 6:131.041 7:6.7823 8:1 
0.00435851394390413 1:0.382996 2:0.387268 3:0.481544 4:83.3773 5:77.4638 6:123.491 7:5.99895 8:1 
0.00150503778023121 1:0.853027 2:0.778625 3:1.30135 4:85.8981 5:78.8339 6:129.875 7:7.25957 8:1 
0.007808227862477186 1:1.48363 2:1.38587 3:2.17709 4:87.7275 5:80.8588 6:131.698 7:13.7636 8:1 
0.005211666925597658 1:0.558228 2:0.533859 3:0.785278 4:87.8494 5:81.1355 6:131.432 7:7.49353 8:1 
0.007152743751640886 1:0.814545 2:0.853249 3:0.943222 4:87.0146 5:80.5212 6:129.756 7:10.4203 8:1 
0.00201463526483883 1:1.47619 2:1.45023 3:1.97165 4:86.8931 5:80.6233 6:128.99 7:3.29202 8:1 
0.01042296239830792 1:0.697113 2:0.615097 3:1.12132 4:72.9729 5:66.4575 6:111.735 7:10.0299 8:1 
0.003303782972352311 1:0.0110803 2:0.00916481 3:0.0194921 4:4.39006 5:3.63059 6:7.72427 7:0.000292559 
0.008717895660314834 1:0.924538 2:0.936943 3:1.15668 4:82.1077 5:76.4135 6:121.258 7:7.86353 8:1 
0.008446324725575383 1:0.698227 2:0.67955 3:0.950027 4:80.715 5:75.176 6:119.041 7:2.6687 8:1 
0.0009868151802688296 1:0.0102911 2:0.0104609 3:0.00355005 4:10.1268 5:10.2845 6:3.29739 7:0.0281237 
0.0006262978672068511 1:0.99202 2:0.981163 3:1.30702 4:87.2413 5:81.1004 6:129.086 7:8.79356 8:1 
0.009021609878867352 1:1.16296 2:1.11389 3:1.63133 4:80.0348 5:74.6271 6:117.807 7:9.30205 8:1 
0.007721832317151428 1:0.18541 2:0.252838 3:0.054863 4:86.7826 5:80.8286 6:127.986 7:1.94726 8:1 
0.003534012143444232 1:0.581123 2:0.579269 3:0.753342 4:78.9124 5:73.6807 6:115.882 7:3.64179 8:1 
0.003456113189033105 1:0.543968 2:0.543304 3:0.702248 4:74.5323 5:68.1219 6:113.457 7:7.63797 8:1 
0.005082104697028134 1:1.87835 2:1.86866 3:2.44513 4:86.8659 5:81.1183 6:127.53 7:7.16093 8:1 
0.005807607325519493 1:0.284584 2:0.299591 3:0.325546 4:75.2418 5:69.0367 6:113.81 7:7.34894 8:1 
0.006117639357577254 1:0.467758 2:0.378357 3:0.846161 4:85.8156 5:80.2343 6:125.725 7:6.10898 8:1 
0.003637673301461554 1:1.32189 2:1.2383 3:1.93018 4:76.5494 5:71.5617 6:112.174 7:5.85664 8:1 
0.008411174922433262 1:0.556824 2:0.544212 3:0.751381 4:76.123 5:70.021 6:114.664 7:3.16447 
0.01155352738952615 1:1.35899 2:1.32776 3:1.83515 4:85.4208 5:80.039 6:124.672 7:21.8154 
0.005300933905392657 1:0.368355 2:0.379219 3:0.444733 4:74.8921 5:70.0711 6:109.585 7:5.29467 8:1 
0.007297362474244553 1:0.932861 2:0.938286 3:1.18642 4:84.5884 5:79.3309 6:123.261 7:7.48413 
0.003337164910562906 1:1.10338 2:1.07237 3:1.50535 4:74.4784 5:69.7496 6:108.801 7:4.07672 
0.008348220327597883 1:0.177094 2:0.243179 3:0.0477905 4:83.3576 5:78.2611 6:121.237 7:3.43601 8:1 
0.006541063385243835 1:0.534035 2:0.575645 3:0.574188 4:72.8499 5:68.2679 6:106.304 7:3.93609 8:1 
0.0043370535139301 1:0.742325 2:0.74501 3:0.948547 4:77.1285 5:71.4699 6:114.749 7:8.14813 8:1 
0.007023018156786354 1:1.12084 2:0.926695 3:1.98489 4:4.3531 5:3.62635 6:7.58141 7:4.13136 
0.00401049972172185 1:0.222496 2:0.238579 3:0.242661 4:81.9298 5:77.113 6:118.636 7:3.54157 8:1 
0.008124087065874601 1:0.316589 2:0.305687 3:0.437431 4:71.4387 5:66.9459 6:104.243 7:9.18564 8:1 
0.01141006757172824 1:0.350388 2:0.273636 3:0.660484 4:77.3649 5:71.8723 6:114.601 7:17.1615 8:1 
0.007178771627415648 1:0.239609 2:0.219009 3:0.364662 4:80.6301 5:75.9551 6:116.576 7:6.45956 8:1 
0.003399204834654553 1:1.59595 2:1.53019 3:2.23442 4:78.1688 5:72.7991 6:115.301 7:6.57131 8:1 
0.001203056981292208 1:0.162605 2:0.183678 3:0.151886 4:79.7451 5:75.1888 6:115.112 7:4.46248 8:1 
0.007700007796601527 1:0.19622 2:0.246284 3:0.116135 4:69.6018 5:65.194 6:101.646 7:3.3165 8:1 
0.0008560384311611978 1:1.28043 2:1.20439 3:1.85612 4:76.5754 5:71.449 6:112.586 7:4.2565 8:1 
0.002208630483377438 1:0.00990248 2:0.00819016 3:0.0174203 4:4.27105 5:3.53216 6:7.51492 7:0.000470304 8:1 
0.004634875036395356 1:0.254784 2:0.253685 3:0.331085 4:79.0259 5:74.5759 6:113.896 7:4.52367 8:1 
0.005145639293545338 1:1.78714 2:1.75677 3:2.38407 4:77.6249 5:72.5464 6:113.806 7:7.75906 8:1 
0.01094836946705846 1:0.898994 2:0.856163 3:1.27442 4:67.3235 5:63.0766 6:98.2733 7:8.0611 8:1 
0.0009240188225841939 1:0.477837 2:0.48307 3:0.60099 4:77.8035 5:73.4677 6:112.011 7:3.39823 8:1 
0.005424068148655481 1:0.221687 2:0.239174 3:0.23777 4:77.6486 5:72.7116 6:113.451 7:2.06132 
0.01174730463375906 1:1.22737 2:1.1957 3:1.66684 4:64.5892 5:60.508 6:94.3006 7:22.0947 8:1 
